~o
<STREAMINFO> 1 39
<VECSIZE> 39<NULLD><MFCC_D_A_0><DIAGC>
~h "@"
<BEGINHMM>
<NUMSTATES> 5
<STATE> 2
<MEAN> 39
 -3.001042e+00 -4.012299e+00 2.171653e-01 -7.913152e+00 -8.411536e+00 -4.087747e+00 -1.364850e+01 -2.992309e+00 -2.163826e+00 -1.241707e-03 -5.208563e-01 -5.974565e+00 6.261583e+01 1.664418e+00 -8.463892e-01 4.183799e-01 -1.171122e+00 -8.073642e-01 5.028883e-01 -1.306603e+00 6.253844e-01 4.536647e-01 6.850692e-01 6.434818e-01 -8.093252e-01 1.662470e+00 -3.051634e-01 2.362887e-01 6.214686e-02 3.898365e-01 1.077079e-01 1.075822e-01 4.352607e-01 -1.648114e-01 -1.782607e-01 -1.455991e-01 -1.416225e-01 1.389707e-01 -6.703129e-01
<VARIANCE> 39
 4.320927e+01 4.772787e+01 5.308839e+01 7.162091e+01 5.471642e+01 7.264598e+01 8.718842e+01 6.752990e+01 6.423358e+01 4.724344e+01 4.931636e+01 4.102441e+01 1.314820e+02 6.291689e+00 4.317581e+00 5.902308e+00 5.670532e+00 5.629289e+00 5.345420e+00 6.601262e+00 7.218775e+00 6.823764e+00 4.569888e+00 4.855825e+00 3.929175e+00 7.527826e+00 9.195342e-01 7.574313e-01 8.955830e-01 1.029799e+00 8.435387e-01 8.882551e-01 1.194432e+00 1.070538e+00 9.076656e-01 7.609077e-01 8.393535e-01 6.950452e-01 1.650034e+00
<GCONST> 1.466238e+02
<STATE> 3
<MEAN> 39
 -4.214043e-01 -5.982690e+00 1.019796e+00 -9.978729e+00 -1.003559e+01 -3.135198e+00 -1.585063e+01 -1.683268e+00 -1.696205e+00 9.687786e-01 7.276618e-01 -7.189756e+00 6.669034e+01 7.515118e-01 -7.658240e-02 3.503198e-01 1.204609e-02 -3.059014e-01 4.215623e-01 -3.982982e-02 5.238219e-02 5.943016e-02 1.321006e-01 1.834684e-01 -2.737481e-01 -2.165054e-02 -5.178037e-01 5.222914e-01 3.893018e-02 7.355549e-01 3.030804e-01 -9.077241e-02 6.624140e-01 -4.248517e-01 -2.524813e-01 -3.050574e-01 -3.586476e-01 3.027384e-01 -9.395688e-01
<VARIANCE> 39
 2.312592e+01 4.832389e+01 5.840857e+01 7.931300e+01 5.839325e+01 7.418684e+01 8.646243e+01 8.306526e+01 8.471695e+01 5.556236e+01 5.624384e+01 4.520717e+01 6.583625e+01 2.530410e+00 3.860736e+00 3.433333e+00 5.127668e+00 4.417637e+00 4.870769e+00 5.248143e+00 6.135659e+00 5.769055e+00 4.074386e+00 4.161892e+00 3.233286e+00 5.972517e+00 6.837448e-01 7.045147e-01 9.651323e-01 1.127220e+00 8.918889e-01 8.828337e-01 1.155054e+00 1.339408e+00 1.155493e+00 8.773038e-01 9.398202e-01 7.574843e-01 9.161140e-01
<GCONST> 1.432445e+02
<STATE> 4
<MEAN> 39
 -1.015701e+00 -4.103580e+00 1.829265e+00 -8.119744e+00 -1.074842e+01 -4.369815e+00 -1.429533e+01 -2.527925e+00 -1.983418e+00 7.929396e-01 -1.071985e-01 -6.335098e+00 6.351623e+01 9.920882e-02 6.166039e-01 2.584060e-01 7.504297e-01 1.384640e-01 1.360517e-01 6.037630e-01 -4.695791e-01 -1.864555e-01 -2.458357e-01 -3.184435e-01 7.993643e-02 -1.051133e+00 -2.648537e-01 1.953880e-01 2.567360e-02 2.744633e-01 1.182086e-01 -7.966099e-02 2.113669e-01 -1.639303e-01 -8.977647e-02 -1.265704e-01 -1.641269e-01 1.449727e-01 -2.932676e-01
<VARIANCE> 39
 2.824767e+01 5.683584e+01 6.691586e+01 7.600690e+01 6.628082e+01 6.673071e+01 8.819392e+01 7.898031e+01 8.432436e+01 5.674661e+01 5.463248e+01 4.309935e+01 1.069849e+02 1.632815e+00 3.222759e+00 2.687339e+00 4.275979e+00 3.295013e+00 3.571837e+00 4.067320e+00 4.425496e+00 4.118423e+00 3.320904e+00 3.221619e+00 2.628125e+00 4.982452e+00 4.426121e-01 5.559435e-01 5.728703e-01 7.702177e-01 6.993016e-01 6.395004e-01 7.879798e-01 9.951092e-01 8.256108e-01 6.483141e-01 6.743896e-01 5.556160e-01 7.192619e-01
<GCONST> 1.363574e+02
<TRANSP> 5
 0.000000e+00 1.000000e+00 0.000000e+00 0.000000e+00 0.000000e+00
 0.000000e+00 3.558744e-01 6.441255e-01 0.000000e+00 0.000000e+00
 0.000000e+00 0.000000e+00 2.770040e-01 7.229959e-01 0.000000e+00
 0.000000e+00 0.000000e+00 0.000000e+00 4.842512e-01 5.157488e-01
 0.000000e+00 0.000000e+00 0.000000e+00 0.000000e+00 0.000000e+00
<ENDHMM>
~h "a"
<BEGINHMM>
<NUMSTATES> 5
<STATE> 2
<MEAN> 39
 -1.319143e+00 -1.298276e+01 -3.997982e+00 -1.320887e+01 -7.135774e+00 6.494949e-01 -1.151172e+01 2.800147e+00 1.260849e+00 -3.020082e+00 -3.493630e+00 -1.150389e+01 7.033894e+01 3.714209e-01 -1.678681e+00 -7.444714e-01 -7.407876e-01 9.698890e-01 9.465384e-01 3.606479e-01 8.360471e-01 4.550530e-01 -6.687059e-01 -8.382944e-01 -1.290214e+00 1.223364e+00 -2.756991e-01 5.196337e-01 2.802974e-01 5.026734e-01 8.536129e-02 -2.834462e-01 9.236703e-02 -4.761489e-01 -3.397091e-01 1.460544e-02 5.818033e-02 4.813702e-01 -6.253878e-01
<VARIANCE> 39
 2.060558e+01 4.109570e+01 4.927273e+01 5.358865e+01 5.686300e+01 6.669130e+01 5.673869e+01 7.387247e+01 6.205113e+01 5.444880e+01 5.790477e+01 4.577364e+01 7.432596e+01 1.937626e+00 2.764781e+00 2.797485e+00 3.236170e+00 3.495955e+00 3.987699e+00 3.736225e+00 4.897162e+00 3.352167e+00 3.436847e+00 3.795358e+00 3.225799e+00 3.616740e+00 4.545003e-01 4.949238e-01 4.658292e-01 5.938450e-01 6.039050e-01 6.734276e-01 6.785459e-01 8.429011e-01 6.271361e-01 6.230558e-01 7.408837e-01 5.941460e-01 6.949390e-01
<GCONST> 1.324933e+02
<STATE> 3
<MEAN> 39
 -8.001264e-01 -1.540719e+01 -4.826542e+00 -1.380556e+01 -4.851084e+00 1.957617e+00 -1.085787e+01 3.188214e+00 1.383719e+00 -4.438858e+00 -4.771881e+00 -1.331570e+01 7.206506e+01 9.737337e-02 3.115872e-01 8.610763e-02 3.162703e-01 2.762880e-01 -2.860461e-01 1.655891e-01 -7.764343e-02 -1.923448e-01 4.215983e-02 -2.243789e-01 1.868490e-01 -5.635713e-01 -9.564438e-03 6.134149e-01 2.565958e-01 3.110731e-01 -2.517397e-01 -2.626872e-01 -8.540656e-02 -2.794687e-01 -1.654370e-01 2.404141e-01 1.833228e-01 3.886162e-01 -5.515999e-01
<VARIANCE> 39
 1.230198e+01 3.397049e+01 4.222166e+01 4.669075e+01 4.711992e+01 5.383345e+01 5.145493e+01 6.395839e+01 5.737436e+01 5.457057e+01 5.437717e+01 4.259368e+01 3.914383e+01 6.257127e-01 2.047378e+00 1.511817e+00 1.828151e+00 2.296316e+00 3.174005e+00 2.330522e+00 3.188952e+00 2.136555e+00 2.667992e+00 2.681507e+00 2.267199e+00 2.144714e+00 1.492328e-01 3.172636e-01 2.785585e-01 3.762581e-01 3.858232e-01 4.307181e-01 4.859200e-01 6.072193e-01 4.505799e-01 4.904193e-01 5.111696e-01 4.284186e-01 2.720730e-01
<GCONST> 1.176141e+02
<STATE> 4
<MEAN> 39
 -2.445500e+00 -9.794627e+00 -5.237685e+00 -9.334051e+00 -4.282252e+00 -5.478090e-01 -8.967357e+00 1.007330e+00 -4.302677e-01 -4.186751e+00 -5.718324e+00 -9.519551e+00 6.165760e+01 -4.809207e-02 9.679223e-01 3.844385e-01 6.304454e-01 -2.065761e-01 -4.174995e-01 6.891248e-02 -4.494978e-01 -3.169515e-01 2.642038e-01 6.021285e-02 5.388745e-01 -1.320558e+00 -4.481984e-02 1.659717e-01 1.446226e-01 1.092390e-01 -6.653776e-02 -1.447947e-02 -3.840651e-02 -1.452719e-01 -4.962530e-02 4.604493e-02 7.418382e-02 7.513472e-02 -1.130796e-01
<VARIANCE> 39
 3.058938e+01 5.082954e+01 4.783608e+01 5.660329e+01 5.194456e+01 5.183559e+01 5.694825e+01 5.568436e+01 4.961133e+01 4.841966e+01 4.517558e+01 5.022253e+01 1.874336e+02 8.419397e-01 2.124093e+00 1.706143e+00 2.203912e+00 2.324210e+00 2.302755e+00 2.425345e+00 2.842590e+00 2.310297e+00 2.410302e+00 2.284829e+00 2.083216e+00 2.552842e+00 1.633569e-01 3.401498e-01 2.790298e-01 3.808908e-01 3.840785e-01 3.899824e-01 4.429584e-01 5.328341e-01 4.175489e-01 4.580537e-01 4.295565e-01 3.658631e-01 3.754238e-01
<GCONST> 1.204048e+02
<TRANSP> 5
 0.000000e+00 1.000000e+00 0.000000e+00 0.000000e+00 0.000000e+00
 0.000000e+00 5.823544e-01 4.176457e-01 0.000000e+00 0.000000e+00
 0.000000e+00 0.000000e+00 6.405790e-01 3.594210e-01 0.000000e+00
 0.000000e+00 0.000000e+00 0.000000e+00 7.721532e-01 2.278468e-01
 0.000000e+00 0.000000e+00 0.000000e+00 0.000000e+00 0.000000e+00
<ENDHMM>
~h "b"
<BEGINHMM>
<NUMSTATES> 5
<STATE> 2
<MEAN> 39
 3.408738e+00 6.075070e+00 4.056062e+00 -2.579834e+00 -5.095663e+00 1.602418e+00 -7.518400e+00 -7.645197e+00 -7.807415e+00 -2.832150e+00 -2.231290e+00 -7.120359e+00 4.857200e+01 7.719634e-01 1.421551e+00 3.574371e-01 3.856249e-01 5.878799e-01 3.891608e-01 7.684008e-01 -3.641012e-01 -2.461073e-01 -5.870691e-02 -3.443088e-01 -9.764811e-02 -1.074857e+00 -3.261804e-01 -4.792770e-01 -1.935259e-01 -2.948685e-01 -2.008230e-01 -1.862250e-01 -3.024894e-01 1.401650e-01 2.189358e-01 6.014629e-02 1.676544e-01 1.162142e-01 6.793540e-01
<VARIANCE> 39
 4.945195e+01 4.271135e+01 3.221845e+01 3.847302e+01 3.167401e+01 4.187275e+01 5.652982e+01 4.378650e+01 5.558204e+01 3.461266e+01 4.451748e+01 3.361060e+01 6.745248e+01 2.331216e+00 3.130915e+00 2.828418e+00 3.374147e+00 2.686399e+00 2.535578e+00 3.394818e+00 3.461638e+00 3.525795e+00 2.708220e+00 3.014060e+00 2.423723e+00 5.631202e+00 3.867101e-01 5.688436e-01 4.489216e-01 5.487016e-01 5.038346e-01 4.754816e-01 6.473334e-01 6.292472e-01 6.746314e-01 5.041243e-01 6.100885e-01 4.690931e-01 6.464393e-01
<GCONST> 1.271348e+02
<STATE> 3
<MEAN> 39
 4.468583e+00 6.539579e+00 3.438165e+00 -4.003407e+00 -5.022870e+00 2.576959e+00 -8.126059e+00 -8.843309e+00 -7.396059e+00 -2.338377e+00 -8.987091e-01 -6.216481e+00 5.206732e+01 -9.211347e-01 -1.863901e+00 -1.227863e+00 -1.160279e+00 -5.093395e-01 -5.664057e-01 -1.591302e+00 2.766255e-01 1.377527e+00 6.337947e-01 1.182955e+00 3.824655e-01 2.874301e+00 -3.832304e-01 -9.011404e-01 -1.862972e-01 -3.374729e-01 -4.994301e-01 -1.730975e-01 -5.674310e-01 3.872122e-01 3.959812e-01 1.216712e-01 1.464800e-01 -2.051338e-01 1.030751e+00
<VARIANCE> 39
 2.864668e+01 4.086044e+01 2.953827e+01 4.316422e+01 3.137401e+01 4.378121e+01 5.494183e+01 4.126769e+01 5.139695e+01 3.814834e+01 5.233125e+01 3.763274e+01 6.908892e+01 2.559832e+00 5.652389e+00 4.067925e+00 7.052207e+00 4.202726e+00 4.030489e+00 6.103391e+00 4.841091e+00 6.177536e+00 4.534550e+00 5.446102e+00 4.297983e+00 8.207010e+00 4.533395e-01 7.339246e-01 7.161710e-01 9.436055e-01 8.247554e-01 7.347521e-01 1.006373e+00 9.978372e-01 1.070993e+00 8.797240e-01 1.129882e+00 1.050506e+00 1.219500e+00
<GCONST> 1.394025e+02
<STATE> 4
<MEAN> 39
 1.231986e+00 1.298953e+00 1.102502e+00 -5.733670e+00 -7.397823e+00 -8.520435e-01 -1.265955e+01 -6.817471e+00 -3.118433e+00 -3.919508e-01 4.508069e-01 -6.122478e+00 5.866699e+01 -1.096541e+00 -2.328072e+00 -6.508307e-01 -9.444049e-01 -1.190958e+00 -6.304758e-01 -1.429285e+00 1.024388e+00 1.077965e+00 1.481024e-01 5.149356e-01 -6.467007e-02 3.099815e+00 5.884167e-02 6.231352e-02 3.023855e-01 2.563368e-03 -2.033685e-01 1.863249e-01 1.800855e-01 1.324978e-01 -2.886941e-01 -2.943545e-01 -2.045912e-01 -1.363316e-01 -1.090876e-01
<VARIANCE> 39
 3.210037e+01 6.302744e+01 4.460191e+01 8.855000e+01 4.082896e+01 5.431818e+01 6.384731e+01 4.246430e+01 5.230763e+01 4.481674e+01 5.647211e+01 3.845276e+01 1.124275e+02 2.652011e+00 5.289470e+00 5.238181e+00 7.422534e+00 5.331921e+00 5.080022e+00 5.054647e+00 6.108349e+00 7.354224e+00 5.331418e+00 4.480983e+00 6.667614e+00 6.759959e+00 4.175819e-01 7.345303e-01 6.273637e-01 1.259333e+00 1.066532e+00 7.657083e-01 1.094887e+00 8.882898e-01 8.405262e-01 8.416073e-01 1.235861e+00 7.333724e-01 1.203433e+00
<GCONST> 1.434460e+02
<TRANSP> 5
 0.000000e+00 1.000000e+00 0.000000e+00 0.000000e+00 0.000000e+00
 0.000000e+00 7.291834e-01 2.708167e-01 0.000000e+00 0.000000e+00
 0.000000e+00 0.000000e+00 5.548325e-01 4.451676e-01 0.000000e+00
 0.000000e+00 0.000000e+00 0.000000e+00 4.493476e-01 5.506524e-01
 0.000000e+00 0.000000e+00 0.000000e+00 0.000000e+00 0.000000e+00
<ENDHMM>
~h "c"
<BEGINHMM>
<NUMSTATES> 5
<STATE> 2
<MEAN> 39
 -9.365092e+00 2.392331e+00 2.290176e+00 -2.648166e+00 -5.707023e+00 -6.918459e+00 -6.519053e+00 -3.113180e+00 -3.551687e+00 -3.256058e+00 -3.331236e+00 -2.601322e+00 4.791048e+01 -1.728707e+00 -1.241359e-01 -7.690110e-01 -3.235912e-01 6.554794e-01 2.423655e-02 4.490229e-01 -2.251590e-01 1.473428e-01 7.801041e-02 1.092620e-01 1.847586e-01 -6.774226e-01 -3.647268e-01 -3.442447e-01 -1.489423e-01 -3.505885e-01 -1.209016e-01 9.040080e-02 -1.203706e-01 3.259777e-02 6.138642e-03 3.892650e-02 1.444741e-01 5.535552e-02 9.095193e-01
<VARIANCE> 39
 4.968947e+01 4.924758e+01 4.382475e+01 3.625699e+01 4.488107e+01 4.923288e+01 5.055569e+01 4.473458e+01 4.075762e+01 3.204268e+01 3.180324e+01 2.762475e+01 1.280269e+02 5.648082e+00 5.968919e+00 4.004043e+00 4.037279e+00 4.396544e+00 3.498614e+00 4.133980e+00 3.597150e+00 3.561553e+00 3.054078e+00 2.782111e+00 3.065778e+00 1.513902e+01 9.027480e-01 9.340999e-01 6.921560e-01 6.453045e-01 9.007912e-01 7.281516e-01 7.878110e-01 6.474778e-01 6.458526e-01 5.913970e-01 5.100974e-01 6.628259e-01 2.073338e+00
<GCONST> 1.366720e+02
<STATE> 3
<MEAN> 39
 -2.410553e+01 2.697816e-02 -1.856818e+00 -8.595937e+00 -4.285335e+00 -6.136431e+00 -5.449885e+00 -4.164572e+00 -3.143375e+00 -2.268874e+00 -7.494000e-01 -4.825693e-02 6.018036e+01 -5.041821e-01 -2.095254e-01 8.142414e-01 -5.014448e-01 -1.274958e+00 -3.005836e-01 -2.732564e-01 4.076009e-01 6.391080e-02 -2.210363e-01 3.840843e-01 4.318652e-01 3.450634e+00 1.937005e+00 -7.856482e-02 6.771249e-01 5.020242e-01 -5.981148e-01 -1.977381e-01 -4.253568e-01 2.750376e-01 6.012771e-02 -1.247410e-01 -2.166643e-01 -3.583123e-01 -4.350967e-01
<VARIANCE> 39
 5.024936e+01 3.342603e+01 3.998303e+01 3.748287e+01 3.334322e+01 3.825134e+01 3.919323e+01 2.658188e+01 2.800027e+01 2.187311e+01 2.583655e+01 1.737077e+01 5.368320e+01 1.690710e+01 4.324287e+00 6.390951e+00 5.114482e+00 5.153626e+00 4.310886e+00 4.101529e+00 3.870606e+00 3.663269e+00 2.754500e+00 2.798657e+00 2.225574e+00 7.624928e+00 1.662382e+00 1.200723e+00 1.085918e+00 8.173926e-01 1.010276e+00 8.167890e-01 8.940859e-01 8.801563e-01 8.322494e-01 5.910208e-01 6.694072e-01 5.144851e-01 1.172235e+00
<GCONST> 1.353632e+02
<STATE> 4
<MEAN> 39
 -9.646342e+00 -3.662756e+00 4.601487e+00 -6.833345e+00 -1.157307e+01 -9.606320e+00 -9.983988e+00 2.733632e-02 -1.665428e+00 -3.710493e+00 -2.227954e+00 -1.273846e+00 6.770125e+01 4.728517e+00 -2.242241e+00 5.869581e-01 -2.194868e-01 -1.269979e+00 1.221098e-01 -1.580204e+00 1.341784e+00 5.513389e-01 1.582822e-01 -4.572667e-01 -1.350671e+00 1.758948e+00 -3.449220e-01 -1.518997e-01 -7.011828e-01 -3.751475e-01 6.450522e-01 7.054942e-01 1.610736e-01 -2.680587e-01 -1.388537e-01 2.430432e-01 1.128292e-01 -3.702043e-01 -4.836741e-01
<VARIANCE> 39
 8.118203e+01 5.044786e+01 4.265663e+01 4.620622e+01 4.414698e+01 3.271878e+01 5.142532e+01 5.220118e+01 5.397403e+01 3.354013e+01 3.718255e+01 2.467166e+01 4.393532e+01 6.301129e+00 6.292659e+00 6.694292e+00 4.681957e+00 5.709337e+00 5.020493e+00 5.766053e+00 7.474555e+00 5.470548e+00 4.104030e+00 4.644328e+00 2.915540e+00 2.200466e+00 2.099090e+00 8.419562e-01 7.233356e-01 8.358825e-01 9.103779e-01 8.161808e-01 1.009559e+00 9.345146e-01 7.601529e-01 5.711238e-01 7.076769e-01 4.497211e-01 4.624814e-01
<GCONST> 1.385679e+02
<TRANSP> 5
 0.000000e+00 1.000000e+00 0.000000e+00 0.000000e+00 0.000000e+00
 0.000000e+00 8.379475e-01 1.620525e-01 0.000000e+00 0.000000e+00
 0.000000e+00 0.000000e+00 7.321575e-01 2.678424e-01 0.000000e+00
 0.000000e+00 0.000000e+00 0.000000e+00 6.278951e-01 3.721050e-01
 0.000000e+00 0.000000e+00 0.000000e+00 0.000000e+00 0.000000e+00
<ENDHMM>
~h "d"
<BEGINHMM>
<NUMSTATES> 5
<STATE> 2
<MEAN> 39
 1.275291e+00 2.166109e+00 6.852565e+00 1.680438e+00 -8.106241e+00 -5.019188e+00 -9.957726e+00 -1.566059e+00 -1.570656e+00 -4.577454e+00 -5.404861e+00 -5.420313e+00 5.069647e+01 5.850468e-01 8.519247e-01 8.111790e-01 7.989737e-01 4.639735e-01 -3.478213e-01 6.238266e-02 1.829162e-01 1.512301e-01 -3.312536e-01 -3.221260e-01 1.420733e-01 -6.323864e-01 -4.210611e-01 -5.524899e-01 -8.470019e-02 -5.165722e-01 -1.976143e-01 5.405306e-02 -1.613886e-01 2.499727e-02 -1.418241e-01 9.171636e-03 3.459404e-01 1.585696e-01 8.043877e-01
<VARIANCE> 39
 4.886301e+01 6.232674e+01 4.640137e+01 4.326042e+01 5.746752e+01 3.263177e+01 6.673346e+01 7.124641e+01 5.038170e+01 4.184356e+01 4.320914e+01 3.621048e+01 1.028423e+02 3.803607e+00 5.329288e+00 3.191813e+00 4.361623e+00 4.564663e+00 3.070029e+00 4.400415e+00 5.707886e+00 4.098643e+00 3.410955e+00 3.800307e+00 3.060388e+00 9.046915e+00 6.787839e-01 9.033109e-01 5.027759e-01 7.350826e-01 1.060639e+00 6.216550e-01 8.637142e-01 1.146928e+00 8.215461e-01 6.806847e-01 8.300074e-01 6.372778e-01 1.338889e+00
<GCONST> 1.389119e+02
<STATE> 3
<MEAN> 39
 -2.340323e-01 -1.253732e-01 9.024191e+00 3.376253e-01 -9.134065e+00 -6.090609e+00 -1.212830e+01 -1.007622e+00 -1.788632e+00 -5.327372e+00 -3.548346e+00 -3.002561e+00 5.704549e+01 -1.605658e+00 -2.416510e+00 1.354474e-02 -1.930504e+00 -1.551234e+00 -3.253982e-01 -1.297419e+00 8.024002e-01 -2.676815e-01 1.046112e-02 1.766096e+00 9.115103e-01 3.900006e+00 -6.627826e-02 -2.705564e-01 -2.241921e-01 -4.239708e-01 -5.464135e-01 1.236223e-01 -1.565212e-01 6.966127e-02 -2.365956e-02 1.420513e-01 2.442963e-01 -3.283713e-01 5.644431e-01
<VARIANCE> 39
 3.748691e+01 5.277989e+01 3.925331e+01 4.821294e+01 6.006334e+01 4.182315e+01 7.448577e+01 6.077722e+01 5.102527e+01 3.688879e+01 4.578264e+01 3.393012e+01 9.643063e+01 3.608066e+00 4.897947e+00 4.782644e+00 5.551345e+00 7.804792e+00 4.272087e+00 6.047287e+00 1.091855e+01 7.076005e+00 4.648234e+00 5.278530e+00 3.839475e+00 8.008806e+00 8.561506e-01 9.996727e-01 6.585755e-01 9.299187e-01 1.628647e+00 8.777900e-01 1.356598e+00 1.723323e+00 1.158826e+00 8.262352e-01 1.258596e+00 8.831319e-01 1.838499e+00
<GCONST> 1.461794e+02
<STATE> 4
<MEAN> 39
 -2.726964e+00 -5.463706e+00 8.171343e+00 -4.950123e+00 -1.570691e+01 -7.126038e+00 -1.509847e+01 2.153108e+00 -1.827225e+00 -4.099905e+00 1.023003e+00 -3.047598e+00 6.655492e+01 -5.142193e-01 -1.173590e+00 -5.941874e-01 -1.425516e+00 -9.988195e-01 2.514580e-01 -2.435076e-01 6.704179e-01 1.136627e-01 1.867595e-01 5.097336e-01 -6.953140e-01 2.118659e+00 3.045397e-01 4.911570e-01 -1.031283e-01 2.894641e-01 5.029886e-01 3.398323e-01 3.926155e-01 -3.831442e-01 -5.027515e-02 -2.420749e-02 -4.912079e-01 -3.997075e-01 -7.508012e-01
<VARIANCE> 39
 2.354652e+01 5.045453e+01 6.075942e+01 5.346247e+01 7.357911e+01 3.842179e+01 8.061618e+01 9.587345e+01 7.739297e+01 4.380198e+01 5.243896e+01 2.808608e+01 8.106396e+01 2.973889e+00 3.668977e+00 5.320935e+00 4.336985e+00 7.423711e+00 3.716841e+00 6.791809e+00 9.885660e+00 6.252620e+00 4.025865e+00 6.591250e+00 3.811999e+00 6.360814e+00 3.934416e-01 5.568901e-01 4.672979e-01 6.915007e-01 1.591619e+00 6.603342e-01 1.286217e+00 1.319374e+00 8.698749e-01 6.958721e-01 9.836822e-01 6.343279e-01 9.514414e-01
<GCONST> 1.418217e+02
<TRANSP> 5
 0.000000e+00 1.000000e+00 0.000000e+00 0.000000e+00 0.000000e+00
 0.000000e+00 7.335820e-01 2.664180e-01 0.000000e+00 0.000000e+00
 0.000000e+00 0.000000e+00 5.787233e-01 4.212767e-01 0.000000e+00
 0.000000e+00 0.000000e+00 0.000000e+00 4.703259e-01 5.296741e-01
 0.000000e+00 0.000000e+00 0.000000e+00 0.000000e+00 0.000000e+00
<ENDHMM>
~h "e"
<BEGINHMM>
<NUMSTATES> 5
<STATE> 2
<MEAN> 39
 -3.715776e+00 -8.981844e+00 5.856478e+00 -7.110171e+00 -1.650960e+01 -7.834693e+00 -9.930671e+00 2.672294e+00 -2.912663e+00 -2.224558e+00 9.959145e-01 -5.124620e+00 6.536953e+01 4.048391e-02 -9.679022e-01 8.483934e-01 -6.759094e-01 -1.332855e+00 -2.113442e-01 4.507197e-01 1.142493e+00 -3.265665e-01 -6.996875e-02 4.358216e-01 -1.132561e-01 1.535414e+00 -9.569231e-02 3.955968e-01 -1.429605e-01 1.450089e-01 3.817499e-01 1.502105e-01 2.099818e-01 -3.990259e-01 -6.311321e-02 6.163565e-02 -1.402000e-01 2.323893e-02 -4.801022e-01
<VARIANCE> 39
 3.016728e+01 6.450073e+01 6.918914e+01 4.939119e+01 7.090635e+01 4.769986e+01 8.610508e+01 8.093357e+01 7.699599e+01 6.683771e+01 5.791820e+01 3.584388e+01 1.315226e+02 2.118531e+00 3.841734e+00 3.323283e+00 3.466780e+00 5.312790e+00 3.364295e+00 4.771104e+00 6.200356e+00 4.397322e+00 4.409061e+00 3.979249e+00 2.376557e+00 8.460993e+00 4.865479e-01 6.991092e-01 5.325912e-01 5.825192e-01 9.173341e-01 6.105886e-01 8.521207e-01 1.082501e+00 8.150403e-01 7.724671e-01 7.230096e-01 4.667298e-01 1.575084e+00
<GCONST> 1.395805e+02
<STATE> 3
<MEAN> 39
 -3.275589e+00 -1.056456e+01 7.817806e+00 -8.664619e+00 -1.890303e+01 -8.153934e+00 -9.061571e+00 4.217235e+00 -3.649563e+00 -2.518205e+00 2.127079e+00 -5.857343e+00 6.907098e+01 -3.185510e-03 2.886166e-01 2.972615e-03 1.590021e-01 1.305932e-01 -1.056876e-01 3.250239e-01 -1.712291e-01 -7.898114e-02 9.145226e-02 -1.789194e-01 -3.946066e-02 -4.276102e-01 2.169925e-02 2.967170e-01 -2.000731e-01 2.356648e-01 3.686661e-01 3.646126e-02 -5.769686e-02 -2.941983e-01 6.830879e-02 6.483696e-04 -1.793338e-01 3.371501e-02 -4.650161e-01
<VARIANCE> 39
 1.954796e+01 5.706159e+01 6.191831e+01 4.600871e+01 5.833390e+01 4.539063e+01 8.240057e+01 8.510361e+01 8.584044e+01 7.831242e+01 6.122543e+01 3.370381e+01 6.547966e+01 8.693271e-01 1.886035e+00 1.727495e+00 2.182302e+00 2.713427e+00 2.103267e+00 2.903649e+00 3.223496e+00 2.652511e+00 2.542845e+00 2.408193e+00 1.648389e+00 3.871987e+00 1.896601e-01 3.557474e-01 3.195363e-01 3.711144e-01 5.441491e-01 4.022752e-01 6.066377e-01 6.764347e-01 5.405962e-01 5.400189e-01 4.685293e-01 3.267749e-01 4.958343e-01
<GCONST> 1.234063e+02
<STATE> 4
<MEAN> 39
 -5.814672e+00 -5.420043e+00 4.964271e+00 -5.787733e+00 -1.424502e+01 -6.970055e+00 -7.513828e+00 -2.201992e-01 -4.663665e+00 -1.947515e+00 -3.864553e-01 -4.259653e+00 5.692485e+01 1.344847e-02 3.604549e-01 -2.262524e-01 2.711500e-01 4.127291e-01 5.060722e-02 4.439627e-03 -2.808587e-01 6.267591e-02 -2.592816e-02 -2.334505e-01 1.688649e-02 -6.203409e-01 2.978520e-03 5.184357e-02 -3.343283e-02 5.032022e-02 1.021357e-01 3.996002e-02 -3.990804e-02 -6.311771e-02 1.812245e-02 -9.440309e-04 -9.390299e-03 1.499890e-03 -4.823136e-02
<VARIANCE> 39
 3.470417e+01 6.279000e+01 7.482301e+01 4.791595e+01 8.410902e+01 4.740946e+01 6.002786e+01 7.233380e+01 5.279618e+01 5.183699e+01 4.813207e+01 3.135189e+01 2.390680e+02 6.952307e-01 1.382684e+00 1.300490e+00 1.457689e+00 2.106004e+00 1.681485e+00 2.238129e+00 2.248621e+00 1.849349e+00 1.936656e+00 1.788418e+00 1.419017e+00 1.860841e+00 1.296447e-01 2.346518e-01 2.096553e-01 2.619608e-01 3.557916e-01 3.229512e-01 4.112062e-01 4.302540e-01 3.540076e-01 3.582816e-01 3.252826e-01 2.638974e-01 2.532264e-01
<GCONST> 1.150509e+02
<TRANSP> 5
 0.000000e+00 1.000000e+00 0.000000e+00 0.000000e+00 0.000000e+00
 0.000000e+00 6.227590e-01 3.772410e-01 0.000000e+00 0.000000e+00
 0.000000e+00 0.000000e+00 6.138945e-01 3.861055e-01 0.000000e+00
 0.000000e+00 0.000000e+00 0.000000e+00 8.747983e-01 1.252017e-01
 0.000000e+00 0.000000e+00 0.000000e+00 0.000000e+00 0.000000e+00
<ENDHMM>
~h "f"
<BEGINHMM>
<NUMSTATES> 5
<STATE> 2
<MEAN> 39
 -8.863460e+00 -3.382320e-01 -7.346607e-01 -1.060478e+00 -4.696194e+00 -2.997822e+00 -7.454732e+00 -3.977677e+00 -3.608603e+00 -1.872516e+00 -3.057388e+00 -2.795000e+00 5.819497e+01 -3.100125e+00 4.632305e-02 -4.585615e-01 1.301453e+00 9.649363e-01 -1.771933e-01 5.479067e-01 3.490854e-01 7.712002e-01 -5.962253e-02 -1.593746e-01 4.596531e-01 -9.290159e-01 -1.561198e-01 -4.873815e-01 -2.890458e-02 -4.002145e-01 -4.928271e-01 -5.204770e-02 -2.667449e-01 4.853347e-02 -5.758219e-02 5.479254e-02 2.019638e-01 -1.124397e-01 1.966984e-01
<VARIANCE> 39
 6.523530e+01 2.999990e+01 3.738897e+01 4.837634e+01 3.882182e+01 5.510538e+01 5.477949e+01 4.162933e+01 4.089512e+01 3.066903e+01 3.083211e+01 2.486577e+01 8.516431e+01 4.158995e+00 4.075447e+00 3.967690e+00 4.850184e+00 5.789597e+00 5.122674e+00 4.310636e+00 4.592847e+00 4.749419e+00 3.489933e+00 3.455055e+00 2.466740e+00 2.418233e+00 8.790718e-01 5.411791e-01 4.705630e-01 7.214373e-01 9.026541e-01 8.062960e-01 7.378556e-01 7.512282e-01 7.646660e-01 6.078436e-01 5.560786e-01 4.418541e-01 2.891572e-01
<GCONST> 1.322330e+02
<STATE> 3
<MEAN> 39
 -1.981903e+01 -4.001621e+00 -3.610848e+00 5.788580e-02 -5.099561e+00 -4.029739e+00 -8.036730e+00 -2.991493e+00 -1.811531e+00 -1.625465e+00 -1.871729e+00 -1.125335e+00 5.737589e+01 -8.111828e-01 -8.453832e-01 -5.556812e-01 -3.146029e-01 -3.037899e-01 -1.959599e-01 -1.926196e-01 -3.076821e-03 6.289946e-02 2.346718e-02 1.781747e-01 1.111668e-01 -7.628309e-02 9.679198e-01 1.272793e-01 1.877347e-01 -3.135437e-01 -1.398564e-01 1.055976e-01 -4.321462e-02 -1.214631e-01 -1.973680e-01 -7.343864e-02 3.015487e-02 -1.944653e-01 2.265501e-01
<VARIANCE> 39
 3.482314e+01 2.460205e+01 2.002025e+01 2.487727e+01 2.382048e+01 3.594082e+01 4.524267e+01 2.700069e+01 2.502552e+01 2.239895e+01 2.105895e+01 1.904732e+01 6.068589e+01 5.202174e+00 2.041046e+00 2.169274e+00 2.685017e+00 2.521262e+00 3.057682e+00 2.269639e+00 2.417700e+00 2.379462e+00 2.083433e+00 2.040097e+00 1.828140e+00 2.442535e+00 5.772143e-01 4.572318e-01 4.695934e-01 6.318623e-01 6.539449e-01 6.266257e-01 5.257120e-01 5.533777e-01 5.851442e-01 4.797907e-01 4.580221e-01 4.077491e-01 3.740471e-01
<GCONST> 1.180044e+02
<STATE> 4
<MEAN> 39
 -1.536598e+01 -4.306818e+00 -4.412425e+00 -2.132315e+00 -4.932861e+00 -3.714771e+00 -7.365722e+00 -3.704909e+00 -3.100633e+00 -2.851119e+00 -2.045082e+00 -2.243138e+00 4.965371e+01 1.242839e+00 5.321753e-02 1.933708e-01 -5.464069e-01 -3.341261e-01 1.176658e-01 -1.310472e-01 -4.115608e-02 -1.886384e-01 -7.568580e-02 1.341409e-01 -3.103717e-01 3.998780e-01 2.986195e-01 4.201126e-02 1.562034e-01 -1.350646e-01 -1.122007e-01 6.926361e-02 -5.544762e-02 2.598962e-02 -4.771683e-02 1.193061e-02 6.259437e-02 -8.523119e-02 1.599195e-01
<VARIANCE> 39
 5.790439e+01 3.407495e+01 2.061385e+01 2.905042e+01 2.146385e+01 2.855970e+01 3.666811e+01 2.680515e+01 2.612100e+01 2.253364e+01 1.927055e+01 1.860289e+01 1.455748e+02 7.020525e+00 2.508703e+00 2.482124e+00 3.846789e+00 2.428241e+00 3.000429e+00 2.315442e+00 2.669038e+00 2.610380e+00 2.188762e+00 2.102771e+00 2.107092e+00 3.440723e+00 7.817596e-01 4.352219e-01 3.810990e-01 5.437540e-01 4.412218e-01 4.802454e-01 4.510196e-01 4.837313e-01 4.959880e-01 4.322602e-01 4.120075e-01 3.511083e-01 3.958476e-01
<GCONST> 1.194818e+02
<TRANSP> 5
 0.000000e+00 1.000000e+00 0.000000e+00 0.000000e+00 0.000000e+00
 0.000000e+00 7.020666e-01 2.979334e-01 0.000000e+00 0.000000e+00
 0.000000e+00 0.000000e+00 7.036258e-01 2.963743e-01 0.000000e+00
 0.000000e+00 0.000000e+00 0.000000e+00 8.782936e-01 1.217064e-01
 0.000000e+00 0.000000e+00 0.000000e+00 0.000000e+00 0.000000e+00
<ENDHMM>
~h "g"
<BEGINHMM>
<NUMSTATES> 5
<STATE> 2
<MEAN> 39
 8.202984e-01 3.399421e+00 6.234283e+00 5.568696e-02 -7.587855e+00 -6.029642e+00 -9.337516e+00 -3.660814e+00 -6.075566e+00 -3.374100e-01 -2.855214e+00 -6.617301e+00 5.367641e+01 -4.353607e-01 3.974776e-01 4.376222e-02 7.467645e-01 6.787474e-01 -5.987182e-01 6.978761e-02 -1.231107e-01 -2.289601e-01 -2.087508e-02 -2.215791e-01 6.671863e-01 -1.607286e-01 -3.161483e-01 -4.911725e-01 -2.418071e-01 -4.194286e-01 -1.465973e-01 8.167598e-02 -2.583745e-01 1.584285e-01 1.024464e-01 -8.165047e-02 2.645082e-01 1.052480e-01 8.155405e-01
<VARIANCE> 39
 3.780883e+01 5.774403e+01 5.636723e+01 4.691953e+01 6.591747e+01 5.123145e+01 6.605898e+01 6.652409e+01 5.848635e+01 4.829462e+01 4.786398e+01 3.781572e+01 8.780042e+01 4.685700e+00 6.462127e+00 5.802602e+00 4.406136e+00 7.368793e+00 4.265269e+00 5.366363e+00 5.845254e+00 6.095437e+00 3.989085e+00 4.222678e+00 3.931829e+00 1.123498e+01 7.822239e-01 8.346172e-01 8.673866e-01 6.956860e-01 1.577716e+00 7.638001e-01 1.014551e+00 1.003419e+00 1.136447e+00 8.083763e-01 8.913455e-01 7.648574e-01 1.366974e+00
<GCONST> 1.447638e+02
<STATE> 3
<MEAN> 39
 -3.518960e+00 -6.836477e-02 4.307278e+00 -9.069801e-01 -7.635188e+00 -8.407030e+00 -1.291117e+01 -2.635835e+00 -6.005380e+00 -5.723078e-01 -6.307718e-01 -3.184822e+00 6.132494e+01 -5.212275e-01 -1.295379e+00 -2.127999e-01 -1.434996e+00 -1.521659e+00 -2.130699e-01 -1.288074e+00 1.036642e+00 6.503179e-01 -2.141936e-01 1.400240e+00 1.542708e-01 2.591798e+00 4.140204e-01 -6.162710e-02 1.113790e-01 -4.250980e-01 -4.888220e-01 4.892311e-01 1.594941e-01 8.584750e-02 3.469443e-01 -9.324946e-02 2.795612e-02 -5.247535e-01 -7.923109e-02
<VARIANCE> 39
 3.082123e+01 4.693123e+01 6.480987e+01 3.991729e+01 1.021928e+02 5.277872e+01 6.744844e+01 6.243575e+01 5.353700e+01 5.398333e+01 6.583972e+01 3.232663e+01 8.421299e+01 4.190425e+00 4.316555e+00 5.956066e+00 4.456828e+00 1.240538e+01 4.171683e+00 5.692577e+00 7.568638e+00 7.228673e+00 4.489489e+00 6.274399e+00 4.619425e+00 6.075089e+00 7.019557e-01 6.256351e-01 1.119235e+00 6.542072e-01 2.477970e+00 8.089809e-01 1.156700e+00 1.189340e+00 1.162848e+00 8.136986e-01 1.490382e+00 8.506587e-01 1.063365e+00
<GCONST> 1.464741e+02
<STATE> 4
<MEAN> 39
 -2.342371e+00 -8.411292e-01 4.885345e+00 -4.406702e+00 -1.197214e+01 -7.082168e+00 -1.313344e+01 -1.410069e+00 -3.070962e+00 -1.088981e+00 5.532156e-01 -4.825751e+00 6.246985e+01 -8.770251e-03 -8.924924e-01 -5.059907e-01 -1.324205e+00 -4.374681e-01 8.440599e-01 3.574426e-02 5.952183e-01 7.734308e-01 -2.620581e-01 3.740579e-02 -5.490021e-01 1.205670e+00 3.666550e-02 -2.190178e-02 -8.565909e-02 4.128193e-02 3.251003e-01 2.447021e-01 2.037361e-01 -1.742138e-01 -1.395495e-01 -5.444783e-02 -2.763747e-01 -1.396077e-01 -1.754434e-01
<VARIANCE> 39
 3.368584e+01 7.001366e+01 6.163762e+01 4.594365e+01 7.643581e+01 4.652547e+01 6.625911e+01 8.167434e+01 8.230230e+01 5.590109e+01 6.649448e+01 2.995983e+01 1.294567e+02 2.723849e+00 3.400441e+00 4.372861e+00 4.136223e+00 6.387028e+00 3.234298e+00 4.156331e+00 5.292744e+00 6.067623e+00 3.054124e+00 5.102536e+00 3.983839e+00 3.866422e+00 4.344133e-01 4.670393e-01 6.365724e-01 5.317076e-01 1.572807e+00 5.485687e-01 8.246396e-01 8.749900e-01 8.190477e-01 6.255296e-01 9.976723e-01 5.175468e-01 6.668472e-01
<GCONST> 1.386953e+02
<TRANSP> 5
 0.000000e+00 1.000000e+00 0.000000e+00 0.000000e+00 0.000000e+00
 0.000000e+00 7.430148e-01 2.569851e-01 0.000000e+00 0.000000e+00
 0.000000e+00 0.000000e+00 5.613219e-01 4.386782e-01 0.000000e+00
 0.000000e+00 0.000000e+00 0.000000e+00 4.750596e-01 5.249404e-01
 0.000000e+00 0.000000e+00 0.000000e+00 0.000000e+00 0.000000e+00
<ENDHMM>
~h "h"
<BEGINHMM>
<NUMSTATES> 5
<STATE> 2
<MEAN> 39
 -5.229459e+00 -6.183371e+00 -1.151464e+00 -5.460655e+00 -2.156570e-01 1.649624e+00 -4.608657e+00 -1.940606e+00 -3.303259e+00 -3.510276e+00 -5.182876e+00 -3.643601e+00 6.355746e+01 -9.381206e-01 -2.957010e-02 9.695897e-02 9.721227e-01 1.266790e+00 4.759436e-01 7.848149e-01 6.231487e-02 2.991634e-01 -2.989185e-01 -2.176537e-02 5.274841e-01 -7.082945e-01 5.312832e-02 -1.240970e-01 2.858154e-03 -2.900489e-01 -3.668526e-01 -7.219199e-02 -2.854908e-01 2.177154e-02 2.376810e-04 6.145426e-02 1.733250e-01 -1.896670e-01 1.326847e-02
<VARIANCE> 39
 3.180714e+01 5.207755e+01 6.348439e+01 6.637958e+01 9.247485e+01 5.851403e+01 7.690923e+01 5.849187e+01 6.191325e+01 5.188316e+01 4.854790e+01 3.657579e+01 8.964517e+01 1.861662e+00 3.317654e+00 3.665637e+00 3.863558e+00 3.807956e+00 3.424000e+00 3.902362e+00 3.974981e+00 3.789752e+00 3.193153e+00 3.014081e+00 2.705136e+00 2.078653e+00 2.473436e-01 4.073439e-01 4.225969e-01 5.824042e-01 6.210639e-01 5.973463e-01 6.770914e-01 7.463663e-01 6.129809e-01 5.644621e-01 5.180231e-01 4.436620e-01 2.025480e-01
<GCONST> 1.301008e+02
<STATE> 3
<MEAN> 39
 -7.601178e+00 -6.924387e+00 -1.619248e+00 -4.373336e+00 1.829091e+00 2.149459e+00 -4.346307e+00 -1.890814e+00 -2.047555e+00 -4.184044e+00 -4.465856e+00 -3.311415e+00 6.075703e+01 -2.709904e-01 -4.113485e-03 -1.168963e-01 -5.428090e-02 -8.693810e-02 -1.675342e-01 -8.159418e-02 -7.465290e-02 -2.781368e-02 -7.003893e-02 1.074462e-01 2.131769e-03 -6.269819e-01 2.670285e-01 6.897783e-02 -3.739347e-02 -2.961207e-01 -4.797358e-01 -2.020867e-01 -2.640277e-01 -6.032068e-02 -1.523884e-01 5.088417e-02 3.876098e-02 -1.716184e-01 3.373033e-02
<VARIANCE> 39
 4.249473e+01 5.699143e+01 5.386847e+01 5.653714e+01 7.970890e+01 6.011835e+01 7.554559e+01 5.028804e+01 5.121204e+01 4.677666e+01 4.297316e+01 3.668964e+01 1.095518e+02 2.300209e+00 3.046071e+00 2.992329e+00 3.487935e+00 3.501924e+00 3.181473e+00 3.569691e+00 3.365857e+00 3.270207e+00 2.916864e+00 2.725844e+00 2.416079e+00 3.036053e+00 3.452673e-01 4.725652e-01 4.642179e-01 6.169647e-01 6.175705e-01 5.956847e-01 6.674735e-01 6.463562e-01 6.179610e-01 5.645210e-01 5.333976e-01 4.639732e-01 3.243771e-01
<GCONST> 1.300095e+02
<STATE> 4
<MEAN> 39
 -1.041627e+01 -6.055160e+00 -4.540339e+00 -4.406102e+00 -1.574520e+00 -1.138271e+00 -5.537410e+00 -3.178649e+00 -3.480513e+00 -4.799729e+00 -4.037157e+00 -3.100230e+00 4.823252e+01 1.418237e-01 1.408113e-01 -7.477029e-03 -1.230132e-01 -3.003480e-01 -1.631379e-01 -1.077086e-01 -7.769761e-02 -9.572691e-02 2.712704e-02 3.101119e-02 -1.118300e-01 -2.199599e-01 8.132109e-02 1.507139e-02 4.398361e-02 -2.542288e-02 -5.813165e-02 4.883982e-03 -4.120937e-02 1.530429e-02 -2.368115e-03 1.154203e-02 1.024839e-02 -3.410045e-02 7.575957e-02
<VARIANCE> 39
 3.163386e+01 5.784756e+01 3.716539e+01 3.509491e+01 4.377897e+01 3.713987e+01 4.631347e+01 3.613550e+01 3.496892e+01 3.009707e+01 2.676704e+01 2.657314e+01 1.877642e+02 1.332375e+00 1.923649e+00 1.630246e+00 1.812524e+00 2.077755e+00 1.953286e+00 2.216307e+00 2.127310e+00 2.146894e+00 1.990447e+00 1.837906e+00 1.736923e+00 1.906504e+00 1.977251e-01 3.073165e-01 2.677374e-01 3.212696e-01 3.601758e-01 3.565269e-01 4.115171e-01 4.076554e-01 4.151913e-01 3.850107e-01 3.589359e-01 3.219893e-01 2.284875e-01
<GCONST> 1.136156e+02
<TRANSP> 5
 0.000000e+00 1.000000e+00 0.000000e+00 0.000000e+00 0.000000e+00
 0.000000e+00 5.689351e-01 4.310650e-01 0.000000e+00 0.000000e+00
 0.000000e+00 0.000000e+00 5.294048e-01 4.705953e-01 0.000000e+00
 0.000000e+00 0.000000e+00 0.000000e+00 8.860063e-01 1.139937e-01
 0.000000e+00 0.000000e+00 0.000000e+00 0.000000e+00 0.000000e+00
<ENDHMM>
~h "i"
<BEGINHMM>
<NUMSTATES> 5
<STATE> 2
<MEAN> 39
 -6.847732e+00 -2.788044e-01 1.550253e+01 -3.518861e+00 -1.722821e+01 -6.224258e+00 -1.285351e+01 -5.944805e+00 -9.651411e+00 -4.651321e+00 3.522096e+00 -4.262820e+00 6.354111e+01 2.008447e-01 1.614800e-01 2.637887e+00 -5.922409e-01 -2.382785e+00 6.087973e-01 -1.368494e+00 -4.708472e-01 -1.435648e+00 -1.606871e-01 1.390962e+00 -5.232312e-01 1.450274e+00 -7.266194e-03 8.928687e-02 -6.255504e-01 -6.118559e-02 4.044782e-01 1.795665e-01 2.001378e-01 7.248417e-02 3.745736e-01 1.814455e-01 -2.606163e-01 -7.847805e-02 -4.060367e-01
<VARIANCE> 39
 3.043872e+01 4.915833e+01 6.026540e+01 4.375415e+01 5.506306e+01 4.455590e+01 5.376357e+01 6.091596e+01 6.255376e+01 6.538390e+01 4.766076e+01 2.654417e+01 6.401504e+01 4.847253e+00 3.237204e+00 5.700918e+00 3.664097e+00 5.379612e+00 3.782062e+00 5.881639e+00 5.382059e+00 5.673025e+00 4.988353e+00 3.950106e+00 2.840197e+00 4.425002e+00 6.198586e-01 5.550308e-01 1.015478e+00 6.129067e-01 1.104105e+00 7.223116e-01 9.596098e-01 9.688489e-01 8.905868e-01 7.388115e-01 7.048466e-01 4.841488e-01 8.465315e-01
<GCONST> 1.383901e+02
<STATE> 3
<MEAN> 39
 -6.803279e+00 2.589284e-01 1.942799e+01 -5.684388e+00 -2.141006e+01 -3.692858e+00 -1.513062e+01 -7.253606e+00 -1.096291e+01 -4.861222e+00 6.129194e+00 -6.137972e+00 6.569972e+01 3.049034e-01 1.879154e-01 -6.158446e-01 1.803530e-01 3.391852e-01 -2.830181e-01 4.456032e-01 1.655873e-01 3.399827e-01 2.179178e-01 -2.844985e-01 2.033110e-02 -5.746104e-01 8.174695e-02 4.670079e-02 -5.773334e-01 2.120427e-01 5.905731e-01 -1.738947e-01 3.359641e-01 1.373194e-01 3.304544e-01 3.670391e-02 -3.886704e-01 1.209630e-01 -4.448400e-01
<VARIANCE> 39
 1.686276e+01 3.787136e+01 3.739706e+01 4.131159e+01 3.367870e+01 4.787138e+01 4.161502e+01 6.180795e+01 6.837751e+01 9.370968e+01 5.586332e+01 2.893587e+01 3.537478e+01 1.270613e+00 2.316327e+00 2.802255e+00 2.409596e+00 3.604591e+00 2.864123e+00 3.342269e+00 3.821797e+00 3.158497e+00 2.844707e+00 2.569140e+00 1.812102e+00 3.086885e+00 2.586525e-01 3.699062e-01 4.556256e-01 4.339022e-01 7.477765e-01 5.585057e-01 6.711755e-01 6.885504e-01 6.662985e-01 6.122246e-01 5.541674e-01 3.693816e-01 4.066226e-01
<GCONST> 1.241728e+02
<STATE> 4
<MEAN> 39
 -6.718275e+00 3.052321e+00 1.123317e+01 -3.388775e+00 -1.424014e+01 -4.767119e+00 -1.053724e+01 -7.522058e+00 -7.857264e+00 -3.024413e+00 1.604607e-01 -4.597335e+00 5.389959e+01 1.037400e-01 7.174885e-02 -1.027154e+00 2.839047e-01 8.774271e-01 -5.867559e-02 4.574964e-01 1.741899e-01 4.880518e-01 4.508429e-02 -6.032186e-01 1.620532e-01 -1.068178e+00 -6.310591e-02 -9.012295e-02 -5.485963e-02 -4.546494e-02 7.144166e-02 8.640257e-02 -5.151627e-02 7.283985e-04 1.771226e-02 -1.781199e-02 -5.286593e-03 -1.069127e-02 1.163306e-01
<VARIANCE> 39
 2.903301e+01 4.391159e+01 7.712679e+01 3.768779e+01 6.526677e+01 5.906787e+01 5.636265e+01 5.913531e+01 4.823478e+01 4.603484e+01 4.277842e+01 2.910418e+01 1.585785e+02 1.427568e+00 2.028311e+00 2.564696e+00 2.126031e+00 3.362440e+00 2.494556e+00 3.198974e+00 3.239376e+00 3.121604e+00 2.582467e+00 2.544602e+00 1.855818e+00 3.068478e+00 2.164586e-01 3.146867e-01 3.460383e-01 3.689130e-01 5.745949e-01 4.962124e-01 5.316641e-01 5.579099e-01 4.841492e-01 4.424641e-01 4.177577e-01 3.368542e-01 3.986986e-01
<GCONST> 1.234186e+02
<TRANSP> 5
 0.000000e+00 1.000000e+00 0.000000e+00 0.000000e+00 0.000000e+00
 0.000000e+00 6.709685e-01 3.290314e-01 0.000000e+00 0.000000e+00
 0.000000e+00 0.000000e+00 7.663040e-01 2.336961e-01 0.000000e+00
 0.000000e+00 0.000000e+00 0.000000e+00 8.164097e-01 1.835902e-01
 0.000000e+00 0.000000e+00 0.000000e+00 0.000000e+00 0.000000e+00
<ENDHMM>
~h "j"
<BEGINHMM>
<NUMSTATES> 5
<STATE> 2
<MEAN> 39
 -2.338363e+00 7.349714e+00 9.905744e+00 -1.703312e-01 -7.993936e+00 -5.754034e+00 -7.419277e+00 -1.600216e+00 -4.329656e+00 -4.851208e+00 -1.999143e+00 -3.782964e+00 5.288559e+01 -8.520505e-01 9.712129e-01 1.432538e-01 1.023291e-01 1.060098e+00 1.087845e-01 8.397945e-01 -2.209185e-01 8.989385e-02 6.560526e-02 -1.982508e-01 1.359968e-01 -3.127685e-01 -5.115083e-01 -4.417138e-01 -1.406016e-01 -2.338225e-01 -7.338753e-02 -5.119201e-03 -2.502320e-01 -1.703186e-01 -7.354970e-02 6.202631e-02 1.563269e-01 1.365383e-01 7.409407e-01
<VARIANCE> 39
 4.897871e+01 4.738047e+01 3.897927e+01 3.059318e+01 5.923961e+01 3.932508e+01 4.988305e+01 4.386079e+01 4.085656e+01 3.045993e+01 3.114120e+01 2.664964e+01 8.293760e+01 8.122931e+00 4.507639e+00 3.688348e+00 3.363893e+00 4.739185e+00 3.226722e+00 4.640290e+00 4.432646e+00 4.068212e+00 2.738646e+00 2.739354e+00 2.977178e+00 9.229702e+00 1.345059e+00 6.038935e-01 6.539846e-01 5.539440e-01 1.123274e+00 6.798254e-01 8.395633e-01 7.738799e-01 7.821355e-01 5.310552e-01 5.710514e-01 6.416816e-01 1.203449e+00
<GCONST> 1.352007e+02
<STATE> 3
<MEAN> 39
 -1.453810e+01 6.162343e+00 9.763062e+00 -2.145936e+00 -5.207723e+00 -6.138598e+00 -7.071963e+00 -5.596159e+00 -5.546510e+00 -4.478184e+00 -3.036344e-01 1.254791e-02 6.329948e+01 -4.988132e-01 -1.751196e+00 9.553258e-01 -1.991708e-01 -2.769399e+00 -1.287962e+00 -1.757550e+00 -9.496509e-02 -6.150397e-01 -2.883139e-01 1.477002e+00 1.012688e+00 3.104906e+00 1.536809e+00 -5.042180e-01 -9.455930e-03 6.409656e-02 -9.352839e-01 -1.062399e-01 -6.105229e-01 6.801427e-01 2.558090e-01 -8.597886e-03 1.679813e-01 -4.345042e-01 -3.386639e-01
<VARIANCE> 39
 4.773540e+01 3.307861e+01 4.387961e+01 2.843346e+01 6.355934e+01 4.492625e+01 3.823662e+01 2.545130e+01 3.110696e+01 2.410471e+01 2.476650e+01 1.911709e+01 3.861196e+01 1.378211e+01 4.335930e+00 4.411169e+00 4.047288e+00 9.236888e+00 4.191361e+00 4.861691e+00 6.111009e+00 3.862404e+00 2.936075e+00 2.929419e+00 2.281619e+00 2.986758e+00 1.294145e+00 8.402717e-01 1.227210e+00 7.483197e-01 1.973254e+00 1.031055e+00 9.312580e-01 1.133561e+00 8.185906e-01 6.059719e-01 7.103409e-01 5.849995e-01 5.813911e-01
<GCONST> 1.355257e+02
<STATE> 4
<MEAN> 39
 -5.235320e+00 -3.730309e+00 1.117700e+01 -4.150997e+00 -1.855549e+01 -1.032088e+01 -1.581338e+01 1.125191e+00 -4.662456e+00 -4.022511e+00 4.423082e+00 -5.582100e-01 6.969457e+01 1.873785e+00 -2.479191e+00 -1.569094e+00 -1.093287e+00 -7.788862e-01 3.921253e-01 -1.086201e+00 2.056290e+00 1.340363e+00 4.859531e-01 -3.131360e-01 -1.325892e+00 1.041541e+00 -2.528974e-01 4.270225e-01 -6.341728e-01 -2.194028e-01 1.304292e+00 6.848824e-01 6.523335e-01 -2.993785e-01 1.808282e-01 1.130407e-01 -6.833611e-01 -4.944588e-01 -5.423532e-01
<VARIANCE> 39
 2.004912e+01 4.068198e+01 3.788921e+01 5.037380e+01 4.046992e+01 2.424137e+01 4.137362e+01 7.348213e+01 5.761174e+01 4.424182e+01 3.820799e+01 2.257534e+01 3.211998e+01 2.669035e+00 3.834224e+00 4.023105e+00 2.798925e+00 7.869506e+00 3.039827e+00 6.479261e+00 7.301207e+00 4.265977e+00 3.231376e+00 5.415272e+00 3.122251e+00 1.573623e+00 5.730711e-01 4.518038e-01 6.083332e-01 5.520942e-01 1.032487e+00 6.616743e-01 8.645067e-01 1.106706e+00 7.127804e-01 6.257761e-01 8.134991e-01 4.882030e-01 2.067108e-01
<GCONST> 1.304248e+02
<TRANSP> 5
 0.000000e+00 1.000000e+00 0.000000e+00 0.000000e+00 0.000000e+00
 0.000000e+00 8.299958e-01 1.700042e-01 0.000000e+00 0.000000e+00
 0.000000e+00 0.000000e+00 7.083910e-01 2.916091e-01 0.000000e+00
 0.000000e+00 0.000000e+00 0.000000e+00 6.632621e-01 3.367379e-01
 0.000000e+00 0.000000e+00 0.000000e+00 0.000000e+00 0.000000e+00
<ENDHMM>
~h "k"
<BEGINHMM>
<NUMSTATES> 5
<STATE> 2
<MEAN> 39
 -7.352787e+00 5.198338e-01 -1.478655e+00 -3.556847e+00 -5.651389e+00 -4.369189e+00 -6.103311e+00 -4.002651e+00 -3.988394e+00 -1.238224e+00 -3.809530e+00 -4.428672e+00 4.331385e+01 -9.674175e-01 -2.989590e-01 -7.765437e-01 3.718566e-01 6.150204e-01 -3.156683e-01 1.077449e-01 8.332276e-02 2.517780e-01 -6.989324e-03 -1.507468e-01 4.862248e-01 -9.866446e-01 -5.978095e-02 -4.775516e-01 -2.643195e-01 -2.846211e-01 9.488285e-02 4.661964e-04 -2.241463e-01 1.547724e-01 -2.458005e-02 6.563325e-02 3.317113e-02 3.313186e-03 1.097260e+00
<VARIANCE> 39
 3.406361e+01 4.090476e+01 5.161787e+01 4.322599e+01 4.938635e+01 4.732924e+01 5.252507e+01 4.887181e+01 4.435918e+01 3.922712e+01 3.646075e+01 3.314645e+01 9.970931e+01 2.370800e+00 4.891095e+00 4.125824e+00 3.697707e+00 4.610022e+00 4.094028e+00 4.231184e+00 4.011927e+00 4.053359e+00 3.603043e+00 3.063357e+00 2.805443e+00 1.188486e+01 4.214687e-01 7.536360e-01 7.153912e-01 6.998791e-01 8.975186e-01 8.466908e-01 8.547730e-01 7.425560e-01 7.960787e-01 7.612202e-01 6.242977e-01 5.753307e-01 1.778345e+00
<GCONST> 1.361313e+02
<STATE> 3
<MEAN> 39
 -1.086220e+01 -5.095726e+00 -7.901646e+00 -4.718673e+00 -1.457000e+00 -6.546481e+00 -8.856193e+00 -2.850709e+00 -4.143980e+00 3.264434e-01 -4.568209e+00 -2.519045e+00 5.163126e+01 -2.948415e-01 -1.328483e+00 -1.312013e+00 -1.034342e+00 6.907920e-01 -3.818968e-01 -8.870462e-01 6.137166e-01 -4.352766e-02 5.031667e-01 -2.564370e-01 4.909971e-02 4.102581e+00 7.077369e-01 3.505779e-01 8.163134e-01 -3.192501e-01 -6.980485e-01 3.610020e-01 4.576030e-02 5.346225e-02 2.272698e-02 -1.764664e-01 2.424505e-01 -4.878750e-01 3.470781e-01
<VARIANCE> 39
 3.641324e+01 5.873414e+01 7.974597e+01 5.794440e+01 6.341727e+01 6.488322e+01 6.700723e+01 4.696929e+01 4.781433e+01 4.268304e+01 4.032096e+01 3.297509e+01 1.396819e+02 4.981028e+00 6.276262e+00 9.442319e+00 6.190871e+00 7.493694e+00 6.319905e+00 5.801190e+00 5.598436e+00 5.734286e+00 4.751173e+00 4.374636e+00 4.284881e+00 1.496022e+01 7.924897e-01 1.194920e+00 1.705693e+00 1.083451e+00 1.425031e+00 1.159023e+00 1.237579e+00 1.055591e+00 1.087589e+00 9.195495e-01 8.536507e-01 8.116063e-01 2.444690e+00
<GCONST> 1.495591e+02
<STATE> 4
<MEAN> 39
 -8.761742e+00 -4.858785e+00 -5.458664e+00 -7.669766e+00 -3.540754e+00 -5.704116e+00 -9.466187e+00 -1.072905e+00 -3.484119e+00 -1.059496e-01 -4.284204e+00 -4.516933e+00 5.869984e+01 1.747795e+00 -5.872438e-02 1.532466e+00 -1.023028e+00 -1.390137e+00 8.127290e-01 -1.107325e-01 4.337948e-01 1.419025e-01 -4.346366e-01 6.502138e-01 -1.230347e+00 2.252470e+00 3.749643e-01 -3.328472e-03 3.957158e-01 5.953889e-02 -3.387700e-01 3.347802e-01 1.337744e-01 -1.010611e-01 1.911671e-02 -2.226534e-01 2.293928e-01 -2.215073e-01 -4.808840e-01
<VARIANCE> 39
 5.365572e+01 5.573479e+01 7.524129e+01 5.406937e+01 5.888857e+01 5.869211e+01 5.384275e+01 4.982561e+01 5.041992e+01 4.498125e+01 4.547938e+01 3.836620e+01 1.249735e+02 5.470797e+00 5.461446e+00 6.677172e+00 5.269594e+00 5.483618e+00 4.678521e+00 4.954839e+00 5.748555e+00 5.342152e+00 3.966261e+00 4.128561e+00 4.538524e+00 7.935468e+00 8.767532e-01 8.223102e-01 1.337417e+00 8.356116e-01 1.080318e+00 8.316683e-01 9.244685e-01 8.847783e-01 8.888492e-01 7.754612e-01 7.375118e-01 6.886999e-01 1.346184e+00
<GCONST> 1.443839e+02
<TRANSP> 5
 0.000000e+00 1.000000e+00 0.000000e+00 0.000000e+00 0.000000e+00
 0.000000e+00 7.508739e-01 2.491261e-01 0.000000e+00 0.000000e+00
 0.000000e+00 0.000000e+00 6.049576e-01 3.950423e-01 0.000000e+00
 0.000000e+00 0.000000e+00 0.000000e+00 5.776808e-01 4.223192e-01
 0.000000e+00 0.000000e+00 0.000000e+00 0.000000e+00 0.000000e+00
<ENDHMM>
~h "l"
<BEGINHMM>
<NUMSTATES> 5
<STATE> 2
<MEAN> 39
 6.015932e-01 -6.945479e+00 1.166363e-01 -1.088764e+01 -1.021108e+01 -3.267952e-01 -1.691662e+01 -8.672422e+00 1.479129e+00 1.110422e+00 1.390271e+00 -7.388571e+00 6.719047e+01 5.104589e-01 -2.408295e-02 1.521143e-01 -6.779975e-01 1.669065e-01 3.010820e-01 -1.074458e+00 -8.975649e-01 4.044608e-01 9.033909e-01 4.540725e-01 -1.883097e-01 -4.568404e-02 -1.843211e-01 5.416770e-02 -1.482168e-02 -3.761444e-02 3.309683e-02 3.139526e-02 2.189150e-01 3.257328e-01 -2.247520e-01 -2.057076e-01 -4.263292e-02 1.386702e-02 -1.327393e-02
<VARIANCE> 39
 1.905782e+01 4.112742e+01 6.253759e+01 8.524062e+01 4.674708e+01 6.633287e+01 8.968316e+01 1.012587e+02 8.904856e+01 6.523940e+01 5.999810e+01 4.520538e+01 4.719506e+01 1.190757e+00 2.005617e+00 2.748889e+00 4.526065e+00 4.030051e+00 4.190221e+00 4.106059e+00 5.562642e+00 4.267043e+00 3.725395e+00 3.716335e+00 2.874338e+00 1.789892e+00 2.390935e-01 3.104129e-01 3.622590e-01 6.319137e-01 6.842946e-01 6.528087e-01 7.775183e-01 1.007414e+00 7.767332e-01 7.109725e-01 7.039531e-01 4.831796e-01 1.933181e-01
<GCONST> 1.311257e+02
<STATE> 3
<MEAN> 39
 1.393409e+00 -6.738834e+00 2.402872e-01 -1.365325e+01 -9.318061e+00 8.594497e-01 -1.947881e+01 -9.750385e+00 1.365718e+00 3.153164e+00 2.818049e+00 -7.879762e+00 6.758332e+01 -1.586531e-01 -1.180130e-01 -1.631943e-01 -3.237443e-01 2.031002e-01 6.426837e-02 5.807153e-02 7.565332e-01 -2.006356e-02 -1.388703e-01 -3.067156e-01 -1.779943e-01 1.459214e-01 -2.056341e-01 -9.322580e-02 -1.583120e-01 1.859426e-01 -5.778235e-03 -3.059043e-03 4.922190e-01 4.960926e-01 -9.267969e-02 -4.223770e-01 -3.261705e-01 -2.533463e-02 1.022662e-01
<VARIANCE> 39
 1.389231e+01 3.860127e+01 6.391753e+01 8.396847e+01 4.374622e+01 5.722323e+01 9.593256e+01 9.052080e+01 8.531194e+01 6.501758e+01 5.728619e+01 4.727116e+01 3.245195e+01 6.790367e-01 1.822600e+00 2.307372e+00 3.467554e+00 2.529872e+00 3.547712e+00 3.893122e+00 6.050975e+00 3.480473e+00 3.529747e+00 3.814471e+00 2.654224e+00 1.246697e+00 1.207470e-01 3.114653e-01 2.958375e-01 5.437403e-01 6.040686e-01 6.123537e-01 7.795860e-01 8.878554e-01 6.994410e-01 6.854591e-01 7.308189e-01 5.129437e-01 1.526378e-01
<GCONST> 1.260734e+02
<STATE> 4
<MEAN> 39
 1.863896e-01 -6.202549e+00 -2.008279e+00 -1.371039e+01 -8.023948e+00 1.057820e+00 -1.543086e+01 -5.081136e+00 -6.757392e-02 6.611549e-01 1.786424e-01 -8.394692e+00 6.619437e+01 -3.508226e-01 -2.232289e-02 -1.070287e-01 4.407415e-01 1.235128e-01 -9.734841e-02 8.034118e-01 7.028027e-01 -2.515068e-01 -6.744369e-01 -6.049145e-01 3.381008e-02 -1.782740e-01 -6.668951e-02 4.021387e-02 4.158708e-02 1.485645e-01 -3.029171e-02 -9.437881e-03 1.547817e-01 -6.026750e-02 -7.920892e-02 -1.061655e-01 3.103841e-02 4.797529e-02 -5.910517e-02
<VARIANCE> 39
 1.869371e+01 6.188116e+01 8.636732e+01 8.147831e+01 5.310401e+01 7.239079e+01 8.969475e+01 7.998517e+01 6.998956e+01 6.635394e+01 5.953785e+01 5.046128e+01 7.042407e+01 7.239347e-01 2.091541e+00 2.146515e+00 2.957740e+00 3.052047e+00 3.143525e+00 3.627299e+00 4.430646e+00 3.229145e+00 3.343487e+00 3.451564e+00 2.621410e+00 1.767542e+00 1.184255e-01 2.548737e-01 2.490202e-01 4.436547e-01 4.858623e-01 4.945700e-01 5.841545e-01 6.193076e-01 5.316868e-01 5.618086e-01 5.456591e-01 3.875989e-01 1.715533e-01
<GCONST> 1.252097e+02
<TRANSP> 5
 0.000000e+00 1.000000e+00 0.000000e+00 0.000000e+00 0.000000e+00
 0.000000e+00 5.582583e-01 4.417416e-01 0.000000e+00 0.000000e+00
 0.000000e+00 0.000000e+00 5.869895e-01 4.130106e-01 0.000000e+00
 0.000000e+00 0.000000e+00 0.000000e+00 6.699674e-01 3.300326e-01
 0.000000e+00 0.000000e+00 0.000000e+00 0.000000e+00 0.000000e+00
<ENDHMM>
~h "m"
<BEGINHMM>
<NUMSTATES> 5
<STATE> 2
<MEAN> 39
 9.393402e-01 -2.777176e+00 2.867399e+00 -5.696331e+00 -7.179611e+00 2.440485e+00 -9.977695e+00 -8.299170e+00 -8.403605e+00 -1.807841e+00 -1.297212e+00 -7.721042e+00 5.949475e+01 1.595913e-01 1.026104e+00 1.726423e+00 1.623099e+00 3.725111e-01 3.773023e-01 2.244495e-01 -1.939202e+00 -1.779076e+00 -8.952099e-02 -6.050611e-01 2.668988e-01 -7.404276e-01 -1.863172e-01 -2.125433e-01 -2.275270e-02 -1.276742e-01 -5.562830e-02 -3.394924e-02 -8.028485e-02 1.972140e-01 1.778027e-01 -1.166174e-01 -6.540356e-02 2.915973e-02 3.026628e-01
<VARIANCE> 39
 2.952811e+01 4.291333e+01 5.642262e+01 6.442764e+01 4.559952e+01 5.256344e+01 8.091670e+01 7.886438e+01 9.694901e+01 5.003454e+01 5.892684e+01 4.342059e+01 9.264577e+01 1.523926e+00 2.661506e+00 4.260441e+00 4.506259e+00 2.943001e+00 3.630521e+00 4.676223e+00 5.062033e+00 5.925874e+00 3.403963e+00 5.069921e+00 3.359368e+00 3.635869e+00 2.322119e-01 3.272226e-01 6.475894e-01 6.403704e-01 4.875357e-01 4.607995e-01 6.061285e-01 8.167204e-01 7.772565e-01 4.981228e-01 7.540396e-01 4.565094e-01 2.832926e-01
<GCONST> 1.325141e+02
<STATE> 3
<MEAN> 39
 1.182965e+00 -1.449320e+00 6.820296e+00 -2.801758e+00 -7.331234e+00 3.814558e+00 -1.023254e+01 -1.303222e+01 -1.121988e+01 -2.751826e+00 -2.560329e+00 -6.942484e+00 6.030689e+01 -4.509201e-02 -1.726244e-02 2.406112e-01 3.894988e-02 2.937119e-02 2.754730e-01 3.585191e-03 -1.273860e-01 -2.138815e-01 -2.537602e-01 -1.254254e-01 2.253482e-02 2.483774e-01 -2.294538e-02 -2.686612e-01 -5.950347e-01 -5.592760e-01 -1.135240e-01 -9.152845e-02 -5.764881e-02 7.144352e-01 6.026230e-01 4.040718e-02 2.095229e-01 -1.534658e-01 2.251589e-01
<VARIANCE> 39
 1.819583e+01 3.081035e+01 3.646889e+01 4.366443e+01 4.202235e+01 5.410461e+01 1.001183e+02 7.769089e+01 1.123447e+02 6.006176e+01 6.848450e+01 4.544483e+01 4.134590e+01 6.525612e-01 1.619690e+00 3.242677e+00 3.507942e+00 1.752537e+00 2.066658e+00 2.559597e+00 3.731168e+00 3.605386e+00 2.244069e+00 3.676610e+00 2.168715e+00 2.224617e+00 1.506717e-01 2.447166e-01 4.943376e-01 5.016220e-01 3.743236e-01 3.846831e-01 6.138293e-01 6.504245e-01 7.478741e-01 5.026018e-01 7.230896e-01 4.834565e-01 2.287619e-01
<GCONST> 1.225908e+02
<STATE> 4
<MEAN> 39
 9.704770e-02 -1.650481e+00 4.940530e+00 -4.305322e+00 -7.056867e+00 3.103832e+00 -9.768144e+00 -7.947407e+00 -1.049069e+01 -3.162187e+00 -3.422364e+00 -7.326041e+00 5.773395e+01 -4.295022e-02 -9.444141e-02 -6.091728e-01 -5.124435e-01 -1.500375e-01 -4.901610e-02 4.167213e-02 6.176240e-01 6.918979e-01 3.684132e-02 2.536183e-01 -1.306427e-01 1.367660e-01 -2.718985e-02 -9.068347e-02 -1.702588e-01 -1.395343e-01 -1.058948e-02 -4.000555e-02 -2.774235e-02 1.690919e-01 1.899499e-01 3.060963e-02 8.756655e-02 -1.478737e-02 5.313883e-02
<VARIANCE> 39
 3.049739e+01 4.147086e+01 5.559208e+01 5.464939e+01 5.586842e+01 5.873420e+01 8.092602e+01 6.935699e+01 1.146969e+02 4.790173e+01 5.804087e+01 4.773840e+01 1.024070e+02 5.754358e-01 1.731605e+00 2.793530e+00 3.041322e+00 1.970418e+00 1.988040e+00 2.620537e+00 3.265924e+00 3.649895e+00 2.098336e+00 2.977606e+00 2.115496e+00 1.981293e+00 1.066191e-01 2.149696e-01 4.009783e-01 4.432604e-01 3.679772e-01 3.487306e-01 4.192095e-01 4.906719e-01 5.611256e-01 3.612713e-01 4.973434e-01 3.546187e-01 1.774370e-01
<GCONST> 1.207452e+02
<TRANSP> 5
 0.000000e+00 1.000000e+00 0.000000e+00 0.000000e+00 0.000000e+00
 0.000000e+00 5.396125e-01 4.603875e-01 0.000000e+00 0.000000e+00
 0.000000e+00 0.000000e+00 5.864666e-01 4.135334e-01 0.000000e+00
 0.000000e+00 0.000000e+00 0.000000e+00 8.017287e-01 1.982713e-01
 0.000000e+00 0.000000e+00 0.000000e+00 0.000000e+00 0.000000e+00
<ENDHMM>
~h "n"
<BEGINHMM>
<NUMSTATES> 5
<STATE> 2
<MEAN> 39
 7.689747e-01 -6.725969e+00 4.397004e+00 -4.534912e+00 -1.079376e+01 -4.114257e+00 -1.365182e+01 -1.413369e+00 -1.503275e+00 -1.049169e+00 -5.683651e+00 -7.942009e+00 6.508579e+01 4.462190e-01 2.030334e+00 1.781021e+00 1.709963e+00 -1.265485e-01 -8.027961e-01 -4.670369e-02 -2.733082e+00 -7.007430e-01 1.324464e+00 -8.628405e-01 5.925993e-01 -1.832298e+00 -1.206341e-01 5.946972e-02 -3.176774e-02 -2.253553e-01 9.997905e-02 1.362258e-01 1.968545e-01 -2.332171e-01 -1.899465e-01 4.576852e-02 1.146629e-01 4.713269e-02 5.828976e-02
<VARIANCE> 39
 1.530511e+01 5.172825e+01 6.056602e+01 5.063212e+01 5.527078e+01 4.254594e+01 7.460887e+01 1.103479e+02 8.575931e+01 6.675306e+01 5.425537e+01 3.988041e+01 5.171559e+01 8.499126e-01 2.767431e+00 4.419565e+00 3.492784e+00 3.457513e+00 4.015474e+00 6.051583e+00 6.680018e+00 5.804391e+00 4.967759e+00 3.766302e+00 3.027088e+00 1.973537e+00 1.407866e-01 5.178099e-01 6.206493e-01 5.345493e-01 5.649871e-01 6.268114e-01 7.550843e-01 1.443239e+00 8.215185e-01 8.195135e-01 5.752589e-01 4.454881e-01 3.224950e-01
<GCONST> 1.322708e+02
<STATE> 3
<MEAN> 39
 1.242217e+00 -1.560983e+00 8.480302e+00 -1.641563e+00 -1.091079e+01 -4.876709e+00 -1.352713e+01 -1.001864e+01 -3.192477e+00 2.400989e+00 -6.844445e+00 -6.639421e+00 6.118495e+01 -1.207207e-02 8.017296e-01 4.218437e-01 3.177616e-01 9.656528e-02 4.420178e-03 2.659016e-01 -9.122116e-01 -4.767769e-01 4.336207e-01 -2.369186e-01 3.646341e-01 -6.367068e-01 -1.845174e-01 -4.406529e-01 -5.506425e-01 -4.282337e-01 1.189540e-01 2.411151e-01 6.651067e-02 8.631414e-01 1.235694e-01 -4.753951e-01 2.714432e-01 -1.184248e-01 3.569433e-01
<VARIANCE> 39
 1.578411e+01 2.970758e+01 4.655276e+01 4.321795e+01 4.496500e+01 4.685764e+01 9.612508e+01 7.726262e+01 1.125983e+02 6.229519e+01 5.179762e+01 4.539071e+01 3.000007e+01 6.818189e-01 2.729752e+00 3.415355e+00 2.455317e+00 2.398879e+00 3.072427e+00 4.003042e+00 6.673648e+00 4.314521e+00 3.747100e+00 2.721089e+00 2.504942e+00 2.146433e+00 1.523930e-01 3.990546e-01 6.446336e-01 5.160288e-01 5.192344e-01 6.410334e-01 8.161218e-01 1.040224e+00 8.734583e-01 7.877081e-01 5.895958e-01 5.039940e-01 3.000779e-01
<GCONST> 1.275608e+02
<STATE> 4
<MEAN> 39
 2.746401e-01 1.002436e+00 7.144491e+00 -2.985598e-02 -8.421721e+00 -4.588224e+00 -9.952848e+00 -8.144843e+00 -6.130718e+00 9.618633e-01 -7.763130e+00 -4.696676e+00 5.576898e+01 -3.603540e-01 2.852286e-01 -3.660056e-01 1.124928e-02 3.960670e-01 3.040354e-01 3.337496e-01 2.789407e-01 -3.523179e-02 -4.961165e-01 2.116086e-01 1.580682e-02 -6.685462e-01 -1.322175e-01 -1.574627e-01 -1.368084e-01 -1.434293e-01 4.996757e-02 5.880959e-02 -1.483328e-02 2.397291e-01 9.262171e-02 -1.652557e-01 1.254467e-01 -6.349704e-02 6.224177e-02
<VARIANCE> 39
 2.497226e+01 3.567545e+01 4.432537e+01 4.454837e+01 5.977406e+01 4.296768e+01 1.115779e+02 6.074715e+01 1.048972e+02 5.571085e+01 5.221330e+01 4.101522e+01 7.917070e+01 8.788426e-01 2.092614e+00 2.035813e+00 2.160508e+00 2.302932e+00 2.453785e+00 3.014231e+00 3.635435e+00 3.200127e+00 2.927511e+00 2.514014e+00 2.070955e+00 2.254580e+00 1.703628e-01 3.178602e-01 3.293265e-01 3.758395e-01 4.259431e-01 4.476832e-01 5.471174e-01 6.042622e-01 5.655066e-01 5.127929e-01 4.553182e-01 3.710011e-01 2.616887e-01
<GCONST> 1.222346e+02
<TRANSP> 5
 0.000000e+00 1.000000e+00 0.000000e+00 0.000000e+00 0.000000e+00
 0.000000e+00 5.847452e-01 4.152548e-01 0.000000e+00 0.000000e+00
 0.000000e+00 0.000000e+00 5.799533e-01 4.200467e-01 0.000000e+00
 0.000000e+00 0.000000e+00 0.000000e+00 8.076526e-01 1.923473e-01
 0.000000e+00 0.000000e+00 0.000000e+00 0.000000e+00 0.000000e+00
<ENDHMM>
~h "o"
<BEGINHMM>
<NUMSTATES> 5
<STATE> 2
<MEAN> 39
 2.441733e-01 -3.134356e+00 -5.140381e+00 -1.554598e+01 -1.086131e+01 4.216783e+00 -1.315850e+01 -4.613166e+00 -2.838802e+00 -9.361044e-01 3.496356e+00 -5.360748e+00 6.427289e+01 1.388332e+00 -6.014895e-01 -4.842952e-01 -2.735691e+00 -1.024824e+00 2.251240e+00 -2.347713e-01 1.185118e-01 1.532370e-01 -5.995796e-02 1.470256e+00 -4.625369e-01 1.676162e+00 -3.719051e-01 2.856531e-02 2.071981e-01 3.828196e-01 2.489527e-01 -1.649776e-01 3.017327e-01 -6.961481e-02 -9.889590e-02 -8.476315e-02 -1.866086e-01 7.940152e-02 -4.434026e-01
<VARIANCE> 39
 2.807906e+01 4.395154e+01 5.488343e+01 1.004928e+02 5.101343e+01 5.875027e+01 9.372954e+01 6.401437e+01 7.009293e+01 6.442191e+01 5.303783e+01 4.284795e+01 9.178703e+01 3.784673e+00 2.962243e+00 5.476979e+00 6.739206e+00 5.938519e+00 5.261725e+00 4.934799e+00 5.740677e+00 5.143328e+00 5.233027e+00 4.273254e+00 3.593274e+00 5.842118e+00 7.063771e-01 5.264745e-01 7.219918e-01 1.306004e+00 8.714619e-01 9.627032e-01 8.925607e-01 8.574713e-01 9.040241e-01 8.985572e-01 7.361450e-01 6.145092e-01 1.047982e+00
<GCONST> 1.429341e+02
<STATE> 3
<MEAN> 39
 1.926767e+00 -4.688288e+00 -6.114123e+00 -2.091200e+01 -1.244311e+01 9.586759e+00 -1.285780e+01 -5.352323e+00 -2.456215e+00 -2.482591e+00 7.054899e+00 -6.017206e+00 6.827605e+01 1.122799e-01 -1.169451e-01 -4.779077e-02 -1.098244e-01 2.175920e-01 2.363505e-01 1.853068e-01 3.189776e-03 -5.607595e-02 -2.280736e-04 2.718095e-02 -1.217313e-01 -1.641701e-01 -2.302297e-01 2.084485e-01 1.636857e-01 8.049257e-01 2.748248e-01 -6.732230e-01 5.039498e-02 -2.133775e-02 7.726695e-04 7.828190e-02 -5.153832e-01 8.242764e-02 -4.928826e-01
<VARIANCE> 39
 1.209885e+01 4.209928e+01 3.969279e+01 6.467268e+01 4.292410e+01 4.538429e+01 8.653765e+01 7.467085e+01 7.340464e+01 7.192497e+01 5.122163e+01 5.071617e+01 3.401641e+01 6.603121e-01 2.126589e+00 1.579641e+00 5.090078e+00 2.610413e+00 3.546773e+00 3.254261e+00 3.111613e+00 3.547594e+00 4.010022e+00 2.992597e+00 2.520819e+00 2.727895e+00 2.251446e-01 3.319771e-01 3.873691e-01 6.077400e-01 6.227369e-01 5.479711e-01 5.799028e-01 6.970321e-01 6.420076e-01 7.486200e-01 5.700099e-01 5.165077e-01 3.337306e-01
<GCONST> 1.256400e+02
<STATE> 4
<MEAN> 39
 1.902262e+00 -2.808634e+00 -5.963100e+00 -1.832674e+01 -1.002317e+01 6.059215e+00 -1.159927e+01 -4.466506e+00 -2.978788e+00 -1.816710e+00 3.698895e+00 -6.090984e+00 6.247467e+01 -2.019109e-01 2.706250e-01 2.961413e-01 1.247472e+00 3.825617e-01 -9.243456e-01 1.671617e-01 -1.289127e-01 9.675349e-02 1.780092e-01 -7.557912e-01 3.449248e-02 -9.809000e-01 -9.658007e-02 6.572524e-02 1.295367e-01 2.781947e-01 3.850212e-02 -1.512052e-01 1.758814e-03 -3.975524e-02 1.267130e-02 -3.887171e-02 -1.010052e-01 4.731386e-02 -1.178902e-01
<VARIANCE> 39
 2.121059e+01 5.438738e+01 4.689651e+01 8.350463e+01 4.950627e+01 5.318119e+01 8.419466e+01 5.513614e+01 6.140827e+01 5.695868e+01 5.069661e+01 4.821888e+01 1.074598e+02 7.905607e-01 1.652642e+00 1.763724e+00 3.939291e+00 2.472692e+00 2.803226e+00 2.760712e+00 2.728161e+00 2.590462e+00 2.638503e+00 2.534380e+00 2.061914e+00 2.342053e+00 1.499462e-01 2.828891e-01 2.737944e-01 4.919027e-01 4.275782e-01 4.297927e-01 5.008689e-01 4.638053e-01 4.696622e-01 4.735785e-01 4.155669e-01 3.684879e-01 3.195014e-01
<GCONST> 1.217062e+02
<TRANSP> 5
 0.000000e+00 1.000000e+00 0.000000e+00 0.000000e+00 0.000000e+00
 0.000000e+00 6.084473e-01 3.915527e-01 0.000000e+00 0.000000e+00
 0.000000e+00 0.000000e+00 6.633660e-01 3.366340e-01 0.000000e+00
 0.000000e+00 0.000000e+00 0.000000e+00 8.148573e-01 1.851428e-01
 0.000000e+00 0.000000e+00 0.000000e+00 0.000000e+00 0.000000e+00
<ENDHMM>
~h "p"
<BEGINHMM>
<NUMSTATES> 5
<STATE> 2
<MEAN> 39
 -6.330851e+00 1.845099e+00 -1.671051e+00 -3.726141e+00 -4.887783e+00 -2.098228e+00 -5.908257e+00 -5.353117e+00 -4.067718e+00 -2.435272e+00 -3.211958e+00 -4.848805e+00 3.970988e+01 -8.709255e-01 2.296928e-01 -2.078564e-01 4.010912e-01 1.245226e-01 -3.603351e-01 2.606531e-01 1.150454e-01 2.362652e-01 -2.634126e-02 -5.357975e-02 3.255343e-01 -1.369926e+00 -7.528206e-03 -3.409688e-01 -5.775625e-02 -1.863685e-01 -9.675042e-02 1.908906e-02 -1.456265e-01 5.593168e-02 2.361393e-02 6.266699e-03 1.164294e-01 2.497805e-02 7.851099e-01
<VARIANCE> 39
 4.457579e+01 2.786515e+01 3.112345e+01 3.365244e+01 2.696696e+01 3.611735e+01 3.509642e+01 2.975485e+01 3.218904e+01 2.654655e+01 2.576419e+01 2.905899e+01 6.551589e+01 1.680518e+00 2.332051e+00 1.848417e+00 2.245209e+00 2.199327e+00 2.382042e+00 2.420564e+00 2.482882e+00 2.682090e+00 2.353679e+00 2.225688e+00 2.025887e+00 6.208287e+00 3.596310e-01 4.300433e-01 3.616911e-01 4.574430e-01 4.553238e-01 5.110220e-01 4.845839e-01 5.058274e-01 5.153060e-01 4.914429e-01 4.615162e-01 4.002278e-01 1.053173e+00
<GCONST> 1.190122e+02
<STATE> 3
<MEAN> 39
 -7.718520e+00 1.467172e-01 -2.407252e+00 -4.353312e+00 -5.123385e+00 -2.838059e+00 -6.511476e+00 -5.194333e+00 -3.059249e+00 -2.512818e+00 -2.517800e+00 -3.646925e+00 4.462533e+01 4.296018e-01 -1.873347e+00 -8.552857e-01 -1.298847e+00 -3.240336e-01 4.981287e-01 -5.514987e-01 1.476240e-01 2.364045e-01 -5.856739e-02 7.473773e-01 -2.545877e-02 4.958759e+00 7.263453e-01 -5.141914e-01 -4.543759e-02 -6.549470e-01 -2.924763e-01 4.997436e-01 -2.947429e-01 8.323187e-02 -7.506176e-02 4.080612e-02 2.057896e-01 -5.078734e-01 1.365618e+00
<VARIANCE> 39
 3.244866e+01 3.417506e+01 3.033399e+01 4.685228e+01 2.927757e+01 4.569564e+01 4.287113e+01 3.116339e+01 3.073539e+01 2.650165e+01 2.624797e+01 2.584814e+01 1.334040e+02 5.422202e+00 4.836246e+00 4.489531e+00 7.130248e+00 3.793064e+00 7.259004e+00 4.071382e+00 4.222989e+00 4.437325e+00 3.309664e+00 3.699322e+00 4.403192e+00 1.650299e+01 6.857097e-01 7.675878e-01 7.713391e-01 1.103077e+00 8.196021e-01 1.134066e+00 7.611903e-01 8.565426e-01 9.038957e-01 6.242318e-01 7.013420e-01 7.776882e-01 2.497295e+00
<GCONST> 1.380659e+02
<STATE> 4
<MEAN> 39
 -7.081525e+00 -4.610896e+00 -4.508382e+00 -7.129243e+00 -5.157784e+00 -1.006456e+00 -7.619868e+00 -4.664512e+00 -3.070651e+00 -2.747032e+00 -1.678278e+00 -4.300955e+00 5.305082e+01 1.499903e+00 -1.405913e+00 -1.937063e-01 -1.571699e+00 -7.287739e-01 8.975722e-01 -8.214688e-01 2.487313e-01 -4.163930e-02 4.295018e-02 6.031619e-01 -7.634174e-01 4.088080e+00 2.739649e-01 1.956659e-01 2.820407e-01 -8.782298e-02 -1.593068e-01 9.363213e-02 -7.693269e-02 9.442007e-02 -3.729814e-02 4.577574e-02 -3.277898e-02 -2.036865e-01 -3.646972e-01
<VARIANCE> 39
 5.442714e+01 4.646416e+01 3.043471e+01 7.090256e+01 3.062880e+01 6.627599e+01 4.016945e+01 2.902761e+01 2.830658e+01 2.406661e+01 2.834956e+01 3.109780e+01 1.798772e+02 5.064079e+00 6.513702e+00 4.966094e+00 7.964977e+00 4.631539e+00 7.023004e+00 4.328973e+00 4.704185e+00 4.455664e+00 3.427434e+00 3.642416e+00 4.505895e+00 1.646916e+01 9.040111e-01 7.407319e-01 6.445730e-01 1.339176e+00 8.323665e-01 1.092547e+00 6.939898e-01 6.617272e-01 7.042038e-01 5.569944e-01 6.926637e-01 5.788568e-01 2.189643e+00
<GCONST> 1.398724e+02
<TRANSP> 5
 0.000000e+00 1.000000e+00 0.000000e+00 0.000000e+00 0.000000e+00
 0.000000e+00 8.249846e-01 1.750154e-01 0.000000e+00 0.000000e+00
 0.000000e+00 0.000000e+00 5.474303e-01 4.525697e-01 0.000000e+00
 0.000000e+00 0.000000e+00 0.000000e+00 5.466802e-01 4.533198e-01
 0.000000e+00 0.000000e+00 0.000000e+00 0.000000e+00 0.000000e+00
<ENDHMM>
~h "q"
<BEGINHMM>
<NUMSTATES> 5
<STATE> 2
<MEAN> 39
 -8.422833e+00 2.383874e+00 9.382980e-01 -4.372128e+00 -1.145092e+01 -8.326076e+00 -5.384132e+00 -5.394428e+00 -2.943858e+00 -4.792325e+00 -4.459873e+00 -4.308122e+00 4.832170e+01 -6.859555e-01 9.387238e-02 -9.448599e-01 1.842267e-01 1.512422e+00 -1.064184e-01 1.050461e-01 6.077209e-01 -8.906935e-01 -2.878116e-01 -1.797206e-01 7.838594e-01 -9.650265e-01 -1.451614e-01 -6.042154e-01 6.202281e-01 -1.404997e-01 -3.623948e-01 2.761036e-01 -3.160258e-01 -3.978350e-01 1.531473e-01 -7.045802e-02 1.004620e+00 5.857322e-02 9.544965e-01
<VARIANCE> 39
 1.317744e+01 3.558372e+01 1.725322e+02 4.795008e+01 5.365228e+01 2.357723e+01 4.225376e+01 2.002560e+01 3.914266e+01 2.671597e+01 6.909750e+01 3.280629e+01 6.099001e+01 2.535423e+00 3.209698e+00 1.241414e+01 1.731563e+00 3.372636e+00 1.192704e+00 2.723625e+00 3.303416e+00 3.980092e+00 2.193452e+00 5.548121e+00 2.593704e+00 7.751605e+00 7.165243e-01 9.813118e-01 1.579006e+00 5.550579e-01 1.182361e+00 4.745346e-01 4.181600e-01 2.848206e-01 2.354398e-01 1.097103e+00 1.064776e+00 5.662360e-01 1.546733e+00
<GCONST> 1.305424e+02
<STATE> 3
<MEAN> 39
 -7.485058e+00 -5.638125e+00 7.883132e+00 -4.216781e+00 -1.779771e+01 -7.315843e+00 -3.239952e+00 -3.571937e+00 -1.413058e+00 -8.320916e+00 4.098772e+00 -5.240763e+00 5.726320e+01 -3.157602e-01 -2.331366e-01 2.975685e-01 1.602500e-01 1.588625e-01 -4.254155e-01 -3.124563e-01 -1.152082e-01 -4.372358e-01 3.127985e-01 1.003831e+00 5.779524e-01 6.359670e-01 -1.235512e-01 1.710224e-01 -9.300615e-02 -1.681048e-03 5.320774e-02 -7.747981e-02 -1.274887e-01 3.246776e-02 1.608376e-01 2.852688e-01 -1.614003e-01 8.943607e-02 -1.975671e-01
<VARIANCE> 39
 1.145680e+01 5.540953e+01 8.468152e+01 1.722459e+01 7.765345e+01 2.864721e+01 3.612019e+01 3.929419e+01 2.187702e+01 1.509175e+01 8.713911e+01 1.037098e+01 1.168400e+02 3.395492e+00 3.037383e+00 7.735313e+00 2.552781e+00 7.403912e+00 4.561698e+00 2.542415e+00 2.068865e+00 1.841770e+00 3.130581e+00 7.502469e+00 2.029735e+00 1.177044e+01 4.467551e-01 7.086063e-01 6.187243e-01 4.524511e-01 7.392142e-01 6.393113e-01 3.886735e-01 4.848357e-01 4.314551e-01 4.318444e-01 1.035350e+00 3.114097e-01 1.684721e+00
<GCONST> 1.280524e+02
<STATE> 4
<MEAN> 39
 -1.074016e+01 1.480933e-01 2.597420e+00 -3.024189e+00 -1.140150e+01 -1.100536e+01 -6.130794e+00 -6.269346e+00 -3.856062e+00 -3.888966e+00 -5.808961e-01 -1.885352e+00 4.728074e+01 -1.040576e+00 6.728911e-01 -1.506653e+00 -8.706619e-01 1.206341e+00 7.525200e-01 -3.106324e-01 7.570944e-01 -6.072610e-01 7.944518e-01 -5.706143e-01 5.220183e-01 -3.472865e-01 7.763545e-02 -5.022764e-02 2.660108e-01 -1.529655e-03 -2.567596e-01 3.968054e-01 -8.790408e-03 1.093002e-01 -2.231271e-01 2.869298e-02 4.013792e-01 -4.837097e-02 6.944890e-01
<VARIANCE> 39
 2.907874e+01 1.816299e+01 7.469563e+01 3.857730e+01 7.725942e+01 5.006373e+01 3.316191e+01 1.251682e+01 2.451116e+01 1.107714e+01 2.665044e+01 7.807271e+00 6.663549e+01 5.328637e+00 1.726546e+00 9.758241e+00 4.808643e+00 4.344494e+00 4.334160e+00 2.379848e+00 1.894019e+00 2.726106e+00 2.437231e+00 3.665720e+00 2.568485e+00 1.248950e+01 5.606601e-01 5.088436e-01 1.770728e+00 1.305844e+00 1.059934e+00 7.913606e-01 4.756537e-01 3.390243e-01 2.440949e-01 8.356226e-01 4.212347e-01 3.008051e-01 8.027744e-01
<GCONST> 1.262207e+02
<TRANSP> 5
 0.000000e+00 1.000000e+00 0.000000e+00 0.000000e+00 0.000000e+00
 0.000000e+00 8.483969e-02 9.151603e-01 0.000000e+00 0.000000e+00
 0.000000e+00 0.000000e+00 5.768976e-01 4.231025e-01 0.000000e+00
 0.000000e+00 0.000000e+00 0.000000e+00 6.486696e-01 3.513305e-01
 0.000000e+00 0.000000e+00 0.000000e+00 0.000000e+00 0.000000e+00
<ENDHMM>
~h "r"
<BEGINHMM>
<NUMSTATES> 5
<STATE> 2
<MEAN> 39
 -7.132497e-01 -7.897004e+00 -3.543888e+00 -4.419283e+00 -9.388007e+00 -4.444866e+00 -1.263911e+01 -2.482454e+00 2.444814e+00 -9.553276e-01 -1.306997e+00 -6.358950e+00 6.501727e+01 2.715305e-01 -9.477796e-02 -1.724816e-01 1.305021e+00 -4.016633e-01 -2.496385e-01 -5.139158e-01 -1.883854e-01 5.950721e-01 -1.692870e-01 2.093063e-01 2.301899e-01 -4.112853e-01 -7.015931e-02 9.008734e-03 1.693676e-01 -2.850462e-01 -3.817313e-02 1.788188e-01 -2.188771e-04 1.225248e-01 -3.405448e-01 -6.352944e-02 1.117538e-01 -4.574450e-02 3.290564e-03
<VARIANCE> 39
 2.839257e+01 3.980109e+01 5.541999e+01 6.303361e+01 5.624586e+01 4.772695e+01 8.263172e+01 7.196346e+01 6.715994e+01 5.488658e+01 4.794605e+01 4.217230e+01 7.184077e+01 2.601489e+00 3.091331e+00 3.335184e+00 6.104604e+00 4.593443e+00 4.660846e+00 4.725879e+00 5.886029e+00 4.945928e+00 4.803340e+00 4.157501e+00 3.661816e+00 4.281550e+00 5.132797e-01 5.363859e-01 5.351617e-01 1.065470e+00 8.097771e-01 7.737112e-01 8.813403e-01 1.043090e+00 9.004686e-01 8.679180e-01 7.596225e-01 6.481783e-01 7.236983e-01
<GCONST> 1.387014e+02
<STATE> 3
<MEAN> 39
 -2.287922e-02 -8.007828e+00 -3.498362e+00 -1.985968e+00 -1.084677e+01 -4.719861e+00 -1.392406e+01 -2.502615e+00 3.103839e+00 -1.405881e+00 -4.440206e-01 -5.923687e+00 6.447942e+01 9.863874e-02 3.973538e-02 3.415322e-01 2.143105e-01 -1.949928e-01 6.978240e-02 -2.222600e-01 2.450676e-01 -4.668804e-01 -1.946503e-01 2.883552e-01 1.417969e-01 -4.045613e-01 -1.045675e-01 4.885292e-02 2.229927e-01 -5.386519e-01 8.749130e-02 1.810799e-01 1.800634e-01 1.415923e-01 -4.709696e-01 8.425404e-03 -1.309334e-02 -1.048658e-01 1.153209e-01
<VARIANCE> 39
 2.778833e+01 3.596811e+01 6.073074e+01 5.149652e+01 6.026374e+01 4.988199e+01 8.906872e+01 6.655277e+01 6.920936e+01 5.672458e+01 4.595008e+01 4.100238e+01 5.340947e+01 2.528689e+00 3.168228e+00 3.541254e+00 4.265681e+00 4.763993e+00 4.348228e+00 4.836656e+00 5.657340e+00 4.913301e+00 4.713582e+00 3.948382e+00 3.759427e+00 3.568021e+00 5.093084e-01 5.631860e-01 5.652298e-01 8.662694e-01 1.028965e+00 8.320524e-01 9.738322e-01 1.085698e+00 1.018910e+00 9.636813e-01 8.799151e-01 6.862397e-01 6.209216e-01
<GCONST> 1.383089e+02
<STATE> 4
<MEAN> 39
 -9.283881e-01 -6.734969e+00 -1.962085e+00 -3.286906e+00 -9.756369e+00 -5.034018e+00 -1.319461e+01 -1.401900e+00 5.387127e-01 -1.677777e+00 -7.431682e-01 -5.655237e+00 6.170093e+01 -1.043207e-01 2.506741e-01 5.432186e-01 -3.472880e-01 2.013127e-02 2.144333e-01 1.655797e-01 1.117116e-01 -8.782758e-01 -1.144252e-01 7.229217e-02 4.419432e-02 -3.114534e-01 -8.271926e-02 3.834293e-02 1.042698e-01 -1.832545e-01 -1.024488e-02 1.031073e-01 1.074649e-01 -2.454312e-02 -1.354534e-01 1.527319e-02 -4.115372e-02 -7.722679e-02 8.051121e-02
<VARIANCE> 39
 3.984203e+01 4.991648e+01 6.911831e+01 4.928992e+01 6.315416e+01 5.650025e+01 8.531088e+01 6.293237e+01 6.091236e+01 5.051640e+01 4.404300e+01 4.144186e+01 1.054864e+02 2.312595e+00 3.092607e+00 3.158786e+00 2.933696e+00 4.293724e+00 3.556408e+00 4.026901e+00 4.416497e+00 4.252418e+00 3.545526e+00 3.474259e+00 2.850293e+00 3.391196e+00 4.169759e-01 4.509748e-01 4.521422e-01 5.951726e-01 7.635383e-01 6.832089e-01 7.745686e-01 7.622993e-01 7.236755e-01 6.782604e-01 6.463372e-01 5.356230e-01 4.734129e-01
<GCONST> 1.337177e+02
<TRANSP> 5
 0.000000e+00 1.000000e+00 0.000000e+00 0.000000e+00 0.000000e+00
 0.000000e+00 4.850678e-01 5.149322e-01 0.000000e+00 0.000000e+00
 0.000000e+00 0.000000e+00 4.518989e-01 5.481011e-01 0.000000e+00
 0.000000e+00 0.000000e+00 0.000000e+00 5.889417e-01 4.110583e-01
 0.000000e+00 0.000000e+00 0.000000e+00 0.000000e+00 0.000000e+00
<ENDHMM>
~h "s"
<BEGINHMM>
<NUMSTATES> 5
<STATE> 2
<MEAN> 39
 -1.269253e+01 4.062475e+00 -8.344919e-02 -3.084771e+00 -1.259915e+00 -7.320389e+00 -5.974424e+00 -2.210272e+00 -2.557353e+00 -2.312048e+00 -4.085094e+00 -1.929982e+00 6.251115e+01 -4.371195e+00 2.130324e+00 -1.201934e+00 1.063272e+00 1.589161e+00 -2.996656e-02 1.673835e+00 5.255569e-01 4.190336e-01 -5.316840e-01 5.323665e-01 8.315734e-01 -6.019940e-01 -3.120254e-01 -5.238609e-01 -2.923977e-01 -3.023826e-01 -4.426850e-01 2.860689e-01 -2.371195e-01 1.483943e-02 -3.520538e-02 2.958613e-02 2.830936e-01 -2.252650e-01 -9.577242e-03
<VARIANCE> 39
 8.135415e+01 5.083838e+01 5.161569e+01 4.587925e+01 5.234281e+01 4.721809e+01 7.733386e+01 4.497564e+01 5.056834e+01 4.121949e+01 4.412836e+01 2.821729e+01 7.417196e+01 4.369694e+00 6.080674e+00 4.336843e+00 4.512611e+00 5.352054e+00 5.022669e+00 5.214081e+00 5.183774e+00 4.581010e+00 3.730387e+00 3.933402e+00 2.778021e+00 2.077298e+00 1.154601e+00 8.332508e-01 4.772273e-01 6.290048e-01 7.553458e-01 7.829947e-01 9.177279e-01 7.562605e-01 6.670231e-01 6.779612e-01 6.002675e-01 4.869123e-01 2.479315e-01
<GCONST> 1.360692e+02
<STATE> 3
<MEAN> 39
 -2.840661e+01 5.876028e+00 -6.881763e+00 -2.535503e+00 1.586642e-01 -6.513097e+00 -2.502358e+00 -1.044990e+00 -1.311437e+00 -3.135211e+00 -2.492839e-01 -4.364445e-02 6.058479e+01 -6.789677e-01 -5.452982e-01 -5.898610e-01 -2.714393e-01 -3.260623e-01 -7.258654e-02 -1.018208e-01 -7.291286e-02 1.453181e-01 3.473101e-02 2.184975e-01 8.953441e-02 -3.166196e-01 1.075340e+00 -2.798969e-01 4.225042e-01 -1.526308e-01 -2.460951e-01 -5.229615e-02 -3.446323e-01 -1.569272e-01 -4.786681e-02 4.346783e-02 -1.752140e-01 -1.921595e-01 1.286341e-01
<VARIANCE> 39
 3.291500e+01 2.304949e+01 3.832369e+01 3.485406e+01 3.070129e+01 4.021919e+01 4.887732e+01 3.147692e+01 3.088240e+01 2.568097e+01 2.650543e+01 1.975532e+01 3.473190e+01 6.040709e+00 2.115722e+00 2.817230e+00 1.847649e+00 2.235527e+00 2.313188e+00 2.676489e+00 2.481618e+00 2.209527e+00 1.971362e+00 1.958078e+00 1.741704e+00 1.345401e+00 5.345564e-01 4.354209e-01 4.279952e-01 4.224754e-01 5.036663e-01 5.110261e-01 6.043557e-01 5.585014e-01 4.622717e-01 4.270684e-01 3.957176e-01 3.800181e-01 2.356084e-01
<GCONST> 1.166028e+02
<STATE> 4
<MEAN> 39
 -2.000553e+01 9.804797e-01 -5.530643e+00 -3.479121e+00 -2.724930e+00 -6.154798e+00 -5.254028e+00 -1.966082e+00 -1.632508e+00 -2.524199e+00 -1.741549e+00 -9.445942e-01 5.293210e+01 2.139896e+00 -4.582491e-01 8.147032e-01 -3.700011e-01 -5.916665e-01 6.659031e-02 -9.135835e-01 -3.875150e-01 -1.423856e-01 8.409645e-02 -2.109355e-01 -6.194509e-01 3.483158e-01 3.144173e-01 -3.347676e-02 1.847099e-01 -7.158312e-02 -5.003874e-02 1.435044e-01 -1.227879e-01 1.224838e-02 -8.865962e-02 2.975894e-02 6.064877e-02 -9.507110e-02 1.719100e-01
<VARIANCE> 39
 8.421540e+01 3.458821e+01 4.538008e+01 3.473185e+01 3.204252e+01 4.007554e+01 5.411882e+01 3.594247e+01 3.278866e+01 3.118804e+01 2.675979e+01 2.484247e+01 1.259568e+02 1.005347e+01 2.948137e+00 4.255425e+00 3.198689e+00 3.037534e+00 3.202577e+00 4.387291e+00 3.541280e+00 3.020681e+00 2.632984e+00 2.435597e+00 2.590380e+00 4.226786e+00 9.525240e-01 4.299681e-01 5.011674e-01 4.645152e-01 4.522204e-01 5.524237e-01 6.952324e-01 5.714791e-01 5.024823e-01 4.815454e-01 4.500042e-01 4.074876e-01 4.781235e-01
<GCONST> 1.278752e+02
<TRANSP> 5
 0.000000e+00 1.000000e+00 0.000000e+00 0.000000e+00 0.000000e+00
 0.000000e+00 7.003263e-01 2.996737e-01 0.000000e+00 0.000000e+00
 0.000000e+00 0.000000e+00 8.089865e-01 1.910135e-01 0.000000e+00
 0.000000e+00 0.000000e+00 0.000000e+00 8.417471e-01 1.582529e-01
 0.000000e+00 0.000000e+00 0.000000e+00 0.000000e+00 0.000000e+00
<ENDHMM>
~h "t"
<BEGINHMM>
<NUMSTATES> 5
<STATE> 2
<MEAN> 39
 -6.379319e+00 2.164856e+00 -9.521220e-01 -3.188990e+00 -5.205470e+00 -4.962821e+00 -7.374251e+00 -4.552667e+00 -2.089856e+00 -1.523128e+00 -3.615456e+00 -5.580597e+00 4.329290e+01 -9.162406e-01 6.552850e-02 -2.919433e-01 2.416034e-01 2.303583e-01 -2.347167e-02 5.222065e-01 5.924509e-02 1.868047e-02 -2.097817e-01 -2.309710e-03 4.225210e-01 -1.665953e+00 -1.630380e-01 -5.217407e-01 -8.003826e-02 -3.077688e-01 -7.196970e-02 -4.176314e-03 -9.559428e-02 9.333847e-02 1.906036e-02 -1.742359e-02 1.127962e-01 5.189926e-02 1.033236e+00
<VARIANCE> 39
 3.649434e+01 3.403431e+01 4.464085e+01 3.793983e+01 3.478887e+01 3.626831e+01 4.915046e+01 3.816765e+01 4.057180e+01 3.399392e+01 3.616541e+01 3.489694e+01 1.013924e+02 2.560734e+00 4.076129e+00 2.718307e+00 3.076447e+00 3.321494e+00 2.858750e+00 3.258664e+00 3.128247e+00 3.164726e+00 2.745911e+00 2.710099e+00 2.513376e+00 1.050767e+01 4.596801e-01 6.764595e-01 4.800758e-01 6.020263e-01 6.303405e-01 6.279933e-01 6.490408e-01 6.396390e-01 6.221079e-01 5.665098e-01 5.406793e-01 5.114670e-01 1.787418e+00
<GCONST> 1.294142e+02
<STATE> 3
<MEAN> 39
 -1.112983e+01 -1.048574e+00 -2.144809e+00 -3.861256e+00 -4.521427e+00 -5.775511e+00 -6.303157e+00 -4.084915e+00 -1.954936e+00 -2.308933e+00 -3.011826e+00 -3.496307e+00 4.576277e+01 -9.804083e-01 -1.848201e+00 -5.888867e-01 -1.170133e+00 1.814742e-01 -4.079091e-01 -2.236884e-01 2.738137e-01 2.875526e-01 -2.339141e-01 2.613146e-01 2.542232e-01 4.551655e+00 8.024716e-01 -1.001022e-01 2.289740e-01 -3.891212e-01 -3.373185e-01 1.875238e-01 -5.509043e-01 1.680161e-02 2.966429e-02 1.049707e-01 8.602484e-02 -4.951956e-01 1.292972e+00
<VARIANCE> 39
 4.072822e+01 4.328565e+01 3.763343e+01 3.847562e+01 3.350411e+01 3.907537e+01 4.604733e+01 3.353548e+01 3.548935e+01 2.871958e+01 3.130574e+01 2.938408e+01 1.339337e+02 5.531628e+00 4.753421e+00 4.715054e+00 4.843524e+00 4.248906e+00 4.579005e+00 5.018566e+00 4.643620e+00 5.287266e+00 3.471696e+00 3.840494e+00 4.344820e+00 1.885421e+01 9.568968e-01 8.634911e-01 9.135226e-01 8.269043e-01 9.034064e-01 9.777148e-01 9.621558e-01 9.577032e-01 9.865019e-01 7.277047e-01 7.665984e-01 7.957436e-01 2.506971e+00
<GCONST> 1.401896e+02
<STATE> 4
<MEAN> 39
 -1.032434e+01 -4.881749e+00 -3.245240e+00 -7.534374e+00 -5.464049e+00 -6.641617e+00 -8.276106e+00 -3.477963e+00 -1.124379e+00 -2.583985e+00 -2.908833e+00 -4.773736e+00 5.968089e+01 1.738299e+00 -8.362136e-01 6.160671e-01 -1.356379e+00 -7.970431e-01 4.769399e-01 -1.629527e+00 1.786998e-01 1.135431e-01 2.167592e-01 4.460610e-01 -1.070534e+00 4.539652e+00 7.162386e-01 3.925866e-01 4.135087e-01 1.214500e-01 -3.014447e-01 5.040801e-01 -2.452992e-01 -1.518289e-02 -2.055611e-01 1.195839e-01 1.333916e-01 -2.363206e-01 -8.693318e-01
<VARIANCE> 39
 5.024963e+01 3.598512e+01 4.272184e+01 4.183232e+01 3.242590e+01 4.205794e+01 5.520508e+01 3.252058e+01 3.973999e+01 3.055333e+01 3.225630e+01 3.856282e+01 1.275444e+02 6.087860e+00 4.911491e+00 6.953177e+00 5.673500e+00 5.017532e+00 5.737452e+00 6.475707e+00 6.322797e+00 6.344751e+00 4.177433e+00 4.682859e+00 5.007071e+00 1.516937e+01 1.063572e+00 7.769070e-01 9.644182e-01 7.964319e-01 8.711756e-01 9.936524e-01 1.192948e+00 9.055541e-01 9.129922e-01 7.407122e-01 7.635658e-01 7.940369e-01 2.181931e+00
<GCONST> 1.431163e+02
<TRANSP> 5
 0.000000e+00 1.000000e+00 0.000000e+00 0.000000e+00 0.000000e+00
 0.000000e+00 7.670778e-01 2.329222e-01 0.000000e+00 0.000000e+00
 0.000000e+00 0.000000e+00 5.277332e-01 4.722668e-01 0.000000e+00
 0.000000e+00 0.000000e+00 0.000000e+00 5.260499e-01 4.739501e-01
 0.000000e+00 0.000000e+00 0.000000e+00 0.000000e+00 0.000000e+00
<ENDHMM>
~h "u"
<BEGINHMM>
<NUMSTATES> 5
<STATE> 2
<MEAN> 39
 -2.928748e-01 1.386109e+00 -3.312277e-01 -8.689334e+00 -1.052551e+01 1.648330e-01 -1.630005e+01 -7.457869e+00 -6.672035e+00 -2.960979e+00 1.900916e+00 -4.118175e+00 6.090930e+01 1.730707e+00 5.703522e-01 -1.217456e-01 -1.973196e+00 -1.509797e+00 2.094208e+00 -1.504058e+00 -6.563367e-01 -1.098464e+00 -1.670993e-01 1.676955e+00 -7.231327e-02 1.135458e+00 -3.030402e-01 4.135531e-02 7.730310e-02 2.316082e-02 1.213919e-01 9.906635e-02 4.219544e-01 1.170397e-01 7.368333e-02 9.889036e-03 -1.386174e-01 -7.728164e-03 -4.273571e-01
<VARIANCE> 39
 3.191963e+01 4.431371e+01 5.546204e+01 1.002652e+02 5.274577e+01 6.619681e+01 9.419114e+01 6.958698e+01 6.793338e+01 5.383564e+01 5.341634e+01 3.789611e+01 8.895856e+01 4.839861e+00 3.571240e+00 5.358026e+00 6.237395e+00 5.897230e+00 5.864144e+00 6.503637e+00 6.962931e+00 6.336171e+00 5.198774e+00 4.826734e+00 4.181188e+00 5.181736e+00 7.988278e-01 6.522682e-01 7.529191e-01 1.269064e+00 1.026644e+00 1.052478e+00 1.399531e+00 1.188435e+00 1.054567e+00 8.911536e-01 8.911937e-01 7.359268e-01 1.077527e+00
<GCONST> 1.461462e+02
<STATE> 3
<MEAN> 39
 2.508882e+00 2.038004e+00 -1.422076e+00 -1.313200e+01 -1.382451e+01 6.779589e+00 -1.864208e+01 -9.444517e+00 -9.003444e+00 -4.067699e+00 6.038035e+00 -3.738590e+00 6.420686e+01 1.597384e-01 6.887589e-03 7.123312e-02 1.620603e-02 1.256618e-01 1.783328e-01 9.533593e-02 -8.768719e-02 7.945333e-02 1.938346e-01 9.363360e-02 -1.164919e-01 -1.939082e-01 -3.961856e-01 -7.163471e-02 1.387217e-01 6.842065e-01 5.107740e-01 -7.720322e-01 5.187926e-01 2.608406e-01 4.479942e-01 6.384430e-02 -6.818312e-01 -7.856732e-02 -4.376695e-01
<VARIANCE> 39
 1.404005e+01 4.636712e+01 4.160735e+01 9.102279e+01 4.501816e+01 6.591869e+01 8.384103e+01 9.590179e+01 8.635503e+01 7.324509e+01 5.570073e+01 4.543399e+01 3.294728e+01 1.188328e+00 3.501826e+00 2.641344e+00 8.071292e+00 4.849924e+00 6.213455e+00 6.100357e+00 6.219892e+00 5.571505e+00 5.481379e+00 5.128884e+00 3.597317e+00 3.520308e+00 3.481315e-01 5.337796e-01 5.642986e-01 1.055827e+00 9.130981e-01 9.633602e-01 1.132246e+00 1.242355e+00 1.057705e+00 1.089493e+00 9.574647e-01 8.005122e-01 4.475005e-01
<GCONST> 1.396701e+02
<STATE> 4
<MEAN> 39
 2.469604e+00 3.849289e+00 -7.376611e-01 -1.257577e+01 -1.144713e+01 2.805969e+00 -1.650331e+01 -7.684098e+00 -7.700685e+00 -3.252919e+00 2.647309e+00 -4.271003e+00 5.951553e+01 -4.315690e-01 -5.184365e-02 2.591659e-01 1.011725e+00 6.267241e-01 -9.012460e-01 7.918058e-01 1.274110e-01 6.592556e-01 1.617216e-01 -8.355840e-01 -1.724895e-01 -9.104165e-01 -2.146159e-01 -6.743374e-02 6.829884e-02 1.956062e-01 8.381559e-02 -1.101066e-01 1.007191e-01 3.715137e-02 8.359618e-02 -1.435529e-02 -1.234860e-01 1.553524e-02 -4.648082e-02
<VARIANCE> 39
 1.867192e+01 5.106938e+01 4.523015e+01 9.197282e+01 4.653424e+01 6.501967e+01 8.786452e+01 7.499057e+01 7.667936e+01 6.063287e+01 5.375643e+01 4.293793e+01 7.539018e+01 1.352885e+00 2.573453e+00 2.455189e+00 4.409932e+00 3.637817e+00 3.789614e+00 4.236684e+00 4.069579e+00 4.002028e+00 3.572972e+00 3.758574e+00 3.261703e+00 3.548417e+00 2.447598e-01 4.198385e-01 3.711151e-01 7.053082e-01 6.183622e-01 6.386534e-01 8.028054e-01 7.146268e-01 6.611240e-01 6.572850e-01 6.531209e-01 5.464673e-01 4.265898e-01
<GCONST> 1.319074e+02
<TRANSP> 5
 0.000000e+00 1.000000e+00 0.000000e+00 0.000000e+00 0.000000e+00
 0.000000e+00 5.699524e-01 4.300477e-01 0.000000e+00 0.000000e+00
 0.000000e+00 0.000000e+00 6.354997e-01 3.645003e-01 0.000000e+00
 0.000000e+00 0.000000e+00 0.000000e+00 7.408386e-01 2.591614e-01
 0.000000e+00 0.000000e+00 0.000000e+00 0.000000e+00 0.000000e+00
<ENDHMM>
~h "w"
<BEGINHMM>
<NUMSTATES> 5
<STATE> 2
<MEAN> 39
 2.269530e+00 -9.385339e-01 -2.223494e+00 -1.455781e+01 -1.013278e+01 4.415473e+00 -1.179271e+01 -3.714220e+00 -6.949222e+00 -2.578978e+00 2.921584e+00 -6.381984e+00 6.079144e+01 1.031465e+00 7.989368e-01 -1.103886e-02 -1.738790e+00 -1.000630e+00 1.260822e+00 -1.750027e-01 -1.168966e-01 -8.636889e-01 -4.984738e-01 9.853055e-01 6.269231e-01 1.960222e-01 -2.260324e-01 -1.955162e-01 9.304582e-02 1.083556e-01 -7.803702e-02 -1.675525e-01 1.204234e-01 1.665726e-01 1.860876e-01 -1.217044e-01 -9.809648e-02 1.173899e-02 6.138798e-02
<VARIANCE> 39
 3.565363e+01 8.455521e+01 4.752355e+01 8.415057e+01 5.479200e+01 6.400809e+01 9.284938e+01 7.796806e+01 8.692233e+01 4.989622e+01 5.486488e+01 5.492126e+01 1.172529e+02 2.179618e+00 3.599237e+00 2.900912e+00 3.720536e+00 3.965521e+00 4.031653e+00 4.232375e+00 4.296851e+00 4.408919e+00 3.425618e+00 3.782498e+00 3.622770e+00 3.921781e+00 4.072803e-01 5.140505e-01 4.565487e-01 6.130857e-01 7.275473e-01 6.713794e-01 7.634527e-01 7.233873e-01 8.107253e-01 6.917090e-01 7.051982e-01 6.344054e-01 3.237488e-01
<GCONST> 1.363347e+02
<STATE> 3
<MEAN> 39
 4.646309e+00 -5.451512e-01 -2.776742e+00 -2.148798e+01 -1.527185e+01 9.324665e+00 -1.285041e+01 -4.537476e+00 -5.635405e+00 -5.267762e+00 7.063147e+00 -4.069106e+00 6.446307e+01 -2.183252e-01 -7.853166e-01 -3.746845e-01 -3.111570e-01 1.635502e-01 3.610526e-01 9.116051e-03 -6.905829e-02 6.438181e-01 2.657843e-01 4.557340e-01 -4.770136e-01 7.174081e-01 -2.644776e-01 -4.059097e-01 -8.384965e-02 4.623396e-01 4.259599e-01 -2.852769e-01 -4.978349e-03 4.023527e-02 3.233473e-01 2.419736e-01 -2.789182e-01 -4.657489e-01 1.864648e-01
<VARIANCE> 39
 1.406599e+01 4.982128e+01 3.526456e+01 6.179741e+01 3.711583e+01 4.550240e+01 7.554147e+01 8.693185e+01 7.786013e+01 4.766340e+01 5.323471e+01 4.698827e+01 3.368232e+01 8.015246e-01 4.172687e+00 1.748215e+00 2.731703e+00 3.643869e+00 2.808959e+00 2.348919e+00 2.596427e+00 3.382602e+00 3.653688e+00 3.172449e+00 4.161382e+00 2.381887e+00 9.040295e-02 3.052030e-01 3.009931e-01 3.493239e-01 4.747794e-01 5.707170e-01 4.199480e-01 5.719975e-01 5.177255e-01 5.872947e-01 7.696863e-01 5.634163e-01 2.190123e-01
<GCONST> 1.224465e+02
<STATE> 4
<MEAN> 39
 3.296464e+00 -4.792498e+00 -4.729423e+00 -2.120790e+01 -1.095216e+01 8.961157e+00 -1.350725e+01 -2.724215e+00 -3.473603e+00 -3.512806e+00 5.286160e+00 -9.596044e+00 6.670204e+01 -3.859132e-01 -7.038968e-01 -1.145669e-01 7.026724e-01 6.825942e-01 -4.481538e-01 2.970105e-02 1.299570e-01 4.922316e-01 1.829274e-01 -7.067855e-01 -7.335068e-01 3.013404e-01 -1.436488e-02 8.769441e-02 1.269957e-01 1.635788e-01 -5.171414e-02 -2.376895e-01 2.934115e-03 1.015940e-01 -5.552074e-02 -5.671589e-02 -1.648051e-01 1.471066e-01 -1.074795e-01
<VARIANCE> 39
 1.624489e+01 8.655421e+01 5.460450e+01 6.792519e+01 5.532904e+01 5.025912e+01 5.566832e+01 5.406469e+01 7.062580e+01 5.039663e+01 5.785979e+01 6.176386e+01 4.552182e+01 5.513202e-01 2.252538e+00 1.127308e+00 2.058761e+00 2.673122e+00 2.642353e+00 1.740016e+00 2.206105e+00 2.249141e+00 2.047874e+00 2.727875e+00 3.139763e+00 1.242003e+00 6.644136e-02 2.522368e-01 1.887599e-01 2.464752e-01 3.772766e-01 3.751711e-01 3.165849e-01 3.763764e-01 3.202776e-01 3.958491e-01 4.196493e-01 4.763140e-01 1.434185e-01
<GCONST> 1.146552e+02
<TRANSP> 5
 0.000000e+00 1.000000e+00 0.000000e+00 0.000000e+00 0.000000e+00
 0.000000e+00 7.126914e-01 2.873087e-01 0.000000e+00 0.000000e+00
 0.000000e+00 0.000000e+00 7.340854e-01 2.659146e-01 0.000000e+00
 0.000000e+00 0.000000e+00 0.000000e+00 8.374915e-01 1.625085e-01
 0.000000e+00 0.000000e+00 0.000000e+00 0.000000e+00 0.000000e+00
<ENDHMM>
~h "y"
<BEGINHMM>
<NUMSTATES> 5
<STATE> 2
<MEAN> 39
 -5.088525e+00 -4.177631e+00 1.182143e+01 -8.542182e+00 -1.596654e+01 -6.647151e+00 -1.211136e+01 1.330629e+00 -6.500152e+00 -3.897919e+00 1.631115e+00 -4.173111e+00 6.498925e+01 -3.399276e-01 9.570632e-01 2.470670e+00 6.624732e-03 -1.728449e+00 -2.602002e-01 -9.440408e-01 -6.587223e-01 -1.410509e+00 1.755666e-01 1.586606e+00 6.581526e-01 3.361934e-01 1.152745e-02 -5.843209e-02 -3.449590e-01 -7.297526e-03 2.411779e-01 2.131873e-01 -9.358088e-02 -2.152716e-01 1.157537e-01 2.649040e-02 -8.416656e-02 -1.521228e-01 -1.613399e-02
<VARIANCE> 39
 2.221624e+01 7.829269e+01 8.574709e+01 4.756665e+01 5.456150e+01 4.662142e+01 6.027328e+01 8.852731e+01 6.920522e+01 7.286695e+01 5.780056e+01 3.183694e+01 1.078346e+02 1.299960e+00 2.824646e+00 3.381639e+00 2.252685e+00 3.537225e+00 3.074146e+00 4.002784e+00 4.254310e+00 3.622186e+00 4.165539e+00 2.740638e+00 2.731525e+00 3.044192e+00 1.765385e-01 3.715311e-01 6.292611e-01 3.954208e-01 6.387950e-01 6.111110e-01 6.639377e-01 7.915698e-01 5.826488e-01 6.253070e-01 5.404884e-01 4.260770e-01 2.399716e-01
<GCONST> 1.293876e+02
<STATE> 3
<MEAN> 39
 -6.285563e+00 -1.843064e+00 1.777308e+01 -8.668638e+00 -2.108075e+01 -6.881521e+00 -1.633008e+01 -1.965272e+00 -9.762460e+00 -3.114670e+00 6.372486e+00 -3.255806e+00 6.768313e+01 1.759209e-01 -7.597026e-01 -8.260259e-01 -2.120040e-01 -3.958904e-01 -4.210964e-01 3.146355e-01 7.882676e-01 6.245955e-01 3.394218e-01 -4.224917e-02 6.119380e-02 6.594445e-01 1.337420e-01 -3.261618e-01 -6.736738e-01 -3.676035e-02 3.988348e-01 1.431369e-02 3.375518e-01 4.097567e-01 4.262560e-01 -4.957061e-02 -4.704894e-01 -1.872138e-01 3.762735e-02
<VARIANCE> 39
 1.188086e+01 4.011928e+01 5.139518e+01 3.772533e+01 3.376843e+01 3.542994e+01 3.862401e+01 6.043378e+01 6.518874e+01 9.075362e+01 5.020993e+01 2.972903e+01 3.478875e+01 5.313826e-01 2.802859e+00 3.917392e+00 1.294427e+00 2.284616e+00 2.007488e+00 2.965395e+00 4.714633e+00 3.156072e+00 2.657182e+00 2.263484e+00 1.631018e+00 1.291272e+00 7.404295e-02 2.155633e-01 2.978814e-01 2.204518e-01 5.763091e-01 4.218336e-01 4.586558e-01 5.266712e-01 4.058282e-01 5.650946e-01 4.122906e-01 3.579054e-01 1.306688e-01
<GCONST> 1.145536e+02
<STATE> 4
<MEAN> 39
 -5.760392e+00 -6.979061e+00 7.886845e+00 -9.890346e+00 -1.688774e+01 -7.205026e+00 -1.010338e+01 3.300385e+00 -6.095325e+00 -2.206684e+00 -5.731742e-01 -3.362198e+00 6.531783e+01 3.073687e-01 -8.322696e-01 -1.658451e+00 -8.549896e-02 1.276263e+00 3.628769e-01 5.221090e-01 8.156959e-01 9.612463e-01 -6.094845e-01 -1.339137e+00 -6.393836e-01 2.337051e-01 2.798224e-02 1.267031e-01 2.634620e-02 3.646648e-02 3.036185e-01 2.400081e-01 -1.872373e-01 -3.496223e-01 -9.171368e-02 -4.710320e-02 -4.855395e-02 -1.371069e-01 -1.531395e-01
<VARIANCE> 39
 2.005335e+01 5.679770e+01 9.556008e+01 4.504841e+01 5.491473e+01 3.458614e+01 5.543322e+01 8.011636e+01 8.505231e+01 6.694092e+01 5.504725e+01 3.015683e+01 1.552954e+02 4.601004e-01 1.588948e+00 3.267038e+00 1.096427e+00 3.101555e+00 1.801358e+00 2.514548e+00 3.019554e+00 2.762055e+00 2.935734e+00 3.263605e+00 1.927813e+00 7.717285e-01 6.153964e-02 1.896029e-01 2.609894e-01 1.966266e-01 4.252670e-01 4.079415e-01 3.802528e-01 5.742073e-01 3.887957e-01 4.149003e-01 3.990460e-01 2.771469e-01 1.031152e-01
<GCONST> 1.155287e+02
<TRANSP> 5
 0.000000e+00 1.000000e+00 0.000000e+00 0.000000e+00 0.000000e+00
 0.000000e+00 7.110562e-01 2.889437e-01 0.000000e+00 0.000000e+00
 0.000000e+00 0.000000e+00 8.053402e-01 1.946599e-01 0.000000e+00
 0.000000e+00 0.000000e+00 0.000000e+00 7.773601e-01 2.226399e-01
 0.000000e+00 0.000000e+00 0.000000e+00 0.000000e+00 0.000000e+00
<ENDHMM>
~h "z"
<BEGINHMM>
<NUMSTATES> 5
<STATE> 2
<MEAN> 39
 -7.888462e+00 6.624738e+00 2.892031e+00 -3.377455e-01 -5.757867e+00 -1.038578e+01 -1.178836e+01 -5.532599e+00 -3.274444e+00 -2.115207e+00 -4.571160e+00 -7.771841e-01 6.252366e+01 -1.983324e+00 2.464362e+00 -9.798415e-01 1.269198e+00 1.338991e+00 -2.724923e-01 1.243019e+00 -2.000516e-01 1.675210e-01 -2.830458e-01 -2.333812e-01 7.351435e-01 -7.613404e-01 -1.881686e-01 -2.090502e-01 -4.017697e-02 -1.923334e-01 -9.335230e-02 3.839128e-01 6.654628e-02 1.636044e-01 5.542275e-02 3.782746e-02 1.865907e-01 -2.205352e-01 1.383236e-02
<VARIANCE> 39
 4.588109e+01 4.729313e+01 6.581327e+01 4.674762e+01 6.546458e+01 4.511621e+01 7.447364e+01 4.291709e+01 6.035055e+01 4.210922e+01 3.806907e+01 2.383652e+01 5.471822e+01 3.122951e+00 4.745368e+00 3.498260e+00 3.821910e+00 4.706250e+00 3.602762e+00 4.709139e+00 4.397134e+00 3.510802e+00 3.252859e+00 3.110049e+00 2.153898e+00 1.518448e+00 3.747874e-01 5.847062e-01 4.549973e-01 4.477761e-01 6.016594e-01 5.489326e-01 8.047387e-01 6.174607e-01 4.841186e-01 5.512323e-01 5.701895e-01 3.888178e-01 1.674733e-01
<GCONST> 1.284794e+02
<STATE> 3
<MEAN> 39
 -1.726579e+01 1.366530e+01 -5.171192e-01 3.266959e+00 -6.781982e-01 -9.640011e+00 -7.484781e+00 -4.193973e+00 -2.150649e+00 -2.537358e+00 -3.463697e+00 2.516303e-01 6.081633e+01 -1.123331e+00 7.278480e-02 -1.376393e-01 2.809243e-01 3.551297e-01 3.299945e-01 3.913213e-01 2.611787e-01 7.573061e-02 -1.008694e-02 2.901567e-01 1.447301e-01 -1.327196e-01 5.697321e-01 -6.572076e-01 2.651474e-01 -2.772685e-01 -4.017690e-01 -7.142414e-02 -3.675605e-01 -7.690907e-02 -4.884314e-02 -2.232350e-02 6.607788e-02 -7.374669e-02 2.501019e-01
<VARIANCE> 39
 4.734290e+01 3.500331e+01 4.115440e+01 4.093829e+01 4.164022e+01 3.876627e+01 5.353783e+01 2.844125e+01 2.927234e+01 2.815537e+01 2.389273e+01 1.908962e+01 3.441070e+01 2.758370e+00 2.857253e+00 1.779528e+00 1.651143e+00 2.524956e+00 2.422667e+00 2.762641e+00 2.116832e+00 2.069690e+00 1.974072e+00 1.767981e+00 1.382333e+00 1.116161e+00 4.381376e-01 5.075587e-01 3.304026e-01 3.888269e-01 5.205813e-01 5.127233e-01 5.292283e-01 4.790869e-01 4.612847e-01 4.218579e-01 3.807590e-01 3.048554e-01 1.896783e-01
<GCONST> 1.150391e+02
<STATE> 4
<MEAN> 39
 -1.538685e+01 4.416753e+00 -8.168914e-01 -1.218067e-01 -2.876493e+00 -6.820938e+00 -6.547117e+00 -3.059486e+00 -4.059154e+00 -3.667220e+00 -2.949059e+00 -6.496566e-01 4.904835e+01 5.004991e-01 -4.616008e-01 2.990266e-01 -2.637962e-01 -5.204305e-01 -1.504695e-01 -4.115493e-01 -1.049774e-01 2.132447e-02 -2.426587e-02 1.809996e-01 -4.248660e-02 3.525839e-01 2.163802e-01 -1.213597e-01 6.803239e-02 -1.116840e-01 -1.698793e-01 4.541171e-02 -1.335412e-01 -6.336093e-03 1.751132e-02 1.166879e-02 2.137758e-02 -8.275899e-02 8.984794e-02
<VARIANCE> 39
 4.352421e+01 6.594971e+01 4.430065e+01 3.953602e+01 3.022301e+01 3.720729e+01 4.253355e+01 3.082795e+01 2.672785e+01 2.368577e+01 2.180210e+01 2.067752e+01 1.753764e+02 2.884595e+00 2.532400e+00 1.759586e+00 1.948252e+00 2.887995e+00 2.160672e+00 3.041794e+00 2.298923e+00 2.157420e+00 1.800238e+00 1.651251e+00 1.442737e+00 1.641635e+00 3.545032e-01 3.122393e-01 3.023816e-01 3.402478e-01 4.081062e-01 4.608924e-01 4.899244e-01 4.379044e-01 3.920501e-01 3.611032e-01 3.227121e-01 3.070675e-01 1.811088e-01
<GCONST> 1.150965e+02
<TRANSP> 5
 0.000000e+00 1.000000e+00 0.000000e+00 0.000000e+00 0.000000e+00
 0.000000e+00 7.031233e-01 2.968767e-01 0.000000e+00 0.000000e+00
 0.000000e+00 0.000000e+00 7.687287e-01 2.312714e-01 0.000000e+00
 0.000000e+00 0.000000e+00 0.000000e+00 8.960053e-01 1.039947e-01
 0.000000e+00 0.000000e+00 0.000000e+00 0.000000e+00 0.000000e+00
<ENDHMM>
~h "ai"
<BEGINHMM>
<NUMSTATES> 5
<STATE> 2
<MEAN> 39
 -2.002267e+00 -1.395873e+01 -1.875824e+00 -1.154946e+01 -9.809429e+00 -4.527019e+00 -1.106179e+01 5.981732e+00 2.038408e+00 -5.338035e+00 -3.375889e+00 -9.671255e+00 7.283567e+01 -1.926061e-01 -6.129436e-01 1.365909e+00 -5.574780e-02 -1.627149e+00 -1.161901e+00 7.733806e-01 1.666127e+00 -4.753036e-01 -3.871596e-01 9.925340e-02 8.045678e-01 6.457018e-01 -2.228220e-01 6.227284e-01 3.408813e-01 1.744205e-01 -2.519752e-01 -5.231415e-02 2.652364e-02 -4.649234e-01 -4.955602e-01 2.895682e-01 3.670505e-01 3.711720e-01 -5.231699e-01
<VARIANCE> 39
 1.156634e+01 3.401513e+01 5.757241e+01 3.857551e+01 4.954454e+01 4.733030e+01 7.645757e+01 6.296680e+01 5.879294e+01 6.228604e+01 5.875166e+01 4.172380e+01 2.443552e+01 1.377452e+00 2.976995e+00 2.411123e+00 2.357754e+00 3.350457e+00 3.663872e+00 3.079453e+00 4.028703e+00 3.538400e+00 3.113815e+00 3.625868e+00 3.332594e+00 1.815290e+00 3.589453e-01 3.006066e-01 3.589747e-01 4.248984e-01 5.805168e-01 6.009949e-01 6.512666e-01 7.804140e-01 6.277187e-01 5.964670e-01 7.117414e-01 6.425281e-01 2.872192e-01
<GCONST> 1.256167e+02
<STATE> 3
<MEAN> 39
 -3.875515e+00 -1.160650e+01 6.352597e+00 -1.079811e+01 -1.880161e+01 -9.444229e+00 -8.953983e+00 8.030557e+00 -3.149195e+00 -3.325340e+00 1.363716e+00 -4.386555e+00 7.192576e+01 -4.236391e-01 1.176531e+00 1.931703e+00 -6.389463e-02 -1.763415e+00 -3.991387e-01 -1.343717e-01 -8.417302e-01 -1.502079e+00 1.126361e+00 1.405753e+00 6.443224e-01 -4.989394e-01 1.880627e-02 3.395678e-01 -1.372024e-01 1.181464e-01 4.941201e-01 3.286744e-01 -3.017800e-01 -6.735888e-01 1.146888e-02 6.839404e-02 -1.361080e-01 -2.510518e-01 -3.307481e-01
<VARIANCE> 39
 1.063665e+01 3.568333e+01 4.780069e+01 3.713099e+01 3.877122e+01 2.857177e+01 6.084383e+01 5.054629e+01 6.479711e+01 6.542636e+01 6.474896e+01 2.751355e+01 2.610090e+01 5.045513e-01 1.915000e+00 2.334200e+00 1.543244e+00 2.922229e+00 2.052817e+00 3.089502e+00 3.382041e+00 3.609629e+00 2.769997e+00 2.731462e+00 2.080241e+00 1.122616e+00 1.152124e-01 2.292224e-01 3.388440e-01 2.553487e-01 4.768614e-01 3.976096e-01 5.512450e-01 5.611374e-01 5.834692e-01 5.007699e-01 5.642054e-01 3.840366e-01 1.632937e-01
<GCONST> 1.152895e+02
<STATE> 4
<MEAN> 39
 -4.573668e+00 -4.077758e+00 1.261606e+01 -8.969185e+00 -2.056152e+01 -8.888249e+00 -1.237034e+01 6.928077e-01 -8.393113e+00 -2.380204e-01 3.403640e+00 -4.379354e+00 6.587440e+01 3.977549e-02 8.638168e-01 6.129884e-02 5.341306e-01 5.274456e-01 1.864387e-01 -1.270588e-02 -8.443277e-01 -1.989619e-01 1.264487e-02 -2.564941e-01 -5.928531e-02 -1.267686e+00 2.302708e-02 -3.850805e-02 -3.210840e-01 9.138134e-02 3.403997e-01 9.093647e-02 1.104091e-01 5.591776e-02 1.910253e-01 -1.213602e-01 -2.019468e-01 -2.919173e-02 -1.024507e-01
<VARIANCE> 39
 1.674874e+01 5.594675e+01 4.819271e+01 4.467404e+01 3.743250e+01 3.782695e+01 5.199355e+01 7.458199e+01 5.077000e+01 5.697228e+01 5.292921e+01 3.505329e+01 6.840458e+01 1.064631e+00 2.007994e+00 2.851038e+00 2.113640e+00 3.094842e+00 2.182467e+00 3.042765e+00 3.284182e+00 2.804088e+00 2.415481e+00 2.595661e+00 1.733124e+00 2.486205e+00 2.029122e-01 2.873962e-01 3.297974e-01 3.442498e-01 4.799813e-01 4.150812e-01 5.390708e-01 5.452808e-01 4.779933e-01 4.298168e-01 4.256499e-01 3.189766e-01 3.450686e-01
<GCONST> 1.200311e+02
<TRANSP> 5
 0.000000e+00 1.000000e+00 0.000000e+00 0.000000e+00 0.000000e+00
 0.000000e+00 7.324741e-01 2.675259e-01 0.000000e+00 0.000000e+00
 0.000000e+00 0.000000e+00 5.997176e-01 4.002825e-01 0.000000e+00
 0.000000e+00 0.000000e+00 0.000000e+00 8.833127e-01 1.166873e-01
 0.000000e+00 0.000000e+00 0.000000e+00 0.000000e+00 0.000000e+00
<ENDHMM>
~h "au"
<BEGINHMM>
<NUMSTATES> 5
<STATE> 2
<MEAN> 39
 7.562522e-01 -1.067645e+01 -7.591136e+00 -1.899338e+01 -6.179606e+00 6.448298e+00 -1.477131e+01 -3.260638e+00 6.408219e-01 7.867193e-01 -1.034705e-01 -1.297723e+01 7.209320e+01 2.133285e-01 2.073141e-01 -7.160843e-02 -7.617684e-01 7.899625e-02 5.949728e-01 -8.771905e-02 -2.920758e-01 -2.511775e-01 -1.283292e-01 8.399398e-01 -2.063590e-02 -1.450139e-01 1.921164e-02 2.842619e-01 1.113807e-01 7.200445e-02 -1.777559e-01 -1.319232e-01 2.193342e-02 -1.164027e-01 -1.963471e-01 -2.451881e-02 1.830683e-01 3.722607e-01 -2.476015e-01
<VARIANCE> 39
 1.282929e+01 3.191496e+01 3.048022e+01 3.979585e+01 2.856592e+01 3.874609e+01 4.842043e+01 4.565553e+01 3.940594e+01 4.828033e+01 4.355661e+01 4.324156e+01 1.994711e+01 4.318929e-01 1.876625e+00 8.190331e-01 1.416828e+00 1.277295e+00 2.171294e+00 1.314600e+00 2.514930e+00 1.622673e+00 2.005499e+00 2.484781e+00 3.398870e+00 5.759132e-01 1.292665e-01 2.819474e-01 1.600608e-01 2.743974e-01 2.184640e-01 3.496186e-01 2.805916e-01 4.861921e-01 3.185240e-01 3.585837e-01 4.749601e-01 5.877920e-01 1.398412e-01
<GCONST> 1.060902e+02
<STATE> 3
<MEAN> 39
 3.701114e+00 -3.578171e+00 -6.785100e+00 -2.386235e+01 -9.865661e+00 8.315085e+00 -1.555653e+01 -4.382513e+00 -3.435616e+00 -2.258558e+00 5.026040e+00 -7.899142e+00 6.708211e+01 3.383797e-01 1.009211e+00 2.691289e-01 3.428566e-02 -4.544334e-01 -3.574213e-01 -9.602381e-02 -4.027046e-02 -5.478891e-01 -2.154566e-01 5.856268e-02 7.485234e-01 -9.227044e-01 -5.484611e-02 -4.015933e-02 3.619740e-02 3.186771e-01 7.306909e-02 -1.676659e-01 1.461215e-02 1.691278e-02 6.389926e-02 5.667329e-02 -2.438487e-01 -9.482133e-02 -7.276256e-02
<VARIANCE> 39
 1.399189e+01 6.531241e+01 3.888828e+01 4.099475e+01 3.916964e+01 3.989991e+01 5.964752e+01 4.006533e+01 5.331640e+01 5.833034e+01 4.718822e+01 5.256598e+01 3.816445e+01 3.890756e-01 1.618198e+00 9.129188e-01 2.095245e+00 1.729755e+00 1.853968e+00 1.803883e+00 1.987908e+00 2.264201e+00 2.201940e+00 2.464823e+00 2.860154e+00 7.614200e-01 5.690498e-02 2.150022e-01 1.542717e-01 3.214253e-01 2.944314e-01 3.047763e-01 3.128590e-01 3.590885e-01 3.737409e-01 3.844519e-01 4.330800e-01 4.805117e-01 9.423801e-02
<GCONST> 1.085416e+02
<STATE> 4
<MEAN> 39
 -4.075969e+00 -4.635720e-01 -4.512774e+00 -9.781532e+00 -6.701907e+00 -2.358580e-01 -8.469357e+00 -3.793878e+00 -4.402254e+00 -3.444281e+00 -2.267694e+00 -3.162123e+00 4.665869e+01 -3.114776e-01 9.974673e-02 1.553026e-01 9.179941e-01 2.215883e-01 -4.891027e-01 8.873724e-02 -1.827536e-01 1.184310e-02 2.135937e-01 -3.582371e-01 6.496442e-02 -6.928332e-01 -7.101037e-02 -6.639647e-02 3.738852e-02 1.174768e-01 5.619793e-02 -1.045904e-02 3.562547e-02 -5.428595e-03 3.372158e-02 1.326321e-02 -3.904273e-02 -4.629045e-02 5.408432e-02
<VARIANCE> 39
 7.111667e+01 6.639311e+01 2.383158e+01 8.727798e+01 4.248103e+01 4.772069e+01 8.049411e+01 3.791179e+01 3.798276e+01 4.194474e+01 4.348902e+01 3.009167e+01 1.432347e+02 9.453360e-01 1.518496e+00 1.661870e+00 3.104993e+00 2.302331e+00 2.430565e+00 2.730951e+00 2.183057e+00 2.442713e+00 2.281976e+00 2.225132e+00 2.105036e+00 1.354738e+00 1.765285e-01 2.624311e-01 2.776006e-01 4.849765e-01 4.345210e-01 4.166818e-01 4.806867e-01 4.403920e-01 4.434648e-01 4.405108e-01 4.411714e-01 4.145000e-01 1.783928e-01
<GCONST> 1.186111e+02
<TRANSP> 5
 0.000000e+00 1.000000e+00 0.000000e+00 0.000000e+00 0.000000e+00
 0.000000e+00 7.948220e-01 2.051781e-01 0.000000e+00 0.000000e+00
 0.000000e+00 0.000000e+00 8.788580e-01 1.211420e-01 0.000000e+00
 0.000000e+00 0.000000e+00 0.000000e+00 7.854021e-01 2.145979e-01
 0.000000e+00 0.000000e+00 0.000000e+00 0.000000e+00 0.000000e+00
<ENDHMM>
~h "kh"
<BEGINHMM>
<NUMSTATES> 5
<STATE> 2
<MEAN> 39
 -1.049838e+01 -3.473790e+00 -5.388124e+00 -5.445983e+00 -6.916885e-01 -8.902140e-01 -6.838313e+00 -2.423856e+00 -3.023659e+00 -2.474996e+00 -3.868461e+00 -2.597662e+00 5.473199e+01 -1.433232e+00 -3.596627e-01 -8.190394e-01 -1.485965e-01 8.985611e-01 6.010570e-02 7.794996e-02 5.538698e-01 2.580126e-01 -1.004617e-02 1.869603e-01 5.041583e-01 -2.161552e-01 8.442352e-02 -1.176837e-01 8.073986e-02 -2.342398e-01 -3.222250e-01 -1.901740e-02 -1.543206e-01 -5.295970e-02 -1.038791e-03 7.765538e-02 9.413483e-02 -1.125621e-01 2.548924e-01
<VARIANCE> 39
