~h "a"
<BEGINHMM>
<NUMSTATES> 5
<STATE> 2
<MEAN> 39
 -6.570501e+00 -2.842432e+00 -2.380350e-01 -5.669234e+00 -6.880997e+00 -2.326709e+00 -8.604589e+00 -3.243548e+00 -3.556369e+00 -2.791252e+00 -2.148896e+00 -4.707316e+00 5.332627e+01 1.233406e-03 2.722908e-03 3.099747e-04 -6.220266e-04 -1.080091e-03 1.213892e-04 -3.125985e-04 -2.520005e-03 -8.831059e-04 -3.166275e-04 -1.101453e-03 -1.720859e-03 -1.478983e-03 -1.458462e-05 1.656858e-04 3.387034e-05 1.478188e-04 1.144279e-04 8.910822e-05 1.825462e-04 9.731779e-05 1.742467e-04 8.849645e-05 4.054986e-05 4.770775e-05 -1.321660e-04
<VARIANCE> 39
 6.796826e+01 6.679538e+01 8.035423e+01 6.740428e+01 6.652232e+01 5.539848e+01 7.382095e+01 6.407172e+01 6.256113e+01 4.715370e+01 5.048952e+01 4.461697e+01 2.348847e+02 2.692311e+00 3.025240e+00 3.081887e+00 3.342182e+00 3.436821e+00 3.091516e+00 3.506741e+00 3.883447e+00 3.413225e+00 2.940492e+00 3.013173e+00 2.582347e+00 5.249805e+00 4.082149e-01 4.660101e-01 4.789140e-01 5.567399e-01 6.143585e-01 5.543478e-01 6.357841e-01 6.948888e-01 6.073633e-01 5.483900e-01 5.566832e-01 4.755124e-01 7.097014e-01
<GCONST> 1.343107e+02
<STATE> 3
<MEAN> 39
 -6.570501e+00 -2.842432e+00 -2.380350e-01 -5.669234e+00 -6.880997e+00 -2.326709e+00 -8.604589e+00 -3.243548e+00 -3.556369e+00 -2.791252e+00 -2.148896e+00 -4.707316e+00 5.332627e+01 1.233406e-03 2.722908e-03 3.099747e-04 -6.220266e-04 -1.080091e-03 1.213892e-04 -3.125985e-04 -2.520005e-03 -8.831059e-04 -3.166275e-04 -1.101453e-03 -1.720859e-03 -1.478983e-03 -1.458462e-05 1.656858e-04 3.387034e-05 1.478188e-04 1.144279e-04 8.910822e-05 1.825462e-04 9.731779e-05 1.742467e-04 8.849645e-05 4.054986e-05 4.770775e-05 -1.321660e-04
<VARIANCE> 39
 6.796826e+01 6.679538e+01 8.035423e+01 6.740428e+01 6.652232e+01 5.539848e+01 7.382095e+01 6.407172e+01 6.256113e+01 4.715370e+01 5.048952e+01 4.461697e+01 2.348847e+02 2.692311e+00 3.025240e+00 3.081887e+00 3.342182e+00 3.436821e+00 3.091516e+00 3.506741e+00 3.883447e+00 3.413225e+00 2.940492e+00 3.013173e+00 2.582347e+00 5.249805e+00 4.082149e-01 4.660101e-01 4.789140e-01 5.567399e-01 6.143585e-01 5.543478e-01 6.357841e-01 6.948888e-01 6.073633e-01 5.483900e-01 5.566832e-01 4.755124e-01 7.097014e-01
<GCONST> 1.343107e+02
<STATE> 4
<MEAN> 39
 -6.570501e+00 -2.842432e+00 -2.380350e-01 -5.669234e+00 -6.880997e+00 -2.326709e+00 -8.604589e+00 -3.243548e+00 -3.556369e+00 -2.791252e+00 -2.148896e+00 -4.707316e+00 5.332627e+01 1.233406e-03 2.722908e-03 3.099747e-04 -6.220266e-04 -1.080091e-03 1.213892e-04 -3.125985e-04 -2.520005e-03 -8.831059e-04 -3.166275e-04 -1.101453e-03 -1.720859e-03 -1.478983e-03 -1.458462e-05 1.656858e-04 3.387034e-05 1.478188e-04 1.144279e-04 8.910822e-05 1.825462e-04 9.731779e-05 1.742467e-04 8.849645e-05 4.054986e-05 4.770775e-05 -1.321660e-04
<VARIANCE> 39
 6.796826e+01 6.679538e+01 8.035423e+01 6.740428e+01 6.652232e+01 5.539848e+01 7.382095e+01 6.407172e+01 6.256113e+01 4.715370e+01 5.048952e+01 4.461697e+01 2.348847e+02 2.692311e+00 3.025240e+00 3.081887e+00 3.342182e+00 3.436821e+00 3.091516e+00 3.506741e+00 3.883447e+00 3.413225e+00 2.940492e+00 3.013173e+00 2.582347e+00 5.249805e+00 4.082149e-01 4.660101e-01 4.789140e-01 5.567399e-01 6.143585e-01 5.543478e-01 6.357841e-01 6.948888e-01 6.073633e-01 5.483900e-01 5.566832e-01 4.755124e-01 7.097014e-01
<GCONST> 1.343107e+02
<TRANSP> 5
 0.000000e+00 1.000000e+00 0.000000e+00 0.000000e+00 0.000000e+00
 0.000000e+00 6.000000e-01 4.000000e-01 0.000000e+00 0.000000e+00
 0.000000e+00 0.000000e+00 6.000000e-01 4.000000e-01 0.000000e+00
 0.000000e+00 0.000000e+00 0.000000e+00 7.000000e-01 3.000000e-01
 0.000000e+00 0.000000e+00 0.000000e+00 0.000000e+00 0.000000e+00
<ENDHMM>
~h "b"
<BEGINHMM>
<NUMSTATES> 5
<STATE> 2
<MEAN> 39
 -6.570501e+00 -2.842432e+00 -2.380350e-01 -5.669234e+00 -6.880997e+00 -2.326709e+00 -8.604589e+00 -3.243548e+00 -3.556369e+00 -2.791252e+00 -2.148896e+00 -4.707316e+00 5.332627e+01 1.233406e-03 2.722908e-03 3.099747e-04 -6.220266e-04 -1.080091e-03 1.213892e-04 -3.125985e-04 -2.520005e-03 -8.831059e-04 -3.166275e-04 -1.101453e-03 -1.720859e-03 -1.478983e-03 -1.458462e-05 1.656858e-04 3.387034e-05 1.478188e-04 1.144279e-04 8.910822e-05 1.825462e-04 9.731779e-05 1.742467e-04 8.849645e-05 4.054986e-05 4.770775e-05 -1.321660e-04
<VARIANCE> 39
 6.796826e+01 6.679538e+01 8.035423e+01 6.740428e+01 6.652232e+01 5.539848e+01 7.382095e+01 6.407172e+01 6.256113e+01 4.715370e+01 5.048952e+01 4.461697e+01 2.348847e+02 2.692311e+00 3.025240e+00 3.081887e+00 3.342182e+00 3.436821e+00 3.091516e+00 3.506741e+00 3.883447e+00 3.413225e+00 2.940492e+00 3.013173e+00 2.582347e+00 5.249805e+00 4.082149e-01 4.660101e-01 4.789140e-01 5.567399e-01 6.143585e-01 5.543478e-01 6.357841e-01 6.948888e-01 6.073633e-01 5.483900e-01 5.566832e-01 4.755124e-01 7.097014e-01
<GCONST> 1.343107e+02
<STATE> 3
<MEAN> 39
 -6.570501e+00 -2.842432e+00 -2.380350e-01 -5.669234e+00 -6.880997e+00 -2.326709e+00 -8.604589e+00 -3.243548e+00 -3.556369e+00 -2.791252e+00 -2.148896e+00 -4.707316e+00 5.332627e+01 1.233406e-03 2.722908e-03 3.099747e-04 -6.220266e-04 -1.080091e-03 1.213892e-04 -3.125985e-04 -2.520005e-03 -8.831059e-04 -3.166275e-04 -1.101453e-03 -1.720859e-03 -1.478983e-03 -1.458462e-05 1.656858e-04 3.387034e-05 1.478188e-04 1.144279e-04 8.910822e-05 1.825462e-04 9.731779e-05 1.742467e-04 8.849645e-05 4.054986e-05 4.770775e-05 -1.321660e-04
<VARIANCE> 39
 6.796826e+01 6.679538e+01 8.035423e+01 6.740428e+01 6.652232e+01 5.539848e+01 7.382095e+01 6.407172e+01 6.256113e+01 4.715370e+01 5.048952e+01 4.461697e+01 2.348847e+02 2.692311e+00 3.025240e+00 3.081887e+00 3.342182e+00 3.436821e+00 3.091516e+00 3.506741e+00 3.883447e+00 3.413225e+00 2.940492e+00 3.013173e+00 2.582347e+00 5.249805e+00 4.082149e-01 4.660101e-01 4.789140e-01 5.567399e-01 6.143585e-01 5.543478e-01 6.357841e-01 6.948888e-01 6.073633e-01 5.483900e-01 5.566832e-01 4.755124e-01 7.097014e-01
<GCONST> 1.343107e+02
<STATE> 4
<MEAN> 39
 -6.570501e+00 -2.842432e+00 -2.380350e-01 -5.669234e+00 -6.880997e+00 -2.326709e+00 -8.604589e+00 -3.243548e+00 -3.556369e+00 -2.791252e+00 -2.148896e+00 -4.707316e+00 5.332627e+01 1.233406e-03 2.722908e-03 3.099747e-04 -6.220266e-04 -1.080091e-03 1.213892e-04 -3.125985e-04 -2.520005e-03 -8.831059e-04 -3.166275e-04 -1.101453e-03 -1.720859e-03 -1.478983e-03 -1.458462e-05 1.656858e-04 3.387034e-05 1.478188e-04 1.144279e-04 8.910822e-05 1.825462e-04 9.731779e-05 1.742467e-04 8.849645e-05 4.054986e-05 4.770775e-05 -1.321660e-04
<VARIANCE> 39
 6.796826e+01 6.679538e+01 8.035423e+01 6.740428e+01 6.652232e+01 5.539848e+01 7.382095e+01 6.407172e+01 6.256113e+01 4.715370e+01 5.048952e+01 4.461697e+01 2.348847e+02 2.692311e+00 3.025240e+00 3.081887e+00 3.342182e+00 3.436821e+00 3.091516e+00 3.506741e+00 3.883447e+00 3.413225e+00 2.940492e+00 3.013173e+00 2.582347e+00 5.249805e+00 4.082149e-01 4.660101e-01 4.789140e-01 5.567399e-01 6.143585e-01 5.543478e-01 6.357841e-01 6.948888e-01 6.073633e-01 5.483900e-01 5.566832e-01 4.755124e-01 7.097014e-01
<GCONST> 1.343107e+02
<TRANSP> 5
 0.000000e+00 1.000000e+00 0.000000e+00 0.000000e+00 0.000000e+00
 0.000000e+00 6.000000e-01 4.000000e-01 0.000000e+00 0.000000e+00
 0.000000e+00 0.000000e+00 6.000000e-01 4.000000e-01 0.000000e+00
 0.000000e+00 0.000000e+00 0.000000e+00 7.000000e-01 3.000000e-01
 0.000000e+00 0.000000e+00 0.000000e+00 0.000000e+00 0.000000e+00
<ENDHMM>
~h "d"
<BEGINHMM>
<NUMSTATES> 5
<STATE> 2
<MEAN> 39
 -6.570501e+00 -2.842432e+00 -2.380350e-01 -5.669234e+00 -6.880997e+00 -2.326709e+00 -8.604589e+00 -3.243548e+00 -3.556369e+00 -2.791252e+00 -2.148896e+00 -4.707316e+00 5.332627e+01 1.233406e-03 2.722908e-03 3.099747e-04 -6.220266e-04 -1.080091e-03 1.213892e-04 -3.125985e-04 -2.520005e-03 -8.831059e-04 -3.166275e-04 -1.101453e-03 -1.720859e-03 -1.478983e-03 -1.458462e-05 1.656858e-04 3.387034e-05 1.478188e-04 1.144279e-04 8.910822e-05 1.825462e-04 9.731779e-05 1.742467e-04 8.849645e-05 4.054986e-05 4.770775e-05 -1.321660e-04
<VARIANCE> 39
 6.796826e+01 6.679538e+01 8.035423e+01 6.740428e+01 6.652232e+01 5.539848e+01 7.382095e+01 6.407172e+01 6.256113e+01 4.715370e+01 5.048952e+01 4.461697e+01 2.348847e+02 2.692311e+00 3.025240e+00 3.081887e+00 3.342182e+00 3.436821e+00 3.091516e+00 3.506741e+00 3.883447e+00 3.413225e+00 2.940492e+00 3.013173e+00 2.582347e+00 5.249805e+00 4.082149e-01 4.660101e-01 4.789140e-01 5.567399e-01 6.143585e-01 5.543478e-01 6.357841e-01 6.948888e-01 6.073633e-01 5.483900e-01 5.566832e-01 4.755124e-01 7.097014e-01
<GCONST> 1.343107e+02
<STATE> 3
<MEAN> 39
 -6.570501e+00 -2.842432e+00 -2.380350e-01 -5.669234e+00 -6.880997e+00 -2.326709e+00 -8.604589e+00 -3.243548e+00 -3.556369e+00 -2.791252e+00 -2.148896e+00 -4.707316e+00 5.332627e+01 1.233406e-03 2.722908e-03 3.099747e-04 -6.220266e-04 -1.080091e-03 1.213892e-04 -3.125985e-04 -2.520005e-03 -8.831059e-04 -3.166275e-04 -1.101453e-03 -1.720859e-03 -1.478983e-03 -1.458462e-05 1.656858e-04 3.387034e-05 1.478188e-04 1.144279e-04 8.910822e-05 1.825462e-04 9.731779e-05 1.742467e-04 8.849645e-05 4.054986e-05 4.770775e-05 -1.321660e-04
<VARIANCE> 39
 6.796826e+01 6.679538e+01 8.035423e+01 6.740428e+01 6.652232e+01 5.539848e+01 7.382095e+01 6.407172e+01 6.256113e+01 4.715370e+01 5.048952e+01 4.461697e+01 2.348847e+02 2.692311e+00 3.025240e+00 3.081887e+00 3.342182e+00 3.436821e+00 3.091516e+00 3.506741e+00 3.883447e+00 3.413225e+00 2.940492e+00 3.013173e+00 2.582347e+00 5.249805e+00 4.082149e-01 4.660101e-01 4.789140e-01 5.567399e-01 6.143585e-01 5.543478e-01 6.357841e-01 6.948888e-01 6.073633e-01 5.483900e-01 5.566832e-01 4.755124e-01 7.097014e-01
<GCONST> 1.343107e+02
<STATE> 4
<MEAN> 39
 -6.570501e+00 -2.842432e+00 -2.380350e-01 -5.669234e+00 -6.880997e+00 -2.326709e+00 -8.604589e+00 -3.243548e+00 -3.556369e+00 -2.791252e+00 -2.148896e+00 -4.707316e+00 5.332627e+01 1.233406e-03 2.722908e-03 3.099747e-04 -6.220266e-04 -1.080091e-03 1.213892e-04 -3.125985e-04 -2.520005e-03 -8.831059e-04 -3.166275e-04 -1.101453e-03 -1.720859e-03 -1.478983e-03 -1.458462e-05 1.656858e-04 3.387034e-05 1.478188e-04 1.144279e-04 8.910822e-05 1.825462e-04 9.731779e-05 1.742467e-04 8.849645e-05 4.054986e-05 4.770775e-05 -1.321660e-04
<VARIANCE> 39
 6.796826e+01 6.679538e+01 8.035423e+01 6.740428e+01 6.652232e+01 5.539848e+01 7.382095e+01 6.407172e+01 6.256113e+01 4.715370e+01 5.048952e+01 4.461697e+01 2.348847e+02 2.692311e+00 3.025240e+00 3.081887e+00 3.342182e+00 3.436821e+00 3.091516e+00 3.506741e+00 3.883447e+00 3.413225e+00 2.940492e+00 3.013173e+00 2.582347e+00 5.249805e+00 4.082149e-01 4.660101e-01 4.789140e-01 5.567399e-01 6.143585e-01 5.543478e-01 6.357841e-01 6.948888e-01 6.073633e-01 5.483900e-01 5.566832e-01 4.755124e-01 7.097014e-01
<GCONST> 1.343107e+02
<TRANSP> 5
 0.000000e+00 1.000000e+00 0.000000e+00 0.000000e+00 0.000000e+00
 0.000000e+00 6.000000e-01 4.000000e-01 0.000000e+00 0.000000e+00
 0.000000e+00 0.000000e+00 6.000000e-01 4.000000e-01 0.000000e+00
 0.000000e+00 0.000000e+00 0.000000e+00 7.000000e-01 3.000000e-01
 0.000000e+00 0.000000e+00 0.000000e+00 0.000000e+00 0.000000e+00
<ENDHMM>
~h "i"
<BEGINHMM>
<NUMSTATES> 5
<STATE> 2
<MEAN> 39
 -6.570501e+00 -2.842432e+00 -2.380350e-01 -5.669234e+00 -6.880997e+00 -2.326709e+00 -8.604589e+00 -3.243548e+00 -3.556369e+00 -2.791252e+00 -2.148896e+00 -4.707316e+00 5.332627e+01 1.233406e-03 2.722908e-03 3.099747e-04 -6.220266e-04 -1.080091e-03 1.213892e-04 -3.125985e-04 -2.520005e-03 -8.831059e-04 -3.166275e-04 -1.101453e-03 -1.720859e-03 -1.478983e-03 -1.458462e-05 1.656858e-04 3.387034e-05 1.478188e-04 1.144279e-04 8.910822e-05 1.825462e-04 9.731779e-05 1.742467e-04 8.849645e-05 4.054986e-05 4.770775e-05 -1.321660e-04
<VARIANCE> 39
 6.796826e+01 6.679538e+01 8.035423e+01 6.740428e+01 6.652232e+01 5.539848e+01 7.382095e+01 6.407172e+01 6.256113e+01 4.715370e+01 5.048952e+01 4.461697e+01 2.348847e+02 2.692311e+00 3.025240e+00 3.081887e+00 3.342182e+00 3.436821e+00 3.091516e+00 3.506741e+00 3.883447e+00 3.413225e+00 2.940492e+00 3.013173e+00 2.582347e+00 5.249805e+00 4.082149e-01 4.660101e-01 4.789140e-01 5.567399e-01 6.143585e-01 5.543478e-01 6.357841e-01 6.948888e-01 6.073633e-01 5.483900e-01 5.566832e-01 4.755124e-01 7.097014e-01
<GCONST> 1.343107e+02
<STATE> 3
<MEAN> 39
 -6.570501e+00 -2.842432e+00 -2.380350e-01 -5.669234e+00 -6.880997e+00 -2.326709e+00 -8.604589e+00 -3.243548e+00 -3.556369e+00 -2.791252e+00 -2.148896e+00 -4.707316e+00 5.332627e+01 1.233406e-03 2.722908e-03 3.099747e-04 -6.220266e-04 -1.080091e-03 1.213892e-04 -3.125985e-04 -2.520005e-03 -8.831059e-04 -3.166275e-04 -1.101453e-03 -1.720859e-03 -1.478983e-03 -1.458462e-05 1.656858e-04 3.387034e-05 1.478188e-04 1.144279e-04 8.910822e-05 1.825462e-04 9.731779e-05 1.742467e-04 8.849645e-05 4.054986e-05 4.770775e-05 -1.321660e-04
<VARIANCE> 39
 6.796826e+01 6.679538e+01 8.035423e+01 6.740428e+01 6.652232e+01 5.539848e+01 7.382095e+01 6.407172e+01 6.256113e+01 4.715370e+01 5.048952e+01 4.461697e+01 2.348847e+02 2.692311e+00 3.025240e+00 3.081887e+00 3.342182e+00 3.436821e+00 3.091516e+00 3.506741e+00 3.883447e+00 3.413225e+00 2.940492e+00 3.013173e+00 2.582347e+00 5.249805e+00 4.082149e-01 4.660101e-01 4.789140e-01 5.567399e-01 6.143585e-01 5.543478e-01 6.357841e-01 6.948888e-01 6.073633e-01 5.483900e-01 5.566832e-01 4.755124e-01 7.097014e-01
<GCONST> 1.343107e+02
<STATE> 4
<MEAN> 39
 -6.570501e+00 -2.842432e+00 -2.380350e-01 -5.669234e+00 -6.880997e+00 -2.326709e+00 -8.604589e+00 -3.243548e+00 -3.556369e+00 -2.791252e+00 -2.148896e+00 -4.707316e+00 5.332627e+01 1.233406e-03 2.722908e-03 3.099747e-04 -6.220266e-04 -1.080091e-03 1.213892e-04 -3.125985e-04 -2.520005e-03 -8.831059e-04 -3.166275e-04 -1.101453e-03 -1.720859e-03 -1.478983e-03 -1.458462e-05 1.656858e-04 3.387034e-05 1.478188e-04 1.144279e-04 8.910822e-05 1.825462e-04 9.731779e-05 1.742467e-04 8.849645e-05 4.054986e-05 4.770775e-05 -1.321660e-04
<VARIANCE> 39
 6.796826e+01 6.679538e+01 8.035423e+01 6.740428e+01 6.652232e+01 5.539848e+01 7.382095e+01 6.407172e+01 6.256113e+01 4.715370e+01 5.048952e+01 4.461697e+01 2.348847e+02 2.692311e+00 3.025240e+00 3.081887e+00 3.342182e+00 3.436821e+00 3.091516e+00 3.506741e+00 3.883447e+00 3.413225e+00 2.940492e+00 3.013173e+00 2.582347e+00 5.249805e+00 4.082149e-01 4.660101e-01 4.789140e-01 5.567399e-01 6.143585e-01 5.543478e-01 6.357841e-01 6.948888e-01 6.073633e-01 5.483900e-01 5.566832e-01 4.755124e-01 7.097014e-01
<GCONST> 1.343107e+02
<TRANSP> 5
 0.000000e+00 1.000000e+00 0.000000e+00 0.000000e+00 0.000000e+00
 0.000000e+00 6.000000e-01 4.000000e-01 0.000000e+00 0.000000e+00
 0.000000e+00 0.000000e+00 6.000000e-01 4.000000e-01 0.000000e+00
 0.000000e+00 0.000000e+00 0.000000e+00 7.000000e-01 3.000000e-01
 0.000000e+00 0.000000e+00 0.000000e+00 0.000000e+00 0.000000e+00
<ENDHMM>
~h "ai"
<BEGINHMM>
<NUMSTATES> 5
<STATE> 2
<MEAN> 39
 -6.570501e+00 -2.842432e+00 -2.380350e-01 -5.669234e+00 -6.880997e+00 -2.326709e+00 -8.604589e+00 -3.243548e+00 -3.556369e+00 -2.791252e+00 -2.148896e+00 -4.707316e+00 5.332627e+01 1.233406e-03 2.722908e-03 3.099747e-04 -6.220266e-04 -1.080091e-03 1.213892e-04 -3.125985e-04 -2.520005e-03 -8.831059e-04 -3.166275e-04 -1.101453e-03 -1.720859e-03 -1.478983e-03 -1.458462e-05 1.656858e-04 3.387034e-05 1.478188e-04 1.144279e-04 8.910822e-05 1.825462e-04 9.731779e-05 1.742467e-04 8.849645e-05 4.054986e-05 4.770775e-05 -1.321660e-04
<VARIANCE> 39
 6.796826e+01 6.679538e+01 8.035423e+01 6.740428e+01 6.652232e+01 5.539848e+01 7.382095e+01 6.407172e+01 6.256113e+01 4.715370e+01 5.048952e+01 4.461697e+01 2.348847e+02 2.692311e+00 3.025240e+00 3.081887e+00 3.342182e+00 3.436821e+00 3.091516e+00 3.506741e+00 3.883447e+00 3.413225e+00 2.940492e+00 3.013173e+00 2.582347e+00 5.249805e+00 4.082149e-01 4.660101e-01 4.789140e-01 5.567399e-01 6.143585e-01 5.543478e-01 6.357841e-01 6.948888e-01 6.073633e-01 5.483900e-01 5.566832e-01 4.755124e-01 7.097014e-01
<GCONST> 1.343107e+02
<STATE> 3
<MEAN> 39
 -6.570501e+00 -2.842432e+00 -2.380350e-01 -5.669234e+00 -6.880997e+00 -2.326709e+00 -8.604589e+00 -3.243548e+00 -3.556369e+00 -2.791252e+00 -2.148896e+00 -4.707316e+00 5.332627e+01 1.233406e-03 2.722908e-03 3.099747e-04 -6.220266e-04 -1.080091e-03 1.213892e-04 -3.125985e-04 -2.520005e-03 -8.831059e-04 -3.166275e-04 -1.101453e-03 -1.720859e-03 -1.478983e-03 -1.458462e-05 1.656858e-04 3.387034e-05 1.478188e-04 1.144279e-04 8.910822e-05 1.825462e-04 9.731779e-05 1.742467e-04 8.849645e-05 4.054986e-05 4.770775e-05 -1.321660e-04
<VARIANCE> 39
 6.796826e+01 6.679538e+01 8.035423e+01 6.740428e+01 6.652232e+01 5.539848e+01 7.382095e+01 6.407172e+01 6.256113e+01 4.715370e+01 5.048952e+01 4.461697e+01 2.348847e+02 2.692311e+00 3.025240e+00 3.081887e+00 3.342182e+00 3.436821e+00 3.091516e+00 3.506741e+00 3.883447e+00 3.413225e+00 2.940492e+00 3.013173e+00 2.582347e+00 5.249805e+00 4.082149e-01 4.660101e-01 4.789140e-01 5.567399e-01 6.143585e-01 5.543478e-01 6.357841e-01 6.948888e-01 6.073633e-01 5.483900e-01 5.566832e-01 4.755124e-01 7.097014e-01
<GCONST> 1.343107e+02
<STATE> 4
<MEAN> 39
 -6.570501e+00 -2.842432e+00 -2.380350e-01 -5.669234e+00 -6.880997e+00 -2.326709e+00 -8.604589e+00 -3.243548e+00 -3.556369e+00 -2.791252e+00 -2.148896e+00 -4.707316e+00 5.332627e+01 1.233406e-03 2.722908e-03 3.099747e-04 -6.220266e-04 -1.080091e-03 1.213892e-04 -3.125985e-04 -2.520005e-03 -8.831059e-04 -3.166275e-04 -1.101453e-03 -1.720859e-03 -1.478983e-03 -1.458462e-05 1.656858e-04 3.387034e-05 1.478188e-04 1.144279e-04 8.910822e-05 1.825462e-04 9.731779e-05 1.742467e-04 8.849645e-05 4.054986e-05 4.770775e-05 -1.321660e-04
<VARIANCE> 39
 6.796826e+01 6.679538e+01 8.035423e+01 6.740428e+01 6.652232e+01 5.539848e+01 7.382095e+01 6.407172e+01 6.256113e+01 4.715370e+01 5.048952e+01 4.461697e+01 2.348847e+02 2.692311e+00 3.025240e+00 3.081887e+00 3.342182e+00 3.436821e+00 3.091516e+00 3.506741e+00 3.883447e+00 3.413225e+00 2.940492e+00 3.013173e+00 2.582347e+00 5.249805e+00 4.082149e-01 4.660101e-01 4.789140e-01 5.567399e-01 6.143585e-01 5.543478e-01 6.357841e-01 6.948888e-01 6.073633e-01 5.483900e-01 5.566832e-01 4.755124e-01 7.097014e-01
<GCONST> 1.343107e+02
<TRANSP> 5
 0.000000e+00 1.000000e+00 0.000000e+00 0.000000e+00 0.000000e+00
 0.000000e+00 6.000000e-01 4.000000e-01 0.000000e+00 0.000000e+00
 0.000000e+00 0.000000e+00 6.000000e-01 4.000000e-01 0.000000e+00
 0.000000e+00 0.000000e+00 0.000000e+00 7.000000e-01 3.000000e-01
 0.000000e+00 0.000000e+00 0.000000e+00 0.000000e+00 0.000000e+00
<ENDHMM>
~h "k"
<BEGINHMM>
<NUMSTATES> 5
<STATE> 2
<MEAN> 39
 -6.570501e+00 -2.842432e+00 -2.380350e-01 -5.669234e+00 -6.880997e+00 -2.326709e+00 -8.604589e+00 -3.243548e+00 -3.556369e+00 -2.791252e+00 -2.148896e+00 -4.707316e+00 5.332627e+01 1.233406e-03 2.722908e-03 3.099747e-04 -6.220266e-04 -1.080091e-03 1.213892e-04 -3.125985e-04 -2.520005e-03 -8.831059e-04 -3.166275e-04 -1.101453e-03 -1.720859e-03 -1.478983e-03 -1.458462e-05 1.656858e-04 3.387034e-05 1.478188e-04 1.144279e-04 8.910822e-05 1.825462e-04 9.731779e-05 1.742467e-04 8.849645e-05 4.054986e-05 4.770775e-05 -1.321660e-04
<VARIANCE> 39
 6.796826e+01 6.679538e+01 8.035423e+01 6.740428e+01 6.652232e+01 5.539848e+01 7.382095e+01 6.407172e+01 6.256113e+01 4.715370e+01 5.048952e+01 4.461697e+01 2.348847e+02 2.692311e+00 3.025240e+00 3.081887e+00 3.342182e+00 3.436821e+00 3.091516e+00 3.506741e+00 3.883447e+00 3.413225e+00 2.940492e+00 3.013173e+00 2.582347e+00 5.249805e+00 4.082149e-01 4.660101e-01 4.789140e-01 5.567399e-01 6.143585e-01 5.543478e-01 6.357841e-01 6.948888e-01 6.073633e-01 5.483900e-01 5.566832e-01 4.755124e-01 7.097014e-01
<GCONST> 1.343107e+02
<STATE> 3
<MEAN> 39
 -6.570501e+00 -2.842432e+00 -2.380350e-01 -5.669234e+00 -6.880997e+00 -2.326709e+00 -8.604589e+00 -3.243548e+00 -3.556369e+00 -2.791252e+00 -2.148896e+00 -4.707316e+00 5.332627e+01 1.233406e-03 2.722908e-03 3.099747e-04 -6.220266e-04 -1.080091e-03 1.213892e-04 -3.125985e-04 -2.520005e-03 -8.831059e-04 -3.166275e-04 -1.101453e-03 -1.720859e-03 -1.478983e-03 -1.458462e-05 1.656858e-04 3.387034e-05 1.478188e-04 1.144279e-04 8.910822e-05 1.825462e-04 9.731779e-05 1.742467e-04 8.849645e-05 4.054986e-05 4.770775e-05 -1.321660e-04
<VARIANCE> 39
 6.796826e+01 6.679538e+01 8.035423e+01 6.740428e+01 6.652232e+01 5.539848e+01 7.382095e+01 6.407172e+01 6.256113e+01 4.715370e+01 5.048952e+01 4.461697e+01 2.348847e+02 2.692311e+00 3.025240e+00 3.081887e+00 3.342182e+00 3.436821e+00 3.091516e+00 3.506741e+00 3.883447e+00 3.413225e+00 2.940492e+00 3.013173e+00 2.582347e+00 5.249805e+00 4.082149e-01 4.660101e-01 4.789140e-01 5.567399e-01 6.143585e-01 5.543478e-01 6.357841e-01 6.948888e-01 6.073633e-01 5.483900e-01 5.566832e-01 4.755124e-01 7.097014e-01
<GCONST> 1.343107e+02
<STATE> 4
<MEAN> 39
 -6.570501e+00 -2.842432e+00 -2.380350e-01 -5.669234e+00 -6.880997e+00 -2.326709e+00 -8.604589e+00 -3.243548e+00 -3.556369e+00 -2.791252e+00 -2.148896e+00 -4.707316e+00 5.332627e+01 1.233406e-03 2.722908e-03 3.099747e-04 -6.220266e-04 -1.080091e-03 1.213892e-04 -3.125985e-04 -2.520005e-03 -8.831059e-04 -3.166275e-04 -1.101453e-03 -1.720859e-03 -1.478983e-03 -1.458462e-05 1.656858e-04 3.387034e-05 1.478188e-04 1.144279e-04 8.910822e-05 1.825462e-04 9.731779e-05 1.742467e-04 8.849645e-05 4.054986e-05 4.770775e-05 -1.321660e-04
<VARIANCE> 39
 6.796826e+01 6.679538e+01 8.035423e+01 6.740428e+01 6.652232e+01 5.539848e+01 7.382095e+01 6.407172e+01 6.256113e+01 4.715370e+01 5.048952e+01 4.461697e+01 2.348847e+02 2.692311e+00 3.025240e+00 3.081887e+00 3.342182e+00 3.436821e+00 3.091516e+00 3.506741e+00 3.883447e+00 3.413225e+00 2.940492e+00 3.013173e+00 2.582347e+00 5.249805e+00 4.082149e-01 4.660101e-01 4.789140e-01 5.567399e-01 6.143585e-01 5.543478e-01 6.357841e-01 6.948888e-01 6.073633e-01 5.483900e-01 5.566832e-01 4.755124e-01 7.097014e-01
<GCONST> 1.343107e+02
<TRANSP> 5
 0.000000e+00 1.000000e+00 0.000000e+00 0.000000e+00 0.000000e+00
 0.000000e+00 6.000000e-01 4.000000e-01 0.000000e+00 0.000000e+00
 0.000000e+00 0.000000e+00 6.000000e-01 4.000000e-01 0.000000e+00
 0.000000e+00 0.000000e+00 0.000000e+00 7.000000e-01 3.000000e-01
 0.000000e+00 0.000000e+00 0.000000e+00 0.000000e+00 0.000000e+00
<ENDHMM>
~h "n"
<BEGINHMM>
<NUMSTATES> 5
<STATE> 2
<MEAN> 39
 -6.570501e+00 -2.842432e+00 -2.380350e-01 -5.669234e+00 -6.880997e+00 -2.326709e+00 -8.604589e+00 -3.243548e+00 -3.556369e+00 -2.791252e+00 -2.148896e+00 -4.707316e+00 5.332627e+01 1.233406e-03 2.722908e-03 3.099747e-04 -6.220266e-04 -1.080091e-03 1.213892e-04 -3.125985e-04 -2.520005e-03 -8.831059e-04 -3.166275e-04 -1.101453e-03 -1.720859e-03 -1.478983e-03 -1.458462e-05 1.656858e-04 3.387034e-05 1.478188e-04 1.144279e-04 8.910822e-05 1.825462e-04 9.731779e-05 1.742467e-04 8.849645e-05 4.054986e-05 4.770775e-05 -1.321660e-04
<VARIANCE> 39
 6.796826e+01 6.679538e+01 8.035423e+01 6.740428e+01 6.652232e+01 5.539848e+01 7.382095e+01 6.407172e+01 6.256113e+01 4.715370e+01 5.048952e+01 4.461697e+01 2.348847e+02 2.692311e+00 3.025240e+00 3.081887e+00 3.342182e+00 3.436821e+00 3.091516e+00 3.506741e+00 3.883447e+00 3.413225e+00 2.940492e+00 3.013173e+00 2.582347e+00 5.249805e+00 4.082149e-01 4.660101e-01 4.789140e-01 5.567399e-01 6.143585e-01 5.543478e-01 6.357841e-01 6.948888e-01 6.073633e-01 5.483900e-01 5.566832e-01 4.755124e-01 7.097014e-01
<GCONST> 1.343107e+02
<STATE> 3
<MEAN> 39
 -6.570501e+00 -2.842432e+00 -2.380350e-01 -5.669234e+00 -6.880997e+00 -2.326709e+00 -8.604589e+00 -3.243548e+00 -3.556369e+00 -2.791252e+00 -2.148896e+00 -4.707316e+00 5.332627e+01 1.233406e-03 2.722908e-03 3.099747e-04 -6.220266e-04 -1.080091e-03 1.213892e-04 -3.125985e-04 -2.520005e-03 -8.831059e-04 -3.166275e-04 -1.101453e-03 -1.720859e-03 -1.478983e-03 -1.458462e-05 1.656858e-04 3.387034e-05 1.478188e-04 1.144279e-04 8.910822e-05 1.825462e-04 9.731779e-05 1.742467e-04 8.849645e-05 4.054986e-05 4.770775e-05 -1.321660e-04
<VARIANCE> 39
 6.796826e+01 6.679538e+01 8.035423e+01 6.740428e+01 6.652232e+01 5.539848e+01 7.382095e+01 6.407172e+01 6.256113e+01 4.715370e+01 5.048952e+01 4.461697e+01 2.348847e+02 2.692311e+00 3.025240e+00 3.081887e+00 3.342182e+00 3.436821e+00 3.091516e+00 3.506741e+00 3.883447e+00 3.413225e+00 2.940492e+00 3.013173e+00 2.582347e+00 5.249805e+00 4.082149e-01 4.660101e-01 4.789140e-01 5.567399e-01 6.143585e-01 5.543478e-01 6.357841e-01 6.948888e-01 6.073633e-01 5.483900e-01 5.566832e-01 4.755124e-01 7.097014e-01
<GCONST> 1.343107e+02
<STATE> 4
<MEAN> 39
 -6.570501e+00 -2.842432e+00 -2.380350e-01 -5.669234e+00 -6.880997e+00 -2.326709e+00 -8.604589e+00 -3.243548e+00 -3.556369e+00 -2.791252e+00 -2.148896e+00 -4.707316e+00 5.332627e+01 1.233406e-03 2.722908e-03 3.099747e-04 -6.220266e-04 -1.080091e-03 1.213892e-04 -3.125985e-04 -2.520005e-03 -8.831059e-04 -3.166275e-04 -1.101453e-03 -1.720859e-03 -1.478983e-03 -1.458462e-05 1.656858e-04 3.387034e-05 1.478188e-04 1.144279e-04 8.910822e-05 1.825462e-04 9.731779e-05 1.742467e-04 8.849645e-05 4.054986e-05 4.770775e-05 -1.321660e-04
<VARIANCE> 39
 6.796826e+01 6.679538e+01 8.035423e+01 6.740428e+01 6.652232e+01 5.539848e+01 7.382095e+01 6.407172e+01 6.256113e+01 4.715370e+01 5.048952e+01 4.461697e+01 2.348847e+02 2.692311e+00 3.025240e+00 3.081887e+00 3.342182e+00 3.436821e+00 3.091516e+00 3.506741e+00 3.883447e+00 3.413225e+00 2.940492e+00 3.013173e+00 2.582347e+00 5.249805e+00 4.082149e-01 4.660101e-01 4.789140e-01 5.567399e-01 6.143585e-01 5.543478e-01 6.357841e-01 6.948888e-01 6.073633e-01 5.483900e-01 5.566832e-01 4.755124e-01 7.097014e-01
<GCONST> 1.343107e+02
<TRANSP> 5
 0.000000e+00 1.000000e+00 0.000000e+00 0.000000e+00 0.000000e+00
 0.000000e+00 6.000000e-01 4.000000e-01 0.000000e+00 0.000000e+00
 0.000000e+00 0.000000e+00 6.000000e-01 4.000000e-01 0.000000e+00
 0.000000e+00 0.000000e+00 0.000000e+00 7.000000e-01 3.000000e-01
 0.000000e+00 0.000000e+00 0.000000e+00 0.000000e+00 0.000000e+00
<ENDHMM>
~h "ng"
<BEGINHMM>
<NUMSTATES> 5
<STATE> 2
<MEAN> 39
 -6.570501e+00 -2.842432e+00 -2.380350e-01 -5.669234e+00 -6.880997e+00 -2.326709e+00 -8.604589e+00 -3.243548e+00 -3.556369e+00 -2.791252e+00 -2.148896e+00 -4.707316e+00 5.332627e+01 1.233406e-03 2.722908e-03 3.099747e-04 -6.220266e-04 -1.080091e-03 1.213892e-04 -3.125985e-04 -2.520005e-03 -8.831059e-04 -3.166275e-04 -1.101453e-03 -1.720859e-03 -1.478983e-03 -1.458462e-05 1.656858e-04 3.387034e-05 1.478188e-04 1.144279e-04 8.910822e-05 1.825462e-04 9.731779e-05 1.742467e-04 8.849645e-05 4.054986e-05 4.770775e-05 -1.321660e-04
<VARIANCE> 39
 6.796826e+01 6.679538e+01 8.035423e+01 6.740428e+01 6.652232e+01 5.539848e+01 7.382095e+01 6.407172e+01 6.256113e+01 4.715370e+01 5.048952e+01 4.461697e+01 2.348847e+02 2.692311e+00 3.025240e+00 3.081887e+00 3.342182e+00 3.436821e+00 3.091516e+00 3.506741e+00 3.883447e+00 3.413225e+00 2.940492e+00 3.013173e+00 2.582347e+00 5.249805e+00 4.082149e-01 4.660101e-01 4.789140e-01 5.567399e-01 6.143585e-01 5.543478e-01 6.357841e-01 6.948888e-01 6.073633e-01 5.483900e-01 5.566832e-01 4.755124e-01 7.097014e-01
<GCONST> 1.343107e+02
<STATE> 3
<MEAN> 39
 -6.570501e+00 -2.842432e+00 -2.380350e-01 -5.669234e+00 -6.880997e+00 -2.326709e+00 -8.604589e+00 -3.243548e+00 -3.556369e+00 -2.791252e+00 -2.148896e+00 -4.707316e+00 5.332627e+01 1.233406e-03 2.722908e-03 3.099747e-04 -6.220266e-04 -1.080091e-03 1.213892e-04 -3.125985e-04 -2.520005e-03 -8.831059e-04 -3.166275e-04 -1.101453e-03 -1.720859e-03 -1.478983e-03 -1.458462e-05 1.656858e-04 3.387034e-05 1.478188e-04 1.144279e-04 8.910822e-05 1.825462e-04 9.731779e-05 1.742467e-04 8.849645e-05 4.054986e-05 4.770775e-05 -1.321660e-04
<VARIANCE> 39
 6.796826e+01 6.679538e+01 8.035423e+01 6.740428e+01 6.652232e+01 5.539848e+01 7.382095e+01 6.407172e+01 6.256113e+01 4.715370e+01 5.048952e+01 4.461697e+01 2.348847e+02 2.692311e+00 3.025240e+00 3.081887e+00 3.342182e+00 3.436821e+00 3.091516e+00 3.506741e+00 3.883447e+00 3.413225e+00 2.940492e+00 3.013173e+00 2.582347e+00 5.249805e+00 4.082149e-01 4.660101e-01 4.789140e-01 5.567399e-01 6.143585e-01 5.543478e-01 6.357841e-01 6.948888e-01 6.073633e-01 5.483900e-01 5.566832e-01 4.755124e-01 7.097014e-01
<GCONST> 1.343107e+02
<STATE> 4
<MEAN> 39
 -6.570501e+00 -2.842432e+00 -2.380350e-01 -5.669234e+00 -6.880997e+00 -2.326709e+00 -8.604589e+00 -3.243548e+00 -3.556369e+00 -2.791252e+00 -2.148896e+00 -4.707316e+00 5.332627e+01 1.233406e-03 2.722908e-03 3.099747e-04 -6.220266e-04 -1.080091e-03 1.213892e-04 -3.125985e-04 -2.520005e-03 -8.831059e-04 -3.166275e-04 -1.101453e-03 -1.720859e-03 -1.478983e-03 -1.458462e-05 1.656858e-04 3.387034e-05 1.478188e-04 1.144279e-04 8.910822e-05 1.825462e-04 9.731779e-05 1.742467e-04 8.849645e-05 4.054986e-05 4.770775e-05 -1.321660e-04
<VARIANCE> 39
 6.796826e+01 6.679538e+01 8.035423e+01 6.740428e+01 6.652232e+01 5.539848e+01 7.382095e+01 6.407172e+01 6.256113e+01 4.715370e+01 5.048952e+01 4.461697e+01 2.348847e+02 2.692311e+00 3.025240e+00 3.081887e+00 3.342182e+00 3.436821e+00 3.091516e+00 3.506741e+00 3.883447e+00 3.413225e+00 2.940492e+00 3.013173e+00 2.582347e+00 5.249805e+00 4.082149e-01 4.660101e-01 4.789140e-01 5.567399e-01 6.143585e-01 5.543478e-01 6.357841e-01 6.948888e-01 6.073633e-01 5.483900e-01 5.566832e-01 4.755124e-01 7.097014e-01
<GCONST> 1.343107e+02
<TRANSP> 5
 0.000000e+00 1.000000e+00 0.000000e+00 0.000000e+00 0.000000e+00
 0.000000e+00 6.000000e-01 4.000000e-01 0.000000e+00 0.000000e+00
 0.000000e+00 0.000000e+00 6.000000e-01 4.000000e-01 0.000000e+00
 0.000000e+00 0.000000e+00 0.000000e+00 7.000000e-01 3.000000e-01
 0.000000e+00 0.000000e+00 0.000000e+00 0.000000e+00 0.000000e+00
<ENDHMM>
~h "y"
<BEGINHMM>
<NUMSTATES> 5
<STATE> 2
<MEAN> 39
 -6.570501e+00 -2.842432e+00 -2.380350e-01 -5.669234e+00 -6.880997e+00 -2.326709e+00 -8.604589e+00 -3.243548e+00 -3.556369e+00 -2.791252e+00 -2.148896e+00 -4.707316e+00 5.332627e+01 1.233406e-03 2.722908e-03 3.099747e-04 -6.220266e-04 -1.080091e-03 1.213892e-04 -3.125985e-04 -2.520005e-03 -8.831059e-04 -3.166275e-04 -1.101453e-03 -1.720859e-03 -1.478983e-03 -1.458462e-05 1.656858e-04 3.387034e-05 1.478188e-04 1.144279e-04 8.910822e-05 1.825462e-04 9.731779e-05 1.742467e-04 8.849645e-05 4.054986e-05 4.770775e-05 -1.321660e-04
<VARIANCE> 39
 6.796826e+01 6.679538e+01 8.035423e+01 6.740428e+01 6.652232e+01 5.539848e+01 7.382095e+01 6.407172e+01 6.256113e+01 4.715370e+01 5.048952e+01 4.461697e+01 2.348847e+02 2.692311e+00 3.025240e+00 3.081887e+00 3.342182e+00 3.436821e+00 3.091516e+00 3.506741e+00 3.883447e+00 3.413225e+00 2.940492e+00 3.013173e+00 2.582347e+00 5.249805e+00 4.082149e-01 4.660101e-01 4.789140e-01 5.567399e-01 6.143585e-01 5.543478e-01 6.357841e-01 6.948888e-01 6.073633e-01 5.483900e-01 5.566832e-01 4.755124e-01 7.097014e-01
<GCONST> 1.343107e+02
<STATE> 3
<MEAN> 39
 -6.570501e+00 -2.842432e+00 -2.380350e-01 -5.669234e+00 -6.880997e+00 -2.326709e+00 -8.604589e+00 -3.243548e+00 -3.556369e+00 -2.791252e+00 -2.148896e+00 -4.707316e+00 5.332627e+01 1.233406e-03 2.722908e-03 3.099747e-04 -6.220266e-04 -1.080091e-03 1.213892e-04 -3.125985e-04 -2.520005e-03 -8.831059e-04 -3.166275e-04 -1.101453e-03 -1.720859e-03 -1.478983e-03 -1.458462e-05 1.656858e-04 3.387034e-05 1.478188e-04 1.144279e-04 8.910822e-05 1.825462e-04 9.731779e-05 1.742467e-04 8.849645e-05 4.054986e-05 4.770775e-05 -1.321660e-04
<VARIANCE> 39
 6.796826e+01 6.679538e+01 8.035423e+01 6.740428e+01 6.652232e+01 5.539848e+01 7.382095e+01 6.407172e+01 6.256113e+01 4.715370e+01 5.048952e+01 4.461697e+01 2.348847e+02 2.692311e+00 3.025240e+00 3.081887e+00 3.342182e+00 3.436821e+00 3.091516e+00 3.506741e+00 3.883447e+00 3.413225e+00 2.940492e+00 3.013173e+00 2.582347e+00 5.249805e+00 4.082149e-01 4.660101e-01 4.789140e-01 5.567399e-01 6.143585e-01 5.543478e-01 6.357841e-01 6.948888e-01 6.073633e-01 5.483900e-01 5.566832e-01 4.755124e-01 7.097014e-01
<GCONST> 1.343107e+02
<STATE> 4
<MEAN> 39
 -6.570501e+00 -2.842432e+00 -2.380350e-01 -5.669234e+00 -6.880997e+00 -2.326709e+00 -8.604589e+00 -3.243548e+00 -3.556369e+00 -2.791252e+00 -2.148896e+00 -4.707316e+00 5.332627e+01 1.233406e-03 2.722908e-03 3.099747e-04 -6.220266e-04 -1.080091e-03 1.213892e-04 -3.125985e-04 -2.520005e-03 -8.831059e-04 -3.166275e-04 -1.101453e-03 -1.720859e-03 -1.478983e-03 -1.458462e-05 1.656858e-04 3.387034e-05 1.478188e-04 1.144279e-04 8.910822e-05 1.825462e-04 9.731779e-05 1.742467e-04 8.849645e-05 4.054986e-05 4.770775e-05 -1.321660e-04
<VARIANCE> 39
 6.796826e+01 6.679538e+01 8.035423e+01 6.740428e+01 6.652232e+01 5.539848e+01 7.382095e+01 6.407172e+01 6.256113e+01 4.715370e+01 5.048952e+01 4.461697e+01 2.348847e+02 2.692311e+00 3.025240e+00 3.081887e+00 3.342182e+00 3.436821e+00 3.091516e+00 3.506741e+00 3.883447e+00 3.413225e+00 2.940492e+00 3.013173e+00 2.582347e+00 5.249805e+00 4.082149e-01 4.660101e-01 4.789140e-01 5.567399e-01 6.143585e-01 5.543478e-01 6.357841e-01 6.948888e-01 6.073633e-01 5.483900e-01 5.566832e-01 4.755124e-01 7.097014e-01
<GCONST> 1.343107e+02
<TRANSP> 5
 0.000000e+00 1.000000e+00 0.000000e+00 0.000000e+00 0.000000e+00
 0.000000e+00 6.000000e-01 4.000000e-01 0.000000e+00 0.000000e+00
 0.000000e+00 0.000000e+00 6.000000e-01 4.000000e-01 0.000000e+00
 0.000000e+00 0.000000e+00 0.000000e+00 7.000000e-01 3.000000e-01
 0.000000e+00 0.000000e+00 0.000000e+00 0.000000e+00 0.000000e+00
<ENDHMM>
~h "s"
<BEGINHMM>
<NUMSTATES> 5
<STATE> 2
<MEAN> 39
 -6.570501e+00 -2.842432e+00 -2.380350e-01 -5.669234e+00 -6.880997e+00 -2.326709e+00 -8.604589e+00 -3.243548e+00 -3.556369e+00 -2.791252e+00 -2.148896e+00 -4.707316e+00 5.332627e+01 1.233406e-03 2.722908e-03 3.099747e-04 -6.220266e-04 -1.080091e-03 1.213892e-04 -3.125985e-04 -2.520005e-03 -8.831059e-04 -3.166275e-04 -1.101453e-03 -1.720859e-03 -1.478983e-03 -1.458462e-05 1.656858e-04 3.387034e-05 1.478188e-04 1.144279e-04 8.910822e-05 1.825462e-04 9.731779e-05 1.742467e-04 8.849645e-05 4.054986e-05 4.770775e-05 -1.321660e-04
<VARIANCE> 39
 6.796826e+01 6.679538e+01 8.035423e+01 6.740428e+01 6.652232e+01 5.539848e+01 7.382095e+01 6.407172e+01 6.256113e+01 4.715370e+01 5.048952e+01 4.461697e+01 2.348847e+02 2.692311e+00 3.025240e+00 3.081887e+00 3.342182e+00 3.436821e+00 3.091516e+00 3.506741e+00 3.883447e+00 3.413225e+00 2.940492e+00 3.013173e+00 2.582347e+00 5.249805e+00 4.082149e-01 4.660101e-01 4.789140e-01 5.567399e-01 6.143585e-01 5.543478e-01 6.357841e-01 6.948888e-01 6.073633e-01 5.483900e-01 5.566832e-01 4.755124e-01 7.097014e-01
<GCONST> 1.343107e+02
<STATE> 3
<MEAN> 39
 -6.570501e+00 -2.842432e+00 -2.380350e-01 -5.669234e+00 -6.880997e+00 -2.326709e+00 -8.604589e+00 -3.243548e+00 -3.556369e+00 -2.791252e+00 -2.148896e+00 -4.707316e+00 5.332627e+01 1.233406e-03 2.722908e-03 3.099747e-04 -6.220266e-04 -1.080091e-03 1.213892e-04 -3.125985e-04 -2.520005e-03 -8.831059e-04 -3.166275e-04 -1.101453e-03 -1.720859e-03 -1.478983e-03 -1.458462e-05 1.656858e-04 3.387034e-05 1.478188e-04 1.144279e-04 8.910822e-05 1.825462e-04 9.731779e-05 1.742467e-04 8.849645e-05 4.054986e-05 4.770775e-05 -1.321660e-04
<VARIANCE> 39
 6.796826e+01 6.679538e+01 8.035423e+01 6.740428e+01 6.652232e+01 5.539848e+01 7.382095e+01 6.407172e+01 6.256113e+01 4.715370e+01 5.048952e+01 4.461697e+01 2.348847e+02 2.692311e+00 3.025240e+00 3.081887e+00 3.342182e+00 3.436821e+00 3.091516e+00 3.506741e+00 3.883447e+00 3.413225e+00 2.940492e+00 3.013173e+00 2.582347e+00 5.249805e+00 4.082149e-01 4.660101e-01 4.789140e-01 5.567399e-01 6.143585e-01 5.543478e-01 6.357841e-01 6.948888e-01 6.073633e-01 5.483900e-01 5.566832e-01 4.755124e-01 7.097014e-01
<GCONST> 1.343107e+02
<STATE> 4
<MEAN> 39
 -6.570501e+00 -2.842432e+00 -2.380350e-01 -5.669234e+00 -6.880997e+00 -2.326709e+00 -8.604589e+00 -3.243548e+00 -3.556369e+00 -2.791252e+00 -2.148896e+00 -4.707316e+00 5.332627e+01 1.233406e-03 2.722908e-03 3.099747e-04 -6.220266e-04 -1.080091e-03 1.213892e-04 -3.125985e-04 -2.520005e-03 -8.831059e-04 -3.166275e-04 -1.101453e-03 -1.720859e-03 -1.478983e-03 -1.458462e-05 1.656858e-04 3.387034e-05 1.478188e-04 1.144279e-04 8.910822e-05 1.825462e-04 9.731779e-05 1.742467e-04 8.849645e-05 4.054986e-05 4.770775e-05 -1.321660e-04
<VARIANCE> 39
 6.796826e+01 6.679538e+01 8.035423e+01 6.740428e+01 6.652232e+01 5.539848e+01 7.382095e+01 6.407172e+01 6.256113e+01 4.715370e+01 5.048952e+01 4.461697e+01 2.348847e+02 2.692311e+00 3.025240e+00 3.081887e+00 3.342182e+00 3.436821e+00 3.091516e+00 3.506741e+00 3.883447e+00 3.413225e+00 2.940492e+00 3.013173e+00 2.582347e+00 5.249805e+00 4.082149e-01 4.660101e-01 4.789140e-01 5.567399e-01 6.143585e-01 5.543478e-01 6.357841e-01 6.948888e-01 6.073633e-01 5.483900e-01 5.566832e-01 4.755124e-01 7.097014e-01
<GCONST> 1.343107e+02
<TRANSP> 5
 0.000000e+00 1.000000e+00 0.000000e+00 0.000000e+00 0.000000e+00
 0.000000e+00 6.000000e-01 4.000000e-01 0.000000e+00 0.000000e+00
 0.000000e+00 0.000000e+00 6.000000e-01 4.000000e-01 0.000000e+00
 0.000000e+00 0.000000e+00 0.000000e+00 7.000000e-01 3.000000e-01
 0.000000e+00 0.000000e+00 0.000000e+00 0.000000e+00 0.000000e+00
<ENDHMM>
~h "@"
<BEGINHMM>
<NUMSTATES> 5
<STATE> 2
<MEAN> 39
 -6.570501e+00 -2.842432e+00 -2.380350e-01 -5.669234e+00 -6.880997e+00 -2.326709e+00 -8.604589e+00 -3.243548e+00 -3.556369e+00 -2.791252e+00 -2.148896e+00 -4.707316e+00 5.332627e+01 1.233406e-03 2.722908e-03 3.099747e-04 -6.220266e-04 -1.080091e-03 1.213892e-04 -3.125985e-04 -2.520005e-03 -8.831059e-04 -3.166275e-04 -1.101453e-03 -1.720859e-03 -1.478983e-03 -1.458462e-05 1.656858e-04 3.387034e-05 1.478188e-04 1.144279e-04 8.910822e-05 1.825462e-04 9.731779e-05 1.742467e-04 8.849645e-05 4.054986e-05 4.770775e-05 -1.321660e-04
<VARIANCE> 39
 6.796826e+01 6.679538e+01 8.035423e+01 6.740428e+01 6.652232e+01 5.539848e+01 7.382095e+01 6.407172e+01 6.256113e+01 4.715370e+01 5.048952e+01 4.461697e+01 2.348847e+02 2.692311e+00 3.025240e+00 3.081887e+00 3.342182e+00 3.436821e+00 3.091516e+00 3.506741e+00 3.883447e+00 3.413225e+00 2.940492e+00 3.013173e+00 2.582347e+00 5.249805e+00 4.082149e-01 4.660101e-01 4.789140e-01 5.567399e-01 6.143585e-01 5.543478e-01 6.357841e-01 6.948888e-01 6.073633e-01 5.483900e-01 5.566832e-01 4.755124e-01 7.097014e-01
<GCONST> 1.343107e+02
<STATE> 3
<MEAN> 39
 -6.570501e+00 -2.842432e+00 -2.380350e-01 -5.669234e+00 -6.880997e+00 -2.326709e+00 -8.604589e+00 -3.243548e+00 -3.556369e+00 -2.791252e+00 -2.148896e+00 -4.707316e+00 5.332627e+01 1.233406e-03 2.722908e-03 3.099747e-04 -6.220266e-04 -1.080091e-03 1.213892e-04 -3.125985e-04 -2.520005e-03 -8.831059e-04 -3.166275e-04 -1.101453e-03 -1.720859e-03 -1.478983e-03 -1.458462e-05 1.656858e-04 3.387034e-05 1.478188e-04 1.144279e-04 8.910822e-05 1.825462e-04 9.731779e-05 1.742467e-04 8.849645e-05 4.054986e-05 4.770775e-05 -1.321660e-04
<VARIANCE> 39
 6.796826e+01 6.679538e+01 8.035423e+01 6.740428e+01 6.652232e+01 5.539848e+01 7.382095e+01 6.407172e+01 6.256113e+01 4.715370e+01 5.048952e+01 4.461697e+01 2.348847e+02 2.692311e+00 3.025240e+00 3.081887e+00 3.342182e+00 3.436821e+00 3.091516e+00 3.506741e+00 3.883447e+00 3.413225e+00 2.940492e+00 3.013173e+00 2.582347e+00 5.249805e+00 4.082149e-01 4.660101e-01 4.789140e-01 5.567399e-01 6.143585e-01 5.543478e-01 6.357841e-01 6.948888e-01 6.073633e-01 5.483900e-01 5.566832e-01 4.755124e-01 7.097014e-01
<GCONST> 1.343107e+02
<STATE> 4
<MEAN> 39
 -6.570501e+00 -2.842432e+00 -2.380350e-01 -5.669234e+00 -6.880997e+00 -2.326709e+00 -8.604589e+00 -3.243548e+00 -3.556369e+00 -2.791252e+00 -2.148896e+00 -4.707316e+00 5.332627e+01 1.233406e-03 2.722908e-03 3.099747e-04 -6.220266e-04 -1.080091e-03 1.213892e-04 -3.125985e-04 -2.520005e-03 -8.831059e-04 -3.166275e-04 -1.101453e-03 -1.720859e-03 -1.478983e-03 -1.458462e-05 1.656858e-04 3.387034e-05 1.478188e-04 1.144279e-04 8.910822e-05 1.825462e-04 9.731779e-05 1.742467e-04 8.849645e-05 4.054986e-05 4.770775e-05 -1.321660e-04
<VARIANCE> 39
 6.796826e+01 6.679538e+01 8.035423e+01 6.740428e+01 6.652232e+01 5.539848e+01 7.382095e+01 6.407172e+01 6.256113e+01 4.715370e+01 5.048952e+01 4.461697e+01 2.348847e+02 2.692311e+00 3.025240e+00 3.081887e+00 3.342182e+00 3.436821e+00 3.091516e+00 3.506741e+00 3.883447e+00 3.413225e+00 2.940492e+00 3.013173e+00 2.582347e+00 5.249805e+00 4.082149e-01 4.660101e-01 4.789140e-01 5.567399e-01 6.143585e-01 5.543478e-01 6.357841e-01 6.948888e-01 6.073633e-01 5.483900e-01 5.566832e-01 4.755124e-01 7.097014e-01
<GCONST> 1.343107e+02
<TRANSP> 5
 0.000000e+00 1.000000e+00 0.000000e+00 0.000000e+00 0.000000e+00
 0.000000e+00 6.000000e-01 4.000000e-01 0.000000e+00 0.000000e+00
 0.000000e+00 0.000000e+00 6.000000e-01 4.000000e-01 0.000000e+00
 0.000000e+00 0.000000e+00 0.000000e+00 7.000000e-01 3.000000e-01
 0.000000e+00 0.000000e+00 0.000000e+00 0.000000e+00 0.000000e+00
<ENDHMM>
~h "l"
<BEGINHMM>
<NUMSTATES> 5
<STATE> 2
<MEAN> 39
 -6.570501e+00 -2.842432e+00 -2.380350e-01 -5.669234e+00 -6.880997e+00 -2.326709e+00 -8.604589e+00 -3.243548e+00 -3.556369e+00 -2.791252e+00 -2.148896e+00 -4.707316e+00 5.332627e+01 1.233406e-03 2.722908e-03 3.099747e-04 -6.220266e-04 -1.080091e-03 1.213892e-04 -3.125985e-04 -2.520005e-03 -8.831059e-04 -3.166275e-04 -1.101453e-03 -1.720859e-03 -1.478983e-03 -1.458462e-05 1.656858e-04 3.387034e-05 1.478188e-04 1.144279e-04 8.910822e-05 1.825462e-04 9.731779e-05 1.742467e-04 8.849645e-05 4.054986e-05 4.770775e-05 -1.321660e-04
<VARIANCE> 39
 6.796826e+01 6.679538e+01 8.035423e+01 6.740428e+01 6.652232e+01 5.539848e+01 7.382095e+01 6.407172e+01 6.256113e+01 4.715370e+01 5.048952e+01 4.461697e+01 2.348847e+02 2.692311e+00 3.025240e+00 3.081887e+00 3.342182e+00 3.436821e+00 3.091516e+00 3.506741e+00 3.883447e+00 3.413225e+00 2.940492e+00 3.013173e+00 2.582347e+00 5.249805e+00 4.082149e-01 4.660101e-01 4.789140e-01 5.567399e-01 6.143585e-01 5.543478e-01 6.357841e-01 6.948888e-01 6.073633e-01 5.483900e-01 5.566832e-01 4.755124e-01 7.097014e-01
<GCONST> 1.343107e+02
<STATE> 3
<MEAN> 39
 -6.570501e+00 -2.842432e+00 -2.380350e-01 -5.669234e+00 -6.880997e+00 -2.326709e+00 -8.604589e+00 -3.243548e+00 -3.556369e+00 -2.791252e+00 -2.148896e+00 -4.707316e+00 5.332627e+01 1.233406e-03 2.722908e-03 3.099747e-04 -6.220266e-04 -1.080091e-03 1.213892e-04 -3.125985e-04 -2.520005e-03 -8.831059e-04 -3.166275e-04 -1.101453e-03 -1.720859e-03 -1.478983e-03 -1.458462e-05 1.656858e-04 3.387034e-05 1.478188e-04 1.144279e-04 8.910822e-05 1.825462e-04 9.731779e-05 1.742467e-04 8.849645e-05 4.054986e-05 4.770775e-05 -1.321660e-04
<VARIANCE> 39
 6.796826e+01 6.679538e+01 8.035423e+01 6.740428e+01 6.652232e+01 5.539848e+01 7.382095e+01 6.407172e+01 6.256113e+01 4.715370e+01 5.048952e+01 4.461697e+01 2.348847e+02 2.692311e+00 3.025240e+00 3.081887e+00 3.342182e+00 3.436821e+00 3.091516e+00 3.506741e+00 3.883447e+00 3.413225e+00 2.940492e+00 3.013173e+00 2.582347e+00 5.249805e+00 4.082149e-01 4.660101e-01 4.789140e-01 5.567399e-01 6.143585e-01 5.543478e-01 6.357841e-01 6.948888e-01 6.073633e-01 5.483900e-01 5.566832e-01 4.755124e-01 7.097014e-01
<GCONST> 1.343107e+02
<STATE> 4
<MEAN> 39
 -6.570501e+00 -2.842432e+00 -2.380350e-01 -5.669234e+00 -6.880997e+00 -2.326709e+00 -8.604589e+00 -3.243548e+00 -3.556369e+00 -2.791252e+00 -2.148896e+00 -4.707316e+00 5.332627e+01 1.233406e-03 2.722908e-03 3.099747e-04 -6.220266e-04 -1.080091e-03 1.213892e-04 -3.125985e-04 -2.520005e-03 -8.831059e-04 -3.166275e-04 -1.101453e-03 -1.720859e-03 -1.478983e-03 -1.458462e-05 1.656858e-04 3.387034e-05 1.478188e-04 1.144279e-04 8.910822e-05 1.825462e-04 9.731779e-05 1.742467e-04 8.849645e-05 4.054986e-05 4.770775e-05 -1.321660e-04
<VARIANCE> 39
 6.796826e+01 6.679538e+01 8.035423e+01 6.740428e+01 6.652232e+01 5.539848e+01 7.382095e+01 6.407172e+01 6.256113e+01 4.715370e+01 5.048952e+01 4.461697e+01 2.348847e+02 2.692311e+00 3.025240e+00 3.081887e+00 3.342182e+00 3.436821e+00 3.091516e+00 3.506741e+00 3.883447e+00 3.413225e+00 2.940492e+00 3.013173e+00 2.582347e+00 5.249805e+00 4.082149e-01 4.660101e-01 4.789140e-01 5.567399e-01 6.143585e-01 5.543478e-01 6.357841e-01 6.948888e-01 6.073633e-01 5.483900e-01 5.566832e-01 4.755124e-01 7.097014e-01
<GCONST> 1.343107e+02
<TRANSP> 5
 0.000000e+00 1.000000e+00 0.000000e+00 0.000000e+00 0.000000e+00
 0.000000e+00 6.000000e-01 4.000000e-01 0.000000e+00 0.000000e+00
 0.000000e+00 0.000000e+00 6.000000e-01 4.000000e-01 0.000000e+00
 0.000000e+00 0.000000e+00 0.000000e+00 7.000000e-01 3.000000e-01
 0.000000e+00 0.000000e+00 0.000000e+00 0.000000e+00 0.000000e+00
<ENDHMM>
~h "u"
<BEGINHMM>
<NUMSTATES> 5
<STATE> 2
<MEAN> 39
 -6.570501e+00 -2.842432e+00 -2.380350e-01 -5.669234e+00 -6.880997e+00 -2.326709e+00 -8.604589e+00 -3.243548e+00 -3.556369e+00 -2.791252e+00 -2.148896e+00 -4.707316e+00 5.332627e+01 1.233406e-03 2.722908e-03 3.099747e-04 -6.220266e-04 -1.080091e-03 1.213892e-04 -3.125985e-04 -2.520005e-03 -8.831059e-04 -3.166275e-04 -1.101453e-03 -1.720859e-03 -1.478983e-03 -1.458462e-05 1.656858e-04 3.387034e-05 1.478188e-04 1.144279e-04 8.910822e-05 1.825462e-04 9.731779e-05 1.742467e-04 8.849645e-05 4.054986e-05 4.770775e-05 -1.321660e-04
<VARIANCE> 39
 6.796826e+01 6.679538e+01 8.035423e+01 6.740428e+01 6.652232e+01 5.539848e+01 7.382095e+01 6.407172e+01 6.256113e+01 4.715370e+01 5.048952e+01 4.461697e+01 2.348847e+02 2.692311e+00 3.025240e+00 3.081887e+00 3.342182e+00 3.436821e+00 3.091516e+00 3.506741e+00 3.883447e+00 3.413225e+00 2.940492e+00 3.013173e+00 2.582347e+00 5.249805e+00 4.082149e-01 4.660101e-01 4.789140e-01 5.567399e-01 6.143585e-01 5.543478e-01 6.357841e-01 6.948888e-01 6.073633e-01 5.483900e-01 5.566832e-01 4.755124e-01 7.097014e-01
<GCONST> 1.343107e+02
<STATE> 3
<MEAN> 39
 -6.570501e+00 -2.842432e+00 -2.380350e-01 -5.669234e+00 -6.880997e+00 -2.326709e+00 -8.604589e+00 -3.243548e+00 -3.556369e+00 -2.791252e+00 -2.148896e+00 -4.707316e+00 5.332627e+01 1.233406e-03 2.722908e-03 3.099747e-04 -6.220266e-04 -1.080091e-03 1.213892e-04 -3.125985e-04 -2.520005e-03 -8.831059e-04 -3.166275e-04 -1.101453e-03 -1.720859e-03 -1.478983e-03 -1.458462e-05 1.656858e-04 3.387034e-05 1.478188e-04 1.144279e-04 8.910822e-05 1.825462e-04 9.731779e-05 1.742467e-04 8.849645e-05 4.054986e-05 4.770775e-05 -1.321660e-04
<VARIANCE> 39
 6.796826e+01 6.679538e+01 8.035423e+01 6.740428e+01 6.652232e+01 5.539848e+01 7.382095e+01 6.407172e+01 6.256113e+01 4.715370e+01 5.048952e+01 4.461697e+01 2.348847e+02 2.692311e+00 3.025240e+00 3.081887e+00 3.342182e+00 3.436821e+00 3.091516e+00 3.506741e+00 3.883447e+00 3.413225e+00 2.940492e+00 3.013173e+00 2.582347e+00 5.249805e+00 4.082149e-01 4.660101e-01 4.789140e-01 5.567399e-01 6.143585e-01 5.543478e-01 6.357841e-01 6.948888e-01 6.073633e-01 5.483900e-01 5.566832e-01 4.755124e-01 7.097014e-01
<GCONST> 1.343107e+02
<STATE> 4
<MEAN> 39
 -6.570501e+00 -2.842432e+00 -2.380350e-01 -5.669234e+00 -6.880997e+00 -2.326709e+00 -8.604589e+00 -3.243548e+00 -3.556369e+00 -2.791252e+00 -2.148896e+00 -4.707316e+00 5.332627e+01 1.233406e-03 2.722908e-03 3.099747e-04 -6.220266e-04 -1.080091e-03 1.213892e-04 -3.125985e-04 -2.520005e-03 -8.831059e-04 -3.166275e-04 -1.101453e-03 -1.720859e-03 -1.478983e-03 -1.458462e-05 1.656858e-04 3.387034e-05 1.478188e-04 1.144279e-04 8.910822e-05 1.825462e-04 9.731779e-05 1.742467e-04 8.849645e-05 4.054986e-05 4.770775e-05 -1.321660e-04
<VARIANCE> 39
 6.796826e+01 6.679538e+01 8.035423e+01 6.740428e+01 6.652232e+01 5.539848e+01 7.382095e+01 6.407172e+01 6.256113e+01 4.715370e+01 5.048952e+01 4.461697e+01 2.348847e+02 2.692311e+00 3.025240e+00 3.081887e+00 3.342182e+00 3.436821e+00 3.091516e+00 3.506741e+00 3.883447e+00 3.413225e+00 2.940492e+00 3.013173e+00 2.582347e+00 5.249805e+00 4.082149e-01 4.660101e-01 4.789140e-01 5.567399e-01 6.143585e-01 5.543478e-01 6.357841e-01 6.948888e-01 6.073633e-01 5.483900e-01 5.566832e-01 4.755124e-01 7.097014e-01
<GCONST> 1.343107e+02
<TRANSP> 5
 0.000000e+00 1.000000e+00 0.000000e+00 0.000000e+00 0.000000e+00
 0.000000e+00 6.000000e-01 4.000000e-01 0.000000e+00 0.000000e+00
 0.000000e+00 0.000000e+00 6.000000e-01 4.000000e-01 0.000000e+00
 0.000000e+00 0.000000e+00 0.000000e+00 7.000000e-01 3.000000e-01
 0.000000e+00 0.000000e+00 0.000000e+00 0.000000e+00 0.000000e+00
<ENDHMM>
~h "h"
<BEGINHMM>
<NUMSTATES> 5
<STATE> 2
<MEAN> 39
 -6.570501e+00 -2.842432e+00 -2.380350e-01 -5.669234e+00 -6.880997e+00 -2.326709e+00 -8.604589e+00 -3.243548e+00 -3.556369e+00 -2.791252e+00 -2.148896e+00 -4.707316e+00 5.332627e+01 1.233406e-03 2.722908e-03 3.099747e-04 -6.220266e-04 -1.080091e-03 1.213892e-04 -3.125985e-04 -2.520005e-03 -8.831059e-04 -3.166275e-04 -1.101453e-03 -1.720859e-03 -1.478983e-03 -1.458462e-05 1.656858e-04 3.387034e-05 1.478188e-04 1.144279e-04 8.910822e-05 1.825462e-04 9.731779e-05 1.742467e-04 8.849645e-05 4.054986e-05 4.770775e-05 -1.321660e-04
<VARIANCE> 39
 6.796826e+01 6.679538e+01 8.035423e+01 6.740428e+01 6.652232e+01 5.539848e+01 7.382095e+01 6.407172e+01 6.256113e+01 4.715370e+01 5.048952e+01 4.461697e+01 2.348847e+02 2.692311e+00 3.025240e+00 3.081887e+00 3.342182e+00 3.436821e+00 3.091516e+00 3.506741e+00 3.883447e+00 3.413225e+00 2.940492e+00 3.013173e+00 2.582347e+00 5.249805e+00 4.082149e-01 4.660101e-01 4.789140e-01 5.567399e-01 6.143585e-01 5.543478e-01 6.357841e-01 6.948888e-01 6.073633e-01 5.483900e-01 5.566832e-01 4.755124e-01 7.097014e-01
<GCONST> 1.343107e+02
<STATE> 3
<MEAN> 39
 -6.570501e+00 -2.842432e+00 -2.380350e-01 -5.669234e+00 -6.880997e+00 -2.326709e+00 -8.604589e+00 -3.243548e+00 -3.556369e+00 -2.791252e+00 -2.148896e+00 -4.707316e+00 5.332627e+01 1.233406e-03 2.722908e-03 3.099747e-04 -6.220266e-04 -1.080091e-03 1.213892e-04 -3.125985e-04 -2.520005e-03 -8.831059e-04 -3.166275e-04 -1.101453e-03 -1.720859e-03 -1.478983e-03 -1.458462e-05 1.656858e-04 3.387034e-05 1.478188e-04 1.144279e-04 8.910822e-05 1.825462e-04 9.731779e-05 1.742467e-04 8.849645e-05 4.054986e-05 4.770775e-05 -1.321660e-04
<VARIANCE> 39
 6.796826e+01 6.679538e+01 8.035423e+01 6.740428e+01 6.652232e+01 5.539848e+01 7.382095e+01 6.407172e+01 6.256113e+01 4.715370e+01 5.048952e+01 4.461697e+01 2.348847e+02 2.692311e+00 3.025240e+00 3.081887e+00 3.342182e+00 3.436821e+00 3.091516e+00 3.506741e+00 3.883447e+00 3.413225e+00 2.940492e+00 3.013173e+00 2.582347e+00 5.249805e+00 4.082149e-01 4.660101e-01 4.789140e-01 5.567399e-01 6.143585e-01 5.543478e-01 6.357841e-01 6.948888e-01 6.073633e-01 5.483900e-01 5.566832e-01 4.755124e-01 7.097014e-01
<GCONST> 1.343107e+02
<STATE> 4
<MEAN> 39
 -6.570501e+00 -2.842432e+00 -2.380350e-01 -5.669234e+00 -6.880997e+00 -2.326709e+00 -8.604589e+00 -3.243548e+00 -3.556369e+00 -2.791252e+00 -2.148896e+00 -4.707316e+00 5.332627e+01 1.233406e-03 2.722908e-03 3.099747e-04 -6.220266e-04 -1.080091e-03 1.213892e-04 -3.125985e-04 -2.520005e-03 -8.831059e-04 -3.166275e-04 -1.101453e-03 -1.720859e-03 -1.478983e-03 -1.458462e-05 1.656858e-04 3.387034e-05 1.478188e-04 1.144279e-04 8.910822e-05 1.825462e-04 9.731779e-05 1.742467e-04 8.849645e-05 4.054986e-05 4.770775e-05 -1.321660e-04
<VARIANCE> 39
 6.796826e+01 6.679538e+01 8.035423e+01 6.740428e+01 6.652232e+01 5.539848e+01 7.382095e+01 6.407172e+01 6.256113e+01 4.715370e+01 5.048952e+01 4.461697e+01 2.348847e+02 2.692311e+00 3.025240e+00 3.081887e+00 3.342182e+00 3.436821e+00 3.091516e+00 3.506741e+00 3.883447e+00 3.413225e+00 2.940492e+00 3.013173e+00 2.582347e+00 5.249805e+00 4.082149e-01 4.660101e-01 4.789140e-01 5.567399e-01 6.143585e-01 5.543478e-01 6.357841e-01 6.948888e-01 6.073633e-01 5.483900e-01 5.566832e-01 4.755124e-01 7.097014e-01
<GCONST> 1.343107e+02
<TRANSP> 5
 0.000000e+00 1.000000e+00 0.000000e+00 0.000000e+00 0.000000e+00
 0.000000e+00 6.000000e-01 4.000000e-01 0.000000e+00 0.000000e+00
 0.000000e+00 0.000000e+00 6.000000e-01 4.000000e-01 0.000000e+00
 0.000000e+00 0.000000e+00 0.000000e+00 7.000000e-01 3.000000e-01
 0.000000e+00 0.000000e+00 0.000000e+00 0.000000e+00 0.000000e+00
<ENDHMM>
~h "r"
<BEGINHMM>
<NUMSTATES> 5
<STATE> 2
<MEAN> 39
 -6.570501e+00 -2.842432e+00 -2.380350e-01 -5.669234e+00 -6.880997e+00 -2.326709e+00 -8.604589e+00 -3.243548e+00 -3.556369e+00 -2.791252e+00 -2.148896e+00 -4.707316e+00 5.332627e+01 1.233406e-03 2.722908e-03 3.099747e-04 -6.220266e-04 -1.080091e-03 1.213892e-04 -3.125985e-04 -2.520005e-03 -8.831059e-04 -3.166275e-04 -1.101453e-03 -1.720859e-03 -1.478983e-03 -1.458462e-05 1.656858e-04 3.387034e-05 1.478188e-04 1.144279e-04 8.910822e-05 1.825462e-04 9.731779e-05 1.742467e-04 8.849645e-05 4.054986e-05 4.770775e-05 -1.321660e-04
<VARIANCE> 39
 6.796826e+01 6.679538e+01 8.035423e+01 6.740428e+01 6.652232e+01 5.539848e+01 7.382095e+01 6.407172e+01 6.256113e+01 4.715370e+01 5.048952e+01 4.461697e+01 2.348847e+02 2.692311e+00 3.025240e+00 3.081887e+00 3.342182e+00 3.436821e+00 3.091516e+00 3.506741e+00 3.883447e+00 3.413225e+00 2.940492e+00 3.013173e+00 2.582347e+00 5.249805e+00 4.082149e-01 4.660101e-01 4.789140e-01 5.567399e-01 6.143585e-01 5.543478e-01 6.357841e-01 6.948888e-01 6.073633e-01 5.483900e-01 5.566832e-01 4.755124e-01 7.097014e-01
<GCONST> 1.343107e+02
<STATE> 3
<MEAN> 39
 -6.570501e+00 -2.842432e+00 -2.380350e-01 -5.669234e+00 -6.880997e+00 -2.326709e+00 -8.604589e+00 -3.243548e+00 -3.556369e+00 -2.791252e+00 -2.148896e+00 -4.707316e+00 5.332627e+01 1.233406e-03 2.722908e-03 3.099747e-04 -6.220266e-04 -1.080091e-03 1.213892e-04 -3.125985e-04 -2.520005e-03 -8.831059e-04 -3.166275e-04 -1.101453e-03 -1.720859e-03 -1.478983e-03 -1.458462e-05 1.656858e-04 3.387034e-05 1.478188e-04 1.144279e-04 8.910822e-05 1.825462e-04 9.731779e-05 1.742467e-04 8.849645e-05 4.054986e-05 4.770775e-05 -1.321660e-04
<VARIANCE> 39
 6.796826e+01 6.679538e+01 8.035423e+01 6.740428e+01 6.652232e+01 5.539848e+01 7.382095e+01 6.407172e+01 6.256113e+01 4.715370e+01 5.048952e+01 4.461697e+01 2.348847e+02 2.692311e+00 3.025240e+00 3.081887e+00 3.342182e+00 3.436821e+00 3.091516e+00 3.506741e+00 3.883447e+00 3.413225e+00 2.940492e+00 3.013173e+00 2.582347e+00 5.249805e+00 4.082149e-01 4.660101e-01 4.789140e-01 5.567399e-01 6.143585e-01 5.543478e-01 6.357841e-01 6.948888e-01 6.073633e-01 5.483900e-01 5.566832e-01 4.755124e-01 7.097014e-01
<GCONST> 1.343107e+02
<STATE> 4
<MEAN> 39
 -6.570501e+00 -2.842432e+00 -2.380350e-01 -5.669234e+00 -6.880997e+00 -2.326709e+00 -8.604589e+00 -3.243548e+00 -3.556369e+00 -2.791252e+00 -2.148896e+00 -4.707316e+00 5.332627e+01 1.233406e-03 2.722908e-03 3.099747e-04 -6.220266e-04 -1.080091e-03 1.213892e-04 -3.125985e-04 -2.520005e-03 -8.831059e-04 -3.166275e-04 -1.101453e-03 -1.720859e-03 -1.478983e-03 -1.458462e-05 1.656858e-04 3.387034e-05 1.478188e-04 1.144279e-04 8.910822e-05 1.825462e-04 9.731779e-05 1.742467e-04 8.849645e-05 4.054986e-05 4.770775e-05 -1.321660e-04
<VARIANCE> 39
 6.796826e+01 6.679538e+01 8.035423e+01 6.740428e+01 6.652232e+01 5.539848e+01 7.382095e+01 6.407172e+01 6.256113e+01 4.715370e+01 5.048952e+01 4.461697e+01 2.348847e+02 2.692311e+00 3.025240e+00 3.081887e+00 3.342182e+00 3.436821e+00 3.091516e+00 3.506741e+00 3.883447e+00 3.413225e+00 2.940492e+00 3.013173e+00 2.582347e+00 5.249805e+00 4.082149e-01 4.660101e-01 4.789140e-01 5.567399e-01 6.143585e-01 5.543478e-01 6.357841e-01 6.948888e-01 6.073633e-01 5.483900e-01 5.566832e-01 4.755124e-01 7.097014e-01
<GCONST> 1.343107e+02
<TRANSP> 5
 0.000000e+00 1.000000e+00 0.000000e+00 0.000000e+00 0.000000e+00
 0.000000e+00 6.000000e-01 4.000000e-01 0.000000e+00 0.000000e+00
 0.000000e+00 0.000000e+00 6.000000e-01 4.000000e-01 0.000000e+00
 0.000000e+00 0.000000e+00 0.000000e+00 7.000000e-01 3.000000e-01
 0.000000e+00 0.000000e+00 0.000000e+00 0.000000e+00 0.000000e+00
<ENDHMM>
~h "m"
<BEGINHMM>
<NUMSTATES> 5
<STATE> 2
<MEAN> 39
 -6.570501e+00 -2.842432e+00 -2.380350e-01 -5.669234e+00 -6.880997e+00 -2.326709e+00 -8.604589e+00 -3.243548e+00 -3.556369e+00 -2.791252e+00 -2.148896e+00 -4.707316e+00 5.332627e+01 1.233406e-03 2.722908e-03 3.099747e-04 -6.220266e-04 -1.080091e-03 1.213892e-04 -3.125985e-04 -2.520005e-03 -8.831059e-04 -3.166275e-04 -1.101453e-03 -1.720859e-03 -1.478983e-03 -1.458462e-05 1.656858e-04 3.387034e-05 1.478188e-04 1.144279e-04 8.910822e-05 1.825462e-04 9.731779e-05 1.742467e-04 8.849645e-05 4.054986e-05 4.770775e-05 -1.321660e-04
<VARIANCE> 39
 6.796826e+01 6.679538e+01 8.035423e+01 6.740428e+01 6.652232e+01 5.539848e+01 7.382095e+01 6.407172e+01 6.256113e+01 4.715370e+01 5.048952e+01 4.461697e+01 2.348847e+02 2.692311e+00 3.025240e+00 3.081887e+00 3.342182e+00 3.436821e+00 3.091516e+00 3.506741e+00 3.883447e+00 3.413225e+00 2.940492e+00 3.013173e+00 2.582347e+00 5.249805e+00 4.082149e-01 4.660101e-01 4.789140e-01 5.567399e-01 6.143585e-01 5.543478e-01 6.357841e-01 6.948888e-01 6.073633e-01 5.483900e-01 5.566832e-01 4.755124e-01 7.097014e-01
<GCONST> 1.343107e+02
<STATE> 3
<MEAN> 39
 -6.570501e+00 -2.842432e+00 -2.380350e-01 -5.669234e+00 -6.880997e+00 -2.326709e+00 -8.604589e+00 -3.243548e+00 -3.556369e+00 -2.791252e+00 -2.148896e+00 -4.707316e+00 5.332627e+01 1.233406e-03 2.722908e-03 3.099747e-04 -6.220266e-04 -1.080091e-03 1.213892e-04 -3.125985e-04 -2.520005e-03 -8.831059e-04 -3.166275e-04 -1.101453e-03 -1.720859e-03 -1.478983e-03 -1.458462e-05 1.656858e-04 3.387034e-05 1.478188e-04 1.144279e-04 8.910822e-05 1.825462e-04 9.731779e-05 1.742467e-04 8.849645e-05 4.054986e-05 4.770775e-05 -1.321660e-04
<VARIANCE> 39
 6.796826e+01 6.679538e+01 8.035423e+01 6.740428e+01 6.652232e+01 5.539848e+01 7.382095e+01 6.407172e+01 6.256113e+01 4.715370e+01 5.048952e+01 4.461697e+01 2.348847e+02 2.692311e+00 3.025240e+00 3.081887e+00 3.342182e+00 3.436821e+00 3.091516e+00 3.506741e+00 3.883447e+00 3.413225e+00 2.940492e+00 3.013173e+00 2.582347e+00 5.249805e+00 4.082149e-01 4.660101e-01 4.789140e-01 5.567399e-01 6.143585e-01 5.543478e-01 6.357841e-01 6.948888e-01 6.073633e-01 5.483900e-01 5.566832e-01 4.755124e-01 7.097014e-01
<GCONST> 1.343107e+02
<STATE> 4
<MEAN> 39
 -6.570501e+00 -2.842432e+00 -2.380350e-01 -5.669234e+00 -6.880997e+00 -2.326709e+00 -8.604589e+00 -3.243548e+00 -3.556369e+00 -2.791252e+00 -2.148896e+00 -4.707316e+00 5.332627e+01 1.233406e-03 2.722908e-03 3.099747e-04 -6.220266e-04 -1.080091e-03 1.213892e-04 -3.125985e-04 -2.520005e-03 -8.831059e-04 -3.166275e-04 -1.101453e-03 -1.720859e-03 -1.478983e-03 -1.458462e-05 1.656858e-04 3.387034e-05 1.478188e-04 1.144279e-04 8.910822e-05 1.825462e-04 9.731779e-05 1.742467e-04 8.849645e-05 4.054986e-05 4.770775e-05 -1.321660e-04
<VARIANCE> 39
 6.796826e+01 6.679538e+01 8.035423e+01 6.740428e+01 6.652232e+01 5.539848e+01 7.382095e+01 6.407172e+01 6.256113e+01 4.715370e+01 5.048952e+01 4.461697e+01 2.348847e+02 2.692311e+00 3.025240e+00 3.081887e+00 3.342182e+00 3.436821e+00 3.091516e+00 3.506741e+00 3.883447e+00 3.413225e+00 2.940492e+00 3.013173e+00 2.582347e+00 5.249805e+00 4.082149e-01 4.660101e-01 4.789140e-01 5.567399e-01 6.143585e-01 5.543478e-01 6.357841e-01 6.948888e-01 6.073633e-01 5.483900e-01 5.566832e-01 4.755124e-01 7.097014e-01
<GCONST> 1.343107e+02
<TRANSP> 5
 0.000000e+00 1.000000e+00 0.000000e+00 0.000000e+00 0.000000e+00
 0.000000e+00 6.000000e-01 4.000000e-01 0.000000e+00 0.000000e+00
 0.000000e+00 0.000000e+00 6.000000e-01 4.000000e-01 0.000000e+00
 0.000000e+00 0.000000e+00 0.000000e+00 7.000000e-01 3.000000e-01
 0.000000e+00 0.000000e+00 0.000000e+00 0.000000e+00 0.000000e+00
<ENDHMM>
~h "p"
<BEGINHMM>
<NUMSTATES> 5
<STATE> 2
<MEAN> 39
 -6.570501e+00 -2.842432e+00 -2.380350e-01 -5.669234e+00 -6.880997e+00 -2.326709e+00 -8.604589e+00 -3.243548e+00 -3.556369e+00 -2.791252e+00 -2.148896e+00 -4.707316e+00 5.332627e+01 1.233406e-03 2.722908e-03 3.099747e-04 -6.220266e-04 -1.080091e-03 1.213892e-04 -3.125985e-04 -2.520005e-03 -8.831059e-04 -3.166275e-04 -1.101453e-03 -1.720859e-03 -1.478983e-03 -1.458462e-05 1.656858e-04 3.387034e-05 1.478188e-04 1.144279e-04 8.910822e-05 1.825462e-04 9.731779e-05 1.742467e-04 8.849645e-05 4.054986e-05 4.770775e-05 -1.321660e-04
<VARIANCE> 39
 6.796826e+01 6.679538e+01 8.035423e+01 6.740428e+01 6.652232e+01 5.539848e+01 7.382095e+01 6.407172e+01 6.256113e+01 4.715370e+01 5.048952e+01 4.461697e+01 2.348847e+02 2.692311e+00 3.025240e+00 3.081887e+00 3.342182e+00 3.436821e+00 3.091516e+00 3.506741e+00 3.883447e+00 3.413225e+00 2.940492e+00 3.013173e+00 2.582347e+00 5.249805e+00 4.082149e-01 4.660101e-01 4.789140e-01 5.567399e-01 6.143585e-01 5.543478e-01 6.357841e-01 6.948888e-01 6.073633e-01 5.483900e-01 5.566832e-01 4.755124e-01 7.097014e-01
<GCONST> 1.343107e+02
<STATE> 3
<MEAN> 39
 -6.570501e+00 -2.842432e+00 -2.380350e-01 -5.669234e+00 -6.880997e+00 -2.326709e+00 -8.604589e+00 -3.243548e+00 -3.556369e+00 -2.791252e+00 -2.148896e+00 -4.707316e+00 5.332627e+01 1.233406e-03 2.722908e-03 3.099747e-04 -6.220266e-04 -1.080091e-03 1.213892e-04 -3.125985e-04 -2.520005e-03 -8.831059e-04 -3.166275e-04 -1.101453e-03 -1.720859e-03 -1.478983e-03 -1.458462e-05 1.656858e-04 3.387034e-05 1.478188e-04 1.144279e-04 8.910822e-05 1.825462e-04 9.731779e-05 1.742467e-04 8.849645e-05 4.054986e-05 4.770775e-05 -1.321660e-04
<VARIANCE> 39
 6.796826e+01 6.679538e+01 8.035423e+01 6.740428e+01 6.652232e+01 5.539848e+01 7.382095e+01 6.407172e+01 6.256113e+01 4.715370e+01 5.048952e+01 4.461697e+01 2.348847e+02 2.692311e+00 3.025240e+00 3.081887e+00 3.342182e+00 3.436821e+00 3.091516e+00 3.506741e+00 3.883447e+00 3.413225e+00 2.940492e+00 3.013173e+00 2.582347e+00 5.249805e+00 4.082149e-01 4.660101e-01 4.789140e-01 5.567399e-01 6.143585e-01 5.543478e-01 6.357841e-01 6.948888e-01 6.073633e-01 5.483900e-01 5.566832e-01 4.755124e-01 7.097014e-01
<GCONST> 1.343107e+02
<STATE> 4
<MEAN> 39
 -6.570501e+00 -2.842432e+00 -2.380350e-01 -5.669234e+00 -6.880997e+00 -2.326709e+00 -8.604589e+00 -3.243548e+00 -3.556369e+00 -2.791252e+00 -2.148896e+00 -4.707316e+00 5.332627e+01 1.233406e-03 2.722908e-03 3.099747e-04 -6.220266e-04 -1.080091e-03 1.213892e-04 -3.125985e-04 -2.520005e-03 -8.831059e-04 -3.166275e-04 -1.101453e-03 -1.720859e-03 -1.478983e-03 -1.458462e-05 1.656858e-04 3.387034e-05 1.478188e-04 1.144279e-04 8.910822e-05 1.825462e-04 9.731779e-05 1.742467e-04 8.849645e-05 4.054986e-05 4.770775e-05 -1.321660e-04
<VARIANCE> 39
 6.796826e+01 6.679538e+01 8.035423e+01 6.740428e+01 6.652232e+01 5.539848e+01 7.382095e+01 6.407172e+01 6.256113e+01 4.715370e+01 5.048952e+01 4.461697e+01 2.348847e+02 2.692311e+00 3.025240e+00 3.081887e+00 3.342182e+00 3.436821e+00 3.091516e+00 3.506741e+00 3.883447e+00 3.413225e+00 2.940492e+00 3.013173e+00 2.582347e+00 5.249805e+00 4.082149e-01 4.660101e-01 4.789140e-01 5.567399e-01 6.143585e-01 5.543478e-01 6.357841e-01 6.948888e-01 6.073633e-01 5.483900e-01 5.566832e-01 4.755124e-01 7.097014e-01
<GCONST> 1.343107e+02
<TRANSP> 5
 0.000000e+00 1.000000e+00 0.000000e+00 0.000000e+00 0.000000e+00
 0.000000e+00 6.000000e-01 4.000000e-01 0.000000e+00 0.000000e+00
 0.000000e+00 0.000000e+00 6.000000e-01 4.000000e-01 0.000000e+00
 0.000000e+00 0.000000e+00 0.000000e+00 7.000000e-01 3.000000e-01
 0.000000e+00 0.000000e+00 0.000000e+00 0.000000e+00 0.000000e+00
<ENDHMM>
~h "o"
<BEGINHMM>
<NUMSTATES> 5
<STATE> 2
<MEAN> 39
 -6.570501e+00 -2.842432e+00 -2.380350e-01 -5.669234e+00 -6.880997e+00 -2.326709e+00 -8.604589e+00 -3.243548e+00 -3.556369e+00 -2.791252e+00 -2.148896e+00 -4.707316e+00 5.332627e+01 1.233406e-03 2.722908e-03 3.099747e-04 -6.220266e-04 -1.080091e-03 1.213892e-04 -3.125985e-04 -2.520005e-03 -8.831059e-04 -3.166275e-04 -1.101453e-03 -1.720859e-03 -1.478983e-03 -1.458462e-05 1.656858e-04 3.387034e-05 1.478188e-04 1.144279e-04 8.910822e-05 1.825462e-04 9.731779e-05 1.742467e-04 8.849645e-05 4.054986e-05 4.770775e-05 -1.321660e-04
<VARIANCE> 39
 6.796826e+01 6.679538e+01 8.035423e+01 6.740428e+01 6.652232e+01 5.539848e+01 7.382095e+01 6.407172e+01 6.256113e+01 4.715370e+01 5.048952e+01 4.461697e+01 2.348847e+02 2.692311e+00 3.025240e+00 3.081887e+00 3.342182e+00 3.436821e+00 3.091516e+00 3.506741e+00 3.883447e+00 3.413225e+00 2.940492e+00 3.013173e+00 2.582347e+00 5.249805e+00 4.082149e-01 4.660101e-01 4.789140e-01 5.567399e-01 6.143585e-01 5.543478e-01 6.357841e-01 6.948888e-01 6.073633e-01 5.483900e-01 5.566832e-01 4.755124e-01 7.097014e-01
<GCONST> 1.343107e+02
<STATE> 3
<MEAN> 39
 -6.570501e+00 -2.842432e+00 -2.380350e-01 -5.669234e+00 -6.880997e+00 -2.326709e+00 -8.604589e+00 -3.243548e+00 -3.556369e+00 -2.791252e+00 -2.148896e+00 -4.707316e+00 5.332627e+01 1.233406e-03 2.722908e-03 3.099747e-04 -6.220266e-04 -1.080091e-03 1.213892e-04 -3.125985e-04 -2.520005e-03 -8.831059e-04 -3.166275e-04 -1.101453e-03 -1.720859e-03 -1.478983e-03 -1.458462e-05 1.656858e-04 3.387034e-05 1.478188e-04 1.144279e-04 8.910822e-05 1.825462e-04 9.731779e-05 1.742467e-04 8.849645e-05 4.054986e-05 4.770775e-05 -1.321660e-04
<VARIANCE> 39
 6.796826e+01 6.679538e+01 8.035423e+01 6.740428e+01 6.652232e+01 5.539848e+01 7.382095e+01 6.407172e+01 6.256113e+01 4.715370e+01 5.048952e+01 4.461697e+01 2.348847e+02 2.692311e+00 3.025240e+00 3.081887e+00 3.342182e+00 3.436821e+00 3.091516e+00 3.506741e+00 3.883447e+00 3.413225e+00 2.940492e+00 3.013173e+00 2.582347e+00 5.249805e+00 4.082149e-01 4.660101e-01 4.789140e-01 5.567399e-01 6.143585e-01 5.543478e-01 6.357841e-01 6.948888e-01 6.073633e-01 5.483900e-01 5.566832e-01 4.755124e-01 7.097014e-01
<GCONST> 1.343107e+02
<STATE> 4
<MEAN> 39
 -6.570501e+00 -2.842432e+00 -2.380350e-01 -5.669234e+00 -6.880997e+00 -2.326709e+00 -8.604589e+00 -3.243548e+00 -3.556369e+00 -2.791252e+00 -2.148896e+00 -4.707316e+00 5.332627e+01 1.233406e-03 2.722908e-03 3.099747e-04 -6.220266e-04 -1.080091e-03 1.213892e-04 -3.125985e-04 -2.520005e-03 -8.831059e-04 -3.166275e-04 -1.101453e-03 -1.720859e-03 -1.478983e-03 -1.458462e-05 1.656858e-04 3.387034e-05 1.478188e-04 1.144279e-04 8.910822e-05 1.825462e-04 9.731779e-05 1.742467e-04 8.849645e-05 4.054986e-05 4.770775e-05 -1.321660e-04
<VARIANCE> 39
 6.796826e+01 6.679538e+01 8.035423e+01 6.740428e+01 6.652232e+01 5.539848e+01 7.382095e+01 6.407172e+01 6.256113e+01 4.715370e+01 5.048952e+01 4.461697e+01 2.348847e+02 2.692311e+00 3.025240e+00 3.081887e+00 3.342182e+00 3.436821e+00 3.091516e+00 3.506741e+00 3.883447e+00 3.413225e+00 2.940492e+00 3.013173e+00 2.582347e+00 5.249805e+00 4.082149e-01 4.660101e-01 4.789140e-01 5.567399e-01 6.143585e-01 5.543478e-01 6.357841e-01 6.948888e-01 6.073633e-01 5.483900e-01 5.566832e-01 4.755124e-01 7.097014e-01
<GCONST> 1.343107e+02
<TRANSP> 5
 0.000000e+00 1.000000e+00 0.000000e+00 0.000000e+00 0.000000e+00
 0.000000e+00 6.000000e-01 4.000000e-01 0.000000e+00 0.000000e+00
 0.000000e+00 0.000000e+00 6.000000e-01 4.000000e-01 0.000000e+00
 0.000000e+00 0.000000e+00 0.000000e+00 7.000000e-01 3.000000e-01
 0.000000e+00 0.000000e+00 0.000000e+00 0.000000e+00 0.000000e+00
<ENDHMM>
~h "e"
<BEGINHMM>
<NUMSTATES> 5
<STATE> 2
<MEAN> 39
 -6.570501e+00 -2.842432e+00 -2.380350e-01 -5.669234e+00 -6.880997e+00 -2.326709e+00 -8.604589e+00 -3.243548e+00 -3.556369e+00 -2.791252e+00 -2.148896e+00 -4.707316e+00 5.332627e+01 1.233406e-03 2.722908e-03 3.099747e-04 -6.220266e-04 -1.080091e-03 1.213892e-04 -3.125985e-04 -2.520005e-03 -8.831059e-04 -3.166275e-04 -1.101453e-03 -1.720859e-03 -1.478983e-03 -1.458462e-05 1.656858e-04 3.387034e-05 1.478188e-04 1.144279e-04 8.910822e-05 1.825462e-04 9.731779e-05 1.742467e-04 8.849645e-05 4.054986e-05 4.770775e-05 -1.321660e-04
<VARIANCE> 39
 6.796826e+01 6.679538e+01 8.035423e+01 6.740428e+01 6.652232e+01 5.539848e+01 7.382095e+01 6.407172e+01 6.256113e+01 4.715370e+01 5.048952e+01 4.461697e+01 2.348847e+02 2.692311e+00 3.025240e+00 3.081887e+00 3.342182e+00 3.436821e+00 3.091516e+00 3.506741e+00 3.883447e+00 3.413225e+00 2.940492e+00 3.013173e+00 2.582347e+00 5.249805e+00 4.082149e-01 4.660101e-01 4.789140e-01 5.567399e-01 6.143585e-01 5.543478e-01 6.357841e-01 6.948888e-01 6.073633e-01 5.483900e-01 5.566832e-01 4.755124e-01 7.097014e-01
<GCONST> 1.343107e+02
<STATE> 3
<MEAN> 39
 -6.570501e+00 -2.842432e+00 -2.380350e-01 -5.669234e+00 -6.880997e+00 -2.326709e+00 -8.604589e+00 -3.243548e+00 -3.556369e+00 -2.791252e+00 -2.148896e+00 -4.707316e+00 5.332627e+01 1.233406e-03 2.722908e-03 3.099747e-04 -6.220266e-04 -1.080091e-03 1.213892e-04 -3.125985e-04 -2.520005e-03 -8.831059e-04 -3.166275e-04 -1.101453e-03 -1.720859e-03 -1.478983e-03 -1.458462e-05 1.656858e-04 3.387034e-05 1.478188e-04 1.144279e-04 8.910822e-05 1.825462e-04 9.731779e-05 1.742467e-04 8.849645e-05 4.054986e-05 4.770775e-05 -1.321660e-04
<VARIANCE> 39
 6.796826e+01 6.679538e+01 8.035423e+01 6.740428e+01 6.652232e+01 5.539848e+01 7.382095e+01 6.407172e+01 6.256113e+01 4.715370e+01 5.048952e+01 4.461697e+01 2.348847e+02 2.692311e+00 3.025240e+00 3.081887e+00 3.342182e+00 3.436821e+00 3.091516e+00 3.506741e+00 3.883447e+00 3.413225e+00 2.940492e+00 3.013173e+00 2.582347e+00 5.249805e+00 4.082149e-01 4.660101e-01 4.789140e-01 5.567399e-01 6.143585e-01 5.543478e-01 6.357841e-01 6.948888e-01 6.073633e-01 5.483900e-01 5.566832e-01 4.755124e-01 7.097014e-01
<GCONST> 1.343107e+02
<STATE> 4
<MEAN> 39
 -6.570501e+00 -2.842432e+00 -2.380350e-01 -5.669234e+00 -6.880997e+00 -2.326709e+00 -8.604589e+00 -3.243548e+00 -3.556369e+00 -2.791252e+00 -2.148896e+00 -4.707316e+00 5.332627e+01 1.233406e-03 2.722908e-03 3.099747e-04 -6.220266e-04 -1.080091e-03 1.213892e-04 -3.125985e-04 -2.520005e-03 -8.831059e-04 -3.166275e-04 -1.101453e-03 -1.720859e-03 -1.478983e-03 -1.458462e-05 1.656858e-04 3.387034e-05 1.478188e-04 1.144279e-04 8.910822e-05 1.825462e-04 9.731779e-05 1.742467e-04 8.849645e-05 4.054986e-05 4.770775e-05 -1.321660e-04
<VARIANCE> 39
 6.796826e+01 6.679538e+01 8.035423e+01 6.740428e+01 6.652232e+01 5.539848e+01 7.382095e+01 6.407172e+01 6.256113e+01 4.715370e+01 5.048952e+01 4.461697e+01 2.348847e+02 2.692311e+00 3.025240e+00 3.081887e+00 3.342182e+00 3.436821e+00 3.091516e+00 3.506741e+00 3.883447e+00 3.413225e+00 2.940492e+00 3.013173e+00 2.582347e+00 5.249805e+00 4.082149e-01 4.660101e-01 4.789140e-01 5.567399e-01 6.143585e-01 5.543478e-01 6.357841e-01 6.948888e-01 6.073633e-01 5.483900e-01 5.566832e-01 4.755124e-01 7.097014e-01
<GCONST> 1.343107e+02
<TRANSP> 5
 0.000000e+00 1.000000e+00 0.000000e+00 0.000000e+00 0.000000e+00
 0.000000e+00 6.000000e-01 4.000000e-01 0.000000e+00 0.000000e+00
 0.000000e+00 0.000000e+00 6.000000e-01 4.000000e-01 0.000000e+00
 0.000000e+00 0.000000e+00 0.000000e+00 7.000000e-01 3.000000e-01
 0.000000e+00 0.000000e+00 0.000000e+00 0.000000e+00 0.000000e+00
<ENDHMM>
~h "g"
<BEGINHMM>
<NUMSTATES> 5
<STATE> 2
<MEAN> 39
 -6.570501e+00 -2.842432e+00 -2.380350e-01 -5.669234e+00 -6.880997e+00 -2.326709e+00 -8.604589e+00 -3.243548e+00 -3.556369e+00 -2.791252e+00 -2.148896e+00 -4.707316e+00 5.332627e+01 1.233406e-03 2.722908e-03 3.099747e-04 -6.220266e-04 -1.080091e-03 1.213892e-04 -3.125985e-04 -2.520005e-03 -8.831059e-04 -3.166275e-04 -1.101453e-03 -1.720859e-03 -1.478983e-03 -1.458462e-05 1.656858e-04 3.387034e-05 1.478188e-04 1.144279e-04 8.910822e-05 1.825462e-04 9.731779e-05 1.742467e-04 8.849645e-05 4.054986e-05 4.770775e-05 -1.321660e-04
<VARIANCE> 39
 6.796826e+01 6.679538e+01 8.035423e+01 6.740428e+01 6.652232e+01 5.539848e+01 7.382095e+01 6.407172e+01 6.256113e+01 4.715370e+01 5.048952e+01 4.461697e+01 2.348847e+02 2.692311e+00 3.025240e+00 3.081887e+00 3.342182e+00 3.436821e+00 3.091516e+00 3.506741e+00 3.883447e+00 3.413225e+00 2.940492e+00 3.013173e+00 2.582347e+00 5.249805e+00 4.082149e-01 4.660101e-01 4.789140e-01 5.567399e-01 6.143585e-01 5.543478e-01 6.357841e-01 6.948888e-01 6.073633e-01 5.483900e-01 5.566832e-01 4.755124e-01 7.097014e-01
<GCONST> 1.343107e+02
<STATE> 3
<MEAN> 39
 -6.570501e+00 -2.842432e+00 -2.380350e-01 -5.669234e+00 -6.880997e+00 -2.326709e+00 -8.604589e+00 -3.243548e+00 -3.556369e+00 -2.791252e+00 -2.148896e+00 -4.707316e+00 5.332627e+01 1.233406e-03 2.722908e-03 3.099747e-04 -6.220266e-04 -1.080091e-03 1.213892e-04 -3.125985e-04 -2.520005e-03 -8.831059e-04 -3.166275e-04 -1.101453e-03 -1.720859e-03 -1.478983e-03 -1.458462e-05 1.656858e-04 3.387034e-05 1.478188e-04 1.144279e-04 8.910822e-05 1.825462e-04 9.731779e-05 1.742467e-04 8.849645e-05 4.054986e-05 4.770775e-05 -1.321660e-04
<VARIANCE> 39
 6.796826e+01 6.679538e+01 8.035423e+01 6.740428e+01 6.652232e+01 5.539848e+01 7.382095e+01 6.407172e+01 6.256113e+01 4.715370e+01 5.048952e+01 4.461697e+01 2.348847e+02 2.692311e+00 3.025240e+00 3.081887e+00 3.342182e+00 3.436821e+00 3.091516e+00 3.506741e+00 3.883447e+00 3.413225e+00 2.940492e+00 3.013173e+00 2.582347e+00 5.249805e+00 4.082149e-01 4.660101e-01 4.789140e-01 5.567399e-01 6.143585e-01 5.543478e-01 6.357841e-01 6.948888e-01 6.073633e-01 5.483900e-01 5.566832e-01 4.755124e-01 7.097014e-01
<GCONST> 1.343107e+02
<STATE> 4
<MEAN> 39
 -6.570501e+00 -2.842432e+00 -2.380350e-01 -5.669234e+00 -6.880997e+00 -2.326709e+00 -8.604589e+00 -3.243548e+00 -3.556369e+00 -2.791252e+00 -2.148896e+00 -4.707316e+00 5.332627e+01 1.233406e-03 2.722908e-03 3.099747e-04 -6.220266e-04 -1.080091e-03 1.213892e-04 -3.125985e-04 -2.520005e-03 -8.831059e-04 -3.166275e-04 -1.101453e-03 -1.720859e-03 -1.478983e-03 -1.458462e-05 1.656858e-04 3.387034e-05 1.478188e-04 1.144279e-04 8.910822e-05 1.825462e-04 9.731779e-05 1.742467e-04 8.849645e-05 4.054986e-05 4.770775e-05 -1.321660e-04
<VARIANCE> 39
 6.796826e+01 6.679538e+01 8.035423e+01 6.740428e+01 6.652232e+01 5.539848e+01 7.382095e+01 6.407172e+01 6.256113e+01 4.715370e+01 5.048952e+01 4.461697e+01 2.348847e+02 2.692311e+00 3.025240e+00 3.081887e+00 3.342182e+00 3.436821e+00 3.091516e+00 3.506741e+00 3.883447e+00 3.413225e+00 2.940492e+00 3.013173e+00 2.582347e+00 5.249805e+00 4.082149e-01 4.660101e-01 4.789140e-01 5.567399e-01 6.143585e-01 5.543478e-01 6.357841e-01 6.948888e-01 6.073633e-01 5.483900e-01 5.566832e-01 4.755124e-01 7.097014e-01
<GCONST> 1.343107e+02
<TRANSP> 5
 0.000000e+00 1.000000e+00 0.000000e+00 0.000000e+00 0.000000e+00
 0.000000e+00 6.000000e-01 4.000000e-01 0.000000e+00 0.000000e+00
 0.000000e+00 0.000000e+00 6.000000e-01 4.000000e-01 0.000000e+00
 0.000000e+00 0.000000e+00 0.000000e+00 7.000000e-01 3.000000e-01
 0.000000e+00 0.000000e+00 0.000000e+00 0.000000e+00 0.000000e+00
<ENDHMM>
~h "ny"
<BEGINHMM>
<NUMSTATES> 5
<STATE> 2
<MEAN> 39
 -6.570501e+00 -2.842432e+00 -2.380350e-01 -5.669234e+00 -6.880997e+00 -2.326709e+00 -8.604589e+00 -3.243548e+00 -3.556369e+00 -2.791252e+00 -2.148896e+00 -4.707316e+00 5.332627e+01 1.233406e-03 2.722908e-03 3.099747e-04 -6.220266e-04 -1.080091e-03 1.213892e-04 -3.125985e-04 -2.520005e-03 -8.831059e-04 -3.166275e-04 -1.101453e-03 -1.720859e-03 -1.478983e-03 -1.458462e-05 1.656858e-04 3.387034e-05 1.478188e-04 1.144279e-04 8.910822e-05 1.825462e-04 9.731779e-05 1.742467e-04 8.849645e-05 4.054986e-05 4.770775e-05 -1.321660e-04
<VARIANCE> 39
 6.796826e+01 6.679538e+01 8.035423e+01 6.740428e+01 6.652232e+01 5.539848e+01 7.382095e+01 6.407172e+01 6.256113e+01 4.715370e+01 5.048952e+01 4.461697e+01 2.348847e+02 2.692311e+00 3.025240e+00 3.081887e+00 3.342182e+00 3.436821e+00 3.091516e+00 3.506741e+00 3.883447e+00 3.413225e+00 2.940492e+00 3.013173e+00 2.582347e+00 5.249805e+00 4.082149e-01 4.660101e-01 4.789140e-01 5.567399e-01 6.143585e-01 5.543478e-01 6.357841e-01 6.948888e-01 6.073633e-01 5.483900e-01 5.566832e-01 4.755124e-01 7.097014e-01
<GCONST> 1.343107e+02
<STATE> 3
<MEAN> 39
 -6.570501e+00 -2.842432e+00 -2.380350e-01 -5.669234e+00 -6.880997e+00 -2.326709e+00 -8.604589e+00 -3.243548e+00 -3.556369e+00 -2.791252e+00 -2.148896e+00 -4.707316e+00 5.332627e+01 1.233406e-03 2.722908e-03 3.099747e-04 -6.220266e-04 -1.080091e-03 1.213892e-04 -3.125985e-04 -2.520005e-03 -8.831059e-04 -3.166275e-04 -1.101453e-03 -1.720859e-03 -1.478983e-03 -1.458462e-05 1.656858e-04 3.387034e-05 1.478188e-04 1.144279e-04 8.910822e-05 1.825462e-04 9.731779e-05 1.742467e-04 8.849645e-05 4.054986e-05 4.770775e-05 -1.321660e-04
<VARIANCE> 39
 6.796826e+01 6.679538e+01 8.035423e+01 6.740428e+01 6.652232e+01 5.539848e+01 7.382095e+01 6.407172e+01 6.256113e+01 4.715370e+01 5.048952e+01 4.461697e+01 2.348847e+02 2.692311e+00 3.025240e+00 3.081887e+00 3.342182e+00 3.436821e+00 3.091516e+00 3.506741e+00 3.883447e+00 3.413225e+00 2.940492e+00 3.013173e+00 2.582347e+00 5.249805e+00 4.082149e-01 4.660101e-01 4.789140e-01 5.567399e-01 6.143585e-01 5.543478e-01 6.357841e-01 6.948888e-01 6.073633e-01 5.483900e-01 5.566832e-01 4.755124e-01 7.097014e-01
<GCONST> 1.343107e+02
<STATE> 4
<MEAN> 39
 -6.570501e+00 -2.842432e+00 -2.380350e-01 -5.669234e+00 -6.880997e+00 -2.326709e+00 -8.604589e+00 -3.243548e+00 -3.556369e+00 -2.791252e+00 -2.148896e+00 -4.707316e+00 5.332627e+01 1.233406e-03 2.722908e-03 3.099747e-04 -6.220266e-04 -1.080091e-03 1.213892e-04 -3.125985e-04 -2.520005e-03 -8.831059e-04 -3.166275e-04 -1.101453e-03 -1.720859e-03 -1.478983e-03 -1.458462e-05 1.656858e-04 3.387034e-05 1.478188e-04 1.144279e-04 8.910822e-05 1.825462e-04 9.731779e-05 1.742467e-04 8.849645e-05 4.054986e-05 4.770775e-05 -1.321660e-04
<VARIANCE> 39
 6.796826e+01 6.679538e+01 8.035423e+01 6.740428e+01 6.652232e+01 5.539848e+01 7.382095e+01 6.407172e+01 6.256113e+01 4.715370e+01 5.048952e+01 4.461697e+01 2.348847e+02 2.692311e+00 3.025240e+00 3.081887e+00 3.342182e+00 3.436821e+00 3.091516e+00 3.506741e+00 3.883447e+00 3.413225e+00 2.940492e+00 3.013173e+00 2.582347e+00 5.249805e+00 4.082149e-01 4.660101e-01 4.789140e-01 5.567399e-01 6.143585e-01 5.543478e-01 6.357841e-01 6.948888e-01 6.073633e-01 5.483900e-01 5.566832e-01 4.755124e-01 7.097014e-01
<GCONST> 1.343107e+02
<TRANSP> 5
 0.000000e+00 1.000000e+00 0.000000e+00 0.000000e+00 0.000000e+00
 0.000000e+00 6.000000e-01 4.000000e-01 0.000000e+00 0.000000e+00
 0.000000e+00 0.000000e+00 6.000000e-01 4.000000e-01 0.000000e+00
 0.000000e+00 0.000000e+00 0.000000e+00 7.000000e-01 3.000000e-01
 0.000000e+00 0.000000e+00 0.000000e+00 0.000000e+00 0.000000e+00
<ENDHMM>
~h "t"
<BEGINHMM>
<NUMSTATES> 5
<STATE> 2
<MEAN> 39
 -6.570501e+00 -2.842432e+00 -2.380350e-01 -5.669234e+00 -6.880997e+00 -2.326709e+00 -8.604589e+00 -3.243548e+00 -3.556369e+00 -2.791252e+00 -2.148896e+00 -4.707316e+00 5.332627e+01 1.233406e-03 2.722908e-03 3.099747e-04 -6.220266e-04 -1.080091e-03 1.213892e-04 -3.125985e-04 -2.520005e-03 -8.831059e-04 -3.166275e-04 -1.101453e-03 -1.720859e-03 -1.478983e-03 -1.458462e-05 1.656858e-04 3.387034e-05 1.478188e-04 1.144279e-04 8.910822e-05 1.825462e-04 9.731779e-05 1.742467e-04 8.849645e-05 4.054986e-05 4.770775e-05 -1.321660e-04
<VARIANCE> 39
 6.796826e+01 6.679538e+01 8.035423e+01 6.740428e+01 6.652232e+01 5.539848e+01 7.382095e+01 6.407172e+01 6.256113e+01 4.715370e+01 5.048952e+01 4.461697e+01 2.348847e+02 2.692311e+00 3.025240e+00 3.081887e+00 3.342182e+00 3.436821e+00 3.091516e+00 3.506741e+00 3.883447e+00 3.413225e+00 2.940492e+00 3.013173e+00 2.582347e+00 5.249805e+00 4.082149e-01 4.660101e-01 4.789140e-01 5.567399e-01 6.143585e-01 5.543478e-01 6.357841e-01 6.948888e-01 6.073633e-01 5.483900e-01 5.566832e-01 4.755124e-01 7.097014e-01
<GCONST> 1.343107e+02
<STATE> 3
<MEAN> 39
 -6.570501e+00 -2.842432e+00 -2.380350e-01 -5.669234e+00 -6.880997e+00 -2.326709e+00 -8.604589e+00 -3.243548e+00 -3.556369e+00 -2.791252e+00 -2.148896e+00 -4.707316e+00 5.332627e+01 1.233406e-03 2.722908e-03 3.099747e-04 -6.220266e-04 -1.080091e-03 1.213892e-04 -3.125985e-04 -2.520005e-03 -8.831059e-04 -3.166275e-04 -1.101453e-03 -1.720859e-03 -1.478983e-03 -1.458462e-05 1.656858e-04 3.387034e-05 1.478188e-04 1.144279e-04 8.910822e-05 1.825462e-04 9.731779e-05 1.742467e-04 8.849645e-05 4.054986e-05 4.770775e-05 -1.321660e-04
<VARIANCE> 39
 6.796826e+01 6.679538e+01 8.035423e+01 6.740428e+01 6.652232e+01 5.539848e+01 7.382095e+01 6.407172e+01 6.256113e+01 4.715370e+01 5.048952e+01 4.461697e+01 2.348847e+02 2.692311e+00 3.025240e+00 3.081887e+00 3.342182e+00 3.436821e+00 3.091516e+00 3.506741e+00 3.883447e+00 3.413225e+00 2.940492e+00 3.013173e+00 2.582347e+00 5.249805e+00 4.082149e-01 4.660101e-01 4.789140e-01 5.567399e-01 6.143585e-01 5.543478e-01 6.357841e-01 6.948888e-01 6.073633e-01 5.483900e-01 5.566832e-01 4.755124e-01 7.097014e-01
<GCONST> 1.343107e+02
<STATE> 4
<MEAN> 39
 -6.570501e+00 -2.842432e+00 -2.380350e-01 -5.669234e+00 -6.880997e+00 -2.326709e+00 -8.604589e+00 -3.243548e+00 -3.556369e+00 -2.791252e+00 -2.148896e+00 -4.707316e+00 5.332627e+01 1.233406e-03 2.722908e-03 3.099747e-04 -6.220266e-04 -1.080091e-03 1.213892e-04 -3.125985e-04 -2.520005e-03 -8.831059e-04 -3.166275e-04 -1.101453e-03 -1.720859e-03 -1.478983e-03 -1.458462e-05 1.656858e-04 3.387034e-05 1.478188e-04 1.144279e-04 8.910822e-05 1.825462e-04 9.731779e-05 1.742467e-04 8.849645e-05 4.054986e-05 4.770775e-05 -1.321660e-04
<VARIANCE> 39
 6.796826e+01 6.679538e+01 8.035423e+01 6.740428e+01 6.652232e+01 5.539848e+01 7.382095e+01 6.407172e+01 6.256113e+01 4.715370e+01 5.048952e+01 4.461697e+01 2.348847e+02 2.692311e+00 3.025240e+00 3.081887e+00 3.342182e+00 3.436821e+00 3.091516e+00 3.506741e+00 3.883447e+00 3.413225e+00 2.940492e+00 3.013173e+00 2.582347e+00 5.249805e+00 4.082149e-01 4.660101e-01 4.789140e-01 5.567399e-01 6.143585e-01 5.543478e-01 6.357841e-01 6.948888e-01 6.073633e-01 5.483900e-01 5.566832e-01 4.755124e-01 7.097014e-01
<GCONST> 1.343107e+02
<TRANSP> 5
 0.000000e+00 1.000000e+00 0.000000e+00 0.000000e+00 0.000000e+00
 0.000000e+00 6.000000e-01 4.000000e-01 0.000000e+00 0.000000e+00
 0.000000e+00 0.000000e+00 6.000000e-01 4.000000e-01 0.000000e+00
 0.000000e+00 0.000000e+00 0.000000e+00 7.000000e-01 3.000000e-01
 0.000000e+00 0.000000e+00 0.000000e+00 0.000000e+00 0.000000e+00
<ENDHMM>
~h "z"
<BEGINHMM>
<NUMSTATES> 5
<STATE> 2
<MEAN> 39
 -6.570501e+00 -2.842432e+00 -2.380350e-01 -5.669234e+00 -6.880997e+00 -2.326709e+00 -8.604589e+00 -3.243548e+00 -3.556369e+00 -2.791252e+00 -2.148896e+00 -4.707316e+00 5.332627e+01 1.233406e-03 2.722908e-03 3.099747e-04 -6.220266e-04 -1.080091e-03 1.213892e-04 -3.125985e-04 -2.520005e-03 -8.831059e-04 -3.166275e-04 -1.101453e-03 -1.720859e-03 -1.478983e-03 -1.458462e-05 1.656858e-04 3.387034e-05 1.478188e-04 1.144279e-04 8.910822e-05 1.825462e-04 9.731779e-05 1.742467e-04 8.849645e-05 4.054986e-05 4.770775e-05 -1.321660e-04
<VARIANCE> 39
 6.796826e+01 6.679538e+01 8.035423e+01 6.740428e+01 6.652232e+01 5.539848e+01 7.382095e+01 6.407172e+01 6.256113e+01 4.715370e+01 5.048952e+01 4.461697e+01 2.348847e+02 2.692311e+00 3.025240e+00 3.081887e+00 3.342182e+00 3.436821e+00 3.091516e+00 3.506741e+00 3.883447e+00 3.413225e+00 2.940492e+00 3.013173e+00 2.582347e+00 5.249805e+00 4.082149e-01 4.660101e-01 4.789140e-01 5.567399e-01 6.143585e-01 5.543478e-01 6.357841e-01 6.948888e-01 6.073633e-01 5.483900e-01 5.566832e-01 4.755124e-01 7.097014e-01
<GCONST> 1.343107e+02
<STATE> 3
<MEAN> 39
 -6.570501e+00 -2.842432e+00 -2.380350e-01 -5.669234e+00 -6.880997e+00 -2.326709e+00 -8.604589e+00 -3.243548e+00 -3.556369e+00 -2.791252e+00 -2.148896e+00 -4.707316e+00 5.332627e+01 1.233406e-03 2.722908e-03 3.099747e-04 -6.220266e-04 -1.080091e-03 1.213892e-04 -3.125985e-04 -2.520005e-03 -8.831059e-04 -3.166275e-04 -1.101453e-03 -1.720859e-03 -1.478983e-03 -1.458462e-05 1.656858e-04 3.387034e-05 1.478188e-04 1.144279e-04 8.910822e-05 1.825462e-04 9.731779e-05 1.742467e-04 8.849645e-05 4.054986e-05 4.770775e-05 -1.321660e-04
<VARIANCE> 39
 6.796826e+01 6.679538e+01 8.035423e+01 6.740428e+01 6.652232e+01 5.539848e+01 7.382095e+01 6.407172e+01 6.256113e+01 4.715370e+01 5.048952e+01 4.461697e+01 2.348847e+02 2.692311e+00 3.025240e+00 3.081887e+00 3.342182e+00 3.436821e+00 3.091516e+00 3.506741e+00 3.883447e+00 3.413225e+00 2.940492e+00 3.013173e+00 2.582347e+00 5.249805e+00 4.082149e-01 4.660101e-01 4.789140e-01 5.567399e-01 6.143585e-01 5.543478e-01 6.357841e-01 6.948888e-01 6.073633e-01 5.483900e-01 5.566832e-01 4.755124e-01 7.097014e-01
<GCONST> 1.343107e+02
<STATE> 4
<MEAN> 39
 -6.570501e+00 -2.842432e+00 -2.380350e-01 -5.669234e+00 -6.880997e+00 -2.326709e+00 -8.604589e+00 -3.243548e+00 -3.556369e+00 -2.791252e+00 -2.148896e+00 -4.707316e+00 5.332627e+01 1.233406e-03 2.722908e-03 3.099747e-04 -6.220266e-04 -1.080091e-03 1.213892e-04 -3.125985e-04 -2.520005e-03 -8.831059e-04 -3.166275e-04 -1.101453e-03 -1.720859e-03 -1.478983e-03 -1.458462e-05 1.656858e-04 3.387034e-05 1.478188e-04 1.144279e-04 8.910822e-05 1.825462e-04 9.731779e-05 1.742467e-04 8.849645e-05 4.054986e-05 4.770775e-05 -1.321660e-04
<VARIANCE> 39
 6.796826e+01 6.679538e+01 8.035423e+01 6.740428e+01 6.652232e+01 5.539848e+01 7.382095e+01 6.407172e+01 6.256113e+01 4.715370e+01 5.048952e+01 4.461697e+01 2.348847e+02 2.692311e+00 3.025240e+00 3.081887e+00 3.342182e+00 3.436821e+00 3.091516e+00 3.506741e+00 3.883447e+00 3.413225e+00 2.940492e+00 3.013173e+00 2.582347e+00 5.249805e+00 4.082149e-01 4.660101e-01 4.789140e-01 5.567399e-01 6.143585e-01 5.543478e-01 6.357841e-01 6.948888e-01 6.073633e-01 5.483900e-01 5.566832e-01 4.755124e-01 7.097014e-01
<GCONST> 1.343107e+02
<TRANSP> 5
 0.000000e+00 1.000000e+00 0.000000e+00 0.000000e+00 0.000000e+00
 0.000000e+00 6.000000e-01 4.000000e-01 0.000000e+00 0.000000e+00
 0.000000e+00 0.000000e+00 6.000000e-01 4.000000e-01 0.000000e+00
 0.000000e+00 0.000000e+00 0.000000e+00 7.000000e-01 3.000000e-01
 0.000000e+00 0.000000e+00 0.000000e+00 0.000000e+00 0.000000e+00
<ENDHMM>
~h "c"
<BEGINHMM>
<NUMSTATES> 5
<STATE> 2
<MEAN> 39
 -6.570501e+00 -2.842432e+00 -2.380350e-01 -5.669234e+00 -6.880997e+00 -2.326709e+00 -8.604589e+00 -3.243548e+00 -3.556369e+00 -2.791252e+00 -2.148896e+00 -4.707316e+00 5.332627e+01 1.233406e-03 2.722908e-03 3.099747e-04 -6.220266e-04 -1.080091e-03 1.213892e-04 -3.125985e-04 -2.520005e-03 -8.831059e-04 -3.166275e-04 -1.101453e-03 -1.720859e-03 -1.478983e-03 -1.458462e-05 1.656858e-04 3.387034e-05 1.478188e-04 1.144279e-04 8.910822e-05 1.825462e-04 9.731779e-05 1.742467e-04 8.849645e-05 4.054986e-05 4.770775e-05 -1.321660e-04
<VARIANCE> 39
 6.796826e+01 6.679538e+01 8.035423e+01 6.740428e+01 6.652232e+01 5.539848e+01 7.382095e+01 6.407172e+01 6.256113e+01 4.715370e+01 5.048952e+01 4.461697e+01 2.348847e+02 2.692311e+00 3.025240e+00 3.081887e+00 3.342182e+00 3.436821e+00 3.091516e+00 3.506741e+00 3.883447e+00 3.413225e+00 2.940492e+00 3.013173e+00 2.582347e+00 5.249805e+00 4.082149e-01 4.660101e-01 4.789140e-01 5.567399e-01 6.143585e-01 5.543478e-01 6.357841e-01 6.948888e-01 6.073633e-01 5.483900e-01 5.566832e-01 4.755124e-01 7.097014e-01
<GCONST> 1.343107e+02
<STATE> 3
<MEAN> 39
 -6.570501e+00 -2.842432e+00 -2.380350e-01 -5.669234e+00 -6.880997e+00 -2.326709e+00 -8.604589e+00 -3.243548e+00 -3.556369e+00 -2.791252e+00 -2.148896e+00 -4.707316e+00 5.332627e+01 1.233406e-03 2.722908e-03 3.099747e-04 -6.220266e-04 -1.080091e-03 1.213892e-04 -3.125985e-04 -2.520005e-03 -8.831059e-04 -3.166275e-04 -1.101453e-03 -1.720859e-03 -1.478983e-03 -1.458462e-05 1.656858e-04 3.387034e-05 1.478188e-04 1.144279e-04 8.910822e-05 1.825462e-04 9.731779e-05 1.742467e-04 8.849645e-05 4.054986e-05 4.770775e-05 -1.321660e-04
<VARIANCE> 39
 6.796826e+01 6.679538e+01 8.035423e+01 6.740428e+01 6.652232e+01 5.539848e+01 7.382095e+01 6.407172e+01 6.256113e+01 4.715370e+01 5.048952e+01 4.461697e+01 2.348847e+02 2.692311e+00 3.025240e+00 3.081887e+00 3.342182e+00 3.436821e+00 3.091516e+00 3.506741e+00 3.883447e+00 3.413225e+00 2.940492e+00 3.013173e+00 2.582347e+00 5.249805e+00 4.082149e-01 4.660101e-01 4.789140e-01 5.567399e-01 6.143585e-01 5.543478e-01 6.357841e-01 6.948888e-01 6.073633e-01 5.483900e-01 5.566832e-01 4.755124e-01 7.097014e-01
<GCONST> 1.343107e+02
<STATE> 4
<MEAN> 39
 -6.570501e+00 -2.842432e+00 -2.380350e-01 -5.669234e+00 -6.880997e+00 -2.326709e+00 -8.604589e+00 -3.243548e+00 -3.556369e+00 -2.791252e+00 -2.148896e+00 -4.707316e+00 5.332627e+01 1.233406e-03 2.722908e-03 3.099747e-04 -6.220266e-04 -1.080091e-03 1.213892e-04 -3.125985e-04 -2.520005e-03 -8.831059e-04 -3.166275e-04 -1.101453e-03 -1.720859e-03 -1.478983e-03 -1.458462e-05 1.656858e-04 3.387034e-05 1.478188e-04 1.144279e-04 8.910822e-05 1.825462e-04 9.731779e-05 1.742467e-04 8.849645e-05 4.054986e-05 4.770775e-05 -1.321660e-04
<VARIANCE> 39
 6.796826e+01 6.679538e+01 8.035423e+01 6.740428e+01 6.652232e+01 5.539848e+01 7.382095e+01 6.407172e+01 6.256113e+01 4.715370e+01 5.048952e+01 4.461697e+01 2.348847e+02 2.692311e+00 3.025240e+00 3.081887e+00 3.342182e+00 3.436821e+00 3.091516e+00 3.506741e+00 3.883447e+00 3.413225e+00 2.940492e+00 3.013173e+00 2.582347e+00 5.249805e+00 4.082149e-01 4.660101e-01 4.789140e-01 5.567399e-01 6.143585e-01 5.543478e-01 6.357841e-01 6.948888e-01 6.073633e-01 5.483900e-01 5.566832e-01 4.755124e-01 7.097014e-01
<GCONST> 1.343107e+02
<TRANSP> 5
 0.000000e+00 1.000000e+00 0.000000e+00 0.000000e+00 0.000000e+00
 0.000000e+00 6.000000e-01 4.000000e-01 0.000000e+00 0.000000e+00
 0.000000e+00 0.000000e+00 6.000000e-01 4.000000e-01 0.000000e+00
 0.000000e+00 0.000000e+00 0.000000e+00 7.000000e-01 3.000000e-01
 0.000000e+00 0.000000e+00 0.000000e+00 0.000000e+00 0.000000e+00
<ENDHMM>
~h "kh"
<BEGINHMM>
<NUMSTATES> 5
<STATE> 2
<MEAN> 39
 -6.570501e+00 -2.842432e+00 -2.380350e-01 -5.669234e+00 -6.880997e+00 -2.326709e+00 -8.604589e+00 -3.243548e+00 -3.556369e+00 -2.791252e+00 -2.148896e+00 -4.707316e+00 5.332627e+01 1.233406e-03 2.722908e-03 3.099747e-04 -6.220266e-04 -1.080091e-03 1.213892e-04 -3.125985e-04 -2.520005e-03 -8.831059e-04 -3.166275e-04 -1.101453e-03 -1.720859e-03 -1.478983e-03 -1.458462e-05 1.656858e-04 3.387034e-05 1.478188e-04 1.144279e-04 8.910822e-05 1.825462e-04 9.731779e-05 1.742467e-04 8.849645e-05 4.054986e-05 4.770775e-05 -1.321660e-04
<VARIANCE> 39
 6.796826e+01 6.679538e+01 8.035423e+01 6.740428e+01 6.652232e+01 5.539848e+01 7.382095e+01 6.407172e+01 6.256113e+01 4.715370e+01 5.048952e+01 4.461697e+01 2.348847e+02 2.692311e+00 3.025240e+00 3.081887e+00 3.342182e+00 3.436821e+00 3.091516e+00 3.506741e+00 3.883447e+00 3.413225e+00 2.940492e+00 3.013173e+00 2.582347e+00 5.249805e+00 4.082149e-01 4.660101e-01 4.789140e-01 5.567399e-01 6.143585e-01 5.543478e-01 6.357841e-01 6.948888e-01 6.073633e-01 5.483900e-01 5.566832e-01 4.755124e-01 7.097014e-01
<GCONST> 1.343107e+02
<STATE> 3
<MEAN> 39
 -6.570501e+00 -2.842432e+00 -2.380350e-01 -5.669234e+00 -6.880997e+00 -2.326709e+00 -8.604589e+00 -3.243548e+00 -3.556369e+00 -2.791252e+00 -2.148896e+00 -4.707316e+00 5.332627e+01 1.233406e-03 2.722908e-03 3.099747e-04 -6.220266e-04 -1.080091e-03 1.213892e-04 -3.125985e-04 -2.520005e-03 -8.831059e-04 -3.166275e-04 -1.101453e-03 -1.720859e-03 -1.478983e-03 -1.458462e-05 1.656858e-04 3.387034e-05 1.478188e-04 1.144279e-04 8.910822e-05 1.825462e-04 9.731779e-05 1.742467e-04 8.849645e-05 4.054986e-05 4.770775e-05 -1.321660e-04
<VARIANCE> 39
 6.796826e+01 6.679538e+01 8.035423e+01 6.740428e+01 6.652232e+01 5.539848e+01 7.382095e+01 6.407172e+01 6.256113e+01 4.715370e+01 5.048952e+01 4.461697e+01 2.348847e+02 2.692311e+00 3.025240e+00 3.081887e+00 3.342182e+00 3.436821e+00 3.091516e+00 3.506741e+00 3.883447e+00 3.413225e+00 2.940492e+00 3.013173e+00 2.582347e+00 5.249805e+00 4.082149e-01 4.660101e-01 4.789140e-01 5.567399e-01 6.143585e-01 5.543478e-01 6.357841e-01 6.948888e-01 6.073633e-01 5.483900e-01 5.566832e-01 4.755124e-01 7.097014e-01
<GCONST> 1.343107e+02
<STATE> 4
<MEAN> 39
 -6.570501e+00 -2.842432e+00 -2.380350e-01 -5.669234e+00 -6.880997e+00 -2.326709e+00 -8.604589e+00 -3.243548e+00 -3.556369e+00 -2.791252e+00 -2.148896e+00 -4.707316e+00 5.332627e+01 1.233406e-03 2.722908e-03 3.099747e-04 -6.220266e-04 -1.080091e-03 1.213892e-04 -3.125985e-04 -2.520005e-03 -8.831059e-04 -3.166275e-04 -1.101453e-03 -1.720859e-03 -1.478983e-03 -1.458462e-05 1.656858e-04 3.387034e-05 1.478188e-04 1.144279e-04 8.910822e-05 1.825462e-04 9.731779e-05 1.742467e-04 8.849645e-05 4.054986e-05 4.770775e-05 -1.321660e-04
<VARIANCE> 39
 6.796826e+01 6.679538e+01 8.035423e+01 6.740428e+01 6.652232e+01 5.539848e+01 7.382095e+01 6.407172e+01 6.256113e+01 4.715370e+01 5.048952e+01 4.461697e+01 2.348847e+02 2.692311e+00 3.025240e+00 3.081887e+00 3.342182e+00 3.436821e+00 3.091516e+00 3.506741e+00 3.883447e+00 3.413225e+00 2.940492e+00 3.013173e+00 2.582347e+00 5.249805e+00 4.082149e-01 4.660101e-01 4.789140e-01 5.567399e-01 6.143585e-01 5.543478e-01 6.357841e-01 6.948888e-01 6.073633e-01 5.483900e-01 5.566832e-01 4.755124e-01 7.097014e-01
<GCONST> 1.343107e+02
<TRANSP> 5
 0.000000e+00 1.000000e+00 0.000000e+00 0.000000e+00 0.000000e+00
 0.000000e+00 6.000000e-01 4.000000e-01 0.000000e+00 0.000000e+00
 0.000000e+00 0.000000e+00 6.000000e-01 4.000000e-01 0.000000e+00
 0.000000e+00 0.000000e+00 0.000000e+00 7.000000e-01 3.000000e-01
 0.000000e+00 0.000000e+00 0.000000e+00 0.000000e+00 0.000000e+00
<ENDHMM>
~h "w"
<BEGINHMM>
<NUMSTATES> 5
<STATE> 2
<MEAN> 39
 -6.570501e+00 -2.842432e+00 -2.380350e-01 -5.669234e+00 -6.880997e+00 -2.326709e+00 -8.604589e+00 -3.243548e+00 -3.556369e+00 -2.791252e+00 -2.148896e+00 -4.707316e+00 5.332627e+01 1.233406e-03 2.722908e-03 3.099747e-04 -6.220266e-04 -1.080091e-03 1.213892e-04 -3.125985e-04 -2.520005e-03 -8.831059e-04 -3.166275e-04 -1.101453e-03 -1.720859e-03 -1.478983e-03 -1.458462e-05 1.656858e-04 3.387034e-05 1.478188e-04 1.144279e-04 8.910822e-05 1.825462e-04 9.731779e-05 1.742467e-04 8.849645e-05 4.054986e-05 4.770775e-05 -1.321660e-04
<VARIANCE> 39
 6.796826e+01 6.679538e+01 8.035423e+01 6.740428e+01 6.652232e+01 5.539848e+01 7.382095e+01 6.407172e+01 6.256113e+01 4.715370e+01 5.048952e+01 4.461697e+01 2.348847e+02 2.692311e+00 3.025240e+00 3.081887e+00 3.342182e+00 3.436821e+00 3.091516e+00 3.506741e+00 3.883447e+00 3.413225e+00 2.940492e+00 3.013173e+00 2.582347e+00 5.249805e+00 4.082149e-01 4.660101e-01 4.789140e-01 5.567399e-01 6.143585e-01 5.543478e-01 6.357841e-01 6.948888e-01 6.073633e-01 5.483900e-01 5.566832e-01 4.755124e-01 7.097014e-01
<GCONST> 1.343107e+02
<STATE> 3
<MEAN> 39
 -6.570501e+00 -2.842432e+00 -2.380350e-01 -5.669234e+00 -6.880997e+00 -2.326709e+00 -8.604589e+00 -3.243548e+00 -3.556369e+00 -2.791252e+00 -2.148896e+00 -4.707316e+00 5.332627e+01 1.233406e-03 2.722908e-03 3.099747e-04 -6.220266e-04 -1.080091e-03 1.213892e-04 -3.125985e-04 -2.520005e-03 -8.831059e-04 -3.166275e-04 -1.101453e-03 -1.720859e-03 -1.478983e-03 -1.458462e-05 1.656858e-04 3.387034e-05 1.478188e-04 1.144279e-04 8.910822e-05 1.825462e-04 9.731779e-05 1.742467e-04 8.849645e-05 4.054986e-05 4.770775e-05 -1.321660e-04
<VARIANCE> 39
 6.796826e+01 6.679538e+01 8.035423e+01 6.740428e+01 6.652232e+01 5.539848e+01 7.382095e+01 6.407172e+01 6.256113e+01 4.715370e+01 5.048952e+01 4.461697e+01 2.348847e+02 2.692311e+00 3.025240e+00 3.081887e+00 3.342182e+00 3.436821e+00 3.091516e+00 3.506741e+00 3.883447e+00 3.413225e+00 2.940492e+00 3.013173e+00 2.582347e+00 5.249805e+00 4.082149e-01 4.660101e-01 4.789140e-01 5.567399e-01 6.143585e-01 5.543478e-01 6.357841e-01 6.948888e-01 6.073633e-01 5.483900e-01 5.566832e-01 4.755124e-01 7.097014e-01
<GCONST> 1.343107e+02
<STATE> 4
<MEAN> 39
 -6.570501e+00 -2.842432e+00 -2.380350e-01 -5.669234e+00 -6.880997e+00 -2.326709e+00 -8.604589e+00 -3.243548e+00 -3.556369e+00 -2.791252e+00 -2.148896e+00 -4.707316e+00 5.332627e+01 1.233406e-03 2.722908e-03 3.099747e-04 -6.220266e-04 -1.080091e-03 1.213892e-04 -3.125985e-04 -2.520005e-03 -8.831059e-04 -3.166275e-04 -1.101453e-03 -1.720859e-03 -1.478983e-03 -1.458462e-05 1.656858e-04 3.387034e-05 1.478188e-04 1.144279e-04 8.910822e-05 1.825462e-04 9.731779e-05 1.742467e-04 8.849645e-05 4.054986e-05 4.770775e-05 -1.321660e-04
<VARIANCE> 39
 6.796826e+01 6.679538e+01 8.035423e+01 6.740428e+01 6.652232e+01 5.539848e+01 7.382095e+01 6.407172e+01 6.256113e+01 4.715370e+01 5.048952e+01 4.461697e+01 2.348847e+02 2.692311e+00 3.025240e+00 3.081887e+00 3.342182e+00 3.436821e+00 3.091516e+00 3.506741e+00 3.883447e+00 3.413225e+00 2.940492e+00 3.013173e+00 2.582347e+00 5.249805e+00 4.082149e-01 4.660101e-01 4.789140e-01 5.567399e-01 6.143585e-01 5.543478e-01 6.357841e-01 6.948888e-01 6.073633e-01 5.483900e-01 5.566832e-01 4.755124e-01 7.097014e-01
<GCONST> 1.343107e+02
<TRANSP> 5
 0.000000e+00 1.000000e+00 0.000000e+00 0.000000e+00 0.000000e+00
 0.000000e+00 6.000000e-01 4.000000e-01 0.000000e+00 0.000000e+00
 0.000000e+00 0.000000e+00 6.000000e-01 4.000000e-01 0.000000e+00
 0.000000e+00 0.000000e+00 0.000000e+00 7.000000e-01 3.000000e-01
 0.000000e+00 0.000000e+00 0.000000e+00 0.000000e+00 0.000000e+00
<ENDHMM>
~h "j"
<BEGINHMM>
<NUMSTATES> 5
<STATE> 2
<MEAN> 39
 -6.570501e+00 -2.842432e+00 -2.380350e-01 -5.669234e+00 -6.880997e+00 -2.326709e+00 -8.604589e+00 -3.243548e+00 -3.556369e+00 -2.791252e+00 -2.148896e+00 -4.707316e+00 5.332627e+01 1.233406e-03 2.722908e-03 3.099747e-04 -6.220266e-04 -1.080091e-03 1.213892e-04 -3.125985e-04 -2.520005e-03 -8.831059e-04 -3.166275e-04 -1.101453e-03 -1.720859e-03 -1.478983e-03 -1.458462e-05 1.656858e-04 3.387034e-05 1.478188e-04 1.144279e-04 8.910822e-05 1.825462e-04 9.731779e-05 1.742467e-04 8.849645e-05 4.054986e-05 4.770775e-05 -1.321660e-04
<VARIANCE> 39
 6.796826e+01 6.679538e+01 8.035423e+01 6.740428e+01 6.652232e+01 5.539848e+01 7.382095e+01 6.407172e+01 6.256113e+01 4.715370e+01 5.048952e+01 4.461697e+01 2.348847e+02 2.692311e+00 3.025240e+00 3.081887e+00 3.342182e+00 3.436821e+00 3.091516e+00 3.506741e+00 3.883447e+00 3.413225e+00 2.940492e+00 3.013173e+00 2.582347e+00 5.249805e+00 4.082149e-01 4.660101e-01 4.789140e-01 5.567399e-01 6.143585e-01 5.543478e-01 6.357841e-01 6.948888e-01 6.073633e-01 5.483900e-01 5.566832e-01 4.755124e-01 7.097014e-01
<GCONST> 1.343107e+02
<STATE> 3
<MEAN> 39
 -6.570501e+00 -2.842432e+00 -2.380350e-01 -5.669234e+00 -6.880997e+00 -2.326709e+00 -8.604589e+00 -3.243548e+00 -3.556369e+00 -2.791252e+00 -2.148896e+00 -4.707316e+00 5.332627e+01 1.233406e-03 2.722908e-03 3.099747e-04 -6.220266e-04 -1.080091e-03 1.213892e-04 -3.125985e-04 -2.520005e-03 -8.831059e-04 -3.166275e-04 -1.101453e-03 -1.720859e-03 -1.478983e-03 -1.458462e-05 1.656858e-04 3.387034e-05 1.478188e-04 1.144279e-04 8.910822e-05 1.825462e-04 9.731779e-05 1.742467e-04 8.849645e-05 4.054986e-05 4.770775e-05 -1.321660e-04
<VARIANCE> 39
 6.796826e+01 6.679538e+01 8.035423e+01 6.740428e+01 6.652232e+01 5.539848e+01 7.382095e+01 6.407172e+01 6.256113e+01 4.715370e+01 5.048952e+01 4.461697e+01 2.348847e+02 2.692311e+00 3.025240e+00 3.081887e+00 3.342182e+00 3.436821e+00 3.091516e+00 3.506741e+00 3.883447e+00 3.413225e+00 2.940492e+00 3.013173e+00 2.582347e+00 5.249805e+00 4.082149e-01 4.660101e-01 4.789140e-01 5.567399e-01 6.143585e-01 5.543478e-01 6.357841e-01 6.948888e-01 6.073633e-01 5.483900e-01 5.566832e-01 4.755124e-01 7.097014e-01
<GCONST> 1.343107e+02
<STATE> 4
<MEAN> 39
 -6.570501e+00 -2.842432e+00 -2.380350e-01 -5.669234e+00 -6.880997e+00 -2.326709e+00 -8.604589e+00 -3.243548e+00 -3.556369e+00 -2.791252e+00 -2.148896e+00 -4.707316e+00 5.332627e+01 1.233406e-03 2.722908e-03 3.099747e-04 -6.220266e-04 -1.080091e-03 1.213892e-04 -3.125985e-04 -2.520005e-03 -8.831059e-04 -3.166275e-04 -1.101453e-03 -1.720859e-03 -1.478983e-03 -1.458462e-05 1.656858e-04 3.387034e-05 1.478188e-04 1.144279e-04 8.910822e-05 1.825462e-04 9.731779e-05 1.742467e-04 8.849645e-05 4.054986e-05 4.770775e-05 -1.321660e-04
<VARIANCE> 39
 6.796826e+01 6.679538e+01 8.035423e+01 6.740428e+01 6.652232e+01 5.539848e+01 7.382095e+01 6.407172e+01 6.256113e+01 4.715370e+01 5.048952e+01 4.461697e+01 2.348847e+02 2.692311e+00 3.025240e+00 3.081887e+00 3.342182e+00 3.436821e+00 3.091516e+00 3.506741e+00 3.883447e+00 3.413225e+00 2.940492e+00 3.013173e+00 2.582347e+00 5.249805e+00 4.082149e-01 4.660101e-01 4.789140e-01 5.567399e-01 6.143585e-01 5.543478e-01 6.357841e-01 6.948888e-01 6.073633e-01 5.483900e-01 5.566832e-01 4.755124e-01 7.097014e-01
<GCONST> 1.343107e+02
<TRANSP> 5
 0.000000e+00 1.000000e+00 0.000000e+00 0.000000e+00 0.000000e+00
 0.000000e+00 6.000000e-01 4.000000e-01 0.000000e+00 0.000000e+00
 0.000000e+00 0.000000e+00 6.000000e-01 4.000000e-01 0.000000e+00
 0.000000e+00 0.000000e+00 0.000000e+00 7.000000e-01 3.000000e-01
 0.000000e+00 0.000000e+00 0.000000e+00 0.000000e+00 0.000000e+00
<ENDHMM>
~h "f"
<BEGINHMM>
<NUMSTATES> 5
<STATE> 2
<MEAN> 39
 -6.570501e+00 -2.842432e+00 -2.380350e-01 -5.669234e+00 -6.880997e+00 -2.326709e+00 -8.604589e+00 -3.243548e+00 -3.556369e+00 -2.791252e+00 -2.148896e+00 -4.707316e+00 5.332627e+01 1.233406e-03 2.722908e-03 3.099747e-04 -6.220266e-04 -1.080091e-03 1.213892e-04 -3.125985e-04 -2.520005e-03 -8.831059e-04 -3.166275e-04 -1.101453e-03 -1.720859e-03 -1.478983e-03 -1.458462e-05 1.656858e-04 3.387034e-05 1.478188e-04 1.144279e-04 8.910822e-05 1.825462e-04 9.731779e-05 1.742467e-04 8.849645e-05 4.054986e-05 4.770775e-05 -1.321660e-04
<VARIANCE> 39
