<BEGINHMM>
<NUMSTATES> 5
<STATE> 2
<MEAN> 39
 -6.275867e+00 -2.665896e+00 1.224037e-01 -5.337132e+00 -7.024418e+00 -2.476439e+00 -8.546488e+00 -3.117538e+00 -3.518486e+00 -2.698648e+00 -2.051468e+00 -4.718861e+00 5.356138e+01 8.467331e-04 2.274968e-03 3.040296e-04 -7.775007e-04 -9.580406e-04 3.040929e-04 -4.002558e-04 -2.369765e-03 -6.183445e-04 -1.420268e-04 -9.792126e-04 -1.747119e-03 -9.709176e-04 -1.533037e-05 1.200886e-04 2.051651e-05 1.456256e-04 9.963356e-05 4.981324e-05 1.282026e-04 9.156813e-05 1.674308e-04 9.480303e-05 5.736553e-05 7.539228e-05 -9.910345e-05
<VARIANCE> 39
 6.730569e+01 6.519575e+01 7.866788e+01 6.552090e+01 6.633285e+01 5.483527e+01 7.148398e+01 6.312202e+01 6.050240e+01 4.561049e+01 4.903098e+01 4.348267e+01 2.268783e+02 2.598513e+00 2.935692e+00 2.961591e+00 3.205720e+00 3.362964e+00 3.033276e+00 3.429430e+00 3.828885e+00 3.327915e+00 2.872025e+00 2.959718e+00 2.514402e+00 4.908156e+00 3.947237e-01 4.514404e-01 4.617839e-01 5.366085e-01 6.008145e-01 5.431755e-01 6.232600e-01 6.825286e-01 5.932403e-01 5.367261e-01 5.469185e-01 4.635034e-01 6.616433e-01
<GCONST> 1.332480e+02
<STATE> 3
<MEAN> 39
 -6.275867e+00 -2.665896e+00 1.224037e-01 -5.337132e+00 -7.024418e+00 -2.476439e+00 -8.546488e+00 -3.117538e+00 -3.518486e+00 -2.698648e+00 -2.051468e+00 -4.718861e+00 5.356138e+01 8.467331e-04 2.274968e-03 3.040296e-04 -7.775007e-04 -9.580406e-04 3.040929e-04 -4.002558e-04 -2.369765e-03 -6.183445e-04 -1.420268e-04 -9.792126e-04 -1.747119e-03 -9.709176e-04 -1.533037e-05 1.200886e-04 2.051651e-05 1.456256e-04 9.963356e-05 4.981324e-05 1.282026e-04 9.156813e-05 1.674308e-04 9.480303e-05 5.736553e-05 7.539228e-05 -9.910345e-05
<VARIANCE> 39
 6.730569e+01 6.519575e+01 7.866788e+01 6.552090e+01 6.633285e+01 5.483527e+01 7.148398e+01 6.312202e+01 6.050240e+01 4.561049e+01 4.903098e+01 4.348267e+01 2.268783e+02 2.598513e+00 2.935692e+00 2.961591e+00 3.205720e+00 3.362964e+00 3.033276e+00 3.429430e+00 3.828885e+00 3.327915e+00 2.872025e+00 2.959718e+00 2.514402e+00 4.908156e+00 3.947237e-01 4.514404e-01 4.617839e-01 5.366085e-01 6.008145e-01 5.431755e-01 6.232600e-01 6.825286e-01 5.932403e-01 5.367261e-01 5.469185e-01 4.635034e-01 6.616433e-01
<GCONST> 1.332480e+02
<STATE> 4
<MEAN> 39
 -6.275867e+00 -2.665896e+00 1.224037e-01 -5.337132e+00 -7.024418e+00 -2.476439e+00 -8.546488e+00 -3.117538e+00 -3.518486e+00 -2.698648e+00 -2.051468e+00 -4.718861e+00 5.356138e+01 8.467331e-04 2.274968e-03 3.040296e-04 -7.775007e-04 -9.580406e-04 3.040929e-04 -4.002558e-04 -2.369765e-03 -6.183445e-04 -1.420268e-04 -9.792126e-04 -1.747119e-03 -9.709176e-04 -1.533037e-05 1.200886e-04 2.051651e-05 1.456256e-04 9.963356e-05 4.981324e-05 1.282026e-04 9.156813e-05 1.674308e-04 9.480303e-05 5.736553e-05 7.539228e-05 -9.910345e-05
<VARIANCE> 39
 6.730569e+01 6.519575e+01 7.866788e+01 6.552090e+01 6.633285e+01 5.483527e+01 7.148398e+01 6.312202e+01 6.050240e+01 4.561049e+01 4.903098e+01 4.348267e+01 2.268783e+02 2.598513e+00 2.935692e+00 2.961591e+00 3.205720e+00 3.362964e+00 3.033276e+00 3.429430e+00 3.828885e+00 3.327915e+00 2.872025e+00 2.959718e+00 2.514402e+00 4.908156e+00 3.947237e-01 4.514404e-01 4.617839e-01 5.366085e-01 6.008145e-01 5.431755e-01 6.232600e-01 6.825286e-01 5.932403e-01 5.367261e-01 5.469185e-01 4.635034e-01 6.616433e-01
<GCONST> 1.332480e+02
<TRANSP> 5
 0.000000e+00 1.000000e+00 0.000000e+00 0.000000e+00 0.000000e+00
 0.000000e+00 6.000000e-01 4.000000e-01 0.000000e+00 0.000000e+00
 0.000000e+00 0.000000e+00 6.000000e-01 4.000000e-01 0.000000e+00
 0.000000e+00 0.000000e+00 0.000000e+00 7.000000e-01 3.000000e-01
 0.000000e+00 0.000000e+00 0.000000e+00 0.000000e+00 0.000000e+00
<ENDHMM>
