<BEGINHMM>
<NUMSTATES> 5
<STATE> 2
<MEAN> 39
 -6.276673e+00 -2.665388e+00 1.235361e-01 -5.337921e+00 -7.020535e+00 -2.476403e+00 -8.541344e+00 -3.116035e+00 -3.523242e+00 -2.702217e+00 -2.051369e+00 -4.720645e+00 5.355759e+01 8.474062e-04 2.265979e-03 3.018836e-04 -7.763013e-04 -9.629136e-04 3.065896e-04 -3.801896e-04 -2.358476e-03 -6.147531e-04 -1.314272e-04 -9.728804e-04 -1.743846e-03 -9.567711e-04 -1.621138e-05 1.177307e-04 2.065352e-05 1.455038e-04 9.920174e-05 5.005115e-05 1.269723e-04 9.171668e-05 1.674847e-04 9.687871e-05 5.950362e-05 7.584735e-05 -9.808812e-05
<VARIANCE> 39
 6.730051e+01 6.517998e+01 7.868427e+01 6.550271e+01 6.631570e+01 5.483132e+01 7.149903e+01 6.309755e+01 6.052695e+01 4.561634e+01 4.902209e+01 4.348569e+01 2.269364e+02 2.597967e+00 2.935253e+00 2.960693e+00 3.204771e+00 3.362018e+00 3.033211e+00 3.429254e+00 3.827410e+00 3.327992e+00 2.871611e+00 2.959060e+00 2.514007e+00 4.906366e+00 3.946231e-01 4.513811e-01 4.616097e-01 5.364529e-01 6.006329e-01 5.431054e-01 6.231976e-01 6.822895e-01 5.932524e-01 5.366359e-01 5.467838e-01 4.634238e-01 6.613556e-01
<GCONST> 1.332423e+02
<STATE> 3
<MEAN> 39
 -6.276673e+00 -2.665388e+00 1.235361e-01 -5.337921e+00 -7.020535e+00 -2.476403e+00 -8.541344e+00 -3.116035e+00 -3.523242e+00 -2.702217e+00 -2.051369e+00 -4.720645e+00 5.355759e+01 8.474062e-04 2.265979e-03 3.018836e-04 -7.763013e-04 -9.629136e-04 3.065896e-04 -3.801896e-04 -2.358476e-03 -6.147531e-04 -1.314272e-04 -9.728804e-04 -1.743846e-03 -9.567711e-04 -1.621138e-05 1.177307e-04 2.065352e-05 1.455038e-04 9.920174e-05 5.005115e-05 1.269723e-04 9.171668e-05 1.674847e-04 9.687871e-05 5.950362e-05 7.584735e-05 -9.808812e-05
<VARIANCE> 39
 6.730051e+01 6.517998e+01 7.868427e+01 6.550271e+01 6.631570e+01 5.483132e+01 7.149903e+01 6.309755e+01 6.052695e+01 4.561634e+01 4.902209e+01 4.348569e+01 2.269364e+02 2.597967e+00 2.935253e+00 2.960693e+00 3.204771e+00 3.362018e+00 3.033211e+00 3.429254e+00 3.827410e+00 3.327992e+00 2.871611e+00 2.959060e+00 2.514007e+00 4.906366e+00 3.946231e-01 4.513811e-01 4.616097e-01 5.364529e-01 6.006329e-01 5.431054e-01 6.231976e-01 6.822895e-01 5.932524e-01 5.366359e-01 5.467838e-01 4.634238e-01 6.613556e-01
<GCONST> 1.332423e+02
<STATE> 4
<MEAN> 39
 -6.276673e+00 -2.665388e+00 1.235361e-01 -5.337921e+00 -7.020535e+00 -2.476403e+00 -8.541344e+00 -3.116035e+00 -3.523242e+00 -2.702217e+00 -2.051369e+00 -4.720645e+00 5.355759e+01 8.474062e-04 2.265979e-03 3.018836e-04 -7.763013e-04 -9.629136e-04 3.065896e-04 -3.801896e-04 -2.358476e-03 -6.147531e-04 -1.314272e-04 -9.728804e-04 -1.743846e-03 -9.567711e-04 -1.621138e-05 1.177307e-04 2.065352e-05 1.455038e-04 9.920174e-05 5.005115e-05 1.269723e-04 9.171668e-05 1.674847e-04 9.687871e-05 5.950362e-05 7.584735e-05 -9.808812e-05
<VARIANCE> 39
 6.730051e+01 6.517998e+01 7.868427e+01 6.550271e+01 6.631570e+01 5.483132e+01 7.149903e+01 6.309755e+01 6.052695e+01 4.561634e+01 4.902209e+01 4.348569e+01 2.269364e+02 2.597967e+00 2.935253e+00 2.960693e+00 3.204771e+00 3.362018e+00 3.033211e+00 3.429254e+00 3.827410e+00 3.327992e+00 2.871611e+00 2.959060e+00 2.514007e+00 4.906366e+00 3.946231e-01 4.513811e-01 4.616097e-01 5.364529e-01 6.006329e-01 5.431054e-01 6.231976e-01 6.822895e-01 5.932524e-01 5.366359e-01 5.467838e-01 4.634238e-01 6.613556e-01
<GCONST> 1.332423e+02
<TRANSP> 5
 0.000000e+00 1.000000e+00 0.000000e+00 0.000000e+00 0.000000e+00
 0.000000e+00 6.000000e-01 4.000000e-01 0.000000e+00 0.000000e+00
 0.000000e+00 0.000000e+00 6.000000e-01 4.000000e-01 0.000000e+00
 0.000000e+00 0.000000e+00 0.000000e+00 7.000000e-01 3.000000e-01
 0.000000e+00 0.000000e+00 0.000000e+00 0.000000e+00 0.000000e+00
<ENDHMM>
