~o
<STREAMINFO> 1 39
<VECSIZE> 39<NULLD><MFCC_D_A_0><DIAGC>
~s "silst"
<MEAN> 39
 -1.159903e+01 -4.034708e+00 -4.056895e+00 -2.006840e+00 -3.092520e+00 -3.676578e+00 -3.528538e+00 -1.321829e+00 -2.143448e+00 -3.144786e+00 -2.852366e+00 -3.740203e-01 3.817900e+01 1.890138e-02 2.099307e-01 3.203191e-03 4.301960e-02 -4.915303e-04 -8.027584e-03 -1.106653e-02 -4.631853e-03 -1.033094e-02 -1.037218e-02 5.488242e-02 -3.501877e-02 -2.843354e-01 -6.284189e-03 2.060547e-02 4.025788e-02 2.005935e-03 7.789412e-03 2.559286e-02 -2.111666e-02 -2.722372e-02 -2.553837e-02 7.385110e-03 -2.059251e-02 -2.136877e-02 2.767252e-02
<VARIANCE> 39
 1.123385e+01 3.695929e+01 1.978039e+01 2.077118e+01 2.187485e+01 2.827018e+01 2.842411e+01 3.554890e+01 2.980578e+01 3.020872e+01 2.267766e+01 2.235594e+01 2.627144e+01 7.447753e-01 1.600666e+00 1.466958e+00 1.681687e+00 1.819096e+00 2.100350e+00 2.130747e+00 2.466776e+00 2.213738e+00 2.257989e+00 1.881671e+00 1.812338e+00 9.156675e-01 1.301066e-01 2.697260e-01 2.612344e-01 3.119964e-01 3.417593e-01 3.948534e-01 4.137289e-01 4.772602e-01 4.359959e-01 4.455635e-01 3.724099e-01 3.622802e-01 1.368609e-01
<GCONST> 1.050833e+02
~h "@"
<BEGINHMM>
<NUMSTATES> 5
<STATE> 2
<MEAN> 39
 -2.044550e+00 -4.819198e+00 -3.165140e-01 -9.497293e+00 -9.030383e+00 -3.706029e+00 -1.474146e+01 -3.014049e+00 -2.053442e+00 1.118188e-01 -1.810099e-01 -6.347338e+00 6.484697e+01 2.058546e+00 -1.267877e+00 4.369996e-01 -1.680204e+00 -1.068586e+00 5.547750e-01 -1.627950e+00 1.168586e+00 5.987740e-01 7.680748e-01 7.883290e-01 -1.138578e+00 2.170633e+00 -4.351595e-01 2.448560e-01 8.257014e-02 4.966791e-01 2.140209e-01 1.055688e-01 5.303080e-01 -1.666682e-01 -2.119499e-01 -1.237113e-01 -1.788107e-01 1.761330e-01 -8.679983e-01
<VARIANCE> 39
 3.065797e+01 4.087888e+01 5.248180e+01 6.973258e+01 5.611507e+01 7.665411e+01 8.147775e+01 6.587157e+01 6.944533e+01 4.765110e+01 5.418595e+01 4.036060e+01 9.212265e+01 6.489660e+00 3.522167e+00 7.112803e+00 5.628625e+00 6.010541e+00 5.413574e+00 6.678397e+00 8.018824e+00 7.870267e+00 5.212040e+00 5.490245e+00 4.183577e+00 5.314363e+00 7.648848e-01 6.517507e-01 9.399507e-01 9.717746e-01 8.083135e-01 9.053414e-01 1.030466e+00 9.913129e-01 8.999801e-01 7.359593e-01 8.866401e-01 6.329200e-01 1.632497e+00
<GCONST> 1.455120e+02
<STATE> 3
<MEAN> 39
 -8.365416e-02 -7.776603e+00 -5.904477e-02 -1.214137e+01 -1.008824e+01 -1.975401e+00 -1.735260e+01 -2.960970e-01 -9.419553e-01 1.121328e+00 1.209175e+00 -8.279711e+00 6.905637e+01 6.238242e-01 -2.397560e-01 3.681163e-01 1.234211e-01 -2.975664e-01 2.871976e-01 1.958344e-02 3.021976e-01 5.270951e-02 1.011321e-01 1.561205e-01 -2.794420e-01 -5.677833e-02 -5.868424e-01 7.721688e-01 1.423521e-01 1.013348e+00 3.984056e-01 -1.795065e-01 8.694208e-01 -7.320871e-01 -4.012197e-01 -3.416473e-01 -4.463288e-01 4.673794e-01 -1.202296e+00
<VARIANCE> 39
 1.691363e+01 4.096993e+01 5.254060e+01 7.445602e+01 5.945571e+01 7.541541e+01 7.811604e+01 8.323171e+01 8.588873e+01 5.699856e+01 6.065007e+01 5.041647e+01 3.381573e+01 2.075930e+00 2.667425e+00 2.804603e+00 4.291885e+00 3.598167e+00 4.829256e+00 4.233388e+00 5.067694e+00 5.251987e+00 3.850018e+00 3.917145e+00 2.981687e+00 3.176272e+00 6.200575e-01 5.469161e-01 1.039672e+00 9.963340e-01 9.041897e-01 8.898925e-01 1.034853e+00 1.337180e+00 1.200161e+00 9.580263e-01 1.035482e+00 8.241242e-01 5.859635e-01
<GCONST> 1.389690e+02
<STATE> 4
<MEAN> 39
 -1.349980e+00 -6.533893e+00 2.077012e+00 -1.004449e+01 -1.266610e+01 -4.666819e+00 -1.425499e+01 -7.112033e-01 -1.602950e+00 3.362027e-01 3.369477e-01 -6.525739e+00 6.676511e+01 9.736269e-02 8.796210e-01 2.406558e-01 9.533937e-01 3.797024e-01 -2.136954e-02 7.022680e-01 -6.935783e-01 -2.607349e-01 -2.065170e-01 -4.378249e-01 1.225519e-01 -1.388827e+00 -1.651259e-01 2.682678e-01 2.782294e-02 3.010088e-01 1.590732e-01 -2.023837e-02 1.445986e-01 -2.444396e-01 -5.036530e-02 -7.528356e-02 -1.753084e-01 1.088535e-01 -4.001702e-01
<VARIANCE> 39
 1.988254e+01 5.643384e+01 7.713395e+01 6.755815e+01 7.992172e+01 6.599198e+01 9.836118e+01 8.434226e+01 9.380582e+01 6.585438e+01 5.872690e+01 4.651892e+01 6.400687e+01 9.760750e-01 2.534057e+00 2.358889e+00 3.594436e+00 2.846566e+00 2.989407e+00 3.528007e+00 3.656345e+00 3.582796e+00 3.071813e+00 2.887040e+00 2.430462e+00 3.875447e+00 3.445969e-01 3.670920e-01 4.656739e-01 5.404398e-01 6.112275e-01 5.468698e-01 6.543884e-01 8.453579e-01 7.346496e-01 5.891004e-01 5.756749e-01 4.768220e-01 4.214171e-01
<GCONST> 1.309666e+02
<TRANSP> 5
 0.000000e+00 1.000000e+00 0.000000e+00 0.000000e+00 0.000000e+00
 0.000000e+00 2.970477e-01 7.029523e-01 0.000000e+00 0.000000e+00
 0.000000e+00 0.000000e+00 3.116685e-01 6.883315e-01 0.000000e+00
 0.000000e+00 0.000000e+00 0.000000e+00 6.147618e-01 3.852382e-01
 0.000000e+00 0.000000e+00 0.000000e+00 0.000000e+00 0.000000e+00
<ENDHMM>
~h "a"
<BEGINHMM>
<NUMSTATES> 5
<STATE> 2
<MEAN> 39
 -1.318007e+00 -1.290606e+01 -4.535723e+00 -1.366220e+01 -6.951069e+00 7.099226e-01 -1.165510e+01 2.144489e+00 6.881649e-01 -2.508687e+00 -3.584046e+00 -1.118882e+01 7.006036e+01 6.251383e-01 -2.145342e+00 -8.552151e-01 -1.077926e+00 9.444051e-01 1.182331e+00 3.412884e-01 1.178616e+00 6.128008e-01 -7.660502e-01 -9.240609e-01 -1.562059e+00 1.793306e+00 -4.092427e-01 4.856670e-01 2.613119e-01 5.880669e-01 2.091258e-01 -2.535762e-01 1.990539e-01 -4.869592e-01 -3.373700e-01 -8.601428e-02 -2.863065e-02 4.887296e-01 -7.242946e-01
<VARIANCE> 39
 1.822073e+01 4.059216e+01 4.950731e+01 5.555334e+01 6.028324e+01 6.982462e+01 6.006769e+01 7.480602e+01 6.595816e+01 5.679712e+01 6.228299e+01 4.525733e+01 6.990827e+01 2.666056e+00 2.497188e+00 3.621110e+00 3.849343e+00 3.945934e+00 4.153502e+00 4.526114e+00 5.579847e+00 3.874121e+00 3.966415e+00 4.193610e+00 3.474731e+00 3.962100e+00 5.225734e-01 5.841362e-01 5.628989e-01 6.722864e-01 6.629199e-01 7.802809e-01 7.148412e-01 9.395673e-01 7.041311e-01 6.680850e-01 8.022033e-01 6.337858e-01 9.213250e-01
<GCONST> 1.359940e+02
<STATE> 3
<MEAN> 39
 -1.234706e+00 -1.560831e+01 -5.868825e+00 -1.382019e+01 -4.522247e+00 2.437073e+00 -1.068244e+01 2.816130e+00 1.584952e+00 -5.497216e+00 -5.099121e+00 -1.297935e+01 7.297319e+01 6.960985e-02 1.192323e-01 4.686382e-02 1.479536e-01 2.547664e-01 -2.210056e-01 1.543006e-01 3.483721e-02 -1.683453e-01 -7.280068e-03 -2.155332e-01 1.265210e-01 -2.767011e-01 4.584343e-02 5.541467e-01 2.607742e-01 2.358876e-01 -2.479650e-01 -2.614369e-01 -1.330073e-01 -2.309756e-01 -1.516125e-01 2.874032e-01 2.115324e-01 3.452481e-01 -4.595751e-01
<VARIANCE> 39
 9.551999e+00 2.922821e+01 4.485385e+01 4.666908e+01 4.927319e+01 5.163250e+01 5.299850e+01 6.524482e+01 5.386129e+01 4.846849e+01 5.162132e+01 4.112561e+01 2.194540e+01 4.351242e-01 1.122679e+00 1.286247e+00 1.353407e+00 2.066061e+00 2.708281e+00 1.953585e+00 2.545167e+00 1.741340e+00 2.248538e+00 2.257091e+00 1.915432e+00 6.066667e-01 9.404472e-02 2.248511e-01 2.159108e-01 2.862042e-01 3.071356e-01 3.257113e-01 3.948765e-01 5.074809e-01 3.695783e-01 3.612992e-01 3.916744e-01 3.491920e-01 1.539237e-01
<GCONST> 1.086308e+02
<STATE> 4
<MEAN> 39
 -1.928676e+00 -9.621440e+00 -5.374320e+00 -1.024251e+01 -4.498127e+00 -1.062159e+00 -9.492884e+00 1.257231e+00 -7.184039e-01 -3.192696e+00 -5.668617e+00 -9.331838e+00 6.173500e+01 4.145317e-03 1.626101e+00 5.698097e-01 1.104578e+00 -2.246877e-01 -5.226099e-01 5.632342e-02 -7.441329e-01 -4.173414e-01 3.632521e-01 1.148455e-01 6.758963e-01 -2.261683e+00 -1.163771e-01 1.787260e-01 1.359839e-01 2.102876e-01 9.049785e-03 9.597218e-02 6.485953e-02 -2.290140e-01 -5.457885e-02 -7.973114e-02 8.836496e-03 3.048742e-02 -2.469867e-01
<VARIANCE> 39
 2.568970e+01 4.332398e+01 5.256126e+01 6.131465e+01 6.318903e+01 6.229237e+01 6.437894e+01 6.243593e+01 5.818049e+01 5.883343e+01 5.771063e+01 5.448897e+01 1.481647e+02 1.146973e+00 2.966684e+00 2.327829e+00 3.164684e+00 3.148491e+00 2.923280e+00 3.213478e+00 3.528990e+00 3.093813e+00 3.104854e+00 3.106279e+00 2.719759e+00 3.926520e+00 2.263747e-01 4.858668e-01 3.962684e-01 5.456909e-01 5.456606e-01 5.479013e-01 5.994513e-01 7.194843e-01 5.553579e-01 6.174516e-01 6.173455e-01 5.045646e-01 6.668268e-01
<GCONST> 1.297416e+02
<TRANSP> 5
 0.000000e+00 1.000000e+00 0.000000e+00 0.000000e+00 0.000000e+00
 0.000000e+00 5.448323e-01 4.551676e-01 0.000000e+00 0.000000e+00
 0.000000e+00 0.000000e+00 7.724016e-01 2.275984e-01 0.000000e+00
 0.000000e+00 0.000000e+00 0.000000e+00 6.737939e-01 3.262061e-01
 0.000000e+00 0.000000e+00 0.000000e+00 0.000000e+00 0.000000e+00
<ENDHMM>
~h "b"
<BEGINHMM>
<NUMSTATES> 5
<STATE> 2
<MEAN> 39
 3.093187e+00 6.974799e+00 4.214316e+00 -2.141617e+00 -4.692066e+00 1.651008e+00 -7.131810e+00 -7.657069e+00 -7.599454e+00 -2.996048e+00 -2.824988e+00 -7.589723e+00 4.641553e+01 7.486821e-01 1.333327e+00 3.951434e-01 2.881125e-01 4.411936e-01 3.760941e-01 7.368442e-01 -2.582880e-01 -2.146576e-01 -1.627205e-02 -3.914203e-01 -1.674875e-01 -8.973757e-01 -3.395348e-01 -5.081443e-01 -2.154979e-01 -2.847129e-01 -2.111146e-01 -1.993254e-01 -3.153791e-01 1.130534e-01 1.436089e-01 2.189989e-02 2.114136e-01 2.095855e-01 7.196763e-01
<VARIANCE> 39
 5.225816e+01 3.296978e+01 3.033823e+01 3.085753e+01 2.827115e+01 3.816215e+01 5.242838e+01 4.201400e+01 5.364558e+01 3.418110e+01 4.292310e+01 3.540770e+01 5.627437e+01 2.248803e+00 2.585740e+00 2.297759e+00 2.845076e+00 2.319489e+00 2.401862e+00 3.049479e+00 3.210665e+00 3.065867e+00 2.504970e+00 2.628391e+00 2.281998e+00 4.575575e+00 4.010701e-01 4.571100e-01 4.175224e-01 4.844074e-01 4.491369e-01 4.464284e-01 5.179062e-01 6.093250e-01 6.366657e-01 4.850908e-01 5.184038e-01 4.570484e-01 5.178539e-01
<GCONST> 1.231824e+02
<STATE> 3
<MEAN> 39
 5.537048e+00 8.536217e+00 4.915931e+00 -2.614144e+00 -4.078140e+00 3.017306e+00 -6.568095e+00 -8.735985e+00 -8.315794e+00 -3.149395e+00 -2.720150e+00 -6.857411e+00 4.917474e+01 -1.441667e+00 -2.084303e+00 -1.426924e+00 -9.544212e-01 -4.394144e-01 -8.995622e-01 -1.464786e+00 2.009205e-01 9.803876e-01 6.280611e-02 1.352893e+00 1.269651e+00 3.273592e+00 -4.544024e-01 -1.143251e+00 -3.407063e-01 -6.731927e-01 -7.861588e-01 -1.129119e-01 -9.021873e-01 2.368022e-01 4.503917e-01 2.321070e-01 5.103195e-01 -8.269998e-02 1.495337e+00
<VARIANCE> 39
 2.010663e+01 2.464176e+01 1.878848e+01 2.757157e+01 2.575122e+01 3.756444e+01 4.312303e+01 4.063752e+01 5.053420e+01 3.616337e+01 4.206730e+01 3.448047e+01 2.680519e+01 1.913126e+00 3.249332e+00 3.870596e+00 6.489939e+00 4.177941e+00 3.923667e+00 4.402175e+00 4.578458e+00 5.553784e+00 4.218910e+00 4.554817e+00 3.304421e+00 4.699314e+00 3.742197e-01 4.779209e-01 7.309996e-01 8.013089e-01 6.848222e-01 7.710827e-01 6.654954e-01 1.112393e+00 1.202135e+00 8.893742e-01 7.682679e-01 8.539693e-01 5.035297e-01
<GCONST> 1.305830e+02
<STATE> 4
<MEAN> 39
 5.419532e-01 -1.670756e+00 -1.816659e+00 -8.921831e+00 -8.053484e+00 7.320381e-01 -1.500077e+01 -8.336702e+00 -3.104268e+00 9.991003e-02 3.615747e+00 -4.363306e+00 6.401451e+01 -1.151987e+00 -3.322911e+00 -1.274552e+00 -2.124525e+00 -1.929132e+00 -3.042502e-01 -2.565838e+00 1.225121e+00 2.053298e+00 9.533861e-01 1.102700e+00 -7.916327e-01 4.491356e+00 2.601492e-01 3.788283e-01 5.814036e-01 3.186518e-01 1.357860e-02 2.021233e-01 5.122118e-01 3.590039e-01 -1.903450e-01 -3.515685e-01 -7.342957e-01 -5.681885e-01 -7.246176e-01
<VARIANCE> 39
 1.759088e+01 3.327225e+01 3.487291e+01 1.002379e+02 3.416940e+01 5.668933e+01 6.198222e+01 4.185910e+01 5.249887e+01 5.146439e+01 5.257048e+01 3.717162e+01 5.278582e+01 2.144810e+00 4.249413e+00 6.048208e+00 8.705841e+00 5.589098e+00 5.678577e+00 5.355007e+00 8.082155e+00 9.226422e+00 6.854121e+00 6.450336e+00 7.393644e+00 4.330544e+00 3.142125e-01 5.583949e-01 4.341036e-01 1.413581e+00 1.063215e+00 8.644667e-01 1.075099e+00 9.877204e-01 9.796755e-01 9.937432e-01 1.224837e+00 7.720666e-01 7.298965e-01
<GCONST> 1.413099e+02
<TRANSP> 5
 0.000000e+00 1.000000e+00 0.000000e+00 0.000000e+00 0.000000e+00
 0.000000e+00 7.790974e-01 2.209026e-01 0.000000e+00 0.000000e+00
 0.000000e+00 0.000000e+00 5.220259e-01 4.779741e-01 0.000000e+00
 0.000000e+00 0.000000e+00 0.000000e+00 4.544749e-01 5.455251e-01
 0.000000e+00 0.000000e+00 0.000000e+00 0.000000e+00 0.000000e+00
<ENDHMM>
~h "c"
<BEGINHMM>
<NUMSTATES> 5
<STATE> 2
<MEAN> 39
 -9.201674e+00 2.462147e+00 1.925162e+00 -2.445822e+00 -5.711958e+00 -6.722772e+00 -6.436120e+00 -3.278307e+00 -3.399422e+00 -3.297263e+00 -3.462524e+00 -2.537720e+00 4.541978e+01 -1.572626e+00 -2.440273e-01 -8.002186e-01 -3.182843e-01 5.790552e-01 7.679520e-02 4.106385e-01 -2.214526e-01 1.197504e-01 9.738046e-02 9.802623e-02 8.435155e-02 -8.637722e-01 -4.153906e-01 -3.447434e-01 -1.543849e-01 -3.752333e-01 -8.424884e-02 6.502020e-02 -1.170198e-01 3.335156e-02 -2.589895e-02 4.669429e-02 1.342645e-01 8.943479e-02 9.692404e-01
<VARIANCE> 39
 4.016981e+01 4.315483e+01 4.122160e+01 3.181845e+01 4.010767e+01 4.794992e+01 4.988163e+01 4.127951e+01 3.809938e+01 2.945235e+01 3.039856e+01 2.684078e+01 1.131696e+02 5.066376e+00 5.068769e+00 3.510437e+00 3.567538e+00 4.089687e+00 3.245472e+00 3.925708e+00 3.297728e+00 3.236818e+00 2.852949e+00 2.619589e+00 2.868019e+00 1.324332e+01 7.394238e-01 8.302645e-01 6.002530e-01 5.721686e-01 8.113762e-01 6.696246e-01 7.233709e-01 6.025498e-01 5.825211e-01 5.424123e-01 4.664259e-01 6.138835e-01 1.822109e+00
<GCONST> 1.329052e+02
<STATE> 3
<MEAN> 39
 -2.582593e+01 -2.621878e-01 -2.848526e+00 -9.576817e+00 -3.421328e+00 -5.692479e+00 -5.217188e+00 -4.407441e+00 -3.144075e+00 -1.900766e+00 -6.465639e-01 3.531447e-02 6.029747e+01 -1.148894e+00 5.610837e-02 7.781825e-01 -6.918542e-01 -1.160181e+00 -1.287803e-01 -6.328316e-02 3.177879e-01 -4.177579e-02 -2.241680e-01 5.183100e-01 5.749794e-01 3.759746e+00 2.097484e+00 -7.683938e-03 8.393947e-01 6.090021e-01 -7.297300e-01 -2.918997e-01 -4.324047e-01 2.812745e-01 5.348743e-02 -1.988197e-01 -2.293835e-01 -3.262304e-01 -5.284276e-01
<VARIANCE> 39
 2.916669e+01 3.189049e+01 3.406321e+01 3.099242e+01 2.835954e+01 3.436544e+01 3.686695e+01 2.357580e+01 2.659711e+01 2.097917e+01 2.463014e+01 1.513322e+01 3.669032e+01 1.440078e+01 3.499801e+00 6.287575e+00 4.579847e+00 4.632843e+00 3.877799e+00 3.595600e+00 3.380863e+00 3.221483e+00 2.610628e+00 2.383757e+00 1.981860e+00 7.356905e+00 1.363996e+00 1.152663e+00 8.799918e-01 6.636649e-01 8.821422e-01 7.383550e-01 8.005008e-01 8.443913e-01 8.234225e-01 5.548087e-01 6.319659e-01 4.699507e-01 8.945996e-01
<GCONST> 1.303015e+02
<STATE> 4
<MEAN> 39
 -1.246992e+01 -2.186391e+00 4.559272e+00 -6.835706e+00 -1.132379e+01 -9.959992e+00 -9.108592e+00 -2.720686e-01 -2.095866e+00 -4.470954e+00 -1.994858e+00 -1.710640e-01 6.753625e+01 5.768189e+00 -2.479516e+00 1.019889e+00 1.087548e-01 -1.782231e+00 -4.846828e-01 -1.916889e+00 1.592719e+00 6.899152e-01 -1.798025e-02 -6.964821e-01 -1.270469e+00 2.016173e+00 -7.991357e-03 -4.401958e-01 -8.170828e-01 -4.627702e-01 6.698742e-01 7.436096e-01 4.215335e-02 -1.520091e-01 -3.203296e-02 3.656254e-01 2.571658e-02 -5.406416e-01 -4.932213e-01
<VARIANCE> 39
 7.771098e+01 4.507307e+01 3.416091e+01 3.763394e+01 4.022706e+01 2.831166e+01 4.643150e+01 4.281644e+01 4.708821e+01 2.513492e+01 3.360728e+01 2.070799e+01 3.355923e+01 3.305479e+00 5.935548e+00 6.298221e+00 4.626459e+00 5.546172e+00 4.920939e+00 5.163822e+00 7.372360e+00 5.861378e+00 4.180301e+00 4.585352e+00 2.964384e+00 1.410357e+00 2.338822e+00 8.142551e-01 5.854779e-01 7.308705e-01 8.531924e-01 7.446550e-01 1.006788e+00 8.659680e-01 7.463932e-01 5.458285e-01 6.947029e-01 4.218912e-01 4.592662e-01
<GCONST> 1.345130e+02
<TRANSP> 5
 0.000000e+00 1.000000e+00 0.000000e+00 0.000000e+00 0.000000e+00
 0.000000e+00 8.595282e-01 1.404718e-01 0.000000e+00 0.000000e+00
 0.000000e+00 0.000000e+00 7.258978e-01 2.741022e-01 0.000000e+00
 0.000000e+00 0.000000e+00 0.000000e+00 5.890568e-01 4.109432e-01
 0.000000e+00 0.000000e+00 0.000000e+00 0.000000e+00 0.000000e+00
<ENDHMM>
~h "d"
<BEGINHMM>
<NUMSTATES> 5
<STATE> 2
<MEAN> 39
 2.085637e-01 3.130442e+00 6.090419e+00 2.087351e+00 -7.071544e+00 -4.800711e+00 -9.440890e+00 -2.461283e+00 -1.981385e+00 -4.672850e+00 -5.555433e+00 -5.383293e+00 4.738365e+01 8.004025e-01 1.077455e+00 6.939435e-01 7.650061e-01 6.574331e-01 -3.151544e-01 2.651890e-01 2.244180e-01 2.203023e-01 -2.155506e-01 -5.075699e-01 -1.467659e-01 -9.198182e-01 -4.174441e-01 -5.391502e-01 -6.097003e-02 -5.159047e-01 -1.970687e-01 5.054631e-02 -1.795866e-01 3.696432e-02 -1.556061e-01 2.184590e-02 3.305462e-01 1.939679e-01 8.165010e-01
<VARIANCE> 39
 5.996707e+01 4.562701e+01 5.082139e+01 3.166567e+01 4.867142e+01 3.085823e+01 6.188541e+01 6.324795e+01 4.656702e+01 3.880449e+01 3.754554e+01 3.585340e+01 8.318517e+01 3.147924e+00 3.742788e+00 2.927455e+00 3.142577e+00 3.784970e+00 2.771947e+00 3.793828e+00 4.861579e+00 3.599866e+00 3.086837e+00 3.218046e+00 2.457013e+00 6.442492e+00 6.756032e-01 7.329830e-01 4.837832e-01 6.236996e-01 8.171194e-01 6.023124e-01 7.285516e-01 9.848017e-01 7.621244e-01 6.302916e-01 6.976203e-01 5.696756e-01 9.839393e-01
<GCONST> 1.333630e+02
<STATE> 3
<MEAN> 39
 2.085272e+00 3.514077e+00 9.545609e+00 2.320512e+00 -6.224336e+00 -5.217978e+00 -1.047456e+01 -1.963659e+00 -1.838659e+00 -4.913182e+00 -5.985139e+00 -5.102098e+00 5.176848e+01 -2.351971e+00 -2.594717e+00 3.992695e-01 -1.926561e+00 -1.017866e+00 -4.808621e-02 -1.186303e+00 1.178005e-01 -9.228216e-01 -1.696235e-01 1.881117e+00 1.464433e+00 4.152842e+00 -4.295703e-01 -7.440838e-01 -1.255430e-01 -6.883124e-01 -1.100494e+00 1.623282e-02 -5.987031e-01 5.657979e-02 -1.329034e-01 8.453202e-02 7.042284e-01 3.014115e-02 1.336753e+00
<VARIANCE> 39
 3.361226e+01 3.324018e+01 3.277001e+01 3.317267e+01 3.564429e+01 3.522350e+01 6.050860e+01 5.913571e+01 4.631865e+01 3.494557e+01 3.427177e+01 3.120073e+01 4.497832e+01 2.347042e+00 2.886459e+00 4.525598e+00 3.930921e+00 6.026686e+00 4.596561e+00 5.255204e+00 9.514583e+00 6.722699e+00 4.562113e+00 3.959143e+00 3.525487e+00 4.270952e+00 6.423175e-01 7.312059e-01 6.431869e-01 8.254875e-01 8.932705e-01 7.302711e-01 8.458813e-01 1.701872e+00 1.072600e+00 7.975321e-01 8.092552e-01 6.531203e-01 8.595686e-01
<GCONST> 1.363150e+02
<STATE> 4
<MEAN> 39
 -3.862180e+00 -6.638822e+00 7.980325e+00 -5.389166e+00 -1.474416e+01 -7.243144e+00 -1.700100e+01 1.229462e+00 -1.952650e+00 -4.630727e+00 1.041859e+00 -9.588824e-01 6.778836e+01 -9.633443e-01 -2.238565e+00 -7.889234e-01 -2.336770e+00 -2.444067e+00 -1.618245e-01 -1.106947e+00 1.459319e+00 3.773880e-01 2.094650e-01 1.461594e+00 -3.641832e-01 3.936581e+00 6.125179e-01 7.007881e-01 -2.562834e-01 3.329829e-01 5.329633e-01 3.590829e-01 6.390375e-01 -1.588639e-01 1.382355e-01 3.357114e-02 -7.197009e-01 -7.987289e-01 -1.054510e+00
<VARIANCE> 39
 1.628678e+01 3.161685e+01 5.001623e+01 4.738039e+01 6.623756e+01 4.352075e+01 8.168196e+01 8.294534e+01 7.843825e+01 3.993321e+01 4.170203e+01 2.623393e+01 4.386672e+01 2.685401e+00 3.769114e+00 5.916595e+00 4.785513e+00 6.755107e+00 4.127738e+00 7.064474e+00 1.181468e+01 7.719969e+00 4.695405e+00 6.770182e+00 4.223989e+00 4.730507e+00 2.600080e-01 3.881592e-01 4.738320e-01 7.418849e-01 1.645179e+00 8.220814e-01 1.279339e+00 1.402399e+00 1.025890e+00 8.128749e-01 8.942826e-01 6.728931e-01 5.063023e-01
<GCONST> 1.393932e+02
<TRANSP> 5
 0.000000e+00 1.000000e+00 0.000000e+00 0.000000e+00 0.000000e+00
 0.000000e+00 7.686373e-01 2.313627e-01 0.000000e+00 0.000000e+00
 0.000000e+00 0.000000e+00 5.114646e-01 4.885354e-01 0.000000e+00
 0.000000e+00 0.000000e+00 0.000000e+00 4.841794e-01 5.158205e-01
 0.000000e+00 0.000000e+00 0.000000e+00 0.000000e+00 0.000000e+00
<ENDHMM>
~h "e"
<BEGINHMM>
<NUMSTATES> 5
<STATE> 2
<MEAN> 39
 -4.337651e+00 -8.175940e+00 3.970630e+00 -7.131720e+00 -1.461053e+01 -7.525702e+00 -1.009923e+01 1.178968e+00 -2.649615e+00 -1.541946e+00 3.118426e-02 -5.256432e+00 6.280647e+01 2.033787e-01 -1.216960e+00 8.890283e-01 -6.820604e-01 -1.364369e+00 -2.955697e-01 2.949601e-01 1.385816e+00 -2.486574e-01 -2.587794e-01 2.962812e-01 -1.561736e-01 1.812680e+00 -1.265559e-01 3.076202e-01 -1.513462e-02 8.769831e-02 2.177607e-01 1.753870e-01 3.000835e-01 -2.594040e-01 -1.459918e-01 -4.251673e-03 -4.957010e-02 6.794999e-02 -3.721326e-01
<VARIANCE> 39
 3.590540e+01 6.383602e+01 7.327538e+01 5.649268e+01 7.520020e+01 5.108642e+01 9.487884e+01 7.775751e+01 8.234673e+01 6.958535e+01 6.073490e+01 4.188009e+01 1.608689e+02 3.345128e+00 4.632068e+00 4.139848e+00 4.573709e+00 6.557004e+00 4.284421e+00 5.473971e+00 7.543590e+00 5.589222e+00 5.588330e+00 4.790036e+00 3.084791e+00 1.142186e+01 6.430296e-01 8.694914e-01 6.214396e-01 7.435009e-01 1.074205e+00 7.226796e-01 9.509021e-01 1.179808e+00 9.525418e-01 9.124585e-01 8.037290e-01 5.734598e-01 2.166100e+00
<GCONST> 1.461523e+02
<STATE> 3
<MEAN> 39
 -3.822771e+00 -1.283667e+01 8.196677e+00 -1.074992e+01 -1.986733e+01 -8.127464e+00 -7.669638e+00 5.682089e+00 -4.291494e+00 -2.470920e+00 2.080440e+00 -5.562929e+00 7.135573e+01 2.915610e-02 2.458773e-01 8.850946e-03 1.131760e-01 1.573552e-01 -6.328092e-02 2.242581e-01 -1.181267e-01 -8.577144e-02 8.494274e-02 -1.613571e-01 -7.593433e-02 -2.233362e-01 5.163134e-02 3.598592e-01 -2.164098e-01 2.984147e-01 4.091640e-01 2.561981e-02 -8.752371e-02 -3.450792e-01 9.999635e-02 2.273922e-02 -1.888937e-01 1.966149e-02 -5.328367e-01
<VARIANCE> 39
 1.199603e+01 4.366560e+01 5.767290e+01 3.796170e+01 5.124230e+01 4.534068e+01 7.411852e+01 6.911572e+01 8.109949e+01 8.164755e+01 5.967225e+01 3.549229e+01 2.462875e+01 6.260673e-01 1.265532e+00 1.508654e+00 1.857507e+00 2.307821e+00 1.810148e+00 2.637926e+00 2.404040e+00 2.163106e+00 2.239820e+00 2.007290e+00 1.386585e+00 1.805176e+00 1.491221e-01 2.492275e-01 2.633044e-01 2.791389e-01 3.997809e-01 3.438950e-01 5.168542e-01 5.727409e-01 4.333012e-01 4.664536e-01 3.864787e-01 2.825321e-01 2.865018e-01
<GCONST> 1.146808e+02
<STATE> 4
<MEAN> 39
 -7.336515e+00 -4.465106e+00 2.968962e+00 -5.624208e+00 -1.329143e+01 -6.289439e+00 -7.590317e+00 -2.180841e+00 -4.799203e+00 -2.112993e+00 -1.083452e+00 -3.956708e+00 5.430770e+01 1.543331e-02 4.653923e-01 -2.434216e-01 3.808920e-01 4.456769e-01 5.005067e-02 3.464471e-02 -3.212737e-01 1.080140e-01 -6.678873e-02 -2.524821e-01 2.376391e-02 -8.807173e-01 -1.278706e-02 4.167266e-02 -9.854559e-03 2.724395e-02 8.195747e-02 5.149783e-02 4.477965e-03 -4.054562e-02 -3.878815e-03 2.275130e-03 1.104018e-02 1.096903e-02 -4.229366e-02
<VARIANCE> 39
 3.505070e+01 4.956244e+01 8.224718e+01 4.718401e+01 9.405648e+01 4.863005e+01 6.462836e+01 6.008389e+01 5.845732e+01 5.497437e+01 5.266647e+01 3.526379e+01 2.470876e+02 7.638820e-01 1.639462e+00 1.462581e+00 1.869838e+00 2.436750e+00 1.859968e+00 2.533909e+00 2.505103e+00 2.053165e+00 2.230042e+00 2.017089e+00 1.627842e+00 2.693956e+00 1.493369e-01 2.528734e-01 2.464384e-01 3.127971e-01 4.187282e-01 3.572824e-01 4.486293e-01 4.780848e-01 4.124576e-01 4.100700e-01 3.757588e-01 3.009170e-01 2.867649e-01
<GCONST> 1.190126e+02
<TRANSP> 5
 0.000000e+00 1.000000e+00 0.000000e+00 0.000000e+00 0.000000e+00
 0.000000e+00 6.560730e-01 3.439269e-01 0.000000e+00 0.000000e+00
 0.000000e+00 0.000000e+00 7.777596e-01 2.222404e-01 0.000000e+00
 0.000000e+00 0.000000e+00 0.000000e+00 8.062274e-01 1.937726e-01
 0.000000e+00 0.000000e+00 0.000000e+00 0.000000e+00 0.000000e+00
<ENDHMM>
~h "f"
<BEGINHMM>
<NUMSTATES> 5
<STATE> 2
<MEAN> 39
 -7.809083e+00 5.308225e-02 -5.550016e-01 -1.010219e+00 -4.178190e+00 -1.734263e+00 -6.905141e+00 -3.864254e+00 -3.888470e+00 -2.132519e+00 -2.993339e+00 -2.687749e+00 5.884577e+01 -3.691095e+00 2.086082e-01 -5.113901e-01 1.800421e+00 1.277916e+00 -1.805266e-01 8.330885e-01 4.874398e-01 1.088068e+00 -6.709725e-02 -2.483837e-01 5.036769e-01 -1.212966e+00 -3.530292e-01 -6.376694e-01 -8.623873e-02 -5.038707e-01 -6.309558e-01 -1.297024e-01 -3.655261e-01 5.933331e-02 -4.780692e-02 9.719400e-02 2.423999e-01 -1.306128e-01 2.048161e-01
<VARIANCE> 39
 5.376942e+01 2.558331e+01 3.977451e+01 5.411022e+01 4.026652e+01 5.417243e+01 5.154195e+01 3.792656e+01 4.134011e+01 2.965186e+01 3.273996e+01 2.517669e+01 7.553641e+01 2.810686e+00 4.353953e+00 4.464476e+00 5.082113e+00 6.529264e+00 5.707875e+00 4.420852e+00 4.887720e+00 4.964521e+00 3.887053e+00 3.845690e+00 2.753927e+00 2.455733e+00 8.337472e-01 4.433543e-01 4.711321e-01 7.825008e-01 8.783742e-01 8.067725e-01 7.348745e-01 7.500875e-01 7.833814e-01 6.105165e-01 5.507683e-01 4.723266e-01 2.766952e-01
<GCONST> 1.322283e+02
<STATE> 3
<MEAN> 39
 -2.146664e+01 -5.307876e+00 -4.403629e+00 -2.863136e-01 -5.247785e+00 -4.216845e+00 -8.516359e+00 -3.008549e+00 -1.833905e+00 -1.705941e+00 -1.567837e+00 -9.541882e-01 5.812878e+01 -6.994515e-01 -6.827326e-01 -4.350269e-01 -2.168744e-01 -2.014279e-01 -1.627623e-01 -1.390360e-01 -6.909967e-02 -1.106356e-03 -6.385791e-03 1.144415e-01 1.106960e-01 -2.186141e-01 8.335903e-01 1.955951e-01 1.898737e-01 -1.664376e-01 -3.919208e-02 8.256631e-02 -4.839963e-03 -9.183136e-02 -1.485890e-01 -9.408208e-02 -1.010946e-02 -1.473936e-01 1.263056e-01
<VARIANCE> 39
 2.026918e+01 2.191977e+01 1.674656e+01 2.069693e+01 2.109416e+01 3.305133e+01 4.838378e+01 2.584405e+01 2.426899e+01 2.160491e+01 2.027864e+01 1.864479e+01 4.852805e+01 2.503077e+00 1.394743e+00 1.718711e+00 1.697339e+00 2.019307e+00 2.125831e+00 1.859106e+00 1.923028e+00 1.902729e+00 1.754550e+00 1.724329e+00 1.505407e+00 1.445263e+00 4.867091e-01 3.191893e-01 3.673629e-01 4.421024e-01 4.882694e-01 4.931035e-01 4.175510e-01 4.623981e-01 4.920610e-01 3.987643e-01 3.916763e-01 3.380491e-01 2.358294e-01
<GCONST> 1.091157e+02
<STATE> 4
<MEAN> 39
 -1.479318e+01 -3.723448e+00 -4.658357e+00 -2.312960e+00 -5.030108e+00 -3.673895e+00 -7.090614e+00 -4.210717e+00 -3.842927e+00 -2.977960e+00 -2.409410e+00 -2.333013e+00 4.657865e+01 1.760361e+00 2.247005e-01 2.414275e-01 -7.315655e-01 -4.310070e-01 1.419652e-01 -1.605309e-01 -8.893533e-02 -2.602605e-01 -1.463142e-01 1.372121e-01 -4.045699e-01 5.878239e-01 3.889681e-01 1.053075e-03 1.742049e-01 -2.433442e-01 -1.759171e-01 1.077116e-01 -1.009513e-01 3.275983e-02 -6.131257e-02 4.388395e-02 1.114738e-01 -1.156280e-01 2.701503e-01
<VARIANCE> 39
 3.987833e+01 3.353923e+01 2.034002e+01 2.565401e+01 2.302312e+01 2.793342e+01 3.514158e+01 2.847645e+01 2.480470e+01 2.234024e+01 1.878637e+01 1.763514e+01 1.415360e+02 9.101533e+00 3.206299e+00 3.020063e+00 4.674959e+00 2.817297e+00 3.708107e+00 2.712457e+00 3.114029e+00 2.932648e+00 2.387016e+00 2.337437e+00 2.442091e+00 4.685529e+00 8.944747e-01 5.398070e-01 4.747165e-01 6.760668e-01 5.297609e-01 5.865160e-01 5.454710e-01 5.918639e-01 5.824922e-01 4.804979e-01 4.635210e-01 4.212951e-01 5.758168e-01
<GCONST> 1.236916e+02
<TRANSP> 5
 0.000000e+00 1.000000e+00 0.000000e+00 0.000000e+00 0.000000e+00
 0.000000e+00 6.781584e-01 3.218416e-01 0.000000e+00 0.000000e+00
 0.000000e+00 0.000000e+00 8.242869e-01 1.757131e-01 0.000000e+00
 0.000000e+00 0.000000e+00 0.000000e+00 8.262240e-01 1.737760e-01
 0.000000e+00 0.000000e+00 0.000000e+00 0.000000e+00 0.000000e+00
<ENDHMM>
~h "g"
<BEGINHMM>
<NUMSTATES> 5
<STATE> 2
<MEAN> 39
 2.203866e+00 6.195076e+00 7.881435e+00 5.900743e-01 -8.747308e+00 -5.432960e+00 -8.040842e+00 -4.639589e+00 -6.105288e+00 -7.077860e-01 -3.051672e+00 -7.685965e+00 4.966386e+01 -3.975912e-01 5.061716e-01 -1.492584e-01 4.719643e-01 9.319556e-01 -2.084491e-01 4.312451e-01 -5.955489e-02 1.295052e-01 -1.318306e-01 -4.673145e-01 5.975012e-01 -4.358198e-01 -5.827278e-01 -7.194705e-01 -4.096187e-01 -4.981563e-01 7.640991e-02 2.789278e-03 -3.983873e-01 1.837605e-01 -5.028037e-02 -3.513477e-02 2.704725e-01 3.373980e-01 1.165564e+00
<VARIANCE> 39
 3.189701e+01 4.102651e+01 4.654360e+01 3.479094e+01 4.841306e+01 4.395426e+01 5.625327e+01 6.122564e+01 5.439123e+01 4.559056e+01 3.975534e+01 3.426407e+01 5.761438e+01 4.649971e+00 5.581228e+00 5.859324e+00 4.143497e+00 6.529837e+00 4.193616e+00 4.523199e+00 5.670986e+00 5.232497e+00 3.553546e+00 3.367104e+00 3.845792e+00 8.875376e+00 5.612553e-01 5.745071e-01 6.678178e-01 6.031529e-01 1.055262e+00 6.499795e-01 8.102811e-01 8.972044e-01 1.020701e+00 6.946272e-01 7.158212e-01 5.999097e-01 8.965104e-01
<GCONST> 1.377696e+02
<STATE> 3
<MEAN> 39
 -5.820813e+00 1.729427e-01 1.052402e+00 -1.131773e+00 -1.050369e+00 -6.140422e+00 -1.022370e+01 -3.850543e+00 -7.535104e+00 -3.413509e-01 -3.901854e+00 -1.504977e+00 6.044572e+01 -1.548331e+00 -1.582503e+00 -5.279288e-01 -1.478139e+00 -1.186225e+00 -6.843696e-01 -1.947731e+00 6.233535e-01 -3.713018e-01 -1.221637e-01 1.779092e+00 1.048856e+00 3.842254e+00 7.935915e-01 1.927596e-01 7.792901e-01 -3.569006e-01 -1.621222e+00 2.357404e-01 -2.813398e-01 6.659540e-02 4.215037e-01 -1.386009e-01 6.660127e-01 -7.226663e-01 -1.213686e-01
<VARIANCE> 39
 3.096148e+01 3.968792e+01 7.678674e+01 4.586461e+01 6.299583e+01 6.530416e+01 6.205084e+01 4.143821e+01 4.462864e+01 3.819944e+01 4.038587e+01 2.501860e+01 4.684434e+01 3.876321e+00 3.980618e+00 6.632717e+00 4.138289e+00 1.064090e+01 4.252525e+00 4.344056e+00 7.161886e+00 6.143338e+00 4.359496e+00 5.031074e+00 3.483907e+00 3.763026e+00 4.755631e-01 7.446423e-01 1.006783e+00 7.906264e-01 1.243447e+00 9.086856e-01 9.858853e-01 1.357077e+00 1.189586e+00 8.276403e-01 9.084420e-01 7.067319e-01 7.759200e-01
<GCONST> 1.405479e+02
<STATE> 4
<MEAN> 39
 -3.930367e+00 -2.414882e+00 4.803205e+00 -5.376867e+00 -1.432603e+01 -8.445641e+00 -1.615653e+01 -4.431903e-01 -4.147348e+00 -1.310738e+00 3.854469e+00 -3.498102e+00 6.736971e+01 5.925115e-01 -1.393214e+00 1.173855e-03 -1.899006e+00 -2.409923e+00 7.716203e-01 -6.420931e-01 1.251372e+00 1.624816e+00 -3.776055e-01 1.011115e+00 -1.208331e+00 1.889416e+00 3.056435e-01 3.865964e-02 -1.875087e-01 1.402858e-01 6.953171e-01 4.947411e-01 6.583337e-01 -1.905224e-01 1.819275e-01 -5.424877e-02 -8.057582e-01 -4.533357e-01 -7.031895e-01
<VARIANCE> 39
 1.955769e+01 4.935755e+01 6.220628e+01 4.187620e+01 6.764098e+01 5.439236e+01 5.794218e+01 6.973263e+01 9.596651e+01 7.583744e+01 6.400972e+01 2.574601e+01 4.870872e+01 1.326011e+00 2.741241e+00 4.653135e+00 3.659930e+00 7.416587e+00 3.358263e+00 5.015893e+00 6.702157e+00 7.160369e+00 3.735080e+00 6.623765e+00 3.633683e+00 1.593743e+00 3.405415e-01 3.383142e-01 6.584492e-01 4.060909e-01 1.518960e+00 5.966854e-01 7.638554e-01 8.905566e-01 9.823143e-01 7.376339e-01 8.516741e-01 5.203977e-01 3.090341e-01
<GCONST> 1.346304e+02
<TRANSP> 5
 0.000000e+00 1.000000e+00 0.000000e+00 0.000000e+00 0.000000e+00
 0.000000e+00 7.694794e-01 2.305206e-01 0.000000e+00 0.000000e+00
 0.000000e+00 0.000000e+00 5.375370e-01 4.624630e-01 0.000000e+00
 0.000000e+00 0.000000e+00 0.000000e+00 4.742937e-01 5.257063e-01
 0.000000e+00 0.000000e+00 0.000000e+00 0.000000e+00 0.000000e+00
<ENDHMM>
~h "h"
<BEGINHMM>
<NUMSTATES> 5
<STATE> 2
<MEAN> 39
 -5.203118e+00 -5.064967e+00 -1.409371e+00 -4.880881e+00 1.487287e-01 1.691007e+00 -4.049781e+00 -2.077128e+00 -4.106038e+00 -3.627677e+00 -6.059608e+00 -3.335839e+00 6.442669e+01 -1.208953e+00 6.856836e-02 3.107435e-01 1.444550e+00 1.580427e+00 7.063267e-01 1.144050e+00 1.846306e-01 4.259061e-01 -4.438598e-01 -8.523676e-04 6.795319e-01 -9.261943e-01 -4.439115e-03 -2.877172e-01 -1.262081e-02 -3.589022e-01 -3.878155e-01 -1.094288e-02 -3.569398e-01 7.822303e-02 1.083258e-01 6.836784e-02 2.782397e-01 -2.347172e-01 4.045774e-02
<VARIANCE> 39
 2.184187e+01 4.612259e+01 6.526599e+01 5.829385e+01 8.545287e+01 5.287623e+01 7.801971e+01 5.421206e+01 5.824828e+01 5.340553e+01 4.862457e+01 3.408692e+01 6.915420e+01 1.512546e+00 2.937110e+00 4.118838e+00 3.236035e+00 3.603776e+00 3.409657e+00 3.723964e+00 4.195931e+00 3.940150e+00 3.300767e+00 3.117941e+00 2.843575e+00 1.590220e+00 1.961444e-01 3.154778e-01 3.958404e-01 4.874565e-01 5.739043e-01 5.776766e-01 6.223987e-01 7.207747e-01 5.802208e-01 5.365509e-01 4.918758e-01 4.381014e-01 1.533234e-01
<GCONST> 1.269338e+02
<STATE> 3
<MEAN> 39
 -9.114532e+00 -8.241024e+00 -2.716956e+00 -3.688159e+00 3.820077e+00 3.983257e+00 -3.008785e+00 -1.509648e+00 -1.023248e+00 -4.508368e+00 -3.969123e+00 -3.184921e+00 6.195989e+01 -8.734223e-02 -9.597482e-02 -3.547487e-01 -4.105596e-01 -3.308910e-01 -3.856433e-01 -2.679789e-01 -1.353318e-01 -9.237678e-02 -2.808854e-02 9.552789e-02 -6.225384e-02 -5.800723e-01 3.700129e-01 1.312642e-01 -6.424838e-02 -3.280979e-01 -5.256070e-01 -2.768101e-01 -2.998531e-01 -1.384602e-01 -2.431212e-01 4.289290e-02 -3.699256e-02 -1.817015e-01 3.205728e-02
<VARIANCE> 39
 3.253816e+01 4.876920e+01 4.462901e+01 5.074630e+01 6.224925e+01 4.822534e+01 6.949300e+01 4.765863e+01 4.632250e+01 4.337939e+01 4.152176e+01 3.824094e+01 8.791055e+01 2.453623e+00 2.750083e+00 2.840815e+00 2.842967e+00 3.400552e+00 2.903799e+00 3.284445e+00 3.250481e+00 3.223559e+00 2.775875e+00 2.682251e+00 2.279602e+00 2.757251e+00 2.985755e-01 4.234177e-01 4.761934e-01 5.741777e-01 5.275030e-01 5.326738e-01 6.012197e-01 6.531085e-01 6.009890e-01 5.514767e-01 5.319701e-01 4.498095e-01 2.895774e-01
<GCONST> 1.266659e+02
<STATE> 4
<MEAN> 39
 -1.134799e+01 -6.603592e+00 -5.294294e+00 -4.912136e+00 -2.175178e+00 -1.850595e+00 -5.916258e+00 -3.614813e+00 -4.130813e+00 -5.092342e+00 -4.137256e+00 -2.805028e+00 4.622666e+01 1.646314e-01 1.415129e-01 -1.147611e-02 -1.012823e-01 -2.949186e-01 -1.371461e-01 -9.899706e-02 -1.102711e-01 -8.973935e-02 4.564350e-02 1.945008e-02 -1.290441e-01 -2.007267e-01 6.844397e-02 1.901498e-02 7.357590e-02 4.965015e-03 -9.988890e-03 4.881224e-02 -1.085877e-02 2.943342e-02 1.965557e-02 7.923900e-03 1.816275e-02 -3.152452e-02 9.285651e-02
<VARIANCE> 39
 2.590748e+01 5.747083e+01 3.411506e+01 2.896180e+01 3.811581e+01 3.315128e+01 4.794252e+01 3.558310e+01 3.260455e+01 2.912101e+01 2.494370e+01 2.575200e+01 1.659419e+02 1.377705e+00 2.195193e+00 1.618692e+00 1.766867e+00 2.128825e+00 2.025594e+00 2.253084e+00 2.193394e+00 2.175493e+00 2.020740e+00 1.892056e+00 1.796022e+00 2.372797e+00 1.965042e-01 3.294477e-01 2.652202e-01 3.065630e-01 3.564957e-01 3.570013e-01 4.175229e-01 4.205885e-01 4.068737e-01 3.850096e-01 3.647735e-01 3.262989e-01 2.607504e-01
<GCONST> 1.133055e+02
<TRANSP> 5
 0.000000e+00 1.000000e+00 0.000000e+00 0.000000e+00 0.000000e+00
 0.000000e+00 5.739011e-01 4.260989e-01 0.000000e+00 0.000000e+00
 0.000000e+00 0.000000e+00 6.748274e-01 3.251726e-01 0.000000e+00
 0.000000e+00 0.000000e+00 0.000000e+00 8.512322e-01 1.487678e-01
 0.000000e+00 0.000000e+00 0.000000e+00 0.000000e+00 0.000000e+00
<ENDHMM>
~h "i"
<BEGINHMM>
<NUMSTATES> 5
<STATE> 2
<MEAN> 39
 -7.197638e+00 -4.290275e-01 1.560861e+01 -3.753244e+00 -1.747155e+01 -6.597884e+00 -1.270055e+01 -6.304915e+00 -1.044813e+01 -4.752057e+00 3.559692e+00 -4.086075e+00 6.375714e+01 4.273594e-01 1.324831e-01 2.976260e+00 -7.676273e-01 -2.678003e+00 7.300797e-01 -1.484439e+00 -5.352553e-01 -1.591672e+00 -1.159289e-01 1.418694e+00 -6.618759e-01 1.597183e+00 -8.190574e-02 9.632713e-02 -7.242231e-01 -1.091065e-01 4.852254e-01 2.820332e-01 2.130033e-01 4.536355e-02 4.608429e-01 2.255828e-01 -2.796736e-01 -8.713257e-02 -4.579546e-01
<VARIANCE> 39
 2.780008e+01 5.138306e+01 5.417221e+01 4.214549e+01 4.760754e+01 4.243516e+01 5.332278e+01 6.235322e+01 6.275790e+01 6.866344e+01 4.685117e+01 2.627158e+01 6.057808e+01 5.495418e+00 3.341813e+00 5.376815e+00 4.079731e+00 4.947992e+00 3.918114e+00 6.289441e+00 5.686699e+00 6.071335e+00 5.740677e+00 4.101485e+00 3.022255e+00 4.140920e+00 6.248236e-01 6.002872e-01 9.892113e-01 6.050419e-01 1.023940e+00 6.845164e-01 9.608418e-01 1.053707e+00 8.892197e-01 7.567077e-01 6.908621e-01 4.878130e-01 9.151933e-01
<GCONST> 1.386030e+02
<STATE> 3
<MEAN> 39
 -7.572227e+00 1.064147e+00 1.968706e+01 -7.174343e+00 -2.120326e+01 -2.520335e+00 -1.542347e+01 -8.709539e+00 -1.114242e+01 -4.042161e+00 5.215292e+00 -6.362340e+00 6.609299e+01 2.385096e-01 1.066502e-01 -4.605369e-01 1.031621e-01 1.742849e-01 -2.158916e-01 3.182596e-01 1.310926e-01 2.519868e-01 1.706738e-01 -1.842145e-01 3.057208e-02 -3.125731e-01 1.166778e-01 3.576267e-02 -5.581251e-01 2.713323e-01 5.646983e-01 -2.411162e-01 3.410536e-01 1.889876e-01 3.189258e-01 1.346005e-02 -3.393719e-01 1.389482e-01 -4.165399e-01
<VARIANCE> 39
 1.339493e+01 4.077427e+01 3.358825e+01 3.952618e+01 2.860840e+01 4.743530e+01 3.610163e+01 5.963378e+01 7.069957e+01 9.934228e+01 6.105391e+01 2.951576e+01 2.431345e+01 8.882292e-01 1.815444e+00 2.079474e+00 1.956008e+00 2.573788e+00 2.467134e+00 2.567660e+00 3.268708e+00 2.388526e+00 2.307912e+00 1.990023e+00 1.545678e+00 1.426954e+00 1.917515e-01 2.902553e-01 3.734200e-01 3.558423e-01 5.929500e-01 4.194015e-01 5.236360e-01 5.485299e-01 5.732152e-01 5.378063e-01 4.796458e-01 3.169765e-01 3.001549e-01
<GCONST> 1.168367e+02
<STATE> 4
<MEAN> 39
 -6.981830e+00 2.211053e+00 9.699579e+00 -2.903290e+00 -1.303051e+01 -5.538507e+00 -8.984468e+00 -6.847205e+00 -7.520310e+00 -3.388265e+00 -2.665882e-01 -4.109410e+00 5.151987e+01 1.696613e-01 2.211452e-01 -1.322966e+00 5.286500e-01 1.202610e+00 -8.494664e-02 6.048658e-01 2.434021e-01 7.113777e-01 2.310423e-02 -7.415129e-01 1.498692e-01 -1.778488e+00 -1.149898e-01 -8.760477e-02 -1.992424e-02 -1.068721e-01 2.717572e-02 1.889689e-01 -1.261935e-01 -7.050060e-02 -2.180804e-02 -1.579029e-02 3.768266e-03 -3.459140e-02 1.182402e-01
<VARIANCE> 39
 2.960932e+01 5.390900e+01 7.229685e+01 3.684665e+01 6.482135e+01 6.299122e+01 5.629936e+01 6.051111e+01 4.870547e+01 5.166335e+01 4.664587e+01 3.111074e+01 1.476938e+02 2.014251e+00 2.831906e+00 3.155167e+00 2.828358e+00 4.146010e+00 3.191439e+00 4.132606e+00 3.889634e+00 4.161101e+00 3.436861e+00 3.162628e+00 2.344132e+00 5.118651e+00 2.996797e-01 4.627157e-01 4.433882e-01 4.723513e-01 7.510135e-01 6.520230e-01 6.779880e-01 7.007614e-01 5.966446e-01 5.598408e-01 5.190333e-01 4.236133e-01 6.061580e-01
<GCONST> 1.309713e+02
<TRANSP> 5
 0.000000e+00 1.000000e+00 0.000000e+00 0.000000e+00 0.000000e+00
 0.000000e+00 6.048955e-01 3.951044e-01 0.000000e+00 0.000000e+00
 0.000000e+00 0.000000e+00 8.122185e-01 1.877814e-01 0.000000e+00
 0.000000e+00 0.000000e+00 0.000000e+00 7.640266e-01 2.359734e-01
 0.000000e+00 0.000000e+00 0.000000e+00 0.000000e+00 0.000000e+00
<ENDHMM>
~h "j"
<BEGINHMM>
<NUMSTATES> 5
<STATE> 2
<MEAN> 39
 -1.451477e+00 8.110021e+00 1.035884e+01 9.835971e-02 -8.124290e+00 -5.431125e+00 -7.546655e+00 -1.574043e+00 -4.428244e+00 -5.124208e+00 -2.037212e+00 -4.056819e+00 5.158148e+01 -7.504655e-01 9.344741e-01 6.561331e-02 4.931600e-02 1.209512e+00 2.224464e-01 9.542079e-01 -6.408889e-02 2.607024e-01 1.134251e-01 -3.004389e-01 -1.159118e-02 -5.040070e-01 -6.725222e-01 -4.696123e-01 -1.697242e-01 -2.853310e-01 -1.639548e-02 -1.465353e-02 -2.716806e-01 -2.145090e-01 -1.063384e-01 8.860717e-02 1.761291e-01 2.035612e-01 8.745366e-01
<VARIANCE> 39
 3.880318e+01 4.117192e+01 3.773135e+01 2.708604e+01 5.179294e+01 3.832441e+01 5.079689e+01 4.315967e+01 4.208231e+01 3.023879e+01 3.154702e+01 2.641477e+01 7.208437e+01 8.094421e+00 4.308720e+00 3.551630e+00 3.181463e+00 4.542771e+00 3.235318e+00 4.765764e+00 4.361972e+00 3.900577e+00 2.778593e+00 2.700674e+00 2.928941e+00 9.032917e+00 1.167479e+00 5.641676e-01 6.056728e-01 5.275761e-01 9.560193e-01 6.434821e-01 7.703385e-01 7.514273e-01 7.788090e-01 5.235072e-01 5.520341e-01 6.157038e-01 1.114628e+00
<GCONST> 1.333130e+02
<STATE> 3
<MEAN> 39
 -1.585224e+01 7.098924e+00 9.529926e+00 -2.659800e+00 -3.566894e+00 -5.190245e+00 -6.716858e+00 -5.852429e+00 -6.099735e+00 -4.418904e+00 -7.907304e-01 -2.016284e-01 6.309672e+01 -1.024803e+00 -1.489945e+00 1.027604e+00 -2.076320e-01 -2.682134e+00 -1.371802e+00 -1.538893e+00 -4.380115e-01 -9.447336e-01 -3.827237e-01 1.489359e+00 1.225357e+00 3.260752e+00 1.734800e+00 -5.616751e-01 1.074564e-01 1.417968e-01 -1.221375e+00 -2.533178e-01 -7.269171e-01 6.334857e-01 2.260703e-01 -5.360289e-02 2.449570e-01 -3.659265e-01 -3.603112e-01
<VARIANCE> 39
 3.394942e+01 2.961244e+01 4.231717e+01 2.703669e+01 5.173405e+01 4.228187e+01 3.554151e+01 2.251092e+01 2.982637e+01 2.167204e+01 2.137036e+01 1.859009e+01 2.717624e+01 1.267089e+01 3.665329e+00 3.714688e+00 3.664516e+00 8.280367e+00 3.985898e+00 4.507752e+00 4.725862e+00 3.329723e+00 2.762058e+00 2.521569e+00 2.049993e+00 2.688083e+00 8.382171e-01 8.448152e-01 1.082631e+00 6.281418e-01 1.581112e+00 9.496920e-01 8.064238e-01 1.058735e+00 8.044065e-01 6.087934e-01 6.060632e-01 5.522801e-01 4.638739e-01
<GCONST> 1.305625e+02
<STATE> 4
<MEAN> 39
 -6.152783e+00 -3.320948e+00 1.170732e+01 -4.135524e+00 -1.886164e+01 -1.079728e+01 -1.598174e+01 -1.556670e-02 -5.289333e+00 -4.922766e+00 5.036742e+00 6.482442e-01 7.003803e+01 2.375737e+00 -3.063306e+00 -1.655142e+00 -1.114938e+00 -1.490705e+00 2.385814e-01 -1.597580e+00 2.416339e+00 1.572840e+00 5.290245e-01 -6.283624e-02 -1.316581e+00 1.314445e+00 -2.370864e-01 4.224261e-01 -8.269240e-01 -3.190040e-01 1.551025e+00 8.459858e-01 7.253797e-01 -1.425935e-01 3.291295e-01 2.104659e-01 -8.207315e-01 -6.610886e-01 -6.226312e-01
<VARIANCE> 39
 1.214807e+01 3.492478e+01 2.966680e+01 5.372964e+01 3.007835e+01 2.064245e+01 3.694329e+01 6.852239e+01 5.941194e+01 4.867469e+01 3.431820e+01 1.807518e+01 2.160912e+01 2.175510e+00 3.196845e+00 3.859779e+00 2.764799e+00 8.667406e+00 3.123486e+00 6.612358e+00 6.675034e+00 4.152606e+00 3.529935e+00 5.596853e+00 2.971476e+00 9.458463e-01 5.348929e-01 4.139189e-01 4.819512e-01 5.587941e-01 6.605025e-01 6.174589e-01 7.306942e-01 1.135963e+00 7.086171e-01 6.894870e-01 6.798480e-01 4.434536e-01 1.208154e-01
<GCONST> 1.257441e+02
<TRANSP> 5
 0.000000e+00 1.000000e+00 0.000000e+00 0.000000e+00 0.000000e+00
 0.000000e+00 8.278199e-01 1.721801e-01 0.000000e+00 0.000000e+00
 0.000000e+00 0.000000e+00 7.091524e-01 2.908477e-01 0.000000e+00
 0.000000e+00 0.000000e+00 0.000000e+00 6.447694e-01 3.552306e-01
 0.000000e+00 0.000000e+00 0.000000e+00 0.000000e+00 0.000000e+00
<ENDHMM>
~h "k"
<BEGINHMM>
<NUMSTATES> 5
<STATE> 2
<MEAN> 39
 -8.488935e+00 -4.319884e-02 -2.480914e+00 -3.667315e+00 -5.174330e+00 -3.684049e+00 -5.588632e+00 -3.742908e+00 -3.831393e+00 -2.002008e+00 -3.746451e+00 -4.088450e+00 4.056984e+01 -7.876667e-01 -1.461762e-01 -4.750188e-01 2.436625e-01 3.084716e-01 -1.999961e-01 1.818968e-01 3.615264e-02 2.177872e-01 -8.819810e-02 -4.111442e-02 3.839237e-01 -9.887431e-01 -4.886592e-02 -3.713088e-01 -2.001296e-01 -2.185751e-01 1.056226e-01 -3.946063e-02 -1.955132e-01 9.885605e-02 -5.235064e-02 7.767406e-02 2.768224e-02 3.127526e-02 9.276326e-01
<VARIANCE> 39
 3.118422e+01 3.868456e+01 4.037030e+01 3.623662e+01 4.129794e+01 4.076982e+01 4.492539e+01 4.159618e+01 3.819207e+01 3.461906e+01 3.175896e+01 3.071897e+01 6.894958e+01 2.002125e+00 3.374498e+00 3.076192e+00 2.924649e+00 3.519054e+00 3.400175e+00 3.483639e+00 3.261147e+00 3.505177e+00 2.951753e+00 2.635925e+00 2.411428e+00 7.936532e+00 3.388253e-01 6.635274e-01 6.154234e-01 5.986435e-01 7.238355e-01 6.894719e-01 7.354271e-01 6.382282e-01 6.929756e-01 6.321151e-01 5.523415e-01 4.914923e-01 1.513496e+00
<GCONST> 1.289457e+02
<STATE> 3
<MEAN> 39
 -1.113280e+01 -4.855577e+00 -7.282878e+00 -4.061140e+00 -1.872578e+00 -6.401018e+00 -7.951988e+00 -3.075294e+00 -4.333380e+00 -1.797610e-01 -4.075740e+00 -1.908901e+00 4.880092e+01 -7.879997e-01 -1.911443e+00 -2.324495e+00 -1.028566e+00 1.431133e+00 -8.007213e-01 -1.133652e+00 5.824493e-01 -1.955367e-01 7.609458e-01 -5.982971e-01 4.820190e-01 4.883657e+00 6.673656e-01 4.167105e-01 7.013064e-01 -3.900607e-01 -5.855963e-01 2.811177e-01 -7.270817e-02 4.859283e-02 1.800254e-02 -5.949676e-02 1.198052e-01 -5.051850e-01 7.095121e-01
<VARIANCE> 39
 3.280098e+01 6.322734e+01 7.702248e+01 5.963648e+01 6.017472e+01 6.579124e+01 6.268842e+01 4.688610e+01 4.423941e+01 3.758359e+01 3.689360e+01 2.929196e+01 1.305479e+02 4.411221e+00 5.764551e+00 8.102588e+00 6.814353e+00 7.028956e+00 6.761885e+00 5.802107e+00 5.645348e+00 5.762452e+00 4.932559e+00 4.432280e+00 3.932711e+00 1.352393e+01 6.835443e-01 1.158490e+00 1.494598e+00 1.045553e+00 1.215791e+00 1.071251e+00 1.090843e+00 9.625380e-01 9.699318e-01 7.737520e-01 7.647555e-01 6.936238e-01 2.210294e+00
<GCONST> 1.470952e+02
<STATE> 4
<MEAN> 39
 -9.992531e+00 -5.061179e+00 -8.573579e+00 -8.531592e+00 -1.522902e+00 -6.517342e+00 -1.059982e+01 -1.979308e+00 -3.989117e+00 1.064104e+00 -5.423793e+00 -3.718713e+00 6.031366e+01 1.992395e+00 2.761954e-01 1.928948e+00 -1.133798e+00 -1.657284e+00 7.899740e-01 -2.504425e-01 3.844858e-01 1.857534e-01 -4.462107e-01 7.186171e-01 -1.460229e+00 3.013456e+00 6.887535e-01 7.264381e-02 8.565375e-01 6.255998e-02 -7.465721e-01 5.256087e-01 2.604251e-01 -4.655498e-02 8.082296e-02 -3.899896e-01 4.389673e-01 -4.393612e-01 -7.742485e-01
<VARIANCE> 39
 4.317474e+01 4.527225e+01 7.797880e+01 5.080085e+01 6.101197e+01 6.314931e+01 5.361813e+01 4.904919e+01 5.505090e+01 4.967632e+01 4.749395e+01 3.450574e+01 6.793700e+01 4.797160e+00 5.467121e+00 6.435872e+00 5.416489e+00 5.365458e+00 4.597649e+00 5.129962e+00 6.141034e+00 5.690351e+00 4.174070e+00 4.381015e+00 4.269369e+00 7.775301e+00 8.263014e-01 9.195821e-01 1.608109e+00 9.550959e-01 1.269688e+00 9.874497e-01 1.102178e+00 1.100867e+00 1.121325e+00 9.480932e-01 8.276575e-01 7.880104e-01 1.221045e+00
<GCONST> 1.452335e+02
<TRANSP> 5
 0.000000e+00 1.000000e+00 0.000000e+00 0.000000e+00 0.000000e+00
 0.000000e+00 8.268119e-01 1.731881e-01 0.000000e+00 0.000000e+00
 0.000000e+00 0.000000e+00 5.349147e-01 4.650853e-01 0.000000e+00
 0.000000e+00 0.000000e+00 0.000000e+00 5.565724e-01 4.434276e-01
 0.000000e+00 0.000000e+00 0.000000e+00 0.000000e+00 0.000000e+00
<ENDHMM>
~h "l"
<BEGINHMM>
<NUMSTATES> 5
<STATE> 2
<MEAN> 39
 4.170791e-01 -6.833244e+00 1.225315e-01 -9.371140e+00 -1.046105e+01 -1.314633e+00 -1.679513e+01 -9.594540e+00 1.451080e+00 5.292934e-01 1.353341e+00 -6.762651e+00 6.651833e+01 6.669160e-01 4.312469e-02 2.980111e-01 -5.555087e-01 4.152991e-01 1.384190e-01 -1.300959e+00 -1.105411e+00 2.265177e-01 8.640169e-01 5.604026e-01 -2.355117e-01 -2.197481e-01 -2.201829e-01 1.034112e-01 1.421898e-02 -2.268720e-01 3.925300e-02 1.520693e-01 1.824815e-01 3.777277e-01 -3.045839e-01 -1.796307e-01 2.661179e-02 1.376952e-02 5.911535e-03
<VARIANCE> 39
 1.904770e+01 3.551463e+01 6.538002e+01 9.353401e+01 4.640635e+01 6.593513e+01 9.220858e+01 1.025149e+02 9.468285e+01 6.870425e+01 5.864833e+01 4.403930e+01 4.705824e+01 1.225025e+00 2.055560e+00 3.304243e+00 5.284461e+00 4.719116e+00 4.943641e+00 4.549279e+00 5.445293e+00 5.018012e+00 4.316336e+00 3.988928e+00 3.225636e+00 1.900420e+00 2.689963e-01 3.162796e-01 4.004430e-01 7.713502e-01 7.892803e-01 7.582251e-01 8.613545e-01 1.031548e+00 8.409659e-01 7.830129e-01 6.958367e-01 5.076665e-01 1.773988e-01
<GCONST> 1.335379e+02
<STATE> 3
<MEAN> 39
 1.751847e+00 -6.169859e+00 -4.756362e-01 -1.520857e+01 -8.577685e+00 1.235311e+00 -1.978027e+01 -1.035896e+01 1.532067e-02 3.848451e+00 3.663844e+00 -7.360893e+00 6.721724e+01 -1.442999e-01 -6.239237e-02 -1.809843e-01 -3.913361e-01 2.343427e-01 1.168345e-01 -8.273781e-02 5.654759e-01 -7.853702e-04 2.015737e-02 -2.027288e-01 -1.309754e-01 1.393287e-01 -2.333575e-01 -1.935269e-01 -2.225064e-01 1.704806e-01 -4.313632e-02 7.377942e-02 4.385704e-01 5.698438e-01 9.672984e-02 -3.927854e-01 -4.556495e-01 -9.719137e-02 1.959758e-01
<VARIANCE> 39
 1.204919e+01 3.988272e+01 6.575812e+01 8.621265e+01 4.188483e+01 4.921207e+01 8.914253e+01 7.786034e+01 7.992128e+01 5.908442e+01 5.212915e+01 4.845125e+01 2.605967e+01 4.686476e-01 1.367003e+00 1.730855e+00 2.612112e+00 1.755282e+00 2.595488e+00 2.870814e+00 4.084164e+00 2.939259e+00 2.641914e+00 2.954035e+00 2.117227e+00 8.704228e-01 9.553600e-02 2.724528e-01 2.646683e-01 4.889005e-01 5.305437e-01 5.525270e-01 6.668838e-01 6.980315e-01 5.876161e-01 6.224076e-01 6.010959e-01 4.820604e-01 1.042570e-01
<GCONST> 1.191210e+02
<STATE> 4
<MEAN> 39
 8.740290e-02 -5.215945e+00 -1.878340e+00 -1.291487e+01 -7.486282e+00 -2.336265e-01 -1.720577e+01 -6.586735e+00 -8.944371e-03 1.228793e+00 -4.057852e-02 -7.342272e+00 6.531004e+01 -5.970266e-01 -1.325012e-01 -1.911317e-01 7.054586e-01 5.856621e-02 -6.969378e-02 1.173335e+00 1.312768e+00 -1.517969e-01 -9.525677e-01 -9.914657e-01 -3.386398e-02 -1.322283e-01 -1.142354e-01 4.046256e-02 4.053237e-02 1.491080e-01 -9.363985e-02 6.684938e-02 3.384613e-01 -4.633069e-02 -1.297034e-01 -1.854366e-01 7.529363e-02 2.101029e-02 -6.712708e-02
<VARIANCE> 39
 1.511929e+01 5.192052e+01 9.670415e+01 8.648617e+01 4.688683e+01 7.035780e+01 9.140373e+01 7.619946e+01 7.364000e+01 6.863097e+01 5.630103e+01 4.775285e+01 6.895185e+01 8.259445e-01 3.020070e+00 3.104268e+00 4.606963e+00 4.244475e+00 4.351341e+00 4.507567e+00 6.131023e+00 4.660003e+00 3.904996e+00 4.431733e+00 3.580777e+00 3.020770e+00 1.389841e-01 2.879074e-01 2.839572e-01 6.140833e-01 6.831143e-01 6.146517e-01 7.689120e-01 6.567430e-01 6.574851e-01 6.986570e-01 6.079907e-01 4.381452e-01 2.343098e-01
<GCONST> 1.314955e+02
<TRANSP> 5
 0.000000e+00 1.000000e+00 0.000000e+00 0.000000e+00 0.000000e+00
 0.000000e+00 4.935208e-01 5.064792e-01 0.000000e+00 0.000000e+00
 0.000000e+00 0.000000e+00 6.619133e-01 3.380867e-01 0.000000e+00
 0.000000e+00 0.000000e+00 0.000000e+00 4.736952e-01 5.263048e-01
 0.000000e+00 0.000000e+00 0.000000e+00 0.000000e+00 0.000000e+00
<ENDHMM>
~h "m"
<BEGINHMM>
<NUMSTATES> 5
<STATE> 2
<MEAN> 39
 1.840529e-01 -2.099520e+00 3.206863e+00 -4.670209e+00 -6.105255e+00 2.659865e+00 -9.203894e+00 -8.408953e+00 -9.314679e+00 -2.000352e+00 -1.910345e+00 -7.722238e+00 5.703415e+01 3.524266e-01 1.044037e+00 2.057988e+00 1.765163e+00 3.745225e-01 4.371989e-01 6.429793e-02 -2.080497e+00 -1.895701e+00 -7.290932e-02 -6.732299e-01 1.195437e-01 -3.767256e-01 -2.284096e-01 -2.875279e-01 -7.488323e-02 -1.995744e-01 -8.668943e-02 -9.545252e-03 -9.954344e-02 1.949259e-01 2.178824e-01 -1.270481e-01 -2.877470e-02 4.878977e-02 3.921802e-01
<VARIANCE> 39
 3.402663e+01 4.176746e+01 5.260927e+01 5.930531e+01 4.422459e+01 4.814571e+01 8.281187e+01 7.293324e+01 1.033458e+02 4.693765e+01 5.858887e+01 4.385857e+01 1.090155e+02 2.469339e+00 3.266408e+00 4.276179e+00 4.955393e+00 3.526653e+00 4.119435e+00 5.733947e+00 5.246116e+00 6.572215e+00 3.948755e+00 5.462174e+00 3.993482e+00 6.513319e+00 3.358995e-01 3.722180e-01 6.670116e-01 5.835379e-01 5.275629e-01 4.984497e-01 6.338679e-01 8.086175e-01 8.255168e-01 5.188739e-01 7.174644e-01 4.702736e-01 3.782817e-01
<GCONST> 1.358820e+02
<STATE> 3
<MEAN> 39
 1.529184e+00 -1.962807e+00 7.319904e+00 -2.283796e+00 -6.979445e+00 4.324961e+00 -1.072083e+01 -1.238098e+01 -1.258312e+01 -2.950184e+00 -3.300580e+00 -7.285026e+00 6.073313e+01 -7.047741e-02 -1.946046e-02 1.137660e-01 1.605944e-02 -5.375133e-02 1.831196e-01 3.356828e-02 -1.625524e-02 -1.924928e-02 -2.283695e-01 -9.955280e-02 3.961091e-02 2.000708e-01 2.949171e-02 -1.896822e-01 -5.803270e-01 -5.852944e-01 -1.574279e-01 -8.408146e-02 -7.489631e-03 6.257678e-01 5.354940e-01 5.234271e-02 2.719582e-01 -1.249494e-01 1.957808e-01
<VARIANCE> 39
 1.454517e+01 3.090940e+01 3.233992e+01 3.913073e+01 4.264909e+01 5.451501e+01 1.039867e+02 7.339153e+01 1.306246e+02 5.857883e+01 7.102079e+01 4.666702e+01 2.502156e+01 3.178497e-01 9.249414e-01 1.516676e+00 1.990552e+00 1.289241e+00 1.503774e+00 1.700098e+00 2.189373e+00 2.291700e+00 1.713498e+00 2.537097e+00 1.539115e+00 1.035002e+00 1.073569e-01 2.007775e-01 3.912631e-01 4.092339e-01 3.080985e-01 3.233263e-01 5.394151e-01 5.498404e-01 6.700721e-01 4.461566e-01 6.121342e-01 4.256014e-01 1.816113e-01
<GCONST> 1.130610e+02
<STATE> 4
<MEAN> 39
 -8.798772e-01 -1.373265e+00 5.087873e+00 -3.587899e+00 -7.432740e+00 3.027874e+00 -1.005989e+01 -8.046120e+00 -8.961502e+00 -3.819934e+00 -3.513251e+00 -7.049919e+00 5.625975e+01 -2.484497e-03 -8.162687e-02 -9.879555e-01 -8.528518e-01 -2.480028e-01 -8.880969e-02 1.615556e-01 8.289707e-01 9.144008e-01 1.253442e-01 4.824218e-01 -1.158750e-01 1.416708e-01 -5.055317e-02 -1.184069e-01 -1.737834e-01 -1.263003e-01 5.449770e-02 -2.882563e-03 -3.697611e-02 1.519197e-01 1.305272e-01 3.213267e-02 7.902223e-02 -1.983711e-02 2.659446e-02
<VARIANCE> 39
 3.263288e+01 3.953696e+01 6.267930e+01 5.514025e+01 6.136387e+01 5.812605e+01 8.345628e+01 6.669830e+01 8.961980e+01 4.647245e+01 5.778012e+01 4.939711e+01 1.060184e+02 6.938015e-01 2.123517e+00 3.684526e+00 4.060156e+00 2.432411e+00 2.322718e+00 3.292097e+00 3.942352e+00 4.108135e+00 2.550694e+00 3.657455e+00 2.625999e+00 2.862325e+00 1.171339e-01 2.320799e-01 4.051450e-01 4.126875e-01 4.336885e-01 3.916163e-01 4.683618e-01 5.144916e-01 5.317197e-01 3.948835e-01 4.779905e-01 3.951215e-01 1.965235e-01
<GCONST> 1.243530e+02
<TRANSP> 5
 0.000000e+00 1.000000e+00 0.000000e+00 0.000000e+00 0.000000e+00
 0.000000e+00 5.797383e-01 4.202617e-01 0.000000e+00 0.000000e+00
 0.000000e+00 0.000000e+00 7.358699e-01 2.641301e-01 0.000000e+00
 0.000000e+00 0.000000e+00 0.000000e+00 7.035522e-01 2.964478e-01
 0.000000e+00 0.000000e+00 0.000000e+00 0.000000e+00 0.000000e+00
<ENDHMM>
~h "n"
<BEGINHMM>
<NUMSTATES> 5
<STATE> 2
<MEAN> 39
 9.132739e-01 -6.928084e+00 3.413781e+00 -4.501848e+00 -9.991825e+00 -3.772275e+00 -1.366507e+01 -1.074951e+00 -1.665076e+00 -1.875977e+00 -6.103821e+00 -8.117642e+00 6.526328e+01 6.087431e-01 2.565018e+00 2.132695e+00 2.236048e+00 -7.660230e-02 -9.434446e-01 -4.398359e-02 -3.469576e+00 -9.253961e-01 1.728896e+00 -9.913360e-01 6.896902e-01 -2.395507e+00 -1.640880e-01 6.893010e-02 4.957973e-02 -2.630225e-01 8.294407e-02 1.197181e-01 2.255550e-01 -3.256556e-01 -2.222937e-01 1.320871e-01 1.083619e-01 7.685141e-02 8.539251e-02
<VARIANCE> 39
 1.189023e+01 5.039542e+01 5.856945e+01 5.177804e+01 5.576248e+01 4.096876e+01 7.357982e+01 9.656422e+01 9.025309e+01 6.805267e+01 5.261871e+01 3.857475e+01 4.042975e+01 8.192492e-01 2.104168e+00 4.717708e+00 3.255176e+00 3.953222e+00 4.492138e+00 7.280639e+00 5.134836e+00 6.787714e+00 5.058700e+00 4.186237e+00 3.320364e+00 1.046189e+00 1.179654e-01 4.614478e-01 5.474264e-01 4.864006e-01 5.684209e-01 6.509468e-01 6.965674e-01 1.188415e+00 8.077576e-01 8.227665e-01 5.325845e-01 4.195995e-01 2.642299e-01
<GCONST> 1.300630e+02
<STATE> 3
<MEAN> 39
 1.306213e+00 -1.688673e+00 8.954485e+00 -1.059674e+00 -1.120228e+01 -4.327503e+00 -1.444987e+01 -1.072012e+01 -2.651394e+00 2.580848e+00 -6.946393e+00 -6.618344e+00 6.088115e+01 2.041411e-02 7.173128e-01 4.847898e-01 4.050414e-01 3.419560e-02 -6.707361e-03 1.314399e-01 -9.456800e-01 -3.863615e-01 5.620800e-01 -2.112717e-01 3.820156e-01 -6.048669e-01 -1.783584e-01 -4.458317e-01 -5.692748e-01 -4.650612e-01 1.419573e-01 2.093930e-01 6.085394e-02 9.003749e-01 1.011132e-01 -4.859890e-01 2.730426e-01 -1.264327e-01 4.001943e-01
<VARIANCE> 39
 1.296239e+01 2.860664e+01 4.750539e+01 3.981520e+01 4.608088e+01 4.838336e+01 9.776443e+01 7.066095e+01 1.094482e+02 5.788348e+01 4.939241e+01 4.877877e+01 2.121306e+01 4.086245e-01 1.717344e+00 2.460432e+00 1.572824e+00 1.749669e+00 2.388677e+00 2.939959e+00 4.112894e+00 3.114202e+00 2.611137e+00 2.221070e+00 1.969375e+00 1.131189e+00 1.260636e-01 3.306750e-01 5.888457e-01 4.252427e-01 4.643976e-01 5.938853e-01 7.450590e-01 8.090943e-01 8.128166e-01 6.613586e-01 5.377362e-01 4.738161e-01 2.194066e-01
<GCONST> 1.200387e+02
<STATE> 4
<MEAN> 39
 -1.451736e+00 7.822519e-01 5.802570e+00 6.395354e-01 -6.958905e+00 -4.364425e+00 -9.052979e+00 -7.543019e+00 -6.375476e+00 3.463702e-02 -7.859962e+00 -4.100468e+00 5.229496e+01 -3.828306e-01 2.844051e-01 -4.093438e-01 -1.729374e-03 4.309274e-01 2.881833e-01 3.710624e-01 3.127816e-01 1.296260e-02 -5.068175e-01 1.857049e-01 -3.194879e-02 -7.466901e-01 -1.146111e-01 -1.177197e-01 -1.026126e-01 -1.274712e-01 2.245987e-02 5.974317e-02 -3.016227e-03 1.818154e-01 8.864096e-02 -1.382566e-01 9.198770e-02 -6.130126e-02 8.194315e-03
<VARIANCE> 39
 3.734040e+01 3.425205e+01 5.033047e+01 4.310741e+01 5.428215e+01 4.070989e+01 1.111318e+02 5.707150e+01 9.995064e+01 5.645329e+01 5.214324e+01 4.135912e+01 1.026670e+02 8.961331e-01 2.145020e+00 2.045136e+00 2.171632e+00 2.348715e+00 2.540613e+00 3.160022e+00 3.508859e+00 3.290167e+00 2.887810e+00 2.552672e+00 2.203517e+00 2.447252e+00 1.706333e-01 3.175869e-01 3.155071e-01 3.829425e-01 4.094186e-01 4.406177e-01 5.389150e-01 5.707580e-01 5.345997e-01 5.078982e-01 4.536411e-01 3.715782e-01 2.655780e-01
<GCONST> 1.227948e+02
<TRANSP> 5
 0.000000e+00 1.000000e+00 0.000000e+00 0.000000e+00 0.000000e+00
 0.000000e+00 5.153942e-01 4.846058e-01 0.000000e+00 0.000000e+00
 0.000000e+00 0.000000e+00 6.899326e-01 3.100674e-01 0.000000e+00
 0.000000e+00 0.000000e+00 0.000000e+00 7.984109e-01 2.015892e-01
 0.000000e+00 0.000000e+00 0.000000e+00 0.000000e+00 0.000000e+00
<ENDHMM>
~h "o"
<BEGINHMM>
<NUMSTATES> 5
<STATE> 2
<MEAN> 39
 5.450867e-02 -3.162824e+00 -5.538556e+00 -1.664175e+01 -1.066698e+01 4.130921e+00 -1.293297e+01 -4.310426e+00 -2.897792e+00 -6.828929e-01 2.895737e+00 -5.531365e+00 6.387238e+01 1.587431e+00 -6.830730e-01 -5.145290e-01 -2.842420e+00 -9.636603e-01 2.341578e+00 -3.042097e-01 8.529388e-02 2.231808e-01 -5.019712e-04 1.433619e+00 -6.194559e-01 1.845120e+00 -4.542349e-01 5.659935e-03 1.463258e-01 4.347849e-01 2.874629e-01 -1.324342e-01 3.443335e-01 -7.149524e-02 -1.392265e-01 -1.045176e-01 -1.252137e-01 1.154608e-01 -4.770273e-01
<VARIANCE> 39
 2.710563e+01 4.429844e+01 4.835707e+01 1.072202e+02 5.002032e+01 5.731906e+01 9.820168e+01 6.357074e+01 7.310674e+01 6.592664e+01 5.437294e+01 4.394182e+01 1.018872e+02 4.278275e+00 3.032644e+00 5.938316e+00 6.665432e+00 6.250233e+00 5.263516e+00 5.054465e+00 6.389788e+00 5.511528e+00 5.634868e+00 4.226371e+00 3.751352e+00 6.020412e+00 7.478029e-01 5.522885e-01 7.025856e-01 1.430281e+00 8.173298e-01 9.535828e-01 9.262589e-01 8.867744e-01 9.418027e-01 9.283209e-01 7.355842e-01 6.232505e-01 1.273544e+00
<GCONST> 1.441110e+02
<STATE> 3
<MEAN> 39
 1.977883e+00 -4.674017e+00 -6.930247e+00 -2.194233e+01 -1.264659e+01 1.049358e+01 -1.301391e+01 -5.195502e+00 -1.835525e+00 -3.237290e+00 7.568919e+00 -6.528882e+00 6.895968e+01 7.707672e-02 -1.630963e-01 -6.376778e-02 -1.023259e-01 1.558064e-01 1.757611e-01 8.159728e-02 -4.963264e-02 -6.575635e-03 6.359862e-02 3.214414e-03 -7.023786e-02 -8.933284e-03 -1.251764e-01 1.639431e-01 1.647502e-01 6.673246e-01 2.069536e-01 -5.897428e-01 -1.552729e-02 -2.042522e-02 -2.862111e-02 1.073379e-01 -4.391780e-01 8.463392e-02 -3.715343e-01
<VARIANCE> 39
 9.545567e+00 4.361336e+01 3.744328e+01 5.305551e+01 3.899587e+01 3.696170e+01 8.013403e+01 7.058575e+01 6.446632e+01 6.130359e+01 4.376082e+01 5.145710e+01 2.036415e+01 3.886368e-01 1.339192e+00 1.089130e+00 3.357785e+00 1.758931e+00 2.528575e+00 2.614441e+00 2.313418e+00 2.588561e+00 3.176925e+00 2.212661e+00 1.992536e+00 8.337835e-01 1.535155e-01 2.253105e-01 2.762575e-01 4.324661e-01 4.552411e-01 4.222880e-01 4.308324e-01 5.508682e-01 4.655622e-01 5.235524e-01 4.487967e-01 4.000560e-01 1.834535e-01
<GCONST> 1.141756e+02
<STATE> 4
<MEAN> 39
 1.821905e+00 -2.147095e+00 -6.294099e+00 -1.821369e+01 -8.960670e+00 4.727255e+00 -1.145461e+01 -4.147081e+00 -4.317966e+00 -9.918750e-01 2.474427e+00 -5.693501e+00 6.073137e+01 -2.377909e-01 6.094604e-01 4.534681e-01 1.822287e+00 5.816622e-01 -1.286578e+00 3.315701e-01 -1.343140e-01 5.435978e-02 1.484917e-01 -1.100094e+00 7.877834e-02 -1.748575e+00 -1.477074e-01 1.053682e-01 1.719279e-01 3.175775e-01 5.072078e-03 -5.528765e-02 1.074255e-01 -9.203926e-02 4.959482e-02 -1.330280e-01 -5.187645e-02 5.558811e-02 -2.224091e-01
<VARIANCE> 39
 2.021333e+01 5.729121e+01 4.492297e+01 7.938596e+01 5.347822e+01 4.721390e+01 9.571234e+01 6.140000e+01 7.574660e+01 6.619553e+01 4.897299e+01 5.041641e+01 1.028822e+02 9.614957e-01 2.199980e+00 2.224990e+00 4.343050e+00 3.384992e+00 3.293640e+00 3.352653e+00 3.651706e+00 3.445281e+00 3.321701e+00 3.014384e+00 2.597142e+00 3.400902e+00 1.885917e-01 3.946572e-01 3.586212e-01 6.188728e-01 6.061822e-01 5.088050e-01 6.578045e-01 5.878403e-01 6.624831e-01 6.441689e-01 4.925640e-01 4.821004e-01 5.266203e-01
<GCONST> 1.288817e+02
<TRANSP> 5
 0.000000e+00 1.000000e+00 0.000000e+00 0.000000e+00 0.000000e+00
 0.000000e+00 5.910612e-01 4.089388e-01 0.000000e+00 0.000000e+00
 0.000000e+00 0.000000e+00 7.916258e-01 2.083742e-01 0.000000e+00
 0.000000e+00 0.000000e+00 0.000000e+00 7.195503e-01 2.804497e-01
 0.000000e+00 0.000000e+00 0.000000e+00 0.000000e+00 0.000000e+00
<ENDHMM>
~h "p"
<BEGINHMM>
<NUMSTATES> 5
<STATE> 2
<MEAN> 39
 -8.096663e+00 1.001419e+00 -2.615779e+00 -3.530350e+00 -4.820796e+00 -2.602922e+00 -5.609210e+00 -4.992496e+00 -3.999853e+00 -2.841871e+00 -3.384337e+00 -4.340384e+00 3.756055e+01 -7.765519e-01 1.538761e-01 -1.690394e-01 2.824360e-01 4.602784e-02 -3.430145e-01 1.859313e-01 1.435579e-01 1.503206e-01 2.101248e-02 -3.081008e-03 2.867737e-01 -1.124583e+00 8.782291e-03 -2.319908e-01 1.044139e-02 -1.064766e-01 -4.187490e-02 7.921666e-03 -1.089489e-01 2.213412e-02 -1.299047e-02 -7.110158e-03 8.697573e-02 4.670379e-02 6.214313e-01
<VARIANCE> 39
 3.685105e+01 2.956844e+01 2.586039e+01 2.503087e+01 2.362885e+01 3.150971e+01 3.093249e+01 2.632538e+01 2.806273e+01 2.418806e+01 2.286555e+01 2.618924e+01 3.711034e+01 1.373006e+00 1.501670e+00 1.433546e+00 1.640550e+00 1.796152e+00 2.003726e+00 2.034674e+00 2.117585e+00 2.266564e+00 1.988742e+00 1.864130e+00 1.802883e+00 3.412528e+00 2.228889e-01 3.440469e-01 2.880530e-01 3.585175e-01 3.741447e-01 4.067501e-01 4.262680e-01 4.285357e-01 4.360918e-01 4.328452e-01 3.993230e-01 3.509509e-01 7.299974e-01
<GCONST> 1.108851e+02
<STATE> 3
<MEAN> 39
 -8.841371e+00 1.992518e+00 -1.399922e+00 -2.298581e+00 -4.671269e+00 -3.373685e+00 -5.527958e+00 -4.753689e+00 -3.170293e+00 -2.375988e+00 -2.721268e+00 -3.393837e+00 3.843296e+01 -1.809072e-01 -1.559657e+00 -5.684747e-01 -5.594853e-01 -2.495240e-01 -1.776646e-01 -5.629009e-01 2.680336e-02 1.713594e-01 -2.124132e-01 5.763345e-01 5.455396e-01 4.682397e+00 9.580284e-01 -6.468304e-01 -1.683195e-01 -9.373513e-01 -4.573220e-01 5.902873e-01 -4.136743e-01 -3.556062e-02 -1.222619e-01 -5.735025e-03 3.460887e-01 -4.667287e-01 2.231997e+00
<VARIANCE> 39
 2.071172e+01 1.916559e+01 2.494306e+01 2.591760e+01 2.532028e+01 2.959944e+01 3.718515e+01 2.974548e+01 2.943117e+01 2.334714e+01 2.235167e+01 2.182509e+01 5.163635e+01 3.933316e+00 2.892132e+00 4.081175e+00 4.502830e+00 3.668191e+00 5.002736e+00 3.778740e+00 3.730975e+00 4.288165e+00 3.116843e+00 3.247620e+00 2.974985e+00 1.080711e+01 3.750135e-01 6.088777e-01 7.670458e-01 7.592760e-01 6.940542e-01 9.990816e-01 6.569909e-01 8.503878e-01 8.895554e-01 6.089698e-01 5.750318e-01 6.460409e-01 1.025445e+00
<GCONST> 1.280227e+02
<STATE> 4
<MEAN> 39
 -5.749140e+00 -4.412965e+00 -5.154416e+00 -7.789784e+00 -6.688695e+00 -1.760828e+00 -8.366801e+00 -5.775485e+00 -3.465233e+00 -2.966177e+00 -8.154494e-01 -3.614385e+00 5.865575e+01 2.631723e+00 -2.200639e+00 -6.957674e-01 -3.112656e+00 -1.168509e+00 1.997826e+00 -1.277547e+00 2.280490e-01 -5.097897e-02 1.063318e-01 1.165826e+00 -1.316158e+00 6.619313e+00 3.271888e-01 1.574522e-01 2.972421e-01 -1.691276e-01 -9.731587e-02 2.722788e-01 -7.930377e-02 2.251373e-01 3.844329e-02 1.408314e-01 -7.068078e-02 -4.920216e-01 -8.350345e-01
<VARIANCE> 39
 4.402681e+01 3.031110e+01 2.883545e+01 7.195094e+01 2.610893e+01 6.336607e+01 4.163522e+01 2.952781e+01 3.058168e+01 2.624148e+01 2.812036e+01 2.811578e+01 6.719218e+01 4.120932e+00 7.008550e+00 7.185010e+00 8.600986e+00 5.340395e+00 8.221542e+00 5.026788e+00 6.003295e+00 6.106863e+00 4.483551e+00 4.411604e+00 5.220149e+00 1.167611e+01 9.572644e-01 8.267741e-01 7.259993e-01 1.502836e+00 1.000607e+00 1.273325e+00 8.085881e-01 8.144109e-01 9.127791e-01 6.793951e-01 8.583796e-01 7.097064e-01 1.411832e+00
<GCONST> 1.412343e+02
<TRANSP> 5
 0.000000e+00 1.000000e+00 0.000000e+00 0.000000e+00 0.000000e+00
 0.000000e+00 8.532832e-01 1.467168e-01 0.000000e+00 0.000000e+00
 0.000000e+00 0.000000e+00 5.404934e-01 4.595067e-01 0.000000e+00
 0.000000e+00 0.000000e+00 0.000000e+00 4.784759e-01 5.215241e-01
 0.000000e+00 0.000000e+00 0.000000e+00 0.000000e+00 0.000000e+00
<ENDHMM>
~h "q"
<BEGINHMM>
<NUMSTATES> 5
<STATE> 2
<MEAN> 39
 -9.314687e+00 1.497563e+00 -9.088936e-01 -4.837395e+00 -1.237159e+01 -1.171066e+01 -5.685347e+00 -5.452559e+00 -2.926582e+00 -2.991666e+00 -5.614502e+00 -2.821612e+00 5.150480e+01 -1.256256e+00 9.387698e-01 -1.876804e+00 -1.436342e-01 1.678871e+00 -4.000724e-02 -2.738082e-01 1.130275e+00 -3.384285e-01 2.210094e-01 -1.200909e+00 1.200843e+00 -1.497164e+00 -1.790157e-01 -3.760020e-01 1.015804e+00 2.097345e-01 -4.756009e-01 5.372487e-01 -4.043432e-01 -3.895045e-01 8.326140e-02 -2.966637e-01 1.157176e+00 -1.391255e-01 6.620288e-01
<VARIANCE> 39
 2.149608e+01 3.240837e+01 1.862865e+02 5.150164e+01 4.370181e+01 2.622650e+01 3.924556e+01 3.338440e+01 4.904512e+01 1.875499e+01 4.334259e+01 3.362246e+01 3.839737e+01 4.934248e+00 3.993720e+00 1.522077e+01 2.208075e+00 3.436008e+00 8.885325e-01 3.187696e+00 2.959296e+00 4.088571e+00 2.182199e+00 4.078522e+00 2.342909e+00 1.032221e+01 7.637814e-01 1.005240e+00 2.314157e+00 5.353996e-01 1.097999e+00 2.650593e-01 3.579610e-01 7.537866e-01 1.953425e-01 1.162846e+00 6.569342e-01 5.429844e-01 1.755737e+00
<GCONST> 1.314627e+02
<STATE> 3
<MEAN> 39
 -8.052667e+00 -4.723961e+00 7.703413e+00 -4.840368e+00 -1.893231e+01 -7.698828e+00 -3.191470e+00 -2.582544e+00 -9.946961e-01 -7.648568e+00 2.981498e+00 -4.675600e+00 5.653456e+01 -1.828825e-01 -2.066624e-01 7.727352e-01 6.156412e-01 -4.362757e-01 -3.902577e-02 -7.066892e-01 -2.421741e-01 -3.694645e-01 1.610390e-01 1.563520e+00 4.455177e-01 3.473689e-01 1.318534e-02 -6.708118e-03 -1.038619e-01 1.181245e-01 1.570770e-01 1.514425e-02 -1.466783e-01 -9.410198e-02 1.024438e-01 1.999988e-01 -5.919803e-02 -2.406082e-02 -1.063087e-01
<VARIANCE> 39
 2.659729e+01 6.255743e+01 5.591158e+01 1.167437e+01 5.085374e+01 3.033583e+01 4.021265e+01 3.431930e+01 2.323233e+01 9.778124e+00 7.551836e+01 1.120283e+01 1.215030e+02 3.342676e+00 3.473933e+00 6.817354e+00 1.852649e+00 6.157117e+00 4.803674e+00 1.730882e+00 1.859247e+00 1.851900e+00 2.182784e+00 5.734800e+00 1.523076e+00 1.280160e+01 5.383985e-01 6.321965e-01 3.129514e-01 3.084022e-01 6.659017e-01 6.713564e-01 3.425029e-01 5.399639e-01 4.504635e-01 4.359544e-01 9.972874e-01 4.151206e-01 1.808340e+00
<GCONST> 1.249445e+02
<STATE> 4
<MEAN> 39
 -1.035632e+01 6.274502e-01 3.859140e+00 -1.357067e+00 -1.037666e+01 -7.480615e+00 -6.302228e+00 -6.357466e+00 -4.623854e+00 -2.672013e+00 -4.266269e-01 -1.964709e+00 4.242912e+01 -5.729150e-01 7.559657e-02 -1.713728e+00 -2.978612e-01 1.908394e+00 8.019642e-01 2.905714e-01 8.912100e-01 -5.075948e-01 7.029150e-01 -2.976049e-01 2.555862e-01 -5.061485e-01 -3.928196e-02 -8.052841e-02 -3.878231e-02 -4.856402e-01 -7.338999e-02 3.913437e-03 2.165512e-01 2.653316e-02 -2.270965e-01 7.143554e-02 1.859260e-01 2.194287e-02 8.967748e-01
<VARIANCE> 39
 2.322730e+01 1.394082e+01 3.922978e+01 1.984245e+01 5.796261e+01 5.219384e+01 2.709508e+01 1.380666e+01 2.350599e+01 1.089973e+01 1.730228e+01 7.403749e+00 4.195866e+01 2.586233e+00 1.838464e+00 4.998502e+00 4.410193e+00 3.689845e+00 5.469672e+00 2.303705e+00 1.912317e+00 2.287154e+00 2.726071e+00 2.443115e+00 2.409426e+00 7.916271e+00 2.453624e-01 3.139449e-01 6.340289e-01 3.880908e-01 9.066433e-01 9.566919e-01 4.333754e-01 2.958521e-01 2.541954e-01 4.497155e-01 3.476987e-01 3.087626e-01 3.326996e-01
<GCONST> 1.153380e+02
<TRANSP> 5
 0.000000e+00 1.000000e+00 0.000000e+00 0.000000e+00 0.000000e+00
 0.000000e+00 4.998669e-01 5.001332e-01 0.000000e+00 0.000000e+00
 0.000000e+00 0.000000e+00 5.661495e-01 4.338504e-01 0.000000e+00
 0.000000e+00 0.000000e+00 0.000000e+00 7.307671e-01 2.692329e-01
 0.000000e+00 0.000000e+00 0.000000e+00 0.000000e+00 0.000000e+00
<ENDHMM>
~h "r"
<BEGINHMM>
<NUMSTATES> 5
<STATE> 2
<MEAN> 39
 1.421129e-01 -7.836370e+00 -4.814534e+00 -4.807468e+00 -9.513853e+00 -4.547348e+00 -1.263952e+01 -3.547678e+00 2.447178e+00 -2.385538e-01 -1.643413e+00 -6.364233e+00 6.595861e+01 3.732881e-02 3.390771e-01 -1.632129e-01 2.104234e+00 -1.599146e-01 -3.950577e-01 -1.845092e-01 -7.090891e-01 7.763612e-01 -4.855947e-01 1.415546e-01 5.743291e-01 -1.153442e+00 -1.891380e-01 -6.789906e-02 2.271398e-01 -3.563973e-01 -8.929299e-02 2.564279e-01 -9.290151e-02 2.737877e-01 -3.705281e-01 -1.486568e-01 1.768136e-01 -2.109729e-02 7.887437e-02
<VARIANCE> 39
 1.747045e+01 3.458777e+01 5.522017e+01 5.591234e+01 5.265039e+01 4.301897e+01 8.118687e+01 7.411435e+01 6.987183e+01 5.761413e+01 5.306061e+01 4.400457e+01 4.826235e+01 2.345362e+00 2.695876e+00 3.539889e+00 5.862590e+00 5.117481e+00 4.914164e+00 4.831475e+00 6.080889e+00 5.358351e+00 5.140049e+00 4.589290e+00 3.819589e+00 2.826759e+00 3.435560e-01 4.129185e-01 4.742131e-01 8.758326e-01 7.038907e-01 6.564193e-01 8.010291e-01 9.018500e-01 8.261753e-01 7.764152e-01 7.044637e-01 5.812432e-01 6.215033e-01
<GCONST> 1.354361e+02
<STATE> 3
<MEAN> 39
 -5.304087e-01 -7.107783e+00 -4.695843e+00 1.782754e-01 -1.077898e+01 -4.403681e+00 -1.345868e+01 -4.274912e+00 4.070210e+00 -2.949701e+00 -4.726829e-01 -4.477037e+00 6.379668e+01 1.335967e-02 -1.364480e-02 4.381672e-01 1.910393e-01 -3.292220e-01 1.026726e-01 -5.361000e-01 4.247420e-01 -5.156717e-01 -2.501621e-01 4.590869e-01 2.399287e-01 -3.075906e-01 -4.491273e-03 -5.962101e-02 2.425416e-01 -8.646846e-01 1.938368e-02 2.368400e-01 5.950351e-02 3.305075e-01 -6.169106e-01 2.060214e-01 4.678029e-02 -2.622879e-01 2.773367e-01
<VARIANCE> 39
 2.318745e+01 2.575696e+01 6.214255e+01 4.314700e+01 6.377166e+01 4.312106e+01 8.680511e+01 5.824576e+01 5.813079e+01 4.429776e+01 4.090144e+01 3.678767e+01 4.222686e+01 2.254847e+00 2.403452e+00 3.641006e+00 2.993910e+00 4.710834e+00 3.792137e+00 4.209294e+00 4.572036e+00 4.555657e+00 3.914316e+00 3.640440e+00 3.400744e+00 2.727592e+00 4.909729e-01 5.771589e-01 6.597443e-01 8.298092e-01 1.223037e+00 8.794231e-01 9.769115e-01 1.129459e+00 1.004257e+00 9.406143e-01 9.729584e-01 6.998299e-01 6.555818e-01
<GCONST> 1.350879e+02
<STATE> 4
<MEAN> 39
 -3.391299e+00 -6.222913e+00 -3.073899e+00 -3.341132e+00 -7.010859e+00 -4.311228e+00 -1.235470e+01 -1.659730e+00 -2.945960e-01 -2.248049e+00 -5.921227e-01 -4.281111e+00 5.754221e+01 1.370634e-02 1.437767e-01 4.906794e-01 -4.669357e-01 -6.607309e-02 2.526529e-01 1.665370e-02 2.521882e-01 -8.610468e-01 6.411617e-02 1.540679e-01 -1.034706e-01 -2.061919e-01 1.490198e-02 1.371928e-02 7.016539e-02 -1.569893e-01 -7.319348e-02 1.384368e-01 1.179182e-01 -3.363040e-02 -8.788199e-02 1.716314e-02 -7.775906e-02 -1.745319e-01 8.025701e-02
<VARIANCE> 39
 5.294072e+01 4.437191e+01 5.970392e+01 4.588209e+01 5.841139e+01 5.480720e+01 9.056473e+01 5.562862e+01 5.236648e+01 4.709704e+01 4.312433e+01 4.003394e+01 1.364557e+02 3.211331e+00 4.110326e+00 3.665382e+00 3.203524e+00 4.692942e+00 3.827112e+00 4.572096e+00 4.651989e+00 4.659434e+00 3.810903e+00 3.675215e+00 3.034135e+00 5.523293e+00 5.808834e-01 5.848541e-01 5.585714e-01 6.719841e-01 7.990749e-01 7.538813e-01 8.519892e-01 8.140873e-01 7.700888e-01 7.343108e-01 6.767212e-01 5.903218e-01 6.628389e-01
<GCONST> 1.372859e+02
<TRANSP> 5
 0.000000e+00 1.000000e+00 0.000000e+00 0.000000e+00 0.000000e+00
 0.000000e+00 4.133862e-01 5.866138e-01 0.000000e+00 0.000000e+00
 0.000000e+00 0.000000e+00 4.275459e-01 5.724540e-01 0.000000e+00
 0.000000e+00 0.000000e+00 0.000000e+00 6.239939e-01 3.760061e-01
 0.000000e+00 0.000000e+00 0.000000e+00 0.000000e+00 0.000000e+00
<ENDHMM>
~h "s"
<BEGINHMM>
<NUMSTATES> 5
<STATE> 2
<MEAN> 39
 -1.265117e+01 4.090796e+00 -2.046836e-01 -3.480656e+00 -8.480128e-01 -7.026014e+00 -6.162178e+00 -2.030314e+00 -2.851333e+00 -2.356463e+00 -4.074562e+00 -1.964890e+00 6.291929e+01 -4.599967e+00 2.217488e+00 -1.225651e+00 1.192195e+00 1.616823e+00 -9.783855e-03 1.771759e+00 5.979341e-01 4.833919e-01 -5.840980e-01 5.564786e-01 8.261173e-01 -6.262733e-01 -3.804618e-01 -5.444453e-01 -3.526237e-01 -2.906788e-01 -4.587970e-01 3.204381e-01 -2.115531e-01 1.329319e-02 -8.595139e-03 3.743280e-02 3.022242e-01 -2.105508e-01 -3.514966e-02
<VARIANCE> 39
 7.698741e+01 4.959055e+01 5.031935e+01 4.981128e+01 5.253908e+01 4.528897e+01 8.358113e+01 4.576709e+01 5.255524e+01 4.204084e+01 4.663318e+01 2.906169e+01 6.252271e+01 3.524672e+00 5.727241e+00 4.458117e+00 4.723172e+00 5.656943e+00 5.292922e+00 5.245744e+00 5.272598e+00 4.676736e+00 3.792199e+00 4.103477e+00 2.936902e+00 2.014482e+00 1.113861e+00 8.409706e-01 4.375721e-01 6.811321e-01 7.651273e-01 7.783040e-01 9.519240e-01 7.722763e-01 6.687326e-01 6.952010e-01 6.122240e-01 5.085260e-01 2.097456e-01
<GCONST> 1.360630e+02
<STATE> 3
<MEAN> 39
 -2.944607e+01 5.303426e+00 -7.928032e+00 -2.601933e+00 5.283331e-03 -5.876618e+00 -2.505555e+00 -8.051777e-01 -1.303752e+00 -2.789110e+00 3.367063e-02 2.932359e-01 6.003727e+01 -7.107521e-01 -5.588169e-01 -5.372733e-01 -2.544057e-01 -2.886760e-01 -5.523946e-02 5.709133e-03 -1.805916e-02 1.386653e-01 6.626844e-02 2.067847e-01 1.502962e-01 -3.213310e-01 9.662380e-01 -2.153825e-01 4.053922e-01 -1.183379e-01 -1.755401e-01 -1.082487e-01 -2.775717e-01 -1.323960e-01 -4.904399e-02 -6.344444e-04 -1.792664e-01 -1.555925e-01 9.834986e-02
<VARIANCE> 39
 1.858255e+01 2.156052e+01 3.498576e+01 3.660814e+01 2.908707e+01 3.603910e+01 4.829127e+01 2.964202e+01 2.978140e+01 2.621638e+01 2.470242e+01 1.893945e+01 3.109144e+01 3.097202e+00 1.650068e+00 2.241959e+00 1.491777e+00 1.790909e+00 1.844808e+00 1.987774e+00 2.054980e+00 1.883615e+00 1.743462e+00 1.698056e+00 1.502426e+00 8.689640e-01 4.936971e-01 3.468857e-01 3.652754e-01 3.569579e-01 4.170732e-01 4.233769e-01 5.101917e-01 4.652388e-01 3.936230e-01 3.736374e-01 3.484620e-01 3.361200e-01 1.728660e-01
<GCONST> 1.099278e+02
<STATE> 4
<MEAN> 39
 -1.984305e+01 4.362338e-01 -5.522320e+00 -3.732592e+00 -2.716248e+00 -6.364487e+00 -5.242471e+00 -1.877952e+00 -1.465744e+00 -2.922146e+00 -1.929603e+00 -9.663212e-01 5.350074e+01 3.200003e+00 -4.701813e-01 1.213466e+00 -4.490423e-01 -7.317094e-01 5.363101e-03 -1.334166e+00 -6.590554e-01 -2.255237e-01 6.448785e-02 -3.742003e-01 -8.920580e-01 3.538891e-01 4.959296e-01 -1.956567e-02 2.601670e-01 -1.245108e-01 -9.323751e-02 2.446869e-01 -2.400269e-01 -2.933332e-02 -1.303812e-01 7.589238e-02 8.788443e-02 -1.670523e-01 2.559662e-01
<VARIANCE> 39
 7.112246e+01 3.780394e+01 4.485308e+01 3.399021e+01 3.529298e+01 4.099692e+01 5.534442e+01 3.559125e+01 3.498195e+01 3.344644e+01 2.820776e+01 2.477476e+01 1.260865e+02 1.049954e+01 3.683300e+00 5.350989e+00 4.028910e+00 3.717378e+00 4.013950e+00 5.219806e+00 4.134422e+00 3.569203e+00 3.108432e+00 2.867742e+00 2.871203e+00 5.734191e+00 1.129837e+00 5.683295e-01 6.348959e-01 5.743988e-01 5.923126e-01 6.641579e-01 8.607500e-01 7.246232e-01 6.096439e-01 5.801752e-01 5.354573e-01 4.776258e-01 6.534327e-01
<GCONST> 1.332941e+02
<TRANSP> 5
 0.000000e+00 1.000000e+00 0.000000e+00 0.000000e+00 0.000000e+00
 0.000000e+00 7.122705e-01 2.877295e-01 0.000000e+00 0.000000e+00
 0.000000e+00 0.000000e+00 8.431842e-01 1.568158e-01 0.000000e+00
 0.000000e+00 0.000000e+00 0.000000e+00 7.793869e-01 2.206131e-01
 0.000000e+00 0.000000e+00 0.000000e+00 0.000000e+00 0.000000e+00
<ENDHMM>
~h "t"
<BEGINHMM>
<NUMSTATES> 5
<STATE> 2
<MEAN> 39
 -7.577790e+00 1.049521e+00 -2.180709e+00 -3.533856e+00 -5.055275e+00 -4.480189e+00 -6.872462e+00 -4.198818e+00 -2.135158e+00 -2.301695e+00 -4.074947e+00 -5.416343e+00 4.077907e+01 -6.551122e-01 1.331768e-01 -1.998719e-01 2.121193e-01 -1.398816e-03 3.973763e-02 4.071990e-01 6.619792e-02 -6.931922e-02 -1.137918e-01 4.024865e-02 3.382932e-01 -1.726990e+00 -1.704184e-01 -3.781244e-01 -2.901075e-02 -1.996732e-01 -1.192501e-02 -3.758909e-02 -5.285791e-02 5.787870e-02 -1.564642e-02 -3.748754e-03 1.059884e-01 1.020533e-01 8.099159e-01
<VARIANCE> 39
 3.610426e+01 3.351011e+01 3.765502e+01 3.097559e+01 2.964967e+01 3.127371e+01 4.347599e+01 3.563113e+01 3.728953e+01 3.089660e+01 3.273785e+01 3.434332e+01 6.464310e+01 1.820886e+00 2.331736e+00 1.980976e+00 2.207193e+00 2.508964e+00 2.344414e+00 2.736140e+00 2.477057e+00 2.593571e+00 2.381354e+00 2.267366e+00 2.138534e+00 6.054153e+00 3.451138e-01 5.855696e-01 3.961853e-01 5.023887e-01 5.189398e-01 4.864570e-01 5.340827e-01 5.425596e-01 5.195618e-01 4.882807e-01 4.795998e-01 4.262005e-01 1.169672e+00
<GCONST> 1.214338e+02
<STATE> 3
<MEAN> 39
 -1.017150e+01 1.593060e+00 -1.003799e+00 -2.295362e+00 -4.709338e+00 -4.656197e+00 -5.658221e+00 -4.245426e+00 -2.311501e+00 -1.850530e+00 -2.733417e+00 -3.459009e+00 3.930921e+01 -1.837289e+00 -2.200605e+00 -7.082069e-01 -1.046868e+00 4.123320e-01 -5.772277e-01 2.106449e-01 1.657045e-01 4.720696e-02 -4.369592e-01 3.736328e-01 7.923179e-01 4.490794e+00 6.226636e-01 -3.496183e-01 1.217066e-01 -5.377945e-01 -3.145013e-01 -3.852739e-02 -6.189923e-01 -6.606857e-02 8.655425e-02 1.531393e-02 6.166860e-02 -4.509477e-01 2.182783e+00
<VARIANCE> 39
 3.139763e+01 3.030350e+01 3.563825e+01 3.312648e+01 3.254722e+01 3.602309e+01 4.386514e+01 3.333741e+01 3.246410e+01 2.494263e+01 2.924745e+01 2.432890e+01 5.972305e+01 4.108494e+00 3.772785e+00 4.863373e+00 4.042764e+00 4.455774e+00 4.236675e+00 4.464495e+00 4.527086e+00 4.802360e+00 3.295069e+00 3.848645e+00 3.305765e+00 1.259969e+01 6.727791e-01 6.930838e-01 8.677641e-01 6.920649e-01 7.765159e-01 8.170820e-01 7.440253e-01 8.136895e-01 8.985567e-01 6.131042e-01 6.266401e-01 6.067054e-01 1.419181e+00
<GCONST> 1.333770e+02
<STATE> 4
<MEAN> 39
 -1.354908e+01 -5.848067e+00 -3.517743e+00 -7.312014e+00 -4.984849e+00 -7.810981e+00 -7.417387e+00 -4.482003e+00 -1.875683e+00 -3.391526e+00 -2.538849e+00 -2.804139e+00 6.010544e+01 1.663799e+00 -1.119365e+00 4.004382e-01 -1.714066e+00 -7.256588e-01 2.080652e-01 -1.978778e+00 5.506774e-02 3.098363e-01 1.497995e-01 4.328029e-01 -1.125820e+00 6.351348e+00 1.227568e+00 5.441980e-01 4.870326e-01 -2.692427e-02 -4.175007e-01 7.087256e-01 -5.227870e-01 8.563480e-02 -1.282900e-01 2.693948e-01 1.064640e-01 -5.634946e-01 -9.383777e-01
<VARIANCE> 39
 3.271627e+01 2.572991e+01 3.618544e+01 3.265447e+01 3.148082e+01 3.642079e+01 4.873386e+01 2.934997e+01 3.510331e+01 2.853118e+01 2.996448e+01 2.647465e+01 6.642129e+01 5.624450e+00 5.217190e+00 7.960159e+00 5.885900e+00 5.483717e+00 5.823296e+00 6.199508e+00 6.260818e+00 6.937037e+00 4.134446e+00 4.908439e+00 4.838161e+00 1.190089e+01 7.660760e-01 8.149359e-01 1.069016e+00 8.728744e-01 1.006568e+00 1.043848e+00 1.234946e+00 1.073196e+00 1.048402e+00 8.387459e-01 9.628340e-01 7.994735e-01 1.470365e+00
<GCONST> 1.407139e+02
<TRANSP> 5
 0.000000e+00 1.000000e+00 0.000000e+00 0.000000e+00 0.000000e+00
 0.000000e+00 8.298976e-01 1.701023e-01 0.000000e+00 0.000000e+00
 0.000000e+00 0.000000e+00 4.880011e-01 5.119990e-01 0.000000e+00
 0.000000e+00 0.000000e+00 0.000000e+00 5.010613e-01 4.989387e-01
 0.000000e+00 0.000000e+00 0.000000e+00 0.000000e+00 0.000000e+00
<ENDHMM>
~h "u"
<BEGINHMM>
<NUMSTATES> 5
<STATE> 2
<MEAN> 39
 -4.793135e-01 1.336128e+00 -3.441740e-01 -9.067849e+00 -1.071276e+01 -5.841937e-01 -1.692072e+01 -7.438773e+00 -6.429488e+00 -2.630017e+00 1.902483e+00 -4.567207e+00 6.096725e+01 2.090097e+00 7.374005e-01 -1.195456e-01 -2.213347e+00 -1.580030e+00 2.256305e+00 -1.558307e+00 -6.497510e-01 -1.101258e+00 -3.129087e-02 1.698284e+00 -2.632872e-01 1.055094e+00 -3.817936e-01 5.700151e-02 3.107176e-02 -2.368094e-02 1.586110e-01 1.986886e-01 5.432008e-01 1.456631e-01 -1.226859e-02 -3.124953e-02 -1.343941e-01 8.667297e-02 -4.804559e-01
<VARIANCE> 39
 2.890831e+01 4.659124e+01 5.239130e+01 9.656145e+01 4.941583e+01 5.898610e+01 9.647662e+01 7.095336e+01 7.064238e+01 5.352745e+01 5.165472e+01 3.783331e+01 9.704277e+01 4.989376e+00 3.555269e+00 5.492379e+00 5.719053e+00 6.045995e+00 5.714876e+00 6.381518e+00 7.294607e+00 6.730786e+00 5.414694e+00 4.785984e+00 4.249017e+00 4.918755e+00 7.792772e-01 6.494030e-01 6.823698e-01 1.137119e+00 8.619215e-01 8.887638e-01 1.391121e+00 1.133212e+00 1.049294e+00 8.465845e-01 8.266025e-01 7.251114e-01 1.166543e+00
<GCONST> 1.452961e+02
<STATE> 3
<MEAN> 39
 2.515957e+00 2.583745e+00 -2.044155e+00 -1.499245e+01 -1.471731e+01 8.680491e+00 -1.896259e+01 -9.834608e+00 -8.799452e+00 -4.938843e+00 6.677512e+00 -3.368160e+00 6.480725e+01 1.607136e-01 -5.915342e-02 -1.116635e-01 -2.854963e-01 3.283069e-02 4.470516e-01 -8.011021e-03 -1.836053e-01 -2.503591e-03 2.111258e-01 3.007784e-01 -2.511601e-02 2.602409e-02 -3.593160e-01 -1.542476e-01 1.326809e-01 8.090586e-01 5.830898e-01 -8.774832e-01 4.511821e-01 2.427109e-01 4.631765e-01 1.499186e-01 -6.901352e-01 -1.390305e-01 -4.026957e-01
<VARIANCE> 39
 1.105827e+01 4.418986e+01 3.048630e+01 6.942945e+01 3.771608e+01 5.067112e+01 7.983645e+01 9.358981e+01 8.527833e+01 6.758655e+01 5.121818e+01 4.355651e+01 2.458588e+01 7.584737e-01 3.181243e+00 1.813031e+00 6.478796e+00 3.689691e+00 4.733291e+00 4.920291e+00 5.236303e+00 4.864900e+00 4.943569e+00 4.193983e+00 3.125381e+00 2.242574e+00 2.984757e-01 4.210941e-01 4.499736e-01 7.061695e-01 7.003489e-01 6.801739e-01 9.140508e-01 1.076748e+00 8.772952e-01 9.240949e-01 8.458943e-01 7.056803e-01 3.330144e-01
<GCONST> 1.317836e+02
<STATE> 4
<MEAN> 39
 2.709644e+00 3.950896e+00 -1.725227e+00 -1.401713e+01 -1.097891e+01 2.709446e+00 -1.641368e+01 -6.805670e+00 -7.955274e+00 -3.119860e+00 1.872382e+00 -4.632102e+00 5.935347e+01 -3.715097e-01 4.570782e-02 4.314190e-01 1.406179e+00 7.597432e-01 -1.113557e+00 9.518362e-01 1.249643e-01 6.739625e-01 1.296201e-01 -1.018503e+00 -2.335849e-01 -1.299068e+00 -2.351237e-01 -1.185993e-02 1.300939e-01 2.502145e-01 3.681100e-02 -7.640437e-02 1.488557e-01 -4.069710e-02 8.667982e-02 -7.094171e-02 -1.067491e-01 6.866405e-02 -1.584180e-01
<VARIANCE> 39
 1.578676e+01 5.996840e+01 4.254272e+01 9.114098e+01 4.787750e+01 5.428018e+01 8.910883e+01 8.004659e+01 8.112179e+01 6.498785e+01 5.094156e+01 4.703935e+01 6.752597e+01 1.157253e+00 2.614506e+00 2.609085e+00 4.256322e+00 3.849766e+00 3.839273e+00 4.238880e+00 4.406913e+00 3.998128e+00 3.633608e+00 3.809953e+00 3.435431e+00 4.065207e+00 2.398063e-01 4.703604e-01 3.828557e-01 7.037675e-01 6.144940e-01 5.737832e-01 8.825604e-01 7.850453e-01 6.948290e-01 7.299199e-01 6.262103e-01 5.629144e-01 4.611441e-01
<GCONST> 1.324797e+02
<TRANSP> 5
 0.000000e+00 1.000000e+00 0.000000e+00 0.000000e+00 0.000000e+00
 0.000000e+00 5.164598e-01 4.835402e-01 0.000000e+00 0.000000e+00
 0.000000e+00 0.000000e+00 6.954135e-01 3.045865e-01 0.000000e+00
 0.000000e+00 0.000000e+00 0.000000e+00 7.027206e-01 2.972794e-01
 0.000000e+00 0.000000e+00 0.000000e+00 0.000000e+00 0.000000e+00
<ENDHMM>
~h "w"
<BEGINHMM>
<NUMSTATES> 5
<STATE> 2
<MEAN> 39
 1.645372e+00 -1.710223e-01 -3.067484e+00 -1.403789e+01 -9.603338e+00 3.990063e+00 -1.222891e+01 -4.504919e+00 -7.146232e+00 -2.100273e+00 2.369151e+00 -5.125861e+00 5.866941e+01 1.340026e+00 1.183273e+00 1.320246e-01 -1.805675e+00 -1.200686e+00 1.123848e+00 -1.179848e-01 -2.074798e-03 -1.097820e+00 -6.259961e-01 7.986374e-01 6.749963e-01 8.708870e-02 -2.015816e-01 -1.755425e-01 1.691366e-01 4.582210e-02 -1.821299e-01 -1.645374e-01 1.281861e-01 2.161299e-01 1.998726e-01 -1.964948e-01 -1.138410e-01 -2.340465e-02 8.046106e-02
<VARIANCE> 39
 3.290667e+01 7.548628e+01 4.284243e+01 9.864063e+01 4.813548e+01 6.822607e+01 8.886005e+01 7.226950e+01 7.799683e+01 5.099789e+01 6.035624e+01 4.122695e+01 1.366818e+02 2.338584e+00 3.123457e+00 3.193147e+00 4.325429e+00 4.425471e+00 4.436503e+00 4.246432e+00 4.555882e+00 4.320390e+00 3.481570e+00 3.543010e+00 3.669466e+00 4.173500e+00 5.013391e-01 4.925828e-01 4.501092e-01 7.373318e-01 7.384894e-01 7.431615e-01 8.307033e-01 7.551972e-01 8.529137e-01 6.980429e-01 7.378706e-01 6.086348e-01 3.609380e-01
<GCONST> 1.370860e+02
<STATE> 3
<MEAN> 39
 5.600334e+00 1.778173e+00 -2.605122e+00 -2.263894e+01 -1.646520e+01 8.472039e+00 -1.320681e+01 -2.875163e+00 -6.602583e+00 -6.263264e+00 5.497736e+00 -3.457376e+00 6.273279e+01 -1.445410e-01 -5.721887e-01 -3.202801e-01 -4.233972e-01 3.134360e-02 5.177400e-01 -1.405943e-02 -2.684071e-01 4.068372e-01 1.342901e-01 5.622224e-01 -1.182593e-01 6.129034e-01 -2.872024e-01 -5.240813e-01 -1.962883e-01 3.728680e-01 5.086259e-01 -8.943407e-02 -3.831712e-02 -1.328448e-01 3.181422e-01 3.662531e-01 -2.060581e-02 -4.401761e-01 2.983491e-01
<VARIANCE> 39
 1.018191e+01 4.924383e+01 3.495380e+01 5.820335e+01 3.241805e+01 4.117548e+01 6.568961e+01 7.848069e+01 6.959563e+01 3.845228e+01 5.075187e+01 4.181316e+01 2.826946e+01 5.500923e-01 3.151226e+00 1.573234e+00 2.052922e+00 2.657682e+00 2.417526e+00 1.978990e+00 2.243233e+00 2.428905e+00 3.044744e+00 2.758438e+00 2.516833e+00 1.989011e+00 6.564566e-02 1.899751e-01 2.247796e-01 3.144775e-01 3.431672e-01 4.834458e-01 3.641632e-01 4.391848e-01 4.506235e-01 3.956889e-01 5.248874e-01 4.961908e-01 1.365903e-01
<GCONST> 1.141268e+02
<STATE> 4
<MEAN> 39
 2.122106e+00 -7.476505e+00 -7.035371e+00 -2.144828e+01 -9.428696e+00 1.104856e+01 -1.301142e+01 -5.661366e+00 -1.804435e+00 -1.764090e+00 7.450624e+00 -9.991718e+00 6.923388e+01 -9.495591e-01 -1.944451e+00 -3.908176e-01 1.459976e+00 1.672326e+00 -7.331120e-01 -2.200927e-01 2.912653e-01 1.418066e+00 6.893633e-01 -1.241648e+00 -2.247989e+00 1.143513e+00 2.388840e-02 2.793610e-01 3.772751e-01 3.258430e-01 -2.504382e-01 -6.042478e-01 2.548590e-02 4.506233e-01 -9.582688e-02 -3.537621e-01 -6.150308e-01 2.277014e-01 -2.816685e-01
<VARIANCE> 39
 1.218883e+01 5.133253e+01 4.208959e+01 5.890080e+01 3.558705e+01 4.009258e+01 6.836095e+01 6.372576e+01 8.017154e+01 5.559344e+01 5.967233e+01 5.545287e+01 2.770392e+01 3.332500e-01 1.363119e+00 1.291804e+00 1.896421e+00 2.379430e+00 2.968980e+00 2.144372e+00 2.613778e+00 2.499317e+00 2.541327e+00 2.961358e+00 2.814827e+00 6.278247e-01 6.269907e-02 1.649531e-01 1.695141e-01 2.749911e-01 3.726884e-01 3.631466e-01 3.498353e-01 4.335199e-01 3.860564e-01 4.602859e-01 5.246255e-01 5.974239e-01 8.061298e-02
<GCONST> 1.117625e+02
<TRANSP> 5
 0.000000e+00 1.000000e+00 0.000000e+00 0.000000e+00 0.000000e+00
 0.000000e+00 6.933262e-01 3.066738e-01 0.000000e+00 0.000000e+00
 0.000000e+00 0.000000e+00 8.050663e-01 1.949337e-01 0.000000e+00
 0.000000e+00 0.000000e+00 0.000000e+00 6.710333e-01 3.289668e-01
 0.000000e+00 0.000000e+00 0.000000e+00 0.000000e+00 0.000000e+00
<ENDHMM>
~h "y"
<BEGINHMM>
<NUMSTATES> 5
<STATE> 2
<MEAN> 39
 -6.173610e+00 -2.341574e+00 1.260812e+01 -8.066953e+00 -1.504572e+01 -5.919676e+00 -1.191543e+01 7.571403e-02 -8.056304e+00 -3.518944e+00 1.430903e+00 -3.910523e+00 6.203596e+01 -2.764151e-01 9.844619e-01 2.734772e+00 -1.204425e-01 -1.651800e+00 -3.694335e-02 -1.148865e+00 -7.217383e-01 -1.433293e+00 -2.691504e-02 1.524344e+00 3.623712e-01 6.710473e-01 2.076939e-02 -1.319877e-01 -3.820624e-01 -2.495317e-02 2.132050e-01 1.881219e-01 -7.042563e-02 -1.657746e-01 1.485582e-01 -6.711729e-03 -8.930398e-02 -1.486806e-01 4.099644e-02
<VARIANCE> 39
 2.405468e+01 7.909848e+01 8.275672e+01 5.240870e+01 6.017986e+01 5.265233e+01 6.179474e+01 7.961413e+01 7.004375e+01 7.334879e+01 5.670984e+01 3.152369e+01 1.418436e+02 1.921286e+00 3.041068e+00 3.474633e+00 3.086442e+00 3.937599e+00 3.354887e+00 4.419262e+00 4.260809e+00 4.168575e+00 4.669751e+00 3.101254e+00 3.006133e+00 4.413148e+00 2.430866e-01 4.411685e-01 7.561620e-01 5.409335e-01 7.229879e-01 6.974806e-01 7.305555e-01 7.637348e-01 6.766726e-01 6.639455e-01 5.505625e-01 4.846272e-01 3.758701e-01
<GCONST> 1.339983e+02
<STATE> 3
<MEAN> 39
 -6.850539e+00 -1.251209e+00 1.863878e+01 -9.141950e+00 -2.071347e+01 -6.400437e+00 -1.632379e+01 -3.446234e+00 -1.122344e+01 -2.334585e+00 5.467845e+00 -3.156735e+00 6.704463e+01 1.993105e-01 -8.039504e-01 -7.733682e-01 -1.883006e-01 -6.096698e-01 -5.416370e-01 2.530406e-01 7.498591e-01 5.575995e-01 4.275962e-01 1.620282e-01 1.854922e-01 7.203728e-01 1.499864e-01 -3.767317e-01 -7.088373e-01 -5.632985e-02 3.045056e-01 -8.299082e-02 3.719453e-01 5.296059e-01 4.724295e-01 -1.160643e-02 -4.182210e-01 -1.158287e-01 7.271092e-02
<VARIANCE> 39
 1.024184e+01 3.909134e+01 4.449640e+01 4.336194e+01 3.121999e+01 3.592672e+01 3.683622e+01 5.499330e+01 7.299956e+01 1.005320e+02 6.178734e+01 3.244069e+01 3.047886e+01 4.499908e-01 2.279562e+00 2.816655e+00 1.229707e+00 1.810373e+00 1.858718e+00 2.318070e+00 3.850580e+00 2.549695e+00 2.205695e+00 1.540060e+00 1.381827e+00 1.119278e+00 6.690691e-02 1.744190e-01 2.575074e-01 1.991006e-01 4.953029e-01 3.343139e-01 4.026642e-01 3.951721e-01 3.677516e-01 5.123700e-01 3.934771e-01 3.170018e-01 1.096680e-01
<GCONST> 1.100383e+02
<STATE> 4
<MEAN> 39
 -4.400149e+00 -9.786703e+00 6.560952e+00 -1.133008e+01 -1.944253e+01 -9.364281e+00 -1.033702e+01 7.508771e+00 -2.821626e+00 -2.691560e+00 5.164530e-01 -3.722668e+00 7.245773e+01 5.762827e-01 -1.592768e+00 -3.017015e+00 -2.015568e-01 2.353253e+00 6.836429e-01 9.602535e-01 1.498210e+00 1.778379e+00 -1.109917e+00 -2.508785e+00 -1.186801e+00 5.405349e-01 2.806607e-02 3.040007e-01 1.360485e-01 6.984939e-02 6.121333e-01 5.596706e-01 -4.082729e-01 -7.841477e-01 -2.915308e-01 -9.357157e-02 -8.626495e-02 -2.993718e-01 -3.324986e-01
<VARIANCE> 39
 6.962108e+00 3.149722e+01 5.309808e+01 3.993895e+01 3.563512e+01 2.275246e+01 5.133135e+01 4.855482e+01 5.895375e+01 6.057351e+01 6.110844e+01 2.556261e+01 2.295610e+01 4.396297e-01 1.110973e+00 1.841054e+00 1.342416e+00 2.558725e+00 2.324875e+00 3.355338e+00 3.763121e+00 2.768711e+00 3.653948e+00 2.235220e+00 2.227207e+00 5.002250e-01 5.855940e-02 1.643209e-01 2.974112e-01 2.590041e-01 5.121611e-01 4.635488e-01 4.138119e-01 5.226879e-01 4.544443e-01 6.039683e-01 6.351890e-01 3.154734e-01 7.207974e-02
<GCONST> 1.099411e+02
<TRANSP> 5
 0.000000e+00 1.000000e+00 0.000000e+00 0.000000e+00 0.000000e+00
 0.000000e+00 7.422462e-01 2.577538e-01 0.000000e+00 0.000000e+00
 0.000000e+00 0.000000e+00 8.158673e-01 1.841327e-01 0.000000e+00
 0.000000e+00 0.000000e+00 0.000000e+00 7.016661e-01 2.983339e-01
 0.000000e+00 0.000000e+00 0.000000e+00 0.000000e+00 0.000000e+00
<ENDHMM>
~h "z"
<BEGINHMM>
<NUMSTATES> 5
<STATE> 2
<MEAN> 39
 -7.688954e+00 6.324090e+00 2.356664e+00 -8.563844e-01 -4.156126e+00 -1.134330e+01 -1.253784e+01 -5.439892e+00 -3.173343e+00 -2.640411e+00 -4.669581e+00 -5.376580e-01 6.287533e+01 -2.055254e+00 2.859920e+00 -1.000599e+00 1.471589e+00 1.525359e+00 -5.062348e-01 1.299075e+00 -1.330489e-01 9.661867e-02 -3.075609e-01 -3.522008e-01 8.567919e-01 -6.684477e-01 -2.677315e-01 -7.772927e-02 -1.640693e-01 -1.463342e-01 -1.200134e-01 5.264232e-01 2.219309e-01 1.603161e-01 1.115787e-01 2.096200e-02 2.449054e-01 -2.383663e-01 -2.962451e-02
<VARIANCE> 39
 3.921772e+01 5.383306e+01 5.231601e+01 5.702831e+01 6.384433e+01 4.010103e+01 7.922421e+01 4.947344e+01 5.460833e+01 4.373212e+01 4.267380e+01 2.777396e+01 5.113278e+01 3.050678e+00 4.441363e+00 3.781487e+00 4.314845e+00 5.143123e+00 4.214334e+00 5.100098e+00 5.373813e+00 3.949253e+00 3.767105e+00 3.663002e+00 2.428982e+00 2.005506e+00 4.015374e-01 7.199517e-01 4.765119e-01 5.191365e-01 6.607766e-01 5.751121e-01 8.597465e-01 6.800008e-01 5.463713e-01 6.122604e-01 5.651270e-01 4.396574e-01 2.246431e-01
<GCONST> 1.314890e+02
<STATE> 3
<MEAN> 39
 -1.795833e+01 1.493421e+01 -3.874545e-01 4.271951e+00 1.526458e-01 -8.809056e+00 -7.082231e+00 -3.475196e+00 -2.954590e+00 -2.898758e+00 -3.081672e+00 6.061242e-01 6.105293e+01 -9.146641e-01 -1.096990e-01 2.131069e-02 1.418248e-01 1.555134e-01 2.484112e-01 3.444048e-01 2.029580e-01 2.267706e-02 2.451504e-02 3.580223e-01 1.323399e-01 6.016948e-02 5.678284e-01 -6.320240e-01 2.874281e-01 -2.989500e-01 -4.322611e-01 -1.589279e-01 -3.940288e-01 -1.530668e-01 -3.049239e-02 -3.328437e-02 6.087644e-02 -5.588661e-02 2.565502e-01
<VARIANCE> 39
 4.083483e+01 1.828325e+01 3.954119e+01 3.507280e+01 3.570761e+01 3.667337e+01 5.202304e+01 2.782274e+01 2.496504e+01 2.725231e+01 2.223020e+01 1.820772e+01 2.474381e+01 2.071705e+00 2.424002e+00 1.681301e+00 1.485723e+00 2.059894e+00 2.225759e+00 2.400588e+00 1.921284e+00 1.924827e+00 1.733799e+00 1.528102e+00 1.280352e+00 1.041873e+00 3.632664e-01 4.311346e-01 3.061374e-01 3.615803e-01 4.458628e-01 4.402918e-01 5.055260e-01 4.294992e-01 4.450259e-01 3.697798e-01 3.342136e-01 2.865284e-01 1.769024e-01
<GCONST> 1.101222e+02
<STATE> 4
<MEAN> 39
 -1.562759e+01 3.237116e+00 -9.714094e-01 -1.150877e+00 -2.874026e+00 -7.575636e+00 -6.643796e+00 -2.775339e+00 -3.674188e+00 -3.683409e+00 -2.722821e+00 2.489286e-01 5.066525e+01 1.272852e+00 -9.600824e-01 5.846390e-01 -5.762413e-01 -1.162995e+00 -2.845767e-01 -1.049829e+00 -2.732754e-01 1.020629e-01 -3.248056e-02 2.514744e-01 -1.702385e-01 6.343014e-01 2.499991e-01 -1.270364e-01 7.091410e-02 -1.279588e-01 -1.854438e-01 2.104532e-01 -1.453508e-01 6.972094e-02 2.536798e-02 7.055639e-03 2.138227e-02 -1.773832e-01 7.017108e-02
<VARIANCE> 39
 4.744764e+01 6.136170e+01 4.626479e+01 4.418137e+01 3.241379e+01 4.536393e+01 5.241747e+01 3.462867e+01 3.283839e+01 2.741788e+01 2.353924e+01 2.217483e+01 1.846671e+02 4.710840e+00 4.526168e+00 2.939794e+00 3.258239e+00 4.564936e+00 2.839627e+00 4.497169e+00 3.319520e+00 3.165280e+00 2.346494e+00 1.968043e+00 1.813719e+00 2.473871e+00 5.026660e-01 4.344371e-01 4.255072e-01 4.531506e-01 5.625761e-01 5.871345e-01 6.320075e-01 6.066985e-01 4.949430e-01 4.468113e-01 3.678466e-01 3.757595e-01 2.195450e-01
<GCONST> 1.248826e+02
<TRANSP> 5
 0.000000e+00 1.000000e+00 0.000000e+00 0.000000e+00 0.000000e+00
 0.000000e+00 7.025067e-01 2.974933e-01 0.000000e+00 0.000000e+00
 0.000000e+00 0.000000e+00 8.331200e-01 1.668800e-01 0.000000e+00
 0.000000e+00 0.000000e+00 0.000000e+00 8.294241e-01 1.705759e-01
 0.000000e+00 0.000000e+00 0.000000e+00 0.000000e+00 0.000000e+00
<ENDHMM>
~h "ai"
<BEGINHMM>
<NUMSTATES> 5
<STATE> 2
<MEAN> 39
 -2.019072e+00 -1.498442e+01 -3.542105e+00 -1.252577e+01 -8.264312e+00 -2.493936e+00 -1.150605e+01 5.490839e+00 2.674010e+00 -6.053314e+00 -3.991247e+00 -1.085033e+01 7.369041e+01 -4.292727e-01 -5.672227e-01 1.089851e+00 1.524580e-01 -1.131293e+00 -1.288761e+00 1.000155e+00 1.633869e+00 -3.886160e-01 -7.253130e-01 -3.789122e-01 8.717721e-01 4.636489e-01 -1.742779e-01 6.433311e-01 4.178258e-01 1.970119e-01 -3.800848e-01 -1.785346e-01 4.619870e-02 -4.395202e-01 -5.345712e-01 2.957574e-01 4.284931e-01 4.892428e-01 -4.789265e-01
<VARIANCE> 39
 9.098084e+00 2.567638e+01 5.462635e+01 3.764554e+01 5.068132e+01 5.131901e+01 7.878139e+01 6.616891e+01 5.419294e+01 5.815864e+01 5.379491e+01 4.152008e+01 1.743706e+01 5.706558e-01 1.897270e+00 2.051130e+00 1.863110e+00 3.327192e+00 3.388283e+00 2.669154e+00 3.306306e+00 2.738883e+00 2.569645e+00 3.034887e+00 2.699870e+00 7.428228e-01 2.359474e-01 2.235501e-01 2.894329e-01 3.994754e-01 4.914013e-01 5.506629e-01 5.464143e-01 7.207083e-01 5.556314e-01 5.466205e-01 6.333372e-01 5.219772e-01 1.922092e-01
<GCONST> 1.182988e+02
<STATE> 3
<MEAN> 39
 -4.454229e+00 -1.090508e+01 7.788739e+00 -1.200228e+01 -2.026141e+01 -9.281667e+00 -9.066055e+00 7.259398e+00 -4.658461e+00 -1.528898e+00 1.943065e+00 -3.675408e+00 7.204997e+01 -4.272419e-01 1.357056e+00 1.943397e+00 1.417376e-02 -1.466793e+00 -2.456660e-01 -4.893895e-01 -1.362864e+00 -1.487922e+00 1.090840e+00 1.331026e+00 5.435157e-01 -5.699611e-01 5.267324e-02 1.679840e-01 -1.349577e-01 9.461673e-02 4.689835e-01 2.575782e-01 -2.953508e-01 -4.358412e-01 6.612048e-02 -8.249962e-02 -2.036187e-01 -2.407626e-01 -1.985863e-01
<VARIANCE> 39
 7.337946e+00 3.403898e+01 4.701460e+01 3.667442e+01 3.406799e+01 2.709720e+01 5.199387e+01 4.309418e+01 5.073139e+01 5.928443e+01 5.703871e+01 2.929812e+01 1.527202e+01 2.519603e-01 9.997476e-01 1.391450e+00 9.614580e-01 2.169773e+00 1.528780e+00 2.078609e+00 2.383002e+00 2.195194e+00 2.037629e+00 2.130420e+00 1.531600e+00 2.362463e-01 5.074086e-02 1.623207e-01 2.075905e-01 1.773908e-01 3.088315e-01 2.995203e-01 3.879619e-01 4.838936e-01 2.978557e-01 3.932418e-01 4.223698e-01 2.639086e-01 6.013304e-02
<GCONST> 1.009943e+02
<STATE> 4
<MEAN> 39
 -5.736957e+00 -2.096170e+00 1.344464e+01 -8.763466e+00 -2.039305e+01 -7.625780e+00 -1.270773e+01 -2.653066e+00 -9.272099e+00 -1.113845e-01 2.834208e+00 -4.438533e+00 6.344324e+01 2.105880e-01 9.358960e-01 -2.512570e-01 7.834866e-01 9.229532e-01 2.200360e-01 1.512733e-01 -6.275961e-01 4.048574e-02 -2.413335e-01 -6.000274e-01 -2.008652e-01 -1.733316e+00 4.861113e-02 -5.364982e-02 -4.102567e-01 1.054911e-01 3.191141e-01 6.891309e-02 2.260079e-01 1.764218e-01 2.635795e-01 -9.077893e-02 -1.783379e-01 -1.745594e-02 -1.655210e-01
<VARIANCE> 39
 1.641565e+01 5.447375e+01 5.284755e+01 3.843969e+01 3.485670e+01 4.183795e+01 5.668240e+01 6.989263e+01 5.604790e+01 6.690899e+01 5.874502e+01 3.439022e+01 8.289693e+01 1.036004e+00 2.043349e+00 2.650634e+00 2.146651e+00 2.574966e+00 2.271325e+00 3.177285e+00 3.237356e+00 2.795164e+00 2.453937e+00 2.249852e+00 1.825427e+00 2.785930e+00 2.025512e-01 3.288542e-01 3.670867e-01 3.452767e-01 5.305256e-01 4.424815e-01 5.509908e-01 5.536208e-01 5.447897e-01 4.816775e-01 4.611669e-01 3.457570e-01 3.950893e-01
<GCONST> 1.213522e+02
<TRANSP> 5
 0.000000e+00 1.000000e+00 0.000000e+00 0.000000e+00 0.000000e+00
 0.000000e+00 7.641122e-01 2.358878e-01 0.000000e+00 0.000000e+00
 0.000000e+00 0.000000e+00 7.824412e-01 2.175588e-01 0.000000e+00
 0.000000e+00 0.000000e+00 0.000000e+00 8.396318e-01 1.603682e-01
 0.000000e+00 0.000000e+00 0.000000e+00 0.000000e+00 0.000000e+00
<ENDHMM>
~h "au"
<BEGINHMM>
<NUMSTATES> 5
<STATE> 2
<MEAN> 39
 1.982332e-01 -1.126382e+01 -8.750677e+00 -1.963982e+01 -5.924922e+00 8.283703e+00 -1.565892e+01 -2.533164e+00 1.492252e+00 -1.472323e+00 9.698615e-01 -1.461134e+01 7.292211e+01 3.094226e-01 1.910155e-01 -9.433240e-02 -8.894880e-01 5.714920e-02 7.000952e-01 9.133633e-02 -3.115266e-01 -2.859062e-01 -4.067098e-01 1.082523e+00 -1.973256e-04 -2.225713e-01 7.914763e-02 4.450604e-01 1.761398e-01 7.251977e-03 -2.438379e-01 -2.128030e-01 2.314696e-02 -2.116078e-01 -3.388319e-01 8.462125e-02 2.061357e-01 6.070562e-01 -3.377385e-01
<VARIANCE> 39
 1.112877e+01 2.753329e+01 3.255438e+01 4.105519e+01 3.331998e+01 4.117510e+01 4.992830e+01 3.987918e+01 3.689658e+01 4.544916e+01 5.065393e+01 3.531993e+01 1.429454e+01 3.613150e-01 1.677292e+00 9.412975e-01 1.312428e+00 1.496145e+00 1.669131e+00 1.420836e+00 2.227169e+00 1.910668e+00 1.953201e+00 2.151639e+00 3.381299e+00 4.664236e-01 1.113552e-01 1.583991e-01 1.647041e-01 2.679495e-01 2.116515e-01 2.671628e-01 2.806960e-01 4.553772e-01 3.087584e-01 3.547850e-01 4.421221e-01 3.486923e-01 8.003396e-02
<GCONST> 1.026164e+02
<STATE> 3
<MEAN> 39
 4.372569e+00 -1.539740e+00 -7.004966e+00 -2.448153e+01 -1.131501e+01 8.282672e+00 -1.490195e+01 -4.001859e+00 -4.473277e+00 -3.609644e+00 5.879276e+00 -5.977687e+00 6.565017e+01 4.751503e-01 1.302659e+00 4.437459e-01 3.237065e-01 -5.507441e-01 -6.649126e-01 -1.874776e-01 1.762519e-02 -8.271394e-01 -1.490802e-01 -2.556488e-01 9.891700e-01 -1.275041e+00 -1.179606e-01 -9.676013e-02 3.041985e-02 5.228989e-01 1.998691e-01 -2.362280e-01 1.425100e-02 -2.424093e-02 1.714887e-01 1.399840e-01 -3.655816e-01 -2.436826e-01 -8.665224e-02
<VARIANCE> 39
 1.219503e+01 6.787212e+01 3.647650e+01 4.004369e+01 3.829810e+01 4.038911e+01 7.010168e+01 4.880349e+01 6.270187e+01 5.764596e+01 4.935464e+01 4.959151e+01 2.932828e+01 3.727811e-01 1.458660e+00 9.372971e-01 2.615267e+00 2.159205e+00 1.836853e+00 2.126124e+00 2.236417e+00 2.497272e+00 2.532751e+00 2.428662e+00 2.554440e+00 5.448577e-01 6.316908e-02 2.158612e-01 1.731036e-01 3.334276e-01 3.564319e-01 3.155960e-01 3.722424e-01 4.129641e-01 4.182494e-01 4.372330e-01 4.861687e-01 4.495879e-01 1.065670e-01
<GCONST> 1.101618e+02
<STATE> 4
<MEAN> 39
 -1.690599e+00 1.036217e+00 -4.160993e+00 -1.093420e+01 -8.563346e+00 -2.371428e-01 -9.842580e+00 -4.684762e+00 -5.711128e+00 -2.304443e+00 -9.345395e-01 -3.955626e+00 4.851163e+01 -4.603138e-01 4.851213e-02 2.071010e-01 1.416542e+00 3.607662e-01 -7.126533e-01 2.208149e-01 -3.468061e-01 1.139851e-01 2.334132e-01 -5.932670e-01 -4.457074e-02 -9.517708e-01 -1.045955e-01 -7.021648e-02 8.275951e-02 7.142684e-02 2.616661e-02 2.677901e-02 7.192674e-02 3.311149e-02 6.229881e-02 -6.486454e-02 -2.675528e-02 -5.957949e-02 7.144748e-02
<VARIANCE> 39
 6.892354e+01 5.013966e+01 3.898442e+01 8.631967e+01 4.548947e+01 4.737232e+01 9.963770e+01 4.233325e+01 4.409187e+01 4.843312e+01 4.277193e+01 3.423135e+01 1.432857e+02 9.954464e-01 1.854925e+00 2.116408e+00 4.332977e+00 3.167747e+00 3.079464e+00 3.368589e+00 3.005786e+00 3.009121e+00 2.853248e+00 2.869489e+00 2.718346e+00 1.942662e+00 1.863505e-01 3.245902e-01 3.324450e-01 5.170699e-01 5.963075e-01 4.847207e-01 6.280419e-01 5.790088e-01 5.549016e-01 5.854063e-01 4.775833e-01 5.452906e-01 2.330912e-01
<GCONST> 1.254345e+02
<TRANSP> 5
 0.000000e+00 1.000000e+00 0.000000e+00 0.000000e+00 0.000000e+00
 0.000000e+00 8.214057e-01 1.785943e-01 0.000000e+00 0.000000e+00
