~o
<STREAMINFO> 1 39
<VECSIZE> 39<NULLD><MFCC_D_A_0><DIAGC>
~s "silst"
<MEAN> 39
 -1.170877e+01 -1.929784e+00 -2.923787e+00 -1.453818e+00 -3.131498e+00 -2.916313e+00 -3.148798e+00 -1.914799e+00 -2.818956e+00 -2.675368e+00 -2.704577e+00 -7.834150e-01 3.692497e+01 -3.990505e-02 1.761759e-02 -1.811268e-02 -2.309580e-04 -3.080204e-02 -4.932003e-02 -2.540181e-02 4.790672e-04 -3.236711e-03 -1.313552e-02 1.123652e-02 1.063530e-02 -8.143791e-02 7.536144e-03 8.130576e-03 1.478148e-02 2.789963e-03 6.940134e-03 8.148341e-03 -1.432249e-03 5.557028e-05 8.054786e-04 3.301520e-03 -9.296799e-04 -4.712598e-03 1.322856e-02
<VARIANCE> 39
 1.412849e+01 3.444164e+01 1.899140e+01 2.363039e+01 2.270921e+01 2.655305e+01 2.837267e+01 3.418794e+01 2.873832e+01 2.802759e+01 2.284808e+01 2.181223e+01 3.589235e+01 8.357404e-01 1.537423e+00 1.380908e+00 1.818184e+00 1.834067e+00 1.969212e+00 2.030262e+00 2.472562e+00 2.159311e+00 2.163316e+00 1.833681e+00 1.774743e+00 1.182162e+00 1.607827e-01 2.891200e-01 2.662340e-01 3.624339e-01 3.653225e-01 3.861522e-01 4.106183e-01 4.927657e-01 4.381441e-01 4.346269e-01 3.711551e-01 3.574429e-01 2.112058e-01
<GCONST> 1.064948e+02
~h "@"
<BEGINHMM>
<NUMSTATES> 5
<STATE> 2
<MEAN> 39
 -2.504604e+00 -4.811163e+00 -1.955074e-01 -9.104706e+00 -8.635937e+00 -3.758942e+00 -1.455727e+01 -2.745779e+00 -1.909220e+00 2.533109e-01 -3.136061e-01 -6.298183e+00 6.365815e+01 1.764844e+00 -8.541558e-01 4.639758e-01 -1.240902e+00 -8.330063e-01 5.648218e-01 -1.316729e+00 6.456735e-01 4.399261e-01 6.854294e-01 6.442822e-01 -8.648545e-01 1.621439e+00 -4.142283e-01 3.147682e-01 5.614124e-02 5.223982e-01 1.804421e-01 8.928160e-02 5.394034e-01 -2.311231e-01 -2.169463e-01 -1.881254e-01 -1.790209e-01 2.030068e-01 -8.344024e-01
<VARIANCE> 39
 3.447097e+01 4.472007e+01 5.120859e+01 7.155468e+01 5.513152e+01 7.457407e+01 8.872765e+01 7.005547e+01 6.747897e+01 4.973204e+01 5.216449e+01 4.296618e+01 1.243967e+02 5.626270e+00 4.004091e+00 5.812105e+00 5.618117e+00 5.542430e+00 5.385074e+00 6.515119e+00 7.236355e+00 7.108219e+00 4.603625e+00 4.850430e+00 3.905197e+00 7.155000e+00 8.540139e-01 7.298964e-01 9.272722e-01 1.032785e+00 8.255851e-01 9.086460e-01 1.189492e+00 1.101775e+00 9.473044e-01 7.901269e-01 8.660428e-01 7.096086e-01 1.609041e+00
<GCONST> 1.463507e+02
<STATE> 3
<MEAN> 39
 -6.519912e-01 -6.181431e+00 5.929893e-01 -1.047651e+01 -9.972475e+00 -2.955105e+00 -1.590047e+01 -1.740407e+00 -1.531121e+00 8.711980e-01 7.349055e-01 -7.127563e+00 6.671457e+01 6.765260e-01 8.675879e-02 3.461186e-01 1.883858e-01 -1.862796e-01 4.108124e-01 8.673777e-02 -8.617985e-02 1.674891e-03 7.860824e-02 1.160641e-01 -2.206645e-01 -2.789380e-01 -5.202851e-01 5.295912e-01 5.802218e-02 7.733991e-01 3.020897e-01 -1.016284e-01 6.440774e-01 -4.362844e-01 -2.543040e-01 -2.986483e-01 -3.649300e-01 3.116315e-01 -9.460236e-01
<VARIANCE> 39
 2.151699e+01 4.759700e+01 5.770087e+01 7.910336e+01 5.995402e+01 7.332468e+01 8.799883e+01 8.361116e+01 8.809396e+01 5.713508e+01 5.661911e+01 4.629209e+01 6.880145e+01 2.241906e+00 3.671405e+00 3.231809e+00 4.907217e+00 4.094941e+00 4.658169e+00 4.946605e+00 5.741805e+00 5.658085e+00 3.958176e+00 3.972358e+00 3.131689e+00 5.769524e+00 6.538389e-01 6.729033e-01 9.492925e-01 1.106688e+00 8.616289e-01 8.562526e-01 1.109838e+00 1.326819e+00 1.167169e+00 8.739448e-01 9.157425e-01 7.586930e-01 8.764604e-01
<GCONST> 1.423371e+02
<STATE> 4
<MEAN> 39
 -1.626031e+00 -4.011089e+00 1.042989e+00 -8.359601e+00 -1.019658e+01 -4.112263e+00 -1.400008e+01 -2.800030e+00 -1.804011e+00 7.000222e-01 -3.303068e-01 -6.133068e+00 6.203003e+01 8.484393e-02 6.515511e-01 3.000968e-01 8.215695e-01 1.465380e-01 1.365051e-01 6.047577e-01 -4.965013e-01 -1.911872e-01 -2.640212e-01 -3.402619e-01 8.313452e-02 -1.110748e+00 -2.576038e-01 1.731693e-01 4.071875e-02 2.650848e-01 9.060402e-02 -7.739688e-02 1.922677e-01 -1.503593e-01 -8.460881e-02 -1.234954e-01 -1.534929e-01 1.426978e-01 -2.525125e-01
<VARIANCE> 39
 2.871820e+01 5.646224e+01 6.608399e+01 7.737943e+01 6.753792e+01 6.497747e+01 9.533450e+01 7.622054e+01 8.694022e+01 5.882016e+01 5.282307e+01 4.541734e+01 1.395985e+02 1.475123e+00 3.107420e+00 2.650489e+00 4.235059e+00 3.140218e+00 3.430395e+00 3.949403e+00 4.274987e+00 4.152941e+00 3.323087e+00 3.127180e+00 2.642885e+00 5.281134e+00 4.196613e-01 5.479230e-01 5.676522e-01 7.706758e-01 6.799545e-01 6.210900e-01 7.633034e-01 9.877428e-01 8.339410e-01 6.367046e-01 6.589815e-01 5.606638e-01 7.562464e-01
<GCONST> 1.363427e+02
<TRANSP> 5
 0.000000e+00 1.000000e+00 0.000000e+00 0.000000e+00 0.000000e+00
 0.000000e+00 3.277821e-01 6.722180e-01 0.000000e+00 0.000000e+00
 0.000000e+00 0.000000e+00 2.525864e-01 7.474136e-01 0.000000e+00
 0.000000e+00 0.000000e+00 0.000000e+00 4.784452e-01 5.215548e-01
 0.000000e+00 0.000000e+00 0.000000e+00 0.000000e+00 0.000000e+00
<ENDHMM>
~h "a"
<BEGINHMM>
<NUMSTATES> 5
<STATE> 2
<MEAN> 39
 -1.564668e+00 -1.333496e+01 -4.732665e+00 -1.362434e+01 -6.837140e+00 8.427529e-01 -1.148046e+01 2.760623e+00 1.210633e+00 -3.243579e+00 -3.751134e+00 -1.163087e+01 7.055535e+01 3.792902e-01 -1.744426e+00 -7.631608e-01 -7.258186e-01 9.979652e-01 9.631273e-01 3.886309e-01 8.263839e-01 4.391266e-01 -7.260309e-01 -8.878805e-01 -1.330286e+00 1.273548e+00 -2.936222e-01 5.332140e-01 3.011493e-01 5.247602e-01 8.892697e-02 -2.879944e-01 9.525101e-02 -4.860840e-01 -3.396712e-01 2.100691e-02 6.529513e-02 5.088164e-01 -6.626396e-01
<VARIANCE> 39
 1.828516e+01 3.881059e+01 4.679941e+01 5.194261e+01 5.584490e+01 6.678743e+01 5.797413e+01 7.340842e+01 6.338709e+01 5.564990e+01 5.964727e+01 4.673662e+01 7.248920e+01 1.942888e+00 2.662209e+00 2.853426e+00 3.248916e+00 3.457135e+00 4.020704e+00 3.790063e+00 4.919446e+00 3.342708e+00 3.471320e+00 3.786428e+00 3.288839e+00 3.614056e+00 4.577978e-01 4.887353e-01 4.752469e-01 5.964667e-01 6.017278e-01 6.848850e-01 6.790152e-01 8.522232e-01 6.306694e-01 6.263140e-01 7.501526e-01 5.981388e-01 7.148713e-01
<GCONST> 1.324313e+02
<STATE> 3
<MEAN> 39
 -1.124722e+00 -1.577992e+01 -5.507677e+00 -1.397241e+01 -4.544868e+00 2.274270e+00 -1.081135e+01 3.025971e+00 1.378899e+00 -4.940584e+00 -4.917351e+00 -1.346488e+01 7.238605e+01 9.586507e-02 2.744593e-01 9.723780e-02 2.761987e-01 2.793949e-01 -2.854256e-01 1.608738e-01 -4.731024e-02 -1.915590e-01 4.301809e-02 -2.318553e-01 1.929672e-01 -4.949983e-01 5.233586e-03 6.230254e-01 2.629494e-01 2.932774e-01 -2.506434e-01 -2.623898e-01 -9.850161e-02 -2.606226e-01 -1.584151e-01 2.612942e-01 1.889080e-01 3.868385e-01 -5.505894e-01
<VARIANCE> 39
 1.076361e+01 3.143528e+01 4.091896e+01 4.538829e+01 4.572761e+01 5.296261e+01 5.230897e+01 6.415708e+01 5.797544e+01 5.382361e+01 5.447027e+01 4.279433e+01 3.528300e+01 5.789781e-01 1.866089e+00 1.455779e+00 1.699009e+00 2.187322e+00 3.109395e+00 2.242658e+00 3.066241e+00 2.026991e+00 2.597080e+00 2.589956e+00 2.196163e+00 1.799712e+00 1.395562e-01 2.939190e-01 2.706185e-01 3.621098e-01 3.661813e-01 4.072335e-01 4.671926e-01 5.906962e-01 4.355755e-01 4.647831e-01 4.902989e-01 4.135673e-01 2.533436e-01
<GCONST> 1.158442e+02
<STATE> 4
<MEAN> 39
 -2.713203e+00 -1.011759e+01 -5.977381e+00 -9.852813e+00 -3.785226e+00 -3.969633e-01 -9.047564e+00 1.032173e+00 -4.939222e-01 -4.360261e+00 -6.194164e+00 -9.370121e+00 6.173884e+01 -2.489042e-02 1.087530e+00 4.435009e-01 6.989154e-01 -2.364286e-01 -4.446170e-01 5.734146e-02 -4.734016e-01 -3.249452e-01 3.153762e-01 8.802248e-02 5.789154e-01 -1.472279e+00 -5.341574e-02 1.804224e-01 1.587238e-01 1.346432e-01 -7.131695e-02 6.098181e-04 -3.718460e-02 -1.675560e-01 -5.546616e-02 4.028406e-02 8.440547e-02 7.212573e-02 -1.417310e-01
<VARIANCE> 39
 2.823335e+01 4.907373e+01 4.720074e+01 5.996695e+01 5.237392e+01 5.277602e+01 5.964264e+01 5.656220e+01 5.140716e+01 5.066806e+01 4.712508e+01 5.137047e+01 1.869372e+02 8.800437e-01 2.327750e+00 1.835166e+00 2.411214e+00 2.469636e+00 2.429398e+00 2.571624e+00 2.989007e+00 2.420342e+00 2.509273e+00 2.408187e+00 2.207104e+00 2.900529e+00 1.741278e-01 3.690337e-01 3.021158e-01 4.150955e-01 4.053333e-01 4.136126e-01 4.630235e-01 5.649061e-01 4.375743e-01 4.842622e-01 4.566653e-01 3.860354e-01 4.304247e-01
<GCONST> 1.222918e+02
<TRANSP> 5
 0.000000e+00 1.000000e+00 0.000000e+00 0.000000e+00 0.000000e+00
 0.000000e+00 5.800417e-01 4.199583e-01 0.000000e+00 0.000000e+00
 0.000000e+00 0.000000e+00 6.627665e-01 3.372335e-01 0.000000e+00
 0.000000e+00 0.000000e+00 0.000000e+00 7.509009e-01 2.490991e-01
 0.000000e+00 0.000000e+00 0.000000e+00 0.000000e+00 0.000000e+00
<ENDHMM>
~h "b"
<BEGINHMM>
<NUMSTATES> 5
<STATE> 2
<MEAN> 39
 3.632448e+00 6.473616e+00 4.042485e+00 -2.757024e+00 -4.882541e+00 1.992642e+00 -7.310469e+00 -7.838759e+00 -8.035547e+00 -2.930695e+00 -2.399197e+00 -7.289402e+00 4.782018e+01 7.617563e-01 1.379558e+00 3.392312e-01 3.334925e-01 5.751798e-01 3.923754e-01 7.622222e-01 -3.386267e-01 -2.413501e-01 -4.764264e-02 -3.427627e-01 -9.395755e-02 -1.029966e+00 -3.554658e-01 -5.113682e-01 -2.189933e-01 -3.040078e-01 -2.181470e-01 -1.891077e-01 -3.204952e-01 1.325399e-01 2.159810e-01 5.178768e-02 1.912023e-01 1.395030e-01 7.244107e-01
<VARIANCE> 39
 4.982984e+01 4.174858e+01 3.199433e+01 3.792619e+01 2.988747e+01 3.982795e+01 5.657325e+01 4.321027e+01 5.620687e+01 3.466514e+01 4.549316e+01 3.451982e+01 6.189771e+01 2.387169e+00 3.196311e+00 2.843251e+00 3.478498e+00 2.724361e+00 2.567531e+00 3.402063e+00 3.515069e+00 3.584047e+00 2.722402e+00 3.016147e+00 2.513430e+00 5.842773e+00 3.925479e-01 5.789608e-01 4.611420e-01 5.673326e-01 5.081565e-01 4.783673e-01 6.557318e-01 6.518336e-01 7.126080e-01 5.140198e-01 6.224276e-01 4.889113e-01 6.795222e-01
<GCONST> 1.275136e+02
<STATE> 3
<MEAN> 39
 4.821566e+00 7.298965e+00 3.797932e+00 -3.712282e+00 -4.524772e+00 2.988200e+00 -7.424786e+00 -8.966867e+00 -7.837970e+00 -2.711328e+00 -1.506216e+00 -6.358376e+00 5.061477e+01 -1.115382e+00 -2.003373e+00 -1.391845e+00 -1.188379e+00 -5.073713e-01 -6.562580e-01 -1.627621e+00 2.117124e-01 1.321685e+00 5.221198e-01 1.335364e+00 6.679058e-01 3.115012e+00 -4.251051e-01 -1.002011e+00 -2.513819e-01 -4.343595e-01 -6.120156e-01 -1.616532e-01 -7.047539e-01 3.501468e-01 4.382373e-01 1.582912e-01 2.594391e-01 -1.823800e-01 1.227509e+00
<VARIANCE> 39
 2.691211e+01 3.503057e+01 2.718558e+01 3.593089e+01 2.808706e+01 3.990137e+01 4.862514e+01 4.007346e+01 5.068523e+01 3.735656e+01 4.850560e+01 3.855385e+01 5.326050e+01 2.332723e+00 4.892469e+00 4.096653e+00 6.967748e+00 4.071949e+00 3.960439e+00 5.646823e+00 4.895730e+00 6.114287e+00 4.485613e+00 5.305331e+00 4.091657e+00 7.382678e+00 4.333899e-01 6.181210e-01 7.289736e-01 8.858648e-01 7.700297e-01 7.438218e-01 8.407259e-01 1.055187e+00 1.122841e+00 8.857199e-01 1.006186e+00 1.047661e+00 9.566383e-01
<GCONST> 1.369077e+02
<STATE> 4
<MEAN> 39
 1.030430e+00 -5.326735e-01 -5.369225e-01 -7.733177e+00 -7.543583e+00 5.816643e-01 -1.406395e+01 -7.431346e+00 -2.926082e+00 1.234649e-01 2.116277e+00 -5.941184e+00 6.116425e+01 -1.188519e+00 -2.795188e+00 -8.968422e-01 -1.325441e+00 -1.489694e+00 -6.333020e-01 -1.868195e+00 1.241383e+00 1.569763e+00 4.187593e-01 6.088939e-01 -4.177771e-01 3.731958e+00 1.191106e-01 2.344415e-01 4.451367e-01 1.789804e-01 -8.912515e-02 1.555532e-01 3.864416e-01 2.092688e-01 -2.984658e-01 -3.831161e-01 -4.760469e-01 -2.557930e-01 -4.094961e-01
<VARIANCE> 39
 2.411520e+01 5.799472e+01 4.395657e+01 1.029858e+02 3.856400e+01 5.447874e+01 6.870022e+01 4.462867e+01 5.794664e+01 4.976152e+01 6.172233e+01 4.177678e+01 9.878064e+01 2.390431e+00 5.100720e+00 5.871050e+00 8.919445e+00 5.771147e+00 5.552689e+00 5.736669e+00 6.890133e+00 8.642365e+00 6.429920e+00 5.780520e+00 7.781624e+00 6.438765e+00 3.743708e-01 7.471976e-01 5.999140e-01 1.529062e+00 1.164938e+00 8.515355e-01 1.236169e+00 9.980237e-01 9.746606e-01 9.713815e-01 1.403181e+00 8.547349e-01 1.277073e+00
<GCONST> 1.459339e+02
<TRANSP> 5
 0.000000e+00 1.000000e+00 0.000000e+00 0.000000e+00 0.000000e+00
 0.000000e+00 7.555145e-01 2.444855e-01 0.000000e+00 0.000000e+00
 0.000000e+00 0.000000e+00 5.086217e-01 4.913783e-01 0.000000e+00
 0.000000e+00 0.000000e+00 0.000000e+00 4.764816e-01 5.235184e-01
 0.000000e+00 0.000000e+00 0.000000e+00 0.000000e+00 0.000000e+00
<ENDHMM>
~h "c"
<BEGINHMM>
<NUMSTATES> 5
<STATE> 2
<MEAN> 39
 -9.007985e+00 2.379613e+00 2.369256e+00 -2.789585e+00 -5.800646e+00 -6.960750e+00 -6.677518e+00 -2.954289e+00 -3.582501e+00 -3.177112e+00 -3.510799e+00 -2.648407e+00 4.760089e+01 -1.669786e+00 -5.141937e-02 -7.590932e-01 -2.468716e-01 6.533985e-01 1.695989e-02 4.812295e-01 -2.492838e-01 1.504909e-01 6.147822e-02 9.516291e-02 1.530294e-01 -9.794966e-01 -4.019690e-01 -3.673200e-01 -1.859496e-01 -3.748143e-01 -9.234431e-02 1.062964e-01 -1.149567e-01 2.151038e-02 -1.037773e-03 4.567682e-02 1.499510e-01 5.565634e-02 9.158239e-01
<VARIANCE> 39
 4.558437e+01 5.009811e+01 4.297284e+01 3.622429e+01 4.474347e+01 4.983931e+01 5.356918e+01 4.587530e+01 4.261145e+01 3.273429e+01 3.182044e+01 2.882086e+01 1.304140e+02 5.360465e+00 6.139092e+00 3.957825e+00 4.055520e+00 4.383098e+00 3.489013e+00 4.164097e+00 3.660851e+00 3.620733e+00 3.134357e+00 2.763106e+00 3.164751e+00 1.459656e+01 8.700696e-01 9.458896e-01 6.827987e-01 6.410000e-01 9.067038e-01 7.326959e-01 7.915531e-01 6.542541e-01 6.591228e-01 6.050271e-01 5.111433e-01 7.003441e-01 2.158046e+00
<GCONST> 1.369441e+02
<STATE> 3
<MEAN> 39
 -2.411223e+01 7.674066e-02 -2.380370e+00 -8.599212e+00 -3.559958e+00 -6.032147e+00 -5.379496e+00 -4.258996e+00 -3.138186e+00 -2.155259e+00 -9.499739e-01 -2.360378e-01 5.872454e+01 -1.490334e+00 -1.776509e-01 4.248413e-01 -8.610631e-01 -9.599880e-01 -9.495737e-02 -7.858492e-02 3.181860e-01 3.563442e-02 -1.360821e-01 5.430816e-01 5.948268e-01 3.776089e+00 1.828771e+00 -2.767344e-03 7.317576e-01 4.984108e-01 -6.780564e-01 -2.246130e-01 -3.722028e-01 2.743205e-01 5.612116e-02 -1.590682e-01 -2.032570e-01 -2.846454e-01 -2.991273e-01
<VARIANCE> 39
 4.825097e+01 3.407335e+01 3.786251e+01 3.632547e+01 3.220832e+01 3.880119e+01 3.900695e+01 2.545275e+01 2.700751e+01 2.213798e+01 2.624655e+01 1.721052e+01 6.483798e+01 1.463868e+01 4.202764e+00 6.217162e+00 4.540333e+00 5.280861e+00 4.157591e+00 3.813967e+00 3.667613e+00 3.462310e+00 2.731184e+00 2.637112e+00 2.137482e+00 7.976708e+00 1.898543e+00 1.165385e+00 1.031570e+00 7.596043e-01 9.613639e-01 7.977884e-01 8.250090e-01 8.285027e-01 8.098096e-01 5.825784e-01 6.360480e-01 5.197619e-01 1.382025e+00
<GCONST> 1.346275e+02
<STATE> 4
<MEAN> 39
 -1.320557e+01 -2.954848e+00 3.657821e+00 -7.825947e+00 -1.077190e+01 -9.029824e+00 -8.802686e+00 -3.321841e-01 -1.903582e+00 -3.726080e+00 -1.844692e+00 -5.181561e-01 6.706595e+01 4.926885e+00 -2.124517e+00 9.504215e-01 9.705320e-03 -1.571161e+00 -2.210260e-01 -1.544982e+00 1.318009e+00 4.848244e-01 -1.286812e-02 -5.608001e-01 -1.172785e+00 1.932126e+00 1.127602e-01 -2.658180e-01 -5.719056e-01 -2.590110e-01 5.424259e-01 5.826635e-01 2.797785e-02 -1.824937e-01 -1.019330e-01 2.327038e-01 2.497690e-02 -4.515553e-01 -5.358743e-01
<VARIANCE> 39
 1.046289e+02 4.786508e+01 4.086532e+01 3.919490e+01 4.246260e+01 3.364966e+01 5.069447e+01 4.683404e+01 4.842757e+01 2.842318e+01 3.507669e+01 2.251190e+01 4.343191e+01 6.097483e+00 6.495747e+00 6.759830e+00 4.633391e+00 5.480153e+00 5.017205e+00 5.230565e+00 7.115965e+00 5.478481e+00 4.016955e+00 4.243403e+00 3.004826e+00 2.297840e+00 2.963244e+00 9.252893e-01 8.865750e-01 8.519303e-01 9.945858e-01 9.025326e-01 1.072045e+00 9.649085e-01 7.923143e-01 5.866815e-01 7.263131e-01 4.516489e-01 5.235624e-01
<GCONST> 1.389311e+02
<TRANSP> 5
 0.000000e+00 1.000000e+00 0.000000e+00 0.000000e+00 0.000000e+00
 0.000000e+00 8.355476e-01 1.644524e-01 0.000000e+00 0.000000e+00
 0.000000e+00 0.000000e+00 7.166716e-01 2.833284e-01 0.000000e+00
 0.000000e+00 0.000000e+00 0.000000e+00 6.731826e-01 3.268174e-01
 0.000000e+00 0.000000e+00 0.000000e+00 0.000000e+00 0.000000e+00
<ENDHMM>
~h "d"
<BEGINHMM>
<NUMSTATES> 5
<STATE> 2
<MEAN> 39
 1.180893e+00 2.034320e+00 6.737029e+00 1.713706e+00 -7.940851e+00 -4.840991e+00 -1.023153e+01 -1.665292e+00 -1.532185e+00 -4.606969e+00 -5.562480e+00 -5.406721e+00 5.032334e+01 6.889015e-01 9.724423e-01 8.452831e-01 8.634575e-01 5.421968e-01 -3.510848e-01 6.752961e-02 1.943703e-01 1.654352e-01 -3.373828e-01 -3.857341e-01 8.818036e-02 -8.070896e-01 -4.197629e-01 -5.382755e-01 -9.180281e-02 -5.286378e-01 -1.827003e-01 5.123895e-02 -1.374872e-01 3.930028e-02 -1.484040e-01 2.883955e-03 3.364805e-01 1.637844e-01 7.946140e-01
<VARIANCE> 39
 4.940736e+01 6.261073e+01 4.676450e+01 4.318272e+01 5.802474e+01 3.202453e+01 6.881420e+01 7.303035e+01 5.216779e+01 4.263725e+01 4.411255e+01 3.752068e+01 1.056157e+02 3.644262e+00 5.129266e+00 3.172196e+00 4.350447e+00 4.533533e+00 3.032279e+00 4.408611e+00 5.753901e+00 4.131002e+00 3.432644e+00 3.853649e+00 3.042906e+00 9.054583e+00 6.818478e-01 9.076592e-01 5.013278e-01 7.309281e-01 1.081765e+00 6.179103e-01 8.664439e-01 1.123819e+00 8.316455e-01 6.838245e-01 8.484294e-01 6.488517e-01 1.368266e+00
<GCONST> 1.391161e+02
<STATE> 3
<MEAN> 39
 3.936752e-01 7.800962e-01 9.079825e+00 9.366692e-01 -8.194455e+00 -5.776749e+00 -1.188354e+01 -1.050890e+00 -1.682556e+00 -5.491472e+00 -4.338946e+00 -3.409340e+00 5.517035e+01 -1.735880e+00 -2.424118e+00 4.771599e-02 -1.958810e+00 -1.400076e+00 -3.196521e-01 -1.202039e+00 7.391300e-01 -3.751961e-01 -4.407825e-02 1.759491e+00 1.071805e+00 3.900788e+00 -1.981105e-01 -4.285041e-01 -2.389452e-01 -5.286125e-01 -6.793818e-01 9.606104e-02 -2.327449e-01 3.744053e-02 -5.880160e-02 1.526074e-01 3.662279e-01 -2.348745e-01 8.191116e-01
<VARIANCE> 39
 3.800522e+01 5.052345e+01 3.692354e+01 4.557571e+01 5.310108e+01 4.027818e+01 7.202766e+01 6.003119e+01 5.081825e+01 3.712914e+01 4.347621e+01 3.446877e+01 8.878328e+01 3.378211e+00 4.846063e+00 4.605086e+00 5.359352e+00 7.714837e+00 4.282157e+00 5.881984e+00 1.039953e+01 7.081141e+00 4.691776e+00 5.206590e+00 3.724599e+00 8.226684e+00 8.700776e-01 9.779474e-01 6.542465e-01 9.067616e-01 1.506736e+00 8.630567e-01 1.249211e+00 1.722811e+00 1.196368e+00 8.448126e-01 1.196210e+00 8.777398e-01 1.744654e+00
<GCONST> 1.451964e+02
<STATE> 4
<MEAN> 39
 -3.158708e+00 -5.864415e+00 7.781837e+00 -5.398611e+00 -1.520215e+01 -7.214731e+00 -1.558446e+01 2.494215e+00 -1.692997e+00 -4.394621e+00 8.189387e-01 -2.341640e+00 6.642979e+01 -7.018311e-01 -1.510980e+00 -7.406229e-01 -1.752262e+00 -1.380968e+00 1.416289e-01 -3.396958e-01 8.397889e-01 1.645917e-01 1.971052e-01 7.420768e-01 -6.370481e-01 2.727347e+00 3.804369e-01 5.596045e-01 -1.220674e-01 3.407395e-01 5.268071e-01 3.813582e-01 4.595000e-01 -3.963545e-01 -2.857715e-02 -1.755011e-02 -5.693220e-01 -5.147018e-01 -8.497445e-01
<VARIANCE> 39
 1.971992e+01 4.936523e+01 5.740417e+01 5.318705e+01 7.494361e+01 3.872449e+01 8.456481e+01 9.252845e+01 7.851298e+01 4.329620e+01 5.000177e+01 2.776528e+01 8.519946e+01 3.007436e+00 3.813118e+00 5.650817e+00 4.569622e+00 7.746697e+00 3.867071e+00 6.872253e+00 1.040535e+01 6.996446e+00 4.300649e+00 6.863405e+00 4.016180e+00 6.583766e+00 3.712992e-01 5.370770e-01 4.627904e-01 7.093742e-01 1.707725e+00 6.928369e-01 1.334188e+00 1.341220e+00 9.329314e-01 7.396752e-01 1.002279e+00 6.718459e-01 9.691556e-01
<GCONST> 1.425242e+02
<TRANSP> 5
 0.000000e+00 1.000000e+00 0.000000e+00 0.000000e+00 0.000000e+00
 0.000000e+00 7.335482e-01 2.664518e-01 0.000000e+00 0.000000e+00
 0.000000e+00 0.000000e+00 5.605807e-01 4.394193e-01 0.000000e+00
 0.000000e+00 0.000000e+00 0.000000e+00 4.691405e-01 5.308595e-01
 0.000000e+00 0.000000e+00 0.000000e+00 0.000000e+00 0.000000e+00
<ENDHMM>
~h "e"
<BEGINHMM>
<NUMSTATES> 5
<STATE> 2
<MEAN> 39
 -4.183087e+00 -9.701910e+00 5.277819e+00 -7.533834e+00 -1.668373e+01 -7.710679e+00 -9.787334e+00 2.586375e+00 -2.789515e+00 -2.449257e+00 1.113798e+00 -4.989748e+00 6.550211e+01 3.042878e-02 -1.082566e+00 9.152849e-01 -7.386556e-01 -1.470063e+00 -2.058500e-01 5.428434e-01 1.215049e+00 -3.737070e-01 -1.239022e-01 4.510335e-01 -1.186518e-01 1.707768e+00 -1.104645e-01 4.432119e-01 -1.359883e-01 1.545479e-01 4.093350e-01 1.723873e-01 2.304414e-01 -4.257551e-01 -7.594839e-02 7.229522e-02 -1.382639e-01 2.354401e-02 -5.314094e-01
<VARIANCE> 39
 2.784620e+01 6.014526e+01 6.906403e+01 4.942589e+01 7.185682e+01 4.640396e+01 8.779343e+01 7.922807e+01 8.220216e+01 7.032967e+01 5.934533e+01 3.749957e+01 1.397919e+02 2.167742e+00 3.806911e+00 3.312428e+00 3.658754e+00 5.489276e+00 3.461715e+00 4.770463e+00 6.244967e+00 4.584794e+00 4.758934e+00 4.081398e+00 2.452573e+00 9.051556e+00 5.132164e-01 7.032215e-01 5.355377e-01 6.024657e-01 9.473911e-01 6.303505e-01 8.548424e-01 1.097973e+00 8.530557e-01 8.186728e-01 7.384235e-01 4.819005e-01 1.730389e+00
<GCONST> 1.404660e+02
<STATE> 3
<MEAN> 39
 -3.775746e+00 -1.134713e+01 7.499955e+00 -9.227302e+00 -1.933418e+01 -7.700210e+00 -8.773775e+00 4.119594e+00 -3.564584e+00 -2.972682e+00 2.447892e+00 -5.815293e+00 6.963846e+01 -2.437683e-02 2.454568e-01 5.837839e-02 9.315611e-02 9.943749e-02 -8.929944e-02 3.535090e-01 -1.252137e-01 -1.226489e-01 1.153224e-01 -1.733940e-01 -4.877678e-02 -3.025364e-01 3.755274e-02 3.335791e-01 -2.217053e-01 2.614564e-01 4.214154e-01 2.950715e-02 -7.228785e-02 -3.128906e-01 8.297098e-02 1.325099e-02 -2.057668e-01 3.305684e-02 -5.177460e-01
<VARIANCE> 39
 1.674923e+01 5.491090e+01 6.142208e+01 4.438258e+01 6.022432e+01 4.429075e+01 8.193639e+01 8.666852e+01 8.879078e+01 8.182860e+01 6.250649e+01 3.333182e+01 6.033459e+01 8.082163e-01 1.752671e+00 1.670380e+00 2.162741e+00 2.624943e+00 2.037960e+00 2.802303e+00 3.106172e+00 2.556843e+00 2.551524e+00 2.329820e+00 1.600709e+00 3.556723e+00 1.869170e-01 3.407820e-01 3.114047e-01 3.686282e-01 5.169906e-01 3.923270e-01 5.883697e-01 6.686163e-01 5.327595e-01 5.438011e-01 4.553376e-01 3.196461e-01 4.839069e-01
<GCONST> 1.223969e+02
<STATE> 4
<MEAN> 39
 -6.208527e+00 -6.420622e+00 5.040440e+00 -6.935075e+00 -1.543962e+01 -7.181421e+00 -7.043809e+00 6.809946e-03 -4.658257e+00 -1.832038e+00 -3.138776e-01 -4.312916e+00 5.834225e+01 5.440908e-02 4.340153e-01 -2.647818e-01 3.365994e-01 5.031350e-01 5.315646e-02 -2.566261e-02 -3.123711e-01 1.054068e-01 -2.662850e-02 -2.919976e-01 -2.119151e-03 -7.364285e-01 6.173897e-03 7.526126e-02 -3.867946e-02 6.763191e-02 1.245092e-01 5.553480e-02 -4.944981e-02 -8.335512e-02 1.782349e-02 -4.783936e-04 -5.771156e-03 -1.308145e-03 -7.959856e-02
<VARIANCE> 39
 2.865795e+01 6.237336e+01 7.632473e+01 4.995767e+01 8.482450e+01 4.826905e+01 6.310283e+01 7.204009e+01 5.837712e+01 5.946063e+01 5.180379e+01 3.424736e+01 2.450951e+02 7.411935e-01 1.487107e+00 1.356361e+00 1.596573e+00 2.260138e+00 1.733446e+00 2.376695e+00 2.325894e+00 1.894733e+00 2.036939e+00 1.809543e+00 1.478127e+00 2.332318e+00 1.421616e-01 2.530310e-01 2.213639e-01 2.845318e-01 3.713084e-01 3.323637e-01 4.252897e-01 4.575943e-01 3.689163e-01 3.751656e-01 3.299456e-01 2.729484e-01 3.113315e-01
<GCONST> 1.170422e+02
<TRANSP> 5
 0.000000e+00 1.000000e+00 0.000000e+00 0.000000e+00 0.000000e+00
 0.000000e+00 6.109492e-01 3.890509e-01 0.000000e+00 0.000000e+00
 0.000000e+00 0.000000e+00 6.009118e-01 3.990882e-01 0.000000e+00
 0.000000e+00 0.000000e+00 0.000000e+00 8.560557e-01 1.439443e-01
 0.000000e+00 0.000000e+00 0.000000e+00 0.000000e+00 0.000000e+00
<ENDHMM>
~h "f"
<BEGINHMM>
<NUMSTATES> 5
<STATE> 2
<MEAN> 39
 -9.507207e+00 -2.126701e-01 -1.168407e+00 -9.653075e-01 -4.393960e+00 -2.351005e+00 -7.284347e+00 -4.059804e+00 -3.558955e+00 -2.067737e+00 -3.151208e+00 -2.712169e+00 5.798105e+01 -3.329780e+00 5.396083e-02 -4.675156e-01 1.443707e+00 9.976273e-01 -1.624875e-01 6.350778e-01 4.177687e-01 8.394684e-01 -2.897152e-02 -1.553884e-01 4.683136e-01 -1.045523e+00 -1.871792e-01 -5.349575e-01 -4.729124e-02 -4.458414e-01 -5.462121e-01 -6.981047e-02 -2.933383e-01 4.858676e-02 -6.105410e-02 6.683180e-02 2.266718e-01 -1.069861e-01 2.006942e-01
<VARIANCE> 39
 5.936586e+01 2.606633e+01 3.517383e+01 4.827476e+01 3.725142e+01 5.255938e+01 5.488559e+01 3.789160e+01 3.789941e+01 2.910636e+01 3.070868e+01 2.437407e+01 9.011192e+01 3.708049e+00 4.071723e+00 4.113175e+00 4.999396e+00 5.997986e+00 5.184567e+00 4.431226e+00 4.568428e+00 4.769650e+00 3.576613e+00 3.500628e+00 2.570853e+00 2.314230e+00 8.817888e-01 5.095680e-01 4.703930e-01 7.275016e-01 9.174222e-01 7.882486e-01 7.603765e-01 7.387733e-01 7.560042e-01 6.189008e-01 5.394459e-01 4.567404e-01 2.820119e-01
<GCONST> 1.316600e+02
<STATE> 3
<MEAN> 39
 -2.092497e+01 -4.430843e+00 -4.171844e+00 9.817895e-02 -5.106739e+00 -3.725032e+00 -7.971675e+00 -2.743394e+00 -1.764061e+00 -1.636113e+00 -1.690574e+00 -1.015633e+00 5.755088e+01 -8.218223e-01 -7.688781e-01 -5.100835e-01 -2.340174e-01 -2.470820e-01 -1.781446e-01 -1.429679e-01 -1.135970e-02 4.623414e-02 7.478471e-03 1.502004e-01 1.403573e-01 -1.822799e-01 8.843256e-01 1.337251e-01 1.738212e-01 -2.508574e-01 -8.427022e-02 7.442188e-02 -3.758691e-02 -1.228693e-01 -1.696366e-01 -8.334845e-02 8.543774e-03 -1.639442e-01 2.036392e-01
<VARIANCE> 39
 2.440764e+01 2.195934e+01 1.691201e+01 2.272990e+01 2.176665e+01 3.286990e+01 4.530479e+01 2.493780e+01 2.398293e+01 2.148977e+01 2.020414e+01 1.875747e+01 5.904975e+01 3.871453e+00 1.743166e+00 1.897453e+00 2.158758e+00 2.304740e+00 2.569964e+00 2.070681e+00 2.114638e+00 2.109140e+00 1.905492e+00 1.828245e+00 1.650372e+00 1.949759e+00 5.405639e-01 3.947186e-01 4.179823e-01 5.469761e-01 5.884255e-01 5.596956e-01 4.803834e-01 4.960455e-01 5.356116e-01 4.369549e-01 4.173102e-01 3.728151e-01 3.116303e-01
<GCONST> 1.134705e+02
<STATE> 4
<MEAN> 39
 -1.512227e+01 -4.337293e+00 -4.754629e+00 -2.563133e+00 -5.164711e+00 -3.662560e+00 -7.164722e+00 -3.875414e+00 -3.354280e+00 -2.818665e+00 -2.077104e+00 -2.282554e+00 4.860526e+01 1.600258e+00 1.069473e-01 2.643113e-01 -7.076609e-01 -4.133853e-01 1.305908e-01 -1.884102e-01 -7.527006e-02 -2.648236e-01 -1.018326e-01 1.543904e-01 -4.034708e-01 5.760937e-01 2.990803e-01 3.001699e-02 1.683940e-01 -1.647838e-01 -1.314802e-01 8.856900e-02 -6.945610e-02 3.233442e-02 -5.535543e-02 2.248066e-02 7.520632e-02 -9.900892e-02 1.760130e-01
<VARIANCE> 39
 5.673986e+01 3.347745e+01 2.138841e+01 3.139079e+01 2.274757e+01 2.900962e+01 3.552723e+01 2.644302e+01 2.494825e+01 2.283902e+01 1.926935e+01 1.841850e+01 1.580593e+02 8.176294e+00 2.838836e+00 2.912977e+00 4.570786e+00 2.683840e+00 3.421524e+00 2.522674e+00 2.987177e+00 2.894400e+00 2.323618e+00 2.312813e+00 2.346446e+00 4.005456e+00 9.452394e-01 4.827717e-01 4.184902e-01 6.362026e-01 4.729172e-01 5.389492e-01 4.878851e-01 5.334204e-01 5.348966e-01 4.584002e-01 4.465755e-01 3.834334e-01 4.629429e-01
<GCONST> 1.225473e+02
<TRANSP> 5
 0.000000e+00 1.000000e+00 0.000000e+00 0.000000e+00 0.000000e+00
 0.000000e+00 6.969925e-01 3.030075e-01 0.000000e+00 0.000000e+00
 0.000000e+00 0.000000e+00 7.737818e-01 2.262182e-01 0.000000e+00
 0.000000e+00 0.000000e+00 0.000000e+00 8.656820e-01 1.343180e-01
 0.000000e+00 0.000000e+00 0.000000e+00 0.000000e+00 0.000000e+00
<ENDHMM>
~h "g"
<BEGINHMM>
<NUMSTATES> 5
<STATE> 2
<MEAN> 39
 1.105725e+00 3.615986e+00 6.409974e+00 1.012450e-01 -7.663658e+00 -5.983554e+00 -9.240805e+00 -3.821205e+00 -6.194980e+00 -2.711931e-01 -3.042062e+00 -6.843739e+00 5.313517e+01 -4.098184e-01 4.846429e-01 9.841796e-03 7.635931e-01 7.708742e-01 -5.386127e-01 1.639086e-01 -1.363343e-01 -2.312610e-01 -4.782593e-02 -2.622380e-01 6.671224e-01 -3.039890e-01 -3.625891e-01 -5.235466e-01 -2.895932e-01 -4.473848e-01 -1.164036e-01 8.307412e-02 -2.651037e-01 1.603771e-01 9.854618e-02 -8.911171e-02 2.606233e-01 1.381486e-01 8.706937e-01
<VARIANCE> 39
 3.536620e+01 5.835588e+01 5.653096e+01 4.707507e+01 6.558156e+01 5.174606e+01 6.700787e+01 6.825137e+01 5.916086e+01 4.999244e+01 4.796065e+01 3.817426e+01 8.696339e+01 4.629526e+00 6.442572e+00 5.978373e+00 4.460010e+00 7.383691e+00 4.371511e+00 5.346030e+00 5.968437e+00 6.196607e+00 3.982390e+00 4.170540e+00 4.094263e+00 1.127851e+01 7.555479e-01 8.140122e-01 8.517433e-01 6.921528e-01 1.584065e+00 7.721916e-01 1.018872e+00 1.019314e+00 1.153081e+00 8.122624e-01 8.904968e-01 7.811511e-01 1.369223e+00
<GCONST> 1.449167e+02
<STATE> 3
<MEAN> 39
 -3.756152e+00 2.293004e-01 3.715438e+00 -7.786560e-01 -6.415344e+00 -8.123824e+00 -1.243549e+01 -3.168343e+00 -6.295129e+00 -6.124448e-01 -1.233491e+00 -2.883182e+00 6.072313e+01 -7.393131e-01 -1.423399e+00 -3.531301e-01 -1.542760e+00 -1.558073e+00 -2.540044e-01 -1.450919e+00 1.021407e+00 5.520465e-01 -2.260761e-01 1.531770e+00 3.361355e-01 2.916001e+00 4.562817e-01 -5.481488e-02 2.031030e-01 -4.460279e-01 -6.846777e-01 4.845128e-01 8.763738e-02 9.162149e-02 3.792003e-01 -1.084006e-01 1.319834e-01 -5.637843e-01 -4.751041e-02
<VARIANCE> 39
 2.984654e+01 4.664898e+01 6.519994e+01 3.880053e+01 1.004780e+02 5.539356e+01 6.719939e+01 5.743445e+01 5.167887e+01 5.331197e+01 6.366532e+01 3.247575e+01 8.109690e+01 4.207962e+00 4.127864e+00 6.266681e+00 4.223186e+00 1.317307e+01 4.217968e+00 5.563748e+00 7.678667e+00 7.384703e+00 4.631489e+00 6.152941e+00 4.750663e+00 5.571276e+00 7.045195e-01 6.465172e-01 1.150501e+00 6.398735e-01 2.470812e+00 8.256004e-01 1.162825e+00 1.234866e+00 1.198725e+00 8.204191e-01 1.440055e+00 8.887775e-01 1.114968e+00
<GCONST> 1.464344e+02
<STATE> 4
<MEAN> 39
 -2.991147e+00 -2.033453e+00 4.000190e+00 -5.356977e+00 -1.276284e+01 -6.745384e+00 -1.380974e+01 -1.179931e+00 -2.485662e+00 -1.167917e+00 1.355875e+00 -4.491532e+00 6.469531e+01 3.157125e-02 -1.149776e+00 -5.786471e-01 -1.676306e+00 -7.700354e-01 9.805710e-01 -4.166715e-02 7.768883e-01 1.066902e+00 -3.460804e-01 1.695751e-01 -7.563406e-01 1.530970e+00 1.010185e-01 3.636100e-02 -7.400936e-02 1.033344e-01 4.483017e-01 3.004850e-01 3.218755e-01 -2.396210e-01 -1.371085e-01 -8.198114e-02 -4.048857e-01 -2.123524e-01 -3.478948e-01
<VARIANCE> 39
 2.468898e+01 6.470489e+01 6.287972e+01 4.507401e+01 7.936643e+01 5.278160e+01 7.355917e+01 8.476527e+01 9.692792e+01 6.536908e+01 7.086967e+01 3.065397e+01 1.006498e+02 2.537457e+00 2.906809e+00 4.578110e+00 3.925203e+00 7.113118e+00 3.261543e+00 4.363210e+00 5.765549e+00 6.955246e+00 3.170603e+00 5.661444e+00 4.435252e+00 3.406934e+00 4.057270e-01 4.241659e-01 7.140123e-01 4.998755e-01 1.856939e+00 5.648142e-01 8.923377e-01 9.337603e-01 9.327009e-01 6.872435e-01 1.114358e+00 5.677800e-01 6.256886e-01
<GCONST> 1.396330e+02
<TRANSP> 5
 0.000000e+00 1.000000e+00 0.000000e+00 0.000000e+00 0.000000e+00
 0.000000e+00 7.509142e-01 2.490858e-01 0.000000e+00 0.000000e+00
 0.000000e+00 0.000000e+00 5.550992e-01 4.449008e-01 0.000000e+00
 0.000000e+00 0.000000e+00 0.000000e+00 4.258947e-01 5.741053e-01
 0.000000e+00 0.000000e+00 0.000000e+00 0.000000e+00 0.000000e+00
<ENDHMM>
~h "h"
<BEGINHMM>
<NUMSTATES> 5
<STATE> 2
<MEAN> 39
 -5.633369e+00 -6.252685e+00 -1.668470e+00 -5.328979e+00 3.837782e-01 2.118688e+00 -4.319440e+00 -2.048579e+00 -3.210212e+00 -3.688237e+00 -5.434694e+00 -3.358710e+00 6.394910e+01 -1.002694e+00 -5.801046e-02 1.567021e-01 1.058084e+00 1.359180e+00 5.342752e-01 8.579763e-01 1.009284e-01 3.267594e-01 -3.246806e-01 1.281441e-03 5.674146e-01 -7.532035e-01 6.434295e-02 -1.452479e-01 -2.580204e-03 -3.234171e-01 -3.989577e-01 -7.855765e-02 -3.048746e-01 2.468862e-02 3.083471e-03 6.562527e-02 1.863125e-01 -2.042229e-01 1.573478e-02
<VARIANCE> 39
 2.706737e+01 4.785821e+01 6.264193e+01 6.583279e+01 9.120039e+01 5.509086e+01 7.775677e+01 5.696816e+01 5.756470e+01 5.236962e+01 4.804174e+01 3.476709e+01 8.478869e+01 1.695072e+00 3.106918e+00 3.786674e+00 3.825510e+00 3.739834e+00 3.342238e+00 3.748555e+00 3.925299e+00 3.714238e+00 3.121528e+00 3.043244e+00 2.673588e+00 1.754041e+00 2.287342e-01 3.871257e-01 4.297188e-01 5.763800e-01 6.105207e-01 5.968931e-01 6.542950e-01 7.548466e-01 6.106945e-01 5.517883e-01 5.236582e-01 4.368007e-01 1.807151e-01
<GCONST> 1.288079e+02
<STATE> 3
<MEAN> 39
 -7.925136e+00 -7.144848e+00 -2.142479e+00 -4.181619e+00 2.656242e+00 2.978067e+00 -3.673088e+00 -1.931773e+00 -1.967489e+00 -4.255987e+00 -4.559560e+00 -3.048870e+00 6.180894e+01 -3.174305e-01 -6.104149e-02 -1.127301e-01 -7.699080e-02 -5.378912e-02 -1.784353e-01 -4.920771e-02 -6.468555e-02 -6.686140e-03 -6.942369e-02 1.348654e-01 3.318533e-02 -6.505900e-01 2.960481e-01 8.323428e-02 -5.971577e-02 -3.426516e-01 -5.394934e-01 -2.363930e-01 -3.084508e-01 -9.175650e-02 -1.793928e-01 5.990935e-02 3.355793e-02 -1.883958e-01 3.324723e-02
<VARIANCE> 39
 3.529865e+01 5.189603e+01 4.887098e+01 5.568976e+01 7.559052e+01 5.429720e+01 7.717524e+01 4.959031e+01 5.157551e+01 4.655229e+01 4.355985e+01 3.631256e+01 9.783584e+01 2.067453e+00 2.720790e+00 2.967925e+00 3.398301e+00 3.415620e+00 3.003518e+00 3.506437e+00 3.313629e+00 3.222711e+00 2.876513e+00 2.772650e+00 2.369848e+00 2.450880e+00 2.986232e-01 4.064260e-01 4.601664e-01 5.847743e-01 5.785459e-01 5.678138e-01 6.381111e-01 6.394525e-01 6.105598e-01 5.479355e-01 5.471647e-01 4.507968e-01 2.529688e-01
<GCONST> 1.279268e+02
<STATE> 4
<MEAN> 39
 -1.072795e+01 -6.597479e+00 -4.877085e+00 -4.835128e+00 -1.284114e+00 -9.369590e-01 -5.552284e+00 -3.310570e+00 -3.643657e+00 -4.988812e+00 -4.219827e+00 -2.967620e+00 4.844921e+01 1.911088e-01 1.588198e-01 -1.099041e-02 -1.515338e-01 -3.566040e-01 -1.895083e-01 -1.463840e-01 -1.006464e-01 -1.100221e-01 2.980249e-02 2.721139e-02 -1.373351e-01 -2.005948e-01 8.911278e-02 2.088187e-02 4.987888e-02 -2.570205e-02 -6.594639e-02 5.349577e-03 -4.714094e-02 1.695599e-02 -4.765748e-03 1.078391e-02 1.026475e-02 -4.240732e-02 7.698786e-02
<VARIANCE> 39
 3.143402e+01 5.915290e+01 3.755458e+01 3.587634e+01 4.595106e+01 3.911990e+01 5.009518e+01 3.725256e+01 3.543651e+01 3.060232e+01 2.687294e+01 2.699969e+01 1.963729e+02 1.514979e+00 2.115094e+00 1.782227e+00 1.992767e+00 2.243380e+00 2.075562e+00 2.357373e+00 2.234169e+00 2.238497e+00 2.045641e+00 1.897996e+00 1.825557e+00 2.198025e+00 2.177384e-01 3.330913e-01 2.843257e-01 3.485952e-01 3.845192e-01 3.757042e-01 4.338674e-01 4.271086e-01 4.296340e-01 3.961042e-01 3.687809e-01 3.360316e-01 2.551626e-01
<GCONST> 1.156954e+02
<TRANSP> 5
 0.000000e+00 1.000000e+00 0.000000e+00 0.000000e+00 0.000000e+00
 0.000000e+00 5.618915e-01 4.381085e-01 0.000000e+00 0.000000e+00
 0.000000e+00 0.000000e+00 4.996046e-01 5.003954e-01 0.000000e+00
 0.000000e+00 0.000000e+00 0.000000e+00 8.787067e-01 1.212933e-01
 0.000000e+00 0.000000e+00 0.000000e+00 0.000000e+00 0.000000e+00
<ENDHMM>
~h "i"
<BEGINHMM>
<NUMSTATES> 5
<STATE> 2
<MEAN> 39
 -7.296680e+00 -4.019703e-01 1.569662e+01 -3.985220e+00 -1.732845e+01 -6.091687e+00 -1.280533e+01 -6.338830e+00 -1.007679e+01 -4.887465e+00 3.678107e+00 -4.192173e+00 6.366755e+01 2.396656e-01 1.668340e-01 2.682840e+00 -6.374066e-01 -2.446969e+00 6.742395e-01 -1.368203e+00 -5.974515e-01 -1.468966e+00 -1.558932e-01 1.367722e+00 -5.746711e-01 1.472835e+00 -1.026929e-02 9.098095e-02 -6.741132e-01 -4.426278e-02 4.383847e-01 1.917865e-01 2.126046e-01 7.740802e-02 4.143668e-01 1.991598e-01 -2.826256e-01 -7.655536e-02 -4.444248e-01
<VARIANCE> 39
 2.728795e+01 4.976404e+01 5.639199e+01 4.221323e+01 5.131626e+01 4.377924e+01 5.373499e+01 6.103451e+01 6.291212e+01 6.912140e+01 4.781770e+01 2.687659e+01 6.310795e+01 4.982188e+00 3.237992e+00 5.609399e+00 3.696302e+00 5.248103e+00 3.727791e+00 5.925078e+00 5.414401e+00 5.801351e+00 5.278929e+00 3.915396e+00 2.855818e+00 4.461997e+00 6.208186e-01 5.575382e-01 9.787506e-01 6.134280e-01 1.088065e+00 7.174903e-01 9.498205e-01 9.919686e-01 8.872296e-01 7.653986e-01 6.893469e-01 4.894452e-01 8.596653e-01
<GCONST> 1.382430e+02
<STATE> 3
<MEAN> 39
 -7.305750e+00 4.276519e-01 1.941189e+01 -6.229661e+00 -2.132395e+01 -3.231076e+00 -1.503956e+01 -8.130468e+00 -1.101707e+01 -4.909205e+00 5.981716e+00 -6.255745e+00 6.566362e+01 3.121100e-01 1.693635e-01 -6.051704e-01 1.868057e-01 3.235640e-01 -2.887206e-01 4.355783e-01 1.894858e-01 3.319769e-01 2.341300e-01 -2.776770e-01 3.219753e-02 -5.494770e-01 8.997437e-02 4.688858e-02 -5.674314e-01 2.309541e-01 5.833341e-01 -1.890066e-01 3.260298e-01 1.703009e-01 3.250129e-01 3.570119e-02 -3.708120e-01 1.286417e-01 -4.462762e-01
<VARIANCE> 39
 1.491651e+01 3.860778e+01 3.549905e+01 3.948485e+01 3.065389e+01 4.750374e+01 3.977452e+01 5.921323e+01 7.053770e+01 9.802041e+01 5.687606e+01 2.918709e+01 3.284335e+01 1.185638e+00 2.199223e+00 2.635163e+00 2.309531e+00 3.377627e+00 2.770193e+00 3.126888e+00 3.671458e+00 3.023690e+00 2.795386e+00 2.446656e+00 1.754423e+00 2.795967e+00 2.430640e-01 3.584276e-01 4.332783e-01 4.144756e-01 7.132803e-01 5.308862e-01 6.287995e-01 6.479182e-01 6.457201e-01 6.060314e-01 5.341591e-01 3.561851e-01 3.943254e-01
<GCONST> 1.225800e+02
<STATE> 4
<MEAN> 39
 -7.121943e+00 2.865960e+00 1.051788e+01 -3.482739e+00 -1.370803e+01 -4.701382e+00 -9.893338e+00 -7.541332e+00 -7.722376e+00 -2.904750e+00 -1.920901e-01 -4.331951e+00 5.251096e+01 1.150154e-01 9.348650e-02 -1.101436e+00 3.525282e-01 9.500021e-01 -6.453539e-02 4.735355e-01 2.299085e-01 5.602658e-01 3.567323e-02 -6.344224e-01 1.710553e-01 -1.207804e+00 -7.939874e-02 -9.331670e-02 -4.940846e-02 -6.335169e-02 6.696434e-02 1.136502e-01 -6.836097e-02 -1.671058e-02 7.993774e-03 -3.026095e-02 1.015961e-03 -1.801302e-02 1.345811e-01
<VARIANCE> 39
 2.806430e+01 4.688307e+01 7.708880e+01 3.801406e+01 6.314927e+01 6.054745e+01 5.768433e+01 5.894833e+01 4.947127e+01 4.817574e+01 4.295021e+01 2.946696e+01 1.654203e+02 1.574224e+00 2.236619e+00 2.788041e+00 2.325916e+00 3.598687e+00 2.655713e+00 3.433950e+00 3.365404e+00 3.379290e+00 2.797006e+00 2.680189e+00 1.968344e+00 3.608963e+00 2.366615e-01 3.482895e-01 3.742374e-01 4.014822e-01 6.168832e-01 5.370038e-01 5.628606e-01 5.868526e-01 5.149773e-01 4.704190e-01 4.364776e-01 3.556036e-01 4.585021e-01
<GCONST> 1.256120e+02
<TRANSP> 5
 0.000000e+00 1.000000e+00 0.000000e+00 0.000000e+00 0.000000e+00
 0.000000e+00 6.659123e-01 3.340877e-01 0.000000e+00 0.000000e+00
 0.000000e+00 0.000000e+00 7.802240e-01 2.197760e-01 0.000000e+00
 0.000000e+00 0.000000e+00 0.000000e+00 8.038819e-01 1.961181e-01
 0.000000e+00 0.000000e+00 0.000000e+00 0.000000e+00 0.000000e+00
<ENDHMM>
~h "j"
<BEGINHMM>
<NUMSTATES> 5
<STATE> 2
<MEAN> 39
 -2.300081e+00 7.256497e+00 1.008712e+01 -4.028946e-01 -8.144807e+00 -5.677276e+00 -7.804610e+00 -1.650820e+00 -4.520883e+00 -4.997516e+00 -1.939151e+00 -3.728098e+00 5.287414e+01 -7.478649e-01 1.102629e+00 2.177514e-01 1.499485e-01 1.064112e+00 1.212617e-01 9.294552e-01 -1.603784e-01 1.062887e-01 5.225396e-02 -2.143016e-01 9.588916e-02 -5.402530e-01 -5.147719e-01 -4.235330e-01 -1.728605e-01 -2.346398e-01 -3.143198e-02 1.487026e-02 -2.335573e-01 -1.741917e-01 -6.647319e-02 7.081059e-02 1.472495e-01 1.247515e-01 7.232426e-01
<VARIANCE> 39
 4.631728e+01 5.011143e+01 3.952840e+01 3.187174e+01 5.731012e+01 3.975477e+01 5.282289e+01 4.522581e+01 4.420348e+01 3.142191e+01 3.301648e+01 2.802933e+01 8.663737e+01 7.882070e+00 4.393574e+00 3.675082e+00 3.400870e+00 4.649140e+00 3.255932e+00 4.818909e+00 4.491221e+00 4.260836e+00 2.843168e+00 2.839566e+00 3.115021e+00 9.089886e+00 1.363356e+00 6.277010e-01 6.503540e-01 5.633070e-01 1.092675e+00 6.953412e-01 8.526713e-01 7.795907e-01 8.154095e-01 5.518278e-01 5.915715e-01 6.839475e-01 1.287122e+00
<GCONST> 1.360534e+02
<STATE> 3
<MEAN> 39
 -1.464089e+01 6.902239e+00 9.823663e+00 -2.345907e+00 -4.375948e+00 -5.593305e+00 -6.815844e+00 -5.385923e+00 -5.814178e+00 -4.599079e+00 -3.962753e-01 -8.460617e-02 6.254600e+01 -8.894240e-01 -1.733654e+00 8.364591e-01 -2.967279e-01 -2.561449e+00 -1.258008e+00 -1.639758e+00 -2.506876e-01 -7.495849e-01 -3.033534e-01 1.447604e+00 1.126852e+00 3.266231e+00 1.535633e+00 -5.584088e-01 1.797467e-02 8.612674e-02 -1.061337e+00 -1.746198e-01 -6.483233e-01 6.139824e-01 2.415451e-01 -2.601880e-02 1.841423e-01 -3.853866e-01 -2.761393e-01
<VARIANCE> 39
 4.874380e+01 3.157651e+01 4.009328e+01 2.681033e+01 5.989069e+01 4.380341e+01 3.694926e+01 2.435017e+01 3.002677e+01 2.322673e+01 2.308424e+01 1.931371e+01 4.379940e+01 1.375459e+01 4.119404e+00 4.093870e+00 3.727652e+00 1.011001e+01 4.358504e+00 4.699441e+00 5.589862e+00 3.717079e+00 2.901899e+00 2.783929e+00 2.178206e+00 2.805996e+00 1.364421e+00 8.195648e-01 1.121894e+00 6.540322e-01 1.871188e+00 1.019774e+00 8.823745e-01 1.125179e+00 8.402535e-01 6.057311e-01 6.667665e-01 6.010308e-01 6.590706e-01
<GCONST> 1.345607e+02
<STATE> 4
<MEAN> 39
 -6.100658e+00 -3.523034e+00 1.119572e+01 -4.380714e+00 -1.844942e+01 -1.046285e+01 -1.580271e+01 5.267976e-01 -5.052316e+00 -4.515331e+00 4.507955e+00 2.694859e-01 6.986150e+01 2.135803e+00 -2.802768e+00 -1.675320e+00 -1.063353e+00 -1.145413e+00 3.273643e-01 -1.335789e+00 2.154810e+00 1.462012e+00 5.042431e-01 -2.112661e-01 -1.351118e+00 1.177595e+00 -2.162582e-01 4.562387e-01 -7.130222e-01 -2.578257e-01 1.431670e+00 7.797693e-01 6.720525e-01 -2.421408e-01 2.333789e-01 1.524919e-01 -7.249494e-01 -5.879977e-01 -6.127818e-01
<VARIANCE> 39
 1.617030e+01 4.018572e+01 3.310429e+01 5.209355e+01 3.759591e+01 2.238770e+01 4.006386e+01 7.153815e+01 6.063140e+01 4.740161e+01 3.666191e+01 1.934514e+01 2.664322e+01 2.339999e+00 3.419513e+00 3.995634e+00 2.840405e+00 8.600732e+00 3.284780e+00 6.427434e+00 7.021596e+00 4.418262e+00 3.461293e+00 5.541761e+00 3.126274e+00 1.230241e+00 6.203369e-01 4.551476e-01 5.554271e-01 5.496088e-01 9.074655e-01 6.480831e-01 8.283948e-01 1.122481e+00 7.423141e-01 6.573122e-01 7.659777e-01 4.675635e-01 1.458184e-01
<GCONST> 1.288346e+02
<TRANSP> 5
 0.000000e+00 1.000000e+00 0.000000e+00 0.000000e+00 0.000000e+00
 0.000000e+00 8.311782e-01 1.688218e-01 0.000000e+00 0.000000e+00
 0.000000e+00 0.000000e+00 7.082260e-01 2.917741e-01 0.000000e+00
 0.000000e+00 0.000000e+00 0.000000e+00 6.492618e-01 3.507382e-01
 0.000000e+00 0.000000e+00 0.000000e+00 0.000000e+00 0.000000e+00
<ENDHMM>
~h "k"
<BEGINHMM>
<NUMSTATES> 5
<STATE> 2
<MEAN> 39
 -7.495766e+00 4.276865e-01 -1.826561e+00 -3.687679e+00 -5.435682e+00 -4.185588e+00 -5.990767e+00 -3.946237e+00 -3.930839e+00 -1.195276e+00 -3.898794e+00 -4.453178e+00 4.258664e+01 -9.526814e-01 -2.109681e-01 -7.071493e-01 4.045307e-01 5.544652e-01 -3.042324e-01 1.774339e-01 5.723658e-02 2.675836e-01 -3.702203e-02 -1.362267e-01 4.920012e-01 -1.207259e+00 -6.578671e-02 -4.735359e-01 -2.680435e-01 -2.792724e-01 1.020400e-01 -2.276987e-03 -2.146218e-01 1.427579e-01 -3.049007e-02 5.624764e-02 3.032484e-02 1.705242e-02 1.077885e+00
<VARIANCE> 39
 3.218489e+01 3.986131e+01 4.887476e+01 4.277990e+01 4.697912e+01 4.632407e+01 5.150026e+01 4.851930e+01 4.367744e+01 3.921160e+01 3.624802e+01 3.353791e+01 9.202699e+01 2.217918e+00 4.565998e+00 3.902565e+00 3.567502e+00 4.460734e+00 3.971686e+00 4.012601e+00 3.892542e+00 3.989396e+00 3.499398e+00 3.024794e+00 2.774423e+00 1.095380e+01 3.974088e-01 7.446073e-01 7.012708e-01 6.910418e-01 8.837179e-01 8.324368e-01 8.454552e-01 7.292817e-01 7.878300e-01 7.546718e-01 6.248782e-01 5.705698e-01 1.754451e+00
<GCONST> 1.350664e+02
<STATE> 3
<MEAN> 39
 -1.083095e+01 -4.519037e+00 -7.430662e+00 -4.290781e+00 -1.598202e+00 -6.287853e+00 -8.131192e+00 -3.009548e+00 -4.048547e+00 1.411511e-01 -4.450531e+00 -2.470017e+00 4.908399e+01 -5.669375e-01 -1.541838e+00 -1.717543e+00 -9.476700e-01 1.006034e+00 -5.281386e-01 -9.091320e-01 5.623839e-01 -9.234316e-02 5.658681e-01 -3.634696e-01 2.858663e-01 4.116306e+00 6.382498e-01 2.885723e-01 6.742785e-01 -3.851036e-01 -6.125135e-01 3.068023e-01 -4.472572e-02 5.489040e-02 -8.496910e-03 -1.229936e-01 1.863189e-01 -4.577229e-01 6.534008e-01
<VARIANCE> 39
 3.448378e+01 6.060376e+01 7.561224e+01 5.708661e+01 6.152892e+01 6.460583e+01 6.529655e+01 4.642782e+01 4.666497e+01 4.185560e+01 3.990016e+01 3.293389e+01 1.375363e+02 4.548983e+00 6.247461e+00 8.898767e+00 6.220776e+00 7.265370e+00 6.445858e+00 5.870264e+00 5.557029e+00 5.742177e+00 4.850219e+00 4.388505e+00 4.174258e+00 1.573931e+01 7.677179e-01 1.216847e+00 1.686160e+00 1.045603e+00 1.431702e+00 1.165221e+00 1.181884e+00 1.013839e+00 1.069404e+00 9.011253e-01 8.424913e-01 8.011823e-01 2.499415e+00
<GCONST> 1.490398e+02
<STATE> 4
<MEAN> 39
 -9.780446e+00 -5.324655e+00 -7.174377e+00 -7.762852e+00 -2.410870e+00 -5.918985e+00 -9.324029e+00 -1.449700e+00 -3.608070e+00 2.822131e-01 -4.882692e+00 -3.793812e+00 5.794484e+01 1.669564e+00 -3.579288e-02 1.432312e+00 -1.134858e+00 -1.334634e+00 7.090243e-01 -2.411647e-01 4.016499e-01 7.301563e-02 -3.846951e-01 5.683382e-01 -1.222457e+00 2.716800e+00 4.908915e-01 7.520488e-02 5.849073e-01 4.972851e-02 -4.784754e-01 4.008182e-01 1.624811e-01 -8.387249e-02 3.547281e-02 -2.741609e-01 2.900375e-01 -3.201296e-01 -5.361404e-01
<VARIANCE> 39
 4.756658e+01 5.198732e+01 7.487851e+01 5.226215e+01 5.812817e+01 5.799255e+01 5.385338e+01 4.749770e+01 5.016534e+01 4.545531e+01 4.458686e+01 3.689682e+01 1.256871e+02 5.330059e+00 5.491355e+00 7.294815e+00 5.446874e+00 5.677731e+00 4.826225e+00 4.958278e+00 5.591257e+00 5.436275e+00 4.063154e+00 4.229442e+00 4.519428e+00 9.442473e+00 8.756981e-01 9.138894e-01 1.518290e+00 8.829696e-01 1.183354e+00 8.971302e-01 9.912698e-01 9.391066e-01 9.570448e-01 8.238540e-01 7.685094e-01 7.461715e-01 1.496337e+00
<GCONST> 1.453540e+02
<TRANSP> 5
 0.000000e+00 1.000000e+00 0.000000e+00 0.000000e+00 0.000000e+00
 0.000000e+00 7.560024e-01 2.439976e-01 0.000000e+00 0.000000e+00
 0.000000e+00 0.000000e+00 5.725020e-01 4.274980e-01 0.000000e+00
 0.000000e+00 0.000000e+00 0.000000e+00 6.246294e-01 3.753706e-01
 0.000000e+00 0.000000e+00 0.000000e+00 0.000000e+00 0.000000e+00
<ENDHMM>
~h "l"
<BEGINHMM>
<NUMSTATES> 5
<STATE> 2
<MEAN> 39
 3.739365e-01 -6.963447e+00 -4.978320e-01 -1.150808e+01 -1.008641e+01 1.569957e-01 -1.715943e+01 -9.106067e+00 1.748231e+00 1.028166e+00 1.499736e+00 -7.288424e+00 6.721523e+01 5.182366e-01 3.226855e-02 1.713364e-01 -6.984723e-01 1.957266e-01 2.941124e-01 -1.099412e+00 -9.558030e-01 3.728940e-01 9.095703e-01 5.011815e-01 -1.526303e-01 -1.130330e-01 -1.840031e-01 4.501268e-02 -1.351258e-02 -3.426861e-02 2.690323e-02 2.300469e-02 2.231842e-01 3.321080e-01 -2.326647e-01 -2.020815e-01 -4.041803e-02 1.294214e-02 2.749871e-04
<VARIANCE> 39
 1.761866e+01 4.114862e+01 6.397925e+01 8.477185e+01 4.673714e+01 6.611569e+01 9.215124e+01 1.001680e+02 9.084322e+01 6.559412e+01 5.911068e+01 4.650501e+01 4.583451e+01 1.090068e+00 1.880428e+00 2.740273e+00 4.383786e+00 3.906569e+00 4.086186e+00 4.051485e+00 5.360628e+00 4.233113e+00 3.701023e+00 3.628886e+00 2.830715e+00 1.626105e+00 2.261169e-01 2.903389e-01 3.599787e-01 6.073266e-01 6.678590e-01 6.243224e-01 7.590131e-01 9.831272e-01 7.757607e-01 7.013561e-01 6.903754e-01 4.748325e-01 1.759906e-01
<GCONST> 1.302115e+02
<STATE> 3
<MEAN> 39
 1.210039e+00 -6.557435e+00 -3.332240e-01 -1.430081e+01 -9.113404e+00 1.280590e+00 -1.981836e+01 -1.028782e+01 1.379427e+00 3.148568e+00 3.054813e+00 -7.649038e+00 6.742885e+01 -1.566913e-01 -1.067594e-01 -1.591483e-01 -3.258114e-01 2.195993e-01 3.702889e-02 2.003959e-02 7.566057e-01 -3.686774e-02 -1.024816e-01 -2.915562e-01 -1.699558e-01 1.380268e-01 -2.096490e-01 -1.175520e-01 -1.673162e-01 1.987558e-01 -1.298483e-02 1.894960e-03 4.948702e-01 5.252079e-01 -7.338664e-02 -4.214278e-01 -3.543525e-01 -4.325198e-02 1.190016e-01
<VARIANCE> 39
 1.311969e+01 3.910405e+01 6.494173e+01 8.171741e+01 4.373404e+01 5.578905e+01 9.593173e+01 8.813086e+01 8.545048e+01 6.509920e+01 5.578825e+01 4.862011e+01 3.214864e+01 6.396580e-01 1.714454e+00 2.229442e+00 3.333850e+00 2.410942e+00 3.401278e+00 3.687266e+00 5.714834e+00 3.420810e+00 3.368125e+00 3.648644e+00 2.577641e+00 1.187014e+00 1.166763e-01 3.008752e-01 2.888821e-01 5.276272e-01 5.993861e-01 6.021042e-01 7.622855e-01 8.519300e-01 6.922341e-01 6.785184e-01 7.087168e-01 5.099715e-01 1.455965e-01
<GCONST> 1.250618e+02
<STATE> 4
<MEAN> 39
 -1.952996e-01 -5.930119e+00 -2.778325e+00 -1.424424e+01 -7.394773e+00 1.052394e+00 -1.589351e+01 -5.443414e+00 -1.672342e-01 7.790066e-01 8.651163e-02 -7.979049e+00 6.579733e+01 -4.051344e-01 -9.565058e-02 -1.233011e-01 5.164269e-01 1.057043e-01 -1.039812e-01 9.247396e-01 8.661368e-01 -2.488505e-01 -7.561228e-01 -6.994423e-01 -1.539334e-03 -1.422374e-01 -7.189748e-02 3.437269e-02 4.345028e-02 1.651834e-01 -3.801196e-02 3.198908e-03 1.952385e-01 -7.177006e-02 -8.277207e-02 -1.273049e-01 3.297928e-02 4.268195e-02 -5.944365e-02
<VARIANCE> 39
 1.770309e+01 6.286804e+01 8.504014e+01 8.163454e+01 5.150544e+01 7.252980e+01 9.449245e+01 7.920235e+01 6.971143e+01 6.767913e+01 5.752621e+01 5.140224e+01 7.730541e+01 7.318289e-01 2.212195e+00 2.256169e+00 3.189056e+00 3.253526e+00 3.344034e+00 3.776505e+00 4.717153e+00 3.400910e+00 3.426235e+00 3.664919e+00 2.781648e+00 1.923921e+00 1.221288e-01 2.602637e-01 2.518466e-01 4.753629e-01 5.164960e-01 5.207607e-01 6.176174e-01 6.448632e-01 5.522102e-01 5.910165e-01 5.715579e-01 3.996745e-01 1.774887e-01
<GCONST> 1.265060e+02
<TRANSP> 5
 0.000000e+00 1.000000e+00 0.000000e+00 0.000000e+00 0.000000e+00
 0.000000e+00 5.697078e-01 4.302922e-01 0.000000e+00 0.000000e+00
 0.000000e+00 0.000000e+00 5.987464e-01 4.012536e-01 0.000000e+00
 0.000000e+00 0.000000e+00 0.000000e+00 6.391514e-01 3.608486e-01
 0.000000e+00 0.000000e+00 0.000000e+00 0.000000e+00 0.000000e+00
<ENDHMM>
~h "m"
<BEGINHMM>
<NUMSTATES> 5
<STATE> 2
<MEAN> 39
 8.311101e-01 -2.791754e+00 2.846468e+00 -5.533370e+00 -6.915689e+00 2.995309e+00 -1.005263e+01 -8.510208e+00 -8.852952e+00 -2.017767e+00 -1.394131e+00 -7.942274e+00 5.918196e+01 1.556133e-01 1.024078e+00 1.812262e+00 1.755441e+00 3.827547e-01 3.957136e-01 1.828034e-01 -1.950572e+00 -1.794688e+00 -1.271476e-01 -6.517740e-01 2.640695e-01 -7.344624e-01 -1.904360e-01 -2.251702e-01 -5.306531e-02 -1.608768e-01 -5.562551e-02 -3.889236e-02 -6.862061e-02 2.108557e-01 2.190629e-01 -1.199258e-01 -6.610607e-02 3.545799e-02 3.231048e-01
<VARIANCE> 39
 2.888115e+01 4.161963e+01 5.693532e+01 6.534325e+01 4.473207e+01 4.896282e+01 8.424384e+01 7.770660e+01 1.023594e+02 4.996241e+01 6.032170e+01 4.473678e+01 9.151874e+01 1.508605e+00 2.612461e+00 4.252807e+00 4.428046e+00 2.913858e+00 3.554695e+00 4.671213e+00 4.950018e+00 5.972145e+00 3.418766e+00 5.134810e+00 3.465075e+00 3.746662e+00 2.308380e-01 3.166029e-01 6.633271e-01 6.467151e-01 4.807748e-01 4.439132e-01 5.940111e-01 8.139363e-01 7.874785e-01 4.942707e-01 7.533966e-01 4.653901e-01 2.761374e-01
<GCONST> 1.324151e+02
<STATE> 3
<MEAN> 39
 1.083977e+00 -1.604138e+00 6.934950e+00 -2.503672e+00 -7.083027e+00 4.248632e+00 -1.032378e+01 -1.296030e+01 -1.155399e+01 -3.034415e+00 -2.731689e+00 -7.149096e+00 6.014401e+01 -4.234738e-02 -1.853526e-03 1.960345e-01 4.380087e-02 6.028562e-03 2.282842e-01 1.963489e-02 -8.828346e-02 -1.213351e-01 -2.384745e-01 -1.190945e-01 2.965586e-02 2.328612e-01 -8.296720e-03 -2.445971e-01 -6.012526e-01 -5.768206e-01 -1.240921e-01 -9.541447e-02 -3.378361e-02 6.803080e-01 5.871986e-01 5.357863e-02 2.281830e-01 -1.469357e-01 2.164171e-01
<VARIANCE> 39
 1.725013e+01 3.071295e+01 3.583263e+01 4.209439e+01 4.234636e+01 5.298363e+01 1.055384e+02 7.724856e+01 1.222379e+02 6.023594e+01 7.014035e+01 4.754601e+01 3.793032e+01 5.772225e-01 1.469620e+00 2.914713e+00 3.156923e+00 1.647463e+00 1.894672e+00 2.370991e+00 3.356106e+00 3.332269e+00 2.150084e+00 3.432993e+00 2.060197e+00 2.034712e+00 1.400477e-01 2.337728e-01 4.705447e-01 4.697556e-01 3.559376e-01 3.639287e-01 5.938300e-01 6.331117e-01 7.363556e-01 4.871074e-01 6.920889e-01 4.766685e-01 2.152417e-01
<GCONST> 1.209247e+02
<STATE> 4
<MEAN> 39
 -2.780237e-01 -1.757283e+00 4.412805e+00 -4.057649e+00 -6.901472e+00 3.403839e+00 -9.926437e+00 -8.003623e+00 -1.011422e+01 -3.522712e+00 -3.612202e+00 -7.336266e+00 5.720514e+01 -2.828148e-02 -1.407806e-01 -7.209924e-01 -6.567351e-01 -1.748736e-01 -5.274360e-02 5.201102e-02 7.106802e-01 7.678126e-01 5.283439e-02 3.414050e-01 -1.644362e-01 2.241045e-01 -3.334406e-02 -9.506912e-02 -1.593330e-01 -1.378848e-01 -1.347956e-03 -3.361814e-02 -2.637463e-02 1.612765e-01 1.704872e-01 3.138629e-02 8.024863e-02 -1.533807e-02 4.999604e-02
<VARIANCE> 39
 3.136835e+01 4.049351e+01 5.847216e+01 5.776892e+01 5.500022e+01 5.728703e+01 8.357418e+01 6.861013e+01 1.110799e+02 4.658981e+01 6.065747e+01 4.861784e+01 1.080067e+02 6.029620e-01 1.808260e+00 3.127974e+00 3.393280e+00 2.071035e+00 2.004945e+00 2.809780e+00 3.454787e+00 3.813852e+00 2.184714e+00 3.231357e+00 2.251645e+00 2.153059e+00 1.102678e-01 2.160525e-01 4.330804e-01 4.820924e-01 3.823450e-01 3.513163e-01 4.322208e-01 5.008351e-01 5.515854e-01 3.634288e-01 5.287219e-01 3.613480e-01 1.826171e-01
<GCONST> 1.220945e+02
<TRANSP> 5
 0.000000e+00 1.000000e+00 0.000000e+00 0.000000e+00 0.000000e+00
 0.000000e+00 5.561561e-01 4.438439e-01 0.000000e+00 0.000000e+00
 0.000000e+00 0.000000e+00 6.327454e-01 3.672546e-01 0.000000e+00
 0.000000e+00 0.000000e+00 0.000000e+00 7.899886e-01 2.100114e-01
 0.000000e+00 0.000000e+00 0.000000e+00 0.000000e+00 0.000000e+00
<ENDHMM>
~h "n"
<BEGINHMM>
<NUMSTATES> 5
<STATE> 2
<MEAN> 39
 5.863702e-01 -6.627538e+00 4.134291e+00 -4.377837e+00 -1.049827e+01 -3.833200e+00 -1.397769e+01 -1.872519e+00 -1.554631e+00 -1.147119e+00 -6.066034e+00 -7.966277e+00 6.479969e+01 4.794315e-01 2.127338e+00 1.918335e+00 1.865288e+00 -1.123981e-01 -8.132073e-01 -1.234387e-01 -2.896903e+00 -7.191736e-01 1.455382e+00 -8.826947e-01 6.075171e-01 -1.955589e+00 -1.345368e-01 3.677474e-02 -3.643223e-02 -2.491892e-01 1.024951e-01 1.361724e-01 2.059177e-01 -2.227984e-01 -1.845778e-01 4.492363e-02 1.326193e-01 5.169692e-02 7.949553e-02
<VARIANCE> 39
 1.361492e+01 5.136958e+01 6.233119e+01 5.180137e+01 5.399325e+01 4.161628e+01 7.610717e+01 1.112217e+02 8.847162e+01 6.874562e+01 5.381310e+01 4.091688e+01 4.896842e+01 7.965662e-01 2.614563e+00 4.452153e+00 3.328757e+00 3.429219e+00 4.099636e+00 6.154199e+00 6.348330e+00 5.951635e+00 5.003840e+00 3.777969e+00 3.106566e+00 1.783848e+00 1.336474e-01 5.145991e-01 6.422035e-01 5.206052e-01 5.556772e-01 6.239097e-01 7.366859e-01 1.467842e+00 8.227846e-01 8.389568e-01 5.624205e-01 4.470414e-01 3.210601e-01
<GCONST> 1.319021e+02
<STATE> 3
<MEAN> 39
 1.096735e+00 -1.571440e+00 8.546767e+00 -1.298471e+00 -1.065230e+01 -4.548708e+00 -1.407401e+01 -1.058586e+01 -2.951435e+00 2.542711e+00 -6.971639e+00 -6.705090e+00 6.085247e+01 -1.115072e-02 7.778406e-01 4.066455e-01 3.516335e-01 1.365237e-01 -1.472398e-02 2.349315e-01 -8.654290e-01 -4.503829e-01 4.709260e-01 -2.109205e-01 3.614899e-01 -6.450993e-01 -1.858105e-01 -4.291376e-01 -5.730842e-01 -4.463306e-01 1.369066e-01 2.248193e-01 9.801210e-02 8.818299e-01 1.051715e-01 -4.884516e-01 2.561516e-01 -1.187980e-01 3.518293e-01
<VARIANCE> 39
 1.417818e+01 2.924240e+01 4.745545e+01 4.202890e+01 4.275086e+01 4.721337e+01 1.001910e+02 7.550293e+01 1.158340e+02 6.362339e+01 5.081892e+01 4.766099e+01 2.682269e+01 5.914400e-01 2.494827e+00 3.305398e+00 2.224714e+00 2.169027e+00 2.889374e+00 3.780279e+00 6.305954e+00 4.043535e+00 3.504129e+00 2.522198e+00 2.415473e+00 1.963999e+00 1.415802e-01 3.878290e-01 6.290349e-01 4.808727e-01 4.834599e-01 6.237163e-01 7.898483e-01 9.947644e-01 8.561496e-01 7.596908e-01 5.675145e-01 4.996567e-01 2.948362e-01
<GCONST> 1.259050e+02
<STATE> 4
<MEAN> 39
 -9.695628e-02 1.028415e+00 6.738419e+00 4.917389e-01 -7.609007e+00 -4.481720e+00 -9.902740e+00 -8.186112e+00 -6.222371e+00 9.658838e-01 -8.156485e+00 -4.595602e+00 5.487548e+01 -4.008251e-01 2.605187e-01 -4.096771e-01 -4.737750e-02 4.210088e-01 3.510309e-01 3.908168e-01 3.739362e-01 -1.253309e-02 -5.769322e-01 2.495030e-01 -1.317120e-02 -6.914082e-01 -1.378140e-01 -1.649073e-01 -1.359212e-01 -1.671373e-01 3.218522e-02 7.178033e-02 -1.222173e-02 2.420436e-01 9.555666e-02 -1.767088e-01 1.319170e-01 -6.580281e-02 5.957009e-02
<VARIANCE> 39
 2.582628e+01 3.497327e+01 4.489996e+01 4.599527e+01 5.580067e+01 4.318830e+01 1.195518e+02 6.086436e+01 1.109483e+02 5.802163e+01 5.253252e+01 4.325658e+01 8.324979e+01 9.368221e-01 2.254275e+00 2.275764e+00 2.373925e+00 2.354521e+00 2.599101e+00 3.227432e+00 3.919659e+00 3.471169e+00 3.134299e+00 2.624580e+00 2.211729e+00 2.595610e+00 1.800624e-01 3.366042e-01 3.525583e-01 3.957966e-01 4.279003e-01 4.671189e-01 5.741509e-01 6.307469e-01 5.918117e-01 5.417798e-01 4.667107e-01 3.873866e-01 2.889252e-01
<GCONST> 1.241114e+02
<TRANSP> 5
 0.000000e+00 1.000000e+00 0.000000e+00 0.000000e+00 0.000000e+00
 0.000000e+00 5.816779e-01 4.183221e-01 0.000000e+00 0.000000e+00
 0.000000e+00 0.000000e+00 6.145687e-01 3.854313e-01 0.000000e+00
 0.000000e+00 0.000000e+00 0.000000e+00 7.964562e-01 2.035438e-01
 0.000000e+00 0.000000e+00 0.000000e+00 0.000000e+00 0.000000e+00
<ENDHMM>
~h "o"
<BEGINHMM>
<NUMSTATES> 5
<STATE> 2
<MEAN> 39
 4.798783e-02 -3.160155e+00 -5.929636e+00 -1.629363e+01 -1.079635e+01 4.696662e+00 -1.314094e+01 -4.648650e+00 -2.871180e+00 -1.076550e+00 3.609936e+00 -5.357978e+00 6.420427e+01 1.424257e+00 -5.720301e-01 -5.331743e-01 -2.843751e+00 -1.032029e+00 2.336111e+00 -2.179316e-01 1.013375e-01 1.507826e-01 -9.625151e-02 1.497349e+00 -4.852505e-01 1.741400e+00 -3.926822e-01 2.890661e-02 2.301370e-01 4.273454e-01 2.645722e-01 -1.756638e-01 3.215026e-01 -8.181969e-02 -9.561457e-02 -8.347730e-02 -1.861669e-01 9.524760e-02 -4.794094e-01
<VARIANCE> 39
 2.688711e+01 4.398414e+01 5.067318e+01 9.671163e+01 5.172152e+01 5.520213e+01 9.741218e+01 6.456169e+01 7.196339e+01 6.629757e+01 5.344563e+01 4.388336e+01 9.477176e+01 3.765976e+00 2.929997e+00 5.668896e+00 6.718647e+00 6.035095e+00 5.195064e+00 4.984022e+00 5.939546e+00 5.294427e+00 5.400159e+00 4.272693e+00 3.673016e+00 5.946001e+00 7.103532e-01 5.210102e-01 7.288721e-01 1.323963e+00 8.705167e-01 9.622265e-01 9.000013e-01 8.708181e-01 9.306726e-01 9.285520e-01 7.327321e-01 6.215639e-01 1.089176e+00
<GCONST> 1.432008e+02
<STATE> 3
<MEAN> 39
 1.775111e+00 -4.607245e+00 -6.760029e+00 -2.152447e+01 -1.262597e+01 1.018841e+01 -1.268068e+01 -5.574672e+00 -2.231224e+00 -2.953317e+00 7.311656e+00 -5.938914e+00 6.847774e+01 1.092734e-01 -1.343949e-01 -6.678309e-02 -1.735177e-01 2.125980e-01 2.871890e-01 1.760895e-01 -1.667524e-03 -6.722876e-02 -1.251106e-02 6.638540e-02 -1.023227e-01 -7.456166e-02 -2.137163e-01 1.915624e-01 1.743721e-01 8.034846e-01 2.795733e-01 -6.712589e-01 2.165384e-02 -1.192616e-02 -3.823693e-03 1.054756e-01 -5.105916e-01 7.151650e-02 -4.768403e-01
<VARIANCE> 39
 1.070280e+01 4.221207e+01 3.566955e+01 5.751119e+01 4.188010e+01 4.117175e+01 8.811608e+01 7.592654e+01 7.251231e+01 7.049608e+01 4.919470e+01 5.187902e+01 3.030691e+01 6.001976e-01 1.950805e+00 1.478715e+00 4.687999e+00 2.427816e+00 3.246362e+00 3.121330e+00 2.969516e+00 3.350516e+00 3.882430e+00 2.788299e+00 2.420650e+00 2.221201e+00 2.155290e-01 3.087223e-01 3.684188e-01 5.722795e-01 5.813284e-01 5.153425e-01 5.464770e-01 6.794408e-01 6.038163e-01 7.060906e-01 5.456852e-01 4.948550e-01 3.086056e-01
<GCONST> 1.233312e+02
<STATE> 4
<MEAN> 39
 1.653742e+00 -2.551561e+00 -6.796290e+00 -1.895899e+01 -9.641011e+00 6.315952e+00 -1.149540e+01 -4.425608e+00 -3.277850e+00 -1.914545e+00 3.581041e+00 -5.878066e+00 6.217232e+01 -2.170342e-01 2.977360e-01 3.441815e-01 1.389198e+00 4.388160e-01 -1.005785e+00 1.670110e-01 -1.267292e-01 1.072653e-01 2.119648e-01 -8.293830e-01 3.102615e-02 -1.119292e+00 -1.031821e-01 7.014780e-02 1.466405e-01 2.905564e-01 2.940595e-02 -1.418016e-01 1.216833e-02 -4.725737e-02 1.990885e-02 -5.439772e-02 -9.828009e-02 5.027330e-02 -1.353117e-01
<VARIANCE> 39
 1.959586e+01 5.376717e+01 4.317832e+01 8.092227e+01 5.002909e+01 5.026905e+01 8.847113e+01 5.495988e+01 6.388035e+01 5.861517e+01 5.113843e+01 4.866407e+01 1.102403e+02 8.529122e-01 1.773030e+00 1.906525e+00 4.191791e+00 2.664635e+00 2.878673e+00 2.918083e+00 2.894457e+00 2.795579e+00 2.805479e+00 2.642909e+00 2.176125e+00 2.718292e+00 1.634886e-01 3.043365e-01 2.979830e-01 5.332592e-01 4.611193e-01 4.481507e-01 5.326720e-01 4.900048e-01 5.118987e-01 5.111358e-01 4.333905e-01 3.914021e-01 3.771469e-01
<GCONST> 1.234876e+02
<TRANSP> 5
 0.000000e+00 1.000000e+00 0.000000e+00 0.000000e+00 0.000000e+00
 0.000000e+00 6.066199e-01 3.933801e-01 0.000000e+00 0.000000e+00
 0.000000e+00 0.000000e+00 6.910970e-01 3.089031e-01 0.000000e+00
 0.000000e+00 0.000000e+00 0.000000e+00 8.086478e-01 1.913522e-01
 0.000000e+00 0.000000e+00 0.000000e+00 0.000000e+00 0.000000e+00
<ENDHMM>
~h "p"
<BEGINHMM>
<NUMSTATES> 5
<STATE> 2
<MEAN> 39
 -6.916569e+00 1.477159e+00 -2.002955e+00 -3.787865e+00 -4.739516e+00 -2.066363e+00 -5.827413e+00 -5.331654e+00 -4.035312e+00 -2.435262e+00 -3.314365e+00 -4.778471e+00 3.902783e+01 -8.180733e-01 2.464326e-01 -1.873630e-01 3.813889e-01 1.033076e-01 -3.433630e-01 2.630553e-01 1.216433e-01 2.241062e-01 -1.067800e-02 -5.739485e-02 2.941008e-01 -1.403069e+00 -2.377399e-02 -2.970963e-01 -4.746088e-02 -1.578360e-01 -8.794721e-02 7.421984e-03 -1.286901e-01 4.647462e-02 1.295487e-02 9.239440e-04 1.045687e-01 3.460927e-02 6.938258e-01
<VARIANCE> 39
 4.510596e+01 2.872447e+01 2.998795e+01 3.247433e+01 2.555381e+01 3.501576e+01 3.466010e+01 2.920641e+01 3.162071e+01 2.622350e+01 2.522250e+01 2.931463e+01 5.559738e+01 1.595352e+00 2.173930e+00 1.797951e+00 2.186834e+00 2.126356e+00 2.305489e+00 2.381890e+00 2.445625e+00 2.612855e+00 2.330802e+00 2.189465e+00 2.002538e+00 5.607782e+00 3.260832e-01 4.173484e-01 3.539400e-01 4.371956e-01 4.398631e-01 4.864113e-01 4.779086e-01 4.939202e-01 5.023397e-01 4.868020e-01 4.530088e-01 3.930349e-01 9.652845e-01
<GCONST> 1.177442e+02
<STATE> 3
<MEAN> 39
 -8.417628e+00 1.316163e+00 -2.098087e+00 -3.351522e+00 -4.895012e+00 -3.220766e+00 -6.021104e+00 -5.041945e+00 -3.030126e+00 -2.303373e+00 -2.711838e+00 -3.569376e+00 4.080497e+01 1.280876e-02 -1.640373e+00 -7.461132e-01 -8.825620e-01 -2.452687e-01 1.800150e-01 -4.632700e-01 1.148375e-01 2.230109e-01 -1.302514e-01 7.006827e-01 2.854730e-01 4.511699e+00 8.149104e-01 -6.043916e-01 -1.185411e-01 -7.539782e-01 -3.467737e-01 5.334159e-01 -3.556090e-01 2.837982e-02 -1.052879e-01 1.275855e-03 2.774210e-01 -4.834984e-01 1.843131e+00
<VARIANCE> 39
 2.730769e+01 2.415384e+01 2.732632e+01 3.369490e+01 2.608597e+01 3.446515e+01 4.067009e+01 3.062150e+01 3.034990e+01 2.562083e+01 2.473097e+01 2.495915e+01 8.921761e+01 4.522875e+00 3.891384e+00 4.232928e+00 5.586503e+00 3.456759e+00 6.115789e+00 3.863527e+00 3.973332e+00 4.267540e+00 3.214465e+00 3.595037e+00 3.777207e+00 1.474880e+01 5.435642e-01 6.737674e-01 7.505751e-01 9.108351e-01 7.419423e-01 1.040952e+00 7.087639e-01 8.621836e-01 9.102231e-01 6.295102e-01 6.589423e-01 7.665210e-01 1.789358e+00
<GCONST> 1.334334e+02
<STATE> 4
<MEAN> 39
 -6.630128e+00 -4.708463e+00 -4.768267e+00 -7.856830e+00 -5.079218e+00 -3.490541e-01 -7.637760e+00 -5.020509e+00 -3.172536e+00 -2.976622e+00 -1.609895e+00 -4.155704e+00 5.375861e+01 1.805447e+00 -1.706016e+00 -4.210716e-01 -2.033951e+00 -8.294079e-01 1.148302e+00 -9.263796e-01 1.623273e-01 -1.012510e-01 3.056878e-02 7.145019e-01 -8.960786e-01 5.052593e+00 3.036098e-01 1.288457e-01 2.537584e-01 -1.578048e-01 -1.377282e-01 1.521607e-01 -9.293333e-02 1.165112e-01 -2.101217e-02 6.644978e-02 -4.963738e-02 -3.006035e-01 -3.653696e-01
<VARIANCE> 39
 4.992683e+01 4.614394e+01 2.896224e+01 7.724000e+01 3.185489e+01 6.805401e+01 3.989215e+01 2.819445e+01 2.711115e+01 2.453996e+01 2.830761e+01 3.021652e+01 1.603324e+02 5.024583e+00 7.165823e+00 5.476006e+00 9.259586e+00 4.758045e+00 8.009598e+00 4.493760e+00 4.792892e+00 4.735354e+00 3.579380e+00 3.845264e+00 4.835415e+00 1.791476e+01 9.387575e-01 8.254762e-01 6.842206e-01 1.541393e+00 8.862295e-01 1.222280e+00 7.438011e-01 7.028542e-01 7.599682e-01 5.766522e-01 7.209933e-01 6.476364e-01 2.434636e+00
<GCONST> 1.415598e+02
<TRANSP> 5
 0.000000e+00 1.000000e+00 0.000000e+00 0.000000e+00 0.000000e+00
 0.000000e+00 8.453140e-01 1.546860e-01 0.000000e+00 0.000000e+00
 0.000000e+00 0.000000e+00 5.001934e-01 4.998066e-01 0.000000e+00
 0.000000e+00 0.000000e+00 0.000000e+00 5.989864e-01 4.010136e-01
 0.000000e+00 0.000000e+00 0.000000e+00 0.000000e+00 0.000000e+00
<ENDHMM>
~h "q"
<BEGINHMM>
<NUMSTATES> 5
<STATE> 2
<MEAN> 39
 -1.003055e+01 1.540437e+00 -1.703592e+00 -5.204020e+00 -1.089773e+01 -1.004059e+01 -6.374213e+00 -5.235410e+00 -2.664418e+00 -3.981228e+00 -5.223594e+00 -2.675050e+00 5.105951e+01 -1.361300e+00 5.042036e-01 -7.050138e-01 9.309375e-02 1.188122e+00 -7.119919e-02 -3.717183e-01 9.715570e-01 -3.484218e-01 -4.056686e-02 -1.567275e-01 1.064559e+00 -7.991338e-01 -3.281432e-02 -3.512566e-01 1.046739e+00 2.192658e-01 -5.246662e-01 4.215542e-01 -3.386905e-01 -3.769900e-01 7.432282e-02 -6.657173e-02 1.094508e+00 -1.297213e-01 5.530542e-01
<VARIANCE> 39
 2.884518e+01 4.171181e+01 1.536077e+02 3.505089e+01 2.960104e+01 3.113019e+01 4.961071e+01 2.337265e+01 4.150457e+01 2.154659e+01 5.117613e+01 3.798291e+01 6.779737e+01 5.707599e+00 2.649349e+00 1.265486e+01 1.151575e+00 2.972349e+00 1.166610e+00 2.722689e+00 3.285743e+00 3.926766e+00 2.250003e+00 5.317492e+00 2.453568e+00 9.369714e+00 7.599320e-01 1.287296e+00 1.862474e+00 4.395229e-01 1.018779e+00 3.713149e-01 4.043264e-01 3.278869e-01 2.169891e-01 1.127294e+00 8.092059e-01 6.525373e-01 1.704855e+00
<GCONST> 1.309145e+02
<STATE> 3
<MEAN> 39
 -8.114816e+00 -5.098886e+00 7.706967e+00 -4.656686e+00 -1.827845e+01 -7.601025e+00 -3.545926e+00 -3.023000e+00 -1.118870e+00 -8.059570e+00 3.607445e+00 -4.904082e+00 5.721051e+01 -2.808241e-01 -1.543483e-01 6.113659e-01 3.926841e-01 -9.960359e-02 -2.305726e-01 -4.939820e-01 -1.420083e-01 -4.002328e-01 2.775794e-01 1.268586e+00 5.099320e-01 4.506270e-01 -3.092996e-02 9.481881e-02 -8.495998e-02 7.512138e-02 1.057122e-01 -1.846916e-02 -1.071968e-01 -5.915178e-02 1.042908e-01 2.435438e-01 -1.244383e-01 3.524215e-02 -2.104053e-01
<VARIANCE> 39
 2.428933e+01 5.989225e+01 7.096871e+01 1.257631e+01 6.036551e+01 3.177621e+01 4.201977e+01 3.682418e+01 2.220135e+01 1.308341e+01 8.249791e+01 1.041943e+01 1.194836e+02 3.473348e+00 3.247074e+00 6.792763e+00 2.022903e+00 6.862481e+00 4.748360e+00 2.147217e+00 2.148306e+00 1.892503e+00 2.802561e+00 6.524600e+00 1.697796e+00 1.178817e+01 5.012920e-01 6.510241e-01 4.990482e-01 3.612035e-01 6.858059e-01 6.701830e-01 3.923817e-01 5.124032e-01 4.182346e-01 4.504165e-01 1.041540e+00 3.587973e-01 1.698282e+00
<GCONST> 1.271262e+02
<STATE> 4
<MEAN> 39
 -1.118166e+01 6.506019e-01 3.590436e+00 -2.754838e+00 -1.056953e+01 -9.711772e+00 -6.343337e+00 -6.501201e+00 -4.387438e+00 -3.135071e+00 -1.448147e-01 -1.683548e+00 4.475173e+01 -7.379057e-01 5.706866e-01 -1.195901e+00 -5.858393e-01 1.406774e+00 8.292700e-01 -1.218693e-02 5.977952e-01 -6.291423e-01 6.860835e-01 -3.707089e-01 2.243088e-01 -5.557173e-01 1.034996e-01 -1.277885e-01 4.240858e-02 -1.988773e-01 -1.404297e-01 3.003570e-01 1.163446e-01 6.808722e-02 -2.566682e-01 1.826998e-02 2.586814e-01 -1.450787e-02 8.030075e-01
<VARIANCE> 39
 3.220091e+01 1.719200e+01 4.568341e+01 3.192544e+01 7.133918e+01 4.493448e+01 2.963572e+01 1.277834e+01 2.368361e+01 1.277746e+01 2.048454e+01 7.558872e+00 5.279367e+01 3.515395e+00 1.843741e+00 7.016935e+00 4.753362e+00 4.496072e+00 3.998246e+00 2.185414e+00 1.658827e+00 2.373708e+00 2.617433e+00 3.168026e+00 2.435847e+00 1.059421e+01 4.533795e-01 3.622655e-01 9.792186e-01 1.092869e+00 1.010055e+00 8.313273e-01 4.999234e-01 3.161407e-01 2.046136e-01 7.615856e-01 3.761372e-01 3.189088e-01 4.894973e-01
<GCONST> 1.213407e+02
<TRANSP> 5
 0.000000e+00 1.000000e+00 0.000000e+00 0.000000e+00 0.000000e+00
 0.000000e+00 1.961811e-01 8.038189e-01 0.000000e+00 0.000000e+00
 0.000000e+00 0.000000e+00 5.671329e-01 4.328671e-01 0.000000e+00
 0.000000e+00 0.000000e+00 0.000000e+00 6.645529e-01 3.354471e-01
 0.000000e+00 0.000000e+00 0.000000e+00 0.000000e+00 0.000000e+00
<ENDHMM>
~h "r"
<BEGINHMM>
<NUMSTATES> 5
<STATE> 2
<MEAN> 39
 -8.008767e-01 -8.213360e+00 -4.329118e+00 -4.579222e+00 -9.451582e+00 -4.116133e+00 -1.283087e+01 -2.542099e+00 2.709955e+00 -1.282058e+00 -1.217210e+00 -6.341763e+00 6.529549e+01 2.836933e-01 -2.496274e-02 -1.819365e-01 1.392866e+00 -4.132801e-01 -2.077858e-01 -5.435219e-01 -2.729277e-01 6.067500e-01 -2.093970e-01 2.377831e-01 2.506002e-01 -5.442487e-01 -8.083855e-02 5.195465e-03 1.800795e-01 -3.123405e-01 -2.855680e-02 1.810874e-01 6.160448e-03 1.300100e-01 -3.584329e-01 -5.121795e-02 1.111604e-01 -4.579489e-02 8.898157e-03
<VARIANCE> 39
 2.452250e+01 3.709086e+01 5.386301e+01 6.132382e+01 5.646595e+01 4.411814e+01 8.622550e+01 7.367133e+01 6.908027e+01 5.435897e+01 4.831966e+01 4.334991e+01 6.845638e+01 2.413558e+00 2.936354e+00 3.395282e+00 6.018082e+00 4.650649e+00 4.573205e+00 4.606590e+00 5.929016e+00 5.003003e+00 4.779651e+00 4.183293e+00 3.731592e+00 4.050630e+00 4.777942e-01 5.090886e-01 5.371363e-01 1.062485e+00 7.978498e-01 7.544321e-01 8.666025e-01 1.046387e+00 9.032062e-01 8.500101e-01 7.579081e-01 6.518255e-01 7.192119e-01
<GCONST> 1.380561e+02
<STATE> 3
<MEAN> 39
 -2.109020e-01 -8.090247e+00 -4.349466e+00 -2.104027e+00 -1.064829e+01 -4.186548e+00 -1.413870e+01 -2.760222e+00 3.251601e+00 -1.746714e+00 -3.783203e-01 -5.841131e+00 6.431020e+01 8.397956e-02 6.709982e-02 3.518060e-01 2.232021e-01 -1.682779e-01 5.831182e-02 -2.554702e-01 2.503302e-01 -4.768749e-01 -1.918233e-01 2.905716e-01 1.604028e-01 -4.522922e-01 -1.132372e-01 3.292160e-02 2.351861e-01 -5.632513e-01 9.429167e-02 1.632768e-01 1.922547e-01 1.807514e-01 -5.041226e-01 2.322418e-02 -1.543520e-02 -1.134227e-01 1.335000e-01
<VARIANCE> 39
 2.600375e+01 3.418114e+01 5.931382e+01 5.027679e+01 6.109629e+01 4.688581e+01 9.275152e+01 6.672334e+01 7.131255e+01 5.630454e+01 4.634916e+01 4.203141e+01 5.318610e+01 2.390266e+00 3.061599e+00 3.615425e+00 4.205966e+00 4.760513e+00 4.285355e+00 4.849164e+00 5.620082e+00 4.901417e+00 4.677726e+00 3.921613e+00 3.839973e+00 3.578019e+00 4.912705e-01 5.584213e-01 5.738789e-01 8.802025e-01 1.039790e+00 8.347145e-01 9.771681e-01 1.094147e+00 1.028215e+00 9.630562e-01 8.934630e-01 7.035286e-01 6.409890e-01
<GCONST> 1.381863e+02
<STATE> 4
<MEAN> 39
 -1.820794e+00 -6.919893e+00 -3.066297e+00 -3.363686e+00 -8.849388e+00 -4.401928e+00 -1.336753e+01 -1.453224e+00 4.538028e-01 -2.179916e+00 -7.076640e-01 -5.263650e+00 6.033664e+01 -1.081789e-01 2.240607e-01 6.108013e-01 -3.896450e-01 8.763009e-03 2.007250e-01 1.615283e-01 1.983953e-01 -9.733114e-01 -7.707307e-02 1.047236e-01 1.118291e-02 -2.720528e-01 -7.980181e-02 3.334416e-02 1.154229e-01 -2.016666e-01 -2.352242e-02 1.089677e-01 1.249357e-01 -2.188607e-02 -1.562842e-01 2.353998e-02 -4.552901e-02 -9.599818e-02 9.740028e-02
<VARIANCE> 39
 4.208297e+01 4.783718e+01 6.581257e+01 4.746535e+01 6.333698e+01 5.612834e+01 9.163595e+01 6.180937e+01 6.112009e+01 5.197279e+01 4.498011e+01 4.322764e+01 1.232569e+02 2.417150e+00 3.242119e+00 3.321402e+00 2.929144e+00 4.488458e+00 3.628832e+00 4.243916e+00 4.475073e+00 4.454500e+00 3.712398e+00 3.652449e+00 2.999864e+00 3.750638e+00 4.431573e-01 4.793383e-01 4.780804e-01 6.268351e-01 7.920018e-01 7.182119e-01 8.115650e-01 7.860711e-01 7.658724e-01 7.210813e-01 6.839758e-01 5.741257e-01 5.211952e-01
<GCONST> 1.352418e+02
<TRANSP> 5
 0.000000e+00 1.000000e+00 0.000000e+00 0.000000e+00 0.000000e+00
 0.000000e+00 4.758721e-01 5.241279e-01 0.000000e+00 0.000000e+00
 0.000000e+00 0.000000e+00 4.447938e-01 5.552062e-01 0.000000e+00
 0.000000e+00 0.000000e+00 0.000000e+00 5.656261e-01 4.343739e-01
 0.000000e+00 0.000000e+00 0.000000e+00 0.000000e+00 0.000000e+00
<ENDHMM>
~h "s"
<BEGINHMM>
<NUMSTATES> 5
<STATE> 2
<MEAN> 39
 -1.294566e+01 4.144012e+00 -4.885899e-01 -3.161865e+00 -7.437189e-01 -7.024857e+00 -5.821707e+00 -1.973100e+00 -2.712564e+00 -2.492909e+00 -4.147114e+00 -1.837863e+00 6.241956e+01 -4.481828e+00 2.144190e+00 -1.200616e+00 1.162550e+00 1.594997e+00 7.608037e-02 1.734172e+00 6.245493e-01 4.655181e-01 -5.319270e-01 6.018705e-01 8.309340e-01 -6.582496e-01 -3.366654e-01 -5.592875e-01 -3.205148e-01 -3.057479e-01 -4.718668e-01 3.075940e-01 -2.354319e-01 7.767924e-03 -1.385295e-02 4.304757e-02 3.021604e-01 -2.254397e-01 -2.041263e-02
<VARIANCE> 39
 7.755575e+01 4.939750e+01 4.926788e+01 4.668404e+01 4.921412e+01 4.488255e+01 7.808316e+01 4.360644e+01 4.979810e+01 4.059095e+01 4.489722e+01 2.795377e+01 7.833680e+01 4.158649e+00 6.080189e+00 4.433655e+00 4.580147e+00 5.485153e+00 5.022076e+00 5.190438e+00 5.097867e+00 4.579747e+00 3.764969e+00 3.984490e+00 2.807791e+00 2.015102e+00 1.127400e+00 8.140017e-01 4.592856e-01 6.351988e-01 7.542278e-01 7.818441e-01 9.096078e-01 7.589855e-01 6.494477e-01 6.836569e-01 6.016440e-01 4.943314e-01 2.393325e-01
<GCONST> 1.357341e+02
<STATE> 3
<MEAN> 39
 -2.887995e+01 5.780924e+00 -7.465691e+00 -2.408443e+00 3.363190e-01 -6.037264e+00 -2.298191e+00 -7.626879e-01 -1.264813e+00 -3.113199e+00 -8.443606e-02 7.955490e-02 6.034861e+01 -8.334066e-01 -5.286067e-01 -6.540868e-01 -2.561252e-01 -3.011062e-01 -4.916572e-02 -3.135588e-02 -4.056773e-02 1.639579e-01 5.370207e-02 2.602161e-01 1.378357e-01 -3.582233e-01 1.032827e+00 -2.694765e-01 4.089167e-01 -1.636571e-01 -2.254837e-01 -8.398525e-02 -3.276550e-01 -1.600819e-01 -5.769177e-02 3.199909e-02 -1.849796e-01 -1.758376e-01 1.210535e-01
<VARIANCE> 39
 2.686415e+01 2.174846e+01 3.456924e+01 3.510892e+01 2.893442e+01 3.583397e+01 4.764585e+01 2.915382e+01 3.042534e+01 2.540670e+01 2.558873e+01 1.913029e+01 3.623248e+01 5.055261e+00 2.007400e+00 2.586510e+00 1.711394e+00 2.091840e+00 2.156832e+00 2.415609e+00 2.341394e+00 2.063882e+00 1.886083e+00 1.865975e+00 1.634334e+00 1.213628e+00 5.303929e-01 4.158600e-01 4.037581e-01 3.995767e-01 4.842354e-01 4.779601e-01 5.706684e-01 5.288628e-01 4.352096e-01 4.088903e-01 3.777228e-01 3.643380e-01 2.152582e-01
<GCONST> 1.142323e+02
<STATE> 4
<MEAN> 39
 -2.016413e+01 6.114967e-01 -5.839876e+00 -3.599041e+00 -2.693317e+00 -5.892321e+00 -5.080940e+00 -1.711359e+00 -1.554071e+00 -2.474746e+00 -1.662170e+00 -7.767580e-01 5.237262e+01 2.259164e+00 -4.513370e-01 8.807839e-01 -4.216225e-01 -5.979820e-01 1.874240e-02 -9.954315e-01 -4.536893e-01 -1.832879e-01 7.047990e-02 -2.608942e-01 -6.518681e-01 3.915583e-01 3.479169e-01 -2.616288e-02 2.022139e-01 -6.910359e-02 -5.197715e-02 1.554845e-01 -1.455327e-01 -4.256978e-03 -9.836008e-02 2.946109e-02 5.331597e-02 -1.082208e-01 1.778754e-01
<VARIANCE> 39
 7.881559e+01 3.376181e+01 4.276085e+01 3.447203e+01 3.140925e+01 3.865907e+01 5.367418e+01 3.539578e+01 3.249723e+01 3.176317e+01 2.650791e+01 2.461843e+01 1.311618e+02 1.039608e+01 3.019963e+00 4.427614e+00 3.316055e+00 3.106542e+00 3.325746e+00 4.537228e+00 3.593606e+00 3.073830e+00 2.673595e+00 2.465484e+00 2.638163e+00 4.332616e+00 1.006971e+00 4.444719e-01 5.325311e-01 4.790629e-01 4.715994e-01 5.736077e-01 7.287440e-01 5.919456e-01 5.181703e-01 4.932671e-01 4.573774e-01 4.205630e-01 4.994794e-01
<GCONST> 1.284877e+02
<TRANSP> 5
 0.000000e+00 1.000000e+00 0.000000e+00 0.000000e+00 0.000000e+00
 0.000000e+00 6.948129e-01 3.051871e-01 0.000000e+00 0.000000e+00
 0.000000e+00 0.000000e+00 8.192717e-01 1.807283e-01 0.000000e+00
 0.000000e+00 0.000000e+00 0.000000e+00 8.449616e-01 1.550384e-01
 0.000000e+00 0.000000e+00 0.000000e+00 0.000000e+00 0.000000e+00
<ENDHMM>
~h "t"
<BEGINHMM>
<NUMSTATES> 5
<STATE> 2
<MEAN> 39
 -6.597869e+00 2.013366e+00 -1.229248e+00 -3.275135e+00 -5.004884e+00 -4.811852e+00 -7.224202e+00 -4.465015e+00 -2.057206e+00 -1.547233e+00 -3.671889e+00 -5.552706e+00 4.244930e+01 -8.727811e-01 1.134870e-01 -2.567537e-01 2.678760e-01 1.858341e-01 5.088040e-03 5.346025e-01 6.501888e-02 1.892742e-02 -1.987149e-01 5.142357e-03 4.042532e-01 -1.808306e+00 -1.751111e-01 -5.097236e-01 -8.643168e-02 -2.999095e-01 -6.449219e-02 -4.688545e-03 -8.246805e-02 8.583635e-02 7.111497e-03 -2.079509e-02 1.106677e-01 6.592504e-02 9.988884e-01
<VARIANCE> 39
 3.504634e+01 3.323488e+01 4.393404e+01 3.724688e+01 3.319700e+01 3.560629e+01 4.865458e+01 3.765710e+01 3.949802e+01 3.400420e+01 3.638163e+01 3.510804e+01 9.359227e+01 2.384238e+00 3.813031e+00 2.647194e+00 2.973632e+00 3.234461e+00 2.781791e+00 3.173377e+00 3.064847e+00 3.081715e+00 2.686028e+00 2.674074e+00 2.480914e+00 9.793303e+00 4.325988e-01 6.739415e-01 4.715987e-01 5.928364e-01 6.146474e-01 6.132269e-01 6.337034e-01 6.321124e-01 6.054789e-01 5.539636e-01 5.374005e-01 5.014139e-01 1.736364e+00
<GCONST> 1.284004e+02
<STATE> 3
<MEAN> 39
 -1.089709e+01 -4.015166e-01 -2.074429e+00 -3.530493e+00 -4.429039e+00 -5.456762e+00 -6.113444e+00 -4.101542e+00 -1.923263e+00 -2.178478e+00 -3.107742e+00 -3.607289e+00 4.331120e+01 -1.247435e+00 -1.872737e+00 -6.331190e-01 -1.089838e+00 2.423744e-01 -4.283215e-01 -3.726773e-02 2.419843e-01 2.166802e-01 -2.793649e-01 2.999422e-01 4.432061e-01 4.272849e+00 7.178539e-01 -1.802606e-01 1.746954e-01 -4.330240e-01 -3.089449e-01 1.267845e-01 -5.517050e-01 -1.902772e-02 3.387824e-02 7.465829e-02 8.771434e-02 -4.607952e-01 1.566340e+00
<VARIANCE> 39
 3.736191e+01 4.063908e+01 3.688311e+01 3.772506e+01 3.211888e+01 3.827943e+01 4.489434e+01 3.311605e+01 3.522186e+01 2.806165e+01 3.212786e+01 2.956937e+01 1.125229e+02 5.027286e+00 4.682350e+00 4.658286e+00 4.557993e+00 4.158913e+00 4.429706e+00 4.740981e+00 4.462482e+00 5.110510e+00 3.378655e+00 3.829857e+00 4.040612e+00 1.878358e+01 9.350676e-01 8.285646e-01 8.820711e-01 7.964320e-01 8.815593e-01 9.397506e-01 9.113886e-01 9.257597e-01 9.662063e-01 7.021523e-01 7.494877e-01 7.877357e-01 2.340935e+00
<GCONST> 1.388050e+02
<STATE> 4
<MEAN> 39
 -1.133021e+01 -5.066025e+00 -3.675819e+00 -7.475958e+00 -4.978652e+00 -6.587280e+00 -7.632923e+00 -3.623385e+00 -1.336735e+00 -2.684929e+00 -2.823317e+00 -4.258359e+00 5.837153e+01 1.626509e+00 -9.384531e-01 4.678117e-01 -1.521643e+00 -7.358970e-01 3.678986e-01 -1.690508e+00 7.621858e-02 8.578803e-02 1.594623e-01 4.138263e-01 -1.047297e+00 5.107620e+00 8.284965e-01 4.186431e-01 4.301955e-01 7.862338e-02 -3.237022e-01 5.294499e-01 -3.293913e-01 -5.891146e-03 -1.857711e-01 1.394701e-01 1.122701e-01 -3.085154e-01 -8.016483e-01
<VARIANCE> 39
 4.507153e+01 3.316879e+01 3.891543e+01 3.980286e+01 3.011136e+01 4.080783e+01 5.372923e+01 3.060943e+01 3.821758e+01 3.025319e+01 3.176323e+01 3.691897e+01 1.375792e+02 6.175300e+00 5.076005e+00 7.033522e+00 5.763493e+00 4.958008e+00 5.869229e+00 6.493454e+00 6.159095e+00 6.457741e+00 4.199986e+00 4.748826e+00 5.099673e+00 1.581357e+01 1.043796e+00 8.048767e-01 9.984910e-01 8.269361e-01 8.966908e-01 1.042858e+00 1.231932e+00 9.402701e-01 9.599945e-01 7.674423e-01 8.071496e-01 8.168927e-01 2.380612e+00
<GCONST> 1.432101e+02
<TRANSP> 5
 0.000000e+00 1.000000e+00 0.000000e+00 0.000000e+00 0.000000e+00
 0.000000e+00 7.791182e-01 2.208818e-01 0.000000e+00 0.000000e+00
 0.000000e+00 0.000000e+00 5.080664e-01 4.919336e-01 0.000000e+00
 0.000000e+00 0.000000e+00 0.000000e+00 5.684792e-01 4.315208e-01
 0.000000e+00 0.000000e+00 0.000000e+00 0.000000e+00 0.000000e+00
<ENDHMM>
~h "u"
<BEGINHMM>
<NUMSTATES> 5
<STATE> 2
<MEAN> 39
 -4.161898e-01 1.497787e+00 -7.982820e-01 -9.267232e+00 -1.066914e+01 4.907410e-01 -1.655961e+01 -7.657822e+00 -6.762372e+00 -3.084729e+00 1.993303e+00 -4.087620e+00 6.092865e+01 1.823546e+00 6.713505e-01 -1.463381e-01 -2.062639e+00 -1.573087e+00 2.184754e+00 -1.551160e+00 -7.001485e-01 -1.155162e+00 -2.082326e-01 1.707587e+00 -9.054945e-02 1.132047e+00 -3.294065e-01 4.730638e-02 8.435418e-02 4.093628e-02 1.452922e-01 1.056147e-01 4.600048e-01 1.231893e-01 7.306794e-02 1.084830e-02 -1.535888e-01 5.564118e-03 -4.683168e-01
<VARIANCE> 39
 2.999301e+01 4.432234e+01 5.339703e+01 1.000042e+02 5.100277e+01 6.395223e+01 9.606533e+01 7.040745e+01 6.960893e+01 5.420836e+01 5.371983e+01 3.823887e+01 9.091633e+01 4.804631e+00 3.466861e+00 5.356258e+00 6.174471e+00 5.827420e+00 5.813446e+00 6.605469e+00 7.077022e+00 6.424263e+00 5.320692e+00 4.789588e+00 4.221439e+00 5.203901e+00 7.894337e-01 6.427481e-01 7.459008e-01 1.277781e+00 9.939495e-01 1.053084e+00 1.412455e+00 1.199843e+00 1.069620e+00 9.055443e-01 8.872159e-01 7.392866e-01 1.116174e+00
<GCONST> 1.461049e+02
<STATE> 3
<MEAN> 39
 2.434191e+00 2.446916e+00 -1.926956e+00 -1.386857e+01 -1.401857e+01 7.384824e+00 -1.866584e+01 -9.652603e+00 -9.147527e+00 -4.527819e+00 6.039235e+00 -3.534180e+00 6.417358e+01 1.769404e-01 3.225366e-02 2.327568e-02 -4.412423e-02 1.167573e-01 2.511231e-01 8.095873e-02 -1.187435e-01 2.758940e-02 1.832164e-01 1.346238e-01 -7.805184e-02 -1.722665e-01 -3.980064e-01 -1.093192e-01 1.482280e-01 7.323945e-01 5.359846e-01 -8.046753e-01 4.981012e-01 2.596124e-01 4.694653e-01 1.011008e-01 -6.748887e-01 -9.531867e-02 -4.339715e-01
<VARIANCE> 39
 1.275845e+01 4.614606e+01 3.700960e+01 8.591258e+01 4.356183e+01 6.179244e+01 8.427560e+01 9.625255e+01 8.696546e+01 7.280386e+01 5.503071e+01 4.533132e+01 3.173944e+01 1.096892e+00 3.445247e+00 2.465107e+00 7.882192e+00 4.667611e+00 5.910655e+00 5.903595e+00 6.122372e+00 5.423310e+00 5.453522e+00 4.987998e+00 3.504677e+00 3.366010e+00 3.411270e-01 5.153495e-01 5.382827e-01 1.000669e+00 8.716781e-01 9.122583e-01 1.103793e+00 1.228749e+00 1.035208e+00 1.074568e+00 9.446353e-01 7.901154e-01 4.315492e-01
<GCONST> 1.384066e+02
<STATE> 4
<MEAN> 39
 2.328491e+00 4.055969e+00 -1.405508e+00 -1.310348e+01 -1.131027e+01 3.106463e+00 -1.660820e+01 -7.727152e+00 -7.841259e+00 -3.380081e+00 2.654682e+00 -4.243637e+00 5.936670e+01 -4.585338e-01 -9.801660e-02 3.317392e-01 1.165555e+00 6.903016e-01 -9.930382e-01 8.127666e-01 1.421883e-01 7.403531e-01 1.988616e-01 -8.704805e-01 -2.210039e-01 -9.638373e-01 -2.265544e-01 -6.106349e-02 8.837470e-02 2.020591e-01 7.118943e-02 -1.018808e-01 1.153602e-01 4.182456e-02 8.606876e-02 -2.958399e-02 -1.308628e-01 2.032209e-02 -6.127829e-02
<VARIANCE> 39
 1.790883e+01 5.180162e+01 4.332942e+01 9.313761e+01 4.738349e+01 6.205735e+01 9.105768e+01 7.747980e+01 8.001002e+01 6.227386e+01 5.444712e+01 4.460495e+01 7.687363e+01 1.388753e+00 2.649355e+00 2.602902e+00 4.595840e+00 3.820088e+00 3.870785e+00 4.406434e+00 4.261791e+00 4.196692e+00 3.757446e+00 3.942388e+00 3.482352e+00 3.823887e+00 2.536438e-01 4.431454e-01 3.912746e-01 7.535569e-01 6.427470e-01 6.500559e-01 8.510159e-01 7.573653e-01 6.940078e-01 6.962009e-01 6.854787e-01 5.815855e-01 4.682971e-01
<GCONST> 1.333168e+02
<TRANSP> 5
 0.000000e+00 1.000000e+00 0.000000e+00 0.000000e+00 0.000000e+00
 0.000000e+00 5.645761e-01 4.354239e-01 0.000000e+00 0.000000e+00
 0.000000e+00 0.000000e+00 6.475663e-01 3.524337e-01 0.000000e+00
 0.000000e+00 0.000000e+00 0.000000e+00 7.343082e-01 2.656918e-01
 0.000000e+00 0.000000e+00 0.000000e+00 0.000000e+00 0.000000e+00
<ENDHMM>
~h "w"
<BEGINHMM>
<NUMSTATES> 5
<STATE> 2
<MEAN> 39
 2.497868e+00 -4.780065e-01 -2.978112e+00 -1.534562e+01 -1.075471e+01 4.840473e+00 -1.246758e+01 -4.549440e+00 -6.634397e+00 -2.480222e+00 3.066076e+00 -5.731579e+00 6.035273e+01 1.154200e+00 9.873238e-01 1.212440e-02 -1.964514e+00 -1.156278e+00 1.390705e+00 -1.262971e-01 -1.052933e-01 -1.025724e+00 -6.037487e-01 1.057705e+00 7.569411e-01 1.238841e-01 -2.496852e-01 -2.037286e-01 1.209803e-01 1.451365e-01 -9.581196e-02 -2.041132e-01 1.373630e-01 1.926116e-01 2.049643e-01 -1.519641e-01 -1.111672e-01 2.211220e-02 6.767050e-02
<VARIANCE> 39
 2.744274e+01 8.286325e+01 4.379850e+01 8.259666e+01 4.687140e+01 6.051541e+01 8.702000e+01 7.541506e+01 8.667271e+01 5.184039e+01 5.693622e+01 5.022723e+01 1.168757e+02 1.825713e+00 3.319256e+00 2.816426e+00 3.395090e+00 3.830802e+00 3.801057e+00 4.025687e+00 4.214803e+00 4.272714e+00 3.422842e+00 3.701558e+00 3.623296e+00 3.862397e+00 3.931324e-01 5.109736e-01 4.412129e-01 6.180158e-01 7.464743e-01 6.693633e-01 7.368879e-01 7.049436e-01 8.108894e-01 7.069950e-01 7.264835e-01 6.462544e-01 3.026383e-01
<GCONST> 1.349078e+02
<STATE> 3
<MEAN> 39
 4.792038e+00 1.669614e-01 -2.952785e+00 -2.202580e+01 -1.561705e+01 9.369292e+00 -1.280817e+01 -4.408282e+00 -5.947986e+00 -5.701393e+00 6.815346e+00 -3.861189e+00 6.393208e+01 -1.999295e-01 -7.303159e-01 -3.696712e-01 -3.292145e-01 1.080588e-01 3.939458e-01 4.191291e-03 -1.201870e-01 5.777872e-01 2.413170e-01 5.136298e-01 -3.732033e-01 6.964720e-01 -2.736713e-01 -4.529347e-01 -1.089438e-01 4.623493e-01 4.552070e-01 -2.529660e-01 -1.853708e-02 7.197416e-03 3.431850e-01 2.861092e-01 -2.267789e-01 -4.887294e-01 2.212751e-01
<VARIANCE> 39
 1.368861e+01 4.895030e+01 3.295791e+01 5.685126e+01 3.495180e+01 4.338081e+01 7.361330e+01 8.924319e+01 7.779009e+01 4.554880e+01 5.266200e+01 4.590834e+01 3.407682e+01 7.590979e-01 4.130482e+00 1.728088e+00 2.537365e+00 3.460036e+00 2.709008e+00 2.223152e+00 2.491292e+00 3.232119e+00 3.585382e+00 3.114278e+00 3.862136e+00 2.408508e+00 8.226661e-02 2.790173e-01 2.930135e-01 3.369590e-01 4.441311e-01 5.704480e-01 4.043508e-01 5.585461e-01 5.004854e-01 5.469131e-01 7.550090e-01 5.393000e-01 2.050311e-01
<GCONST> 1.209839e+02
<STATE> 4
<MEAN> 39
 2.882914e+00 -5.050284e+00 -6.091974e+00 -2.175066e+01 -1.065594e+01 9.730615e+00 -1.351613e+01 -3.072302e+00 -2.907089e+00 -3.654892e+00 5.481339e+00 -9.658736e+00 6.710232e+01 -4.408848e-01 -8.324053e-01 -1.267858e-01 8.035347e-01 7.812483e-01 -4.966433e-01 2.555683e-03 1.667091e-01 5.581689e-01 2.360904e-01 -7.842460e-01 -8.682490e-01 3.917474e-01 -4.392298e-03 1.166229e-01 1.551760e-01 1.736831e-01 -7.775778e-02 -2.764237e-01 8.049128e-04 1.309280e-01 -6.538978e-02 -8.203217e-02 -2.003839e-01 1.717817e-01 -1.301077e-01
<VARIANCE> 39
 1.528717e+01 8.987981e+01 4.607327e+01 6.268361e+01 5.386995e+01 4.634050e+01 5.728928e+01 5.583658e+01 6.955778e+01 5.114909e+01 5.779454e+01 6.512524e+01 4.365423e+01 5.537031e-01 2.291028e+00 1.134001e+00 2.090068e+00 2.705520e+00 2.727868e+00 1.726781e+00 2.258722e+00 2.242730e+00 2.077488e+00 2.737310e+00 3.372032e+00 1.171706e+00 6.629449e-02 2.517118e-01 1.894350e-01 2.476008e-01 3.758630e-01 3.851996e-01 3.167650e-01 3.884457e-01 3.121469e-01 4.106373e-01 4.396404e-01 5.051994e-01 1.381955e-01
<GCONST> 1.146125e+02
<TRANSP> 5
 0.000000e+00 1.000000e+00 0.000000e+00 0.000000e+00 0.000000e+00
 0.000000e+00 6.896362e-01 3.103638e-01 0.000000e+00 0.000000e+00
 0.000000e+00 0.000000e+00 7.495636e-01 2.504364e-01 0.000000e+00
 0.000000e+00 0.000000e+00 0.000000e+00 8.328542e-01 1.671458e-01
 0.000000e+00 0.000000e+00 0.000000e+00 0.000000e+00 0.000000e+00
<ENDHMM>
~h "y"
<BEGINHMM>
<NUMSTATES> 5
<STATE> 2
<MEAN> 39
 -5.537425e+00 -4.315107e+00 1.190102e+01 -8.975402e+00 -1.612072e+01 -6.547648e+00 -1.208722e+01 1.057549e+00 -6.732887e+00 -3.903616e+00 1.567273e+00 -4.123247e+00 6.504956e+01 -3.769417e-01 9.757396e-01 2.453650e+00 -6.170639e-03 -1.741606e+00 -2.700070e-01 -9.192160e-01 -7.070379e-01 -1.434410e+00 2.223006e-01 1.593004e+00 6.327079e-01 3.119426e-01 1.498859e-02 -6.168375e-02 -3.714128e-01 -2.400883e-03 2.582720e-01 2.143073e-01 -8.501837e-02 -2.202832e-01 1.272425e-01 3.540301e-02 -8.795331e-02 -1.546828e-01 -2.238419e-02
<VARIANCE> 39
 1.958875e+01 8.053165e+01 8.851947e+01 4.730546e+01 5.263269e+01 4.629587e+01 6.120163e+01 8.950158e+01 7.226575e+01 7.628020e+01 6.082323e+01 3.225259e+01 1.069806e+02 1.204683e+00 2.770511e+00 3.321153e+00 2.199063e+00 3.428183e+00 3.044605e+00 3.966177e+00 4.128123e+00 3.557495e+00 4.175020e+00 2.734015e+00 2.769359e+00 2.958020e+00 1.699857e-01 3.622359e-01 6.338591e-01 3.872605e-01 6.153017e-01 6.126113e-01 6.640410e-01 7.859837e-01 5.787212e-01 6.258430e-01 5.360761e-01 4.270745e-01 2.217537e-01
<GCONST> 1.289841e+02
<STATE> 3
<MEAN> 39
 -6.635158e+00 -1.969331e+00 1.762493e+01 -9.103557e+00 -2.113849e+01 -6.782726e+00 -1.608071e+01 -2.442118e+00 -1.007722e+01 -2.741512e+00 6.104748e+00 -3.309265e+00 6.757737e+01 1.940579e-01 -7.967718e-01 -9.076568e-01 -2.066741e-01 -3.705900e-01 -4.395518e-01 3.562451e-01 8.517974e-01 6.783574e-01 3.233255e-01 -7.897156e-02 6.874077e-02 6.687443e-01 1.312802e-01 -3.229790e-01 -6.568059e-01 -3.598712e-02 4.015725e-01 1.895729e-02 3.243937e-01 4.093777e-01 4.172796e-01 -7.649616e-02 -4.686342e-01 -1.729072e-01 3.955301e-02
<VARIANCE> 39
 1.046911e+01 3.955511e+01 5.193548e+01 3.817204e+01 3.224837e+01 3.584957e+01 3.830979e+01 5.948670e+01 7.075357e+01 9.543375e+01 5.493699e+01 2.958709e+01 3.509259e+01 5.062913e-01 2.638641e+00 3.852050e+00 1.238360e+00 2.186195e+00 1.966772e+00 2.852134e+00 4.600153e+00 3.077252e+00 2.604039e+00 2.244134e+00 1.552514e+00 1.182623e+00 7.022946e-02 2.054630e-01 2.881887e-01 2.102867e-01 5.538529e-01 4.161128e-01 4.385450e-01 5.140609e-01 3.974925e-01 5.525222e-01 4.088986e-01 3.420183e-01 1.202221e-01
<GCONST> 1.136299e+02
<STATE> 4
<MEAN> 39
 -6.419423e+00 -7.899768e+00 6.323795e+00 -1.030989e+01 -1.620747e+01 -7.064814e+00 -9.427434e+00 3.650918e+00 -5.673691e+00 -2.408109e+00 -1.296300e+00 -3.140000e+00 6.460300e+01 3.115807e-01 -8.187913e-01 -1.655382e+00 -7.280847e-02 1.344590e+00 4.121397e-01 4.806953e-01 7.667611e-01 9.408251e-01 -7.011738e-01 -1.391233e+00 -6.407873e-01 2.217328e-01 2.730309e-02 1.568016e-01 6.180590e-02 4.187184e-02 2.910778e-01 2.445624e-01 -2.108451e-01 -3.900501e-01 -1.163736e-01 -2.532354e-02 -1.611655e-02 -1.372112e-01 -1.710018e-01
<VARIANCE> 39
 2.047623e+01 5.222729e+01 9.535226e+01 4.465493e+01 5.811200e+01 3.610222e+01 5.564853e+01 7.678381e+01 7.815808e+01 6.481591e+01 5.482930e+01 2.954178e+01 1.878001e+02 4.514145e-01 1.587660e+00 3.403811e+00 1.106955e+00 3.241052e+00 1.767002e+00 2.482840e+00 2.990300e+00 2.776407e+00 3.031681e+00 3.299005e+00 1.876999e+00 8.014393e-01 5.940656e-02 1.854668e-01 2.619402e-01 2.031758e-01 4.367861e-01 4.012034e-01 3.746376e-01 5.707393e-01 3.779254e-01 4.300455e-01 4.006601e-01 2.752178e-01 1.010175e-01
<GCONST> 1.156087e+02
<TRANSP> 5
 0.000000e+00 1.000000e+00 0.000000e+00 0.000000e+00 0.000000e+00
 0.000000e+00 7.199368e-01 2.800632e-01 0.000000e+00 0.000000e+00
 0.000000e+00 0.000000e+00 8.167828e-01 1.832172e-01 0.000000e+00
 0.000000e+00 0.000000e+00 0.000000e+00 7.771212e-01 2.228788e-01
 0.000000e+00 0.000000e+00 0.000000e+00 0.000000e+00 0.000000e+00
<ENDHMM>
~h "z"
<BEGINHMM>
<NUMSTATES> 5
<STATE> 2
<MEAN> 39
 -8.127983e+00 6.821089e+00 2.028078e+00 -7.419356e-01 -4.933878e+00 -1.058185e+01 -1.220123e+01 -5.517017e+00 -3.010421e+00 -2.478666e+00 -4.682163e+00 -6.903749e-01 6.262700e+01 -2.042967e+00 2.642389e+00 -9.374227e-01 1.401651e+00 1.391891e+00 -3.214166e-01 1.226122e+00 -1.054428e-01 1.515359e-01 -2.685203e-01 -2.278239e-01 7.763411e-01 -7.695323e-01 -2.120751e-01 -1.932496e-01 -5.377316e-02 -1.721051e-01 -9.877591e-02 4.496951e-01 1.291097e-01 1.617478e-01 7.587996e-02 2.690357e-02 2.024935e-01 -2.250740e-01 -4.751060e-03
<VARIANCE> 39
 3.992812e+01 4.788602e+01 5.855072e+01 5.121840e+01 6.186151e+01 4.748490e+01 7.733154e+01 4.478831e+01 5.684404e+01 4.148878e+01 3.923152e+01 2.498259e+01 6.045113e+01 2.818131e+00 4.727965e+00 3.677488e+00 4.083447e+00 4.739286e+00 3.751564e+00 4.645528e+00 4.593374e+00 3.664898e+00 3.412726e+00 3.225938e+00 2.158972e+00 1.544546e+00 3.645104e-01 5.910237e-01 4.662226e-01 4.650198e-01 6.168046e-01 5.434874e-01 7.752003e-01 6.402272e-01 4.831098e-01 5.594915e-01 5.826923e-01 3.864022e-01 1.753747e-01
<GCONST> 1.288715e+02
<STATE> 3
<MEAN> 39
 -1.737168e+01 1.380846e+01 -1.087923e+00 3.276101e+00 -3.070862e-01 -9.081029e+00 -7.142491e+00 -3.888601e+00 -2.167506e+00 -2.561063e+00 -3.497059e+00 3.879006e-01 6.045938e+01 -1.154861e+00 1.390138e-01 -1.446637e-01 2.990386e-01 3.341176e-01 3.406161e-01 4.509051e-01 2.674183e-01 7.544246e-02 3.284910e-02 3.170028e-01 1.625537e-01 -1.204067e-01 5.679179e-01 -6.849397e-01 2.760415e-01 -3.053805e-01 -4.098642e-01 -8.973520e-02 -3.868198e-01 -9.567691e-02 -5.550031e-02 -3.197331e-02 6.700034e-02 -7.564207e-02 2.745750e-01
<VARIANCE> 39
 4.672570e+01 3.397617e+01 3.932307e+01 4.278763e+01 4.025884e+01 3.921658e+01 5.375845e+01 2.641440e+01 2.784388e+01 2.799612e+01 2.407288e+01 1.874484e+01 3.750521e+01 2.832682e+00 3.085356e+00 1.859273e+00 1.720794e+00 2.514096e+00 2.390795e+00 2.868227e+00 2.085308e+00 2.023757e+00 1.879149e+00 1.716456e+00 1.400281e+00 1.262386e+00 4.493473e-01 5.420014e-01 3.451353e-01 4.063600e-01 5.216490e-01 5.132732e-01 5.318167e-01 4.722164e-01 4.625828e-01 4.138026e-01 3.706742e-01 3.123683e-01 2.148143e-01
<GCONST> 1.154284e+02
<STATE> 4
<MEAN> 39
 -1.539153e+01 4.758437e+00 -6.369783e-01 -2.999587e-01 -3.146328e+00 -7.207169e+00 -7.074308e+00 -3.089624e+00 -4.331641e+00 -3.736246e+00 -3.039111e+00 -4.033042e-01 4.901708e+01 5.375788e-01 -4.936917e-01 3.511079e-01 -2.881530e-01 -5.773252e-01 -1.706845e-01 -4.619220e-01 -1.385450e-01 1.574225e-02 -3.536536e-02 1.845195e-01 -3.782978e-02 3.944615e-01 2.095501e-01 -1.249818e-01 6.822080e-02 -1.099843e-01 -1.704071e-01 6.150597e-02 -1.311662e-01 -6.001413e-03 2.041535e-02 1.470648e-03 2.350769e-02 -8.929724e-02 7.921282e-02
<VARIANCE> 39
 4.311248e+01 6.969117e+01 4.892864e+01 4.116717e+01 3.487017e+01 3.791445e+01 4.953282e+01 3.085644e+01 2.873409e+01 2.590882e+01 2.349878e+01 2.151686e+01 1.884659e+02 2.922566e+00 2.789780e+00 1.875806e+00 2.027800e+00 3.134675e+00 2.288031e+00 3.335351e+00 2.399248e+00 2.291453e+00 1.831232e+00 1.718108e+00 1.505284e+00 1.745716e+00 3.652837e-01 3.312172e-01 3.100831e-01 3.338786e-01 4.313557e-01 4.939234e-01 5.312187e-01 4.536328e-01 3.987440e-01 3.584415e-01 3.312085e-01 3.187677e-01 1.768427e-01
<GCONST> 1.170399e+02
<TRANSP> 5
 0.000000e+00 1.000000e+00 0.000000e+00 0.000000e+00 0.000000e+00
 0.000000e+00 6.767123e-01 3.232877e-01 0.000000e+00 0.000000e+00
 0.000000e+00 0.000000e+00 7.760701e-01 2.239299e-01 0.000000e+00
 0.000000e+00 0.000000e+00 0.000000e+00 8.975732e-01 1.024268e-01
 0.000000e+00 0.000000e+00 0.000000e+00 0.000000e+00 0.000000e+00
<ENDHMM>
~h "ai"
<BEGINHMM>
<NUMSTATES> 5
<STATE> 2
<MEAN> 39
 -2.311193e+00 -1.456750e+01 -1.930980e+00 -1.195446e+01 -1.001080e+01 -4.646987e+00 -1.054375e+01 6.577420e+00 2.020084e+00 -5.808205e+00 -3.606488e+00 -9.481888e+00 7.324294e+01 -2.691731e-01 -4.137964e-01 1.422395e+00 -1.406967e-03 -1.682497e+00 -1.186118e+00 8.392622e-01 1.522511e+00 -6.136805e-01 -2.794240e-01 1.654088e-01 8.977207e-01 4.845659e-01 -2.003012e-01 6.314303e-01 3.298047e-01 1.717161e-01 -2.489906e-01 -2.635354e-02 -3.354669e-02 -5.224596e-01 -4.802533e-01 3.278084e-01 3.963989e-01 3.472921e-01 -5.125207e-01
<VARIANCE> 39
 9.473560e+00 2.855809e+01 5.559998e+01 3.631920e+01 5.029912e+01 4.676229e+01 7.647512e+01 6.252303e+01 5.797176e+01 6.176181e+01 5.827994e+01 4.220504e+01 2.023968e+01 9.673578e-01 2.715406e+00 2.222103e+00 2.103661e+00 3.111655e+00 3.397984e+00 2.795209e+00 3.822230e+00 3.210313e+00 3.178335e+00 3.514888e+00 3.078927e+00 1.375415e+00 2.965730e-01 2.517574e-01 3.204969e-01 3.867240e-01 5.563149e-01 5.827942e-01 6.043766e-01 7.111256e-01 5.721044e-01 5.599821e-01 6.675623e-01 6.169901e-01 2.481204e-01
<GCONST> 1.223078e+02
<STATE> 3
<MEAN> 39
 -4.288214e+00 -1.138960e+01 7.439081e+00 -1.121076e+01 -1.997359e+01 -9.519702e+00 -8.916944e+00 7.496615e+00 -3.930356e+00 -2.686211e+00 2.276648e+00 -3.998055e+00 7.179272e+01 -3.965472e-01 1.337139e+00 1.891043e+00 2.128028e-02 -1.487765e+00 -2.446154e-01 -3.923700e-01 -1.243631e+00 -1.489994e+00 1.152434e+00 1.327849e+00 5.200721e-01 -6.436204e-01 4.103253e-02 2.621672e-01 -1.959217e-01 1.424875e-01 5.705927e-01 2.877305e-01 -2.597315e-01 -5.442378e-01 7.946283e-02 -6.446718e-02 -2.581652e-01 -2.400840e-01 -3.007655e-01
<VARIANCE> 39
 8.503245e+00 3.255893e+01 4.276423e+01 3.567351e+01 3.344175e+01 2.769819e+01 5.378209e+01 4.881271e+01 6.004039e+01 6.422083e+01 6.266132e+01 2.693738e+01 2.068205e+01 4.180971e-01 1.562636e+00 1.992169e+00 1.360902e+00 2.649456e+00 1.786703e+00 2.650336e+00 2.834884e+00 2.986571e+00 2.392537e+00 2.624033e+00 1.826505e+00 8.155353e-01 9.618232e-02 2.089574e-01 2.882038e-01 2.331721e-01 3.983627e-01 3.576159e-01 4.845133e-01 5.384063e-01 4.800215e-01 4.424344e-01 5.016729e-01 3.556511e-01 1.342646e-01
<GCONST> 1.103450e+02
<STATE> 4
<MEAN> 39
 -5.089349e+00 -3.214006e+00 1.256672e+01 -9.233867e+00 -2.031367e+01 -8.609236e+00 -1.242759e+01 -5.026802e-01 -8.737453e+00 3.361304e-01 3.119437e+00 -4.313822e+00 6.476648e+01 6.713050e-02 8.828131e-01 -8.709356e-02 6.216449e-01 7.207727e-01 2.503458e-01 1.460189e-02 -7.948328e-01 -8.620126e-02 -8.508995e-02 -3.786776e-01 -1.057519e-01 -1.420588e+00 1.976658e-02 -6.863645e-02 -3.404237e-01 8.026042e-02 3.253653e-01 9.315742e-02 1.463358e-01 1.022522e-01 2.015808e-01 -1.287458e-01 -1.835505e-01 -2.110405e-02 -8.188311e-02
<VARIANCE> 39
 1.522032e+01 5.675186e+01 4.781801e+01 4.327893e+01 3.736301e+01 3.916973e+01 5.454918e+01 7.124818e+01 4.931467e+01 5.876941e+01 5.522806e+01 3.703826e+01 7.916462e+01 1.130343e+00 2.110581e+00 2.911462e+00 2.256346e+00 3.026207e+00 2.286076e+00 3.068896e+00 3.309650e+00 2.834810e+00 2.443022e+00 2.550142e+00 1.764525e+00 2.698176e+00 2.134551e-01 3.008581e-01 3.507870e-01 3.709846e-01 4.901495e-01 4.388637e-01 5.404091e-01 5.378507e-01 5.000216e-01 4.500806e-01 4.415708e-01 3.211824e-01 3.854745e-01
<GCONST> 1.210756e+02
<TRANSP> 5
 0.000000e+00 1.000000e+00 0.000000e+00 0.000000e+00 0.000000e+00
 0.000000e+00 7.657502e-01 2.342498e-01 0.000000e+00 0.000000e+00
 0.000000e+00 0.000000e+00 6.676602e-01 3.323398e-01 0.000000e+00
 0.000000e+00 0.000000e+00 0.000000e+00 8.722021e-01 1.277979e-01
 0.000000e+00 0.000000e+00 0.000000e+00 0.000000e+00 0.000000e+00
<ENDHMM>
~h "au"
<BEGINHMM>
<NUMSTATES> 5
<STATE> 2
<MEAN> 39
 7.355901e-01 -1.052916e+01 -7.857907e+00 -1.946004e+01 -5.876119e+00 6.429396e+00 -1.513870e+01 -3.351302e+00 6.635569e-01 7.165638e-01 -5.469227e-02 -1.283619e+01 7.198395e+01 2.135686e-01 2.031841e-01 -6.979161e-02 -7.153980e-01 5.469390e-02 5.619450e-01 -8.735153e-02 -2.915034e-01 -2.345906e-01 -1.500255e-01 8.571675e-01 -2.104345e-02 -1.525095e-01 2.415384e-02 2.605048e-01 1.100059e-01 4.944889e-02 -1.739967e-01 -1.151620e-01 1.982766e-02 -9.608503e-02 -1.898181e-01 -1.609238e-02 1.709544e-01 3.511010e-01 -2.255148e-01
<VARIANCE> 39
 1.191865e+01 3.188818e+01 2.732606e+01 4.021023e+01 2.910362e+01 3.782143e+01 4.950626e+01 4.633702e+01 3.845486e+01 4.931810e+01 4.437078e+01 4.473792e+01 2.120098e+01 4.113311e-01 1.908511e+00 8.036949e-01 1.375943e+00 1.267069e+00 2.036084e+00 1.337643e+00 2.440199e+00 1.662154e+00 1.950884e+00 2.466108e+00 3.427946e+00 5.731698e-01 1.198613e-01 2.902334e-01 1.525799e-01 2.680894e-01 2.177480e-01 3.306513e-01 2.687870e-01 4.718646e-01 3.181112e-01 3.484896e-01 4.687101e-01 5.929432e-01 1.336709e-01
<GCONST> 1.055569e+02
<STATE> 3
<MEAN> 39
 3.768184e+00 -2.809436e+00 -7.304039e+00 -2.402287e+01 -1.003994e+01 8.139839e+00 -1.542174e+01 -4.167193e+00 -3.632663e+00 -2.921131e+00 5.265336e+00 -7.684399e+00 6.622407e+01 3.475523e-01 1.066929e+00 3.053643e-01 1.047396e-01 -4.553439e-01 -4.281351e-01 -6.979099e-02 -4.434188e-02 -5.861967e-01 -1.691546e-01 -2.950578e-02 8.116840e-01 -1.012540e+00 -6.858286e-02 -5.482167e-02 4.160161e-02 3.504180e-01 9.093730e-02 -1.787334e-01 1.683713e-02 1.345711e-02 8.472984e-02 7.183851e-02 -2.652609e-01 -1.083754e-01 -6.602693e-02
<VARIANCE> 39
 1.399812e+01 7.106585e+01 3.604828e+01 4.205000e+01 3.928826e+01 4.116049e+01 6.472131e+01 4.247883e+01 5.527914e+01 5.693103e+01 4.922044e+01 5.337607e+01 4.373573e+01 4.162556e-01 1.615659e+00 9.632667e-01 2.326706e+00 1.899767e+00 1.862870e+00 1.944933e+00 2.024420e+00 2.352731e+00 2.267568e+00 2.509822e+00 2.844905e+00 7.489967e-01 6.005634e-02 2.192758e-01 1.614415e-01 3.350458e-01 3.188121e-01 2.991145e-01 3.291413e-01 3.640568e-01 3.869565e-01 3.993025e-01 4.358498e-01 4.816928e-01 9.899862e-02
<GCONST> 1.098529e+02
<STATE> 4
<MEAN> 39
 -5.770532e+00 -1.062301e+00 -4.597533e+00 -8.425411e+00 -6.033752e+00 -9.389967e-01 -7.538392e+00 -3.702921e+00 -4.297412e+00 -3.593919e+00 -2.821868e+00 -2.730003e+00 4.413577e+01 -2.914194e-01 4.355182e-02 1.167270e-01 7.508634e-01 1.808947e-01 -3.920992e-01 4.542320e-02 -1.585152e-01 1.641008e-02 1.651589e-01 -2.704938e-01 6.752318e-02 -5.995295e-01 -4.963152e-02 -4.594446e-02 3.346764e-02 8.703977e-02 3.133312e-02 -6.199499e-03 1.708406e-02 5.587261e-03 1.884645e-02 3.023565e-03 -3.230477e-02 -5.216271e-02 5.138365e-02
<VARIANCE> 39
 6.586955e+01 6.128469e+01 2.237146e+01 7.684543e+01 3.781633e+01 4.437381e+01 7.399828e+01 3.531756e+01 3.422801e+01 3.687864e+01 4.115042e+01 2.610002e+01 1.337968e+02 9.321831e-01 1.522109e+00 1.586243e+00 2.912842e+00 2.230444e+00 2.346477e+00 2.520912e+00 2.145525e+00 2.427673e+00 2.239293e+00 2.177222e+00 1.987674e+00 1.371992e+00 1.713488e-01 2.687503e-01 2.672570e-01 4.566779e-01 4.187297e-01 4.105454e-01 4.551576e-01 4.367612e-01 4.464401e-01 4.379297e-01 4.353209e-01 3.938308e-01 1.959795e-01
<GCONST> 1.168548e+02
<TRANSP> 5
 0.000000e+00 1.000000e+00 0.000000e+00 0.000000e+00 0.000000e+00
 0.000000e+00 8.237047e-01 1.762953e-01 0.000000e+00 0.000000e+00
