~o
<STREAMINFO> 1 39
<VECSIZE> 39<NULLD><MFCC_D_A_0><DIAGC>
~h "@"
<BEGINHMM>
<NUMSTATES> 5
<STATE> 2
<MEAN> 39
 -6.153114e+00 -2.723568e+00 1.532466e-01 -5.270144e+00 -7.196408e+00 -2.546560e+00 -8.909237e+00 -3.195607e+00 -3.236882e+00 -2.479886e+00 -1.900899e+00 -4.807135e+00 5.436957e+01 1.113525e-02 -1.057101e-04 5.291210e-03 -3.776876e-03 -2.276626e-03 3.224597e-03 -5.756892e-03 -2.611195e-03 1.174245e-03 2.753372e-03 -8.489100e-04 -4.495604e-03 2.316643e-02 -5.085842e-05 1.270355e-04 -8.073661e-05 4.551312e-05 1.264483e-04 1.571182e-04 4.033774e-04 -3.649373e-05 4.862695e-05 -5.709169e-05 6.828920e-06 -7.973889e-05 -5.305547e-04
<VARIANCE> 39
 6.890974e+01 6.686975e+01 7.903246e+01 6.535125e+01 6.667722e+01 5.600611e+01 7.552497e+01 6.592706e+01 6.283159e+01 4.706607e+01 4.996252e+01 4.479271e+01 2.253931e+02 2.787036e+00 3.042270e+00 3.069704e+00 3.279942e+00 3.432603e+00 3.118801e+00 3.598897e+00 3.946087e+00 3.405964e+00 2.928901e+00 3.036333e+00 2.585938e+00 5.397366e+00 4.264241e-01 4.733434e-01 4.865090e-01 5.541358e-01 6.209772e-01 5.591168e-01 6.524498e-01 7.034739e-01 6.087635e-01 5.479330e-01 5.619642e-01 4.781617e-01 7.399029e-01
<GCONST> 1.345808e+02
<STATE> 3
<MEAN> 39
 -6.114031e+00 -2.724346e+00 1.706252e-01 -5.283927e+00 -7.204273e+00 -2.535513e+00 -8.929251e+00 -3.204502e+00 -3.233307e+00 -2.471239e+00 -1.903862e+00 -4.824801e+00 5.445263e+01 1.096036e-02 1.162120e-04 5.097342e-03 -3.566195e-03 -1.973566e-03 3.758227e-03 -4.601371e-03 -2.776216e-03 1.309377e-03 2.486276e-03 -8.820346e-04 -4.808045e-03 2.159462e-02 -5.879588e-05 7.764003e-05 -4.119204e-05 9.353887e-05 6.260827e-05 1.444061e-04 3.218917e-04 -4.510799e-05 3.396257e-05 -1.148993e-04 -2.421566e-06 -7.956027e-05 -4.732301e-04
<VARIANCE> 39
 6.897346e+01 6.695673e+01 7.922837e+01 6.539298e+01 6.682913e+01 5.617690e+01 7.575661e+01 6.615411e+01 6.306087e+01 4.721067e+01 5.012362e+01 4.479093e+01 2.247100e+02 2.797680e+00 3.050789e+00 3.078079e+00 3.291023e+00 3.439823e+00 3.126445e+00 3.609857e+00 3.956994e+00 3.415384e+00 2.935532e+00 3.043209e+00 2.588303e+00 5.412859e+00 4.279054e-01 4.744343e-01 4.879096e-01 5.560691e-01 6.223870e-01 5.603736e-01 6.540337e-01 7.052394e-01 6.102791e-01 5.488163e-01 5.629669e-01 4.783647e-01 7.418333e-01
<GCONST> 1.346694e+02
<STATE> 4
<MEAN> 39
 -6.068445e+00 -2.705594e+00 2.130366e-01 -5.262398e+00 -7.159495e+00 -2.607106e+00 -8.874501e+00 -3.088043e+00 -3.372581e+00 -2.449322e+00 -1.946059e+00 -4.822436e+00 5.422483e+01 1.096247e-02 -5.153903e-04 4.688914e-03 -3.702749e-03 -1.935146e-03 3.945226e-03 -4.031055e-03 -2.344601e-03 1.026214e-03 1.929919e-03 -8.693379e-04 -5.352061e-03 2.121353e-02 -2.918121e-05 -1.607689e-05 -4.485973e-05 5.472881e-05 -8.740376e-07 9.641538e-05 2.160358e-04 3.292802e-05 -9.313177e-06 -1.165618e-04 -5.869932e-06 -3.876232e-05 -3.873146e-04
<VARIANCE> 39
 6.922629e+01 6.660361e+01 7.893176e+01 6.532654e+01 6.658873e+01 5.590840e+01 7.487296e+01 6.477856e+01 6.242594e+01 4.660182e+01 4.968433e+01 4.432885e+01 2.254780e+02 2.758433e+00 3.011067e+00 3.027861e+00 3.265685e+00 3.394388e+00 3.098320e+00 3.578140e+00 3.881335e+00 3.395439e+00 2.904672e+00 3.009879e+00 2.548827e+00 5.297506e+00 4.209867e-01 4.674309e-01 4.798670e-01 5.508000e-01 6.135275e-01 5.545316e-01 6.475190e-01 6.921988e-01 6.056905e-01 5.425217e-01 5.567872e-01 4.708347e-01 7.218220e-01
<GCONST> 1.342327e+02
<TRANSP> 5
 0.000000e+00 1.000000e+00 0.000000e+00 0.000000e+00 0.000000e+00
 0.000000e+00 7.099652e-01 2.900347e-01 0.000000e+00 0.000000e+00
 0.000000e+00 0.000000e+00 7.099611e-01 2.900389e-01 0.000000e+00
 0.000000e+00 0.000000e+00 0.000000e+00 8.354813e-01 1.645187e-01
 0.000000e+00 0.000000e+00 0.000000e+00 0.000000e+00 0.000000e+00
<ENDHMM>
~h "a"
<BEGINHMM>
<NUMSTATES> 5
<STATE> 2
<MEAN> 39
 -5.964434e+00 -3.311809e+00 -1.871663e-01 -5.716075e+00 -6.756932e+00 -2.347606e+00 -8.622461e+00 -2.795490e+00 -3.245496e+00 -2.730193e+00 -2.400257e+00 -5.088902e+00 5.459356e+01 1.900462e-03 1.100567e-03 -2.786002e-04 -2.889941e-03 6.564059e-04 2.114788e-03 -1.930786e-05 -2.327770e-03 -5.460885e-04 -5.526986e-04 -3.041002e-03 -3.863943e-03 -3.436041e-04 -1.703532e-04 2.363054e-04 4.079169e-05 1.006668e-04 -1.904491e-04 -1.505747e-04 2.697178e-05 -1.385483e-04 -3.970683e-05 9.023630e-05 1.487171e-04 5.792892e-05 -3.319478e-04
<VARIANCE> 39
 6.739362e+01 6.864445e+01 7.843443e+01 6.722244e+01 6.628670e+01 5.554239e+01 7.074571e+01 6.448819e+01 6.250105e+01 4.692572e+01 5.025950e+01 4.551086e+01 2.246672e+02 2.666172e+00 3.160042e+00 3.004520e+00 3.273720e+00 3.395240e+00 3.063873e+00 3.441884e+00 3.970575e+00 3.379132e+00 2.928815e+00 3.023260e+00 2.624468e+00 5.156624e+00 4.075360e-01 4.775631e-01 4.676792e-01 5.473497e-01 6.080557e-01 5.483932e-01 6.280292e-01 7.062218e-01 5.999511e-01 5.458924e-01 5.601339e-01 4.825546e-01 6.952375e-01
<GCONST> 1.341366e+02
<STATE> 3
<MEAN> 39
 -5.957773e+00 -3.309740e+00 -1.881211e-01 -5.726203e+00 -6.754226e+00 -2.341240e+00 -8.621287e+00 -2.803707e+00 -3.246562e+00 -2.732536e+00 -2.411329e+00 -5.102023e+00 5.459434e+01 1.202582e-03 1.957085e-03 -3.904344e-05 -2.376991e-03 -4.218131e-05 1.533683e-03 9.435821e-05 -2.751231e-03 -7.344040e-04 -3.069882e-04 -2.475785e-03 -3.516966e-03 -1.611642e-03 -1.570092e-04 1.603196e-04 3.029170e-05 1.451940e-04 -1.542762e-04 -1.625302e-04 6.929332e-05 -3.932073e-05 -3.886967e-05 8.029907e-05 1.402645e-04 8.663071e-05 -2.274727e-04
<VARIANCE> 39
 6.730664e+01 6.860232e+01 7.851360e+01 6.720375e+01 6.624110e+01 5.554401e+01 7.079060e+01 6.438706e+01 6.245723e+01 4.691887e+01 5.031849e+01 4.550327e+01 2.247028e+02 2.664087e+00 3.159796e+00 3.003883e+00 3.270257e+00 3.392525e+00 3.064488e+00 3.439898e+00 3.967170e+00 3.376069e+00 2.928267e+00 3.023030e+00 2.622562e+00 5.156319e+00 4.071573e-01 4.774395e-01 4.674084e-01 5.466053e-01 6.074373e-01 5.483861e-01 6.276022e-01 7.054455e-01 5.992589e-01 5.456121e-01 5.599896e-01 4.822609e-01 6.949976e-01
<GCONST> 1.341192e+02
<STATE> 4
<MEAN> 39
 -5.942071e+00 -3.268116e+00 -1.302767e-01 -5.706549e+00 -6.677433e+00 -2.391246e+00 -8.541016e+00 -2.713462e+00 -3.407366e+00 -2.742188e+00 -2.441382e+00 -5.111093e+00 5.429354e+01 5.996753e-04 1.976007e-03 3.447889e-04 -1.819913e-03 -4.104279e-04 8.813940e-04 6.090130e-04 -2.596172e-03 -5.992619e-04 -3.034872e-04 -1.935110e-03 -2.909501e-03 -1.796140e-03 -1.378506e-04 1.191256e-04 3.164414e-05 1.411100e-04 -1.267635e-04 -1.206407e-04 6.970059e-05 3.418751e-05 -2.567486e-06 4.845244e-05 1.616894e-04 1.087422e-04 -1.688139e-04
<VARIANCE> 39
 6.757530e+01 6.794309e+01 7.818164e+01 6.691034e+01 6.568378e+01 5.532035e+01 6.973837e+01 6.280172e+01 6.147616e+01 4.610614e+01 4.957956e+01 4.516592e+01 2.255779e+02 2.602001e+00 3.102411e+00 2.945243e+00 3.225010e+00 3.328140e+00 3.038673e+00 3.393383e+00 3.868792e+00 3.338169e+00 2.888942e+00 2.974071e+00 2.570412e+00 5.003184e+00 3.970896e-01 4.682437e-01 4.578352e-01 5.378736e-01 5.943774e-01 5.421178e-01 6.184015e-01 6.882215e-01 5.910658e-01 5.381459e-01 5.507380e-01 4.725657e-01 6.703474e-01
<GCONST> 1.335129e+02
<TRANSP> 5
 0.000000e+00 1.000000e+00 0.000000e+00 0.000000e+00 0.000000e+00
 0.000000e+00 7.134217e-01 2.865783e-01 0.000000e+00 0.000000e+00
 0.000000e+00 0.000000e+00 7.134256e-01 2.865744e-01 0.000000e+00
 0.000000e+00 0.000000e+00 0.000000e+00 8.408683e-01 1.591317e-01
 0.000000e+00 0.000000e+00 0.000000e+00 0.000000e+00 0.000000e+00
<ENDHMM>
~h "b"
<BEGINHMM>
<NUMSTATES> 5
<STATE> 2
<MEAN> 39
 -5.665467e+00 -2.359562e+00 4.591155e-01 -5.444746e+00 -7.407209e+00 -2.159275e+00 -9.106732e+00 -3.368969e+00 -3.486333e+00 -2.765080e+00 -1.745199e+00 -4.935446e+00 5.418312e+01 9.681545e-03 7.329669e-04 6.844396e-03 -3.229351e-03 -3.707634e-03 5.849820e-05 -5.075810e-03 5.042087e-04 -1.157079e-03 1.561448e-04 1.370415e-03 -5.929593e-03 1.854777e-02 -3.456372e-04 -2.508252e-06 -3.183621e-04 2.288797e-04 -5.448452e-05 -2.784120e-04 4.623794e-04 1.985559e-04 -1.603032e-04 4.550264e-05 -4.131854e-05 3.754758e-04 -7.555387e-04
<VARIANCE> 39
 7.148215e+01 6.850605e+01 7.856185e+01 6.674779e+01 6.802321e+01 5.795220e+01 7.011750e+01 6.542548e+01 6.276210e+01 4.538721e+01 5.067084e+01 4.407677e+01 2.153414e+02 2.627878e+00 3.099865e+00 3.010918e+00 3.334700e+00 3.487607e+00 3.132650e+00 3.568546e+00 3.895763e+00 3.499190e+00 2.923962e+00 3.106803e+00 2.616794e+00 5.086744e+00 3.930162e-01 4.740668e-01 4.672202e-01 5.558369e-01 6.255590e-01 5.582359e-01 6.535447e-01 6.914546e-01 6.207550e-01 5.485238e-01 5.761425e-01 4.814713e-01 6.929957e-01
<GCONST> 1.343606e+02
<STATE> 3
<MEAN> 39
 -5.629106e+00 -2.357352e+00 4.826508e-01 -5.456278e+00 -7.422362e+00 -2.161151e+00 -9.123633e+00 -3.367629e+00 -3.493891e+00 -2.764072e+00 -1.738673e+00 -4.953343e+00 5.425253e+01 8.394895e-03 1.036879e-03 5.706443e-03 -1.929063e-03 -3.259472e-03 -8.515628e-04 -3.240139e-03 9.442095e-04 -1.345582e-03 1.870387e-04 1.382247e-03 -4.388685e-03 1.570331e-02 -4.016797e-04 1.371226e-04 -3.491044e-04 3.821807e-04 1.477112e-04 -2.079947e-04 5.508217e-04 7.846660e-05 -1.518552e-05 1.443448e-05 5.848922e-05 4.436804e-04 -8.637893e-04
<VARIANCE> 39
 7.159203e+01 6.867558e+01 7.881000e+01 6.704005e+01 6.824156e+01 5.807807e+01 7.017299e+01 6.554948e+01 6.296699e+01 4.549676e+01 5.091321e+01 4.412878e+01 2.144127e+02 2.631678e+00 3.111768e+00 3.015480e+00 3.347959e+00 3.497446e+00 3.137549e+00 3.574538e+00 3.907876e+00 3.507884e+00 2.931074e+00 3.116798e+00 2.622524e+00 5.092969e+00 3.935038e-01 4.755884e-01 4.676091e-01 5.573626e-01 6.267492e-01 5.587641e-01 6.541399e-01 6.933832e-01 6.217092e-01 5.500234e-01 5.777177e-01 4.825915e-01 6.936840e-01
<GCONST> 1.344439e+02
<STATE> 4
<MEAN> 39
 -5.604113e+00 -2.344489e+00 5.108073e-01 -5.427721e+00 -7.359583e+00 -2.259541e+00 -9.047578e+00 -3.231487e+00 -3.642943e+00 -2.744944e+00 -1.772728e+00 -4.960667e+00 5.402796e+01 7.393449e-03 1.704867e-03 5.147221e-03 -7.798949e-04 -2.776837e-03 -1.617555e-03 -1.546118e-03 2.311515e-04 -4.987320e-04 4.047436e-04 1.159225e-03 -2.964411e-03 1.320370e-02 -4.616749e-04 1.691911e-04 -2.913169e-04 3.380491e-04 1.875642e-04 -1.475954e-04 4.443987e-04 -6.404029e-05 2.122584e-04 -2.954134e-05 -3.222350e-05 3.081435e-04 -9.158885e-04
<VARIANCE> 39
 7.161060e+01 6.811910e+01 7.821775e+01 6.745299e+01 6.763372e+01 5.755519e+01 6.918439e+01 6.401522e+01 6.189404e+01 4.481036e+01 5.047549e+01 4.379528e+01 2.140024e+02 2.570147e+00 3.064548e+00 2.946111e+00 3.327169e+00 3.434179e+00 3.098906e+00 3.523148e+00 3.837368e+00 3.462600e+00 2.899394e+00 3.076224e+00 2.585770e+00 4.946728e+00 3.842454e-01 4.671985e-01 4.570018e-01 5.528385e-01 6.142895e-01 5.511811e-01 6.436586e-01 6.804304e-01 6.132807e-01 5.446584e-01 5.702291e-01 4.757997e-01 6.695085e-01
<GCONST> 1.338886e+02
<TRANSP> 5
 0.000000e+00 1.000000e+00 0.000000e+00 0.000000e+00 0.000000e+00
 0.000000e+00 7.152331e-01 2.847669e-01 0.000000e+00 0.000000e+00
 0.000000e+00 0.000000e+00 7.152327e-01 2.847672e-01 0.000000e+00
 0.000000e+00 0.000000e+00 0.000000e+00 8.425333e-01 1.574667e-01
 0.000000e+00 0.000000e+00 0.000000e+00 0.000000e+00 0.000000e+00
<ENDHMM>
~h "c"
<BEGINHMM>
<NUMSTATES> 5
<STATE> 2
<MEAN> 39
 -6.624692e+00 -2.905842e+00 8.332758e-02 -5.368652e+00 -7.298433e+00 -2.894900e+00 -8.399799e+00 -2.818092e+00 -3.582677e+00 -2.656900e+00 -1.987081e+00 -4.392182e+00 5.436784e+01 -2.441389e-03 -2.333087e-03 -9.572819e-04 -3.655022e-03 -1.966949e-04 1.079367e-04 1.287556e-03 1.179832e-03 -3.882117e-03 -2.810232e-03 -2.996686e-04 4.174241e-03 4.739095e-03 1.261532e-04 7.772644e-05 2.791209e-04 5.072750e-05 -1.319462e-04 1.713792e-04 -5.082251e-04 7.460024e-04 -6.027641e-04 -7.177122e-04 -5.947496e-04 -1.628477e-04 3.905524e-05
<VARIANCE> 39
 7.115153e+01 6.675140e+01 7.682001e+01 6.284339e+01 6.335061e+01 5.638082e+01 6.912730e+01 6.345163e+01 6.042186e+01 4.606096e+01 4.714978e+01 4.338053e+01 2.179570e+02 3.558942e+00 3.336772e+00 3.271083e+00 3.347727e+00 3.641374e+00 3.211261e+00 3.663862e+00 3.944032e+00 3.494474e+00 2.968272e+00 2.987575e+00 2.655193e+00 5.960920e+00 5.887236e-01 5.340828e-01 5.327817e-01 5.809033e-01 6.653097e-01 5.834487e-01 6.796128e-01 7.095894e-01 6.330950e-01 5.605839e-01 5.628465e-01 4.975440e-01 8.219371e-01
<GCONST> 1.358139e+02
<STATE> 3
<MEAN> 39
 -6.628641e+00 -2.912985e+00 8.561859e-02 -5.380854e+00 -7.303104e+00 -2.891831e+00 -8.399363e+00 -2.806728e+00 -3.598127e+00 -2.669115e+00 -1.988400e+00 -4.378378e+00 5.439198e+01 -1.497135e-03 -1.844063e-03 -2.549758e-04 -3.982901e-03 -2.150181e-04 7.011230e-04 -2.204502e-04 3.105371e-03 -4.518425e-03 -4.240828e-03 -2.097554e-03 2.758425e-03 4.897495e-03 3.891265e-04 2.417036e-04 2.803406e-04 -1.459440e-04 -3.148189e-05 9.612799e-05 -4.820463e-04 4.707908e-04 -1.167205e-04 -4.310800e-04 -5.610202e-04 -5.381533e-04 2.057872e-04
<VARIANCE> 39
 7.129915e+01 6.678555e+01 7.684811e+01 6.270917e+01 6.328370e+01 5.643429e+01 6.931368e+01 6.334836e+01 6.043460e+01 4.612556e+01 4.726268e+01 4.340918e+01 2.174810e+02 3.579609e+00 3.351376e+00 3.285091e+00 3.354658e+00 3.642192e+00 3.224352e+00 3.669816e+00 3.947690e+00 3.500669e+00 2.976485e+00 2.990994e+00 2.658910e+00 5.997123e+00 5.918468e-01 5.370134e-01 5.361181e-01 5.831177e-01 6.654238e-01 5.861994e-01 6.804463e-01 7.120962e-01 6.342990e-01 5.621377e-01 5.628741e-01 4.981934e-01 8.277417e-01
<GCONST> 1.358981e+02
<STATE> 4
<MEAN> 39
 -6.533793e+00 -2.855539e+00 1.784719e-01 -5.350361e+00 -7.278618e+00 -2.907606e+00 -8.367785e+00 -2.674753e+00 -3.755852e+00 -2.718601e+00 -1.988468e+00 -4.423516e+00 5.417327e+01 1.289277e-03 -1.298417e-03 1.705390e-03 -5.354557e-03 -3.903505e-04 1.524572e-03 -1.294855e-03 3.406706e-03 -2.922281e-03 -3.650447e-03 -3.661225e-03 -2.927261e-04 6.873608e-03 4.902801e-04 2.079449e-04 2.932322e-04 -2.133108e-04 5.763279e-05 6.718111e-06 -2.520088e-04 -6.462610e-05 2.292464e-04 -7.699832e-05 -5.147443e-04 -6.624880e-04 1.219712e-04
<VARIANCE> 39
 7.125710e+01 6.606501e+01 7.648597e+01 6.228003e+01 6.274453e+01 5.600617e+01 6.857706e+01 6.211888e+01 5.988280e+01 4.532608e+01 4.690030e+01 4.381440e+01 2.173994e+02 3.470414e+00 3.287623e+00 3.219084e+00 3.305876e+00 3.562746e+00 3.193932e+00 3.636236e+00 3.897821e+00 3.466334e+00 2.934381e+00 2.958459e+00 2.627803e+00 5.834542e+00 5.701731e-01 5.257580e-01 5.237922e-01 5.742400e-01 6.483237e-01 5.798636e-01 6.717910e-01 7.057081e-01 6.263309e-01 5.534376e-01 5.556468e-01 4.914018e-01 8.011608e-01
<GCONST> 1.353469e+02
<TRANSP> 5
 0.000000e+00 1.000000e+00 0.000000e+00 0.000000e+00 0.000000e+00
 0.000000e+00 7.139499e-01 2.860501e-01 0.000000e+00 0.000000e+00
 0.000000e+00 0.000000e+00 7.139472e-01 2.860528e-01 0.000000e+00
 0.000000e+00 0.000000e+00 0.000000e+00 8.407120e-01 1.592880e-01
 0.000000e+00 0.000000e+00 0.000000e+00 0.000000e+00 0.000000e+00
<ENDHMM>
~h "d"
<BEGINHMM>
<NUMSTATES> 5
<STATE> 2
<MEAN> 39
 -5.782050e+00 -2.781759e+00 9.828202e-01 -5.219855e+00 -7.864041e+00 -2.814881e+00 -9.253696e+00 -2.955785e+00 -3.481689e+00 -2.990926e+00 -2.003931e+00 -4.739887e+00 5.477340e+01 9.635884e-03 6.822047e-04 1.033090e-02 1.954041e-03 -7.007215e-03 -9.016645e-05 -5.870016e-03 -6.119357e-05 -2.604176e-04 -1.429693e-03 -8.805249e-04 -1.192188e-03 1.342149e-02 -4.104635e-04 -1.130411e-05 -4.531142e-04 -2.644083e-04 3.171953e-04 2.469348e-04 3.311572e-04 -2.369800e-04 1.284132e-04 -7.299253e-05 -1.201682e-04 -1.230140e-04 -5.276735e-04
<VARIANCE> 39
 6.692197e+01 6.858257e+01 8.540045e+01 6.722024e+01 7.143024e+01 5.471759e+01 7.265910e+01 6.916487e+01 6.520638e+01 4.729062e+01 5.270423e+01 4.394831e+01 2.171556e+02 2.625351e+00 3.168412e+00 3.063236e+00 3.382872e+00 3.672648e+00 3.105936e+00 3.628007e+00 4.170974e+00 3.514989e+00 2.975883e+00 3.158163e+00 2.592834e+00 5.386493e+00 4.028386e-01 4.917677e-01 4.687046e-01 5.595346e-01 6.634011e-01 5.591758e-01 6.636829e-01 7.435340e-01 6.249580e-01 5.543794e-01 5.836983e-01 4.820487e-01 7.366133e-01
<GCONST> 1.351723e+02
<STATE> 3
<MEAN> 39
 -5.749631e+00 -2.779601e+00 1.019256e+00 -5.214825e+00 -7.886735e+00 -2.812903e+00 -9.273587e+00 -2.957721e+00 -3.481705e+00 -2.999183e+00 -2.006188e+00 -4.745122e+00 5.482052e+01 8.605699e-03 6.989152e-04 8.927055e-03 1.010009e-03 -5.909041e-03 1.014012e-03 -4.834540e-03 -7.129505e-04 2.223887e-04 -1.928137e-03 -1.348009e-03 -1.607281e-03 1.167561e-02 -3.322409e-04 2.336305e-05 -4.395134e-04 -3.655556e-04 3.274651e-04 3.485138e-04 2.561694e-04 -1.780880e-04 1.458528e-04 -1.443207e-04 -1.133945e-04 -1.245588e-04 -4.317958e-04
<VARIANCE> 39
 6.685947e+01 6.869351e+01 8.575742e+01 6.730038e+01 7.149504e+01 5.471789e+01 7.292596e+01 6.949704e+01 6.531602e+01 4.737954e+01 5.281873e+01 4.401311e+01 2.162027e+02 2.625698e+00 3.176904e+00 3.075433e+00 3.391137e+00 3.684682e+00 3.111261e+00 3.637911e+00 4.184591e+00 3.521756e+00 2.982382e+00 3.160086e+00 2.596769e+00 5.400918e+00 4.031057e-01 4.933026e-01 4.700875e-01 5.606394e-01 6.658759e-01 5.602351e-01 6.655595e-01 7.456978e-01 6.260878e-01 5.552462e-01 5.840337e-01 4.828017e-01 7.388115e-01
<GCONST> 1.352481e+02
<STATE> 4
<MEAN> 39
 -5.763708e+00 -2.717986e+00 1.054230e+00 -5.174605e+00 -7.779068e+00 -2.860320e+00 -9.183449e+00 -2.873280e+00 -3.653360e+00 -2.981538e+00 -2.062346e+00 -4.726357e+00 5.443926e+01 7.613581e-03 1.101008e-03 7.505775e-03 -1.363382e-04 -4.696820e-03 2.238473e-03 -3.947190e-03 -1.255713e-03 9.892986e-04 -2.605784e-03 -1.282845e-03 -2.191028e-03 1.029208e-02 -2.490443e-04 7.179391e-05 -4.187637e-04 -3.182791e-04 2.580548e-04 2.608791e-04 1.506937e-04 -1.008533e-04 1.359706e-04 -1.717117e-05 -7.257872e-05 -1.563980e-04 -3.122142e-04
<VARIANCE> 39
 6.710295e+01 6.800967e+01 8.541291e+01 6.720436e+01 7.069736e+01 5.424364e+01 7.238470e+01 6.798761e+01 6.430711e+01 4.670999e+01 5.185532e+01 4.353270e+01 2.171570e+02 2.571339e+00 3.121679e+00 3.026466e+00 3.354654e+00 3.613593e+00 3.077012e+00 3.597378e+00 4.083156e+00 3.480287e+00 2.945833e+00 3.094522e+00 2.551235e+00 5.244087e+00 3.938060e-01 4.846587e-01 4.622948e-01 5.538819e-01 6.529843e-01 5.536039e-01 6.578099e-01 7.276947e-01 6.176414e-01 5.482319e-01 5.725358e-01 4.743551e-01 7.128113e-01
<GCONST> 1.346712e+02
<TRANSP> 5
 0.000000e+00 1.000000e+00 0.000000e+00 0.000000e+00 0.000000e+00
 0.000000e+00 7.132826e-01 2.867174e-01 0.000000e+00 0.000000e+00
 0.000000e+00 0.000000e+00 7.132834e-01 2.867166e-01 0.000000e+00
 0.000000e+00 0.000000e+00 0.000000e+00 8.400807e-01 1.599192e-01
 0.000000e+00 0.000000e+00 0.000000e+00 0.000000e+00 0.000000e+00
<ENDHMM>
~h "e"
<BEGINHMM>
<NUMSTATES> 5
<STATE> 2
<MEAN> 39
 -6.272978e+00 -3.093551e+00 9.775452e-01 -5.198369e+00 -8.299392e+00 -3.188388e+00 -8.363044e+00 -2.687515e+00 -3.327085e+00 -2.487811e+00 -1.678140e+00 -4.589653e+00 5.472174e+01 -1.047742e-03 2.532035e-04 1.997582e-03 3.012883e-03 5.512265e-04 1.393660e-04 4.006214e-03 -2.322969e-03 -1.665351e-03 -9.729462e-04 -3.330433e-03 7.848931e-05 -4.090275e-03 8.386084e-05 4.083340e-04 -4.298517e-04 2.534889e-04 2.909641e-04 -1.041326e-04 7.168992e-05 -1.320453e-04 1.739768e-05 -2.130646e-04 -1.315911e-04 -4.130343e-05 -9.442148e-04
<VARIANCE> 39
 6.697367e+01 6.970078e+01 8.489989e+01 6.431625e+01 7.531215e+01 5.639952e+01 7.248436e+01 6.837883e+01 6.040174e+01 4.861078e+01 5.110823e+01 4.228036e+01 2.177401e+02 2.556595e+00 2.977454e+00 2.886634e+00 3.033972e+00 3.530741e+00 2.958863e+00 3.413332e+00 3.976198e+00 3.231482e+00 2.886988e+00 2.934833e+00 2.431268e+00 5.231451e+00 3.859135e-01 4.531425e-01 4.426453e-01 5.005578e-01 6.139880e-01 5.268373e-01 6.176404e-01 6.972669e-01 5.801857e-01 5.342433e-01 5.380039e-01 4.470125e-01 6.883942e-01
<GCONST> 1.334554e+02
<STATE> 3
<MEAN> 39
 -6.275470e+00 -3.090170e+00 9.876592e-01 -5.183929e+00 -8.298656e+00 -3.189405e+00 -8.347639e+00 -2.697451e+00 -3.334378e+00 -2.491195e+00 -1.689466e+00 -4.588231e+00 5.470659e+01 -8.167817e-04 1.644391e-03 5.504301e-04 3.692658e-03 1.554009e-03 -2.513511e-04 4.248938e-03 -2.906424e-03 -1.385450e-03 -1.596722e-03 -3.647055e-03 -9.103329e-05 -7.428041e-03 1.310631e-04 4.329118e-04 -2.934521e-04 2.007092e-04 2.032405e-04 -1.272335e-04 8.010520e-05 -1.796720e-04 2.500142e-05 -1.216388e-04 -4.857223e-05 -6.518074e-05 -9.098893e-04
<VARIANCE> 39
 6.689804e+01 6.960369e+01 8.521976e+01 6.425394e+01 7.531851e+01 5.640576e+01 7.241566e+01 6.838366e+01 6.037981e+01 4.869280e+01 5.116862e+01 4.230950e+01 2.175799e+02 2.552663e+00 2.975722e+00 2.888655e+00 3.029197e+00 3.529398e+00 2.953669e+00 3.409806e+00 3.981161e+00 3.227989e+00 2.887196e+00 2.934735e+00 2.428830e+00 5.211037e+00 3.853728e-01 4.526062e-01 4.423200e-01 4.999552e-01 6.136361e-01 5.258040e-01 6.170108e-01 6.980546e-01 5.794615e-01 5.340087e-01 5.379413e-01 4.464017e-01 6.852863e-01
<GCONST> 1.334319e+02
<STATE> 4
<MEAN> 39
 -6.259171e+00 -3.020972e+00 1.032276e+00 -5.093219e+00 -8.228200e+00 -3.282182e+00 -8.280774e+00 -2.601059e+00 -3.462029e+00 -2.443907e+00 -1.757941e+00 -4.546498e+00 5.433651e+01 -5.787708e-04 3.559096e-03 5.866664e-05 4.206872e-03 2.130687e-03 -4.240435e-04 4.497751e-03 -4.351565e-03 -1.164170e-03 -1.932551e-03 -3.008322e-03 -2.186432e-04 -9.891192e-03 6.333829e-05 4.202722e-04 -2.664175e-04 5.282604e-05 1.884887e-04 -7.451142e-06 7.551211e-05 -2.780377e-04 2.072294e-05 -1.172143e-04 7.469528e-05 -8.262220e-05 -8.701780e-04
<VARIANCE> 39
 6.667362e+01 6.875495e+01 8.491426e+01 6.414816e+01 7.458783e+01 5.604578e+01 7.105280e+01 6.703490e+01 5.911990e+01 4.764109e+01 5.030775e+01 4.191874e+01 2.182596e+02 2.499626e+00 2.914706e+00 2.840681e+00 2.993186e+00 3.460560e+00 2.912372e+00 3.357398e+00 3.893460e+00 3.175557e+00 2.834400e+00 2.883947e+00 2.389392e+00 5.028527e+00 3.769649e-01 4.429422e-01 4.347606e-01 4.935289e-01 6.022757e-01 5.185875e-01 6.077799e-01 6.820272e-01 5.700027e-01 5.240945e-01 5.288516e-01 4.390581e-01 6.575336e-01
<GCONST> 1.327888e+02
<TRANSP> 5
 0.000000e+00 1.000000e+00 0.000000e+00 0.000000e+00 0.000000e+00
 0.000000e+00 7.151177e-01 2.848823e-01 0.000000e+00 0.000000e+00
 0.000000e+00 0.000000e+00 7.151145e-01 2.848855e-01 0.000000e+00
 0.000000e+00 0.000000e+00 0.000000e+00 8.424062e-01 1.575938e-01
 0.000000e+00 0.000000e+00 0.000000e+00 0.000000e+00 0.000000e+00
<ENDHMM>
~h "f"
<BEGINHMM>
<NUMSTATES> 5
<STATE> 2
<MEAN> 39
 -7.065799e+00 -2.994441e+00 1.513539e-02 -5.258266e+00 -7.285899e+00 -2.605677e+00 -8.684274e+00 -3.216550e+00 -3.581603e+00 -2.341795e+00 -1.754526e+00 -4.409102e+00 5.433934e+01 -1.267640e-03 3.788420e-03 6.012349e-03 -1.279444e-03 -2.528940e-03 1.411735e-03 3.950356e-03 -7.924365e-03 -3.236677e-03 8.345371e-04 -1.095606e-03 -1.367026e-03 3.402201e-03 -5.238134e-04 1.933621e-04 -4.745184e-04 1.569624e-04 2.081836e-04 -1.799736e-04 5.428394e-04 4.160566e-04 3.884090e-04 -6.862238e-05 -2.015861e-04 1.315885e-04 -6.441259e-04
<VARIANCE> 39
 7.668629e+01 6.457435e+01 8.395521e+01 6.990153e+01 6.746306e+01 5.461455e+01 7.110020e+01 6.042500e+01 5.766231e+01 4.708903e+01 4.815735e+01 4.286852e+01 2.099347e+02 3.209347e+00 2.854495e+00 3.158394e+00 3.447958e+00 3.442546e+00 3.043039e+00 3.359904e+00 3.705334e+00 3.247907e+00 2.873223e+00 2.899097e+00 2.497786e+00 4.590834e+00 4.725602e-01 4.439374e-01 4.815115e-01 5.631788e-01 6.071541e-01 5.458077e-01 6.121300e-01 6.641917e-01 5.810210e-01 5.354460e-01 5.348454e-01 4.533287e-01 6.117216e-01
<GCONST> 1.335893e+02
<STATE> 3
<MEAN> 39
 -7.073524e+00 -2.982940e+00 3.537370e-02 -5.263099e+00 -7.295820e+00 -2.604528e+00 -8.667621e+00 -3.239952e+00 -3.589745e+00 -2.339733e+00 -1.761786e+00 -4.416724e+00 5.435547e+01 -3.003983e-03 4.735119e-03 4.008665e-03 -5.887286e-04 -2.056997e-03 3.225691e-04 5.726456e-03 -6.779102e-03 -1.973468e-03 4.007256e-04 -1.794078e-03 -9.620095e-04 9.213946e-04 -3.613837e-04 2.775242e-04 -7.152706e-04 1.991508e-04 1.644684e-04 -3.697635e-04 3.721426e-04 2.886085e-04 4.402237e-04 -1.452013e-04 -2.196454e-04 5.988426e-06 -5.954850e-04
<VARIANCE> 39
 7.661597e+01 6.453252e+01 8.443729e+01 6.981676e+01 6.757347e+01 5.461562e+01 7.109245e+01 6.060670e+01 5.763691e+01 4.710717e+01 4.817865e+01 4.290200e+01 2.096183e+02 3.228596e+00 2.857262e+00 3.164686e+00 3.457699e+00 3.448853e+00 3.039325e+00 3.370910e+00 3.710063e+00 3.245268e+00 2.878800e+00 2.899018e+00 2.499307e+00 4.588759e+00 4.755385e-01 4.444360e-01 4.817079e-01 5.651008e-01 6.078552e-01 5.453591e-01 6.145350e-01 6.644161e-01 5.802611e-01 5.358054e-01 5.345590e-01 4.532032e-01 6.107847e-01
<GCONST> 1.336275e+02
<STATE> 4
<MEAN> 39
 -7.027152e+00 -2.942612e+00 5.109384e-02 -5.265228e+00 -7.157169e+00 -2.633597e+00 -8.518130e+00 -3.131426e+00 -3.690367e+00 -2.329977e+00 -1.815987e+00 -4.452290e+00 5.392480e+01 -4.361996e-03 4.919889e-03 2.007654e-03 -3.020505e-04 -2.042543e-03 -1.261272e-03 5.895602e-03 -4.680626e-03 -6.854762e-04 -6.626186e-04 -2.301767e-03 -1.384793e-03 6.527271e-04 -1.988624e-04 2.469764e-04 -6.254778e-04 2.153931e-04 5.795835e-05 -3.169814e-04 -4.724851e-07 1.944245e-04 3.161554e-04 -8.472982e-05 7.662884e-05 -8.818924e-07 -6.128998e-04
<VARIANCE> 39
 7.613808e+01 6.388353e+01 8.372649e+01 6.940045e+01 6.688022e+01 5.408110e+01 6.982387e+01 5.953619e+01 5.658641e+01 4.598940e+01 4.716859e+01 4.280519e+01 2.128331e+02 3.153741e+00 2.807739e+00 3.104681e+00 3.406720e+00 3.385617e+00 2.999336e+00 3.328919e+00 3.619580e+00 3.210845e+00 2.832205e+00 2.844042e+00 2.447401e+00 4.444684e+00 4.644857e-01 4.352044e-01 4.708536e-01 5.577660e-01 5.958269e-01 5.378639e-01 6.076314e-01 6.479382e-01 5.725544e-01 5.269886e-01 5.245597e-01 4.438625e-01 5.864617e-01
<GCONST> 1.329862e+02
<TRANSP> 5
 0.000000e+00 1.000000e+00 0.000000e+00 0.000000e+00 0.000000e+00
 0.000000e+00 7.174761e-01 2.825239e-01 0.000000e+00 0.000000e+00
 0.000000e+00 0.000000e+00 7.174756e-01 2.825244e-01 0.000000e+00
 0.000000e+00 0.000000e+00 0.000000e+00 8.464901e-01 1.535099e-01
 0.000000e+00 0.000000e+00 0.000000e+00 0.000000e+00 0.000000e+00
<ENDHMM>
~h "g"
<BEGINHMM>
<NUMSTATES> 5
<STATE> 2
<MEAN> 39
 -5.625422e+00 -2.252820e+00 8.151161e-01 -5.315318e+00 -7.767368e+00 -2.386354e+00 -9.023661e+00 -3.351627e+00 -3.339804e+00 -2.561250e+00 -1.562067e+00 -4.846590e+00 5.460184e+01 4.981873e-03 -1.945599e-03 8.800056e-04 -6.050364e-04 -3.126262e-03 -1.004177e-03 1.509219e-03 2.834271e-03 -2.345088e-03 7.873075e-04 -3.266355e-03 -8.548167e-04 5.458109e-03 -5.041759e-04 1.169544e-04 -5.278894e-04 2.234078e-04 6.991356e-04 -1.512059e-04 2.183158e-04 -2.971399e-04 5.325942e-04 -1.139702e-04 -1.449195e-04 4.852828e-05 -1.372561e-03
<VARIANCE> 39
 6.395990e+01 6.880714e+01 8.336186e+01 6.897402e+01 7.069542e+01 5.755769e+01 7.278110e+01 6.970734e+01 6.335230e+01 4.826427e+01 5.306478e+01 4.506908e+01 2.148372e+02 2.483792e+00 3.038156e+00 3.024333e+00 3.340933e+00 3.755092e+00 3.161839e+00 3.538554e+00 4.079343e+00 3.517875e+00 2.999815e+00 3.140286e+00 2.620542e+00 5.084618e+00 3.860055e-01 4.623076e-01 4.738158e-01 5.493376e-01 6.838453e-01 5.614958e-01 6.482183e-01 7.188025e-01 6.310954e-01 5.619290e-01 5.827671e-01 4.836273e-01 6.833197e-01
<GCONST> 1.348357e+02
<STATE> 3
<MEAN> 39
 -5.608231e+00 -2.257535e+00 8.189077e-01 -5.319243e+00 -7.772798e+00 -2.386039e+00 -9.020299e+00 -3.347210e+00 -3.343444e+00 -2.556741e+00 -1.575910e+00 -4.851181e+00 5.462030e+01 3.398371e-03 -1.662978e-03 -1.130149e-03 -3.395838e-04 -3.710849e-04 -7.655617e-04 2.519648e-03 1.468740e-03 -6.036696e-04 6.325105e-04 -4.044710e-03 -1.119108e-03 8.204164e-04 -5.452206e-04 3.306213e-04 -3.285779e-04 7.158538e-05 6.255482e-04 -5.875127e-05 1.057761e-04 -4.736515e-04 4.858896e-04 -9.391723e-06 -1.432641e-04 -4.819223e-05 -1.285257e-03
<VARIANCE> 39
 6.382631e+01 6.856631e+01 8.314320e+01 6.912398e+01 7.080993e+01 5.770039e+01 7.273436e+01 6.985515e+01 6.350953e+01 4.836824e+01 5.326736e+01 4.511728e+01 2.148286e+02 2.483930e+00 3.034401e+00 3.027043e+00 3.334820e+00 3.758461e+00 3.159435e+00 3.531672e+00 4.073211e+00 3.511363e+00 2.993669e+00 3.139656e+00 2.618648e+00 5.076357e+00 3.865212e-01 4.611095e-01 4.739975e-01 5.477926e-01 6.842571e-01 5.606278e-01 6.465570e-01 7.180781e-01 6.293101e-01 5.597691e-01 5.822629e-01 4.829769e-01 6.813122e-01
<GCONST> 1.348127e+02
<STATE> 4
<MEAN> 39
 -5.592048e+00 -2.200465e+00 8.200873e-01 -5.301795e+00 -7.677667e+00 -2.472822e+00 -8.937112e+00 -3.238260e+00 -3.485235e+00 -2.496954e+00 -1.679415e+00 -4.825127e+00 5.431784e+01 2.427699e-03 -1.183120e-03 -2.287859e-03 -9.498404e-04 1.918123e-03 1.731284e-04 2.128082e-03 -2.255051e-05 8.847689e-04 1.463012e-03 -4.252263e-03 -1.783189e-03 -2.268834e-03 -4.713026e-04 3.918307e-04 -1.342983e-04 2.822413e-05 2.868466e-04 -1.535417e-04 -2.300591e-06 -2.618591e-04 2.331770e-04 1.190088e-04 3.848910e-05 4.536771e-05 -1.076024e-03
<VARIANCE> 39
 6.399247e+01 6.791142e+01 8.222040e+01 6.927751e+01 7.004738e+01 5.734745e+01 7.133797e+01 6.855326e+01 6.225604e+01 4.757109e+01 5.254144e+01 4.466769e+01 2.156730e+02 2.453308e+00 2.990542e+00 2.980671e+00 3.289607e+00 3.687742e+00 3.122736e+00 3.471568e+00 3.981272e+00 3.455253e+00 2.938944e+00 3.096244e+00 2.575344e+00 4.949730e+00 3.816402e-01 4.531759e-01 4.671195e-01 5.387549e-01 6.708888e-01 5.530089e-01 6.346844e-01 7.022281e-01 6.182591e-01 5.486643e-01 5.740868e-01 4.748043e-01 6.611719e-01
<GCONST> 1.342336e+02
<TRANSP> 5
 0.000000e+00 1.000000e+00 0.000000e+00 0.000000e+00 0.000000e+00
 0.000000e+00 7.116374e-01 2.883626e-01 0.000000e+00 0.000000e+00
 0.000000e+00 0.000000e+00 7.116351e-01 2.883649e-01 0.000000e+00
 0.000000e+00 0.000000e+00 0.000000e+00 8.372006e-01 1.627994e-01
 0.000000e+00 0.000000e+00 0.000000e+00 0.000000e+00 0.000000e+00
<ENDHMM>
~h "h"
<BEGINHMM>
<NUMSTATES> 5
<STATE> 2
<MEAN> 39
 -6.260579e+00 -3.013135e+00 -2.857347e-01 -5.777755e+00 -6.437520e+00 -1.940546e+00 -8.324814e+00 -3.189079e+00 -3.529314e+00 -2.873479e+00 -2.046842e+00 -4.693066e+00 5.438688e+01 7.587412e-03 4.789267e-03 8.359253e-03 1.078745e-03 -5.018770e-03 2.366761e-03 -5.162314e-03 1.390521e-03 -4.534033e-03 -1.212098e-03 -2.413955e-03 -3.209971e-03 5.550093e-03 -1.425498e-04 -8.005679e-05 3.238982e-04 2.490909e-04 2.403225e-04 -1.721182e-04 -2.736668e-04 9.550256e-05 2.245144e-04 1.517077e-04 1.762969e-04 9.723500e-05 -5.300184e-04
<VARIANCE> 39
 6.846995e+01 6.708839e+01 7.932659e+01 6.879528e+01 6.985649e+01 5.719766e+01 7.323729e+01 6.294345e+01 6.232708e+01 4.675858e+01 4.846188e+01 4.342049e+01 2.211736e+02 2.685984e+00 2.946635e+00 2.938720e+00 3.360529e+00 3.509651e+00 3.105346e+00 3.495972e+00 3.850952e+00 3.422582e+00 2.872832e+00 2.973993e+00 2.585439e+00 4.835661e+00 4.005921e-01 4.495869e-01 4.508188e-01 5.608520e-01 6.098070e-01 5.515932e-01 6.226599e-01 6.899608e-01 6.066974e-01 5.355827e-01 5.488305e-01 4.739537e-01 6.466976e-01
<GCONST> 1.337899e+02
<STATE> 3
<MEAN> 39
 -6.235271e+00 -2.998636e+00 -2.562445e-01 -5.774710e+00 -6.451107e+00 -1.932052e+00 -8.341176e+00 -3.185383e+00 -3.544496e+00 -2.877709e+00 -2.053244e+00 -4.701854e+00 5.440742e+01 6.887610e-03 4.759096e-03 9.365241e-03 1.759839e-03 -4.020470e-03 1.825151e-03 -5.464588e-03 1.422371e-03 -3.771863e-03 -5.963659e-04 -2.131647e-03 -2.963543e-03 4.089030e-03 -2.216272e-04 -1.615216e-04 1.526869e-04 2.096350e-04 3.849279e-04 -1.118690e-04 1.398810e-05 -1.187467e-04 1.620959e-04 1.867465e-04 1.269198e-05 1.188871e-04 -4.753798e-04
<VARIANCE> 39
 6.814020e+01 6.702341e+01 7.957171e+01 6.899545e+01 7.006123e+01 5.721103e+01 7.318934e+01 6.295696e+01 6.233223e+01 4.683344e+01 4.860319e+01 4.352899e+01 2.213101e+02 2.679322e+00 2.947076e+00 2.942187e+00 3.370419e+00 3.514322e+00 3.109660e+00 3.501684e+00 3.852214e+00 3.426320e+00 2.877504e+00 2.979335e+00 2.586303e+00 4.838436e+00 3.999346e-01 4.496897e-01 4.506288e-01 5.620658e-01 6.101912e-01 5.524041e-01 6.236627e-01 6.902042e-01 6.070702e-01 5.365664e-01 5.492254e-01 4.740437e-01 6.468109e-01
<GCONST> 1.338203e+02
<STATE> 4
<MEAN> 39
 -6.243729e+00 -3.008253e+00 -2.206274e-01 -5.767855e+00 -6.303218e+00 -1.994753e+00 -8.249703e+00 -3.056610e+00 -3.733322e+00 -2.922634e+00 -2.135843e+00 -4.734657e+00 5.405215e+01 5.511776e-03 4.016177e-03 9.445411e-03 1.892971e-03 -2.256756e-03 1.803094e-03 -4.595020e-03 4.583807e-04 -2.709480e-03 5.644071e-04 -1.791417e-03 -2.285175e-03 4.295344e-03 -2.918968e-04 -8.093158e-05 -1.832278e-05 1.401219e-04 3.721802e-04 1.916805e-06 1.199122e-04 -2.363145e-04 1.567484e-04 2.389427e-04 -7.812151e-05 1.090122e-04 -4.141185e-04
<VARIANCE> 39
 6.789536e+01 6.650037e+01 7.915746e+01 6.859114e+01 6.938300e+01 5.652953e+01 7.181583e+01 6.115337e+01 6.129827e+01 4.602341e+01 4.781869e+01 4.337291e+01 2.233895e+02 2.598489e+00 2.890639e+00 2.876019e+00 3.311917e+00 3.421353e+00 3.071850e+00 3.450590e+00 3.738853e+00 3.394012e+00 2.833644e+00 2.918613e+00 2.532489e+00 4.696390e+00 3.878576e-01 4.408211e-01 4.394559e-01 5.513836e-01 5.935230e-01 5.446088e-01 6.139829e-01 6.707513e-01 6.002120e-01 5.291115e-01 5.380163e-01 4.638732e-01 6.242433e-01
<GCONST> 1.331291e+02
<TRANSP> 5
 0.000000e+00 1.000000e+00 0.000000e+00 0.000000e+00 0.000000e+00
 0.000000e+00 7.138705e-01 2.861296e-01 0.000000e+00 0.000000e+00
 0.000000e+00 0.000000e+00 7.138686e-01 2.861314e-01 0.000000e+00
 0.000000e+00 0.000000e+00 0.000000e+00 8.424683e-01 1.575317e-01
 0.000000e+00 0.000000e+00 0.000000e+00 0.000000e+00 0.000000e+00
<ENDHMM>
~h "i"
<BEGINHMM>
<NUMSTATES> 5
<STATE> 2
<MEAN> 39
 -6.687222e+00 -2.114760e+00 1.545515e+00 -4.892855e+00 -7.892951e+00 -2.785716e+00 -8.613051e+00 -3.532284e+00 -3.982987e+00 -2.891273e+00 -1.658708e+00 -4.510530e+00 5.400664e+01 -1.034521e-03 1.522618e-03 -5.149174e-03 5.785443e-03 9.871044e-04 -4.573303e-03 6.285453e-03 -4.392749e-04 -1.830664e-03 -1.151877e-03 -3.515417e-03 1.917897e-04 -1.395676e-02 -4.084189e-05 2.274008e-04 -3.576741e-04 -2.346212e-04 1.340803e-04 -9.369169e-06 -2.731737e-04 1.153242e-06 3.975976e-04 -4.622612e-05 2.233972e-04 -2.799470e-04 -1.289794e-04
<VARIANCE> 39
 6.702103e+01 6.496248e+01 9.147092e+01 6.237585e+01 7.249020e+01 5.456502e+01 7.183862e+01 6.559132e+01 6.332368e+01 4.750898e+01 5.053147e+01 4.221731e+01 2.161552e+02 2.665360e+00 2.914627e+00 3.324281e+00 3.173463e+00 3.628612e+00 3.067925e+00 3.529676e+00 3.924633e+00 3.485324e+00 2.950104e+00 3.022135e+00 2.481401e+00 4.921240e+00 4.008591e-01 4.530516e-01 4.989891e-01 5.337853e-01 6.373562e-01 5.498646e-01 6.388208e-01 7.005659e-01 6.173884e-01 5.489157e-01 5.552921e-01 4.579993e-01 6.654994e-01
<GCONST> 1.341401e+02
<STATE> 3
<MEAN> 39
 -6.690063e+00 -2.109135e+00 1.526617e+00 -4.873300e+00 -7.889864e+00 -2.800550e+00 -8.592236e+00 -3.536168e+00 -3.989249e+00 -2.895483e+00 -1.669947e+00 -4.511704e+00 5.395902e+01 -1.244292e-03 2.165703e-03 -6.524208e-03 4.779641e-03 1.493766e-03 -4.544836e-03 5.290584e-03 -6.253681e-04 -5.822649e-04 -1.222859e-03 -2.918377e-03 -8.393927e-04 -1.419669e-02 -5.736538e-05 2.332107e-04 -2.093470e-04 -3.406964e-04 1.006251e-04 6.917761e-05 -3.129510e-04 -1.250211e-04 2.802641e-04 2.890208e-05 1.926596e-04 -2.894409e-04 7.955969e-05
<VARIANCE> 39
 6.693887e+01 6.465067e+01 9.098588e+01 6.224403e+01 7.239655e+01 5.449527e+01 7.198209e+01 6.556340e+01 6.328990e+01 4.745842e+01 5.050171e+01 4.213237e+01 2.165057e+02 2.662869e+00 2.909628e+00 3.316504e+00 3.165984e+00 3.626582e+00 3.061540e+00 3.525943e+00 3.919207e+00 3.483039e+00 2.946899e+00 3.020461e+00 2.478632e+00 4.915209e+00 4.005906e-01 4.525396e-01 4.983601e-01 5.324249e-01 6.374391e-01 5.488045e-01 6.384962e-01 6.997782e-01 6.171133e-01 5.484676e-01 5.551695e-01 4.574138e-01 6.648830e-01
<GCONST> 1.340931e+02
<STATE> 4
<MEAN> 39
 -6.673895e+00 -2.088859e+00 1.498712e+00 -4.845807e+00 -7.774271e+00 -2.860378e+00 -8.498820e+00 -3.428394e+00 -4.130204e+00 -2.859685e+00 -1.733845e+00 -4.505555e+00 5.359840e+01 -1.318515e-03 2.492796e-03 -7.314886e-03 3.228882e-03 1.713306e-03 -3.813509e-03 4.013003e-03 -1.545147e-03 5.765024e-05 -8.513309e-04 -2.225860e-03 -2.086140e-03 -1.285434e-02 -6.833842e-05 1.668994e-04 -1.036432e-04 -3.825870e-04 4.913177e-05 1.113769e-04 -2.774617e-04 -1.248620e-04 1.682522e-04 9.436553e-05 1.446709e-04 -2.040460e-04 2.161665e-04
<VARIANCE> 39
 6.696812e+01 6.364544e+01 8.988145e+01 6.201281e+01 7.152113e+01 5.416764e+01 7.126467e+01 6.396392e+01 6.253501e+01 4.652012e+01 4.948603e+01 4.172335e+01 2.176521e+02 2.602024e+00 2.848737e+00 3.243284e+00 3.118438e+00 3.549740e+00 3.028465e+00 3.475296e+00 3.813922e+00 3.448618e+00 2.899470e+00 2.963755e+00 2.434395e+00 4.770843e+00 3.910105e-01 4.434690e-01 4.879079e-01 5.240638e-01 6.238694e-01 5.421284e-01 6.293733e-01 6.815844e-01 6.103578e-01 5.402244e-01 5.457177e-01 4.491239e-01 6.422874e-01
<GCONST> 1.334515e+02
<TRANSP> 5
 0.000000e+00 1.000000e+00 0.000000e+00 0.000000e+00 0.000000e+00
 0.000000e+00 7.139340e-01 2.860660e-01 0.000000e+00 0.000000e+00
 0.000000e+00 0.000000e+00 7.139288e-01 2.860712e-01 0.000000e+00
 0.000000e+00 0.000000e+00 0.000000e+00 8.409351e-01 1.590650e-01
 0.000000e+00 0.000000e+00 0.000000e+00 0.000000e+00 0.000000e+00
<ENDHMM>
~h "j"
<BEGINHMM>
<NUMSTATES> 5
<STATE> 2
<MEAN> 39
 -6.188334e+00 -2.182459e+00 1.076235e+00 -5.033174e+00 -7.734060e+00 -2.879648e+00 -8.958179e+00 -2.860309e+00 -3.395987e+00 -2.987070e+00 -1.720622e+00 -4.396826e+00 5.464109e+01 2.256383e-03 5.183400e-04 1.371075e-03 2.243407e-03 -2.954077e-03 -1.592746e-03 -2.010955e-03 2.971028e-03 4.896250e-04 5.216957e-05 2.106290e-03 -1.855297e-03 -1.526053e-03 -4.506944e-04 4.738802e-04 -6.020394e-05 2.111596e-04 7.586907e-06 -2.134955e-04 2.083339e-04 -8.618563e-05 -5.201812e-04 -3.273594e-04 3.797638e-04 2.575739e-04 -8.346689e-04
<VARIANCE> 39
 6.362424e+01 6.876595e+01 8.033467e+01 6.523586e+01 6.843793e+01 5.528042e+01 7.241211e+01 6.708173e+01 6.113584e+01 4.652367e+01 5.135577e+01 4.259017e+01 2.124253e+02 2.983883e+00 3.244676e+00 3.104891e+00 3.213337e+00 3.834512e+00 3.138910e+00 3.725533e+00 4.102724e+00 3.434255e+00 2.911129e+00 3.126948e+00 2.687788e+00 5.012256e+00 4.947261e-01 4.820829e-01 4.962164e-01 5.389755e-01 7.020856e-01 5.688807e-01 6.781991e-01 7.261627e-01 6.141804e-01 5.464635e-01 5.803688e-01 4.975263e-01 6.720457e-01
<GCONST> 1.350724e+02
<STATE> 3
<MEAN> 39
 -6.180089e+00 -2.179719e+00 1.081585e+00 -5.022148e+00 -7.745809e+00 -2.886911e+00 -8.965073e+00 -2.848590e+00 -3.399616e+00 -2.988963e+00 -1.711671e+00 -4.400259e+00 5.463617e+01 9.659327e-04 1.795550e-03 1.061013e-03 2.621897e-03 -2.866229e-03 -2.095236e-03 -1.091953e-03 2.758187e-03 -8.306689e-04 -4.753131e-04 3.176523e-03 -1.418791e-03 -4.045587e-03 -2.966795e-04 4.012995e-04 -3.991719e-05 7.592281e-05 2.203354e-05 -2.145757e-05 2.965722e-04 3.795781e-05 -4.587561e-04 -1.478911e-04 2.996881e-04 1.205539e-04 -5.864928e-04
<VARIANCE> 39
 6.346216e+01 6.866647e+01 8.035767e+01 6.545777e+01 6.842881e+01 5.526817e+01 7.246178e+01 6.698839e+01 6.124078e+01 4.658157e+01 5.144837e+01 4.261299e+01 2.125463e+02 2.979862e+00 3.242560e+00 3.101214e+00 3.214715e+00 3.838639e+00 3.139161e+00 3.717445e+00 4.108316e+00 3.442971e+00 2.913933e+00 3.125829e+00 2.690912e+00 5.009254e+00 4.941840e-01 4.814160e-01 4.957602e-01 5.393021e-01 7.035004e-01 5.685052e-01 6.762822e-01 7.270333e-01 6.156866e-01 5.465744e-01 5.801886e-01 4.978553e-01 6.709254e-01
<GCONST> 1.350765e+02
<STATE> 4
<MEAN> 39
 -6.145846e+00 -2.147839e+00 1.083019e+00 -4.979332e+00 -7.694562e+00 -2.962319e+00 -8.887396e+00 -2.741920e+00 -3.559929e+00 -2.969653e+00 -1.754589e+00 -4.375966e+00 5.429903e+01 8.352446e-04 2.371865e-03 6.281318e-04 1.866770e-03 -2.699675e-03 -1.575478e-03 -1.745419e-04 1.844542e-03 -2.064811e-03 -9.245161e-05 3.407763e-03 -1.783040e-03 -5.086754e-03 -6.388091e-05 2.043054e-04 -7.564695e-05 -1.316581e-04 1.276831e-04 1.896536e-04 2.178427e-04 -8.004453e-05 -2.204983e-04 5.854444e-06 9.267625e-05 -1.142970e-04 -2.283001e-04
<VARIANCE> 39
 6.326764e+01 6.753719e+01 7.989615e+01 6.607365e+01 6.798285e+01 5.480028e+01 7.197126e+01 6.559631e+01 6.016262e+01 4.578086e+01 5.060773e+01 4.215554e+01 2.132746e+02 2.900487e+00 3.160280e+00 3.027719e+00 3.185429e+00 3.766526e+00 3.099486e+00 3.636722e+00 4.033309e+00 3.402827e+00 2.870909e+00 3.077082e+00 2.641020e+00 4.859214e+00 4.795581e-01 4.693595e-01 4.833606e-01 5.333254e-01 6.900388e-01 5.608758e-01 6.608360e-01 7.146388e-01 6.074331e-01 5.381436e-01 5.707596e-01 4.878334e-01 6.471109e-01
<GCONST> 1.344424e+02
<TRANSP> 5
 0.000000e+00 1.000000e+00 0.000000e+00 0.000000e+00 0.000000e+00
 0.000000e+00 7.135125e-01 2.864875e-01 0.000000e+00 0.000000e+00
 0.000000e+00 0.000000e+00 7.135097e-01 2.864903e-01 0.000000e+00
 0.000000e+00 0.000000e+00 0.000000e+00 8.396843e-01 1.603156e-01
 0.000000e+00 0.000000e+00 0.000000e+00 0.000000e+00 0.000000e+00
<ENDHMM>
~h "k"
<BEGINHMM>
<NUMSTATES> 5
<STATE> 2
<MEAN> 39
 -6.173865e+00 -2.958429e+00 -1.333202e-01 -5.614285e+00 -7.131703e+00 -2.672440e+00 -8.662446e+00 -3.033706e+00 -3.654666e+00 -2.479860e+00 -2.218511e+00 -4.853994e+00 5.384709e+01 5.091516e-03 -1.086043e-03 -1.828279e-03 -3.569979e-04 1.235306e-03 -4.761833e-04 4.780622e-04 -1.135739e-03 -1.817070e-04 1.406575e-03 -3.679981e-03 -1.680534e-03 9.319773e-03 1.646116e-05 3.541321e-04 -9.357522e-05 -8.910567e-05 2.853113e-04 1.173160e-04 -8.933207e-06 -7.068544e-05 7.554273e-05 1.836836e-05 4.965781e-05 -9.199052e-05 -4.634668e-04
<VARIANCE> 39
 6.618384e+01 6.634359e+01 7.896155e+01 6.555792e+01 6.549998e+01 5.631173e+01 7.064844e+01 6.310830e+01 6.089840e+01 4.609981e+01 4.928965e+01 4.508017e+01 2.203510e+02 2.662329e+00 3.135994e+00 3.222124e+00 3.357266e+00 3.537680e+00 3.183344e+00 3.525059e+00 3.957266e+00 3.452764e+00 3.008651e+00 3.048271e+00 2.653725e+00 5.731565e+00 4.123099e-01 4.930482e-01 5.196996e-01 5.706120e-01 6.453136e-01 5.725816e-01 6.512479e-01 7.107018e-01 6.219330e-01 5.655129e-01 5.676722e-01 4.928559e-01 7.801086e-01
<GCONST> 1.348690e+02
<STATE> 3
<MEAN> 39
 -6.154634e+00 -2.959654e+00 -1.391455e-01 -5.617843e+00 -7.124207e+00 -2.672894e+00 -8.661761e+00 -3.040200e+00 -3.655650e+00 -2.473573e+00 -2.232550e+00 -4.862004e+00 5.387756e+01 5.313519e-03 -1.210151e-04 -1.876820e-03 -9.274647e-04 2.053692e-03 3.977514e-05 1.779899e-04 -1.776956e-03 2.595281e-04 1.310415e-03 -3.713183e-03 -2.198979e-03 8.244380e-03 1.633111e-05 3.139234e-04 -7.186457e-06 -1.237012e-04 2.510672e-04 2.027954e-04 -8.279668e-05 -1.701604e-04 1.250374e-04 -3.934847e-05 1.908796e-05 -1.359536e-04 -3.439248e-04
<VARIANCE> 39
 6.611615e+01 6.639989e+01 7.901808e+01 6.566593e+01 6.552050e+01 5.638808e+01 7.081319e+01 6.300240e+01 6.094637e+01 4.613834e+01 4.944628e+01 4.505182e+01 2.199120e+02 2.665706e+00 3.143847e+00 3.230190e+00 3.360896e+00 3.542749e+00 3.188973e+00 3.530162e+00 3.951174e+00 3.454682e+00 3.015795e+00 3.054999e+00 2.655304e+00 5.757164e+00 4.128824e-01 4.942060e-01 5.213934e-01 5.709389e-01 6.460559e-01 5.736253e-01 6.519333e-01 7.091265e-01 6.220898e-01 5.666474e-01 5.689469e-01 4.932643e-01 7.837651e-01
<GCONST> 1.349156e+02
<STATE> 4
<MEAN> 39
 -6.130602e+00 -2.925516e+00 -1.015749e-01 -5.589662e+00 -7.047892e+00 -2.721952e+00 -8.564653e+00 -2.957766e+00 -3.796193e+00 -2.471783e+00 -2.268938e+00 -4.869869e+00 5.360398e+01 5.706524e-03 6.782456e-04 -1.467238e-03 -1.804986e-03 3.063804e-03 1.040166e-03 1.925898e-04 -2.372473e-03 8.639342e-04 1.414637e-03 -3.555423e-03 -3.020539e-03 7.458514e-03 -7.725077e-06 2.639877e-04 2.757959e-05 -7.200862e-05 1.287707e-04 2.288463e-04 -2.481145e-05 -1.043978e-04 1.826816e-04 -1.696424e-05 9.759600e-05 -1.113163e-04 -2.319099e-04
<VARIANCE> 39
 6.633018e+01 6.579304e+01 7.869603e+01 6.540240e+01 6.500211e+01 5.606448e+01 6.988599e+01 6.140134e+01 6.018212e+01 4.547108e+01 4.881577e+01 4.456044e+01 2.205251e+02 2.621453e+00 3.094445e+00 3.174407e+00 3.315976e+00 3.474218e+00 3.156376e+00 3.484698e+00 3.843032e+00 3.413578e+00 2.973705e+00 3.013708e+00 2.605384e+00 5.600653e+00 4.051940e-01 4.856329e-01 5.119711e-01 5.618709e-01 6.321222e-01 5.666180e-01 6.427814e-01 6.893414e-01 6.133717e-01 5.580696e-01 5.616580e-01 4.836307e-01 7.580135e-01
<GCONST> 1.343382e+02
<TRANSP> 5
 0.000000e+00 1.000000e+00 0.000000e+00 0.000000e+00 0.000000e+00
 0.000000e+00 7.137485e-01 2.862514e-01 0.000000e+00 0.000000e+00
 0.000000e+00 0.000000e+00 7.137457e-01 2.862543e-01 0.000000e+00
 0.000000e+00 0.000000e+00 0.000000e+00 8.411844e-01 1.588156e-01
 0.000000e+00 0.000000e+00 0.000000e+00 0.000000e+00 0.000000e+00
<ENDHMM>
~h "l"
<BEGINHMM>
<NUMSTATES> 5
<STATE> 2
<MEAN> 39
 -5.873927e+00 -2.773365e+00 -1.255119e-01 -5.864856e+00 -7.119614e+00 -1.974571e+00 -9.104108e+00 -3.568158e+00 -3.084203e+00 -2.625322e+00 -1.681053e+00 -4.853336e+00 5.482184e+01 5.055422e-05 2.371936e-03 5.933773e-03 -2.095230e-03 -2.558655e-03 3.804843e-03 -4.447451e-04 -4.634783e-03 -3.134288e-03 -7.839679e-04 3.759688e-04 -1.592633e-03 5.200785e-03 -2.966451e-04 3.038534e-05 -4.303433e-06 2.907712e-04 -1.318659e-04 -1.531475e-04 1.335345e-05 -1.208808e-04 -6.346545e-05 1.190344e-04 -1.943542e-04 -1.782490e-04 -5.175560e-04
<VARIANCE> 39
 6.818456e+01 6.698492e+01 8.156186e+01 7.147356e+01 6.660516e+01 5.840273e+01 7.696237e+01 6.786829e+01 6.367401e+01 4.827534e+01 5.139682e+01 4.531064e+01 2.241358e+02 2.646611e+00 2.937622e+00 2.986192e+00 3.385045e+00 3.477637e+00 3.183985e+00 3.581229e+00 4.023031e+00 3.429130e+00 3.004489e+00 3.051579e+00 2.560003e+00 4.778928e+00 3.990265e-01 4.486175e-01 4.613292e-01 5.577074e-01 6.211087e-01 5.651748e-01 6.420916e-01 7.148301e-01 6.072194e-01 5.579153e-01 5.597602e-01 4.674708e-01 6.340753e-01
<GCONST> 1.344043e+02
<STATE> 3
<MEAN> 39
 -5.873695e+00 -2.767275e+00 -1.051959e-01 -5.872800e+00 -7.128391e+00 -1.962599e+00 -9.105329e+00 -3.583825e+00 -3.095208e+00 -2.626588e+00 -1.680510e+00 -4.858668e+00 5.484240e+01 -9.265679e-04 2.674874e-03 5.778734e-03 -1.151616e-03 -2.696953e-03 3.228439e-03 -2.715015e-04 -5.045635e-03 -3.357057e-03 -2.001618e-04 -3.904594e-04 -1.834812e-03 2.921133e-03 -2.144483e-04 3.132481e-06 -6.451326e-05 2.314392e-04 5.847390e-06 -1.331675e-04 3.805741e-05 -5.813137e-05 1.474222e-05 1.865003e-04 -3.293693e-04 -1.037547e-04 -5.662041e-04
<VARIANCE> 39
 6.828931e+01 6.689963e+01 8.181319e+01 7.156570e+01 6.662997e+01 5.847244e+01 7.717074e+01 6.785476e+01 6.372911e+01 4.833617e+01 5.144476e+01 4.533324e+01 2.239375e+02 2.646986e+00 2.931822e+00 2.986025e+00 3.381770e+00 3.480587e+00 3.186889e+00 3.584810e+00 4.022353e+00 3.427427e+00 3.005582e+00 3.053660e+00 2.558336e+00 4.774765e+00 3.986786e-01 4.478495e-01 4.609323e-01 5.570984e-01 6.213445e-01 5.653951e-01 6.424971e-01 7.151442e-01 6.070158e-01 5.579938e-01 5.600739e-01 4.670269e-01 6.330401e-01
<GCONST> 1.344095e+02
<STATE> 4
<MEAN> 39
 -5.852501e+00 -2.763614e+00 -4.610995e-02 -5.875431e+00 -7.066192e+00 -2.024675e+00 -9.019704e+00 -3.459046e+00 -3.278377e+00 -2.623387e+00 -1.720483e+00 -4.881429e+00 5.459097e+01 -1.455678e-03 2.344907e-03 5.584348e-03 -5.784144e-04 -2.120847e-03 2.619427e-03 5.723119e-04 -4.896837e-03 -3.124432e-03 7.668233e-04 -1.432449e-03 -1.374569e-03 1.399934e-03 -1.259834e-04 2.353697e-05 -4.320417e-05 2.071304e-04 6.781426e-05 -1.463675e-04 1.434881e-04 2.137710e-05 9.046386e-05 2.354083e-04 -3.267609e-04 1.914811e-05 -6.237512e-04
<VARIANCE> 39
 6.895951e+01 6.651948e+01 8.192194e+01 7.136132e+01 6.633179e+01 5.829650e+01 7.601055e+01 6.614837e+01 6.312376e+01 4.761820e+01 5.077580e+01 4.527076e+01 2.249342e+02 2.607784e+00 2.885267e+00 2.944869e+00 3.331428e+00 3.427399e+00 3.158836e+00 3.543138e+00 3.925114e+00 3.397258e+00 2.970629e+00 3.009539e+00 2.524445e+00 4.655422e+00 3.913282e-01 4.402655e-01 4.540407e-01 5.483743e-01 6.103401e-01 5.590395e-01 6.346819e-01 6.985753e-01 6.008517e-01 5.515037e-01 5.524501e-01 4.607815e-01 6.144428e-01
<GCONST> 1.339252e+02
<TRANSP> 5
 0.000000e+00 1.000000e+00 0.000000e+00 0.000000e+00 0.000000e+00
 0.000000e+00 7.101783e-01 2.898217e-01 0.000000e+00 0.000000e+00
 0.000000e+00 0.000000e+00 7.101715e-01 2.898285e-01 0.000000e+00
 0.000000e+00 0.000000e+00 0.000000e+00 8.363839e-01 1.636160e-01
 0.000000e+00 0.000000e+00 0.000000e+00 0.000000e+00 0.000000e+00
<ENDHMM>
~h "m"
<BEGINHMM>
<NUMSTATES> 5
<STATE> 2
<MEAN> 39
 -5.810187e+00 -2.893591e+00 2.631193e-01 -5.415732e+00 -6.972075e+00 -1.796595e+00 -8.742872e+00 -3.545870e+00 -3.688350e+00 -2.760704e+00 -2.000239e+00 -4.920850e+00 5.430087e+01 9.573563e-03 3.277491e-04 6.313093e-03 -3.690413e-03 -5.585389e-03 6.719755e-03 -6.749574e-03 -5.637302e-03 -4.037930e-03 -1.204844e-03 -1.026171e-03 -7.472311e-03 1.905251e-02 -3.209268e-04 2.865691e-04 1.149934e-04 1.680648e-04 -1.765095e-05 -2.239248e-04 2.234180e-04 2.597127e-04 2.959779e-04 1.731871e-04 -6.570895e-05 -1.957111e-05 -2.188614e-04
<VARIANCE> 39
 6.581842e+01 6.582993e+01 7.863476e+01 6.701160e+01 6.680062e+01 5.810995e+01 7.327272e+01 6.691817e+01 6.442332e+01 4.679291e+01 4.948103e+01 4.492054e+01 2.187896e+02 2.504981e+00 2.932621e+00 3.127786e+00 3.387725e+00 3.363060e+00 3.068304e+00 3.464441e+00 3.995567e+00 3.449296e+00 2.883238e+00 3.062747e+00 2.550273e+00 4.813536e+00 3.817990e-01 4.511041e-01 4.902274e-01 5.674976e-01 6.001458e-01 5.460663e-01 6.273378e-01 7.092639e-01 6.082301e-01 5.361506e-01 5.660623e-01 4.657398e-01 6.495668e-01
<GCONST> 1.338799e+02
<STATE> 3
<MEAN> 39
 -5.776460e+00 -2.892632e+00 2.862350e-01 -5.428348e+00 -6.991656e+00 -1.773244e+00 -8.764309e+00 -3.564315e+00 -3.701984e+00 -2.765376e+00 -2.003892e+00 -4.947237e+00 5.436930e+01 8.633772e-03 1.066639e-03 6.311802e-03 -3.305760e-03 -5.859021e-03 6.171850e-03 -5.949223e-03 -5.154080e-03 -3.000348e-03 -9.429088e-04 -1.172813e-03 -7.382537e-03 1.831636e-02 -2.135253e-04 1.875631e-04 4.415850e-05 1.271828e-04 -2.839580e-05 -9.279088e-05 2.538058e-04 1.645040e-04 2.904652e-04 5.059709e-05 -7.071577e-05 6.489988e-05 -1.401282e-04
<VARIANCE> 39
 6.573809e+01 6.594923e+01 7.894283e+01 6.699778e+01 6.689374e+01 5.820296e+01 7.338242e+01 6.701615e+01 6.473586e+01 4.688567e+01 4.960675e+01 4.499696e+01 2.182153e+02 2.503042e+00 2.932665e+00 3.135505e+00 3.392318e+00 3.367430e+00 3.074385e+00 3.469657e+00 4.007440e+00 3.458028e+00 2.886294e+00 3.067504e+00 2.553457e+00 4.812849e+00 3.815675e-01 4.508834e-01 4.912528e-01 5.685440e-01 6.009560e-01 5.468859e-01 6.281350e-01 7.113544e-01 6.094373e-01 5.367454e-01 5.668481e-01 4.661451e-01 6.490387e-01
<GCONST> 1.339300e+02
<STATE> 4
<MEAN> 39
 -5.699358e+00 -2.883360e+00 3.784997e-01 -5.413521e+00 -6.945731e+00 -1.858246e+00 -8.728140e+00 -3.423538e+00 -3.914889e+00 -2.772510e+00 -2.047729e+00 -4.980183e+00 5.424034e+01 8.384618e-03 1.121003e-03 6.509256e-03 -3.084582e-03 -6.415065e-03 5.642286e-03 -4.410530e-03 -4.694356e-03 -1.959242e-03 -9.267709e-04 -1.545811e-03 -7.236773e-03 1.858747e-02 -8.966835e-05 6.916594e-05 3.733229e-05 1.058715e-04 -7.316868e-05 -9.625786e-05 2.121422e-04 6.830465e-05 2.868066e-04 -5.300478e-06 -1.348149e-04 5.051802e-05 -1.388708e-05
<VARIANCE> 39
 6.644093e+01 6.580872e+01 7.927341e+01 6.665664e+01 6.678698e+01 5.812602e+01 7.230466e+01 6.568800e+01 6.504524e+01 4.643341e+01 4.909583e+01 4.485569e+01 2.184259e+02 2.464608e+00 2.891610e+00 3.087202e+00 3.349986e+00 3.323662e+00 3.065406e+00 3.444264e+00 3.935181e+00 3.460977e+00 2.858327e+00 3.029433e+00 2.518541e+00 4.697541e+00 3.746509e-01 4.440521e-01 4.825742e-01 5.604911e-01 5.921182e-01 5.437698e-01 6.226254e-01 6.982493e-01 6.069525e-01 5.317327e-01 5.600556e-01 4.591248e-01 6.292195e-01
<GCONST> 1.335385e+02
<TRANSP> 5
 0.000000e+00 1.000000e+00 0.000000e+00 0.000000e+00 0.000000e+00
 0.000000e+00 7.107710e-01 2.892290e-01 0.000000e+00 0.000000e+00
 0.000000e+00 0.000000e+00 7.107719e-01 2.892282e-01 0.000000e+00
 0.000000e+00 0.000000e+00 0.000000e+00 8.384614e-01 1.615386e-01
 0.000000e+00 0.000000e+00 0.000000e+00 0.000000e+00 0.000000e+00
<ENDHMM>
~h "n"
<BEGINHMM>
<NUMSTATES> 5
<STATE> 2
<MEAN> 39
 -5.577127e+00 -2.918765e+00 7.882360e-01 -5.205754e+00 -7.420841e+00 -2.446539e+00 -9.019951e+00 -3.245032e+00 -3.444496e+00 -2.622783e+00 -2.444305e+00 -5.026489e+00 5.504326e+01 -3.339766e-03 1.719090e-03 -4.726344e-03 -1.126703e-03 1.885973e-03 -3.012878e-05 4.198268e-04 -2.552458e-03 -9.346684e-04 -3.507296e-03 5.077343e-05 -1.913854e-03 -4.621189e-03 -1.481565e-04 2.552808e-04 8.037678e-05 -9.681911e-05 -1.062294e-04 -1.363335e-04 1.052514e-04 -1.549262e-04 4.530656e-05 2.650742e-04 3.931320e-04 5.263034e-05 -2.513887e-04
<VARIANCE> 39
 6.481946e+01 6.730733e+01 8.142097e+01 6.686971e+01 6.782514e+01 5.508723e+01 7.564299e+01 6.834352e+01 6.467618e+01 4.841818e+01 5.321040e+01 4.479558e+01 2.124846e+02 2.537581e+00 3.093304e+00 3.142105e+00 3.332563e+00 3.440944e+00 3.111834e+00 3.575906e+00 4.222500e+00 3.465686e+00 3.052732e+00 3.106966e+00 2.580989e+00 5.009236e+00 3.895439e-01 4.728057e-01 4.908704e-01 5.529515e-01 6.175380e-01 5.587794e-01 6.463457e-01 7.486464e-01 6.178012e-01 5.680436e-01 5.704648e-01 4.751153e-01 6.790324e-01
<GCONST> 1.346426e+02
<STATE> 3
<MEAN> 39
 -5.588183e+00 -2.912467e+00 7.736014e-01 -5.210176e+00 -7.414830e+00 -2.447139e+00 -9.018980e+00 -3.253857e+00 -3.446455e+00 -2.633180e+00 -2.443722e+00 -5.034443e+00 5.502631e+01 -3.901819e-03 2.329503e-03 -4.524341e-03 -1.828434e-03 1.408549e-03 -4.361791e-04 4.769722e-04 -2.811173e-03 -5.975036e-04 -2.467929e-03 1.270423e-03 -1.866333e-03 -5.185955e-03 -6.474877e-05 1.974892e-04 2.232803e-04 -1.358723e-04 -1.240148e-04 -4.670193e-05 -3.095244e-06 -1.398117e-04 1.124819e-04 3.436128e-04 3.164141e-04 3.586718e-05 -6.892125e-05
<VARIANCE> 39
 6.482984e+01 6.727435e+01 8.129106e+01 6.659540e+01 6.777844e+01 5.504547e+01 7.555603e+01 6.844129e+01 6.457583e+01 4.846011e+01 5.310877e+01 4.469565e+01 2.125671e+02 2.538897e+00 3.095398e+00 3.140244e+00 3.327243e+00 3.440647e+00 3.112204e+00 3.575225e+00 4.225617e+00 3.460756e+00 3.052629e+00 3.105958e+00 2.579413e+00 5.007634e+00 3.896923e-01 4.732382e-01 4.906581e-01 5.517033e-01 6.173454e-01 5.587702e-01 6.463017e-01 7.488220e-01 6.169299e-01 5.679703e-01 5.701737e-01 4.749093e-01 6.787602e-01
<GCONST> 1.346233e+02
<STATE> 4
<MEAN> 39
 -5.591087e+00 -2.878910e+00 8.183817e-01 -5.174671e+00 -7.325065e+00 -2.524414e+00 -8.920787e+00 -3.132108e+00 -3.625726e+00 -2.635353e+00 -2.470450e+00 -5.016540e+00 5.472919e+01 -4.075028e-03 2.517184e-03 -4.134760e-03 -2.569094e-03 7.439470e-04 -6.392798e-04 -1.590931e-04 -2.659118e-03 -3.458184e-05 -1.297849e-03 2.065888e-03 -1.861983e-03 -5.361015e-03 -2.249027e-05 1.037597e-04 1.604022e-04 -1.199496e-04 -1.065076e-04 6.261413e-05 -1.221553e-04 -1.116475e-04 6.187426e-05 2.614717e-04 2.584862e-04 4.499330e-05 3.247403e-05
<VARIANCE> 39
 6.525727e+01 6.674063e+01 8.094873e+01 6.615247e+01 6.764497e+01 5.476153e+01 7.491832e+01 6.678307e+01 6.399638e+01 4.778352e+01 5.229752e+01 4.407764e+01 2.132863e+02 2.501519e+00 3.041847e+00 3.079433e+00 3.284747e+00 3.389509e+00 3.087006e+00 3.536356e+00 4.110950e+00 3.424928e+00 3.013359e+00 3.058033e+00 2.532320e+00 4.879747e+00 3.827832e-01 4.649789e-01 4.806044e-01 5.431920e-01 6.071996e-01 5.534161e-01 6.390533e-01 7.288805e-01 6.098801e-01 5.605838e-01 5.616443e-01 4.662322e-01 6.578345e-01
<GCONST> 1.340868e+02
<TRANSP> 5
 0.000000e+00 1.000000e+00 0.000000e+00 0.000000e+00 0.000000e+00
 0.000000e+00 7.107351e-01 2.892649e-01 0.000000e+00 0.000000e+00
 0.000000e+00 0.000000e+00 7.107345e-01 2.892655e-01 0.000000e+00
 0.000000e+00 0.000000e+00 0.000000e+00 8.373081e-01 1.626919e-01
 0.000000e+00 0.000000e+00 0.000000e+00 0.000000e+00 0.000000e+00
<ENDHMM>
~h "o"
<BEGINHMM>
<NUMSTATES> 5
<STATE> 2
<MEAN> 39
 -5.627508e+00 -2.460351e+00 -5.148730e-01 -6.474743e+00 -7.539747e+00 -1.663921e+00 -8.967240e+00 -3.557017e+00 -3.225137e+00 -2.316682e+00 -1.270663e+00 -4.577861e+00 5.458774e+01 -3.865697e-03 6.001838e-03 -1.632995e-03 -3.513706e-03 3.896857e-03 6.527135e-03 3.480821e-03 -1.385865e-03 -3.666201e-03 -3.034574e-03 2.189144e-03 -2.132777e-03 -6.386758e-03 -4.839061e-04 3.003689e-04 2.895355e-04 5.570874e-04 1.311091e-04 -3.676905e-04 4.454255e-05 8.246705e-05 -2.421344e-04 -5.314701e-05 -3.210457e-04 6.785310e-05 -8.894688e-04
<VARIANCE> 39
 6.981918e+01 6.254745e+01 8.192698e+01 8.119016e+01 6.795038e+01 6.097236e+01 7.585284e+01 6.360600e+01 6.029839e+01 4.720380e+01 5.111400e+01 4.287477e+01 2.122424e+02 2.730571e+00 2.833546e+00 3.148137e+00 3.781754e+00 3.527739e+00 3.296062e+00 3.517771e+00 3.834732e+00 3.346055e+00 2.960732e+00 3.043899e+00 2.521573e+00 5.105279e+00 4.098731e-01 4.436137e-01 4.906009e-01 6.065169e-01 6.289795e-01 5.814265e-01 6.354694e-01 6.855825e-01 6.022962e-01 5.522258e-01 5.528360e-01 4.631811e-01 6.800060e-01
<GCONST> 1.346137e+02
<STATE> 3
<MEAN> 39
 -5.639311e+00 -2.438938e+00 -5.206866e-01 -6.486301e+00 -7.524400e+00 -1.640311e+00 -8.956310e+00 -3.563725e+00 -3.237852e+00 -2.326616e+00 -1.263728e+00 -4.584409e+00 5.456361e+01 -5.443036e-03 6.901577e-03 -5.735505e-04 -1.320257e-03 4.520890e-03 5.030106e-03 3.643435e-03 -1.328289e-03 -4.544426e-03 -3.001133e-03 1.093820e-03 -1.912628e-03 -9.756574e-03 -2.970222e-04 2.845043e-04 3.333042e-04 6.302929e-04 1.103125e-04 -4.394232e-04 1.715085e-05 8.856871e-06 -2.379292e-04 1.089503e-04 -2.755704e-04 1.127187e-04 -8.353041e-04
<VARIANCE> 39
 6.989611e+01 6.248262e+01 8.200655e+01 8.147684e+01 6.780747e+01 6.087894e+01 7.582539e+01 6.328302e+01 6.013950e+01 4.711660e+01 5.108505e+01 4.282496e+01 2.123512e+02 2.726974e+00 2.825547e+00 3.143536e+00 3.777185e+00 3.520873e+00 3.291873e+00 3.515676e+00 3.820326e+00 3.343809e+00 2.953583e+00 3.039352e+00 2.517097e+00 5.088774e+00 4.092839e-01 4.422787e-01 4.895344e-01 6.055562e-01 6.269667e-01 5.805942e-01 6.347550e-01 6.830175e-01 6.020612e-01 5.508643e-01 5.522795e-01 4.625709e-01 6.771212e-01
<GCONST> 1.345522e+02
<STATE> 4
<MEAN> 39
 -5.639911e+00 -2.360541e+00 -4.510420e-01 -6.405896e+00 -7.458260e+00 -1.735188e+00 -8.893960e+00 -3.442085e+00 -3.397715e+00 -2.302818e+00 -1.316075e+00 -4.569928e+00 5.416744e+01 -5.920793e-03 6.947788e-03 5.414404e-04 1.027100e-03 5.022903e-03 3.409687e-03 3.732590e-03 -1.677181e-03 -4.831915e-03 -2.054288e-03 -2.392977e-04 -1.339389e-03 -1.263443e-02 -2.107873e-04 1.694950e-04 3.215431e-04 6.846972e-04 4.775802e-05 -4.550458e-04 1.050512e-04 2.445820e-05 -1.066043e-04 1.613566e-04 -2.835647e-04 1.722771e-04 -7.535083e-04
<VARIANCE> 39
 7.020049e+01 6.197413e+01 8.116739e+01 8.165622e+01 6.725645e+01 6.016543e+01 7.448512e+01 6.126528e+01 5.877607e+01 4.598620e+01 5.032282e+01 4.219040e+01 2.139021e+02 2.672039e+00 2.774281e+00 3.078901e+00 3.710257e+00 3.456973e+00 3.243047e+00 3.468046e+00 3.718234e+00 3.301631e+00 2.898378e+00 2.991911e+00 2.470910e+00 4.913775e+00 3.999425e-01 4.335665e-01 4.793697e-01 5.937008e-01 6.145818e-01 5.711184e-01 6.257436e-01 6.650815e-01 5.948280e-01 5.404415e-01 5.444086e-01 4.547289e-01 6.505727e-01
<GCONST> 1.338844e+02
<TRANSP> 5
 0.000000e+00 1.000000e+00 0.000000e+00 0.000000e+00 0.000000e+00
 0.000000e+00 7.134517e-01 2.865482e-01 0.000000e+00 0.000000e+00
 0.000000e+00 0.000000e+00 7.134567e-01 2.865433e-01 0.000000e+00
 0.000000e+00 0.000000e+00 0.000000e+00 8.402032e-01 1.597969e-01
 0.000000e+00 0.000000e+00 0.000000e+00 0.000000e+00 0.000000e+00
<ENDHMM>
~h "p"
<BEGINHMM>
<NUMSTATES> 5
<STATE> 2
<MEAN> 39
 -6.092474e+00 -2.918356e+00 -3.528794e-01 -5.603809e+00 -7.163324e+00 -2.472389e+00 -8.600964e+00 -3.245245e+00 -3.468264e+00 -2.636696e+00 -1.905213e+00 -4.984631e+00 5.341068e+01 8.356077e-03 8.108466e-04 2.620855e-03 -4.052113e-03 -3.863885e-03 5.787133e-03 -3.216846e-03 -6.853409e-03 -2.225662e-03 2.222198e-03 -1.778200e-04 -4.992068e-03 1.086145e-02 1.349045e-04 -1.677604e-04 1.653616e-04 9.680039e-05 1.650668e-05 -4.879933e-05 6.351705e-05 2.071790e-04 -5.044747e-04 -3.485194e-04 -3.174398e-04 3.917062e-05 3.012724e-04
<VARIANCE> 39
 6.557053e+01 6.533566e+01 7.743864e+01 6.521488e+01 6.453976e+01 5.636678e+01 6.860137e+01 6.160204e+01 5.769496e+01 4.424023e+01 4.744024e+01 4.397218e+01 2.263589e+02 2.629133e+00 3.071743e+00 2.978360e+00 3.334534e+00 3.368028e+00 3.169747e+00 3.413926e+00 3.806402e+00 3.260908e+00 2.870330e+00 2.952694e+00 2.566834e+00 5.995789e+00 4.114092e-01 4.751308e-01 4.701352e-01 5.673943e-01 6.086370e-01 5.771785e-01 6.267320e-01 6.845165e-01 5.881253e-01 5.399734e-01 5.494794e-01 4.768505e-01 8.071719e-01
<GCONST> 1.338484e+02
<STATE> 3
<MEAN> 39
 -6.063589e+00 -2.919844e+00 -3.444952e-01 -5.617953e+00 -7.174670e+00 -2.455488e+00 -8.609901e+00 -3.263386e+00 -3.476441e+00 -2.630831e+00 -1.907339e+00 -4.999684e+00 5.345149e+01 8.086459e-03 4.300524e-05 2.886357e-03 -4.012006e-03 -3.692312e-03 5.206998e-03 -2.455210e-03 -5.201349e-03 -2.926088e-03 1.534733e-03 -1.057864e-03 -4.454883e-03 1.123518e-02 -5.713866e-05 -3.244608e-04 8.814357e-05 -6.461585e-05 -4.451095e-08 -2.225972e-04 2.040752e-04 5.287516e-04 -1.515758e-04 -1.347999e-04 -3.155293e-04 1.378499e-04 1.766701e-04
<VARIANCE> 39
 6.556945e+01 6.545387e+01 7.760040e+01 6.536666e+01 6.457747e+01 5.641032e+01 6.868815e+01 6.174808e+01 5.765582e+01 4.431041e+01 4.755620e+01 4.408803e+01 2.261245e+02 2.638956e+00 3.082711e+00 2.983909e+00 3.351132e+00 3.375947e+00 3.175689e+00 3.419897e+00 3.808220e+00 3.264983e+00 2.873403e+00 2.957566e+00 2.577523e+00 6.033088e+00 4.127531e-01 4.765310e-01 4.704792e-01 5.704647e-01 6.099314e-01 5.778274e-01 6.274747e-01 6.847684e-01 5.888359e-01 5.406639e-01 5.501276e-01 4.787114e-01 8.115396e-01
<GCONST> 1.339295e+02
<STATE> 4
<MEAN> 39
 -6.035734e+00 -2.876482e+00 -3.004900e-01 -5.564781e+00 -7.127337e+00 -2.528207e+00 -8.539350e+00 -3.168947e+00 -3.596987e+00 -2.609368e+00 -1.945383e+00 -4.986555e+00 5.317495e+01 6.649569e-03 -5.548147e-04 3.013509e-03 -3.943087e-03 -2.949051e-03 3.496432e-03 -1.025955e-03 -3.030348e-03 -2.657875e-03 9.105655e-04 -1.918351e-03 -3.048922e-03 1.058879e-02 -2.335596e-04 2.157624e-06 1.122103e-04 5.190948e-05 -5.402776e-06 -2.278800e-04 2.572233e-04 2.898728e-04 -3.361727e-05 -4.713672e-05 -2.506152e-04 2.083352e-04 -2.380335e-04
<VARIANCE> 39
 6.564969e+01 6.496162e+01 7.691673e+01 6.509161e+01 6.411201e+01 5.594596e+01 6.768297e+01 6.045929e+01 5.659082e+01 4.349289e+01 4.696907e+01 4.379826e+01 2.264676e+02 2.590467e+00 3.032019e+00 2.927285e+00 3.308515e+00 3.319790e+00 3.131675e+00 3.369744e+00 3.717861e+00 3.225584e+00 2.828292e+00 2.917341e+00 2.537325e+00 5.849668e+00 4.040433e-01 4.681220e-01 4.613056e-01 5.628420e-01 5.989934e-01 5.685390e-01 6.180169e-01 6.686506e-01 5.817341e-01 5.326222e-01 5.429734e-01 4.713737e-01 7.837019e-01
<GCONST> 1.333430e+02
<TRANSP> 5
 0.000000e+00 1.000000e+00 0.000000e+00 0.000000e+00 0.000000e+00
 0.000000e+00 7.122145e-01 2.877855e-01 0.000000e+00 0.000000e+00
 0.000000e+00 0.000000e+00 7.122120e-01 2.877879e-01 0.000000e+00
 0.000000e+00 0.000000e+00 0.000000e+00 8.388526e-01 1.611475e-01
 0.000000e+00 0.000000e+00 0.000000e+00 0.000000e+00 0.000000e+00
<ENDHMM>
~h "q"
<BEGINHMM>
<NUMSTATES> 5
<STATE> 2
<MEAN> 39
 -8.380738e+00 -2.691622e+00 2.068480e+00 -5.025655e+00 -8.587168e+00 -4.002207e+00 -6.566236e+00 -4.752815e+00 -1.130194e+00 -4.920441e+00 1.746856e+00 -4.222572e+00 5.316893e+01 2.696077e-02 2.837209e-02 1.090233e-01 4.683753e-02 -4.163637e-02 -6.969673e-02 -6.700527e-02 -5.967940e-02 -4.410768e-02 2.955476e-04 4.554708e-03 2.289678e-02 9.433715e-03 -8.211582e-05 1.350810e-03 -1.159816e-03 1.383033e-03 -4.109764e-04 -2.034974e-03 -1.188116e-03 -1.413957e-03 3.561526e-04 1.525833e-03 -2.795525e-03 2.376294e-03 -3.237243e-03
<VARIANCE> 39
 7.139877e+01 6.293210e+01 8.635818e+01 5.139840e+01 7.941595e+01 5.619251e+01 4.452727e+01 4.345802e+01 5.732010e+01 3.192718e+01 4.492377e+01 3.627049e+01 1.627733e+02 3.995006e+00 3.435952e+00 3.387606e+00 3.012277e+00 5.563758e+00 3.324992e+00 3.366889e+00 3.178680e+00 3.539706e+00 2.943374e+00 3.503802e+00 2.305479e+00 5.693869e+00 5.558223e-01 5.274310e-01 5.114631e-01 5.122480e-01 9.775739e-01 6.393231e-01 6.511204e-01 5.380204e-01 6.514197e-01 5.667930e-01 6.687834e-01 3.922127e-01 8.551930e-01
<GCONST> 1.342835e+02
<STATE> 3
<MEAN> 39
 -8.312097e+00 -2.596288e+00 2.361714e+00 -4.865202e+00 -8.717083e+00 -4.253373e+00 -6.771614e+00 -4.908456e+00 -1.252020e+00 -4.915312e+00 1.746956e+00 -4.136662e+00 5.323455e+01 2.128720e-02 3.349134e-02 1.020968e-01 5.129829e-02 -3.960581e-02 -7.543685e-02 -6.667829e-02 -6.022393e-02 -4.294395e-02 3.875118e-03 -3.541777e-03 3.055799e-02 1.186105e-03 -1.661666e-03 1.613294e-03 -3.644993e-03 1.092307e-03 1.493705e-03 -1.613312e-03 3.179920e-04 -5.431697e-04 1.180255e-03 1.487745e-03 -2.896936e-03 2.033995e-03 -2.183754e-03
<VARIANCE> 39
 6.989130e+01 6.148381e+01 8.766335e+01 5.053602e+01 7.996001e+01 5.625303e+01 4.538520e+01 4.323666e+01 5.710897e+01 3.256718e+01 4.482826e+01 3.520340e+01 1.596308e+02 3.917160e+00 3.354516e+00 3.416509e+00 3.033974e+00 5.748744e+00 3.300382e+00 3.378152e+00 3.212795e+00 3.559327e+00 2.977444e+00 3.517916e+00 2.297412e+00 5.707280e+00 5.487162e-01 5.226228e-01 5.173637e-01 5.209746e-01 1.019250e+00 6.331582e-01 6.495487e-01 5.444284e-01 6.598025e-01 5.735591e-01 6.746759e-01 3.927422e-01 8.678655e-01
<GCONST> 1.343520e+02
<STATE> 4
<MEAN> 39
 -8.079554e+00 -2.488162e+00 2.368278e+00 -4.617728e+00 -8.731038e+00 -4.578219e+00 -7.164253e+00 -5.069022e+00 -1.663028e+00 -4.646823e+00 1.456074e+00 -3.913301e+00 5.297868e+01 7.243287e-03 3.704099e-02 7.871389e-02 5.702216e-02 -3.153816e-02 -8.198735e-02 -5.842960e-02 -4.575437e-02 -3.540093e-02 4.183388e-03 -9.991998e-03 3.653585e-02 1.075384e-02 -2.724823e-03 1.234688e-03 -4.780122e-03 7.657351e-04 2.636876e-03 -2.413398e-04 1.634327e-03 9.046867e-04 1.834588e-03 5.704680e-04 -1.890867e-03 9.722228e-04 -4.854975e-05
<VARIANCE> 39
 6.549007e+01 5.927974e+01 9.102216e+01 5.093350e+01 7.708655e+01 5.975191e+01 4.610524e+01 4.074160e+01 5.657782e+01 3.292402e+01 4.448147e+01 3.401517e+01 1.592707e+02 3.562269e+00 3.091573e+00 3.549659e+00 3.067779e+00 5.646343e+00 3.311242e+00 3.235718e+00 3.082354e+00 3.513102e+00 2.918429e+00 3.420092e+00 2.238190e+00 5.403735e+00 5.079744e-01 4.914855e-01 5.339512e-01 5.243227e-01 1.003576e+00 6.299295e-01 6.066934e-01 5.264007e-01 6.447491e-01 5.580906e-01 6.533127e-01 3.803002e-01 8.236617e-01
<GCONST> 1.334743e+02
<TRANSP> 5
 0.000000e+00 1.000000e+00 0.000000e+00 0.000000e+00 0.000000e+00
 0.000000e+00 6.693485e-01 3.306515e-01 0.000000e+00 0.000000e+00
 0.000000e+00 0.000000e+00 6.693482e-01 3.306518e-01 0.000000e+00
 0.000000e+00 0.000000e+00 0.000000e+00 7.904450e-01 2.095551e-01
 0.000000e+00 0.000000e+00 0.000000e+00 0.000000e+00 0.000000e+00
<ENDHMM>
~h "r"
<BEGINHMM>
<NUMSTATES> 5
<STATE> 2
<MEAN> 39
 -5.799747e+00 -3.259410e+00 -1.561818e-01 -5.507181e+00 -7.330431e+00 -2.542065e+00 -8.995907e+00 -3.021473e+00 -3.072149e+00 -2.631184e+00 -1.967198e+00 -4.894145e+00 5.511651e+01 7.247188e-04 6.719515e-03 -1.305532e-03 1.576155e-04 8.436075e-04 -4.839163e-04 3.723162e-03 -3.189194e-04 -1.429535e-03 -1.535982e-03 -1.082528e-03 -7.428351e-04 -6.194624e-03 -2.045492e-04 2.114165e-04 1.388375e-04 1.213815e-04 7.373898e-05 3.454558e-05 6.358984e-05 -9.323911e-05 -2.085443e-04 -1.860482e-04 1.007238e-04 1.118907e-04 -7.941085e-04
<VARIANCE> 39
 6.850992e+01 6.859135e+01 8.308857e+01 6.654469e+01 6.892007e+01 5.653331e+01 7.340851e+01 6.568069e+01 6.310612e+01 4.763317e+01 5.088177e+01 4.432051e+01 2.153125e+02 2.763773e+00 3.057951e+00 3.076244e+00 3.368827e+00 3.508855e+00 3.148280e+00 3.547117e+00 3.939072e+00 3.451498e+00 2.982276e+00 3.047281e+00 2.595761e+00 5.170496e+00 4.222805e-01 4.681812e-01 4.771549e-01 5.685990e-01 6.241657e-01 5.615517e-01 6.435055e-01 6.985708e-01 6.128931e-01 5.575373e-01 5.610738e-01 4.782131e-01 6.983001e-01
<GCONST> 1.346327e+02
<STATE> 3
<MEAN> 39
 -5.795996e+00 -3.238843e+00 -1.604149e-01 -5.506708e+00 -7.327195e+00 -2.542717e+00 -8.983748e+00 -3.024210e+00 -3.077965e+00 -2.640254e+00 -1.970469e+00 -4.897429e+00 5.509654e+01 -2.677021e-05 7.353998e-03 -9.486072e-04 6.082507e-04 1.151233e-03 -4.282143e-04 3.992043e-03 -5.473779e-04 -2.147755e-03 -2.144313e-03 -7.051254e-04 -4.766988e-04 -8.728022e-03 -1.865151e-04 9.357004e-05 6.298595e-05 1.577612e-04 1.107009e-04 9.041580e-05 6.229589e-05 -8.337788e-05 -1.672174e-04 -1.454259e-04 6.421626e-05 7.323091e-05 -6.666887e-04
<VARIANCE> 39
 6.855818e+01 6.847297e+01 8.307665e+01 6.637250e+01 6.885210e+01 5.648574e+01 7.350266e+01 6.563014e+01 6.303361e+01 4.755408e+01 5.085160e+01 4.421615e+01 2.154711e+02 2.762367e+00 3.053657e+00 3.073238e+00 3.362761e+00 3.501136e+00 3.142431e+00 3.543619e+00 3.930793e+00 3.449358e+00 2.979273e+00 3.046153e+00 2.591881e+00 5.160028e+00 4.218149e-01 4.672836e-01 4.764589e-01 5.674917e-01 6.225784e-01 5.603558e-01 6.426880e-01 6.970193e-01 6.127265e-01 5.570942e-01 5.606800e-01 4.774650e-01 6.965392e-01
<GCONST> 1.345847e+02
<STATE> 4
<MEAN> 39
 -5.745521e+00 -3.192539e+00 -9.276109e-02 -5.496462e+00 -7.290378e+00 -2.613435e+00 -8.948784e+00 -2.910936e+00 -3.230722e+00 -2.636105e+00 -2.000969e+00 -4.902084e+00 5.485037e+01 -4.192888e-04 6.916080e-03 -6.891852e-04 1.355013e-03 1.470663e-03 -2.672613e-04 3.742149e-03 -1.023358e-03 -2.549437e-03 -2.907549e-03 -2.755261e-04 -5.387685e-04 -1.005157e-02 -2.077982e-04 9.318850e-05 1.634542e-05 1.833549e-04 1.078369e-04 2.681123e-05 3.339311e-05 -2.877479e-05 -8.106993e-05 -4.553186e-05 5.292283e-05 7.677131e-07 -5.824862e-04
<VARIANCE> 39
 6.889307e+01 6.812225e+01 8.266401e+01 6.652935e+01 6.835514e+01 5.623652e+01 7.274995e+01 6.442394e+01 6.184749e+01 4.660825e+01 5.019835e+01 4.379382e+01 2.161740e+02 2.711303e+00 3.005804e+00 3.022139e+00 3.329081e+00 3.436756e+00 3.105551e+00 3.502058e+00 3.850242e+00 3.413452e+00 2.938880e+00 3.006319e+00 2.545853e+00 5.025213e+00 4.128956e-01 4.591628e-01 4.679726e-01 5.600184e-01 6.100605e-01 5.522407e-01 6.345379e-01 6.827132e-01 6.060219e-01 5.496398e-01 5.531355e-01 4.686326e-01 6.745508e-01
<GCONST> 1.340499e+02
<TRANSP> 5
 0.000000e+00 1.000000e+00 0.000000e+00 0.000000e+00 0.000000e+00
 0.000000e+00 7.115827e-01 2.884173e-01 0.000000e+00 0.000000e+00
 0.000000e+00 0.000000e+00 7.115895e-01 2.884105e-01 0.000000e+00
 0.000000e+00 0.000000e+00 0.000000e+00 8.376986e-01 1.623014e-01
 0.000000e+00 0.000000e+00 0.000000e+00 0.000000e+00 0.000000e+00
<ENDHMM>
~h "s"
<BEGINHMM>
<NUMSTATES> 5
<STATE> 2
<MEAN> 39
 -7.750815e+00 -2.210989e+00 -2.343436e-01 -5.106025e+00 -6.415818e+00 -2.904963e+00 -8.055876e+00 -2.837266e+00 -3.199222e+00 -2.467644e+00 -1.840121e+00 -4.344607e+00 5.413938e+01 1.230491e-03 3.861370e-03 7.346130e-04 1.080218e-03 3.501816e-03 2.595644e-03 1.332788e-03 -1.628815e-03 -2.228896e-03 -3.786541e-04 -2.920979e-03 1.687494e-04 6.293049e-04 2.148929e-04 6.238402e-05 -4.110291e-04 1.115103e-04 6.385058e-05 1.796736e-04 -1.646738e-04 -2.573908e-04 -2.760023e-05 -7.373261e-05 1.280180e-04 1.205852e-04 -9.619590e-04
<VARIANCE> 39
 8.681853e+01 6.750945e+01 8.123821e+01 6.401315e+01 6.841477e+01 5.386081e+01 7.278680e+01 6.191070e+01 6.026600e+01 4.520534e+01 4.790347e+01 4.285463e+01 2.255309e+02 3.659088e+00 3.158952e+00 3.186143e+00 3.193144e+00 3.460786e+00 3.060035e+00 3.618307e+00 3.841137e+00 3.308549e+00 2.839380e+00 2.951701e+00 2.524561e+00 4.747068e+00 5.094069e-01 4.800721e-01 4.887606e-01 5.340966e-01 6.028937e-01 5.480542e-01 6.500989e-01 6.851974e-01 5.886210e-01 5.332919e-01 5.434197e-01 4.624842e-01 6.424856e-01
<GCONST> 1.344059e+02
<STATE> 3
<MEAN> 39
 -7.745852e+00 -2.199189e+00 -2.340903e-01 -5.103752e+00 -6.403544e+00 -2.896126e+00 -8.053299e+00 -2.843165e+00 -3.207926e+00 -2.469839e+00 -1.849960e+00 -4.344400e+00 5.414362e+01 2.347673e-03 4.001354e-03 -5.044966e-04 1.276168e-03 3.384809e-03 3.110071e-03 1.019562e-03 -2.355287e-03 -2.682268e-03 -7.801112e-04 -2.353840e-03 5.709838e-04 -2.606544e-03 2.441463e-04 7.121422e-05 -3.523990e-04 1.902368e-06 -8.015731e-05 1.108103e-04 -1.311360e-04 -1.886574e-04 -6.085197e-05 -1.352501e-04 2.304071e-04 7.200126e-05 -9.012383e-04
<VARIANCE> 39
 8.676503e+01 6.738849e+01 8.126547e+01 6.400272e+01 6.846449e+01 5.396125e+01 7.290049e+01 6.193772e+01 6.027390e+01 4.519723e+01 4.794254e+01 4.278713e+01 2.253851e+02 3.667113e+00 3.161118e+00 3.185783e+00 3.196960e+00 3.462215e+00 3.061812e+00 3.624665e+00 3.838281e+00 3.311002e+00 2.837703e+00 2.950527e+00 2.524713e+00 4.744833e+00 5.100016e-01 4.806193e-01 4.885940e-01 5.346661e-01 6.026934e-01 5.481782e-01 6.510071e-01 6.847733e-01 5.891854e-01 5.329680e-01 5.431942e-01 4.623384e-01 6.421517e-01
<GCONST> 1.344150e+02
<STATE> 4
<MEAN> 39
 -7.686654e+00 -2.175107e+00 -1.927332e-01 -5.065489e+00 -6.327354e+00 -2.932306e+00 -7.986829e+00 -2.753093e+00 -3.327325e+00 -2.446995e+00 -1.889430e+00 -4.331215e+00 5.378498e+01 3.545192e-03 3.654751e-03 -1.092237e-03 7.021364e-04 2.650429e-03 3.534738e-03 7.111023e-04 -2.373747e-03 -3.224444e-03 -1.501898e-03 -1.634025e-03 4.120462e-04 -3.773498e-03 2.602177e-04 4.940110e-05 -1.424629e-04 -6.018662e-05 -1.672621e-04 1.022423e-04 -6.708913e-05 -9.489001e-05 -1.467375e-05 -1.545907e-04 1.921959e-04 -1.233715e-05 -6.435129e-04
<VARIANCE> 39
 8.606126e+01 6.639060e+01 8.057040e+01 6.392442e+01 6.793091e+01 5.371825e+01 7.189396e+01 6.053395e+01 5.938021e+01 4.438356e+01 4.722604e+01 4.243504e+01 2.266122e+02 3.557736e+00 3.089315e+00 3.115658e+00 3.157979e+00 3.390979e+00 3.024090e+00 3.567641e+00 3.738429e+00 3.281150e+00 2.798029e+00 2.899358e+00 2.478783e+00 4.614624e+00 4.938381e-01 4.702380e-01 4.776856e-01 5.278094e-01 5.895649e-01 5.405850e-01 6.409213e-01 6.672790e-01 5.836754e-01 5.259440e-01 5.342286e-01 4.538280e-01 6.214061e-01
<GCONST> 1.337742e+02
<TRANSP> 5
 0.000000e+00 1.000000e+00 0.000000e+00 0.000000e+00 0.000000e+00
 0.000000e+00 7.125803e-01 2.874197e-01 0.000000e+00 0.000000e+00
 0.000000e+00 0.000000e+00 7.125738e-01 2.874262e-01 0.000000e+00
 0.000000e+00 0.000000e+00 0.000000e+00 8.391181e-01 1.608818e-01
 0.000000e+00 0.000000e+00 0.000000e+00 0.000000e+00 0.000000e+00
<ENDHMM>
~h "t"
<BEGINHMM>
<NUMSTATES> 5
<STATE> 2
<MEAN> 39
 -6.160852e+00 -2.686698e+00 -6.445565e-02 -5.687834e+00 -7.019450e+00 -2.572129e+00 -8.800800e+00 -3.206946e+00 -3.322559e+00 -2.505819e+00 -2.066828e+00 -4.988196e+00 5.396634e+01 -1.943359e-03 4.258165e-03 -8.446038e-05 5.083256e-04 1.420151e-03 -7.612347e-04 1.166758e-03 -1.586020e-03 -5.825777e-04 1.189376e-03 -1.578360e-03 -7.357296e-04 -5.611009e-03 1.244134e-05 5.176984e-05 1.699291e-04 9.331890e-05 -2.060704e-04 -1.960227e-04 -1.245086e-04 -7.989563e-05 -7.704721e-05 1.799375e-05 2.030935e-04 9.418653e-05 -1.581845e-04
<VARIANCE> 39
 6.625392e+01 6.555301e+01 7.838375e+01 6.656579e+01 6.563642e+01 5.645697e+01 7.312938e+01 6.223628e+01 6.154406e+01 4.590697e+01 4.974698e+01 4.470658e+01 2.269265e+02 2.811293e+00 3.156407e+00 3.099131e+00 3.356600e+00 3.423380e+00 3.189931e+00 3.615960e+00 3.845430e+00 3.418994e+00 2.944944e+00 3.037040e+00 2.637029e+00 6.214579e+00 4.405789e-01 4.930426e-01 4.895337e-01 5.671010e-01 6.179823e-01 5.769894e-01 6.629172e-01 6.906712e-01 6.134721e-01 5.544785e-01 5.615504e-01 4.891196e-01 8.507143e-01
<GCONST> 1.349441e+02
<STATE> 3
<MEAN> 39
 -6.165674e+00 -2.673751e+00 -6.613462e-02 -5.687496e+00 -7.015060e+00 -2.575577e+00 -8.795818e+00 -3.212042e+00 -3.325449e+00 -2.502539e+00 -2.072822e+00 -4.991284e+00 5.394910e+01 -1.802543e-03 4.392313e-03 3.668683e-04 8.876522e-04 8.208326e-04 -1.364365e-03 8.732511e-04 -1.638179e-03 -8.714966e-04 9.668685e-04 -7.215429e-04 -4.001122e-04 -6.055685e-03 7.979319e-05 4.293662e-05 1.684072e-04 6.393709e-05 -1.882337e-04 -9.724727e-05 -7.164681e-05 -6.035034e-05 -3.842515e-05 -1.209679e-04 2.664463e-04 1.440938e-04 -1.348481e-04
<VARIANCE> 39
 6.619429e+01 6.542126e+01 7.842675e+01 6.651757e+01 6.572215e+01 5.639429e+01 7.319541e+01 6.209149e+01 6.145811e+01 4.587481e+01 4.972690e+01 4.463984e+01 2.269919e+02 2.811624e+00 3.152557e+00 3.099501e+00 3.356695e+00 3.422566e+00 3.187302e+00 3.613461e+00 3.836893e+00 3.414487e+00 2.943372e+00 3.031769e+00 2.636968e+00 6.222239e+00 4.408233e-01 4.923483e-01 4.894613e-01 5.668856e-01 6.178472e-01 5.766561e-01 6.624688e-01 6.892153e-01 6.126865e-01 5.541371e-01 5.605245e-01 4.893206e-01 8.518293e-01
<GCONST> 1.349218e+02
<STATE> 4
<MEAN> 39
 -6.165471e+00 -2.636907e+00 -3.507602e-02 -5.653477e+00 -6.954643e+00 -2.641540e+00 -8.717428e+00 -3.111084e+00 -3.456702e+00 -2.485839e+00 -2.099165e+00 -4.979341e+00 5.361317e+01 -1.074752e-03 4.042641e-03 2.447329e-04 9.083247e-04 2.564224e-04 -1.697324e-03 1.157890e-03 -1.386732e-03 -1.309475e-03 -8.740780e-05 -5.461095e-06 8.275819e-05 -5.710272e-03 9.231662e-05 7.800273e-05 1.132527e-04 3.374553e-05 -1.731561e-04 -7.478431e-06 1.957529e-06 -4.440478e-05 -1.885586e-06 -1.904618e-04 2.473643e-04 1.681402e-04 -1.336169e-04
<VARIANCE> 39
 6.640665e+01 6.479541e+01 7.790048e+01 6.629092e+01 6.536456e+01 5.598517e+01 7.225785e+01 6.057370e+01 6.052801e+01 4.502696e+01 4.901179e+01 4.430355e+01 2.278872e+02 2.754609e+00 3.093237e+00 3.047624e+00 3.310049e+00 3.365457e+00 3.142692e+00 3.558402e+00 3.739421e+00 3.373989e+00 2.899353e+00 2.982076e+00 2.593665e+00 6.055398e+00 4.309097e-01 4.825042e-01 4.809409e-01 5.574924e-01 6.068820e-01 5.680124e-01 6.518564e-01 6.720545e-01 6.047244e-01 5.459300e-01 5.514905e-01 4.812220e-01 8.247466e-01
<GCONST> 1.343284e+02
<TRANSP> 5
 0.000000e+00 1.000000e+00 0.000000e+00 0.000000e+00 0.000000e+00
 0.000000e+00 7.122483e-01 2.877517e-01 0.000000e+00 0.000000e+00
 0.000000e+00 0.000000e+00 7.122466e-01 2.877534e-01 0.000000e+00
 0.000000e+00 0.000000e+00 0.000000e+00 8.382152e-01 1.617849e-01
 0.000000e+00 0.000000e+00 0.000000e+00 0.000000e+00 0.000000e+00
<ENDHMM>
~h "u"
<BEGINHMM>
<NUMSTATES> 5
<STATE> 2
<MEAN> 39
 -5.727145e+00 -1.939436e+00 1.877195e-01 -5.765387e+00 -7.364461e+00 -1.871452e+00 -9.490881e+00 -3.805080e+00 -3.738694e+00 -2.760388e+00 -1.641060e+00 -4.657418e+00 5.426796e+01 2.930607e-03 7.065355e-03 2.825998e-03 -2.912104e-04 -2.706227e-03 3.610648e-03 -1.417672e-03 -7.139604e-03 7.097556e-05 -6.609473e-04 2.187391e-03 -1.761236e-04 1.930085e-03 -1.782365e-04 -7.678485e-06 -6.677146e-05 -2.753304e-05 3.330059e-06 -1.056421e-04 1.929213e-04 2.738399e-04 9.035352e-05 7.643602e-05 6.645414e-05 6.483008e-06 -4.490933e-04
<VARIANCE> 39
 7.066107e+01 6.542107e+01 7.728911e+01 6.979527e+01 6.762467e+01 5.997444e+01 7.706937e+01 6.839939e+01 6.401128e+01 4.665351e+01 5.191140e+01 4.478831e+01 2.097031e+02 2.857885e+00 3.016470e+00 3.091740e+00 3.565715e+00 3.602924e+00 3.364680e+00 3.790790e+00 4.058281e+00 3.553347e+00 3.016068e+00 3.202244e+00 2.657339e+00 5.215315e+00 4.337651e-01 4.726868e-01 4.926884e-01 6.004934e-01 6.490548e-01 6.034780e-01 6.834888e-01 7.262424e-01 6.343928e-01 5.677539e-01 5.909451e-01 4.892668e-01 7.121067e-01
<GCONST> 1.355916e+02
<STATE> 3
<MEAN> 39
 -5.716671e+00 -1.916088e+00 1.961698e-01 -5.768152e+00 -7.373455e+00 -1.860772e+00 -9.496051e+00 -3.827233e+00 -3.738804e+00 -2.761220e+00 -1.634484e+00 -4.657701e+00 5.427579e+01 2.387458e-03 6.864267e-03 2.481133e-03 -3.689520e-04 -2.543689e-03 3.093174e-03 -8.498521e-04 -6.221982e-03 4.672322e-04 -2.032360e-04 2.369431e-03 -2.071848e-04 5.589959e-04 -1.556620e-04 -3.187807e-05 -1.287336e-04 -3.573345e-05 7.943207e-05 -1.742210e-04 1.498013e-04 3.169513e-04 7.024656e-05 1.243878e-04 7.916431e-05 -2.918004e-05 -3.446391e-04
<VARIANCE> 39
 7.068565e+01 6.528582e+01 7.735432e+01 6.988214e+01 6.773740e+01 6.001311e+01 7.724185e+01 6.848369e+01 6.409914e+01 4.671074e+01 5.196828e+01 4.470916e+01 2.094632e+02 2.860219e+00 3.015879e+00 3.095657e+00 3.570774e+00 3.610260e+00 3.365489e+00 3.794009e+00 4.055262e+00 3.555708e+00 3.020452e+00 3.204196e+00 2.658669e+00 5.217283e+00 4.339843e-01 4.726290e-01 4.932186e-01 6.012059e-01 6.500846e-01 6.035848e-01 6.840746e-01 7.255191e-01 6.345627e-01 5.687824e-01 5.912046e-01 4.893944e-01 7.122120e-01
<GCONST> 1.356150e+02
<STATE> 4
<MEAN> 39
 -5.715758e+00 -1.896616e+00 2.211429e-01 -5.741278e+00 -7.286555e+00 -1.957278e+00 -9.375029e+00 -3.678448e+00 -3.901993e+00 -2.729463e+00 -1.676934e+00 -4.660086e+00 5.394219e+01 1.952342e-03 5.628484e-03 1.389295e-03 -6.978419e-04 -1.868290e-03 1.989311e-03 -3.970216e-04 -4.830936e-03 7.368861e-04 6.084342e-04 1.827588e-03 -4.246320e-04 -2.591442e-06 -1.670263e-04 -1.306708e-04 -1.498480e-04 3.866543e-05 1.333277e-04 -2.067031e-04 1.513089e-04 2.663500e-04 3.754051e-05 7.013467e-05 -3.214281e-06 -7.566984e-05 -2.558688e-04
<VARIANCE> 39
 7.105019e+01 6.451582e+01 7.682648e+01 6.949290e+01 6.712479e+01 5.915969e+01 7.657146e+01 6.665115e+01 6.337835e+01 4.605425e+01 5.125676e+01 4.431259e+01 2.107247e+02 2.798781e+00 2.954602e+00 3.036189e+00 3.512049e+00 3.534990e+00 3.303910e+00 3.732549e+00 3.941087e+00 3.520002e+00 2.979393e+00 3.150509e+00 2.614299e+00 5.069958e+00 4.235005e-01 4.625191e-01 4.833305e-01 5.900614e-01 6.358437e-01 5.920323e-01 6.731272e-01 7.052404e-01 6.273136e-01 5.611098e-01 5.810624e-01 4.810556e-01 6.889591e-01
<GCONST> 1.349819e+02
<TRANSP> 5
 0.000000e+00 1.000000e+00 0.000000e+00 0.000000e+00 0.000000e+00
 0.000000e+00 7.118636e-01 2.881363e-01 0.000000e+00 0.000000e+00
 0.000000e+00 0.000000e+00 7.118633e-01 2.881367e-01 0.000000e+00
 0.000000e+00 0.000000e+00 0.000000e+00 8.386936e-01 1.613064e-01
 0.000000e+00 0.000000e+00 0.000000e+00 0.000000e+00 0.000000e+00
<ENDHMM>
~h "w"
<BEGINHMM>
<NUMSTATES> 5
<STATE> 2
<MEAN> 39
 -5.427896e+00 -2.779150e+00 1.863383e-01 -6.786098e+00 -7.758742e+00 -1.662363e+00 -9.140022e+00 -3.385088e+00 -3.583231e+00 -2.663610e+00 -1.230354e+00 -5.045550e+00 5.522225e+01 2.226057e-03 -2.465562e-04 1.203772e-05 -6.461735e-04 7.641735e-03 7.976118e-03 2.308243e-03 1.238012e-03 5.933697e-03 -7.458740e-04 9.444423e-04 -3.194688e-03 7.240180e-04 -4.450758e-04 -9.923050e-05 -1.188219e-03 3.349981e-04 8.159963e-04 -8.474319e-05 9.064189e-04 2.622417e-04 1.446938e-04 -9.424184e-05 -2.103964e-04 2.464054e-04 -1.757902e-03
<VARIANCE> 39
 7.238712e+01 6.746217e+01 8.366048e+01 8.423483e+01 6.830599e+01 6.559199e+01 7.518865e+01 6.518701e+01 6.743525e+01 4.808818e+01 5.635801e+01 4.648257e+01 2.162960e+02 2.619724e+00 3.109047e+00 3.023127e+00 3.408732e+00 3.517155e+00 3.225357e+00 3.540474e+00 3.825747e+00 3.383416e+00 2.887452e+00 3.132123e+00 2.678020e+00 4.849348e+00 3.886327e-01 4.715741e-01 4.637026e-01 5.356113e-01 6.180675e-01 5.595456e-01 6.364450e-01 6.847165e-01 6.002930e-01 5.357229e-01 5.734611e-01 4.862283e-01 6.429112e-01
<GCONST> 1.348818e+02
<STATE> 3
<MEAN> 39
 -5.419866e+00 -2.785817e+00 1.812254e-01 -6.789857e+00 -7.731225e+00 -1.634811e+00 -9.127774e+00 -3.377600e+00 -3.563612e+00 -2.668757e+00 -1.225265e+00 -5.054624e+00 5.522716e+01 3.911390e-04 -3.486590e-04 -4.096496e-03 1.484484e-03 1.018429e-02 7.077293e-03 5.241705e-03 1.792840e-03 6.223549e-03 -9.588643e-04 2.474717e-04 -2.258458e-03 -6.046034e-03 -4.713606e-04 5.858928e-05 -1.067188e-03 4.465173e-04 5.941911e-04 -4.208262e-04 8.657555e-04 3.268384e-04 -1.539562e-04 -5.345308e-05 -8.006226e-05 2.856819e-04 -1.754134e-03
<VARIANCE> 39
 7.222858e+01 6.741654e+01 8.395113e+01 8.434067e+01 6.867924e+01 6.551737e+01 7.559718e+01 6.528983e+01 6.740618e+01 4.825527e+01 5.662187e+01 4.651748e+01 2.159462e+02 2.595869e+00 3.094765e+00 3.014937e+00 3.391166e+00 3.510295e+00 3.217618e+00 3.530198e+00 3.815881e+00 3.378736e+00 2.883109e+00 3.130455e+00 2.665473e+00 4.809120e+00 3.844135e-01 4.697638e-01 4.616924e-01 5.318809e-01 6.151205e-01 5.578115e-01 6.337582e-01 6.819930e-01 5.990452e-01 5.342314e-01 5.723564e-01 4.833891e-01 6.368348e-01
<GCONST> 1.347895e+02
<STATE> 4
<MEAN> 39
 -5.448437e+00 -2.747780e+00 1.868012e-01 -6.752975e+00 -7.580470e+00 -1.729031e+00 -9.006156e+00 -3.184355e+00 -3.748329e+00 -2.633342e+00 -1.313478e+00 -5.021369e+00 5.480424e+01 -2.154762e-03 -1.197102e-03 -7.676216e-03 4.149749e-03 1.133106e-02 5.243660e-03 8.231632e-03 2.265534e-03 5.307861e-03 -1.939782e-03 -6.189574e-04 -9.872443e-04 -1.157694e-02 -6.356455e-04 2.235477e-04 -7.160406e-04 5.731105e-04 2.074165e-04 -6.616844e-04 6.992532e-04 1.661861e-04 -4.180217e-04 -6.852824e-05 -1.695028e-04 3.151737e-04 -1.707370e-03
<VARIANCE> 39
 7.271198e+01 6.699947e+01 8.354439e+01 8.426249e+01 6.880318e+01 6.484892e+01 7.478168e+01 6.376145e+01 6.639187e+01 4.723467e+01 5.564168e+01 4.614949e+01 2.175684e+02 2.520538e+00 2.999625e+00 2.948747e+00 3.321442e+00 3.436082e+00 3.158730e+00 3.450944e+00 3.721015e+00 3.335237e+00 2.824805e+00 3.075335e+00 2.595970e+00 4.603069e+00 3.715136e-01 4.549156e-01 4.511972e-01 5.202579e-01 5.996745e-01 5.467773e-01 6.189764e-01 6.643862e-01 5.893873e-01 5.230235e-01 5.611086e-01 4.703870e-01 6.055316e-01
<GCONST> 1.340325e+02
<TRANSP> 5
 0.000000e+00 1.000000e+00 0.000000e+00 0.000000e+00 0.000000e+00
 0.000000e+00 7.142716e-01 2.857284e-01 0.000000e+00 0.000000e+00
 0.000000e+00 0.000000e+00 7.142695e-01 2.857305e-01 0.000000e+00
 0.000000e+00 0.000000e+00 0.000000e+00 8.414032e-01 1.585969e-01
 0.000000e+00 0.000000e+00 0.000000e+00 0.000000e+00 0.000000e+00
<ENDHMM>
~h "y"
<BEGINHMM>
<NUMSTATES> 5
<STATE> 2
<MEAN> 39
 -6.321907e+00 -2.991477e+00 7.912561e-01 -5.790259e+00 -7.456615e+00 -2.836707e+00 -8.609782e+00 -2.665576e+00 -3.647353e+00 -2.948229e+00 -1.758487e+00 -4.839320e+00 5.478822e+01 9.330666e-03 4.180008e-03 6.924245e-03 -6.062151e-03 -5.807694e-03 6.891574e-03 -4.082258e-04 -9.034675e-04 -3.973249e-03 2.038479e-03 -7.537346e-03 -3.628890e-03 8.261163e-03 -2.656176e-04 7.993993e-05 -1.253876e-04 5.667927e-05 -1.269515e-04 3.646032e-05 1.312122e-04 3.202750e-05 3.365246e-04 1.168013e-04 2.479623e-05 -1.461425e-05 -6.485329e-04
<VARIANCE> 39
 6.544034e+01 6.638538e+01 8.760671e+01 6.536265e+01 7.205445e+01 5.447777e+01 7.055193e+01 6.549776e+01 6.272353e+01 4.973580e+01 5.348518e+01 4.375144e+01 2.278958e+02 2.503861e+00 2.986418e+00 3.194174e+00 3.069457e+00 3.450968e+00 3.078119e+00 3.373733e+00 3.900383e+00 3.365889e+00 2.924606e+00 3.047081e+00 2.509128e+00 4.460896e+00 3.697003e-01 4.451669e-01 4.646495e-01 5.138170e-01 5.949106e-01 5.438672e-01 6.054154e-01 6.838160e-01 5.911342e-01 5.412208e-01 5.530693e-01 4.575388e-01 5.892720e-01
<GCONST> 1.334139e+02
<STATE> 3
<MEAN> 39
 -6.289712e+00 -2.980845e+00 8.166394e-01 -5.813712e+00 -7.475506e+00 -2.811927e+00 -8.612134e+00 -2.663412e+00 -3.661026e+00 -2.940534e+00 -1.783204e+00 -4.854026e+00 5.482603e+01 8.227191e-03 4.675511e-03 6.571793e-03 -5.915707e-03 -5.530522e-03 6.943806e-03 -5.532118e-04 -1.109785e-03 -2.847730e-03 2.178718e-03 -7.267174e-03 -3.673972e-03 6.078715e-03 -3.386257e-04 3.520361e-05 -1.740339e-06 3.523319e-05 4.401934e-05 -3.650995e-05 -1.882360e-04 -2.053986e-05 3.005610e-04 6.932610e-05 2.233006e-04 -5.988034e-06 -3.427716e-04
<VARIANCE> 39
 6.566164e+01 6.632303e+01 8.763101e+01 6.559592e+01 7.174039e+01 5.472822e+01 7.073428e+01 6.554848e+01 6.300808e+01 4.976723e+01 5.347653e+01 4.392822e+01 2.273358e+02 2.501707e+00 2.984894e+00 3.207027e+00 3.071579e+00 3.451644e+00 3.083362e+00 3.375822e+00 3.905515e+00 3.369118e+00 2.926452e+00 3.048819e+00 2.517949e+00 4.434504e+00 3.690642e-01 4.447242e-01 4.662718e-01 5.139958e-01 5.948655e-01 5.442771e-01 6.058595e-01 6.847297e-01 5.910419e-01 5.413519e-01 5.537028e-01 4.590277e-01 5.853797e-01
<GCONST> 1.334389e+02
<STATE> 4
<MEAN> 39
 -6.340139e+00 -2.908315e+00 8.905202e-01 -5.771053e+00 -7.346529e+00 -2.805602e+00 -8.525791e+00 -2.540066e+00 -3.861039e+00 -2.944587e+00 -1.839972e+00 -4.857192e+00 5.440514e+01 7.086033e-03 3.375133e-03 5.808504e-03 -6.332132e-03 -4.527916e-03 5.929812e-03 -1.802545e-03 -1.261499e-04 -2.980009e-03 1.423298e-03 -5.898285e-03 -3.184202e-03 7.598316e-03 -3.257763e-04 4.103067e-05 -8.731582e-05 4.231388e-05 5.378181e-05 -1.951176e-04 -3.149779e-04 -1.415357e-04 1.006984e-04 -1.181557e-04 2.947159e-04 1.335608e-04 -2.507152e-04
<VARIANCE> 39
 6.649631e+01 6.526781e+01 8.748055e+01 6.517908e+01 7.010717e+01 5.460222e+01 7.017300e+01 6.313171e+01 6.230738e+01 4.867687e+01 5.216107e+01 4.396738e+01 2.290758e+02 2.441475e+00 2.908334e+00 3.151526e+00 3.020487e+00 3.362642e+00 3.062280e+00 3.335149e+00 3.779982e+00 3.348053e+00 2.885915e+00 2.985119e+00 2.482690e+00 4.271176e+00 3.601086e-01 4.344975e-01 4.571590e-01 5.051078e-01 5.794729e-01 5.396557e-01 5.991282e-01 6.642691e-01 5.859959e-01 5.344985e-01 5.440840e-01 4.523570e-01 5.615618e-01
<GCONST> 1.327952e+02
<TRANSP> 5
 0.000000e+00 1.000000e+00 0.000000e+00 0.000000e+00 0.000000e+00
 0.000000e+00 7.158670e-01 2.841331e-01 0.000000e+00 0.000000e+00
 0.000000e+00 0.000000e+00 7.158663e-01 2.841337e-01 0.000000e+00
 0.000000e+00 0.000000e+00 0.000000e+00 8.442116e-01 1.557883e-01
 0.000000e+00 0.000000e+00 0.000000e+00 0.000000e+00 0.000000e+00
<ENDHMM>
~h "z"
<BEGINHMM>
<NUMSTATES> 5
<STATE> 2
<MEAN> 39
 -7.317755e+00 -1.262138e+00 1.690436e-01 -4.626036e+00 -6.561388e+00 -3.260833e+00 -9.250024e+00 -3.749198e+00 -3.116132e+00 -2.539294e+00 -2.175938e+00 -3.652021e+00 5.349840e+01 -1.243544e-02 1.200498e-02 2.581919e-03 9.511483e-03 7.152674e-03 -5.372914e-03 1.353362e-02 -8.853786e-03 -3.490860e-03 5.992621e-04 -1.270034e-03 6.305955e-03 -1.170470e-02 -4.374622e-04 -1.900474e-03 -6.901781e-04 -6.428367e-04 -3.866604e-04 4.958224e-04 1.651251e-03 7.821249e-04 -3.100652e-04 -1.933039e-04 -1.103312e-04 -6.748044e-04 -7.021303e-04
<VARIANCE> 39
 6.253288e+01 7.237904e+01 8.189771e+01 6.896619e+01 7.168925e+01 5.451122e+01 7.324443e+01 6.210768e+01 5.853488e+01 4.383321e+01 4.553616e+01 3.882559e+01 2.068539e+02 2.477509e+00 3.012684e+00 2.667301e+00 3.174538e+00 3.423480e+00 3.003535e+00 3.286369e+00 3.576141e+00 3.074341e+00 2.623004e+00 2.703035e+00 2.269460e+00 3.834301e+00 3.625468e-01 4.285706e-01 4.010544e-01 5.100984e-01 5.706947e-01 5.271825e-01 5.862339e-01 6.335858e-01 5.473027e-01 4.845303e-01 4.975984e-01 4.108564e-01 5.021455e-01
<GCONST> 1.310292e+02
<STATE> 3
<MEAN> 39
 -7.362478e+00 -1.224071e+00 1.836943e-01 -4.590224e+00 -6.540777e+00 -3.277275e+00 -9.202633e+00 -3.769128e+00 -3.132049e+00 -2.533253e+00 -2.181233e+00 -3.625801e+00 5.345400e+01 -1.311426e-02 6.458646e-03 1.461186e-03 8.371608e-03 5.276856e-03 -3.626280e-03 1.721948e-02 -5.337147e-03 -4.976481e-03 2.135576e-04 -1.747665e-03 3.869893e-03 -1.482284e-02 -5.009001e-05 -1.747211e-03 -9.138996e-05 -6.113400e-04 -1.089697e-03 6.194100e-04 6.190378e-04 9.663503e-04 -5.809763e-04 -2.582020e-04 7.091100e-05 -8.596652e-04 -8.830550e-04
<VARIANCE> 39
 6.229290e+01 7.262186e+01 8.118623e+01 6.814678e+01 7.174313e+01 5.441508e+01 7.353017e+01 6.166906e+01 5.891741e+01 4.377520e+01 4.526994e+01 3.849837e+01 2.072285e+02 2.464297e+00 2.991342e+00 2.654291e+00 3.144058e+00 3.416159e+00 2.984141e+00 3.293226e+00 3.555606e+00 3.066624e+00 2.616647e+00 2.705579e+00 2.253440e+00 3.787004e+00 3.597058e-01 4.256687e-01 3.991491e-01 5.038420e-01 5.680680e-01 5.241529e-01 5.881609e-01 6.296850e-01 5.446789e-01 4.840486e-01 4.984624e-01 4.078953e-01 4.955304e-01
<GCONST> 1.308641e+02
<STATE> 4
<MEAN> 39
 -7.437772e+00 -1.172103e+00 1.881513e-01 -4.579299e+00 -6.516015e+00 -3.413503e+00 -9.093336e+00 -3.712923e+00 -3.364902e+00 -2.462577e+00 -2.288220e+00 -3.545050e+00 5.298735e+01 -1.250528e-02 2.773361e-03 2.644593e-03 7.301531e-03 1.672321e-03 -1.438360e-03 1.713347e-02 4.997276e-04 -7.935408e-03 -6.396665e-04 -1.447579e-03 2.351322e-03 -1.398475e-02 1.588188e-04 -1.106662e-03 4.295303e-05 -6.351456e-04 -1.114255e-03 3.785587e-04 1.105895e-04 6.532393e-04 -7.016214e-04 -5.609444e-04 1.829241e-04 -8.012886e-04 -2.291022e-04
<VARIANCE> 39
 6.215068e+01 7.129568e+01 8.020760e+01 6.768174e+01 7.118377e+01 5.363433e+01 7.270638e+01 5.937801e+01 5.826884e+01 4.309119e+01 4.446558e+01 3.735843e+01 2.075993e+02 2.420837e+00 2.901588e+00 2.617597e+00 3.112477e+00 3.358698e+00 2.923362e+00 3.233330e+00 3.440985e+00 3.040186e+00 2.587263e+00 2.689456e+00 2.205316e+00 3.659777e+00 3.514564e-01 4.136064e-01 3.945728e-01 4.976571e-01 5.592097e-01 5.136010e-01 5.779273e-01 6.101201e-01 5.399102e-01 4.798360e-01 4.956355e-01 3.996716e-01 4.766961e-01
<GCONST> 1.301941e+02
<TRANSP> 5
 0.000000e+00 1.000000e+00 0.000000e+00 0.000000e+00 0.000000e+00
 0.000000e+00 7.167487e-01 2.832514e-01 0.000000e+00 0.000000e+00
 0.000000e+00 0.000000e+00 7.167466e-01 2.832534e-01 0.000000e+00
 0.000000e+00 0.000000e+00 0.000000e+00 8.431897e-01 1.568103e-01
 0.000000e+00 0.000000e+00 0.000000e+00 0.000000e+00 0.000000e+00
<ENDHMM>
~h "ai"
<BEGINHMM>
<NUMSTATES> 5
<STATE> 2
<MEAN> 39
 -5.933091e+00 -2.666163e+00 6.787047e-01 -5.702133e+00 -7.908026e+00 -2.823895e+00 -8.883305e+00 -2.907565e+00 -2.936319e+00 -2.585353e+00 -1.262202e+00 -4.825034e+00 5.552036e+01 6.003614e-03 6.622886e-04 3.727428e-03 -5.901705e-03 -3.834354e-03 1.015030e-03 -7.199674e-03 -6.674038e-03 -2.112597e-03 2.729478e-03 -4.857948e-03 -5.909820e-03 1.762246e-02 9.517692e-04 -4.391362e-04 -2.660596e-04 -5.779072e-04 6.365002e-05 3.654239e-04 -1.635858e-04 -2.466901e-04 1.124884e-04 9.284492e-05 -5.856289e-04 -7.176885e-04 8.731192e-04
<VARIANCE> 39
 7.098727e+01 6.909306e+01 8.088142e+01 6.669109e+01 7.278412e+01 5.707677e+01 7.760312e+01 6.929984e+01 6.414351e+01 4.767321e+01 5.222853e+01 4.441574e+01 2.167720e+02 2.991500e+00 3.266744e+00 3.124824e+00 3.288785e+00 3.679096e+00 3.233273e+00 3.582164e+00 4.133340e+00 3.573460e+00 2.941781e+00 3.204865e+00 2.677673e+00 5.177376e+00 4.419327e-01 4.881324e-01 4.716871e-01 5.485681e-01 6.346472e-01 5.661076e-01 6.530011e-01 7.192544e-01 6.258290e-01 5.533215e-01 5.900909e-01 4.922386e-01 7.065764e-01
<GCONST> 1.354618e+02
<STATE> 3
<MEAN> 39
 -5.910009e+00 -2.671221e+00 6.954165e-01 -5.723354e+00 -7.925084e+00 -2.825943e+00 -8.910924e+00 -2.923553e+00 -2.950198e+00 -2.574797e+00 -1.279530e+00 -4.846498e+00 5.559369e+01 8.657779e-03 -8.500514e-04 3.167738e-03 -7.572257e-03 -3.740835e-03 1.666577e-03 -7.816839e-03 -6.514551e-03 -2.176591e-03 2.837082e-03 -7.013365e-03 -8.090384e-03 2.039990e-02 7.804087e-04 -5.668122e-04 1.261218e-05 -4.153679e-04 -5.842798e-05 1.670687e-04 -2.208143e-05 1.700098e-04 -1.125388e-04 2.582605e-05 -5.224182e-04 -4.789860e-04 7.718017e-04
<VARIANCE> 39
 7.096458e+01 6.918004e+01 8.086012e+01 6.675835e+01 7.310332e+01 5.727605e+01 7.715851e+01 6.998375e+01 6.406898e+01 4.765939e+01 5.235394e+01 4.436651e+01 2.164544e+02 3.003405e+00 3.271026e+00 3.137939e+00 3.296733e+00 3.698305e+00 3.230507e+00 3.585318e+00 4.152550e+00 3.562759e+00 2.938097e+00 3.200651e+00 2.670687e+00 5.187044e+00 4.445371e-01 4.889393e-01 4.742494e-01 5.491568e-01 6.377496e-01 5.658398e-01 6.543072e-01 7.220434e-01 6.243140e-01 5.522965e-01 5.892194e-01 4.907081e-01 7.078428e-01
<GCONST> 1.355064e+02
<STATE> 4
<MEAN> 39
 -5.806281e+00 -2.722383e+00 6.875514e-01 -5.800539e+00 -7.838941e+00 -2.853615e+00 -8.913272e+00 -2.819905e+00 -3.111345e+00 -2.531260e+00 -1.396872e+00 -4.925578e+00 5.556329e+01 9.998877e-03 -3.607792e-03 5.148744e-03 -7.767931e-03 -4.991226e-03 -6.731110e-04 -9.126169e-03 -2.807370e-03 -4.304301e-03 2.264269e-03 -8.363556e-03 -8.672590e-03 2.512170e-02 4.032169e-04 -4.765425e-04 3.502319e-04 2.918705e-05 -1.637084e-04 -1.872277e-04 -1.781200e-05 4.262863e-04 -1.555595e-04 -8.172425e-05 -2.936924e-04 -2.783400e-05 4.139502e-04
<VARIANCE> 39
 7.106469e+01 6.931762e+01 8.049666e+01 6.724249e+01 7.305933e+01 5.761240e+01 7.619942e+01 6.998991e+01 6.307878e+01 4.704069e+01 5.188519e+01 4.441848e+01 2.168316e+02 2.972864e+00 3.230418e+00 3.119673e+00 3.286525e+00 3.672739e+00 3.220423e+00 3.562811e+00 4.108657e+00 3.509422e+00 2.910408e+00 3.168447e+00 2.631558e+00 5.075680e+00 4.395686e-01 4.809498e-01 4.710561e-01 5.461671e-01 6.338984e-01 5.623596e-01 6.500757e-01 7.130724e-01 6.144454e-01 5.465841e-01 5.836050e-01 4.824830e-01 6.880352e-01
<GCONST> 1.351886e+02
<TRANSP> 5
 0.000000e+00 1.000000e+00 0.000000e+00 0.000000e+00 0.000000e+00
 0.000000e+00 7.138264e-01 2.861735e-01 0.000000e+00 0.000000e+00
 0.000000e+00 0.000000e+00 7.138265e-01 2.861735e-01 0.000000e+00
 0.000000e+00 0.000000e+00 0.000000e+00 8.386414e-01 1.613586e-01
 0.000000e+00 0.000000e+00 0.000000e+00 0.000000e+00 0.000000e+00
<ENDHMM>
~h "au"
<BEGINHMM>
<NUMSTATES> 5
<STATE> 2
<MEAN> 39
 -6.204526e+00 -2.203238e+00 -1.588926e+00 -5.823554e+00 -6.212444e+00 -1.938864e+00 -8.364911e+00 -2.893449e+00 -3.501686e+00 -2.329820e+00 -2.034810e+00 -3.864388e+00 5.077485e+01 1.168689e-02 1.136942e-02 -1.308316e-02 -1.538895e-02 -1.680011e-03 8.228683e-03 -1.760891e-02 -3.028826e-04 4.259160e-04 6.052975e-03 -6.089015e-05 -1.294743e-02 2.451278e-02 -2.874781e-04 -8.941484e-04 3.549902e-04 -1.449800e-04 -8.607518e-04 -3.205229e-04 -1.605955e-04 5.089844e-04 1.445622e-04 2.686539e-04 -2.741508e-04 7.522381e-04 1.085308e-03
<VARIANCE> 39
 6.098306e+01 6.136373e+01 6.473331e+01 8.353810e+01 5.538523e+01 5.427148e+01 7.392249e+01 5.540091e+01 5.128878e+01 4.132672e+01 4.706090e+01 4.478315e+01 2.383270e+02 2.104632e+00 2.698736e+00 2.378763e+00 3.330714e+00 3.089543e+00 2.967340e+00 3.047092e+00 3.591043e+00 3.003352e+00 2.706143e+00 2.812399e+00 2.669569e+00 4.126945e+00 3.289102e-01 4.294629e-01 3.849259e-01 5.402657e-01 5.798603e-01 5.389634e-01 5.591007e-01 6.617000e-01 5.503759e-01 5.117151e-01 5.249934e-01 5.000086e-01 5.662527e-01
<GCONST> 1.306974e+02
<STATE> 3
<MEAN> 39
 -6.169097e+00 -2.171985e+00 -1.639313e+00 -5.877398e+00 -6.216844e+00 -1.910130e+00 -8.418700e+00 -2.892985e+00 -3.493455e+00 -2.313176e+00 -2.032434e+00 -3.901767e+00 5.084810e+01 9.901442e-03 8.663434e-03 -1.145121e-02 -1.517392e-02 -3.642174e-03 7.775723e-03 -1.749702e-02 7.639026e-04 1.705874e-03 7.134374e-03 -1.556969e-03 -1.028253e-02 2.572396e-02 -6.216179e-04 -9.055490e-04 5.136664e-04 7.272446e-05 -5.526623e-04 -1.867986e-04 5.445328e-05 4.822063e-04 4.826500e-04 3.430458e-04 -5.136318e-04 8.810695e-04 2.179931e-04
<VARIANCE> 39
 6.097061e+01 6.104647e+01 6.509198e+01 8.500630e+01 5.518364e+01 5.448153e+01 7.435381e+01 5.558919e+01 5.140104e+01 4.151319e+01 4.714603e+01 4.504665e+01 2.400833e+02 2.104517e+00 2.698628e+00 2.387099e+00 3.342519e+00 3.121680e+00 2.978514e+00 3.061259e+00 3.601999e+00 3.013468e+00 2.719902e+00 2.822857e+00 2.689621e+00 4.138523e+00 3.290698e-01 4.295102e-01 3.864046e-01 5.404518e-01 5.860153e-01 5.410999e-01 5.618753e-01 6.647358e-01 5.541478e-01 5.157887e-01 5.273412e-01 5.033124e-01 5.680854e-01
<GCONST> 1.308551e+02
<STATE> 4
<MEAN> 39
 -6.196948e+00 -2.122292e+00 -1.673842e+00 -5.870636e+00 -6.170201e+00 -1.991065e+00 -8.359826e+00 -2.849915e+00 -3.521268e+00 -2.283940e+00 -2.077399e+00 -3.904720e+00 5.054531e+01 6.383998e-03 1.835979e-03 -1.038659e-02 -1.397927e-02 -2.652676e-03 8.333519e-03 -1.438970e-02 6.060778e-04 6.399471e-03 7.708503e-03 -5.697447e-03 -6.944373e-03 2.223829e-02 -7.437386e-04 -1.133843e-03 5.144206e-04 3.624264e-04 -1.796492e-04 -1.722174e-04 4.308830e-04 3.557280e-04 7.410422e-04 4.296822e-04 -1.012807e-03 6.194828e-04 -6.384652e-05
<VARIANCE> 39
 6.125006e+01 5.973480e+01 6.513364e+01 8.524786e+01 5.473566e+01 5.413817e+01 7.305088e+01 5.492241e+01 5.132034e+01 4.127505e+01 4.583090e+01 4.476361e+01 2.391483e+02 2.081430e+00 2.663746e+00 2.378978e+00 3.279829e+00 3.116551e+00 2.936642e+00 3.029668e+00 3.544764e+00 2.999965e+00 2.714412e+00 2.777551e+00 2.670923e+00 3.998712e+00 3.257779e-01 4.229554e-01 3.863066e-01 5.292438e-01 5.849386e-01 5.336303e-01 5.587412e-01 6.536953e-01 5.517296e-01 5.162844e-01 5.202368e-01 4.991766e-01 5.489978e-01
<GCONST> 1.304547e+02
<TRANSP> 5
 0.000000e+00 1.000000e+00 0.000000e+00 0.000000e+00 0.000000e+00
 0.000000e+00 7.202995e-01 2.797004e-01 0.000000e+00 0.000000e+00
 0.000000e+00 0.000000e+00 7.202994e-01 2.797005e-01 0.000000e+00
 0.000000e+00 0.000000e+00 0.000000e+00 8.462098e-01 1.537903e-01
 0.000000e+00 0.000000e+00 0.000000e+00 0.000000e+00 0.000000e+00
<ENDHMM>
~h "kh"
<BEGINHMM>
<NUMSTATES> 5
<STATE> 2
<MEAN> 39
 -7.860844e+00 -3.033146e+00 -1.215634e+00 -5.867253e+00 -6.145310e+00 -2.467152e+00 -8.883030e+00 -3.036935e+00 -3.446450e+00 -2.574068e+00 -2.075149e+00 -4.203500e+00 5.334597e+01 -1.475759e-02 9.841203e-04 1.359642e-02 2.313986e-03 1.609987e-02 -4.120858e-03 -8.007837e-03 2.459352e-03 3.334864e-03 6.437742e-03 -2.479024e-03 1.059215e-02 -1.497688e-03 1.134449e-03 -9.004980e-04 -1.161965e-04 -5.802423e-04 2.585727e-04 -7.767063e-05 3.088932e-04 -4.117725e-04 -6.123840e-05 3.360775e-04 -8.357027e-05 1.491416e-05 7.569522e-04
<VARIANCE> 39
