~o
<STREAMINFO> 1 39
<VECSIZE> 39<NULLD><MFCC_D_A_0><DIAGC>
~s "silst"
<MEAN> 39
 -1.159843e+01 -1.321262e+00 -2.999301e+00 -9.337570e-01 -2.936888e+00 -2.762886e+00 -2.636870e+00 -1.619677e+00 -2.207507e+00 -2.303163e+00 -2.328631e+00 -7.097522e-01 3.689904e+01 5.385520e-03 1.574599e-01 -4.665460e-03 1.872087e-02 -1.433622e-02 -3.486805e-02 -4.426292e-02 2.025672e-03 -1.677985e-02 -2.859262e-02 3.772509e-02 -3.386299e-02 -2.348558e-01 2.981156e-03 -8.986621e-03 3.110820e-02 -5.683350e-03 -5.141668e-03 1.472006e-02 -3.250423e-02 -1.954404e-02 -2.623119e-02 -4.722727e-03 -2.613889e-02 -1.876387e-02 3.589762e-02
<VARIANCE> 39
 1.288279e+01 2.159388e+01 1.920509e+01 2.253506e+01 2.254691e+01 2.765360e+01 2.746199e+01 3.722138e+01 2.825440e+01 2.948057e+01 2.263210e+01 2.161406e+01 2.297563e+01 1.073973e+00 2.121500e+00 1.853113e+00 2.197599e+00 2.231065e+00 2.497173e+00 2.490925e+00 2.968695e+00 2.500988e+00 2.590097e+00 2.062551e+00 2.019370e+00 1.338789e+00 1.976561e-01 3.832701e-01 3.362274e-01 4.161295e-01 4.272555e-01 4.707482e-01 4.932510e-01 5.739705e-01 4.971681e-01 5.114803e-01 4.135300e-01 4.009363e-01 2.308032e-01
<GCONST> 1.102808e+02
~h "@"
<BEGINHMM>
<NUMSTATES> 5
<STATE> 2
<MEAN> 39
 -2.860483e+00 -3.990411e+00 1.185424e-01 -8.093404e+00 -8.658606e+00 -4.030517e+00 -1.373955e+01 -3.228680e+00 -2.294385e+00 -1.987045e-01 -4.988032e-01 -5.957269e+00 6.301279e+01 1.930844e+00 -1.111625e+00 4.389069e-01 -1.450974e+00 -9.713573e-01 5.174051e-01 -1.520502e+00 9.338188e-01 5.357756e-01 7.280374e-01 7.324890e-01 -1.015451e+00 2.006386e+00 -3.129777e-01 1.822470e-01 7.368769e-02 3.557622e-01 1.318110e-01 1.305560e-01 4.162537e-01 -1.274034e-01 -1.816946e-01 -9.739442e-02 -1.284730e-01 1.200732e-01 -6.615622e-01
<VARIANCE> 39
 4.110219e+01 4.496933e+01 5.456941e+01 7.167422e+01 5.559504e+01 7.707109e+01 8.275127e+01 6.616354e+01 6.439617e+01 4.640084e+01 5.142377e+01 3.944812e+01 1.191014e+02 7.037540e+00 4.086312e+00 6.960430e+00 5.790474e+00 6.089009e+00 5.399738e+00 6.807862e+00 7.832518e+00 7.302515e+00 5.032186e+00 5.335154e+00 4.114481e+00 6.447566e+00 8.367351e-01 7.109311e-01 8.895739e-01 9.700680e-01 8.165573e-01 8.934879e-01 1.071629e+00 9.924002e-01 8.648956e-01 7.212080e-01 8.445885e-01 6.390777e-01 1.705909e+00
<GCONST> 1.464452e+02
<STATE> 3
<MEAN> 39
 -1.951215e-02 -7.431343e+00 5.853406e-01 -1.156154e+01 -1.029995e+01 -2.346081e+00 -1.709454e+01 -4.907568e-01 -1.256812e+00 1.214188e+00 1.214279e+00 -8.030018e+00 6.864707e+01 7.532388e-01 -3.236631e-01 3.406733e-01 -7.248969e-02 -3.425048e-01 4.026409e-01 -1.248671e-01 3.173032e-01 1.043326e-01 1.872087e-01 2.284186e-01 -3.634242e-01 9.186426e-02 -6.016033e-01 7.239494e-01 7.659394e-02 9.604157e-01 4.016932e-01 -1.720572e-01 8.636221e-01 -6.502756e-01 -3.463263e-01 -3.548616e-01 -4.467298e-01 4.351572e-01 -1.174769e+00
<VARIANCE> 39
 1.859196e+01 4.259759e+01 5.564703e+01 7.606996e+01 5.818786e+01 7.679645e+01 7.984180e+01 8.430730e+01 8.500358e+01 5.732251e+01 5.953655e+01 4.847641e+01 3.964048e+01 2.237982e+00 3.047677e+00 3.000740e+00 4.564433e+00 3.986984e+00 4.937037e+00 4.517659e+00 5.522961e+00 5.522287e+00 3.905836e+00 4.048919e+00 3.051688e+00 3.750439e+00 6.327149e-01 5.837539e-01 1.046978e+00 1.032350e+00 8.840982e-01 9.026614e-01 1.076517e+00 1.342997e+00 1.189565e+00 9.440143e-01 1.013960e+00 7.980387e-01 6.461559e-01
<GCONST> 1.403941e+02
<STATE> 4
<MEAN> 39
 -8.016273e-01 -5.599387e+00 2.520930e+00 -9.322469e+00 -1.209360e+01 -4.545986e+00 -1.461664e+01 -1.180551e+00 -1.961641e+00 6.934128e-01 3.388370e-01 -6.620263e+00 6.590884e+01 8.999940e-02 8.002920e-01 2.145637e-01 8.625495e-01 2.933652e-01 -3.709782e-03 6.829216e-01 -6.212538e-01 -2.168605e-01 -2.397795e-01 -3.769174e-01 1.421926e-01 -1.242314e+00 -2.006448e-01 2.604772e-01 2.502619e-02 2.979257e-01 1.518772e-01 -5.356330e-02 1.965103e-01 -2.249779e-01 -7.033915e-02 -1.038559e-01 -1.785782e-01 1.317586e-01 -3.737481e-01
<VARIANCE> 39
 2.276090e+01 5.744465e+01 7.747433e+01 7.374903e+01 7.409659e+01 6.805918e+01 9.042805e+01 8.245987e+01 8.852526e+01 6.149529e+01 5.679259e+01 4.510080e+01 7.152003e+01 1.206239e+00 2.763403e+00 2.436280e+00 3.866039e+00 2.989372e+00 3.280894e+00 3.714813e+00 3.960091e+00 3.706629e+00 3.096828e+00 2.991302e+00 2.448546e+00 4.094362e+00 3.817115e-01 4.377421e-01 5.179047e-01 6.309929e-01 6.583239e-01 5.971161e-01 7.166462e-01 9.204181e-01 7.745784e-01 6.082053e-01 6.271379e-01 5.038534e-01 5.150139e-01
<GCONST> 1.331008e+02
<TRANSP> 5
 0.000000e+00 1.000000e+00 0.000000e+00 0.000000e+00 0.000000e+00
 0.000000e+00 3.399674e-01 6.600326e-01 0.000000e+00 0.000000e+00
 0.000000e+00 0.000000e+00 2.998989e-01 7.001010e-01 0.000000e+00
 0.000000e+00 0.000000e+00 0.000000e+00 5.954705e-01 4.045294e-01
 0.000000e+00 0.000000e+00 0.000000e+00 0.000000e+00 0.000000e+00
<ENDHMM>
~h "a"
<BEGINHMM>
<NUMSTATES> 5
<STATE> 2
<MEAN> 39
 -1.098309e+00 -1.253776e+01 -3.846514e+00 -1.320078e+01 -7.564355e+00 4.517757e-01 -1.170725e+01 2.509201e+00 9.950367e-01 -2.494065e+00 -3.256031e+00 -1.114477e+01 7.008539e+01 5.419072e-01 -2.038183e+00 -8.813478e-01 -1.028974e+00 9.959841e-01 1.178693e+00 3.371747e-01 1.114377e+00 6.200975e-01 -7.317373e-01 -8.925829e-01 -1.529672e+00 1.607465e+00 -3.711991e-01 4.902689e-01 2.684617e-01 5.618646e-01 1.971054e-01 -2.605746e-01 1.701895e-01 -5.043171e-01 -3.590603e-01 -7.191274e-02 -1.308597e-02 4.751088e-01 -6.754932e-01
<VARIANCE> 39
 1.972661e+01 4.045662e+01 5.194405e+01 5.585882e+01 6.056970e+01 6.975780e+01 5.883891e+01 7.516206e+01 6.463783e+01 5.500458e+01 6.079688e+01 4.401833e+01 7.006985e+01 2.393054e+00 2.573330e+00 3.299853e+00 3.621384e+00 3.884650e+00 4.072334e+00 4.320065e+00 5.408095e+00 3.760204e+00 3.835021e+00 4.136159e+00 3.292642e+00 3.793331e+00 5.098710e-01 5.424825e-01 5.295587e-01 6.530660e-01 6.417062e-01 7.473744e-01 7.169997e-01 9.043341e-01 6.865774e-01 6.529348e-01 7.957314e-01 6.146769e-01 8.287403e-01
<GCONST> 1.349975e+02
<STATE> 3
<MEAN> 39
 -7.020446e-01 -1.579811e+01 -4.848320e+00 -1.411918e+01 -4.598993e+00 2.434216e+00 -1.105664e+01 3.213369e+00 1.466899e+00 -4.831969e+00 -4.710167e+00 -1.346731e+01 7.275272e+01 9.827569e-02 2.305486e-01 7.949099e-02 2.285846e-01 2.416970e-01 -2.875184e-01 1.255524e-01 -1.612345e-02 -1.848072e-01 5.915884e-02 -1.838189e-01 1.765788e-01 -3.977322e-01 2.344965e-02 5.900051e-01 2.484548e-01 2.916384e-01 -2.479896e-01 -2.713520e-01 -9.673551e-02 -2.608463e-01 -1.536625e-01 2.587683e-01 1.856961e-01 3.671252e-01 -5.073031e-01
<VARIANCE> 39
 1.047366e+01 2.801495e+01 4.161433e+01 4.430053e+01 4.809618e+01 5.235314e+01 4.971924e+01 6.330052e+01 5.446768e+01 5.097690e+01 5.258683e+01 3.920900e+01 2.377077e+01 4.813868e-01 1.470500e+00 1.318393e+00 1.492190e+00 2.112294e+00 2.870816e+00 2.097419e+00 2.744641e+00 1.881293e+00 2.392437e+00 2.406354e+00 2.010257e+00 1.024302e+00 1.077256e-01 2.359176e-01 2.289861e-01 3.183516e-01 3.346759e-01 3.579507e-01 4.252416e-01 5.361764e-01 3.922265e-01 4.086130e-01 4.398242e-01 3.644379e-01 1.919267e-01
<GCONST> 1.112773e+02
<STATE> 4
<MEAN> 39
 -2.521592e+00 -8.739167e+00 -5.449803e+00 -8.666892e+00 -4.729166e+00 -1.214078e+00 -8.724127e+00 5.903528e-01 -5.969273e-01 -3.787549e+00 -5.587967e+00 -8.760729e+00 6.046395e+01 -6.823256e-02 1.185678e+00 4.305909e-01 8.106221e-01 -2.259102e-01 -4.424069e-01 9.649722e-02 -5.889558e-01 -3.513533e-01 2.505788e-01 6.498218e-02 5.836561e-01 -1.668186e+00 -7.642943e-02 1.212269e-01 1.388728e-01 1.140416e-01 -2.029012e-02 4.286329e-02 -3.578714e-03 -1.534102e-01 -4.970524e-02 -1.900760e-02 4.043738e-02 3.326377e-02 -1.190093e-01
<VARIANCE> 39
 3.237259e+01 4.247371e+01 5.329422e+01 5.562812e+01 5.824824e+01 5.283566e+01 6.018076e+01 5.738805e+01 5.122163e+01 5.116066e+01 4.875527e+01 4.934647e+01 1.749432e+02 9.116927e-01 2.446628e+00 1.892475e+00 2.544713e+00 2.613753e+00 2.436532e+00 2.694080e+00 3.022149e+00 2.590822e+00 2.629545e+00 2.540174e+00 2.282735e+00 3.091925e+00 1.805272e-01 3.570479e-01 3.174753e-01 4.218635e-01 4.338590e-01 4.399839e-01 4.991068e-01 5.891649e-01 4.592490e-01 5.105501e-01 4.882064e-01 4.051786e-01 4.415511e-01
<GCONST> 1.235055e+02
<TRANSP> 5
 0.000000e+00 1.000000e+00 0.000000e+00 0.000000e+00 0.000000e+00
 0.000000e+00 5.399717e-01 4.600282e-01 0.000000e+00 0.000000e+00
 0.000000e+00 0.000000e+00 7.579181e-01 2.420819e-01 0.000000e+00
 0.000000e+00 0.000000e+00 0.000000e+00 7.007102e-01 2.992898e-01
 0.000000e+00 0.000000e+00 0.000000e+00 0.000000e+00 0.000000e+00
<ENDHMM>
~h "b"
<BEGINHMM>
<NUMSTATES> 5
<STATE> 2
<MEAN> 39
 3.415498e+00 6.772270e+00 4.316925e+00 -2.183920e+00 -4.966362e+00 1.360785e+00 -7.412816e+00 -7.486071e+00 -7.481511e+00 -2.860555e+00 -2.593147e+00 -7.402257e+00 4.776576e+01 7.388919e-01 1.368385e+00 3.912304e-01 3.737103e-01 5.225468e-01 3.503624e-01 7.483588e-01 -2.848951e-01 -2.226246e-01 -4.822102e-02 -4.009106e-01 -1.383007e-01 -9.720641e-01 -3.387116e-01 -5.065289e-01 -2.028962e-01 -2.889313e-01 -2.075257e-01 -1.875556e-01 -3.127758e-01 1.138799e-01 1.673071e-01 3.819691e-02 1.979469e-01 1.820404e-01 7.166465e-01
<VARIANCE> 39
 4.685809e+01 3.603828e+01 2.876328e+01 3.326312e+01 2.950139e+01 4.031950e+01 5.302657e+01 4.194388e+01 5.333469e+01 3.320028e+01 4.254739e+01 3.421913e+01 5.848016e+01 2.315048e+00 2.725934e+00 2.415705e+00 2.948632e+00 2.433181e+00 2.455699e+00 3.089306e+00 3.228541e+00 3.135725e+00 2.521575e+00 2.664907e+00 2.312240e+00 4.861197e+00 3.924474e-01 4.896120e-01 4.227221e-01 4.874339e-01 4.626947e-01 4.609410e-01 5.552142e-01 5.995085e-01 6.375554e-01 4.812861e-01 5.409129e-01 4.569595e-01 5.267209e-01
<GCONST> 1.238582e+02
<STATE> 3
<MEAN> 39
 5.128691e+00 7.977407e+00 4.588737e+00 -2.827106e+00 -4.333629e+00 2.675112e+00 -6.961852e+00 -8.812414e+00 -8.168375e+00 -2.988746e+00 -2.174555e+00 -6.497975e+00 5.023312e+01 -1.334683e+00 -2.171928e+00 -1.484960e+00 -1.114542e+00 -4.071766e-01 -8.259546e-01 -1.628555e+00 1.900612e-01 1.244496e+00 3.591325e-01 1.403740e+00 1.025557e+00 3.294498e+00 -4.310667e-01 -1.113830e+00 -3.016594e-01 -5.869970e-01 -7.193946e-01 -1.384589e-01 -8.368101e-01 3.311414e-01 4.761531e-01 2.448153e-01 4.024358e-01 -1.635526e-01 1.383796e+00
<VARIANCE> 39
 2.314218e+01 2.789935e+01 2.165170e+01 3.049716e+01 2.758684e+01 4.136389e+01 4.339068e+01 3.998787e+01 4.945465e+01 3.588298e+01 4.300728e+01 3.638683e+01 3.790630e+01 2.125486e+00 3.693822e+00 3.665030e+00 6.686568e+00 4.089442e+00 3.922428e+00 4.877583e+00 4.640146e+00 5.523430e+00 4.321120e+00 4.901642e+00 3.502939e+00 5.340543e+00 4.005873e-01 4.842681e-01 7.037408e-01 8.183877e-01 7.030696e-01 7.519134e-01 7.018163e-01 1.059741e+00 1.125686e+00 8.763240e-01 8.477957e-01 9.611068e-01 6.155175e-01
<GCONST> 1.326270e+02
<STATE> 4
<MEAN> 39
 1.746959e-01 -1.246782e+00 -8.492388e-01 -7.071352e+00 -7.778557e+00 -8.182524e-01 -1.430369e+01 -7.618102e+00 -2.669029e+00 2.450530e-01 2.492973e+00 -4.683749e+00 6.261992e+01 -1.074026e+00 -2.970297e+00 -8.832095e-01 -1.592809e+00 -1.741922e+00 -4.753962e-01 -2.151516e+00 1.207865e+00 1.577368e+00 6.095983e-01 8.977669e-01 -4.929779e-01 4.005940e+00 2.509600e-01 3.380542e-01 5.334458e-01 1.622214e-01 -1.231205e-01 2.496128e-01 4.134794e-01 2.889276e-01 -2.735356e-01 -3.486056e-01 -5.119154e-01 -4.321567e-01 -5.448693e-01
<VARIANCE> 39
 2.618462e+01 3.922339e+01 4.016177e+01 1.036313e+02 3.774905e+01 6.072494e+01 6.329620e+01 4.226216e+01 4.816066e+01 4.695004e+01 5.651918e+01 3.490409e+01 7.392524e+01 2.799139e+00 4.950026e+00 6.349436e+00 8.887693e+00 5.885620e+00 5.955868e+00 5.741258e+00 7.276894e+00 9.027534e+00 6.789821e+00 5.494121e+00 7.324975e+00 5.736583e+00 4.064385e-01 5.745661e-01 5.108384e-01 1.401152e+00 1.178928e+00 8.751040e-01 1.094235e+00 9.629787e-01 9.025419e-01 9.030674e-01 1.349628e+00 7.498071e-01 9.034120e-01
<GCONST> 1.436973e+02
<TRANSP> 5
 0.000000e+00 1.000000e+00 0.000000e+00 0.000000e+00 0.000000e+00
 0.000000e+00 7.708983e-01 2.291017e-01 0.000000e+00 0.000000e+00
 0.000000e+00 0.000000e+00 5.007539e-01 4.992461e-01 0.000000e+00
 0.000000e+00 0.000000e+00 0.000000e+00 4.357625e-01 5.642375e-01
 0.000000e+00 0.000000e+00 0.000000e+00 0.000000e+00 0.000000e+00
<ENDHMM>
~h "c"
<BEGINHMM>
<NUMSTATES> 5
<STATE> 2
<MEAN> 39
 -8.860082e+00 2.331235e+00 2.602940e+00 -2.445448e+00 -6.178640e+00 -6.760550e+00 -6.650333e+00 -3.178038e+00 -3.610511e+00 -3.325208e+00 -3.122014e+00 -2.737758e+00 4.743560e+01 -1.568816e+00 -1.544210e-01 -7.714531e-01 -2.653297e-01 6.328856e-01 5.177466e-02 4.059275e-01 -2.274814e-01 1.203414e-01 7.909637e-02 9.272328e-02 1.287407e-01 -8.176902e-01 -3.857118e-01 -3.444512e-01 -1.534927e-01 -3.526161e-01 -9.385663e-02 8.138015e-02 -1.103908e-01 2.728709e-02 -8.159536e-03 3.823131e-02 1.271676e-01 5.893161e-02 8.981367e-01
<VARIANCE> 39
 4.423505e+01 4.722558e+01 4.624554e+01 3.399504e+01 4.717068e+01 4.973589e+01 5.206837e+01 4.383051e+01 4.080972e+01 3.127177e+01 3.273736e+01 2.850786e+01 1.264071e+02 5.273842e+00 5.573475e+00 3.845513e+00 3.826326e+00 4.288290e+00 3.438963e+00 4.115348e+00 3.448510e+00 3.475943e+00 2.907765e+00 2.739742e+00 2.949746e+00 1.392559e+01 7.766308e-01 8.449634e-01 6.449685e-01 5.936471e-01 8.521377e-01 7.199998e-01 7.736556e-01 6.257450e-01 6.234833e-01 5.609350e-01 4.976853e-01 6.373804e-01 1.930369e+00
<GCONST> 1.353187e+02
<STATE> 3
<MEAN> 39
 -2.523764e+01 -2.184599e-01 -2.250005e+00 -9.241623e+00 -3.904233e+00 -5.908512e+00 -5.290922e+00 -4.316658e+00 -3.090786e+00 -2.091965e+00 -6.077563e-01 3.094252e-02 6.088735e+01 -5.455528e-01 -6.350914e-02 9.369307e-01 -4.711693e-01 -1.334247e+00 -2.907178e-01 -2.066913e-01 3.713171e-01 2.366711e-02 -2.542150e-01 3.975122e-01 4.655660e-01 3.523569e+00 2.089689e+00 -5.051081e-02 7.611483e-01 5.786846e-01 -6.621265e-01 -2.470360e-01 -4.563629e-01 2.812090e-01 6.317333e-02 -1.542329e-01 -2.239029e-01 -3.655965e-01 -5.399576e-01
<VARIANCE> 39
 3.440254e+01 3.280014e+01 3.670611e+01 3.273317e+01 3.047274e+01 3.509835e+01 3.770527e+01 2.518728e+01 2.673315e+01 2.073790e+01 2.447301e+01 1.598704e+01 3.519251e+01 1.636532e+01 3.757787e+00 6.241045e+00 5.068460e+00 4.691337e+00 4.015052e+00 3.812007e+00 3.585534e+00 3.400898e+00 2.667431e+00 2.591653e+00 2.034714e+00 7.200505e+00 1.286224e+00 1.179740e+00 9.537050e-01 7.327177e-01 9.410981e-01 7.462226e-01 8.566751e-01 8.739141e-01 8.255215e-01 5.649755e-01 6.642351e-01 4.804132e-01 8.700330e-01
<GCONST> 1.318138e+02
<STATE> 4
<MEAN> 39
 -9.595579e+00 -3.168255e+00 5.186730e+00 -6.275050e+00 -1.207574e+01 -1.038480e+01 -1.027384e+01 1.122528e-01 -1.706262e+00 -4.358133e+00 -2.260329e+00 -9.103196e-01 6.823654e+01 5.257760e+00 -2.487908e+00 6.511822e-01 -1.893460e-01 -1.440611e+00 -5.167141e-02 -1.868914e+00 1.544682e+00 7.091995e-01 1.931707e-01 -5.167276e-01 -1.422477e+00 1.898846e+00 -3.984312e-01 -2.691685e-01 -8.576444e-01 -5.178818e-01 7.419602e-01 8.259501e-01 1.828070e-01 -2.500533e-01 -9.850221e-02 3.265980e-01 1.139452e-01 -4.394425e-01 -4.852931e-01
<VARIANCE> 39
 6.018916e+01 4.884432e+01 3.885542e+01 4.527082e+01 4.122071e+01 2.736993e+01 4.861178e+01 4.975880e+01 5.182901e+01 3.054180e+01 3.571655e+01 2.233910e+01 3.459109e+01 4.811787e+00 5.874878e+00 6.499154e+00 4.700861e+00 5.970241e+00 5.058666e+00 5.824375e+00 7.699827e+00 5.648499e+00 4.252503e+00 4.877118e+00 2.917372e+00 1.499696e+00 1.781600e+00 8.023303e-01 5.736091e-01 7.781515e-01 8.117328e-01 7.116632e-01 9.529080e-01 8.978774e-01 7.352167e-01 5.449345e-01 6.680850e-01 4.207959e-01 4.047710e-01
<GCONST> 1.355175e+02
<TRANSP> 5
 0.000000e+00 1.000000e+00 0.000000e+00 0.000000e+00 0.000000e+00
 0.000000e+00 8.588064e-01 1.411936e-01 0.000000e+00 0.000000e+00
 0.000000e+00 0.000000e+00 7.348506e-01 2.651494e-01 0.000000e+00
 0.000000e+00 0.000000e+00 0.000000e+00 5.826213e-01 4.173787e-01
 0.000000e+00 0.000000e+00 0.000000e+00 0.000000e+00 0.000000e+00
<ENDHMM>
~h "d"
<BEGINHMM>
<NUMSTATES> 5
<STATE> 2
<MEAN> 39
 1.025887e+00 2.819138e+00 6.621293e+00 1.956616e+00 -7.709747e+00 -5.066209e+00 -9.636642e+00 -1.851619e+00 -1.699698e+00 -4.543273e+00 -5.441650e+00 -5.559701e+00 4.938374e+01 6.148323e-01 9.475239e-01 7.203292e-01 7.491226e-01 5.859248e-01 -2.788571e-01 2.285336e-01 1.421309e-01 1.495492e-01 -2.616762e-01 -4.081803e-01 7.908377e-04 -7.634091e-01 -4.470205e-01 -5.690165e-01 -6.655531e-02 -5.189842e-01 -2.060728e-01 6.516354e-02 -1.848058e-01 -4.939308e-03 -1.638057e-01 1.734211e-02 3.486183e-01 1.939078e-01 8.419632e-01
<VARIANCE> 39
 5.255637e+01 5.297624e+01 4.711462e+01 3.527188e+01 5.387104e+01 3.195280e+01 6.304240e+01 6.626353e+01 4.752118e+01 4.028567e+01 3.926448e+01 3.609939e+01 9.192987e+01 3.609016e+00 4.405318e+00 3.062784e+00 3.691816e+00 4.024799e+00 2.935159e+00 3.923572e+00 5.185032e+00 3.784595e+00 3.174635e+00 3.345201e+00 2.711815e+00 7.517297e+00 6.805936e-01 7.957332e-01 4.899603e-01 6.582974e-01 9.292696e-01 6.137467e-01 7.959761e-01 1.071260e+00 7.917616e-01 6.545538e-01 7.568731e-01 6.062604e-01 1.160151e+00
<GCONST> 1.357765e+02
<STATE> 3
<MEAN> 39
 3.195875e-01 1.497842e+00 9.275555e+00 1.347701e+00 -7.092335e+00 -5.341142e+00 -1.073572e+01 -2.156332e+00 -2.177147e+00 -5.139691e+00 -4.928973e+00 -3.609225e+00 5.480291e+01 -2.201267e+00 -2.852850e+00 2.264985e-01 -2.094254e+00 -1.563544e+00 -2.226674e-01 -1.573087e+00 3.693597e-01 -6.493252e-01 -7.102652e-02 2.112901e+00 1.386631e+00 4.523286e+00 -1.173575e-01 -4.501046e-01 -1.624818e-01 -5.424935e-01 -9.398483e-01 2.717593e-02 -4.669067e-01 1.907042e-01 -1.817375e-02 1.322172e-01 5.124502e-01 -2.505904e-01 8.963072e-01
<VARIANCE> 39
 3.819385e+01 4.363675e+01 3.471180e+01 3.899282e+01 4.254928e+01 4.109647e+01 6.355994e+01 5.537837e+01 4.581638e+01 3.385949e+01 3.600605e+01 3.262248e+01 7.081792e+01 2.747434e+00 3.248012e+00 4.601839e+00 4.415394e+00 6.370557e+00 4.552479e+00 5.377923e+00 1.067354e+01 7.129033e+00 4.658523e+00 4.193357e+00 3.506235e+00 4.580979e+00 7.428162e-01 8.427112e-01 6.653305e-01 8.555641e-01 1.117747e+00 8.272384e-01 1.042505e+00 1.690350e+00 1.097760e+00 7.965522e-01 9.320990e-01 7.605307e-01 1.196048e+00
<GCONST> 1.401023e+02
<STATE> 4
<MEAN> 39
 -3.349793e+00 -6.433395e+00 8.044144e+00 -5.432005e+00 -1.616037e+01 -7.536738e+00 -1.669467e+01 2.048358e+00 -1.449312e+00 -4.169678e+00 1.649575e+00 -1.854689e+00 6.810606e+01 -5.930313e-01 -1.675158e+00 -7.451819e-01 -1.907918e+00 -1.796704e+00 4.980531e-02 -7.308396e-01 1.316604e+00 3.531636e-01 2.422928e-01 9.558141e-01 -7.345899e-01 2.974555e+00 4.898008e-01 6.573939e-01 -1.938933e-01 3.449984e-01 6.680526e-01 3.906158e-01 6.237027e-01 -2.840207e-01 2.173674e-02 -8.738223e-03 -7.156801e-01 -6.389313e-01 -1.022933e+00
<VARIANCE> 39
 1.779593e+01 3.701073e+01 5.849033e+01 4.753381e+01 6.659306e+01 3.971561e+01 8.040733e+01 8.976109e+01 7.682637e+01 4.144813e+01 4.522244e+01 2.632318e+01 5.120401e+01 2.796407e+00 3.644384e+00 5.982328e+00 4.729931e+00 7.471467e+00 4.079822e+00 7.218361e+00 1.111621e+01 7.073678e+00 4.404831e+00 6.997495e+00 3.818526e+00 5.302844e+00 3.088669e-01 4.193086e-01 4.819932e-01 6.660671e-01 1.477640e+00 7.193905e-01 1.249132e+00 1.329458e+00 9.462868e-01 7.505671e-01 8.866338e-01 6.525427e-01 5.723843e-01
<GCONST> 1.397461e+02
<TRANSP> 5
 0.000000e+00 1.000000e+00 0.000000e+00 0.000000e+00 0.000000e+00
 0.000000e+00 7.727762e-01 2.272238e-01 0.000000e+00 0.000000e+00
 0.000000e+00 0.000000e+00 4.977099e-01 5.022901e-01 0.000000e+00
 0.000000e+00 0.000000e+00 0.000000e+00 4.638140e-01 5.361860e-01
 0.000000e+00 0.000000e+00 0.000000e+00 0.000000e+00 0.000000e+00
<ENDHMM>
~h "e"
<BEGINHMM>
<NUMSTATES> 5
<STATE> 2
<MEAN> 39
 -3.912680e+00 -8.169199e+00 4.870782e+00 -6.719616e+00 -1.523294e+01 -7.625822e+00 -1.010979e+01 1.778360e+00 -2.704870e+00 -1.731280e+00 3.376966e-01 -5.114402e+00 6.348367e+01 1.668113e-01 -1.159850e+00 9.058598e-01 -7.278862e-01 -1.364306e+00 -2.401474e-01 3.131925e-01 1.354833e+00 -2.771369e-01 -1.818283e-01 3.715217e-01 -1.469009e-01 1.756846e+00 -1.153400e-01 3.327065e-01 -5.794144e-02 9.480338e-02 2.649797e-01 1.697445e-01 2.818463e-01 -3.120501e-01 -1.232817e-01 1.840080e-02 -6.881896e-02 3.915625e-02 -3.856332e-01
<VARIANCE> 39
 3.511869e+01 6.579806e+01 7.080650e+01 5.301429e+01 7.175938e+01 5.172990e+01 9.107952e+01 7.907855e+01 7.576422e+01 6.588927e+01 5.856879e+01 3.827136e+01 1.479391e+02 2.984831e+00 4.554307e+00 4.006064e+00 4.109665e+00 6.194017e+00 4.044034e+00 5.373060e+00 7.257061e+00 5.194809e+00 5.171518e+00 4.655247e+00 2.793887e+00 1.038565e+01 6.010004e-01 8.389609e-01 6.136724e-01 6.843130e-01 1.035866e+00 6.998234e-01 9.422008e-01 1.174543e+00 8.894610e-01 8.680326e-01 8.001910e-01 5.345906e-01 1.957931e+00
<GCONST> 1.442648e+02
<STATE> 3
<MEAN> 39
 -2.971559e+00 -1.174469e+01 8.338849e+00 -9.479440e+00 -1.915318e+01 -8.477265e+00 -8.939071e+00 5.595108e+00 -4.077997e+00 -2.255696e+00 2.040435e+00 -5.922574e+00 7.019183e+01 2.209852e-02 3.263683e-01 -1.212852e-02 1.915719e-01 1.686913e-01 -7.759530e-02 2.726431e-01 -2.007313e-01 -8.278142e-02 8.431018e-02 -1.522439e-01 -6.885573e-02 -4.338814e-01 2.335626e-02 3.210870e-01 -2.052985e-01 2.628940e-01 3.601010e-01 2.323053e-02 -5.113871e-02 -3.194680e-01 8.257503e-02 7.130464e-03 -1.832034e-01 3.201964e-02 -4.887912e-01
<VARIANCE> 39
 1.671962e+01 4.904880e+01 5.989925e+01 4.318948e+01 5.294543e+01 4.694765e+01 7.872775e+01 7.569242e+01 8.331551e+01 7.733237e+01 6.001149e+01 3.572656e+01 4.078870e+01 7.656407e-01 1.606563e+00 1.669536e+00 2.097979e+00 2.525286e+00 2.011552e+00 2.924960e+00 2.878287e+00 2.490539e+00 2.437088e+00 2.298044e+00 1.570524e+00 2.885220e+00 1.713555e-01 2.991316e-01 3.009855e-01 3.377351e-01 4.964206e-01 3.826512e-01 5.931831e-01 6.251696e-01 5.018964e-01 5.120115e-01 4.465658e-01 3.159832e-01 3.645093e-01
<GCONST> 1.200319e+02
<STATE> 4
<MEAN> 39
 -6.768193e+00 -4.629667e+00 3.750664e+00 -5.347399e+00 -1.301934e+01 -6.287717e+00 -7.431406e+00 -1.435974e+00 -4.737064e+00 -2.201886e+00 -8.846243e-01 -3.950917e+00 5.494652e+01 -5.592152e-03 3.423941e-01 -2.180255e-01 2.578244e-01 3.713566e-01 4.053729e-02 2.331044e-02 -2.523073e-01 6.938435e-02 -4.494029e-02 -2.087226e-01 3.021391e-02 -6.186961e-01 3.251059e-03 3.914934e-02 -1.895882e-02 3.738910e-02 8.675408e-02 3.292965e-02 -2.425458e-02 -4.090447e-02 1.056190e-02 3.737994e-03 -1.515068e-03 4.340798e-03 -3.453148e-02
<VARIANCE> 39
 3.649275e+01 5.639586e+01 7.980161e+01 4.673668e+01 9.021773e+01 4.532481e+01 5.755829e+01 6.441259e+01 5.180151e+01 5.067632e+01 4.869291e+01 3.130648e+01 2.465443e+02 6.324117e-01 1.316143e+00 1.254782e+00 1.486339e+00 2.034482e+00 1.648628e+00 2.152427e+00 2.147856e+00 1.779443e+00 1.937032e+00 1.756661e+00 1.423843e+00 1.683138e+00 1.195363e-01 2.151720e-01 2.038067e-01 2.614006e-01 3.490259e-01 3.164470e-01 3.924749e-01 4.132777e-01 3.488729e-01 3.566369e-01 3.243974e-01 2.658334e-01 2.129382e-01
<GCONST> 1.139343e+02
<TRANSP> 5
 0.000000e+00 1.000000e+00 0.000000e+00 0.000000e+00 0.000000e+00
 0.000000e+00 6.487863e-01 3.512137e-01 0.000000e+00 0.000000e+00
 0.000000e+00 0.000000e+00 7.476393e-01 2.523607e-01 0.000000e+00
 0.000000e+00 0.000000e+00 0.000000e+00 8.500954e-01 1.499046e-01
 0.000000e+00 0.000000e+00 0.000000e+00 0.000000e+00 0.000000e+00
<ENDHMM>
~h "f"
<BEGINHMM>
<NUMSTATES> 5
<STATE> 2
<MEAN> 39
 -7.099100e+00 9.045194e-02 -3.050769e-01 -1.492599e+00 -4.663140e+00 -2.380422e+00 -7.562249e+00 -4.217029e+00 -4.014836e+00 -2.014013e+00 -3.128494e+00 -2.880753e+00 5.824236e+01 -3.310112e+00 2.545834e-01 -4.763162e-01 1.671934e+00 1.265660e+00 -1.613583e-01 7.314028e-01 3.926839e-01 9.798467e-01 -1.316760e-01 -2.315448e-01 4.792972e-01 -1.096328e+00 -3.535779e-01 -5.748252e-01 -5.252704e-02 -4.121675e-01 -5.416949e-01 -1.018543e-01 -3.056022e-01 7.807019e-02 -1.470376e-02 9.312607e-02 2.215100e-01 -1.156836e-01 2.069767e-01
<VARIANCE> 39
 5.491533e+01 2.910688e+01 4.125107e+01 5.678671e+01 4.303906e+01 5.972874e+01 5.419865e+01 4.122231e+01 4.284088e+01 3.127692e+01 3.218244e+01 2.552451e+01 8.111963e+01 3.736065e+00 4.315640e+00 4.259774e+00 5.156431e+00 6.108933e+00 5.512548e+00 4.396943e+00 4.915813e+00 5.009614e+00 3.859862e+00 3.721506e+00 2.646113e+00 2.697450e+00 8.098196e-01 4.942899e-01 4.635003e-01 8.253160e-01 8.835455e-01 8.268384e-01 7.426586e-01 7.468838e-01 7.810062e-01 6.256899e-01 5.643973e-01 4.654726e-01 3.116825e-01
<GCONST> 1.333869e+02
<STATE> 3
<MEAN> 39
 -2.102607e+01 -4.949565e+00 -3.967073e+00 3.593766e-02 -5.185662e+00 -4.245112e+00 -8.481619e+00 -2.836777e+00 -1.606915e+00 -1.476001e+00 -1.659685e+00 -8.815798e-01 5.820100e+01 -7.018222e-01 -7.687163e-01 -5.047885e-01 -2.688688e-01 -2.552064e-01 -2.216955e-01 -1.703929e-01 -5.518880e-02 4.386529e-02 1.108270e-02 1.204128e-01 1.053527e-01 -1.271044e-01 9.266769e-01 1.819960e-01 1.994990e-01 -2.389849e-01 -1.002245e-01 9.669847e-02 -2.627824e-02 -1.222588e-01 -1.913402e-01 -1.014814e-01 9.741217e-03 -1.781127e-01 1.740210e-01
<VARIANCE> 39
 2.591427e+01 2.377365e+01 1.852454e+01 2.187558e+01 2.251701e+01 3.510881e+01 4.663976e+01 2.644321e+01 2.514179e+01 2.158147e+01 2.067279e+01 1.880548e+01 4.914175e+01 3.568393e+00 1.612114e+00 1.894659e+00 1.974213e+00 2.179476e+00 2.497658e+00 1.993795e+00 2.066695e+00 2.079367e+00 1.868488e+00 1.826711e+00 1.594858e+00 1.762271e+00 5.135328e-01 3.729773e-01 4.230327e-01 5.332235e-01 5.751705e-01 5.600733e-01 4.631765e-01 5.024668e-01 5.426217e-01 4.302984e-01 4.213787e-01 3.684854e-01 2.947914e-01
<GCONST> 1.129505e+02
<STATE> 4
<MEAN> 39
 -1.438388e+01 -3.868088e+00 -4.444686e+00 -2.271818e+00 -4.717755e+00 -3.668252e+00 -6.946916e+00 -4.051426e+00 -3.635830e+00 -3.244216e+00 -2.378835e+00 -2.499260e+00 4.690063e+01 1.355955e+00 1.899621e-01 2.195135e-01 -5.300010e-01 -3.197107e-01 1.462719e-01 -9.913227e-02 -5.351574e-02 -2.100866e-01 -1.011880e-01 1.129817e-01 -3.168571e-01 4.239249e-01 2.956348e-01 1.240706e-02 1.491146e-01 -1.645548e-01 -1.360632e-01 8.071057e-02 -7.218751e-02 4.662659e-02 -3.681443e-02 3.718375e-02 8.353531e-02 -8.317683e-02 2.001325e-01
<VARIANCE> 39
 4.177733e+01 3.482306e+01 2.007899e+01 2.269271e+01 2.104135e+01 2.552906e+01 3.471218e+01 2.661040e+01 2.485858e+01 2.245919e+01 1.888401e+01 1.755507e+01 1.384803e+02 7.764789e+00 2.778530e+00 2.477444e+00 3.935625e+00 2.428398e+00 3.142824e+00 2.402351e+00 2.750223e+00 2.622908e+00 2.241740e+00 2.166610e+00 2.197819e+00 4.084172e+00 6.919418e-01 4.723319e-01 4.008099e-01 5.513647e-01 4.509590e-01 4.904508e-01 4.664173e-01 5.087892e-01 5.045360e-01 4.391661e-01 4.318207e-01 3.696463e-01 4.857565e-01
<GCONST> 1.196250e+02
<TRANSP> 5
 0.000000e+00 1.000000e+00 0.000000e+00 0.000000e+00 0.000000e+00
 0.000000e+00 6.809431e-01 3.190568e-01 0.000000e+00 0.000000e+00
 0.000000e+00 0.000000e+00 8.021389e-01 1.978611e-01 0.000000e+00
 0.000000e+00 0.000000e+00 0.000000e+00 8.407792e-01 1.592208e-01
 0.000000e+00 0.000000e+00 0.000000e+00 0.000000e+00 0.000000e+00
<ENDHMM>
~h "g"
<BEGINHMM>
<NUMSTATES> 5
<STATE> 2
<MEAN> 39
 1.618681e+00 5.125072e+00 7.169700e+00 2.572310e-01 -8.307994e+00 -5.691434e+00 -8.544208e+00 -4.038467e+00 -5.967161e+00 -6.590326e-01 -2.833953e+00 -7.150156e+00 5.116360e+01 -4.078431e-01 5.274706e-01 -5.995375e-02 6.522857e-01 8.860528e-01 -3.085711e-01 3.673908e-01 -1.647167e-01 -6.596556e-02 -7.457067e-02 -4.486267e-01 6.268710e-01 -4.468305e-01 -4.839334e-01 -6.246083e-01 -3.322978e-01 -4.406126e-01 9.500420e-03 4.144925e-02 -3.276202e-01 1.519688e-01 -1.686810e-05 -4.301053e-02 2.458212e-01 2.321558e-01 1.008725e+00
<VARIANCE> 39
 3.573584e+01 5.058569e+01 5.030833e+01 3.945346e+01 5.336571e+01 4.744670e+01 5.933447e+01 6.283016e+01 5.452829e+01 4.606705e+01 4.208242e+01 3.528176e+01 7.417447e+01 4.806527e+00 5.896863e+00 5.736595e+00 4.194408e+00 6.459789e+00 4.087091e+00 4.637387e+00 5.561279e+00 5.478302e+00 3.642448e+00 3.454760e+00 3.779549e+00 9.422867e+00 6.191540e-01 6.748860e-01 7.116234e-01 6.296097e-01 1.143818e+00 6.992751e-01 8.911997e-01 9.089082e-01 1.035951e+00 7.267223e-01 7.569876e-01 6.529709e-01 1.073221e+00
<GCONST> 1.400959e+02
<STATE> 3
<MEAN> 39
 -5.551239e+00 -4.068999e-01 2.516482e+00 -6.690440e-01 -4.061087e+00 -7.885249e+00 -1.184674e+01 -3.074110e+00 -7.041124e+00 -3.509495e-01 -2.157849e+00 -1.776862e+00 6.180707e+01 -9.635091e-01 -1.574114e+00 -2.041232e-01 -1.513223e+00 -1.770124e+00 -6.210631e-01 -1.869040e+00 9.788413e-01 1.445328e-01 -9.743341e-02 1.889346e+00 5.518873e-01 3.477406e+00 7.629868e-01 1.349359e-01 5.056432e-01 -4.176852e-01 -1.137585e+00 4.029303e-01 -3.990705e-02 1.266077e-01 4.623809e-01 -1.239946e-01 3.540277e-01 -7.136393e-01 -2.149541e-01
<VARIANCE> 39
 2.905360e+01 3.744089e+01 7.300060e+01 3.845137e+01 9.197834e+01 6.020908e+01 6.464033e+01 4.767001e+01 4.505060e+01 4.516674e+01 5.545167e+01 2.558964e+01 5.363609e+01 4.495409e+00 3.830279e+00 6.483156e+00 4.139033e+00 1.120967e+01 4.031211e+00 4.689197e+00 7.416014e+00 6.788980e+00 4.604342e+00 5.227984e+00 4.041162e+00 4.063265e+00 4.952285e-01 6.753356e-01 1.122892e+00 6.774447e-01 1.953609e+00 8.935058e-01 1.101859e+00 1.231394e+00 1.113851e+00 8.232955e-01 1.288759e+00 7.161794e-01 7.676627e-01
<GCONST> 1.425720e+02
<STATE> 4
<MEAN> 39
 -3.237133e+00 -2.276205e+00 4.551014e+00 -5.218618e+00 -1.327565e+01 -7.566876e+00 -1.445886e+01 -6.831352e-01 -3.395195e+00 -1.191916e+00 1.971125e+00 -4.252768e+00 6.586397e+01 3.766295e-01 -1.077843e+00 -2.435914e-01 -1.610929e+00 -1.226193e+00 8.176359e-01 -2.293531e-01 8.832305e-01 1.104239e+00 -2.865131e-01 3.839692e-01 -8.681409e-01 1.476406e+00 1.800394e-01 4.928818e-02 -9.834044e-02 1.354426e-01 4.897437e-01 3.377831e-01 4.176778e-01 -2.082403e-01 -9.462802e-04 -5.745795e-02 -5.304064e-01 -2.786879e-01 -4.849812e-01
<VARIANCE> 39
 3.201407e+01 5.578333e+01 6.628381e+01 4.117638e+01 7.808450e+01 5.310092e+01 6.771632e+01 7.922076e+01 9.183782e+01 6.510500e+01 6.939565e+01 2.725543e+01 7.678163e+01 2.283977e+00 3.175390e+00 4.542169e+00 4.164454e+00 6.505136e+00 3.461537e+00 4.532703e+00 6.082853e+00 7.310817e+00 3.392742e+00 5.592760e+00 3.836756e+00 2.846271e+00 4.289027e-01 4.380662e-01 7.445377e-01 4.571046e-01 1.779223e+00 5.949352e-01 9.105543e-01 8.923018e-01 8.629856e-01 7.198441e-01 1.078777e+00 4.876076e-01 4.743917e-01
<GCONST> 1.384871e+02
<TRANSP> 5
 0.000000e+00 1.000000e+00 0.000000e+00 0.000000e+00 0.000000e+00
 0.000000e+00 7.774472e-01 2.225528e-01 0.000000e+00 0.000000e+00
 0.000000e+00 0.000000e+00 5.660842e-01 4.339157e-01 0.000000e+00
 0.000000e+00 0.000000e+00 0.000000e+00 4.355476e-01 5.644524e-01
 0.000000e+00 0.000000e+00 0.000000e+00 0.000000e+00 0.000000e+00
<ENDHMM>
~h "h"
<BEGINHMM>
<NUMSTATES> 5
<STATE> 2
<MEAN> 39
 -4.795972e+00 -5.512342e+00 -6.122986e-01 -4.983057e+00 -4.553920e-01 1.420913e+00 -4.195555e+00 -1.913240e+00 -4.126118e+00 -3.260516e+00 -5.691993e+00 -3.425108e+00 6.396970e+01 -1.083574e+00 4.089041e-02 1.750210e-01 1.235379e+00 1.429125e+00 6.004645e-01 1.005789e+00 1.378437e-01 3.823274e-01 -3.743297e-01 -2.408721e-02 6.117085e-01 -8.323979e-01 8.110386e-03 -2.197804e-01 -1.386278e-02 -3.219028e-01 -3.665923e-01 -2.909077e-02 -3.331117e-01 4.300970e-02 6.346120e-02 5.736326e-02 2.327527e-01 -2.129916e-01 3.193278e-02
<VARIANCE> 39
 2.676419e+01 4.975807e+01 6.404236e+01 6.312595e+01 9.114341e+01 5.804696e+01 7.894592e+01 5.826018e+01 6.323071e+01 5.348516e+01 5.019913e+01 3.566699e+01 7.193129e+01 1.736754e+00 3.123362e+00 4.011233e+00 3.650549e+00 3.829768e+00 3.519645e+00 3.873233e+00 4.290308e+00 4.067900e+00 3.407329e+00 3.201656e+00 2.825526e+00 1.791893e+00 2.186987e-01 3.609353e-01 4.024272e-01 5.483224e-01 6.027616e-01 5.966482e-01 6.605537e-01 7.640582e-01 6.195307e-01 5.630219e-01 5.229722e-01 4.515734e-01 1.765586e-01
<GCONST> 1.292896e+02
<STATE> 3
<MEAN> 39
 -8.491420e+00 -7.502692e+00 -2.093902e+00 -4.403006e+00 2.197876e+00 2.504086e+00 -4.262989e+00 -2.125771e+00 -1.666929e+00 -4.247773e+00 -4.138159e+00 -3.112282e+00 5.956146e+01 -1.008699e-01 -7.841540e-02 -2.579540e-01 -2.935342e-01 -2.579766e-01 -3.011901e-01 -2.457508e-01 -1.348929e-01 -7.594287e-02 -3.321709e-02 8.404653e-02 -6.963342e-02 -4.726976e-01 3.082160e-01 1.020174e-01 -2.881587e-02 -2.581847e-01 -4.298184e-01 -1.977337e-01 -2.368073e-01 -8.571950e-02 -1.828171e-01 3.507578e-02 -1.708528e-04 -1.545713e-01 4.798716e-02
<VARIANCE> 39
 4.474506e+01 6.143834e+01 5.407921e+01 5.769041e+01 7.387013e+01 5.847643e+01 7.437592e+01 4.868914e+01 4.960190e+01 4.527365e+01 4.213648e+01 3.575547e+01 1.143260e+02 2.740993e+00 3.561621e+00 3.016146e+00 3.383891e+00 3.506160e+00 3.146020e+00 3.557307e+00 3.457707e+00 3.323461e+00 2.927928e+00 2.763549e+00 2.337871e+00 4.005056e+00 3.917830e-01 5.570071e-01 5.055916e-01 6.628491e-01 6.315226e-01 5.995242e-01 6.768814e-01 6.786946e-01 6.285185e-01 5.818080e-01 5.383416e-01 4.654715e-01 4.226744e-01
<GCONST> 1.314055e+02
<STATE> 4
<MEAN> 39
 -1.086361e+01 -5.797689e+00 -4.610116e+00 -4.097243e+00 -2.219824e+00 -1.741965e+00 -5.659760e+00 -3.333046e+00 -3.839736e+00 -4.831147e+00 -3.860217e+00 -2.901121e+00 4.658469e+01 1.433795e-01 1.419374e-01 -1.520329e-02 -9.894556e-02 -2.665972e-01 -1.340472e-01 -9.085254e-02 -7.651320e-02 -8.538760e-02 3.910693e-02 2.684704e-02 -1.187140e-01 -2.145190e-01 6.982984e-02 1.622648e-02 5.613915e-02 -1.140750e-02 -2.858224e-02 2.800647e-02 -1.947137e-02 2.354300e-02 6.803534e-03 5.994618e-03 1.112926e-02 -3.307742e-02 8.001810e-02
<VARIANCE> 39
 2.613950e+01 5.659549e+01 3.336214e+01 2.925651e+01 3.707302e+01 3.273626e+01 4.321176e+01 3.348023e+01 3.161424e+01 2.875013e+01 2.503529e+01 2.442853e+01 1.652345e+02 1.215176e+00 1.781968e+00 1.483332e+00 1.603211e+00 1.940629e+00 1.889618e+00 2.120012e+00 2.045698e+00 2.050024e+00 1.943363e+00 1.789957e+00 1.701359e+00 1.757152e+00 1.731882e-01 2.780925e-01 2.452614e-01 2.831064e-01 3.301027e-01 3.401540e-01 3.908771e-01 3.941135e-01 3.912888e-01 3.752165e-01 3.485329e-01 3.132353e-01 2.022068e-01
<GCONST> 1.105497e+02
<TRANSP> 5
 0.000000e+00 1.000000e+00 0.000000e+00 0.000000e+00 0.000000e+00
 0.000000e+00 5.920629e-01 4.079371e-01 0.000000e+00 0.000000e+00
 0.000000e+00 0.000000e+00 6.747322e-01 3.252677e-01 0.000000e+00
 0.000000e+00 0.000000e+00 0.000000e+00 8.695673e-01 1.304327e-01
 0.000000e+00 0.000000e+00 0.000000e+00 0.000000e+00 0.000000e+00
<ENDHMM>
~h "i"
<BEGINHMM>
<NUMSTATES> 5
<STATE> 2
<MEAN> 39
 -6.821943e+00 -2.385831e-01 1.509076e+01 -3.319532e+00 -1.695596e+01 -6.678652e+00 -1.258913e+01 -5.826490e+00 -9.775581e+00 -4.555528e+00 3.230430e+00 -4.072903e+00 6.335537e+01 3.548188e-01 1.314185e-01 2.941942e+00 -6.924434e-01 -2.625397e+00 6.577673e-01 -1.504174e+00 -4.357181e-01 -1.568722e+00 -1.505556e-01 1.473855e+00 -5.986180e-01 1.588102e+00 -5.377630e-02 8.837568e-02 -6.218905e-01 -1.196369e-01 3.881986e-01 2.649255e-01 1.668498e-01 4.223762e-02 3.822021e-01 2.010607e-01 -2.313530e-01 -1.040309e-01 -3.888929e-01
<VARIANCE> 39
 3.167095e+01 5.117924e+01 5.977616e+01 4.414275e+01 5.326543e+01 4.381323e+01 5.508132e+01 6.295989e+01 6.201363e+01 6.324600e+01 4.603238e+01 2.612310e+01 6.531953e+01 5.435712e+00 3.364449e+00 5.436307e+00 3.978836e+00 5.141212e+00 3.970296e+00 6.161350e+00 5.726828e+00 5.931307e+00 5.410444e+00 4.082575e+00 2.994997e+00 4.283084e+00 6.286324e-01 5.907742e-01 1.038113e+00 6.095972e-01 1.069932e+00 6.995673e-01 9.579563e-01 1.024638e+00 8.877670e-01 7.305511e-01 6.973348e-01 4.843752e-01 9.063531e-01
<GCONST> 1.390121e+02
<STATE> 3
<MEAN> 39
 -7.047550e+00 3.773742e-01 1.996487e+01 -6.438988e+00 -2.167726e+01 -3.126776e+00 -1.563444e+01 -7.541790e+00 -1.115423e+01 -4.321710e+00 5.933156e+00 -6.322807e+00 6.629200e+01 2.855449e-01 1.364198e-01 -5.538722e-01 1.482844e-01 2.693728e-01 -2.658989e-01 3.822166e-01 1.624632e-01 3.014079e-01 1.904902e-01 -2.390755e-01 2.022872e-02 -3.998460e-01 1.091830e-01 6.392717e-02 -5.857356e-01 2.520173e-01 6.093067e-01 -2.094161e-01 3.619673e-01 1.430808e-01 3.446558e-01 2.222501e-02 -3.898874e-01 1.316102e-01 -4.581298e-01
<VARIANCE> 39
 1.466203e+01 3.749320e+01 3.314815e+01 4.121078e+01 2.856825e+01 4.743926e+01 3.778174e+01 6.148902e+01 6.902206e+01 9.588747e+01 5.650925e+01 2.919881e+01 2.515195e+01 1.042498e+00 2.008553e+00 2.371456e+00 2.130968e+00 2.984298e+00 2.609470e+00 2.879763e+00 3.497741e+00 2.713655e+00 2.503706e+00 2.231611e+00 1.649042e+00 1.962045e+00 2.091862e-01 3.180138e-01 3.901310e-01 3.803636e-01 6.149270e-01 4.781566e-01 5.736143e-01 6.172054e-01 6.016424e-01 5.669857e-01 5.010584e-01 3.381035e-01 3.270463e-01
<GCONST> 1.193651e+02
<STATE> 4
<MEAN> 39
 -6.561663e+00 3.058189e+00 1.023720e+01 -3.095250e+00 -1.344167e+01 -5.265607e+00 -9.862937e+00 -7.386614e+00 -7.598797e+00 -3.177501e+00 -4.081760e-01 -4.445735e+00 5.281644e+01 1.116491e-01 1.750179e-01 -1.108870e+00 3.696254e-01 1.001695e+00 -3.178038e-02 5.215986e-01 1.407052e-01 5.455743e-01 1.203443e-02 -6.668143e-01 1.580383e-01 -1.380561e+00 -9.505661e-02 -9.981904e-02 -1.392111e-02 -7.460456e-02 2.458925e-02 1.292558e-01 -9.296229e-02 -2.908946e-02 -1.657308e-02 -1.467264e-02 2.037505e-02 -2.297119e-02 1.354878e-01
<VARIANCE> 39
 3.090138e+01 5.010328e+01 6.951390e+01 3.756809e+01 6.183571e+01 6.171630e+01 5.351919e+01 6.221972e+01 4.527589e+01 4.573930e+01 4.125608e+01 2.988904e+01 1.463258e+02 1.587013e+00 2.277066e+00 2.746578e+00 2.374618e+00 3.680439e+00 2.674303e+00 3.553529e+00 3.508472e+00 3.526076e+00 2.866312e+00 2.825445e+00 2.038413e+00 3.850164e+00 2.387428e-01 3.518600e-01 3.712255e-01 3.967651e-01 6.333801e-01 5.450997e-01 5.835519e-01 6.170681e-01 5.142002e-01 4.795953e-01 4.461077e-01 3.659703e-01 4.170427e-01
<GCONST> 1.258043e+02
<TRANSP> 5
 0.000000e+00 1.000000e+00 0.000000e+00 0.000000e+00 0.000000e+00
 0.000000e+00 6.257970e-01 3.742030e-01 0.000000e+00 0.000000e+00
 0.000000e+00 0.000000e+00 8.034803e-01 1.965198e-01 0.000000e+00
 0.000000e+00 0.000000e+00 0.000000e+00 7.741732e-01 2.258268e-01
 0.000000e+00 0.000000e+00 0.000000e+00 0.000000e+00 0.000000e+00
<ENDHMM>
~h "j"
<BEGINHMM>
<NUMSTATES> 5
<STATE> 2
<MEAN> 39
 -1.752522e+00 7.562590e+00 1.005211e+01 1.981648e-02 -8.240199e+00 -5.755836e+00 -7.456104e+00 -1.507280e+00 -4.320158e+00 -4.879470e+00 -2.030234e+00 -3.993807e+00 5.223642e+01 -7.557654e-01 8.983252e-01 4.473892e-02 7.880283e-02 1.141629e+00 1.833498e-01 8.560082e-01 -1.569965e-01 1.898056e-01 8.924747e-02 -2.669281e-01 4.095197e-02 -4.004118e-01 -5.995334e-01 -4.496484e-01 -1.570801e-01 -2.562214e-01 -2.891004e-02 2.503537e-04 -2.462822e-01 -1.975798e-01 -8.277023e-02 7.416659e-02 1.544869e-01 1.637084e-01 7.985375e-01
<VARIANCE> 39
 4.204354e+01 4.485216e+01 3.908244e+01 2.864606e+01 5.548852e+01 3.910476e+01 4.901055e+01 4.454669e+01 4.027274e+01 3.004837e+01 3.085224e+01 2.643804e+01 7.985677e+01 7.889160e+00 4.509694e+00 3.603811e+00 3.299961e+00 4.541092e+00 3.174703e+00 4.622580e+00 4.399686e+00 3.844207e+00 2.757979e+00 2.645909e+00 2.833072e+00 8.910639e+00 1.156025e+00 5.602763e-01 6.056742e-01 5.272145e-01 9.837503e-01 6.524948e-01 8.029920e-01 7.517633e-01 7.532771e-01 5.206906e-01 5.549782e-01 6.200212e-01 1.115801e+00
<GCONST> 1.336677e+02
<STATE> 3
<MEAN> 39
 -1.551206e+01 6.460615e+00 9.426165e+00 -2.395358e+00 -4.340204e+00 -5.667370e+00 -6.793608e+00 -6.019701e+00 -5.772446e+00 -4.299569e+00 -7.065468e-01 -1.212147e-01 6.354145e+01 -7.174799e-01 -1.513262e+00 1.106842e+00 -1.091218e-01 -2.795388e+00 -1.359735e+00 -1.637843e+00 -3.035472e-01 -7.987890e-01 -3.517210e-01 1.489845e+00 1.114015e+00 3.115730e+00 1.699711e+00 -5.103387e-01 9.497459e-02 1.188375e-01 -1.097957e+00 -1.850851e-01 -7.024153e-01 6.966346e-01 2.300872e-01 -4.289262e-02 2.336662e-01 -4.043700e-01 -3.896865e-01
<VARIANCE> 39
 3.652464e+01 3.124293e+01 4.594448e+01 2.862601e+01 5.529641e+01 4.343473e+01 3.614266e+01 2.375085e+01 3.101824e+01 2.256389e+01 2.211534e+01 1.850766e+01 2.690556e+01 1.300468e+01 3.877877e+00 4.014413e+00 3.926794e+00 7.957509e+00 3.957108e+00 4.705896e+00 5.201963e+00 3.528444e+00 2.801263e+00 2.707637e+00 2.138015e+00 2.919201e+00 8.804722e-01 8.546835e-01 1.176368e+00 7.187152e-01 1.704714e+00 9.712548e-01 8.303862e-01 1.075805e+00 7.949136e-01 6.025230e-01 6.337534e-01 5.509425e-01 4.463793e-01
<GCONST> 1.320838e+02
<STATE> 4
<MEAN> 39
 -5.384173e+00 -3.905778e+00 1.157197e+01 -4.118534e+00 -1.907844e+01 -1.061054e+01 -1.632653e+01 9.887276e-01 -4.725739e+00 -4.496925e+00 5.018606e+00 -7.989400e-02 7.029063e+01 2.178982e+00 -2.823761e+00 -1.701809e+00 -1.219051e+00 -1.051142e+00 3.865738e-01 -1.389773e+00 2.396037e+00 1.516539e+00 5.546641e-01 -2.214797e-01 -1.434050e+00 1.201743e+00 -3.061886e-01 4.498861e-01 -7.504640e-01 -2.895113e-01 1.483800e+00 7.832949e-01 7.553992e-01 -2.691577e-01 2.432126e-01 1.733150e-01 -7.943032e-01 -5.683876e-01 -5.908968e-01
<VARIANCE> 39
 1.310406e+01 3.451953e+01 3.359012e+01 5.291786e+01 3.203754e+01 2.089102e+01 3.764920e+01 7.081146e+01 5.976781e+01 4.732021e+01 3.587424e+01 2.053711e+01 2.315064e+01 2.230430e+00 3.254685e+00 3.656519e+00 2.646441e+00 8.332195e+00 2.938440e+00 6.644448e+00 6.714618e+00 3.992922e+00 3.374658e+00 5.569293e+00 2.901049e+00 1.046764e+00 4.717176e-01 4.006419e-01 5.410263e-01 5.717391e-01 7.101552e-01 6.294962e-01 7.291833e-01 1.119487e+00 7.154717e-01 6.677230e-01 7.092266e-01 4.641108e-01 1.330211e-01
<GCONST> 1.263232e+02
<TRANSP> 5
 0.000000e+00 1.000000e+00 0.000000e+00 0.000000e+00 0.000000e+00
 0.000000e+00 8.350993e-01 1.649007e-01 0.000000e+00 0.000000e+00
 0.000000e+00 0.000000e+00 7.115802e-01 2.884198e-01 0.000000e+00
 0.000000e+00 0.000000e+00 0.000000e+00 6.546409e-01 3.453591e-01
 0.000000e+00 0.000000e+00 0.000000e+00 0.000000e+00 0.000000e+00
<ENDHMM>
~h "k"
<BEGINHMM>
<NUMSTATES> 5
<STATE> 2
<MEAN> 39
 -7.684447e+00 4.400447e-01 -1.732865e+00 -3.608212e+00 -5.580432e+00 -4.080200e+00 -5.926027e+00 -3.876080e+00 -3.924345e+00 -1.657593e+00 -3.687072e+00 -4.354647e+00 4.241610e+01 -8.930730e-01 -2.472768e-01 -6.738738e-01 2.958706e-01 4.823373e-01 -2.751058e-01 1.102128e-01 5.796703e-02 2.259360e-01 -4.957582e-02 -1.054459e-01 4.402655e-01 -9.292650e-01 -6.142655e-02 -4.286542e-01 -2.281241e-01 -2.494379e-01 9.914070e-02 -1.534455e-02 -2.111159e-01 1.233678e-01 -3.576116e-02 7.252106e-02 2.865715e-02 1.761319e-02 1.005803e+00
<VARIANCE> 39
 3.380272e+01 3.873154e+01 4.775884e+01 3.956450e+01 4.619401e+01 4.468847e+01 4.863548e+01 4.543958e+01 4.192944e+01 3.736380e+01 3.463657e+01 3.221389e+01 9.078996e+01 2.257028e+00 4.339931e+00 3.727856e+00 3.404307e+00 4.126949e+00 3.802073e+00 3.945537e+00 3.693347e+00 3.800819e+00 3.317538e+00 2.900157e+00 2.628148e+00 1.052246e+01 3.838390e-01 6.778151e-01 6.454702e-01 6.393310e-01 8.022392e-01 7.611502e-01 7.947538e-01 6.865072e-01 7.434886e-01 7.007090e-01 5.915920e-01 5.301018e-01 1.627972e+00
<GCONST> 1.331333e+02
<STATE> 3
<MEAN> 39
 -1.145461e+01 -6.114298e+00 -8.820033e+00 -4.828547e+00 -9.324025e-01 -6.891642e+00 -9.275234e+00 -2.833438e+00 -4.476907e+00 3.745809e-01 -4.595180e+00 -1.941180e+00 5.268670e+01 -4.273917e-01 -1.465516e+00 -1.634806e+00 -1.120265e+00 9.651493e-01 -5.460433e-01 -1.064205e+00 6.154230e-01 -9.487215e-02 6.670814e-01 -4.312658e-01 1.391845e-01 4.698272e+00 8.110919e-01 5.376129e-01 1.001539e+00 -3.052093e-01 -8.095847e-01 3.998019e-01 8.859170e-02 3.529643e-02 7.281923e-02 -1.924542e-01 2.573199e-01 -5.752979e-01 2.036499e-01
<VARIANCE> 39
 3.360923e+01 5.716007e+01 7.954650e+01 6.150066e+01 6.056534e+01 6.694871e+01 6.789645e+01 4.708451e+01 4.726390e+01 4.107391e+01 3.934753e+01 3.004745e+01 1.286964e+02 4.602775e+00 5.747120e+00 8.603211e+00 6.364934e+00 6.957150e+00 6.310500e+00 5.544565e+00 5.431346e+00 5.633317e+00 4.680297e+00 4.332345e+00 3.934940e+00 1.350291e+01 7.203554e-01 1.105872e+00 1.565957e+00 1.124354e+00 1.283080e+00 1.122686e+00 1.233359e+00 1.072443e+00 1.066320e+00 8.631354e-01 8.391244e-01 7.517561e-01 2.121900e+00
<GCONST> 1.479825e+02
<STATE> 4
<MEAN> 39
 -8.500365e+00 -4.327591e+00 -5.761953e+00 -8.022138e+00 -3.309368e+00 -6.061528e+00 -1.015012e+01 -1.449368e+00 -3.561443e+00 4.345590e-01 -4.471238e+00 -4.774290e+00 6.058434e+01 2.121557e+00 1.489389e-01 2.000940e+00 -1.005861e+00 -1.742070e+00 8.998225e-01 -5.910630e-02 4.459673e-01 2.227667e-01 -5.236554e-01 8.061482e-01 -1.454535e+00 2.280056e+00 4.611672e-01 -7.048082e-02 4.666754e-01 5.684783e-02 -4.436831e-01 4.059143e-01 1.722667e-01 -7.310914e-02 2.522324e-02 -2.787506e-01 2.963736e-01 -2.674903e-01 -5.859284e-01
<VARIANCE> 39
 5.569242e+01 5.195893e+01 7.669777e+01 5.475667e+01 6.253410e+01 6.158813e+01 5.341217e+01 5.057966e+01 5.274157e+01 4.706017e+01 4.782061e+01 3.683095e+01 8.329826e+01 5.159038e+00 5.728869e+00 6.194556e+00 5.521543e+00 5.272058e+00 4.609123e+00 5.285714e+00 6.349865e+00 5.652180e+00 4.054560e+00 4.247412e+00 4.495105e+00 6.706656e+00 8.793837e-01 7.881028e-01 1.335915e+00 8.686537e-01 1.127061e+00 8.747306e-01 9.796705e-01 9.535626e-01 9.570982e-01 8.342261e-01 7.594820e-01 6.974572e-01 1.241365e+00
<GCONST> 1.445234e+02
<TRANSP> 5
 0.000000e+00 1.000000e+00 0.000000e+00 0.000000e+00 0.000000e+00
 0.000000e+00 8.152909e-01 1.847091e-01 0.000000e+00 0.000000e+00
 0.000000e+00 0.000000e+00 5.563304e-01 4.436696e-01 0.000000e+00
 0.000000e+00 0.000000e+00 0.000000e+00 5.393359e-01 4.606641e-01
 0.000000e+00 0.000000e+00 0.000000e+00 0.000000e+00 0.000000e+00
<ENDHMM>
~h "l"
<BEGINHMM>
<NUMSTATES> 5
<STATE> 2
<MEAN> 39
 6.312430e-01 -6.836396e+00 6.118294e-01 -9.413467e+00 -1.056997e+01 -1.387966e+00 -1.648732e+01 -8.834544e+00 1.331586e+00 8.577664e-01 1.172662e+00 -6.966908e+00 6.675224e+01 6.278612e-01 -7.318852e-03 2.540816e-01 -5.766189e-01 2.626141e-01 2.379811e-01 -1.217538e+00 -1.071104e+00 3.157401e-01 9.193576e-01 5.142407e-01 -2.162559e-01 -1.340476e-01 -1.981059e-01 8.985329e-02 6.186880e-03 -1.662335e-01 3.844308e-02 1.186669e-01 1.709875e-01 3.455069e-01 -2.756688e-01 -1.818269e-01 1.976831e-02 8.017595e-03 -1.268915e-02
<VARIANCE> 39
 1.993561e+01 3.757228e+01 6.389585e+01 8.903138e+01 4.721008e+01 6.693362e+01 8.801967e+01 1.025153e+02 9.083995e+01 6.572460e+01 5.848763e+01 4.208574e+01 4.701521e+01 1.251696e+00 2.094387e+00 3.073191e+00 4.993905e+00 4.524018e+00 4.613666e+00 4.354273e+00 5.428718e+00 4.712110e+00 3.915178e+00 3.809499e+00 3.072479e+00 1.984686e+00 2.706376e-01 3.215297e-01 3.849679e-01 7.136859e-01 7.603791e-01 7.235096e-01 8.272734e-01 1.013127e+00 8.144259e-01 7.498687e-01 6.878628e-01 4.930409e-01 1.953536e-01
<GCONST> 1.327030e+02
<STATE> 3
<MEAN> 39
 1.826461e+00 -6.575219e+00 6.726992e-01 -1.419479e+01 -9.026425e+00 7.705468e-01 -1.998946e+01 -1.029509e+01 3.804272e-01 3.902779e+00 3.416982e+00 -7.674469e+00 6.737194e+01 -1.750747e-01 -1.050925e-01 -1.935525e-01 -3.978617e-01 2.181334e-01 1.013759e-01 -1.590966e-02 7.321577e-01 2.105607e-02 -8.512961e-02 -2.717584e-01 -1.618084e-01 1.879142e-01 -2.373363e-01 -1.675236e-01 -2.365007e-01 1.687281e-01 -3.231192e-02 5.566869e-02 5.058487e-01 6.057103e-01 2.865448e-02 -4.426289e-01 -4.328222e-01 -7.464980e-02 1.813094e-01
<VARIANCE> 39
 1.259797e+01 3.550932e+01 6.132037e+01 8.781023e+01 4.289290e+01 5.193462e+01 9.121144e+01 8.207288e+01 8.263019e+01 6.106503e+01 5.507606e+01 4.623455e+01 2.768208e+01 5.442571e-01 1.563763e+00 2.028115e+00 3.160772e+00 2.053601e+00 3.133572e+00 3.406775e+00 4.994394e+00 3.324337e+00 3.043212e+00 3.427173e+00 2.376234e+00 1.018296e+00 1.012715e-01 2.955982e-01 2.779088e-01 5.257304e-01 5.842010e-01 5.972372e-01 7.393247e-01 7.515724e-01 6.637502e-01 6.596068e-01 6.720213e-01 5.161076e-01 1.222162e-01
<GCONST> 1.224535e+02
<STATE> 4
<MEAN> 39
 3.400214e-01 -5.647166e+00 -1.521128e+00 -1.321311e+01 -8.492824e+00 2.831618e-01 -1.586190e+01 -5.346166e+00 -1.729966e-01 8.896802e-01 2.827982e-01 -7.756989e+00 6.617739e+01 -3.959300e-01 -2.179121e-02 -1.676941e-01 4.629048e-01 1.120440e-01 -3.864715e-02 8.773854e-01 8.534837e-01 -2.055718e-01 -7.153031e-01 -7.119157e-01 2.657941e-04 -1.601146e-01 -8.241679e-02 4.046587e-02 4.323209e-02 1.517435e-01 -3.117712e-02 1.827467e-02 2.014349e-01 -6.581075e-02 -8.971492e-02 -1.299463e-01 4.110980e-02 2.899906e-02 -6.639137e-02
<VARIANCE> 39
 1.688099e+01 5.990505e+01 9.475852e+01 8.478440e+01 5.224035e+01 6.971239e+01 8.697256e+01 8.364924e+01 6.990242e+01 6.533401e+01 5.856978e+01 4.810930e+01 6.129977e+01 7.313763e-01 2.333610e+00 2.383611e+00 3.427921e+00 3.308781e+00 3.362861e+00 3.784464e+00 5.089752e+00 3.568354e+00 3.421681e+00 3.671586e+00 2.888947e+00 2.050421e+00 1.149813e-01 2.490436e-01 2.410360e-01 4.750793e-01 5.250848e-01 5.003965e-01 6.075228e-01 5.745690e-01 5.438083e-01 5.631649e-01 5.196263e-01 3.772143e-01 1.765457e-01
<GCONST> 1.260943e+02
<TRANSP> 5
 0.000000e+00 1.000000e+00 0.000000e+00 0.000000e+00 0.000000e+00
 0.000000e+00 5.075695e-01 4.924305e-01 0.000000e+00 0.000000e+00
 0.000000e+00 0.000000e+00 6.199390e-01 3.800610e-01 0.000000e+00
 0.000000e+00 0.000000e+00 0.000000e+00 5.869586e-01 4.130414e-01
 0.000000e+00 0.000000e+00 0.000000e+00 0.000000e+00 0.000000e+00
<ENDHMM>
~h "m"
<BEGINHMM>
<NUMSTATES> 5
<STATE> 2
<MEAN> 39
 7.953051e-01 -2.500852e+00 2.917160e+00 -5.365245e+00 -6.793131e+00 1.965192e+00 -9.489075e+00 -7.583348e+00 -8.716244e+00 -1.728647e+00 -1.363208e+00 -7.728872e+00 5.840353e+01 2.545280e-01 1.170937e+00 1.947470e+00 1.776822e+00 4.505058e-01 3.463691e-01 2.038551e-01 -2.126930e+00 -1.943993e+00 -9.071426e-03 -7.000731e-01 2.030533e-01 -6.921316e-01 -2.236097e-01 -2.576673e-01 1.598716e-02 -1.288228e-01 -7.565507e-02 1.301853e-02 -1.057673e-01 1.339265e-01 1.530237e-01 -1.349817e-01 -6.775352e-02 3.886485e-02 3.722074e-01
<VARIANCE> 39
 3.224449e+01 4.343567e+01 5.464742e+01 6.257158e+01 4.711732e+01 5.237119e+01 7.773874e+01 7.242699e+01 9.895048e+01 4.684037e+01 5.767693e+01 4.213376e+01 1.019203e+02 2.129970e+00 2.971993e+00 4.498017e+00 4.864052e+00 3.522844e+00 4.138807e+00 5.667108e+00 5.239782e+00 6.419199e+00 3.861239e+00 5.466774e+00 3.836183e+00 5.181880e+00 2.849006e-01 3.528121e-01 6.421306e-01 5.959337e-01 5.453877e-01 5.029868e-01 6.244462e-01 7.928411e-01 7.979120e-01 5.093747e-01 7.271435e-01 4.551586e-01 3.248882e-01
<GCONST> 1.348825e+02
<STATE> 3
<MEAN> 39
 1.355217e+00 -1.537904e+00 7.236699e+00 -2.345544e+00 -7.133206e+00 3.957649e+00 -1.007923e+01 -1.355848e+01 -1.200707e+01 -2.648617e+00 -2.734883e+00 -6.727893e+00 6.066098e+01 -7.470251e-02 -1.002345e-01 1.901700e-01 -2.111681e-02 -1.296152e-02 3.055859e-01 -5.057817e-03 -1.193052e-01 -1.586042e-01 -2.942473e-01 -1.062114e-01 4.724881e-02 3.202304e-01 5.873598e-03 -2.878319e-01 -6.699274e-01 -6.537875e-01 -1.550855e-01 -7.704052e-02 -7.099926e-02 8.068867e-01 6.642235e-01 3.465239e-02 2.754161e-01 -1.810982e-01 2.478397e-01
<VARIANCE> 39
 1.624042e+01 2.897760e+01 3.108910e+01 3.928138e+01 4.049628e+01 5.378056e+01 1.022777e+02 7.236612e+01 1.200779e+02 6.148523e+01 7.098619e+01 4.506679e+01 3.115774e+01 4.981303e-01 1.275150e+00 2.385010e+00 2.875798e+00 1.577406e+00 1.848847e+00 2.189833e+00 3.066399e+00 2.947919e+00 2.049114e+00 3.243500e+00 1.879126e+00 1.690069e+00 1.466389e-01 2.267213e-01 4.253078e-01 4.411786e-01 3.641937e-01 3.792816e-01 6.489526e-01 5.593069e-01 7.303767e-01 5.250772e-01 7.196059e-01 4.852266e-01 2.227775e-01
<GCONST> 1.189459e+02
<STATE> 4
<MEAN> 39
 -5.707766e-02 -1.575159e+00 5.719212e+00 -3.835234e+00 -7.599095e+00 2.803975e+00 -1.028633e+01 -7.943810e+00 -1.005021e+01 -3.376329e+00 -3.534723e+00 -7.217218e+00 5.748962e+01 -1.991885e-02 -3.826482e-02 -6.394160e-01 -5.171999e-01 -1.912288e-01 -4.705705e-02 8.125417e-02 5.903534e-01 6.842568e-01 6.586895e-02 2.785399e-01 -1.029350e-01 8.850905e-02 -2.486673e-02 -7.809016e-02 -1.787063e-01 -1.333225e-01 8.842857e-03 -3.012114e-02 -7.998071e-03 1.409500e-01 1.542259e-01 4.196886e-02 9.604213e-02 -5.424330e-03 3.703893e-02
<VARIANCE> 39
 3.014830e+01 4.158686e+01 5.592341e+01 5.211949e+01 5.983971e+01 6.139388e+01 8.147829e+01 6.660673e+01 1.051814e+02 4.717220e+01 5.710979e+01 4.813741e+01 9.474366e+01 5.323730e-01 1.697253e+00 2.740384e+00 3.034838e+00 1.950912e+00 1.982987e+00 2.574043e+00 3.223364e+00 3.433977e+00 2.121666e+00 2.934983e+00 2.087031e+00 1.933168e+00 9.917325e-02 2.044357e-01 3.414708e-01 3.633664e-01 3.636729e-01 3.449447e-01 3.999545e-01 4.473154e-01 4.875883e-01 3.525729e-01 4.326670e-01 3.466245e-01 1.603500e-01
<GCONST> 1.192492e+02
<TRANSP> 5
 0.000000e+00 1.000000e+00 0.000000e+00 0.000000e+00 0.000000e+00
 0.000000e+00 5.470321e-01 4.529679e-01 0.000000e+00 0.000000e+00
 0.000000e+00 0.000000e+00 6.421521e-01 3.578479e-01 0.000000e+00
 0.000000e+00 0.000000e+00 0.000000e+00 7.767241e-01 2.232759e-01
 0.000000e+00 0.000000e+00 0.000000e+00 0.000000e+00 0.000000e+00
<ENDHMM>
~h "n"
<BEGINHMM>
<NUMSTATES> 5
<STATE> 2
<MEAN> 39
 9.217792e-01 -7.285987e+00 3.707017e+00 -4.725649e+00 -1.058591e+01 -3.967125e+00 -1.364356e+01 -4.103704e-01 -1.272077e+00 -1.737910e+00 -5.650588e+00 -8.108227e+00 6.561060e+01 5.350178e-01 2.366570e+00 1.964116e+00 2.019826e+00 -1.010518e-01 -9.444368e-01 -8.786708e-03 -3.141365e+00 -8.370178e-01 1.479146e+00 -9.606749e-01 6.774875e-01 -2.181285e+00 -1.285678e-01 1.287475e-01 5.636932e-02 -2.266254e-01 1.026915e-01 1.248759e-01 2.290991e-01 -3.755308e-01 -2.503854e-01 1.399197e-01 8.075821e-02 7.433183e-02 2.339247e-02
<VARIANCE> 39
 1.379164e+01 4.994774e+01 5.918961e+01 4.947434e+01 5.673112e+01 4.244796e+01 7.101102e+01 9.793542e+01 8.120761e+01 6.440784e+01 5.319060e+01 3.769701e+01 4.489975e+01 8.597863e-01 2.298779e+00 4.466490e+00 3.412666e+00 3.824047e+00 4.210701e+00 6.773732e+00 5.715092e+00 6.158706e+00 5.021443e+00 4.054917e+00 3.133362e+00 1.364921e+00 1.307640e-01 4.621723e-01 5.498634e-01 5.083838e-01 5.811990e-01 6.498194e-01 7.263843e-01 1.217224e+00 7.920818e-01 7.874256e-01 5.523113e-01 4.267547e-01 2.793627e-01
<GCONST> 1.305535e+02
<STATE> 3
<MEAN> 39
 1.416875e+00 -1.470283e+00 8.847127e+00 -1.488786e+00 -1.093179e+01 -4.844464e+00 -1.339250e+01 -1.051679e+01 -3.326433e+00 2.644080e+00 -6.906957e+00 -6.701393e+00 6.112532e+01 2.522822e-02 8.245282e-01 5.470415e-01 3.704625e-01 2.080170e-02 -1.816127e-02 2.231925e-01 -1.110491e+00 -4.915558e-01 6.027532e-01 -2.857129e-01 4.050784e-01 -6.404533e-01 -1.971756e-01 -5.314912e-01 -6.093922e-01 -4.857023e-01 1.008886e-01 2.635860e-01 9.391375e-03 9.920080e-01 1.696694e-01 -5.303654e-01 3.171469e-01 -1.285662e-01 4.531716e-01
<VARIANCE> 39
 1.502254e+01 2.710978e+01 4.461574e+01 4.125459e+01 4.400600e+01 4.690058e+01 9.805948e+01 7.038467e+01 1.161745e+02 5.943422e+01 5.120132e+01 4.701283e+01 2.516721e+01 5.750025e-01 2.240694e+00 3.024498e+00 2.029648e+00 2.180542e+00 2.830027e+00 3.646580e+00 5.158726e+00 3.938620e+00 3.153889e+00 2.575713e+00 2.301461e+00 1.666340e+00 1.463796e-01 3.396058e-01 6.413864e-01 4.870470e-01 5.293182e-01 6.410018e-01 8.290572e-01 8.497159e-01 8.942019e-01 7.294193e-01 5.902962e-01 5.129272e-01 2.407752e-01
<GCONST> 1.245180e+02
<STATE> 4
<MEAN> 39
 -7.172827e-03 1.059579e+00 7.053468e+00 1.677715e-01 -8.511950e+00 -4.683739e+00 -9.898860e+00 -8.097552e+00 -6.104796e+00 6.537321e-01 -7.652908e+00 -4.489650e+00 5.514663e+01 -3.318353e-01 3.063076e-01 -3.413909e-01 6.443526e-02 4.006740e-01 2.797039e-01 3.077717e-01 2.505818e-01 -2.236987e-02 -4.426725e-01 1.655197e-01 1.008302e-02 -6.829525e-01 -1.237385e-01 -1.284527e-01 -1.209877e-01 -1.260377e-01 6.105264e-02 5.637342e-02 1.125363e-03 2.174852e-01 7.983273e-02 -1.518828e-01 1.082472e-01 -6.483094e-02 3.312707e-02
<VARIANCE> 39
 2.787748e+01 3.366699e+01 4.625088e+01 4.197454e+01 6.092718e+01 4.239121e+01 1.089287e+02 5.861326e+01 9.961424e+01 5.384701e+01 5.243979e+01 4.038359e+01 8.208304e+01 8.098813e-01 1.906698e+00 1.819549e+00 1.962682e+00 2.187186e+00 2.341455e+00 2.848342e+00 3.286762e+00 2.988048e+00 2.714274e+00 2.413544e+00 2.017947e+00 1.986771e+00 1.574177e-01 2.848591e-01 2.967990e-01 3.534991e-01 3.977804e-01 4.209324e-01 5.148266e-01 5.365782e-01 5.130254e-01 4.736926e-01 4.386305e-01 3.543155e-01 2.318954e-01
<GCONST> 1.201339e+02
<TRANSP> 5
 0.000000e+00 1.000000e+00 0.000000e+00 0.000000e+00 0.000000e+00
 0.000000e+00 5.376991e-01 4.623009e-01 0.000000e+00 0.000000e+00
 0.000000e+00 0.000000e+00 6.112053e-01 3.887947e-01 0.000000e+00
 0.000000e+00 0.000000e+00 0.000000e+00 8.092503e-01 1.907497e-01
 0.000000e+00 0.000000e+00 0.000000e+00 0.000000e+00 0.000000e+00
<ENDHMM>
~h "o"
<BEGINHMM>
<NUMSTATES> 5
<STATE> 2
<MEAN> 39
 1.096736e-01 -3.002442e+00 -4.830667e+00 -1.544494e+01 -1.062687e+01 3.494729e+00 -1.300628e+01 -4.251129e+00 -2.804955e+00 -7.126824e-01 2.738085e+00 -5.516024e+00 6.377054e+01 1.604437e+00 -6.959521e-01 -4.689002e-01 -2.801868e+00 -1.048832e+00 2.301012e+00 -3.465585e-01 1.388852e-01 2.123030e-01 2.203096e-02 1.471069e+00 -5.952561e-01 1.820221e+00 -4.078541e-01 -6.145818e-03 1.530878e-01 3.434253e-01 2.462538e-01 -9.126138e-02 3.245924e-01 -7.278085e-02 -1.279567e-01 -9.228327e-02 -1.175909e-01 9.025482e-02 -4.176883e-01
<VARIANCE> 39
 2.906880e+01 4.425470e+01 5.446253e+01 1.084005e+02 5.040311e+01 5.900015e+01 9.441931e+01 6.204565e+01 6.921387e+01 6.430740e+01 5.259523e+01 4.207704e+01 9.864827e+01 4.336723e+00 3.105077e+00 5.888880e+00 6.703640e+00 6.328406e+00 5.371640e+00 5.082151e+00 6.293315e+00 5.369836e+00 5.484700e+00 4.347232e+00 3.707341e+00 6.159383e+00 7.635987e-01 5.533625e-01 7.166865e-01 1.366582e+00 8.276817e-01 9.231096e-01 9.338059e-01 8.601192e-01 9.264323e-01 9.051134e-01 7.238618e-01 6.151188e-01 1.218725e+00
<GCONST> 1.439779e+02
<STATE> 3
<MEAN> 39
 2.080128e+00 -5.182944e+00 -5.927613e+00 -2.110511e+01 -1.287636e+01 1.022307e+01 -1.295361e+01 -5.242228e+00 -2.079149e+00 -2.734874e+00 7.669833e+00 -6.565735e+00 6.900367e+01 1.030846e-01 -1.763729e-01 -7.658514e-02 -1.809583e-01 2.008703e-01 3.001749e-01 1.232555e-01 5.152252e-04 -6.675454e-02 2.663925e-02 8.554129e-02 -1.076243e-01 -1.926002e-02 -2.055591e-01 2.301311e-01 1.647880e-01 8.082265e-01 2.859931e-01 -7.049046e-01 4.646901e-02 -2.544882e-02 -2.212023e-02 8.796898e-02 -5.374153e-01 1.077113e-01 -4.893446e-01
<VARIANCE> 39
 1.069900e+01 4.107471e+01 3.710548e+01 5.777547e+01 3.941893e+01 4.158456e+01 8.372382e+01 7.555904e+01 7.117902e+01 6.796971e+01 4.819448e+01 5.101499e+01 2.342073e+01 5.001352e-01 1.846419e+00 1.302434e+00 4.416545e+00 2.254919e+00 3.281357e+00 3.096727e+00 2.833560e+00 3.296524e+00 3.767103e+00 2.731251e+00 2.377675e+00 1.590886e+00 1.987214e-01 2.913784e-01 3.446480e-01 4.957429e-01 5.667833e-01 4.741934e-01 5.353365e-01 6.772606e-01 5.870794e-01 6.847265e-01 5.186255e-01 4.936766e-01 2.506031e-01
<GCONST> 1.211282e+02
<STATE> 4
<MEAN> 39
 2.224960e+00 -2.805032e+00 -5.929851e+00 -1.875996e+01 -9.931333e+00 5.678455e+00 -1.189606e+01 -4.139018e+00 -3.212568e+00 -1.584084e+00 3.411214e+00 -6.249289e+00 6.297152e+01 -1.620269e-01 3.648054e-01 2.909237e-01 1.292471e+00 3.932788e-01 -9.815300e-01 2.005378e-01 -1.510244e-01 9.478381e-02 1.718801e-01 -8.181962e-01 5.258909e-02 -1.105649e+00 -9.600997e-02 7.697964e-02 1.372162e-01 2.921354e-01 1.935329e-02 -1.188343e-01 2.432515e-02 -6.270605e-02 2.383258e-02 -6.223700e-02 -7.661006e-02 4.627238e-02 -1.580025e-01
<VARIANCE> 39
 1.932263e+01 5.637949e+01 5.021367e+01 8.044910e+01 5.017752e+01 4.880828e+01 8.432433e+01 5.813428e+01 6.603432e+01 5.938921e+01 4.706308e+01 5.046899e+01 9.093912e+01 7.088150e-01 1.638019e+00 1.686277e+00 3.707206e+00 2.534760e+00 2.786223e+00 2.718888e+00 2.781387e+00 2.548891e+00 2.601940e+00 2.497575e+00 2.068738e+00 2.467859e+00 1.424732e-01 2.782884e-01 2.655748e-01 4.474450e-01 4.341860e-01 4.038479e-01 5.099050e-01 4.607606e-01 4.838763e-01 4.749682e-01 3.890326e-01 3.741863e-01 3.149477e-01
<GCONST> 1.211303e+02
<TRANSP> 5
 0.000000e+00 1.000000e+00 0.000000e+00 0.000000e+00 0.000000e+00
 0.000000e+00 5.788374e-01 4.211626e-01 0.000000e+00 0.000000e+00
 0.000000e+00 0.000000e+00 7.257142e-01 2.742858e-01 0.000000e+00
 0.000000e+00 0.000000e+00 0.000000e+00 7.788551e-01 2.211449e-01
 0.000000e+00 0.000000e+00 0.000000e+00 0.000000e+00 0.000000e+00
<ENDHMM>
~h "p"
<BEGINHMM>
<NUMSTATES> 5
<STATE> 2
<MEAN> 39
 -7.271733e+00 1.393591e+00 -2.045628e+00 -3.316207e+00 -4.878472e+00 -2.387716e+00 -5.673342e+00 -5.085800e+00 -3.998055e+00 -2.732873e+00 -3.284230e+00 -4.523108e+00 3.897652e+01 -7.865326e-01 1.865007e-01 -1.758849e-01 3.331674e-01 8.700884e-02 -3.394820e-01 2.056022e-01 1.210806e-01 1.698041e-01 -1.391624e-02 -4.092555e-02 2.781767e-01 -1.193922e+00 -5.527970e-03 -2.785715e-01 -1.963896e-02 -1.398527e-01 -6.936686e-02 2.283055e-03 -1.294673e-01 3.264005e-02 4.852955e-03 2.733899e-03 9.501320e-02 4.190174e-02 6.699497e-01
<VARIANCE> 39
 4.064312e+01 2.734915e+01 2.809439e+01 2.762529e+01 2.452009e+01 3.363253e+01 3.169456e+01 2.765388e+01 2.998042e+01 2.450528e+01 2.387923e+01 2.725140e+01 5.172799e+01 1.442734e+00 1.858608e+00 1.575847e+00 1.880503e+00 1.927040e+00 2.107819e+00 2.167579e+00 2.226036e+00 2.418987e+00 2.123900e+00 2.021476e+00 1.868280e+00 4.522114e+00 2.775867e-01 3.708244e-01 3.129788e-01 3.798282e-01 4.055190e-01 4.368593e-01 4.447449e-01 4.517563e-01 4.713431e-01 4.496655e-01 4.151049e-01 3.653880e-01 8.522760e-01
<GCONST> 1.140459e+02
<STATE> 3
<MEAN> 39
 -8.663551e+00 1.138548e+00 -1.536812e+00 -2.676308e+00 -5.039788e+00 -3.961233e+00 -6.201471e+00 -5.138365e+00 -3.233092e+00 -2.585001e+00 -2.618299e+00 -3.110656e+00 4.213568e+01 2.783850e-01 -1.844375e+00 -7.681443e-01 -1.080694e+00 -3.307339e-01 2.413739e-01 -6.794941e-01 7.076278e-02 1.971036e-01 -1.627906e-01 7.535503e-01 2.726911e-01 5.474847e+00 9.594766e-01 -6.072433e-01 -1.335790e-01 -9.257379e-01 -4.265132e-01 6.633267e-01 -3.837976e-01 7.036349e-02 -9.101710e-02 5.444913e-02 3.240994e-01 -5.860609e-01 1.812975e+00
<VARIANCE> 39
 2.394916e+01 2.293283e+01 2.550126e+01 2.831011e+01 2.653950e+01 3.253973e+01 4.030961e+01 3.140332e+01 3.115629e+01 2.456052e+01 2.356369e+01 2.270860e+01 9.426855e+01 4.878132e+00 3.446767e+00 4.412555e+00 5.773490e+00 3.905360e+00 6.390917e+00 4.012177e+00 4.209827e+00 4.569061e+00 3.301708e+00 3.596693e+00 3.645701e+00 1.108684e+01 4.492854e-01 6.767655e-01 7.986618e-01 8.284287e-01 7.694882e-01 1.037187e+00 7.295293e-01 9.163644e-01 9.653746e-01 6.516837e-01 6.300731e-01 7.161226e-01 1.591556e+00
<GCONST> 1.327117e+02
<STATE> 4
<MEAN> 39
 -5.182008e+00 -5.143941e+00 -5.025262e+00 -8.464177e+00 -6.146008e+00 -9.533376e-01 -8.585401e+00 -5.242634e+00 -3.275784e+00 -2.753503e+00 -1.211607e+00 -4.446418e+00 5.877015e+01 2.251569e+00 -1.817688e+00 -3.670424e-01 -2.468743e+00 -1.015805e+00 1.548406e+00 -1.093233e+00 3.276488e-01 1.248120e-02 1.511507e-01 8.966047e-01 -1.167688e+00 5.319565e+00 2.439774e-01 2.643259e-01 3.719850e-01 -2.921445e-02 -1.260872e-01 1.238610e-01 -2.799636e-02 1.716238e-01 6.076830e-03 9.004232e-02 -7.303813e-02 -3.138038e-01 -8.226309e-01
<VARIANCE> 39
 4.953063e+01 4.067804e+01 3.372501e+01 7.976210e+01 3.064257e+01 7.084681e+01 4.221245e+01 3.054643e+01 3.078461e+01 2.614343e+01 2.957330e+01 2.886697e+01 8.896947e+01 5.239213e+00 7.744182e+00 6.823039e+00 9.682261e+00 5.482494e+00 8.303697e+00 5.120896e+00 5.773945e+00 5.678131e+00 4.232059e+00 4.224741e+00 5.041169e+00 1.547690e+01 9.638541e-01 7.824213e-01 6.983662e-01 1.434921e+00 9.816075e-01 1.147963e+00 7.639087e-01 7.390405e-01 8.035553e-01 6.212325e-01 8.030131e-01 5.930622e-01 1.590626e+00
<GCONST> 1.423272e+02
<TRANSP> 5
 0.000000e+00 1.000000e+00 0.000000e+00 0.000000e+00 0.000000e+00
 0.000000e+00 8.620055e-01 1.379945e-01 0.000000e+00 0.000000e+00
 0.000000e+00 0.000000e+00 5.268911e-01 4.731089e-01 0.000000e+00
 0.000000e+00 0.000000e+00 0.000000e+00 4.410634e-01 5.589366e-01
 0.000000e+00 0.000000e+00 0.000000e+00 0.000000e+00 0.000000e+00
<ENDHMM>
~h "q"
<BEGINHMM>
<NUMSTATES> 5
<STATE> 2
<MEAN> 39
 -8.481908e+00 3.503294e+00 -3.097975e-02 -5.303195e+00 -1.057713e+01 -8.926569e+00 -4.149132e+00 -4.516988e+00 -3.344302e+00 -3.477598e+00 -7.196309e+00 -4.084629e+00 4.725598e+01 -2.882362e-01 9.024318e-01 -8.455889e-01 4.916792e-01 1.421338e+00 -1.056768e-01 2.778216e-01 7.894229e-01 -9.764547e-01 -2.084979e-01 -7.817830e-01 7.394754e-01 -2.112117e+00 8.596663e-03 -9.317874e-01 6.647875e-01 -8.933888e-02 -4.302523e-01 4.881792e-01 -4.628706e-01 -5.988313e-01 1.704414e-01 -3.573847e-01 1.338738e+00 8.535247e-02 1.044584e+00
<VARIANCE> 39
 1.255121e+01 2.660540e+01 2.008111e+02 5.872879e+01 3.953903e+01 1.863479e+01 3.753440e+01 3.180357e+01 4.917484e+01 2.343671e+01 3.443707e+01 3.325064e+01 2.547109e+01 1.246203e+00 4.404392e+00 1.171950e+01 8.816156e-01 2.734845e+00 1.057531e+00 3.236046e+00 3.530015e+00 3.791755e+00 2.540636e+00 6.118043e+00 2.214948e+00 7.143737e+00 5.644888e-01 4.548531e-01 2.058553e+00 6.083109e-01 1.345207e+00 4.051112e-01 3.288892e-01 6.115984e-01 3.027500e-01 1.181741e+00 6.411225e-01 5.416425e-01 1.513652e+00
<GCONST> 1.272381e+02
<STATE> 3
<MEAN> 39
 -7.076179e+00 -4.977945e+00 8.243020e+00 -3.898088e+00 -1.872269e+01 -7.490177e+00 -2.889359e+00 -2.873841e+00 -1.208105e+00 -7.801470e+00 3.495991e+00 -5.184366e+00 5.581416e+01 -1.188906e-01 -5.835455e-01 4.419940e-02 3.995240e-01 6.350078e-02 -1.333737e-01 -7.415882e-01 -1.588520e-01 -3.213950e-01 5.806716e-02 1.339368e+00 6.007162e-01 6.680943e-01 -1.834944e-01 6.414325e-02 -2.106861e-01 -2.955346e-02 1.733739e-01 -8.962348e-02 -1.208155e-01 -1.637223e-02 1.251754e-01 2.622168e-01 -9.232869e-02 9.721007e-02 -2.236634e-02
<VARIANCE> 39
 8.629143e+00 6.144386e+01 5.234451e+01 1.917885e+01 5.458402e+01 2.905591e+01 3.299217e+01 2.665097e+01 2.128993e+01 7.123061e+00 6.823026e+01 8.788729e+00 1.324614e+02 2.715770e+00 2.996892e+00 9.320442e+00 2.377685e+00 7.926313e+00 4.816225e+00 1.450626e+00 1.754928e+00 1.720983e+00 1.970484e+00 5.913805e+00 1.786924e+00 1.104877e+01 4.912689e-01 5.457559e-01 3.341973e-01 4.652262e-01 5.975004e-01 6.388860e-01 3.616105e-01 4.824195e-01 3.685529e-01 3.962224e-01 9.320854e-01 2.956645e-01 1.811063e+00
<GCONST> 1.225616e+02
<STATE> 4
<MEAN> 39
 -1.040357e+01 -2.743081e-01 7.563287e-01 -2.423161e+00 -9.927028e+00 -1.070618e+01 -7.461549e+00 -5.939026e+00 -4.187113e+00 -3.708806e+00 -1.014049e+00 -1.768420e+00 4.689703e+01 -1.439147e+00 5.102022e-01 -1.918984e+00 -1.189803e+00 1.510815e+00 8.579751e-01 -1.173444e-01 7.300894e-01 -6.415962e-01 7.656504e-01 -3.856024e-01 7.040414e-01 2.596013e-01 -6.155049e-02 2.079232e-01 4.365705e-01 -1.737728e-01 -3.850389e-01 3.254905e-01 1.376942e-01 1.168149e-01 -2.122071e-01 1.324290e-01 3.496481e-01 -8.726136e-02 6.368623e-01
<VARIANCE> 39
 2.782003e+01 1.976588e+01 6.623813e+01 3.089519e+01 7.989450e+01 5.981101e+01 3.914645e+01 1.099574e+01 2.633783e+01 8.408529e+00 2.565670e+01 7.441267e+00 6.957621e+01 6.300414e+00 1.696962e+00 9.036074e+00 4.576443e+00 4.130161e+00 4.869225e+00 2.621593e+00 1.835773e+00 2.932116e+00 2.479919e+00 3.023807e+00 3.126964e+00 1.088368e+01 4.631533e-01 4.953788e-01 1.725621e+00 9.554036e-01 1.015222e+00 6.668289e-01 4.812144e-01 2.742561e-01 2.171802e-01 5.464790e-01 3.760784e-01 2.680029e-01 7.422422e-01
<GCONST> 1.242124e+02
<TRANSP> 5
 0.000000e+00 1.000000e+00 0.000000e+00 0.000000e+00 0.000000e+00
 0.000000e+00 3.439238e-01 6.560763e-01 0.000000e+00 0.000000e+00
 0.000000e+00 0.000000e+00 5.592533e-01 4.407467e-01 0.000000e+00
 0.000000e+00 0.000000e+00 0.000000e+00 6.666133e-01 3.333867e-01
 0.000000e+00 0.000000e+00 0.000000e+00 0.000000e+00 0.000000e+00
<ENDHMM>
~h "r"
<BEGINHMM>
<NUMSTATES> 5
<STATE> 2
<MEAN> 39
 -4.134691e-01 -7.596327e+00 -3.795463e+00 -4.556818e+00 -9.077983e+00 -4.490441e+00 -1.211828e+01 -3.158885e+00 2.162881e+00 -5.489887e-01 -1.729108e+00 -6.256199e+00 6.500762e+01 1.460042e-01 9.367955e-02 -2.336002e-01 1.746306e+00 -2.817401e-01 -4.025967e-01 -3.717132e-01 -4.609520e-01 7.592562e-01 -3.438091e-01 1.733132e-01 4.010710e-01 -6.757013e-01 -9.806211e-02 -4.323664e-02 1.829225e-01 -3.118195e-01 -9.701579e-02 2.241104e-01 -9.725825e-02 2.114120e-01 -3.346658e-01 -9.597079e-02 1.731657e-01 -4.945790e-02 5.675451e-02
<VARIANCE> 39
 2.541850e+01 3.802647e+01 5.681804e+01 6.064581e+01 5.446172e+01 4.777324e+01 7.880312e+01 7.213503e+01 6.652229e+01 5.629403e+01 4.961065e+01 4.291013e+01 6.743945e+01 2.686223e+00 3.052600e+00 3.438829e+00 6.258341e+00 4.749408e+00 4.821948e+00 4.776558e+00 5.976616e+00 5.119929e+00 5.000741e+00 4.330197e+00 3.722563e+00 4.224995e+00 4.650434e-01 5.100172e-01 5.251294e-01 9.975167e-01 7.557525e-01 7.363383e-01 8.417225e-01 9.745852e-01 8.664793e-01 8.377974e-01 7.296371e-01 6.169326e-01 7.315021e-01
<GCONST> 1.381269e+02
<STATE> 3
<MEAN> 39
 -1.028385e-01 -7.593891e+00 -3.966515e+00 -3.939972e-01 -1.101453e+01 -4.982115e+00 -1.356713e+01 -3.513553e+00 3.787259e+00 -2.082696e+00 -2.908655e-01 -5.163159e+00 6.430624e+01 9.032143e-02 3.162501e-02 3.900389e-01 2.154976e-01 -2.680371e-01 7.932652e-02 -4.243463e-01 3.402788e-01 -5.183309e-01 -1.914630e-01 4.194961e-01 2.005291e-01 -3.779888e-01 -5.457541e-02 5.288354e-03 2.560063e-01 -7.560670e-01 5.347450e-02 2.515596e-01 1.270079e-01 2.540267e-01 -5.646688e-01 1.140071e-01 3.016876e-03 -1.949830e-01 1.849720e-01
<VARIANCE> 39
 2.520481e+01 2.964810e+01 6.190936e+01 4.633818e+01 6.167652e+01 4.749648e+01 8.660291e+01 6.149754e+01 6.224517e+01 5.082073e+01 4.287026e+01 3.835146e+01 4.275119e+01 2.519889e+00 2.836937e+00 3.582383e+00 3.493978e+00 4.844838e+00 4.126542e+00 4.608799e+00 5.170160e+00 4.592047e+00 4.390638e+00 3.801238e+00 3.598340e+00 3.149523e+00 5.271667e-01 5.924402e-01 6.207920e-01 8.508713e-01 1.163360e+00 8.698124e-01 9.980769e-01 1.136278e+00 1.024940e+00 9.869958e-01 9.505293e-01 7.074888e-01 6.635424e-01
<GCONST> 1.370053e+02
<STATE> 4
<MEAN> 39
 -1.530463e+00 -6.038313e+00 -1.584766e+00 -3.157013e+00 -9.169591e+00 -5.273014e+00 -1.284820e+01 -1.778144e+00 1.382848e-01 -1.656443e+00 -6.942402e-01 -5.220261e+00 6.074089e+01 -4.875974e-02 1.976931e-01 4.931343e-01 -4.106653e-01 -3.344028e-02 2.598144e-01 7.570171e-02 1.628752e-01 -8.201815e-01 -4.760497e-03 8.855925e-02 -3.532559e-02 -2.625674e-01 -3.297402e-02 5.387039e-03 8.362635e-02 -1.650303e-01 -4.263651e-02 1.326509e-01 1.021708e-01 -9.743526e-03 -9.837127e-02 4.912603e-03 -5.521463e-02 -1.209439e-01 8.713379e-02
<VARIANCE> 39
 4.840334e+01 5.011766e+01 6.725818e+01 4.556068e+01 6.075460e+01 5.591910e+01 8.244690e+01 6.019117e+01 5.547769e+01 4.745412e+01 4.312712e+01 4.027155e+01 1.054728e+02 2.815737e+00 3.562462e+00 3.269234e+00 2.841898e+00 4.408553e+00 3.629246e+00 4.093194e+00 4.553583e+00 4.288663e+00 3.534689e+00 3.467981e+00 2.852990e+00 3.962803e+00 4.967306e-01 4.884147e-01 4.826056e-01 5.867894e-01 7.643505e-01 6.992085e-01 7.881637e-01 7.734210e-01 7.111131e-01 6.685726e-01 6.423452e-01 5.393614e-01 5.018154e-01
<GCONST> 1.344607e+02
<TRANSP> 5
 0.000000e+00 1.000000e+00 0.000000e+00 0.000000e+00 0.000000e+00
 0.000000e+00 4.577910e-01 5.422090e-01 0.000000e+00 0.000000e+00
 0.000000e+00 0.000000e+00 4.213115e-01 5.786886e-01 0.000000e+00
 0.000000e+00 0.000000e+00 0.000000e+00 6.383032e-01 3.616968e-01
 0.000000e+00 0.000000e+00 0.000000e+00 0.000000e+00 0.000000e+00
<ENDHMM>
~h "s"
<BEGINHMM>
<NUMSTATES> 5
<STATE> 2
<MEAN> 39
 -1.162841e+01 3.783130e+00 3.808590e-01 -3.435761e+00 -1.504573e+00 -7.396157e+00 -6.388468e+00 -2.283532e+00 -2.778672e+00 -2.101616e+00 -4.275576e+00 -2.111759e+00 6.295399e+01 -4.447498e+00 2.306691e+00 -1.166276e+00 1.154566e+00 1.688360e+00 -1.036576e-01 1.759283e+00 5.130368e-01 4.363942e-01 -5.926821e-01 4.825968e-01 8.559500e-01 -6.087457e-01 -4.271392e-01 -4.927677e-01 -3.369806e-01 -2.817794e-01 -4.223515e-01 3.202345e-01 -2.017447e-01 3.228116e-02 -2.478245e-02 1.410380e-02 3.155789e-01 -2.220644e-01 -2.333532e-02
<VARIANCE> 39
 7.600391e+01 5.244791e+01 5.306368e+01 4.935598e+01 5.656266e+01 4.771645e+01 8.238306e+01 4.751317e+01 5.415866e+01 4.307832e+01 4.681406e+01 2.978186e+01 6.491418e+01 3.992987e+00 5.687077e+00 4.404990e+00 4.698590e+00 5.412870e+00 5.273554e+00 5.280069e+00 5.423151e+00 4.744541e+00 3.793535e+00 4.105799e+00 2.935961e+00 2.069864e+00 1.068318e+00 8.687037e-01 4.547968e-01 6.682745e-01 7.737394e-01 7.750165e-01 9.585606e-01 7.686791e-01 6.846904e-01 6.949526e-01 6.090586e-01 5.019515e-01 2.204660e-01
<GCONST> 1.366233e+02
<STATE> 3
<MEAN> 39
 -2.897428e+01 5.549296e+00 -7.339598e+00 -2.674988e+00 1.552792e-02 -6.337871e+00 -2.604604e+00 -1.015723e+00 -1.393306e+00 -2.901582e+00 -1.696036e-01 1.223808e-01 6.029918e+01 -6.827196e-01 -5.546671e-01 -5.207511e-01 -2.532066e-01 -3.079683e-01 -6.647036e-02 -3.655903e-02 -3.915300e-02 1.266095e-01 3.862761e-02 1.928659e-01 1.221197e-01 -3.241447e-01 1.008341e+00 -2.413743e-01 4.054014e-01 -1.169425e-01 -2.114138e-01 -8.042282e-02 -3.075331e-01 -1.428087e-01 -3.948937e-02 1.935233e-02 -1.734060e-01 -1.684544e-01 1.011076e-01
<VARIANCE> 39
 2.455879e+01 2.179954e+01 3.838497e+01 3.581945e+01 2.992190e+01 3.949822e+01 4.865858e+01 3.160427e+01 3.034810e+01 2.597470e+01 2.571093e+01 1.942555e+01 3.131636e+01 4.002631e+00 1.751369e+00 2.446019e+00 1.561780e+00 1.914959e+00 1.995620e+00 2.178021e+00 2.164909e+00 1.985555e+00 1.811524e+00 1.772645e+00 1.559124e+00 9.559310e-01 5.090697e-01 3.712145e-01 3.899736e-01 3.812007e-01 4.457588e-01 4.510882e-01 5.490102e-01 4.983709e-01 4.195067e-01 3.932834e-01 3.614592e-01 3.534115e-01 1.879927e-01
<GCONST> 1.123541e+02
<STATE> 4
<MEAN> 39
 -1.868652e+01 3.004626e-01 -5.074970e+00 -3.513811e+00 -3.012385e+00 -6.293943e+00 -5.406449e+00 -2.059933e+00 -1.602705e+00 -2.765134e+00 -2.102780e+00 -1.132383e+00 5.239505e+01 2.734926e+00 -4.368597e-01 9.811131e-01 -3.694843e-01 -6.392272e-01 6.661437e-02 -1.128979e+00 -5.056286e-01 -1.589590e-01 8.367074e-02 -2.956250e-01 -7.856491e-01 3.490945e-01 3.640102e-01 -2.199012e-02 2.027211e-01 -1.073758e-01 -6.421300e-02 2.030278e-01 -1.671512e-01 8.580847e-03 -1.083699e-01 5.925351e-02 9.384312e-02 -1.269488e-01 2.338166e-01
<VARIANCE> 39
 7.253722e+01 3.868448e+01 4.452264e+01 3.379304e+01 3.399172e+01 4.174800e+01 5.355785e+01 3.637779e+01 3.481399e+01 3.351942e+01 2.753892e+01 2.506308e+01 1.318531e+02 1.076726e+01 3.452092e+00 4.922256e+00 3.777641e+00 3.482084e+00 3.693381e+00 4.905679e+00 3.961468e+00 3.401172e+00 2.965152e+00 2.749117e+00 2.835661e+00 5.332407e+00 9.954705e-01 5.300133e-01 5.658363e-01 5.346004e-01 5.347463e-01 6.197078e-01 7.773099e-01 6.616814e-01 5.736405e-01 5.462425e-01 5.058919e-01 4.498025e-01 6.004285e-01
<GCONST> 1.315889e+02
<TRANSP> 5
 0.000000e+00 1.000000e+00 0.000000e+00 0.000000e+00 0.000000e+00
 0.000000e+00 7.012769e-01 2.987231e-01 0.000000e+00 0.000000e+00
 0.000000e+00 0.000000e+00 8.422969e-01 1.577031e-01 0.000000e+00
 0.000000e+00 0.000000e+00 0.000000e+00 7.917666e-01 2.082334e-01
 0.000000e+00 0.000000e+00 0.000000e+00 0.000000e+00 0.000000e+00
<ENDHMM>
~h "t"
<BEGINHMM>
<NUMSTATES> 5
<STATE> 2
<MEAN> 39
 -6.777519e+00 1.698144e+00 -1.430314e+00 -3.371480e+00 -5.267719e+00 -4.769215e+00 -7.161823e+00 -4.350892e+00 -2.095941e+00 -1.907714e+00 -3.882147e+00 -5.625467e+00 4.243327e+01 -8.070377e-01 1.216888e-01 -2.587880e-01 2.470230e-01 1.227184e-01 2.621763e-02 4.751638e-01 3.503920e-02 -4.545199e-02 -1.791168e-01 2.186883e-02 3.919292e-01 -1.740726e+00 -1.775791e-01 -4.515958e-01 -5.018489e-02 -2.458375e-01 -4.074572e-02 -1.969638e-02 -7.269987e-02 7.233372e-02 -6.552598e-03 -1.638097e-02 1.120607e-01 8.473772e-02 8.994098e-01
<VARIANCE> 39
 3.601828e+01 3.276613e+01 4.222082e+01 3.490278e+01 3.259587e+01 3.384683e+01 4.591324e+01 3.692456e+01 3.952196e+01 3.279688e+01 3.420564e+01 3.436687e+01 8.708398e+01 2.177512e+00 3.165981e+00 2.307835e+00 2.634846e+00 2.899933e+00 2.576666e+00 2.983949e+00 2.810794e+00 2.846691e+00 2.575635e+00 2.478446e+00 2.314566e+00 7.800787e+00 3.804310e-01 6.105753e-01 4.275681e-01 5.427188e-01 5.712283e-01 5.513445e-01 5.852226e-01 5.886846e-01 5.617040e-01 5.233413e-01 5.040241e-01 4.581817e-01 1.442526e+00
<GCONST> 1.253932e+02
<STATE> 3
<MEAN> 39
 -1.150789e+01 -1.303119e-01 -1.620040e+00 -2.923750e+00 -4.454200e+00 -5.358336e+00 -5.724803e+00 -4.196187e+00 -2.430473e+00 -2.301844e+00 -2.730304e+00 -2.955859e+00 4.326968e+01 -1.428351e+00 -2.075550e+00 -6.748126e-01 -1.134884e+00 3.106511e-01 -5.703725e-01 -5.005492e-02 1.831438e-01 1.936044e-01 -3.678854e-01 3.206554e-01 5.347559e-01 4.908025e+00 8.646727e-01 -1.501251e-01 2.206402e-01 -4.753031e-01 -3.822829e-01 9.355700e-02 -6.581162e-01 -8.459195e-03 1.048514e-01 1.011793e-01 5.348043e-02 -5.660947e-01 1.648526e+00
<VARIANCE> 39
 3.840600e+01 3.978759e+01 3.600241e+01 3.519213e+01 3.420291e+01 3.853079e+01 4.426133e+01 3.353218e+01 3.271753e+01 2.613813e+01 2.896219e+01 2.405340e+01 1.061420e+02 4.606595e+00 4.239721e+00 4.775406e+00 4.340333e+00 4.446620e+00 4.430357e+00 4.671139e+00 4.636111e+00 5.072966e+00 3.366692e+00 3.878255e+00 3.603888e+00 1.440207e+01 7.406977e-01 7.956539e-01 9.122457e-01 7.745007e-01 8.405399e-01 9.071656e-01 8.461812e-01 9.189462e-01 9.509048e-01 6.719594e-01 7.000663e-01 6.805025e-01 1.902344e+00
<GCONST> 1.368589e+02
<STATE> 4
<MEAN> 39
 -1.180577e+01 -5.326892e+00 -3.278558e+00 -7.475475e+00 -5.450450e+00 -7.693160e+00 -8.284496e+00 -4.074410e+00 -1.421277e+00 -2.966726e+00 -2.737606e+00 -3.766272e+00 6.127424e+01 2.040597e+00 -9.468994e-01 6.121485e-01 -1.604590e+00 -8.671659e-01 4.198293e-01 -2.013007e+00 2.034000e-01 2.999699e-01 3.156825e-01 4.407650e-01 -1.307611e+00 5.492706e+00 9.919118e-01 4.869023e-01 4.749049e-01 6.848559e-02 -3.704491e-01 6.682155e-01 -3.470821e-01 5.936681e-02 -2.027721e-01 2.058712e-01 1.381643e-01 -3.984415e-01 -1.072669e+00
<VARIANCE> 39
 4.265676e+01 2.979303e+01 3.932541e+01 3.670546e+01 3.203251e+01 3.805495e+01 5.236877e+01 3.144808e+01 3.790604e+01 3.003294e+01 3.106746e+01 3.202596e+01 7.300431e+01 5.259378e+00 5.221540e+00 7.707984e+00 6.119652e+00 5.343974e+00 5.918245e+00 6.251051e+00 6.711150e+00 6.897898e+00 4.246088e+00 4.979538e+00 4.848153e+00 1.337352e+01 9.037241e-01 8.042731e-01 1.002987e+00 8.144104e-01 9.429493e-01 1.017811e+00 1.223909e+00 9.976673e-01 9.757081e-01 8.095635e-01 8.713183e-01 7.756934e-01 1.483245e+00
<GCONST> 1.417579e+02
<TRANSP> 5
 0.000000e+00 1.000000e+00 0.000000e+00 0.000000e+00 0.000000e+00
 0.000000e+00 8.222155e-01 1.777845e-01 0.000000e+00 0.000000e+00
 0.000000e+00 0.000000e+00 4.876576e-01 5.123424e-01 0.000000e+00
 0.000000e+00 0.000000e+00 0.000000e+00 4.721482e-01 5.278518e-01
 0.000000e+00 0.000000e+00 0.000000e+00 0.000000e+00 0.000000e+00
<ENDHMM>
~h "u"
<BEGINHMM>
<NUMSTATES> 5
<STATE> 2
<MEAN> 39
 -4.971629e-01 1.311785e+00 8.078901e-02 -8.433076e+00 -1.045136e+01 -7.586678e-01 -1.640093e+01 -7.189445e+00 -6.307259e+00 -2.647247e+00 1.719014e+00 -4.453287e+00 6.084980e+01 1.975686e+00 6.265755e-01 -5.762513e-02 -2.084755e+00 -1.578191e+00 2.150691e+00 -1.529180e+00 -6.291001e-01 -1.071889e+00 -6.478067e-02 1.687358e+00 -2.011853e-01 1.088701e+00 -3.367231e-01 4.171826e-02 3.593096e-02 -4.136778e-02 1.112558e-01 1.861671e-01 4.612388e-01 1.255895e-01 6.609362e-04 -1.954964e-02 -1.069882e-01 4.640141e-02 -4.151428e-01
<VARIANCE> 39
 3.213282e+01 4.529887e+01 5.727209e+01 9.714778e+01 5.133369e+01 6.168716e+01 9.389655e+01 6.867055e+01 6.770689e+01 5.266959e+01 5.150947e+01 3.763797e+01 9.594866e+01 5.130131e+00 3.602639e+00 5.440667e+00 5.908598e+00 5.974878e+00 5.821967e+00 6.225254e+00 7.123763e+00 6.585782e+00 5.188142e+00 4.794603e+00 4.209423e+00 5.032542e+00 7.834920e-01 6.426788e-01 7.184342e-01 1.135144e+00 9.050041e-01 8.850558e-01 1.370731e+00 1.122495e+00 1.027924e+00 8.268485e-01 8.130589e-01 7.204841e-01 1.122893e+00
<GCONST> 1.453470e+02
<STATE> 3
<MEAN> 39
 2.600812e+00 1.942403e+00 -1.468990e+00 -1.384300e+01 -1.434414e+01 7.790612e+00 -1.901103e+01 -9.563005e+00 -9.017537e+00 -4.197254e+00 6.710001e+00 -3.748175e+00 6.480210e+01 1.778819e-01 -3.170203e-02 -1.589587e-02 -1.713150e-01 5.914402e-02 3.739361e-01 9.924575e-03 -1.319562e-01 -2.144247e-03 2.061862e-01 2.371121e-01 -6.047992e-02 -6.354526e-02 -3.957812e-01 -8.401221e-02 1.397268e-01 7.889197e-01 5.886862e-01 -8.916348e-01 5.453010e-01 2.698180e-01 4.846574e-01 8.346263e-02 -7.601463e-01 -9.378923e-02 -4.706308e-01
<VARIANCE> 39
 1.253268e+01 4.537431e+01 3.622088e+01 7.848426e+01 4.129787e+01 5.690481e+01 8.107458e+01 9.562750e+01 8.608803e+01 7.030208e+01 5.287432e+01 4.432549e+01 2.662305e+01 9.140427e-01 3.394349e+00 2.194290e+00 7.363607e+00 4.280930e+00 5.671142e+00 5.545486e+00 5.822093e+00 5.320187e+00 5.223669e+00 4.664136e+00 3.334805e+00 2.768082e+00 3.252583e-01 4.922894e-01 5.168399e-01 8.489760e-01 7.950746e-01 7.547052e-01 1.020166e+00 1.186640e+00 9.726738e-01 1.046500e+00 8.632564e-01 7.681761e-01 3.694148e-01
<GCONST> 1.357424e+02
<STATE> 4
<MEAN> 39
 2.799925e+00 3.837252e+00 -1.094600e+00 -1.356706e+01 -1.156152e+01 3.016725e+00 -1.637972e+01 -7.202525e+00 -7.775298e+00 -3.334744e+00 2.349363e+00 -4.357449e+00 5.987790e+01 -3.374301e-01 2.597286e-02 2.631157e-01 1.065750e+00 6.342435e-01 -9.127079e-01 8.338719e-01 8.706810e-02 5.982408e-01 1.250118e-01 -8.540982e-01 -1.739163e-01 -1.028210e+00 -2.127973e-01 -5.526566e-02 9.350559e-02 2.430665e-01 7.727426e-02 -1.006151e-01 1.065274e-01 -1.950146e-02 9.454808e-02 -1.316333e-02 -1.080625e-01 2.312390e-02 -9.304737e-02
<VARIANCE> 39
 1.705371e+01 5.460397e+01 4.480360e+01 9.104236e+01 4.675517e+01 6.040972e+01 8.461435e+01 7.726878e+01 7.692059e+01 6.254903e+01 5.055173e+01 4.523755e+01 6.748747e+01 1.115426e+00 2.448129e+00 2.344370e+00 4.094481e+00 3.520253e+00 3.603890e+00 3.961937e+00 3.974964e+00 3.689135e+00 3.407168e+00 3.627157e+00 3.153456e+00 3.527595e+00 2.218162e-01 4.104528e-01 3.433419e-01 6.400306e-01 5.673314e-01 5.685450e-01 7.589937e-01 6.947055e-01 6.179846e-01 6.450164e-01 5.854321e-01 5.269855e-01 3.869298e-01
<GCONST> 1.300483e+02
<TRANSP> 5
 0.000000e+00 1.000000e+00 0.000000e+00 0.000000e+00 0.000000e+00
 0.000000e+00 5.270245e-01 4.729755e-01 0.000000e+00 0.000000e+00
 0.000000e+00 0.000000e+00 6.551959e-01 3.448041e-01 0.000000e+00
 0.000000e+00 0.000000e+00 0.000000e+00 7.334559e-01 2.665441e-01
 0.000000e+00 0.000000e+00 0.000000e+00 0.000000e+00 0.000000e+00
<ENDHMM>
~h "w"
<BEGINHMM>
<NUMSTATES> 5
<STATE> 2
<MEAN> 39
 1.536666e+00 -9.713203e-01 -1.807885e+00 -1.314880e+01 -8.853341e+00 3.401548e+00 -1.108182e+01 -3.357739e+00 -7.418561e+00 -2.435628e+00 2.186132e+00 -6.393780e+00 5.942991e+01 1.089906e+00 8.416228e-01 5.722689e-02 -1.523831e+00 -9.419404e-01 1.033776e+00 -1.481994e-01 -5.312071e-02 -8.771183e-01 -4.603394e-01 7.643936e-01 5.286586e-01 1.794473e-01 -1.767229e-01 -1.602414e-01 1.126095e-01 1.413617e-02 -1.413112e-01 -1.034077e-01 1.001503e-01 1.626001e-01 1.400423e-01 -1.457269e-01 -6.382933e-02 1.467361e-02 7.244843e-02
<VARIANCE> 39
 4.111251e+01 8.274142e+01 5.479716e+01 9.317039e+01 5.772900e+01 7.045617e+01 9.565074e+01 7.423199e+01 8.432967e+01 4.818232e+01 5.489053e+01 5.204857e+01 1.382364e+02 2.692897e+00 3.596697e+00 3.282054e+00 4.389239e+00 4.445873e+00 4.389680e+00 4.544318e+00 4.553630e+00 4.509018e+00 3.458281e+00 3.718854e+00 3.592467e+00 4.244280e+00 4.738679e-01 5.099239e-01 4.671564e-01 6.757162e-01 7.117018e-01 7.037240e-01 8.427171e-01 7.678954e-01 8.315284e-01 6.732203e-01 7.139609e-01 5.861031e-01 3.936704e-01
<GCONST> 1.383625e+02
<STATE> 3
<MEAN> 39
 5.330412e+00 4.688715e-01 -2.467193e+00 -2.208028e+01 -1.603642e+01 9.058447e+00 -1.288731e+01 -3.991495e+00 -6.250134e+00 -5.692503e+00 6.631666e+00 -3.370709e+00 6.355746e+01 -2.062005e-01 -7.684875e-01 -3.922861e-01 -3.847407e-01 1.442085e-01 4.889533e-01 -1.540907e-02 -2.044166e-01 5.642503e-01 2.757790e-01 5.660075e-01 -3.552602e-01 7.268045e-01 -2.955746e-01 -4.948260e-01 -1.508855e-01 4.406144e-01 5.063879e-01 -2.012410e-01 -3.569753e-02 -3.010757e-02 3.640160e-01 3.266131e-01 -1.786006e-01 -5.236381e-01 2.600805e-01
<VARIANCE> 39
 1.143586e+01 4.412240e+01 3.508632e+01 5.830472e+01 3.068664e+01 4.182491e+01 6.903582e+01 8.353025e+01 7.152872e+01 4.239102e+01 5.191376e+01 4.107899e+01 2.921599e+01 6.742224e-01 3.691337e+00 1.685668e+00 2.327849e+00 3.206699e+00 2.485223e+00 2.140654e+00 2.427964e+00 2.937929e+00 3.489097e+00 2.913918e+00 3.360089e+00 2.238212e+00 7.087761e-02 2.209792e-01 2.595430e-01 3.204952e-01 3.763338e-01 5.307887e-01 3.834348e-01 5.238499e-01 4.772897e-01 4.649651e-01 6.977983e-01 4.775596e-01 1.727895e-01
<GCONST> 1.175966e+02
<STATE> 4
<MEAN> 39
 3.146159e+00 -5.397059e+00 -5.456993e+00 -2.136747e+01 -1.063820e+01 9.428285e+00 -1.358539e+01 -3.418560e+00 -3.020867e+00 -2.641700e+00 5.819853e+00 -9.549125e+00 6.755843e+01 -5.728589e-01 -1.104082e+00 -2.048860e-01 9.140295e-01 9.964882e-01 -4.926798e-01 -4.622246e-02 1.975766e-01 8.182105e-01 2.779955e-01 -9.276893e-01 -1.287130e+00 5.854940e-01 6.519538e-03 1.682581e-01 2.186354e-01 2.022084e-01 -1.418807e-01 -3.551698e-01 2.083023e-02 2.105508e-01 -8.896197e-02 -1.810443e-01 -3.063246e-01 1.994043e-01 -1.741304e-01
<VARIANCE> 39
 1.521037e+01 8.182424e+01 5.363877e+01 6.707236e+01 4.912718e+01 4.913461e+01 5.784304e+01 5.461610e+01 7.249818e+01 5.164669e+01 6.178175e+01 5.680374e+01 3.804309e+01 4.857485e-01 2.023903e+00 1.048954e+00 2.026684e+00 2.593350e+00 2.476347e+00 1.745070e+00 2.093942e+00 2.344115e+00 1.997182e+00 2.459102e+00 3.324806e+00 9.513286e-01 5.672891e-02 1.851501e-01 1.755916e-01 2.331557e-01 3.366624e-01 3.655596e-01 2.899173e-01 3.901116e-01 2.939266e-01 3.994018e-01 4.315176e-01 3.995272e-01 1.007404e-01
<GCONST> 1.121349e+02
<TRANSP> 5
 0.000000e+00 1.000000e+00 0.000000e+00 0.000000e+00 0.000000e+00
 0.000000e+00 7.370983e-01 2.629017e-01 0.000000e+00 0.000000e+00
 0.000000e+00 0.000000e+00 7.809453e-01 2.190547e-01 0.000000e+00
 0.000000e+00 0.000000e+00 0.000000e+00 7.429135e-01 2.570865e-01
 0.000000e+00 0.000000e+00 0.000000e+00 0.000000e+00 0.000000e+00
<ENDHMM>
~h "y"
<BEGINHMM>
<NUMSTATES> 5
<STATE> 2
<MEAN> 39
 -5.355015e+00 -3.042511e+00 1.226228e+01 -8.118550e+00 -1.528248e+01 -6.474732e+00 -1.175676e+01 8.570353e-01 -7.403794e+00 -3.424439e+00 1.041090e+00 -3.964545e+00 6.334319e+01 -2.911054e-01 1.017295e+00 2.735785e+00 -5.728643e-02 -1.739529e+00 -1.471909e-01 -1.107221e+00 -7.249805e-01 -1.471833e+00 5.575863e-02 1.605903e+00 5.112986e-01 5.825101e-01 9.307783e-03 -9.754289e-02 -3.360413e-01 -3.207305e-02 1.979494e-01 2.165204e-01 -1.039895e-01 -2.083373e-01 1.213647e-01 -5.248454e-03 -6.070329e-02 -1.486632e-01 2.766061e-02
<VARIANCE> 39
 2.529114e+01 8.216163e+01 8.266231e+01 5.163750e+01 5.828543e+01 5.123974e+01 6.059654e+01 8.330796e+01 7.244279e+01 7.153982e+01 5.676085e+01 3.072058e+01 1.245072e+02 1.809145e+00 2.933187e+00 3.293460e+00 2.859919e+00 3.807234e+00 3.325041e+00 4.356863e+00 4.334317e+00 3.971967e+00 4.474399e+00 2.929782e+00 3.009556e+00 4.062122e+00 2.290785e-01 4.336033e-01 7.189196e-01 4.889499e-01 7.209517e-01 6.593953e-01 6.991949e-01 7.701307e-01 6.478724e-01 6.489532e-01 5.531600e-01 4.675234e-01 3.277774e-01
<GCONST> 1.328379e+02
<STATE> 3
<MEAN> 39
 -6.539290e+00 -1.236616e+00 1.872531e+01 -8.647533e+00 -2.093040e+01 -6.464351e+00 -1.662431e+01 -2.863245e+00 -1.085274e+01 -2.776255e+00 5.989464e+00 -3.214620e+00 6.730339e+01 1.983731e-01 -8.108900e-01 -8.042502e-01 -2.150649e-01 -5.393538e-01 -5.119717e-01 2.817471e-01 7.844256e-01 6.022493e-01 4.114859e-01 8.385029e-02 1.332726e-01 7.070643e-01 1.452299e-01 -3.576658e-01 -7.022121e-01 -5.070508e-02 3.422301e-01 -5.261627e-02 3.769449e-01 4.939492e-01 4.605683e-01 -1.783195e-02 -4.441591e-01 -1.473333e-01 5.216084e-02
<VARIANCE> 39
 1.117802e+01 3.752745e+01 4.409861e+01 4.106262e+01 3.189056e+01 3.518416e+01 3.489471e+01 5.584818e+01 6.963970e+01 9.612325e+01 5.607859e+01 3.122156e+01 3.022895e+01 5.007110e-01 2.527091e+00 3.130088e+00 1.258559e+00 1.941868e+00 1.891446e+00 2.587885e+00 4.158933e+00 2.752300e+00 2.307502e+00 1.738353e+00 1.469707e+00 1.207846e+00 7.052816e-02 1.905266e-01 2.694742e-01 2.102976e-01 5.438940e-01 3.710018e-01 4.220199e-01 4.276926e-01 3.784420e-01 5.381626e-01 4.056650e-01 3.403960e-01 1.226327e-01
<GCONST> 1.115976e+02
<STATE> 4
<MEAN> 39
 -4.279628e+00 -9.314043e+00 6.802234e+00 -1.111372e+01 -1.925918e+01 -9.141552e+00 -1.016476e+01 7.033232e+00 -3.301492e+00 -2.126861e+00 2.040194e-01 -3.610811e+00 7.159535e+01 4.915000e-01 -1.349602e+00 -2.650312e+00 -1.531541e-01 2.099530e+00 5.888044e-01 8.589432e-01 1.329211e+00 1.552896e+00 -1.059474e+00 -2.227095e+00 -1.035812e+00 4.129984e-01 2.410839e-02 2.526983e-01 1.043084e-01 6.962483e-02 5.217159e-01 4.635702e-01 -3.673222e-01 -6.752681e-01 -2.307566e-01 -9.286983e-02 -7.285484e-02 -2.516637e-01 -2.783563e-01
<VARIANCE> 39
 9.553590e+00 3.610242e+01 5.842894e+01 4.217266e+01 3.914193e+01 2.621058e+01 5.389823e+01 5.640906e+01 6.112349e+01 5.946508e+01 5.680301e+01 2.661720e+01 3.995752e+01 4.260855e-01 1.289010e+00 2.387476e+00 1.256932e+00 2.675481e+00 1.877953e+00 3.046290e+00 3.412517e+00 2.832785e+00 3.339098e+00 2.762398e+00 2.078861e+00 5.610550e-01 5.578362e-02 1.601331e-01 2.496538e-01 2.295235e-01 4.838907e-01 4.452243e-01 3.736329e-01 5.254702e-01 4.048232e-01 5.058489e-01 5.029158e-01 2.937187e-01 7.775077e-02
<GCONST> 1.105697e+02
<TRANSP> 5
 0.000000e+00 1.000000e+00 0.000000e+00 0.000000e+00 0.000000e+00
 0.000000e+00 7.304682e-01 2.695318e-01 0.000000e+00 0.000000e+00
 0.000000e+00 0.000000e+00 8.183637e-01 1.816363e-01 0.000000e+00
 0.000000e+00 0.000000e+00 0.000000e+00 6.857361e-01 3.142640e-01
 0.000000e+00 0.000000e+00 0.000000e+00 0.000000e+00 0.000000e+00
<ENDHMM>
~h "z"
<BEGINHMM>
<NUMSTATES> 5
<STATE> 2
<MEAN> 39
 -7.131641e+00 5.864166e+00 3.409750e+00 -7.844101e-01 -5.265471e+00 -1.102864e+01 -1.226805e+01 -5.583378e+00 -3.292584e+00 -2.120583e+00 -4.631753e+00 -6.018882e-01 6.283655e+01 -1.972676e+00 2.673694e+00 -1.066452e+00 1.411549e+00 1.500928e+00 -4.328379e-01 1.292573e+00 -2.725281e-01 1.545758e-01 -3.294285e-01 -3.352298e-01 7.759503e-01 -7.518391e-01 -2.747909e-01 -9.567921e-02 -1.441815e-01 -1.630034e-01 -9.235615e-02 4.604426e-01 1.671527e-01 1.588509e-01 9.389905e-02 1.618616e-02 2.226959e-01 -2.419781e-01 -8.054753e-03
<VARIANCE> 39
 3.904600e+01 5.352974e+01 6.234671e+01 5.434336e+01 6.597282e+01 4.303560e+01 7.741053e+01 4.813614e+01 5.838375e+01 4.476490e+01 4.129634e+01 2.594268e+01 5.011012e+01 3.193048e+00 4.809431e+00 3.631265e+00 4.147801e+00 5.050242e+00 3.927422e+00 5.230373e+00 5.135798e+00 3.865644e+00 3.637583e+00 3.535716e+00 2.445074e+00 1.719930e+00 3.822531e-01 6.530548e-01 4.783171e-01 4.985916e-01 6.560767e-01 5.802275e-01 8.804151e-01 6.674125e-01 5.361562e-01 6.099176e-01 5.717170e-01 4.221251e-01 1.946439e-01
<GCONST> 1.309539e+02
<STATE> 3
<MEAN> 39
 -1.781231e+01 1.466209e+01 -2.578401e-01 3.936490e+00 -1.253221e-02 -9.326366e+00 -7.261415e+00 -3.881179e+00 -2.544216e+00 -2.776267e+00 -3.184082e+00 3.983755e-01 6.116557e+01 -9.744233e-01 -1.150463e-01 -1.696273e-02 1.473468e-01 1.898953e-01 2.707962e-01 3.226715e-01 2.283358e-01 2.359674e-02 -2.288283e-02 3.447733e-01 1.257488e-01 2.370171e-02 5.936661e-01 -6.526032e-01 2.844527e-01 -2.946763e-01 -4.506259e-01 -1.228983e-01 -3.936436e-01 -1.138072e-01 -2.255141e-02 -2.972480e-02 6.557277e-02 -6.368535e-02 2.603408e-01
<VARIANCE> 39
 4.006503e+01 2.132090e+01 3.856630e+01 3.586428e+01 3.680690e+01 3.697227e+01 5.214251e+01 2.822682e+01 2.676317e+01 2.747696e+01 2.251202e+01 1.903382e+01 2.631879e+01 2.446337e+00 2.644467e+00 1.705771e+00 1.538522e+00 2.244518e+00 2.339680e+00 2.546777e+00 1.966094e+00 1.995783e+00 1.801423e+00 1.576051e+00 1.326996e+00 1.061718e+00 3.949928e-01 4.349550e-01 3.178585e-01 3.709988e-01 4.760491e-01 4.734535e-01 5.156329e-01 4.652791e-01 4.612077e-01 3.854431e-01 3.447209e-01 2.960182e-01 1.737169e-01
<GCONST> 1.117027e+02
<STATE> 4
<MEAN> 39
 -1.550802e+01 2.764654e+00 -1.167140e+00 -9.873156e-01 -3.022235e+00 -6.725306e+00 -6.225796e+00 -2.714002e+00 -3.871273e+00 -3.680475e+00 -2.751481e+00 -5.943846e-01 4.861843e+01 8.533038e-01 -6.291848e-01 3.952484e-01 -3.740907e-01 -7.854355e-01 -2.307554e-01 -6.671302e-01 -1.483457e-01 9.376945e-02 6.807000e-03 1.808080e-01 -9.555134e-02 4.616743e-01 2.132380e-01 -9.881290e-02 6.777383e-02 -1.032433e-01 -1.490018e-01 1.074453e-01 -1.339622e-01 3.736290e-02 2.031139e-02 1.792512e-02 1.065360e-02 -1.173838e-01 7.482169e-02
<VARIANCE> 39
 4.361050e+01 5.565923e+01 4.055708e+01 4.179497e+01 2.757446e+01 3.895695e+01 4.112930e+01 3.202988e+01 2.906045e+01 2.443409e+01 2.235657e+01 2.147228e+01 1.754718e+02 3.875296e+00 3.357965e+00 2.228864e+00 2.638912e+00 3.551744e+00 2.417747e+00 3.633249e+00 2.702075e+00 2.524107e+00 2.108370e+00 1.797158e+00 1.560627e+00 2.122475e+00 3.995142e-01 3.455039e-01 3.511080e-01 4.035556e-01 4.519405e-01 4.935626e-01 5.258938e-01 4.972928e-01 4.219736e-01 4.116707e-01 3.501207e-01 3.374099e-01 2.042161e-01
<GCONST> 1.189538e+02
<TRANSP> 5
 0.000000e+00 1.000000e+00 0.000000e+00 0.000000e+00 0.000000e+00
 0.000000e+00 7.138324e-01 2.861677e-01 0.000000e+00 0.000000e+00
 0.000000e+00 0.000000e+00 8.211989e-01 1.788011e-01 0.000000e+00
 0.000000e+00 0.000000e+00 0.000000e+00 8.589395e-01 1.410605e-01
 0.000000e+00 0.000000e+00 0.000000e+00 0.000000e+00 0.000000e+00
<ENDHMM>
~h "ai"
<BEGINHMM>
<NUMSTATES> 5
<STATE> 2
<MEAN> 39
 -1.667764e+00 -1.448412e+01 -3.105097e+00 -1.225535e+01 -8.331196e+00 -2.584955e+00 -1.190311e+01 5.280279e+00 2.744343e+00 -5.499125e+00 -3.678876e+00 -1.088882e+01 7.332994e+01 -3.136082e-01 -7.899762e-01 1.046762e+00 5.938595e-02 -1.128028e+00 -1.227346e+00 9.246721e-01 1.799848e+00 -2.400983e-01 -7.531680e-01 -4.400877e-01 7.028247e-01 6.305383e-01 -2.194490e-01 6.459243e-01 4.068879e-01 2.268759e-01 -3.546628e-01 -2.000244e-01 1.195595e-01 -4.111360e-01 -5.434490e-01 2.361331e-01 3.731914e-01 5.307820e-01 -5.145192e-01
<VARIANCE> 39
 1.022511e+01 2.763860e+01 5.639137e+01 3.924938e+01 4.959073e+01 5.064811e+01 7.730907e+01 6.963693e+01 5.768427e+01 5.924381e+01 5.660626e+01 4.065957e+01 1.949169e+01 8.858246e-01 2.146927e+00 2.167829e+00 2.252092e+00 3.462400e+00 3.667272e+00 2.958998e+00 3.510998e+00 2.860163e+00 2.569693e+00 3.024944e+00 3.020234e+00 1.051457e+00 2.887565e-01 2.405524e-01 3.335017e-01 4.218871e-01 5.570548e-01 5.550806e-01 5.801848e-01 7.274026e-01 5.809970e-01 5.765439e-01 6.979305e-01 5.397901e-01 2.327686e-01
<GCONST> 1.214667e+02
<STATE> 3
<MEAN> 39
 -3.951557e+00 -1.183886e+01 6.645474e+00 -1.158755e+01 -1.917415e+01 -9.491490e+00 -8.617615e+00 8.378134e+00 -3.481239e+00 -2.661251e+00 1.103715e+00 -4.086965e+00 7.237117e+01 -4.635038e-01 1.314839e+00 2.029926e+00 -1.071316e-03 -1.774702e+00 -4.067345e-01 -2.948411e-01 -1.122675e+00 -1.593464e+00 1.173171e+00 1.487846e+00 6.936082e-01 -5.085166e-01 2.546162e-02 2.757012e-01 -8.757968e-02 9.114368e-02 4.379278e-01 3.119950e-01 -3.631948e-01 -6.035438e-01 3.103192e-04 2.599393e-02 -1.147749e-01 -2.482063e-01 -2.447471e-01
<VARIANCE> 39
 8.247803e+00 3.121215e+01 4.679134e+01 3.712458e+01 3.609187e+01 2.650633e+01 5.459135e+01 4.202676e+01 5.432846e+01 5.916227e+01 5.822669e+01 2.670448e+01 1.715613e+01 2.976995e-01 1.130618e+00 1.491430e+00 1.075428e+00 2.096697e+00 1.694589e+00 2.391901e+00 2.724815e+00 2.438529e+00 2.111883e+00 2.103239e+00 1.710388e+00 3.686790e-01 6.158865e-02 1.740329e-01 2.293242e-01 1.984002e-01 3.587603e-01 3.171799e-01 4.003403e-01 4.581434e-01 3.597573e-01 4.278281e-01 4.733654e-01 2.859289e-01 8.262862e-02
<GCONST> 1.041437e+02
<STATE> 4
<MEAN> 39
 -5.048250e+00 -2.732431e+00 1.400450e+01 -8.720244e+00 -2.115983e+01 -8.208345e+00 -1.327660e+01 -1.279143e+00 -9.150275e+00 -1.479442e-01 3.627838e+00 -4.431146e+00 6.529792e+01 1.397890e-01 8.735898e-01 -7.188535e-02 6.121618e-01 7.152492e-01 1.874272e-01 3.526269e-02 -7.575457e-01 -8.269154e-02 -1.409575e-01 -4.802290e-01 -1.524174e-01 -1.442610e+00 5.311095e-02 -5.239367e-02 -3.794965e-01 1.056035e-01 3.390249e-01 6.169036e-02 1.923767e-01 1.549739e-01 2.409262e-01 -1.121921e-01 -2.080804e-01 -3.060959e-02 -1.528160e-01
<VARIANCE> 39
 1.689376e+01 4.923277e+01 4.702889e+01 4.166338e+01 3.381367e+01 4.021863e+01 5.033057e+01 6.963405e+01 5.239832e+01 6.169831e+01 5.544709e+01 3.430800e+01 5.993039e+01 9.389814e-01 1.863561e+00 2.551821e+00 1.977260e+00 2.518291e+00 2.080111e+00 3.039152e+00 3.229136e+00 2.604664e+00 2.270231e+00 2.235388e+00 1.653089e+00 2.466230e+00 1.810943e-01 2.763610e-01 3.220595e-01 3.085962e-01 4.807912e-01 3.974508e-01 5.178989e-01 5.229878e-01 4.825260e-01 4.423029e-01 4.301187e-01 3.159001e-01 3.321711e-01
<GCONST> 1.182808e+02
<TRANSP> 5
 0.000000e+00 1.000000e+00 0.000000e+00 0.000000e+00 0.000000e+00
 0.000000e+00 7.410266e-01 2.589734e-01 0.000000e+00 0.000000e+00
 0.000000e+00 0.000000e+00 7.438710e-01 2.561290e-01 0.000000e+00
 0.000000e+00 0.000000e+00 0.000000e+00 8.577843e-01 1.422157e-01
 0.000000e+00 0.000000e+00 0.000000e+00 0.000000e+00 0.000000e+00
<ENDHMM>
~h "au"
<BEGINHMM>
<NUMSTATES> 5
<STATE> 2
<MEAN> 39
 3.842227e-01 -1.087347e+01 -8.192060e+00 -1.930999e+01 -6.064195e+00 7.511024e+00 -1.546728e+01 -2.899826e+00 1.330218e+00 -6.353510e-01 5.848528e-01 -1.410239e+01 7.273730e+01 2.487769e-01 8.975761e-02 -1.002408e-01 -8.370800e-01 1.037735e-01 7.381763e-01 2.214286e-02 -2.324611e-01 -2.298140e-01 -3.826348e-01 9.927037e-01 -1.459675e-01 -1.305058e-01 6.815151e-02 3.847010e-01 1.637534e-01 2.243913e-02 -2.252325e-01 -1.807524e-01 2.806954e-02 -1.939572e-01 -2.984736e-01 5.590579e-02 2.108663e-01 5.396409e-01 -3.170863e-01
<VARIANCE> 39
 1.165772e+01 2.869707e+01 3.392646e+01 3.779194e+01 3.157699e+01 3.947974e+01 4.975231e+01 4.115183e+01 3.634497e+01 4.803377e+01 4.599715e+01 3.756654e+01 1.527080e+01 3.943060e-01 1.712714e+00 8.616810e-01 1.345663e+00 1.369834e+00 1.708794e+00 1.377540e+00 2.391603e+00 1.792975e+00 1.880008e+00 2.269261e+00 3.302848e+00 4.998384e-01 1.192341e-01 2.125392e-01 1.663515e-01 2.780864e-01 2.143029e-01 2.948557e-01 2.846279e-01 4.761388e-01 3.149322e-01 3.627870e-01 4.460759e-01 4.551343e-01 1.061144e-01
<GCONST> 1.038625e+02
<STATE> 3
<MEAN> 39
 4.301717e+00 -2.630418e+00 -6.472816e+00 -2.446782e+01 -1.113512e+01 8.721585e+00 -1.498331e+01 -4.053513e+00 -4.194409e+00 -3.221640e+00 5.749136e+00 -6.717531e+00 6.625074e+01 4.469597e-01 1.238533e+00 3.852066e-01 1.402671e-01 -5.518157e-01 -5.579101e-01 -1.668258e-01 9.723512e-03 -7.901782e-01 -1.926021e-01 -1.149893e-01 9.914968e-01 -1.158208e+00 -9.046565e-02 -5.900357e-02 3.003639e-02 4.474980e-01 1.413696e-01 -2.268345e-01 9.902649e-03 1.535060e-04 1.246534e-01 1.124856e-01 -3.356035e-01 -1.690659e-01 -8.986506e-02
<VARIANCE> 39
 1.292985e+01 6.994321e+01 4.194358e+01 4.073092e+01 3.821546e+01 3.921938e+01 6.563403e+01 4.417202e+01 5.787838e+01 5.571873e+01 4.801258e+01 4.946085e+01 2.906946e+01 3.630540e-01 1.398073e+00 8.699809e-01 2.209911e+00 1.929477e+00 1.747649e+00 1.919008e+00 2.010834e+00 2.259203e+00 2.297174e+00 2.298200e+00 2.450660e+00 6.066664e-01 5.627742e-02 2.019537e-01 1.592873e-01 3.127419e-01 3.250939e-01 2.979128e-01 3.466001e-01 3.662974e-01 3.822633e-01 4.028423e-01 4.368839e-01 4.318192e-01 9.450403e-02
<GCONST> 1.080773e+02
<STATE> 4
<MEAN> 39
 -2.494370e+00 1.085595e+00 -4.337031e+00 -1.056528e+01 -7.955062e+00 -6.765549e-02 -9.042468e+00 -4.228940e+00 -5.253525e+00 -3.043990e+00 -8.147249e-01 -3.560800e+00 4.880505e+01 -4.001641e-01 9.789655e-02 1.671111e-01 1.268179e+00 3.119236e-01 -6.458380e-01 1.452356e-01 -2.834000e-01 5.003085e-02 2.372264e-01 -4.902199e-01 1.732261e-02 -8.240246e-01 -9.888675e-02 -8.315845e-02 6.493928e-02 1.205119e-01 5.639485e-02 9.495895e-03 6.374139e-02 6.210282e-03 6.746524e-02 -1.645347e-02 -4.563649e-02 -6.150663e-02 6.697959e-02
<VARIANCE> 39
 8.046200e+01 5.018493e+01 2.569774e+01 9.498055e+01 4.210759e+01 4.742294e+01 9.208659e+01 4.210533e+01 4.391037e+01 4.472629e+01 4.034752e+01 3.298032e+01 1.287688e+02 9.479695e-01 1.641941e+00 1.809927e+00 3.724528e+00 2.755266e+00 2.672557e+00 3.108344e+00 2.512959e+00 2.703731e+00 2.507830e+00 2.451768e+00 2.342272e+00 1.586806e+00 1.759650e-01 2.863233e-01 2.936232e-01 5.008040e-01 5.418405e-01 4.455202e-01 5.565820e-01 4.967953e-01 5.231829e-01 5.062842e-01 4.502167e-01 4.859635e-01 1.960764e-01
<GCONST> 1.217143e+02
<TRANSP> 5
 0.000000e+00 1.000000e+00 0.000000e+00 0.000000e+00 0.000000e+00
 0.000000e+00 8.100747e-01 1.899253e-01 0.000000e+00 0.000000e+00
