~o
<STREAMINFO> 1 39
<VECSIZE> 39<NULLD><MFCC_D_A_0><DIAGC>
~s "silst"
<MEAN> 39
 -1.172070e+01 -5.668092e+00 -4.491299e+00 -2.843061e+00 -2.992257e+00 -3.991580e+00 -4.474251e+00 -1.292844e+00 -2.513115e+00 -3.853643e+00 -3.464597e+00 -2.435766e-01 3.965705e+01 1.047023e-02 2.099607e-01 1.622024e-03 3.910633e-02 5.096005e-03 2.057797e-02 -1.468097e-03 -1.877632e-02 -1.340960e-02 9.315207e-03 5.399637e-02 -3.265581e-02 -2.718889e-01 -7.874379e-03 2.122110e-02 4.005523e-02 1.306010e-02 9.110664e-03 2.262194e-02 -6.128922e-03 -1.566480e-02 -1.684992e-02 1.515117e-02 -1.016211e-02 -1.112407e-02 2.383384e-02
<VARIANCE> 39
 1.125412e+01 4.271135e+01 1.835184e+01 1.944802e+01 2.097015e+01 2.764644e+01 3.045425e+01 3.346091e+01 3.014128e+01 2.930200e+01 2.336487e+01 2.216505e+01 3.349339e+01 5.390747e-01 1.189160e+00 1.158242e+00 1.303035e+00 1.473644e+00 1.772180e+00 1.851593e+00 2.039412e+00 1.958196e+00 1.972008e+00 1.729412e+00 1.622271e+00 6.463807e-01 9.248597e-02 1.922794e-01 2.070496e-01 2.405366e-01 2.768362e-01 3.319815e-01 3.582041e-01 3.899269e-01 3.869858e-01 3.859064e-01 3.416142e-01 3.195247e-01 8.730173e-02
<GCONST> 9.982612e+01
~h "@"
<BEGINHMM>
<NUMSTATES> 5
<STATE> 2
<MEAN> 39
 -1.611856e+00 -4.602947e+00 -4.248187e-01 -9.853623e+00 -8.938261e+00 -3.321364e+00 -1.515793e+01 -3.386261e+00 -2.027685e+00 1.833549e-01 1.764812e-03 -6.506109e+00 6.549832e+01 2.255471e+00 -1.277146e+00 4.233335e-01 -1.796735e+00 -1.064906e+00 6.796296e-01 -1.801446e+00 1.147503e+00 7.097852e-01 8.552075e-01 8.630849e-01 -1.263143e+00 2.190997e+00 -4.696750e-01 2.502417e-01 7.966234e-02 5.521687e-01 2.406600e-01 1.084146e-01 5.497834e-01 -1.510440e-01 -2.197588e-01 -1.312841e-01 -2.195890e-01 1.805430e-01 -9.745531e-01
<VARIANCE> 39
 2.789101e+01 3.815596e+01 4.993375e+01 6.984137e+01 5.156657e+01 7.870419e+01 8.020514e+01 6.403456e+01 6.981314e+01 4.733545e+01 5.378939e+01 3.985273e+01 7.329754e+01 6.298234e+00 3.347434e+00 7.307521e+00 5.673257e+00 5.820904e+00 5.422817e+00 6.532998e+00 8.056787e+00 7.942930e+00 5.216610e+00 5.621395e+00 4.266751e+00 4.536145e+00 7.213386e-01 6.255624e-01 9.163306e-01 9.551172e-01 7.653503e-01 9.171638e-01 1.008893e+00 9.631277e-01 8.813913e-01 7.194876e-01 8.918935e-01 6.248733e-01 1.438251e+00
<GCONST> 1.443385e+02
<STATE> 3
<MEAN> 39
 8.735218e-02 -7.567011e+00 -4.235355e-01 -1.240009e+01 -9.609364e+00 -1.514844e+00 -1.768092e+01 -6.104200e-01 -8.422223e-01 1.236863e+00 1.241962e+00 -8.513153e+00 6.907157e+01 6.723810e-01 -2.754970e-01 3.596570e-01 1.409533e-01 -2.825411e-01 2.865289e-01 -9.493043e-02 3.294692e-01 1.196847e-01 1.165705e-01 1.450945e-01 -3.304214e-01 -3.258504e-02 -5.988665e-01 7.760198e-01 1.770311e-01 1.060324e+00 3.737165e-01 -1.991614e-01 9.020556e-01 -7.262384e-01 -4.300851e-01 -3.615768e-01 -4.678020e-01 4.925746e-01 -1.232556e+00
<VARIANCE> 39
 1.642623e+01 3.934875e+01 5.064482e+01 7.504008e+01 5.565158e+01 7.583746e+01 7.576038e+01 8.084826e+01 8.455420e+01 5.552038e+01 6.085143e+01 5.107568e+01 3.168451e+01 2.142638e+00 2.645084e+00 2.866985e+00 4.408428e+00 3.489035e+00 4.976913e+00 4.230634e+00 5.101518e+00 5.335850e+00 3.910852e+00 4.018281e+00 3.090032e+00 3.070187e+00 6.229438e-01 5.523080e-01 1.071408e+00 1.003777e+00 9.262418e-01 9.137410e-01 1.040705e+00 1.343286e+00 1.206233e+00 9.571905e-01 1.063467e+00 8.480539e-01 5.895663e-01
<GCONST> 1.389739e+02
<STATE> 4
<MEAN> 39
 -8.471279e-01 -6.230157e+00 1.374303e+00 -1.009305e+01 -1.169757e+01 -4.050652e+00 -1.527901e+01 -1.148466e+00 -1.277830e+00 4.046406e-01 4.710309e-01 -6.969272e+00 6.681034e+01 1.343744e-01 9.272676e-01 3.096153e-01 1.067462e+00 3.664671e-01 -2.443597e-02 7.499033e-01 -7.529455e-01 -3.112382e-01 -2.050087e-01 -4.878087e-01 1.419781e-01 -1.482354e+00 -1.898715e-01 2.916324e-01 5.304303e-02 3.268302e-01 1.408629e-01 -3.234718e-02 1.852179e-01 -2.686275e-01 -7.408269e-02 -8.087761e-02 -1.860194e-01 1.306957e-01 -4.398828e-01
<VARIANCE> 39
 1.924857e+01 5.239695e+01 7.068056e+01 6.837310e+01 7.593370e+01 6.731736e+01 9.498058e+01 8.329794e+01 9.438671e+01 6.423616e+01 5.910898e+01 4.878104e+01 5.593621e+01 9.818782e-01 2.635468e+00 2.434376e+00 3.818192e+00 2.841453e+00 3.155088e+00 3.581028e+00 3.809888e+00 3.774711e+00 3.167012e+00 3.030900e+00 2.559057e+00 3.956980e+00 3.697113e-01 3.634966e-01 4.820396e-01 5.626444e-01 6.189687e-01 5.743300e-01 6.638489e-01 8.830126e-01 7.711245e-01 6.068721e-01 6.044136e-01 4.952148e-01 3.959570e-01
<GCONST> 1.314126e+02
<TRANSP> 5
 0.000000e+00 1.000000e+00 0.000000e+00 0.000000e+00 0.000000e+00
 0.000000e+00 2.515531e-01 7.484468e-01 0.000000e+00 0.000000e+00
 0.000000e+00 0.000000e+00 3.358749e-01 6.641251e-01 0.000000e+00
 0.000000e+00 0.000000e+00 0.000000e+00 5.778242e-01 4.221758e-01
 0.000000e+00 0.000000e+00 0.000000e+00 0.000000e+00 0.000000e+00
<ENDHMM>
~h "a"
<BEGINHMM>
<NUMSTATES> 5
<STATE> 2
<MEAN> 39
 -1.304543e+00 -1.290665e+01 -4.524802e+00 -1.363370e+01 -6.882223e+00 7.385737e-01 -1.169330e+01 2.029063e+00 6.314369e-01 -2.455922e+00 -3.548548e+00 -1.117574e+01 6.995484e+01 6.563584e-01 -2.171485e+00 -8.412430e-01 -1.108445e+00 9.113516e-01 1.195164e+00 3.369763e-01 1.204258e+00 6.229270e-01 -7.558317e-01 -9.223046e-01 -1.582780e+00 1.855921e+00 -4.115939e-01 4.762607e-01 2.464548e-01 5.870537e-01 2.240266e-01 -2.461283e-01 2.128008e-01 -4.743477e-01 -3.299310e-01 -9.271491e-02 -4.972994e-02 4.759329e-01 -7.279299e-01
<VARIANCE> 39
 1.833469e+01 4.099360e+01 4.931320e+01 5.617875e+01 6.078667e+01 6.989878e+01 6.069222e+01 7.511082e+01 6.563116e+01 5.680223e+01 6.176724e+01 4.518943e+01 7.102403e+01 2.761393e+00 2.505246e+00 3.658916e+00 3.912802e+00 3.968501e+00 4.167261e+00 4.566995e+00 5.575268e+00 3.904332e+00 3.964838e+00 4.177809e+00 3.513798e+00 4.043947e+00 5.241101e-01 5.955836e-01 5.640599e-01 6.845733e-01 6.714578e-01 7.871220e-01 7.136017e-01 9.494338e-01 7.018083e-01 6.716137e-01 7.929883e-01 6.331905e-01 9.498591e-01
<GCONST> 1.362525e+02
<STATE> 3
<MEAN> 39
 -1.303484e+00 -1.543727e+01 -6.031709e+00 -1.360076e+01 -4.621590e+00 2.334453e+00 -1.057062e+01 2.808128e+00 1.645656e+00 -5.582431e+00 -5.190306e+00 -1.281086e+01 7.300520e+01 6.641279e-02 8.307730e-02 1.701003e-02 1.388966e-01 2.832983e-01 -1.860033e-01 1.593472e-01 3.370908e-02 -1.530889e-01 -2.966144e-02 -2.438256e-01 8.711445e-02 -2.555924e-01 5.089512e-02 5.380763e-01 2.667027e-01 2.238101e-01 -2.444498e-01 -2.584231e-01 -1.456236e-01 -2.279073e-01 -1.506933e-01 2.921609e-01 2.170140e-01 3.355595e-01 -4.472953e-01
<VARIANCE> 39
 9.553061e+00 2.995025e+01 4.590609e+01 4.730058e+01 4.974128e+01 5.145449e+01 5.367923e+01 6.570895e+01 5.341280e+01 4.793920e+01 5.098318e+01 4.170261e+01 2.175247e+01 4.221722e-01 1.050572e+00 1.278335e+00 1.334034e+00 2.075526e+00 2.646254e+00 1.927502e+00 2.486943e+00 1.714642e+00 2.200309e+00 2.211088e+00 1.877182e+00 5.414749e-01 9.092826e-02 2.216222e-01 2.118524e-01 2.772325e-01 3.025260e-01 3.220884e-01 3.893358e-01 5.011066e-01 3.650504e-01 3.529326e-01 3.815563e-01 3.460740e-01 1.439089e-01
<GCONST> 1.080369e+02
<STATE> 4
<MEAN> 39
 -1.375908e+00 -1.003567e+01 -4.973970e+00 -1.078549e+01 -4.560622e+00 -1.027661e+00 -9.935166e+00 1.609501e+00 -7.234014e-01 -2.827913e+00 -5.546548e+00 -9.820833e+00 6.286544e+01 3.546651e-02 1.792297e+00 6.074038e-01 1.225586e+00 -1.932531e-01 -5.484003e-01 5.767366e-02 -8.279228e-01 -4.445792e-01 3.807927e-01 9.190769e-02 6.986449e-01 -2.480870e+00 -1.357835e-01 2.020354e-01 1.256280e-01 2.362622e-01 1.428720e-02 1.024727e-01 9.940664e-02 -2.514320e-01 -4.822473e-02 -9.931518e-02 -6.043569e-03 4.175378e-02 -2.898948e-01
<VARIANCE> 39
 2.215994e+01 4.335219e+01 5.253256e+01 6.031769e+01 6.561659e+01 6.533394e+01 6.396032e+01 6.305841e+01 6.060633e+01 6.115709e+01 6.064606e+01 5.493821e+01 1.264647e+02 1.247557e+00 2.987703e+00 2.477124e+00 3.342473e+00 3.291894e+00 3.102022e+00 3.419593e+00 3.746228e+00 3.294991e+00 3.303776e+00 3.311380e+00 2.884056e+00 4.023921e+00 2.462312e-01 5.463346e-01 4.244716e-01 5.891017e-01 5.972129e-01 5.853544e-01 6.349801e-01 7.610282e-01 6.003407e-01 6.536295e-01 6.625332e-01 5.466373e-01 7.127271e-01
<GCONST> 1.313201e+02
<TRANSP> 5
 0.000000e+00 1.000000e+00 0.000000e+00 0.000000e+00 0.000000e+00
 0.000000e+00 5.542825e-01 4.457175e-01 0.000000e+00 0.000000e+00
 0.000000e+00 0.000000e+00 7.739391e-01 2.260609e-01 0.000000e+00
 0.000000e+00 0.000000e+00 0.000000e+00 6.745246e-01 3.254754e-01
 0.000000e+00 0.000000e+00 0.000000e+00 0.000000e+00 0.000000e+00
<ENDHMM>
~h "b"
<BEGINHMM>
<NUMSTATES> 5
<STATE> 2
<MEAN> 39
 2.601848e+00 6.808460e+00 3.940929e+00 -2.135762e+00 -4.662129e+00 1.383645e+00 -7.088690e+00 -7.569186e+00 -7.498349e+00 -2.918134e+00 -2.816495e+00 -7.495369e+00 4.590231e+01 7.164304e-01 1.279593e+00 3.888415e-01 2.606708e-01 4.021451e-01 3.590114e-01 6.940446e-01 -2.453371e-01 -2.030496e-01 -5.528940e-03 -3.651997e-01 -1.681061e-01 -8.344086e-01 -3.225783e-01 -4.952782e-01 -2.076228e-01 -2.689637e-01 -2.040970e-01 -1.987962e-01 -3.090866e-01 1.077557e-01 1.366200e-01 1.761020e-02 2.019549e-01 2.038834e-01 7.004982e-01
<VARIANCE> 39
 5.804258e+01 3.331767e+01 3.155683e+01 2.956822e+01 2.738335e+01 3.866060e+01 5.089519e+01 4.091326e+01 5.218146e+01 3.247607e+01 4.135163e+01 3.528058e+01 5.729219e+01 2.186054e+00 2.494363e+00 2.181011e+00 2.678420e+00 2.215358e+00 2.355904e+00 2.968791e+00 3.092094e+00 2.953558e+00 2.401835e+00 2.529931e+00 2.233951e+00 4.267188e+00 3.954563e-01 4.425385e-01 4.015463e-01 4.698066e-01 4.375253e-01 4.378594e-01 5.005639e-01 5.950896e-01 6.204651e-01 4.692691e-01 4.972740e-01 4.493604e-01 5.024774e-01
<GCONST> 1.222355e+02
<STATE> 3
<MEAN> 39
 5.626994e+00 8.626542e+00 4.988368e+00 -2.573885e+00 -4.099806e+00 2.988507e+00 -6.574134e+00 -8.690809e+00 -8.269113e+00 -3.102191e+00 -2.745860e+00 -6.969761e+00 4.904412e+01 -1.442370e+00 -2.023964e+00 -1.364441e+00 -8.749307e-01 -4.294908e-01 -9.188017e-01 -1.400849e+00 1.979615e-01 9.258088e-01 6.801378e-04 1.293047e+00 1.291130e+00 3.196006e+00 -4.688060e-01 -1.154501e+00 -3.387123e-01 -6.680821e-01 -7.945771e-01 -1.232996e-01 -9.004943e-01 2.275256e-01 4.342845e-01 2.208786e-01 5.287073e-01 -5.337421e-02 1.513840e+00
<VARIANCE> 39
 1.959195e+01 2.432234e+01 1.856094e+01 2.774126e+01 2.566684e+01 3.771935e+01 4.331428e+01 4.077832e+01 5.125115e+01 3.640823e+01 4.217397e+01 3.426647e+01 2.512202e+01 1.933003e+00 3.231164e+00 3.892240e+00 6.356574e+00 4.187138e+00 3.906458e+00 4.352874e+00 4.516579e+00 5.485625e+00 4.154862e+00 4.481915e+00 3.258936e+00 4.707996e+00 3.695672e-01 4.723303e-01 7.395144e-01 7.988847e-01 6.937290e-01 7.761046e-01 6.682223e-01 1.112801e+00 1.210558e+00 8.906543e-01 7.591340e-01 8.394953e-01 4.906802e-01
<GCONST> 1.303673e+02
<STATE> 4
<MEAN> 39
 5.653810e-01 -1.458675e+00 -1.740011e+00 -8.758206e+00 -7.923412e+00 7.369717e-01 -1.476771e+01 -8.452376e+00 -3.286769e+00 -1.467559e-01 3.596479e+00 -4.155352e+00 6.381071e+01 -1.178320e+00 -3.366723e+00 -1.322895e+00 -2.203438e+00 -1.983128e+00 -2.889175e-01 -2.649045e+00 1.166347e+00 2.052314e+00 9.964409e-01 1.227178e+00 -7.347692e-01 4.582845e+00 2.668137e-01 3.508736e-01 5.745645e-01 2.898866e-01 -1.564580e-02 2.133765e-01 4.754140e-01 3.725248e-01 -1.577961e-01 -3.130654e-01 -7.213974e-01 -6.047252e-01 -6.923934e-01
<VARIANCE> 39
 1.738424e+01 3.191293e+01 3.346621e+01 9.863235e+01 3.253848e+01 5.645701e+01 6.162201e+01 4.057472e+01 5.064443e+01 5.067289e+01 5.174351e+01 3.584335e+01 5.085279e+01 2.114339e+00 4.184766e+00 6.057700e+00 8.462269e+00 5.522817e+00 5.658817e+00 5.184414e+00 8.115087e+00 9.297323e+00 6.842896e+00 6.383585e+00 7.363682e+00 4.116843e+00 3.115907e-01 5.587564e-01 4.267455e-01 1.389487e+00 1.041257e+00 8.545141e-01 1.076825e+00 9.815220e-01 9.717885e-01 9.859438e-01 1.226990e+00 7.534882e-01 7.181273e-01
<GCONST> 1.406748e+02
<TRANSP> 5
 0.000000e+00 1.000000e+00 0.000000e+00 0.000000e+00 0.000000e+00
 0.000000e+00 7.819027e-01 2.180973e-01 0.000000e+00 0.000000e+00
 0.000000e+00 0.000000e+00 5.257233e-01 4.742766e-01 0.000000e+00
 0.000000e+00 0.000000e+00 0.000000e+00 4.458748e-01 5.541252e-01
 0.000000e+00 0.000000e+00 0.000000e+00 0.000000e+00 0.000000e+00
<ENDHMM>
~h "c"
<BEGINHMM>
<NUMSTATES> 5
<STATE> 2
<MEAN> 39
 -9.516450e+00 2.549322e+00 1.820814e+00 -2.424248e+00 -5.566848e+00 -6.619103e+00 -6.304424e+00 -3.370803e+00 -3.409825e+00 -3.285281e+00 -3.446656e+00 -2.576866e+00 4.485606e+01 -1.590747e+00 -3.104636e-01 -8.112252e-01 -3.865938e-01 5.526214e-01 1.014969e-01 3.767471e-01 -2.107603e-01 1.209514e-01 1.112271e-01 1.138198e-01 7.950546e-02 -7.264695e-01 -4.094134e-01 -3.252039e-01 -1.347835e-01 -3.666638e-01 -9.172089e-02 4.944319e-02 -1.188760e-01 3.883198e-02 -2.646700e-02 4.188865e-02 1.343952e-01 1.041905e-01 9.882298e-01
<VARIANCE> 39
 4.113270e+01 4.177524e+01 3.977839e+01 3.132835e+01 3.932744e+01 4.762370e+01 4.862722e+01 4.019139e+01 3.717156e+01 2.863547e+01 2.919775e+01 2.600732e+01 1.039908e+02 5.149504e+00 4.725735e+00 3.423566e+00 3.441767e+00 4.022305e+00 3.168563e+00 3.844796e+00 3.208082e+00 3.213584e+00 2.749615e+00 2.549734e+00 2.780880e+00 1.331677e+01 7.411505e-01 8.276594e-01 5.913847e-01 5.699942e-01 8.021253e-01 6.395416e-01 7.069703e-01 5.941944e-01 5.761382e-01 5.256692e-01 4.539792e-01 5.797145e-01 1.743046e+00
<GCONST> 1.319722e+02
<STATE> 3
<MEAN> 39
 -2.596506e+01 -2.363720e-01 -2.619422e+00 -9.929539e+00 -3.543519e+00 -5.752135e+00 -5.261582e+00 -4.534414e+00 -3.167517e+00 -1.893391e+00 -6.153099e-01 8.081364e-02 6.055288e+01 -1.032799e+00 6.965913e-02 8.812779e-01 -6.471951e-01 -1.231443e+00 -1.418735e-01 -7.483494e-02 3.350809e-01 -3.926109e-02 -2.459696e-01 5.135049e-01 5.673967e-01 3.782030e+00 2.175051e+00 -2.913698e-02 8.437116e-01 6.255802e-01 -7.330011e-01 -3.045182e-01 -4.580043e-01 2.958913e-01 5.440564e-02 -1.967327e-01 -2.404857e-01 -3.452451e-01 -5.731778e-01
<VARIANCE> 39
 2.742395e+01 3.130198e+01 3.318628e+01 2.675216e+01 2.806635e+01 3.369036e+01 3.657772e+01 2.348640e+01 2.637941e+01 2.069319e+01 2.408324e+01 1.509927e+01 3.425599e+01 1.488179e+01 3.541389e+00 6.292660e+00 4.679287e+00 4.565305e+00 3.907345e+00 3.579701e+00 3.442400e+00 3.244580e+00 2.601667e+00 2.417585e+00 2.003354e+00 6.977736e+00 1.280347e+00 1.167247e+00 8.857728e-01 6.539667e-01 8.805466e-01 7.429916e-01 8.041869e-01 8.646357e-01 8.373825e-01 5.593031e-01 6.381245e-01 4.751671e-01 8.490270e-01
<GCONST> 1.299071e+02
<STATE> 4
<MEAN> 39
 -1.240040e+01 -1.968352e+00 4.815524e+00 -6.833150e+00 -1.142636e+01 -1.007708e+01 -9.187751e+00 -4.329374e-01 -2.171944e+00 -4.536407e+00 -1.967146e+00 -1.562149e-01 6.755146e+01 5.865386e+00 -2.515007e+00 1.040908e+00 1.112067e-01 -1.840814e+00 -5.176199e-01 -1.948888e+00 1.624221e+00 7.046365e-01 -6.854477e-03 -6.862262e-01 -1.261893e+00 2.032505e+00 -2.524937e-02 -4.676875e-01 -8.481128e-01 -4.767779e-01 6.815084e-01 7.491206e-01 5.924650e-02 -1.342126e-01 -2.124073e-02 3.797522e-01 1.935647e-02 -5.416518e-01 -4.843445e-01
<VARIANCE> 39
 7.438293e+01 4.512330e+01 3.360409e+01 3.682380e+01 3.935524e+01 2.749817e+01 4.517803e+01 4.293348e+01 4.642465e+01 2.433527e+01 3.287688e+01 2.040874e+01 3.246487e+01 3.025143e+00 5.878910e+00 6.174813e+00 4.505280e+00 5.550765e+00 4.837486e+00 5.086222e+00 7.515370e+00 5.938688e+00 4.202480e+00 4.612085e+00 2.988655e+00 1.377124e+00 2.245620e+00 7.955226e-01 5.542402e-01 7.240202e-01 8.292766e-01 7.214531e-01 9.660730e-01 8.530090e-01 7.272633e-01 5.366706e-01 6.783878e-01 4.190494e-01 4.544688e-01
<GCONST> 1.337635e+02
<TRANSP> 5
 0.000000e+00 1.000000e+00 0.000000e+00 0.000000e+00 0.000000e+00
 0.000000e+00 8.615049e-01 1.384950e-01 0.000000e+00 0.000000e+00
 0.000000e+00 0.000000e+00 7.218059e-01 2.781940e-01 0.000000e+00
 0.000000e+00 0.000000e+00 0.000000e+00 5.763134e-01 4.236867e-01
 0.000000e+00 0.000000e+00 0.000000e+00 0.000000e+00 0.000000e+00
<ENDHMM>
~h "d"
<BEGINHMM>
<NUMSTATES> 5
<STATE> 2
<MEAN> 39
 -1.591669e-01 3.419940e+00 5.852849e+00 2.086020e+00 -6.761658e+00 -4.794463e+00 -9.101897e+00 -2.581651e+00 -2.158427e+00 -4.693260e+00 -5.610034e+00 -5.349744e+00 4.635065e+01 8.123762e-01 1.045918e+00 6.593744e-01 6.845149e-01 5.955912e-01 -3.127229e-01 2.419647e-01 2.710854e-01 2.334191e-01 -1.881764e-01 -4.813687e-01 -1.751786e-01 -8.292990e-01 -4.037226e-01 -5.368549e-01 -5.217398e-02 -4.921904e-01 -2.073902e-01 4.369827e-02 -1.922547e-01 3.785372e-02 -1.455462e-01 2.532821e-02 3.288656e-01 1.964754e-01 8.105930e-01
<VARIANCE> 39
 6.212652e+01 4.081387e+01 5.128808e+01 3.021220e+01 4.311756e+01 3.035764e+01 5.901770e+01 5.993893e+01 4.453084e+01 3.711341e+01 3.492348e+01 3.481193e+01 7.544656e+01 3.004198e+00 3.453933e+00 2.751493e+00 2.789507e+00 3.620194e+00 2.660329e+00 3.671429e+00 4.513302e+00 3.414062e+00 2.935600e+00 3.103377e+00 2.336554e+00 5.790360e+00 6.670356e-01 6.841904e-01 4.687360e-01 6.095183e-01 7.171004e-01 5.878761e-01 6.756978e-01 9.416726e-01 7.278365e-01 6.037949e-01 6.494519e-01 5.383795e-01 8.819472e-01
<GCONST> 1.311865e+02
<STATE> 3
<MEAN> 39
 2.662198e+00 4.047480e+00 9.581440e+00 2.510188e+00 -6.280865e+00 -5.372952e+00 -1.044446e+01 -1.890202e+00 -1.642452e+00 -4.814062e+00 -6.160619e+00 -5.476901e+00 5.115668e+01 -2.335539e+00 -2.464871e+00 4.406409e-01 -1.829542e+00 -8.198719e-01 1.916640e-03 -1.050727e+00 4.590489e-02 -9.351938e-01 -1.765584e-01 1.756978e+00 1.442362e+00 3.940130e+00 -5.209516e-01 -8.184308e-01 -1.071489e-01 -7.107544e-01 -1.112035e+00 2.529551e-02 -6.244367e-01 1.874343e-02 -1.744977e-01 6.825992e-02 7.516411e-01 1.003770e-01 1.439668e+00
<VARIANCE> 39
 3.055570e+01 2.967690e+01 3.216158e+01 3.147361e+01 3.522644e+01 3.317602e+01 5.991324e+01 6.074574e+01 4.645179e+01 3.549340e+01 3.443980e+01 3.100991e+01 3.821571e+01 2.286974e+00 2.881787e+00 4.438044e+00 3.903794e+00 5.890125e+00 4.545748e+00 5.202340e+00 9.142739e+00 6.527637e+00 4.482047e+00 3.943269e+00 3.527787e+00 4.310307e+00 5.979961e-01 6.896681e-01 6.310580e-01 8.176816e-01 8.615873e-01 6.998239e-01 8.123191e-01 1.715755e+00 1.065079e+00 7.928855e-01 7.943929e-01 6.301143e-01 7.727339e-01
<GCONST> 1.352118e+02
<STATE> 4
<MEAN> 39
 -3.972801e+00 -6.449118e+00 8.189827e+00 -5.002275e+00 -1.410836e+01 -7.008410e+00 -1.671800e+01 7.703168e-01 -2.243495e+00 -4.778778e+00 8.362594e-01 -7.885413e-01 6.740960e+01 -1.096971e+00 -2.385108e+00 -7.275522e-01 -2.384754e+00 -2.625858e+00 -2.212998e-01 -1.290192e+00 1.424043e+00 3.241990e-01 1.988334e-01 1.667300e+00 -1.964424e-01 4.195072e+00 6.306011e-01 6.803163e-01 -2.734498e-01 2.906986e-01 4.178596e-01 3.262492e-01 5.888391e-01 -9.613197e-02 1.799861e-01 5.035592e-02 -6.699418e-01 -8.217559e-01 -9.910309e-01
<VARIANCE> 39
 1.620590e+01 3.009522e+01 4.820966e+01 4.760213e+01 6.843970e+01 4.595676e+01 8.284878e+01 7.884586e+01 7.614146e+01 3.889276e+01 4.128298e+01 2.546495e+01 4.263444e+01 2.722810e+00 3.764672e+00 5.885543e+00 4.781001e+00 6.236886e+00 4.100874e+00 6.778299e+00 1.213459e+01 7.909935e+00 4.711937e+00 6.453216e+00 4.291237e+00 4.395295e+00 2.507700e-01 4.045487e-01 4.831614e-01 7.819862e-01 1.739189e+00 8.628748e-01 1.332175e+00 1.395641e+00 1.023063e+00 8.287964e-01 9.401656e-01 6.786129e-01 5.405635e-01
<GCONST> 1.394182e+02
<TRANSP> 5
 0.000000e+00 1.000000e+00 0.000000e+00 0.000000e+00 0.000000e+00
 0.000000e+00 7.677139e-01 2.322861e-01 0.000000e+00 0.000000e+00
 0.000000e+00 0.000000e+00 5.113863e-01 4.886137e-01 0.000000e+00
 0.000000e+00 0.000000e+00 0.000000e+00 4.856939e-01 5.143061e-01
 0.000000e+00 0.000000e+00 0.000000e+00 0.000000e+00 0.000000e+00
<ENDHMM>
~h "e"
<BEGINHMM>
<NUMSTATES> 5
<STATE> 2
<MEAN> 39
 -3.879981e+00 -9.077933e+00 3.128027e+00 -7.428496e+00 -1.478033e+01 -7.449959e+00 -1.035270e+01 1.713396e+00 -1.952204e+00 -1.344451e+00 -2.781765e-01 -5.369229e+00 6.351165e+01 2.603272e-01 -1.454086e+00 1.006403e+00 -8.567839e-01 -1.564809e+00 -3.642167e-01 4.882836e-01 1.756809e+00 -2.644249e-01 -2.796161e-01 3.142029e-01 -1.512087e-01 2.079781e+00 -2.092854e-01 3.573485e-01 -9.757945e-04 6.675219e-02 2.802871e-01 2.255454e-01 3.710988e-01 -3.376907e-01 -2.038109e-01 6.386684e-03 -2.756795e-02 9.111326e-02 -4.330004e-01
<VARIANCE> 39
 3.172132e+01 6.083081e+01 6.260099e+01 5.740204e+01 7.449966e+01 5.086130e+01 9.744926e+01 7.930880e+01 8.276380e+01 7.081549e+01 6.023415e+01 4.242391e+01 1.591010e+02 3.292635e+00 4.314444e+00 4.040370e+00 4.666887e+00 6.042969e+00 4.364110e+00 5.468050e+00 7.395232e+00 5.870485e+00 5.862933e+00 4.830523e+00 3.119603e+00 1.026112e+01 6.143513e-01 8.705137e-01 5.920090e-01 7.543025e-01 1.027283e+00 7.238916e-01 9.465276e-01 1.215986e+00 9.672661e-01 9.520872e-01 8.037659e-01 5.736914e-01 2.119332e+00
<GCONST> 1.456624e+02
<STATE> 3
<MEAN> 39
 -4.167929e+00 -1.238379e+01 8.129927e+00 -1.095298e+01 -2.044724e+01 -8.256511e+00 -7.560771e+00 5.156545e+00 -4.379020e+00 -1.960119e+00 2.188565e+00 -5.364348e+00 7.167827e+01 2.809927e-02 2.273543e-01 -4.795905e-02 7.184003e-02 2.261061e-01 -5.342109e-02 2.316919e-01 -1.214242e-01 -7.650465e-02 8.406650e-02 -1.859396e-01 -6.153707e-02 -2.184735e-01 5.455499e-02 3.206984e-01 -1.905918e-01 2.834378e-01 3.844751e-01 3.051289e-02 -1.162857e-01 -3.295714e-01 9.052994e-02 1.315070e-02 -1.682929e-01 8.309058e-03 -4.709359e-01
<VARIANCE> 39
 1.177984e+01 4.110859e+01 5.805396e+01 3.818863e+01 5.146555e+01 4.433553e+01 7.161081e+01 6.488986e+01 7.714195e+01 7.989672e+01 6.131264e+01 3.532455e+01 2.233196e+01 5.609968e-01 1.089350e+00 1.394546e+00 1.615349e+00 1.979586e+00 1.622048e+00 2.379961e+00 2.122765e+00 1.946334e+00 1.997532e+00 1.793730e+00 1.256731e+00 1.333496e+00 1.225342e-01 2.306973e-01 2.253091e-01 2.496429e-01 3.558055e-01 3.085205e-01 4.506986e-01 5.085614e-01 3.750513e-01 4.163462e-01 3.419761e-01 2.515676e-01 2.515773e-01
<GCONST> 1.110014e+02
<STATE> 4
<MEAN> 39
 -7.465413e+00 -4.246183e+00 1.709718e+00 -5.061671e+00 -1.195866e+01 -6.120784e+00 -7.146762e+00 -2.216766e+00 -4.279526e+00 -2.323333e+00 -1.586128e+00 -3.908189e+00 5.188841e+01 -1.864778e-02 5.649664e-01 -2.428297e-01 4.582048e-01 5.343564e-01 7.670231e-02 5.192879e-02 -3.935225e-01 1.015754e-01 -8.232710e-02 -2.692725e-01 3.164901e-02 -1.157604e+00 -3.964475e-02 3.985493e-02 1.552309e-02 3.128419e-03 4.741796e-02 7.222565e-02 4.754563e-03 -4.818463e-02 -1.475924e-02 2.991036e-04 3.247561e-02 1.041396e-02 -1.911236e-02
<VARIANCE> 39
 3.626405e+01 4.844295e+01 7.388320e+01 4.245089e+01 8.582038e+01 4.980051e+01 6.511665e+01 6.119739e+01 5.936277e+01 5.084467e+01 4.839955e+01 3.556394e+01 2.339414e+02 8.600292e-01 1.867320e+00 1.620226e+00 2.083773e+00 2.697330e+00 2.041446e+00 2.760619e+00 2.761280e+00 2.264112e+00 2.381696e+00 2.204746e+00 1.789790e+00 3.152904e+00 1.627917e-01 2.831490e-01 2.674260e-01 3.353695e-01 4.439980e-01 3.884740e-01 4.672823e-01 5.133540e-01 4.562680e-01 4.335208e-01 3.981045e-01 3.299371e-01 3.077115e-01
<GCONST> 1.208992e+02
<TRANSP> 5
 0.000000e+00 1.000000e+00 0.000000e+00 0.000000e+00 0.000000e+00
 0.000000e+00 6.276616e-01 3.723384e-01 0.000000e+00 0.000000e+00
 0.000000e+00 0.000000e+00 8.215904e-01 1.784096e-01 0.000000e+00
 0.000000e+00 0.000000e+00 0.000000e+00 7.977324e-01 2.022676e-01
 0.000000e+00 0.000000e+00 0.000000e+00 0.000000e+00 0.000000e+00
<ENDHMM>
~h "f"
<BEGINHMM>
<NUMSTATES> 5
<STATE> 2
<MEAN> 39
 -8.041556e+00 1.033929e-02 -6.097019e-01 -8.495023e-01 -4.045074e+00 -1.703844e+00 -6.784869e+00 -3.748991e+00 -3.773952e+00 -2.153676e+00 -2.978261e+00 -2.649750e+00 5.906764e+01 -3.765624e+00 1.611746e-01 -5.104600e-01 1.783920e+00 1.264352e+00 -1.986868e-01 8.089492e-01 5.156907e-01 1.094410e+00 -4.173248e-02 -2.452031e-01 5.027637e-01 -1.174564e+00 -3.318119e-01 -6.354196e-01 -9.071427e-02 -5.210251e-01 -6.505746e-01 -1.321680e-01 -3.851196e-01 4.071785e-02 -6.391516e-02 9.558270e-02 2.460016e-01 -1.321146e-01 1.937681e-01
<VARIANCE> 39
 5.419274e+01 2.503291e+01 3.862505e+01 5.314438e+01 3.913461e+01 5.368481e+01 5.049522e+01 3.707253e+01 4.126480e+01 2.928330e+01 3.260341e+01 2.518200e+01 7.176545e+01 2.674818e+00 4.292197e+00 4.501709e+00 5.061328e+00 6.580209e+00 5.772751e+00 4.440344e+00 4.822630e+00 4.940814e+00 3.881553e+00 3.910983e+00 2.788775e+00 2.329636e+00 8.502056e-01 4.473915e-01 4.771010e-01 7.766259e-01 8.620085e-01 8.071756e-01 7.293195e-01 7.507796e-01 7.829373e-01 6.112067e-01 5.525270e-01 4.737720e-01 2.722751e-01
<GCONST> 1.319370e+02
<STATE> 3
<MEAN> 39
 -2.138365e+01 -5.436611e+00 -4.412903e+00 -4.256275e-01 -5.256990e+00 -4.311847e+00 -8.620659e+00 -3.072343e+00 -1.869413e+00 -1.761410e+00 -1.569662e+00 -9.889377e-01 5.813480e+01 -7.000808e-01 -6.683689e-01 -4.259194e-01 -2.065230e-01 -1.941686e-01 -1.565385e-01 -1.495053e-01 -8.368848e-02 -4.992465e-03 -6.966153e-03 1.166641e-01 1.159846e-01 -2.330957e-01 8.056671e-01 1.935061e-01 1.857676e-01 -1.500083e-01 -2.561689e-02 8.544727e-02 2.156158e-03 -8.453001e-02 -1.402216e-01 -9.121611e-02 -1.434109e-02 -1.431941e-01 1.144052e-01
<VARIANCE> 39
 2.067872e+01 2.282630e+01 1.664397e+01 2.095235e+01 2.132814e+01 3.318222e+01 4.865159e+01 2.601524e+01 2.456128e+01 2.188839e+01 2.045286e+01 1.884457e+01 4.802113e+01 2.343374e+00 1.350069e+00 1.671285e+00 1.670588e+00 1.988478e+00 2.077564e+00 1.841483e+00 1.891041e+00 1.885134e+00 1.746065e+00 1.716694e+00 1.497188e+00 1.395397e+00 4.760376e-01 3.078255e-01 3.542655e-01 4.267458e-01 4.723641e-01 4.820339e-01 4.107374e-01 4.531042e-01 4.822550e-01 3.977243e-01 3.893962e-01 3.348413e-01 2.233330e-01
<GCONST> 1.086618e+02
<STATE> 4
<MEAN> 39
 -1.508956e+01 -3.819946e+00 -4.705868e+00 -2.188584e+00 -5.085556e+00 -3.647155e+00 -7.197373e+00 -4.136246e+00 -3.724093e+00 -2.888887e+00 -2.316606e+00 -2.232559e+00 4.731005e+01 1.860297e+00 2.320032e-01 2.634856e-01 -7.594570e-01 -4.473535e-01 1.356997e-01 -1.712306e-01 -8.630691e-02 -2.741019e-01 -1.577988e-01 1.472861e-01 -4.237187e-01 6.183981e-01 4.433883e-01 5.817492e-03 1.877967e-01 -2.686299e-01 -1.936320e-01 1.133403e-01 -1.066142e-01 3.184290e-02 -6.748185e-02 4.492959e-02 1.190244e-01 -1.247067e-01 2.902981e-01
<VARIANCE> 39
 4.161306e+01 3.329775e+01 2.023298e+01 2.684600e+01 2.315094e+01 2.835581e+01 3.520035e+01 2.889471e+01 2.521238e+01 2.230560e+01 1.876683e+01 1.759512e+01 1.368968e+02 9.361556e+00 3.314399e+00 3.129751e+00 4.782631e+00 2.825489e+00 3.798505e+00 2.711936e+00 3.154475e+00 2.996841e+00 2.390552e+00 2.356234e+00 2.424124e+00 4.787735e+00 9.405565e-01 5.548555e-01 4.876428e-01 6.946227e-01 5.312645e-01 6.040816e-01 5.481580e-01 5.987774e-01 5.971082e-01 4.860356e-01 4.706601e-01 4.216417e-01 5.839434e-01
<GCONST> 1.242337e+02
<TRANSP> 5
 0.000000e+00 1.000000e+00 0.000000e+00 0.000000e+00 0.000000e+00
 0.000000e+00 6.752867e-01 3.247133e-01 0.000000e+00 0.000000e+00
 0.000000e+00 0.000000e+00 8.247076e-01 1.752924e-01 0.000000e+00
 0.000000e+00 0.000000e+00 0.000000e+00 8.193698e-01 1.806302e-01
 0.000000e+00 0.000000e+00 0.000000e+00 0.000000e+00 0.000000e+00
<ENDHMM>
~h "g"
<BEGINHMM>
<NUMSTATES> 5
<STATE> 2
<MEAN> 39
 2.560312e+00 6.834544e+00 8.572680e+00 6.986116e-01 -9.231194e+00 -5.297942e+00 -7.748082e+00 -4.877579e+00 -5.836419e+00 -8.303843e-01 -3.099366e+00 -7.986541e+00 4.931060e+01 -4.612443e-01 3.635429e-01 -2.570759e-01 3.886141e-01 9.596798e-01 -2.386721e-01 3.929222e-01 9.648696e-03 1.618674e-01 -1.138459e-01 -4.544743e-01 6.484883e-01 -2.726659e-01 -6.443741e-01 -7.765509e-01 -4.277213e-01 -5.050574e-01 9.935474e-02 -2.574797e-02 -4.455840e-01 1.783273e-01 -1.200076e-01 -2.029499e-02 3.010393e-01 3.869561e-01 1.260150e+00
<VARIANCE> 39
 2.810286e+01 3.692045e+01 4.485917e+01 3.270038e+01 4.596765e+01 4.154486e+01 5.431364e+01 5.967121e+01 5.314874e+01 4.358049e+01 3.695100e+01 3.280945e+01 4.569719e+01 4.683775e+00 5.563766e+00 5.789312e+00 3.816351e+00 6.457828e+00 4.122291e+00 4.408172e+00 5.523477e+00 5.056148e+00 3.460144e+00 3.277397e+00 3.795696e+00 8.542411e+00 5.317166e-01 5.261379e-01 6.478491e-01 5.837694e-01 1.007329e+00 6.150165e-01 7.550925e-01 8.949919e-01 9.587143e-01 6.562313e-01 6.774170e-01 5.519188e-01 7.965752e-01
<GCONST> 1.357874e+02
<STATE> 3
<MEAN> 39
 -5.916701e+00 2.863866e-01 1.059152e+00 -1.359013e+00 -7.707595e-01 -5.522655e+00 -9.711292e+00 -4.141538e+00 -7.627619e+00 -3.418070e-01 -4.177745e+00 -1.600530e+00 6.011152e+01 -1.659918e+00 -1.566051e+00 -6.115492e-01 -1.396974e+00 -9.879482e-01 -7.162648e-01 -1.912134e+00 5.080280e-01 -5.366918e-01 -1.379855e-01 1.704854e+00 1.174282e+00 3.869892e+00 7.872757e-01 2.197792e-01 8.213809e-01 -3.302224e-01 -1.694711e+00 1.672460e-01 -3.532594e-01 6.971846e-02 4.068921e-01 -1.475725e-01 7.282678e-01 -6.878136e-01 -9.475248e-02
<VARIANCE> 39
 3.264360e+01 4.183860e+01 7.988602e+01 4.938429e+01 5.895890e+01 6.373584e+01 6.229161e+01 4.185423e+01 4.611766e+01 3.693729e+01 3.777691e+01 2.452371e+01 4.680328e+01 3.676293e+00 4.066135e+00 6.511259e+00 4.173239e+00 9.812161e+00 4.369432e+00 4.302736e+00 6.993079e+00 6.001858e+00 4.178417e+00 4.923248e+00 3.288926e+00 3.918657e+00 4.891400e-01 7.686242e-01 9.833047e-01 8.482054e-01 1.145147e+00 8.874719e-01 9.497874e-01 1.409982e+00 1.193879e+00 8.364132e-01 8.556094e-01 6.848165e-01 7.880689e-01
<GCONST> 1.403081e+02
<STATE> 4
<MEAN> 39
 -4.182343e+00 -2.171125e+00 5.386650e+00 -4.948136e+00 -1.480101e+01 -8.801461e+00 -1.613531e+01 -6.346909e-01 -4.688747e+00 -1.371004e+00 4.192928e+00 -3.102276e+00 6.744609e+01 6.664561e-01 -1.401167e+00 4.205333e-02 -1.867479e+00 -2.623268e+00 5.949820e-01 -8.637940e-01 1.407293e+00 1.660079e+00 -3.395042e-01 1.174569e+00 -1.151584e+00 1.925128e+00 3.386225e-01 8.425766e-03 -2.177587e-01 8.548883e-02 7.064281e-01 5.336332e-01 6.847523e-01 -1.271625e-01 2.747662e-01 -2.907521e-02 -8.456582e-01 -5.070313e-01 -7.187185e-01
<VARIANCE> 39
 1.882041e+01 4.750302e+01 6.129673e+01 4.167338e+01 6.448743e+01 5.494261e+01 5.488517e+01 6.838221e+01 9.223862e+01 7.436390e+01 6.102127e+01 2.570554e+01 4.518500e+01 1.244400e+00 2.815219e+00 4.844769e+00 3.637162e+00 7.802051e+00 3.492464e+00 5.183164e+00 7.090161e+00 6.874150e+00 3.947598e+00 6.890794e+00 3.514418e+00 1.713754e+00 3.462309e-01 3.157830e-01 5.865997e-01 4.085627e-01 1.395493e+00 6.053457e-01 7.112157e-01 9.236504e-01 9.884583e-01 7.152389e-01 8.227100e-01 5.345042e-01 3.031162e-01
<GCONST> 1.341895e+02
<TRANSP> 5
 0.000000e+00 1.000000e+00 0.000000e+00 0.000000e+00 0.000000e+00
 0.000000e+00 7.536452e-01 2.463548e-01 0.000000e+00 0.000000e+00
 0.000000e+00 0.000000e+00 5.321485e-01 4.678515e-01 0.000000e+00
 0.000000e+00 0.000000e+00 0.000000e+00 5.130447e-01 4.869553e-01
 0.000000e+00 0.000000e+00 0.000000e+00 0.000000e+00 0.000000e+00
<ENDHMM>
~h "h"
<BEGINHMM>
<NUMSTATES> 5
<STATE> 2
<MEAN> 39
 -5.175455e+00 -5.029341e+00 -1.462481e+00 -4.740965e+00 2.509061e-01 1.734395e+00 -4.112267e+00 -2.177546e+00 -4.088625e+00 -3.742023e+00 -6.166203e+00 -3.303099e+00 6.449843e+01 -1.217083e+00 9.148815e-02 3.448566e-01 1.475092e+00 1.583209e+00 7.106065e-01 1.139513e+00 1.497845e-01 4.400338e-01 -4.514858e-01 1.657780e-02 6.779054e-01 -9.494013e-01 -8.222623e-03 -3.010052e-01 -1.102866e-02 -3.695205e-01 -3.917743e-01 -1.253192e-02 -3.586286e-01 8.866061e-02 1.113914e-01 6.547579e-02 2.792960e-01 -2.385323e-01 4.456580e-02
<VARIANCE> 39
 2.112870e+01 4.569996e+01 6.718758e+01 5.657703e+01 8.464365e+01 5.257889e+01 7.864665e+01 5.382531e+01 5.709851e+01 5.320741e+01 4.897360e+01 3.406236e+01 6.839606e+01 1.468498e+00 2.909087e+00 4.057908e+00 3.166150e+00 3.582248e+00 3.385521e+00 3.750891e+00 4.161204e+00 3.899137e+00 3.293028e+00 3.086727e+00 2.819774e+00 1.612192e+00 1.915616e-01 3.083892e-01 3.958939e-01 4.772629e-01 5.664015e-01 5.642282e-01 6.151558e-01 6.975536e-01 5.710751e-01 5.290961e-01 4.870890e-01 4.344574e-01 1.522793e-01
<GCONST> 1.265369e+02
<STATE> 3
<MEAN> 39
 -9.272390e+00 -8.436121e+00 -2.965574e+00 -3.668391e+00 3.743475e+00 3.982838e+00 -3.022677e+00 -1.648790e+00 -8.943923e-01 -4.611477e+00 -3.898568e+00 -3.257063e+00 6.209161e+01 -5.126645e-02 -1.040788e-01 -3.711103e-01 -4.262438e-01 -3.396445e-01 -3.934639e-01 -2.621040e-01 -1.395084e-01 -1.098061e-01 -3.577825e-02 6.938677e-02 -8.141151e-02 -5.468456e-01 3.646870e-01 1.294865e-01 -5.874579e-02 -3.124468e-01 -5.013589e-01 -2.633386e-01 -2.865576e-01 -1.253227e-01 -2.354863e-01 4.149398e-02 -4.158131e-02 -1.769465e-01 3.166538e-02
<VARIANCE> 39
 3.216751e+01 4.895768e+01 4.476714e+01 4.801742e+01 6.033368e+01 4.690520e+01 6.867275e+01 4.753587e+01 4.544564e+01 4.252136e+01 4.088499e+01 3.796327e+01 8.718554e+01 2.426295e+00 2.747612e+00 2.787337e+00 2.697964e+00 3.369359e+00 2.894737e+00 3.207886e+00 3.177134e+00 3.176616e+00 2.734102e+00 2.638362e+00 2.261660e+00 2.863493e+00 2.886012e-01 4.169409e-01 4.656463e-01 5.590387e-01 5.232318e-01 5.205683e-01 5.891051e-01 6.417344e-01 5.918613e-01 5.430688e-01 5.210385e-01 4.441230e-01 2.881345e-01
<GCONST> 1.260672e+02
<STATE> 4
<MEAN> 39
 -1.118692e+01 -6.695422e+00 -5.309505e+00 -5.035697e+00 -2.200278e+00 -1.859406e+00 -6.006624e+00 -3.559491e+00 -4.241806e+00 -5.137537e+00 -4.170360e+00 -2.777822e+00 4.634224e+01 1.642207e-01 1.645175e-01 -2.652290e-03 -9.330655e-02 -3.053882e-01 -1.421725e-01 -1.029868e-01 -1.143236e-01 -9.203297e-02 4.971543e-02 2.050853e-02 -1.317693e-01 -2.456437e-01 6.232195e-02 2.012839e-02 7.925398e-02 9.588763e-03 -6.257262e-03 5.588131e-02 -7.373574e-03 3.025518e-02 2.415658e-02 1.096475e-02 2.332438e-02 -2.901761e-02 9.681374e-02
<VARIANCE> 39
 2.644275e+01 5.850277e+01 3.507182e+01 2.920507e+01 3.836890e+01 3.348769e+01 4.867258e+01 3.673180e+01 3.276026e+01 2.948696e+01 2.545169e+01 2.635777e+01 1.614892e+02 1.356143e+00 2.208746e+00 1.609128e+00 1.777908e+00 2.130904e+00 2.022697e+00 2.259862e+00 2.188023e+00 2.205455e+00 2.042217e+00 1.895007e+00 1.838677e+00 2.438165e+00 1.923984e-01 3.262130e-01 2.653629e-01 3.077932e-01 3.586880e-01 3.588463e-01 4.177024e-01 4.220765e-01 4.117567e-01 3.910480e-01 3.652277e-01 3.328780e-01 2.570372e-01
<GCONST> 1.135672e+02
<TRANSP> 5
 0.000000e+00 1.000000e+00 0.000000e+00 0.000000e+00 0.000000e+00
 0.000000e+00 5.744774e-01 4.255226e-01 0.000000e+00 0.000000e+00
 0.000000e+00 0.000000e+00 6.964930e-01 3.035070e-01 0.000000e+00
 0.000000e+00 0.000000e+00 0.000000e+00 8.364259e-01 1.635741e-01
 0.000000e+00 0.000000e+00 0.000000e+00 0.000000e+00 0.000000e+00
<ENDHMM>
~h "i"
<BEGINHMM>
<NUMSTATES> 5
<STATE> 2
<MEAN> 39
 -7.247478e+00 -3.370597e-01 1.602235e+01 -3.678068e+00 -1.765385e+01 -6.487055e+00 -1.289424e+01 -6.632933e+00 -1.068390e+01 -4.904972e+00 3.714058e+00 -4.169127e+00 6.382307e+01 4.243099e-01 1.184224e-01 3.008971e+00 -7.896031e-01 -2.767671e+00 7.850938e-01 -1.536465e+00 -5.290645e-01 -1.576269e+00 -1.482459e-01 1.436640e+00 -7.042561e-01 1.665780e+00 -7.136808e-02 1.184208e-01 -7.698525e-01 -9.424613e-02 5.131249e-01 2.657105e-01 2.391798e-01 7.102720e-02 4.989744e-01 2.370096e-01 -3.036041e-01 -7.482745e-02 -5.115833e-01
<VARIANCE> 39
 2.664321e+01 4.869706e+01 5.194310e+01 4.051026e+01 4.541471e+01 4.220993e+01 5.184947e+01 5.945293e+01 6.158779e+01 6.799091e+01 4.651175e+01 2.603163e+01 5.654451e+01 5.426342e+00 3.265660e+00 5.254296e+00 4.097677e+00 4.758420e+00 3.855927e+00 6.304925e+00 5.666917e+00 6.099170e+00 5.864409e+00 4.091742e+00 3.006975e+00 3.842062e+00 6.485395e-01 5.978183e-01 9.768605e-01 6.138189e-01 1.000387e+00 6.816716e-01 9.603400e-01 1.062001e+00 8.878593e-01 7.498031e-01 6.865726e-01 4.839088e-01 9.151318e-01
<GCONST> 1.380061e+02
<STATE> 3
<MEAN> 39
 -7.689209e+00 1.488399e+00 1.982603e+01 -7.133489e+00 -2.105111e+01 -2.272766e+00 -1.554430e+01 -9.132664e+00 -1.108675e+01 -4.172748e+00 5.072703e+00 -6.473162e+00 6.595616e+01 2.102254e-01 8.641995e-02 -4.184518e-01 6.456508e-02 1.051246e-01 -1.911748e-01 2.944807e-01 1.239601e-01 2.294135e-01 1.681479e-01 -1.563261e-01 2.494593e-02 -2.512616e-01 1.210274e-01 2.150863e-02 -5.575927e-01 2.764057e-01 5.597122e-01 -2.639437e-01 3.500663e-01 2.030794e-01 3.067907e-01 2.144155e-02 -3.277999e-01 1.496426e-01 -4.067170e-01
<VARIANCE> 39
 1.321945e+01 4.029569e+01 3.338407e+01 3.846012e+01 2.924882e+01 4.670039e+01 3.560991e+01 5.861770e+01 7.037560e+01 9.838704e+01 6.150915e+01 2.951286e+01 2.413324e+01 8.091678e-01 1.736682e+00 1.907964e+00 1.866597e+00 2.394429e+00 2.415820e+00 2.448071e+00 3.119242e+00 2.239942e+00 2.196964e+00 1.891940e+00 1.499925e+00 1.218901e+00 1.903459e-01 2.787163e-01 3.750791e-01 3.514670e-01 5.975456e-01 4.012141e-01 5.251830e-01 5.321690e-01 5.668421e-01 5.339326e-01 4.782057e-01 3.112265e-01 2.881272e-01
<GCONST> 1.157292e+02
<STATE> 4
<MEAN> 39
 -6.764907e+00 2.059743e+00 1.042312e+01 -2.856113e+00 -1.356221e+01 -5.665611e+00 -9.140870e+00 -6.789567e+00 -7.789494e+00 -3.512487e+00 1.598800e-01 -4.182174e+00 5.235265e+01 2.341462e-01 2.478509e-01 -1.452522e+00 5.886698e-01 1.317391e+00 -1.357282e-01 6.864175e-01 2.949752e-01 7.988698e-01 4.868740e-02 -8.091549e-01 1.665454e-01 -1.922092e+00 -1.217267e-01 -7.129562e-02 -3.768651e-02 -1.084512e-01 5.063306e-02 2.116028e-01 -1.276447e-01 -8.508561e-02 -9.756279e-03 -1.273609e-02 -1.847385e-02 -3.778694e-02 8.147667e-02
<VARIANCE> 39
 2.843970e+01 5.333892e+01 7.079420e+01 3.811629e+01 6.582018e+01 6.311137e+01 5.580960e+01 5.987674e+01 5.120111e+01 5.466834e+01 4.957801e+01 3.118885e+01 1.460063e+02 2.205037e+00 3.011130e+00 3.238220e+00 2.992725e+00 4.272716e+00 3.406463e+00 4.346766e+00 4.141305e+00 4.389403e+00 3.677531e+00 3.292760e+00 2.426398e+00 5.345664e+00 3.211776e-01 5.076342e-01 4.735735e-01 5.010338e-01 8.066646e-01 6.878120e-01 7.081323e-01 7.354215e-01 6.416485e-01 5.948337e-01 5.594547e-01 4.361592e-01 6.964850e-01
<GCONST> 1.326517e+02
<TRANSP> 5
 0.000000e+00 1.000000e+00 0.000000e+00 0.000000e+00 0.000000e+00
 0.000000e+00 6.041386e-01 3.958614e-01 0.000000e+00 0.000000e+00
 0.000000e+00 0.000000e+00 8.096493e-01 1.903507e-01 0.000000e+00
 0.000000e+00 0.000000e+00 0.000000e+00 7.603913e-01 2.396087e-01
 0.000000e+00 0.000000e+00 0.000000e+00 0.000000e+00 0.000000e+00
<ENDHMM>
~h "j"
<BEGINHMM>
<NUMSTATES> 5
<STATE> 2
<MEAN> 39
 -1.369557e+00 8.495114e+00 1.036797e+01 2.369739e-01 -7.942884e+00 -5.239164e+00 -7.328704e+00 -1.688586e+00 -4.366392e+00 -5.145037e+00 -2.138157e+00 -4.195262e+00 5.109497e+01 -7.871186e-01 8.545361e-01 2.540239e-02 -9.661321e-03 1.214560e+00 2.173767e-01 9.229834e-01 -3.581604e-02 2.897137e-01 1.482195e-01 -2.862420e-01 -9.068492e-03 -4.082462e-01 -7.108886e-01 -4.894202e-01 -1.537166e-01 -2.907074e-01 -3.778824e-02 -4.153330e-02 -2.989169e-01 -2.271552e-01 -1.314197e-01 8.684734e-02 1.962248e-01 2.390530e-01 9.281848e-01
<VARIANCE> 39
 3.885622e+01 3.790997e+01 3.729713e+01 2.583331e+01 5.048691e+01 3.702620e+01 4.870413e+01 4.300441e+01 4.088506e+01 2.972476e+01 3.041069e+01 2.514523e+01 6.635291e+01 8.345737e+00 4.181279e+00 3.470719e+00 3.066727e+00 4.533578e+00 3.216934e+00 4.683003e+00 4.290428e+00 3.831206e+00 2.706422e+00 2.657196e+00 2.888050e+00 9.029042e+00 1.145828e+00 5.473083e-01 6.003408e-01 5.216246e-01 9.606199e-01 6.202545e-01 7.419040e-01 7.478074e-01 7.532446e-01 5.161862e-01 5.326989e-01 5.676150e-01 1.037437e+00
<GCONST> 1.322966e+02
<STATE> 3
<MEAN> 39
 -1.590738e+01 7.123789e+00 9.526351e+00 -2.670675e+00 -3.542263e+00 -5.134779e+00 -6.683033e+00 -5.869665e+00 -6.105235e+00 -4.416095e+00 -7.999328e-01 -2.158355e-01 6.313451e+01 -1.039433e+00 -1.474502e+00 1.045640e+00 -2.055740e-01 -2.697701e+00 -1.387192e+00 -1.533856e+00 -4.497830e-01 -9.595698e-01 -3.886152e-01 1.498923e+00 1.237002e+00 3.265941e+00 1.750929e+00 -5.622617e-01 1.135928e-01 1.481272e-01 -1.234049e+00 -2.614526e-01 -7.330598e-01 6.359845e-01 2.245346e-01 -5.738414e-02 2.485627e-01 -3.664833e-01 -3.674484e-01
<VARIANCE> 39
 3.351643e+01 2.974360e+01 4.219798e+01 2.691177e+01 5.074284e+01 4.236042e+01 3.539462e+01 2.228169e+01 2.971859e+01 2.159430e+01 2.127720e+01 1.848160e+01 2.670326e+01 1.252308e+01 3.636382e+00 3.687371e+00 3.659596e+00 8.173022e+00 3.960444e+00 4.477505e+00 4.680001e+00 3.305243e+00 2.754554e+00 2.510615e+00 2.040797e+00 2.659539e+00 8.275668e-01 8.488156e-01 1.081973e+00 6.288595e-01 1.570165e+00 9.473712e-01 8.035955e-01 1.057544e+00 8.060112e-01 6.085027e-01 6.031170e-01 5.487088e-01 4.588101e-01
<GCONST> 1.303435e+02
<STATE> 4
<MEAN> 39
 -6.251627e+00 -3.172490e+00 1.184864e+01 -4.067721e+00 -1.879987e+01 -1.082850e+01 -1.591896e+01 -1.680717e-01 -5.409202e+00 -4.957526e+00 5.045282e+00 7.263044e-01 6.998183e+01 2.415905e+00 -3.108247e+00 -1.618974e+00 -1.109481e+00 -1.591172e+00 1.972147e-01 -1.659142e+00 2.449003e+00 1.564658e+00 5.269753e-01 -8.360776e-03 -1.293576e+00 1.346028e+00 -2.191534e-01 4.046371e-01 -8.521143e-01 -3.278644e-01 1.555370e+00 8.564644e-01 7.214099e-01 -1.149060e-01 3.535048e-01 2.195824e-01 -8.322679e-01 -6.806858e-01 -6.241699e-01
<VARIANCE> 39
 1.233363e+01 3.520552e+01 2.919927e+01 5.361982e+01 2.956997e+01 2.087672e+01 3.653588e+01 6.790386e+01 5.888055e+01 4.851750e+01 3.365226e+01 1.796059e+01 2.150871e+01 2.145202e+00 3.186013e+00 3.946353e+00 2.814752e+00 8.690824e+00 3.180070e+00 6.569631e+00 6.691155e+00 4.209805e+00 3.546308e+00 5.588454e+00 2.994418e+00 9.245117e-01 5.550507e-01 4.235857e-01 4.672094e-01 5.562477e-01 6.669883e-01 6.164775e-01 7.377464e-01 1.143429e+00 7.040657e-01 6.904998e-01 6.761044e-01 4.385614e-01 1.208801e-01
<GCONST> 1.257492e+02
<TRANSP> 5
 0.000000e+00 1.000000e+00 0.000000e+00 0.000000e+00 0.000000e+00
 0.000000e+00 8.232538e-01 1.767461e-01 0.000000e+00 0.000000e+00
 0.000000e+00 0.000000e+00 7.052484e-01 2.947517e-01 0.000000e+00
 0.000000e+00 0.000000e+00 0.000000e+00 6.401564e-01 3.598436e-01
 0.000000e+00 0.000000e+00 0.000000e+00 0.000000e+00 0.000000e+00
<ENDHMM>
~h "k"
<BEGINHMM>
<NUMSTATES> 5
<STATE> 2
<MEAN> 39
 -8.872109e+00 -2.442309e-01 -2.658254e+00 -3.515674e+00 -5.028119e+00 -3.627814e+00 -5.450327e+00 -3.711795e+00 -3.773353e+00 -2.292634e+00 -3.753780e+00 -3.914971e+00 3.987108e+01 -7.341915e-01 -1.280651e-01 -4.080306e-01 2.013209e-01 2.487123e-01 -1.741241e-01 1.822973e-01 3.160422e-02 1.940722e-01 -8.389096e-02 -1.842551e-02 3.636830e-01 -9.289261e-01 -4.071791e-02 -3.418178e-01 -1.843369e-01 -2.007056e-01 1.081461e-01 -5.012226e-02 -1.927555e-01 9.172326e-02 -6.034275e-02 8.689853e-02 2.788954e-02 2.812262e-02 8.993368e-01
<VARIANCE> 39
 2.971248e+01 3.831594e+01 3.678768e+01 3.340125e+01 3.808095e+01 3.837584e+01 4.267065e+01 3.929293e+01 3.609557e+01 3.275809e+01 2.983516e+01 2.948015e+01 5.908341e+01 1.887294e+00 3.015584e+00 2.810122e+00 2.651712e+00 3.253867e+00 3.182939e+00 3.271856e+00 3.048633e+00 3.311513e+00 2.783399e+00 2.507256e+00 2.299617e+00 6.841405e+00 3.174372e-01 6.383694e-01 5.880110e-01 5.671921e-01 6.781341e-01 6.486608e-01 6.997374e-01 6.077578e-01 6.515390e-01 5.951168e-01 5.292416e-01 4.691385e-01 1.436090e+00
<GCONST> 1.264055e+02
<STATE> 3
<MEAN> 39
 -1.091607e+01 -4.365217e+00 -6.703845e+00 -3.944972e+00 -2.349524e+00 -6.227416e+00 -7.614481e+00 -3.166852e+00 -4.290303e+00 -4.009469e-01 -3.919538e+00 -2.031111e+00 4.787809e+01 -8.630768e-01 -1.983725e+00 -2.410232e+00 -9.817689e-01 1.481150e+00 -8.249900e-01 -1.130071e+00 5.666116e-01 -2.011892e-01 7.455729e-01 -5.881618e-01 5.424442e-01 4.822516e+00 6.163039e-01 3.550184e-01 6.063492e-01 -3.869985e-01 -4.978321e-01 2.370570e-01 -1.144251e-01 6.051547e-02 6.051853e-03 -2.644836e-02 8.900765e-02 -4.685226e-01 8.421628e-01
<VARIANCE> 39
 3.296769e+01 6.364416e+01 7.613494e+01 5.918116e+01 6.100019e+01 6.448121e+01 6.076041e+01 4.734621e+01 4.325910e+01 3.691831e+01 3.601118e+01 2.934773e+01 1.277640e+02 4.409979e+00 5.827000e+00 7.995143e+00 6.934243e+00 7.069396e+00 6.818260e+00 5.857643e+00 5.748137e+00 5.768302e+00 4.954838e+00 4.446187e+00 3.949389e+00 1.359670e+01 6.806595e-01 1.178411e+00 1.489885e+00 1.044378e+00 1.213536e+00 1.054399e+00 1.051446e+00 9.424201e-01 9.459642e-01 7.577426e-01 7.497224e-01 6.801032e-01 2.248264e+00
<GCONST> 1.469145e+02
<STATE> 4
<MEAN> 39
 -1.036569e+01 -5.173195e+00 -9.004427e+00 -8.382059e+00 -1.206248e+00 -6.692724e+00 -1.077353e+01 -2.087712e+00 -4.019217e+00 1.134752e+00 -5.503821e+00 -3.490619e+00 6.028302e+01 1.928970e+00 2.997007e-01 1.873342e+00 -1.116297e+00 -1.588790e+00 7.344522e-01 -3.097818e-01 3.723562e-01 2.005327e-01 -3.991632e-01 6.994007e-01 -1.416242e+00 3.139927e+00 7.469524e-01 1.177196e-01 9.347251e-01 4.647720e-02 -8.116868e-01 5.445607e-01 2.808388e-01 -4.000863e-02 9.299370e-02 -4.031568e-01 4.586605e-01 -4.783264e-01 -7.980058e-01
<VARIANCE> 39
 4.072004e+01 4.395432e+01 7.681081e+01 4.981746e+01 6.089011e+01 6.397894e+01 5.433285e+01 4.857039e+01 5.520285e+01 4.950649e+01 4.740660e+01 3.370271e+01 6.535990e+01 4.810740e+00 5.331135e+00 6.510927e+00 5.349166e+00 5.492147e+00 4.607483e+00 5.112853e+00 6.033112e+00 5.654667e+00 4.208970e+00 4.444167e+00 4.164111e+00 8.025777e+00 8.014904e-01 9.403603e-01 1.609281e+00 9.751452e-01 1.278085e+00 1.006309e+00 1.132876e+00 1.126801e+00 1.159940e+00 9.551921e-01 8.403155e-01 8.004561e-01 1.212920e+00
<GCONST> 1.452199e+02
<TRANSP> 5
 0.000000e+00 1.000000e+00 0.000000e+00 0.000000e+00 0.000000e+00
 0.000000e+00 8.264090e-01 1.735910e-01 0.000000e+00 0.000000e+00
 0.000000e+00 0.000000e+00 5.460631e-01 4.539369e-01 0.000000e+00
 0.000000e+00 0.000000e+00 0.000000e+00 5.579926e-01 4.420074e-01
 0.000000e+00 0.000000e+00 0.000000e+00 0.000000e+00 0.000000e+00
<ENDHMM>
~h "l"
<BEGINHMM>
<NUMSTATES> 5
<STATE> 2
<MEAN> 39
 5.011129e-01 -6.700164e+00 2.578098e-01 -9.063717e+00 -1.037450e+01 -1.421430e+00 -1.682637e+01 -9.924596e+00 1.106258e+00 5.195066e-01 1.480328e+00 -6.680349e+00 6.628584e+01 6.875253e-01 2.488100e-02 2.957625e-01 -5.349931e-01 4.747410e-01 8.251377e-02 -1.313639e+00 -1.073553e+00 2.201368e-01 8.264459e-01 5.617120e-01 -2.636749e-01 -2.093644e-01 -2.340604e-01 1.106674e-01 1.252257e-02 -2.650896e-01 3.068087e-02 1.826185e-01 1.809904e-01 4.041489e-01 -2.918445e-01 -1.901739e-01 1.984375e-02 1.374584e-02 1.422114e-02
<VARIANCE> 39
 1.944065e+01 3.478376e+01 6.496212e+01 9.698922e+01 4.642607e+01 6.513332e+01 9.318909e+01 1.003401e+02 9.431763e+01 6.950600e+01 5.920428e+01 4.411173e+01 4.822579e+01 1.287342e+00 2.129975e+00 3.397510e+00 5.547556e+00 4.866662e+00 5.185894e+00 4.725552e+00 5.650751e+00 5.187328e+00 4.551631e+00 4.088249e+00 3.318040e+00 1.955064e+00 2.784643e-01 3.333738e-01 4.120764e-01 8.201248e-01 8.074592e-01 7.893901e-01 8.970076e-01 1.046690e+00 8.724983e-01 8.037982e-01 7.151670e-01 5.177001e-01 1.805035e-01
<GCONST> 1.344935e+02
<STATE> 3
<MEAN> 39
 1.697059e+00 -5.829397e+00 -1.098700e+00 -1.527585e+01 -8.437873e+00 1.197041e+00 -1.941184e+01 -1.030817e+01 1.403720e-01 3.668825e+00 3.492898e+00 -7.225936e+00 6.718307e+01 -1.129652e-01 -2.091561e-02 -1.461155e-01 -3.828289e-01 2.407138e-01 1.304601e-01 -1.078788e-01 4.478687e-01 -3.237555e-02 4.734692e-02 -1.513946e-01 -9.772342e-02 7.811332e-02 -2.233765e-01 -1.839349e-01 -1.959887e-01 1.695375e-01 -4.024962e-02 7.402375e-02 3.971867e-01 5.302267e-01 9.744486e-02 -3.685434e-01 -4.345619e-01 -9.515905e-02 1.811757e-01
<VARIANCE> 39
 1.203272e+01 4.316743e+01 7.144012e+01 8.571913e+01 4.147017e+01 4.850502e+01 8.942035e+01 7.704315e+01 7.961263e+01 5.858169e+01 5.098994e+01 4.911649e+01 2.604367e+01 4.457363e-01 1.293492e+00 1.628212e+00 2.428508e+00 1.642293e+00 2.425107e+00 2.708147e+00 3.730880e+00 2.738657e+00 2.487957e+00 2.764504e+00 2.019512e+00 8.385388e-01 9.502618e-02 2.632807e-01 2.622909e-01 4.714929e-01 5.001952e-01 5.263554e-01 6.300794e-01 6.860858e-01 5.551522e-01 5.982788e-01 5.781789e-01 4.617082e-01 1.033905e-01
<GCONST> 1.179652e+02
<STATE> 4
<MEAN> 39
 2.166010e-01 -5.412056e+00 -9.388499e-01 -1.242128e+01 -7.366863e+00 -4.440299e-01 -1.791586e+01 -6.958936e+00 -1.102240e-01 1.359500e+00 -7.086625e-02 -7.301927e+00 6.502965e+01 -6.894910e-01 -1.497127e-01 -2.007130e-01 7.904504e-01 7.351439e-03 -9.014519e-02 1.272295e+00 1.511232e+00 -1.054192e-01 -1.017665e+00 -1.079815e+00 -7.030939e-02 -1.205154e-01 -1.366380e-01 3.156764e-02 1.577539e-02 1.240064e-01 -1.334009e-01 7.990547e-02 4.145488e-01 -4.183052e-03 -1.455063e-01 -2.032054e-01 8.177643e-02 1.731092e-02 -4.907266e-02
<VARIANCE> 39
 1.472791e+01 4.513237e+01 8.833284e+01 8.955367e+01 4.736138e+01 7.238428e+01 9.087805e+01 7.461192e+01 7.468298e+01 7.089123e+01 5.787919e+01 4.753021e+01 6.787143e+01 8.802500e-01 3.377783e+00 3.381348e+00 5.165926e+00 4.749267e+00 4.724435e+00 4.750130e+00 6.550267e+00 5.178185e+00 4.152511e+00 4.723535e+00 3.860617e+00 3.528693e+00 1.544540e-01 3.214455e-01 3.119881e-01 6.848746e-01 7.811984e-01 6.767903e-01 8.478873e-01 7.397551e-01 7.092518e-01 7.712728e-01 6.740319e-01 4.864434e-01 2.633804e-01
<GCONST> 1.338543e+02
<TRANSP> 5
 0.000000e+00 1.000000e+00 0.000000e+00 0.000000e+00 0.000000e+00
 0.000000e+00 4.775179e-01 5.224821e-01 0.000000e+00 0.000000e+00
 0.000000e+00 0.000000e+00 6.767840e-01 3.232160e-01 0.000000e+00
 0.000000e+00 0.000000e+00 0.000000e+00 4.479037e-01 5.520963e-01
 0.000000e+00 0.000000e+00 0.000000e+00 0.000000e+00 0.000000e+00
<ENDHMM>
~h "m"
<BEGINHMM>
<NUMSTATES> 5
<STATE> 2
<MEAN> 39
 -2.275074e-01 -1.722260e+00 3.571985e+00 -4.163573e+00 -5.937322e+00 2.547680e+00 -8.983682e+00 -8.785398e+00 -9.466946e+00 -2.086677e+00 -2.187089e+00 -7.425508e+00 5.615674e+01 3.538454e-01 8.916311e-01 1.983280e+00 1.598827e+00 3.406116e-01 4.871936e-01 1.666148e-02 -1.950685e+00 -1.784239e+00 -1.061235e-01 -6.116973e-01 5.975166e-02 -1.799957e-01 -2.047687e-01 -2.991945e-01 -1.232551e-01 -2.427208e-01 -1.076557e-01 -8.291535e-03 -1.012375e-01 2.407218e-01 2.459457e-01 -1.139426e-01 6.830687e-03 4.102685e-02 3.956623e-01
<VARIANCE> 39
 3.583376e+01 3.992081e+01 5.158411e+01 5.481104e+01 4.382137e+01 4.861839e+01 8.420802e+01 7.360352e+01 1.048237e+02 4.724056e+01 5.796392e+01 4.416199e+01 1.124994e+02 2.546242e+00 3.389302e+00 4.186713e+00 4.986173e+00 3.445868e+00 4.022319e+00 5.606149e+00 5.429442e+00 6.552658e+00 3.926739e+00 5.332146e+00 3.942532e+00 6.643395e+00 3.610145e-01 3.851089e-01 6.696222e-01 5.621172e-01 5.253446e-01 5.078438e-01 6.512949e-01 8.189221e-01 8.462811e-01 5.322542e-01 7.056831e-01 4.837207e-01 4.190734e-01
<GCONST> 1.361477e+02
<STATE> 3
<MEAN> 39
 1.558083e+00 -1.980723e+00 7.512312e+00 -2.304260e+00 -7.290913e+00 4.152183e+00 -1.127629e+01 -1.151534e+01 -1.233423e+01 -3.041961e+00 -3.386219e+00 -7.480522e+00 6.061045e+01 -6.392474e-02 5.007467e-02 1.179976e-01 7.068338e-02 -7.337470e-02 1.506432e-01 4.855803e-02 -3.613789e-02 1.199272e-02 -1.846595e-01 -1.052148e-01 4.625072e-02 1.079849e-01 3.248614e-02 -1.427995e-01 -5.127177e-01 -5.130031e-01 -1.416650e-01 -8.512390e-02 2.315567e-02 5.137814e-01 4.572331e-01 5.553045e-02 2.432564e-01 -8.537572e-02 1.624002e-01
<VARIANCE> 39
 1.408767e+01 3.193207e+01 3.594566e+01 4.021141e+01 4.692431e+01 5.812367e+01 1.003177e+02 7.430897e+01 1.254781e+02 5.754525e+01 6.909856e+01 4.779747e+01 2.492655e+01 2.694258e-01 8.202695e-01 1.190262e+00 1.616691e+00 1.223648e+00 1.418098e+00 1.550464e+00 1.899996e+00 2.049580e+00 1.619731e+00 2.277011e+00 1.438101e+00 8.405060e-01 9.290639e-02 1.876823e-01 3.799578e-01 4.053513e-01 2.901902e-01 3.060786e-01 4.904321e-01 5.567364e-01 6.296307e-01 4.131507e-01 5.620946e-01 3.993800e-01 1.597641e-01
<GCONST> 1.107683e+02
<STATE> 4
<MEAN> 39
 -1.087863e+00 -1.162710e+00 4.552368e+00 -3.572929e+00 -6.922580e+00 2.890558e+00 -9.183671e+00 -8.565804e+00 -8.884035e+00 -3.620373e+00 -3.605819e+00 -6.699648e+00 5.577495e+01 -6.983689e-03 -1.456760e-01 -1.240469e+00 -1.081715e+00 -2.379957e-01 -1.118917e-01 2.152546e-01 1.015352e+00 1.045563e+00 1.241392e-01 5.914901e-01 -1.220963e-01 1.584306e-01 -6.840581e-02 -1.775772e-01 -2.001124e-01 -1.633023e-01 6.086677e-02 1.462396e-02 -8.969504e-02 2.329485e-01 1.629657e-01 1.646288e-02 9.387385e-02 -5.592275e-02 4.743782e-02
<VARIANCE> 39
 3.330410e+01 3.985313e+01 5.839249e+01 5.497547e+01 5.872536e+01 5.460680e+01 8.381117e+01 6.977695e+01 9.158387e+01 4.739503e+01 5.730619e+01 4.622960e+01 1.099751e+02 8.365241e-01 2.474057e+00 4.091727e+00 4.595907e+00 2.757596e+00 2.605388e+00 3.792927e+00 4.357940e+00 4.616496e+00 2.853720e+00 4.128281e+00 2.937471e+00 3.765765e+00 1.350025e-01 2.622637e-01 4.646553e-01 4.677188e-01 4.870705e-01 4.322580e-01 5.290375e-01 5.836661e-01 6.203569e-01 4.400046e-01 5.308447e-01 4.321913e-01 2.457352e-01
<GCONST> 1.277108e+02
<TRANSP> 5
 0.000000e+00 1.000000e+00 0.000000e+00 0.000000e+00 0.000000e+00
 0.000000e+00 5.936159e-01 4.063841e-01 0.000000e+00 0.000000e+00
 0.000000e+00 0.000000e+00 7.605476e-01 2.394523e-01 0.000000e+00
 0.000000e+00 0.000000e+00 0.000000e+00 6.611915e-01 3.388085e-01
 0.000000e+00 0.000000e+00 0.000000e+00 0.000000e+00 0.000000e+00
<ENDHMM>
~h "n"
<BEGINHMM>
<NUMSTATES> 5
<STATE> 2
<MEAN> 39
 9.953371e-01 -6.685930e+00 3.616700e+00 -4.326022e+00 -9.879370e+00 -3.884632e+00 -1.358786e+01 -1.366549e+00 -1.815929e+00 -1.757671e+00 -6.214945e+00 -8.080862e+00 6.506071e+01 6.127697e-01 2.599728e+00 2.125726e+00 2.220926e+00 -4.989786e-02 -9.366680e-01 -2.896649e-03 -3.540668e+00 -9.684215e-01 1.773852e+00 -9.916277e-01 7.027555e-01 -2.420730e+00 -1.759774e-01 3.025484e-02 2.124714e-02 -2.858641e-01 7.242047e-02 1.255342e-01 2.235602e-01 -2.680734e-01 -2.054732e-01 1.147924e-01 1.159557e-01 7.131743e-02 1.209667e-01
<VARIANCE> 39
 1.169060e+01 4.997598e+01 5.829414e+01 5.122897e+01 5.422768e+01 4.047809e+01 7.407301e+01 9.617487e+01 9.280197e+01 6.805188e+01 5.176630e+01 3.890421e+01 3.906205e+01 8.182325e-01 2.061616e+00 4.804145e+00 3.240367e+00 3.900797e+00 4.548412e+00 7.331941e+00 5.044018e+00 6.918528e+00 5.058138e+00 4.163736e+00 3.323213e+00 9.858903e-01 1.137004e-01 4.601803e-01 5.398657e-01 4.738162e-01 5.570014e-01 6.384283e-01 6.838151e-01 1.184160e+00 8.078595e-01 8.189362e-01 5.259088e-01 4.108741e-01 2.555256e-01
<GCONST> 1.296927e+02
<STATE> 3
<MEAN> 39
 1.359025e+00 -1.622417e+00 8.940646e+00 -8.339249e-01 -1.135242e+01 -4.408406e+00 -1.465481e+01 -1.052325e+01 -2.689048e+00 2.611205e+00 -7.075594e+00 -6.406200e+00 6.078133e+01 2.251322e-02 6.779796e-01 4.332719e-01 3.884641e-01 3.582205e-02 2.277733e-02 1.132317e-01 -8.660396e-01 -3.550751e-01 5.047637e-01 -1.829157e-01 3.575346e-01 -5.893371e-01 -1.673123e-01 -4.004868e-01 -5.242729e-01 -4.330515e-01 1.495847e-01 1.940996e-01 6.848291e-02 8.260756e-01 8.664365e-02 -4.577658e-01 2.552620e-01 -1.259152e-01 3.587399e-01
<VARIANCE> 39
 1.252955e+01 2.908475e+01 4.828174e+01 4.005390e+01 4.803341e+01 4.879121e+01 9.615463e+01 7.050516e+01 1.061932e+02 5.651951e+01 4.915313e+01 4.850396e+01 2.073469e+01 3.646102e-01 1.512439e+00 2.165814e+00 1.442540e+00 1.632949e+00 2.222202e+00 2.670580e+00 3.649822e+00 2.817508e+00 2.419099e+00 2.117725e+00 1.831020e+00 9.554652e-01 1.192373e-01 3.241242e-01 5.640373e-01 4.094983e-01 4.403023e-01 5.650527e-01 7.006439e-01 8.015487e-01 7.705494e-01 6.294062e-01 5.154092e-01 4.483590e-01 2.146119e-01
<GCONST> 1.181565e+02
<STATE> 4
<MEAN> 39
 -2.211308e+00 6.399034e-01 5.156945e+00 5.022102e-01 -6.339077e+00 -4.253636e+00 -8.436349e+00 -7.142688e+00 -6.335859e+00 -4.258759e-01 -7.754333e+00 -3.900121e+00 5.100740e+01 -4.139434e-01 2.677951e-01 -4.364947e-01 -1.600238e-02 4.373444e-01 2.720185e-01 3.858380e-01 3.215433e-01 2.887858e-02 -5.130261e-01 1.868161e-01 -3.905074e-02 -7.836320e-01 -1.085315e-01 -1.171572e-01 -9.423900e-02 -1.194894e-01 4.549623e-03 5.092202e-02 -1.345836e-02 1.698331e-01 8.732212e-02 -1.233391e-01 8.563836e-02 -5.716217e-02 9.678751e-03
<VARIANCE> 39
 4.120626e+01 3.663956e+01 5.291015e+01 4.289818e+01 5.088527e+01 4.009283e+01 1.058830e+02 5.640739e+01 9.567669e+01 5.678368e+01 5.145137e+01 4.040862e+01 1.081150e+02 9.291648e-01 2.265966e+00 2.130293e+00 2.215168e+00 2.447171e+00 2.641936e+00 3.246264e+00 3.541639e+00 3.352806e+00 2.958436e+00 2.585097e+00 2.239905e+00 2.585418e+00 1.792425e-01 3.410831e-01 3.291837e-01 3.955863e-01 4.224595e-01 4.594199e-01 5.495166e-01 5.989013e-01 5.387810e-01 5.261850e-01 4.625070e-01 3.782966e-01 2.863413e-01
<GCONST> 1.237301e+02
<TRANSP> 5
 0.000000e+00 1.000000e+00 0.000000e+00 0.000000e+00 0.000000e+00
 0.000000e+00 5.120002e-01 4.879998e-01 0.000000e+00 0.000000e+00
 0.000000e+00 0.000000e+00 7.144967e-01 2.855033e-01 0.000000e+00
 0.000000e+00 0.000000e+00 0.000000e+00 7.965113e-01 2.034887e-01
 0.000000e+00 0.000000e+00 0.000000e+00 0.000000e+00 0.000000e+00
<ENDHMM>
~h "o"
<BEGINHMM>
<NUMSTATES> 5
<STATE> 2
<MEAN> 39
 1.161579e-01 -3.272922e+00 -5.607900e+00 -1.685390e+01 -1.076584e+01 4.368237e+00 -1.291974e+01 -4.388145e+00 -2.715733e+00 -8.144630e-01 3.029373e+00 -5.548937e+00 6.395206e+01 1.532407e+00 -7.001449e-01 -5.131416e-01 -2.772095e+00 -9.198138e-01 2.313352e+00 -2.646399e-01 8.304825e-02 2.191248e-01 -9.311491e-04 1.403996e+00 -6.234955e-01 1.811709e+00 -4.622283e-01 1.592153e-02 1.399460e-01 4.522330e-01 3.104981e-01 -1.601273e-01 3.422490e-01 -7.003699e-02 -1.510206e-01 -1.013357e-01 -1.466856e-01 1.217967e-01 -4.868177e-01
<VARIANCE> 39
 2.707751e+01 4.475290e+01 4.733838e+01 1.076118e+02 4.984386e+01 5.737672e+01 9.691550e+01 6.425558e+01 7.157477e+01 6.596418e+01 5.446690e+01 4.389899e+01 1.021740e+02 4.193369e+00 3.012833e+00 5.757063e+00 6.741199e+00 6.024240e+00 5.179757e+00 4.992280e+00 6.230575e+00 5.357478e+00 5.558351e+00 4.113281e+00 3.637659e+00 5.896475e+00 7.359484e-01 5.487911e-01 6.997997e-01 1.425597e+00 8.154344e-01 9.647878e-01 9.149687e-01 8.889896e-01 9.163982e-01 9.265438e-01 7.436777e-01 6.168776e-01 1.244657e+00
<GCONST> 1.437414e+02
<STATE> 3
<MEAN> 39
 2.089600e+00 -4.523249e+00 -6.987753e+00 -2.209955e+01 -1.232618e+01 1.014414e+01 -1.287258e+01 -4.987389e+00 -1.993019e+00 -3.183753e+00 7.167194e+00 -6.506392e+00 6.870555e+01 6.993702e-02 -1.336063e-01 -4.911617e-02 -6.488799e-02 1.577671e-01 1.093466e-01 8.689905e-02 -5.982791e-02 3.896009e-03 7.162349e-02 -5.092204e-02 -5.839974e-02 -4.587257e-02 -1.047891e-01 1.514004e-01 1.635855e-01 6.275020e-01 1.699824e-01 -5.426676e-01 -3.289899e-02 -2.692080e-02 -2.375099e-02 1.028603e-01 -3.968009e-01 7.927959e-02 -3.375143e-01
<VARIANCE> 39
 9.777701e+00 4.472895e+01 3.885240e+01 5.569384e+01 4.053066e+01 3.796594e+01 8.008634e+01 7.026203e+01 6.462337e+01 6.036149e+01 4.513431e+01 5.219534e+01 2.114408e+01 3.642874e-01 1.223536e+00 1.042647e+00 3.057549e+00 1.659552e+00 2.381041e+00 2.483288e+00 2.185303e+00 2.366975e+00 3.000294e+00 2.096536e+00 1.883040e+00 7.127557e-01 1.347512e-01 2.108936e-01 2.558808e-01 4.102973e-01 4.218358e-01 4.129194e-01 4.075955e-01 5.082490e-01 4.371110e-01 4.825696e-01 4.273984e-01 3.736652e-01 1.626025e-01
<GCONST> 1.125646e+02
<STATE> 4
<MEAN> 39
 1.545650e+00 -2.081530e+00 -6.129510e+00 -1.728614e+01 -9.031493e+00 4.584639e+00 -1.143934e+01 -4.323796e+00 -4.296194e+00 -8.270980e-01 2.483087e+00 -5.657498e+00 6.018493e+01 -2.820766e-01 6.897859e-01 5.139414e-01 2.028844e+00 6.273617e-01 -1.365132e+00 3.901602e-01 -1.278181e-01 4.866209e-02 1.106639e-01 -1.163690e+00 1.063221e-01 -1.976420e+00 -1.663039e-01 1.129990e-01 1.762047e-01 2.957596e-01 2.157881e-02 -4.708988e-02 1.418668e-01 -8.541021e-02 4.970842e-02 -1.468841e-01 -5.465111e-02 6.097311e-02 -2.379514e-01
<VARIANCE> 39
 2.151783e+01 5.755907e+01 4.381757e+01 7.721618e+01 5.630346e+01 5.087237e+01 9.869752e+01 6.127164e+01 7.765009e+01 6.869617e+01 5.112006e+01 4.826606e+01 1.121324e+02 1.122661e+00 2.471983e+00 2.518469e+00 4.617756e+00 3.778185e+00 3.506733e+00 3.696047e+00 4.058084e+00 3.962065e+00 3.684134e+00 3.295424e+00 2.839719e+00 3.693999e+00 2.178119e-01 4.595493e-01 4.045703e-01 7.165105e-01 6.911036e-01 5.867260e-01 7.183199e-01 6.600052e-01 7.445569e-01 7.185387e-01 5.595736e-01 5.269949e-01 6.098619e-01
<GCONST> 1.321653e+02
<TRANSP> 5
 0.000000e+00 1.000000e+00 0.000000e+00 0.000000e+00 0.000000e+00
 0.000000e+00 6.093416e-01 3.906584e-01 0.000000e+00 0.000000e+00
 0.000000e+00 0.000000e+00 8.009607e-01 1.990393e-01 0.000000e+00
 0.000000e+00 0.000000e+00 0.000000e+00 7.108549e-01 2.891451e-01
 0.000000e+00 0.000000e+00 0.000000e+00 0.000000e+00 0.000000e+00
<ENDHMM>
~h "p"
<BEGINHMM>
<NUMSTATES> 5
<STATE> 2
<MEAN> 39
 -8.525754e+00 8.593264e-01 -2.835619e+00 -3.502760e+00 -4.876070e+00 -2.803554e+00 -5.649263e+00 -4.953669e+00 -3.970512e+00 -2.876288e+00 -3.346305e+00 -4.187100e+00 3.715206e+01 -7.400696e-01 1.204187e-01 -1.616282e-01 2.449009e-01 4.231025e-02 -3.237446e-01 1.627754e-01 1.390374e-01 1.244572e-01 3.129188e-02 1.274317e-02 2.848694e-01 -9.940102e-01 2.587092e-02 -2.073216e-01 2.461544e-02 -8.891207e-02 -2.572864e-02 1.655922e-02 -9.611567e-02 1.328536e-02 -1.700364e-02 -1.174008e-02 7.983351e-02 4.067896e-02 6.032794e-01
<VARIANCE> 39
 3.432632e+01 2.918263e+01 2.496857e+01 2.399583e+01 2.310431e+01 2.984196e+01 3.024371e+01 2.529709e+01 2.702712e+01 2.345500e+01 2.206494e+01 2.527883e+01 3.301365e+01 1.333892e+00 1.351696e+00 1.370411e+00 1.501663e+00 1.722577e+00 1.940593e+00 1.966519e+00 2.061993e+00 2.180151e+00 1.917540e+00 1.762054e+00 1.748115e+00 2.861177e+00 1.990719e-01 3.215741e-01 2.712670e-01 3.388334e-01 3.548735e-01 3.911505e-01 4.151687e-01 4.181567e-01 4.180574e-01 4.199301e-01 3.864374e-01 3.405945e-01 6.937988e-01
<GCONST> 1.089611e+02
<STATE> 3
<MEAN> 39
 -8.765456e+00 2.126202e+00 -1.387727e+00 -2.297312e+00 -4.681603e+00 -3.250445e+00 -5.436572e+00 -4.697719e+00 -3.172744e+00 -2.342815e+00 -2.715109e+00 -3.479289e+00 3.795496e+01 -2.693324e-01 -1.503902e+00 -5.279552e-01 -4.573638e-01 -2.165158e-01 -2.565423e-01 -5.323437e-01 3.699151e-02 1.796637e-01 -2.093723e-01 5.200918e-01 5.762519e-01 4.468719e+00 9.338163e-01 -6.498176e-01 -1.536907e-01 -9.091437e-01 -4.553045e-01 5.539250e-01 -4.131664e-01 -4.465190e-02 -1.251815e-01 -1.415479e-02 3.433459e-01 -4.333114e-01 2.278410e+00
<VARIANCE> 39
 2.074850e+01 1.897416e+01 2.549474e+01 2.643124e+01 2.566357e+01 2.968220e+01 3.708047e+01 2.993514e+01 2.935279e+01 2.333739e+01 2.244145e+01 2.192970e+01 4.542137e+01 3.808533e+00 2.859058e+00 4.049366e+00 4.366012e+00 3.657362e+00 4.788315e+00 3.750532e+00 3.666470e+00 4.217144e+00 3.087272e+00 3.183187e+00 2.902704e+00 1.097553e+01 3.752239e-01 6.016326e-01 7.714984e-01 7.689869e-01 6.975285e-01 1.000470e+00 6.489444e-01 8.385364e-01 8.713242e-01 6.008084e-01 5.674584e-01 6.229825e-01 9.697772e-01
<GCONST> 1.275911e+02
<STATE> 4
<MEAN> 39
 -6.114218e+00 -4.189316e+00 -4.941962e+00 -7.234097e+00 -6.699205e+00 -2.309722e+00 -8.487576e+00 -5.803457e+00 -3.453984e+00 -3.033618e+00 -8.667936e-01 -3.349890e+00 5.847084e+01 2.672643e+00 -2.246145e+00 -7.196239e-01 -3.154985e+00 -1.241090e+00 2.009444e+00 -1.313479e+00 2.236470e-01 -4.738933e-02 7.069848e-02 1.242025e+00 -1.291868e+00 6.890084e+00 3.885702e-01 1.310764e-01 2.888193e-01 -2.424493e-01 -1.263928e-01 3.418473e-01 -8.706123e-02 2.282703e-01 3.219633e-02 1.472943e-01 -3.732286e-02 -5.333216e-01 -7.920698e-01
<VARIANCE> 39
 4.070957e+01 2.670492e+01 2.800866e+01 6.654101e+01 2.496056e+01 5.968024e+01 4.075821e+01 2.941216e+01 3.050010e+01 2.594173e+01 2.794177e+01 2.676509e+01 6.102103e+01 3.839538e+00 6.724902e+00 7.303324e+00 8.296680e+00 5.304859e+00 8.160938e+00 5.013597e+00 6.086958e+00 6.189827e+00 4.499404e+00 4.346850e+00 5.095894e+00 1.012822e+01 9.296083e-01 8.324766e-01 7.457486e-01 1.443110e+00 1.006289e+00 1.249450e+00 8.237242e-01 8.326803e-01 9.438767e-01 6.891302e-01 8.690225e-01 7.214436e-01 1.327748e+00
<GCONST> 1.403335e+02
<TRANSP> 5
 0.000000e+00 1.000000e+00 0.000000e+00 0.000000e+00 0.000000e+00
 0.000000e+00 8.491033e-01 1.508967e-01 0.000000e+00 0.000000e+00
 0.000000e+00 0.000000e+00 5.441303e-01 4.558697e-01 0.000000e+00
 0.000000e+00 0.000000e+00 0.000000e+00 4.710471e-01 5.289528e-01
 0.000000e+00 0.000000e+00 0.000000e+00 0.000000e+00 0.000000e+00
<ENDHMM>
~h "q"
<BEGINHMM>
<NUMSTATES> 5
<STATE> 2
<MEAN> 39
 -9.434349e+00 2.058903e+00 1.589854e+00 -2.567378e+00 -1.439611e+01 -1.181517e+01 -5.872128e+00 -7.131705e+00 -3.207820e+00 -2.785447e+00 -2.808997e+00 -2.289865e+00 4.966625e+01 -1.135003e+00 6.230158e-01 -1.657562e+00 2.111944e-02 1.474025e+00 -1.720272e-02 -4.052979e-01 9.130937e-01 -3.653887e-01 3.709293e-02 -6.128879e-01 8.881844e-01 -1.591708e+00 -1.756124e-01 -3.881314e-01 8.122939e-01 7.821364e-03 -1.935436e-01 3.576810e-01 -3.804783e-01 -4.098887e-02 -3.022651e-02 6.385943e-02 7.483632e-01 -9.070413e-02 7.746114e-01
<VARIANCE> 39
 2.497747e+01 3.107625e+01 1.901581e+02 5.579430e+01 4.136363e+01 3.320659e+01 5.798986e+01 5.706527e+01 4.664792e+01 2.233505e+01 5.959922e+01 3.242458e+01 5.859610e+01 5.036847e+00 4.088350e+00 1.337538e+01 2.241379e+00 3.618421e+00 7.947711e-01 3.046325e+00 2.548100e+00 3.834820e+00 1.484775e+00 2.498094e+00 2.492772e+00 9.382056e+00 7.518765e-01 9.679478e-01 2.161630e+00 5.616466e-01 6.783929e-01 2.392393e-01 5.096462e-01 1.033432e+00 3.521313e-01 8.905451e-01 8.177757e-01 5.119550e-01 1.676299e+00
<GCONST> 1.327579e+02
<STATE> 3
<MEAN> 39
 -8.404983e+00 -3.328352e+00 8.322546e+00 -3.398715e+00 -1.859774e+01 -7.203226e+00 -3.056064e+00 -4.467422e+00 -3.032364e+00 -7.020227e+00 4.266402e+00 -4.740127e+00 5.320381e+01 -1.437641e-01 -3.694658e-01 1.506789e-02 4.621176e-01 1.787996e-02 5.231803e-02 -7.235671e-01 -8.361141e-03 -3.160434e-01 3.353316e-02 1.336950e+00 3.036812e-01 -6.251379e-02 -5.454099e-02 -7.829168e-03 -7.840161e-02 1.580719e-03 2.288683e-01 4.529157e-02 -1.502080e-01 3.925865e-02 1.865730e-01 3.186805e-01 -1.854974e-01 9.133484e-02 1.087600e-01
<VARIANCE> 39
 2.409857e+01 6.073196e+01 4.894958e+01 1.769248e+01 5.067260e+01 2.804184e+01 4.490191e+01 5.117711e+01 3.773594e+01 2.123716e+01 5.450330e+01 1.266002e+01 1.465466e+02 2.872176e+00 3.338320e+00 8.656540e+00 1.878262e+00 5.395441e+00 3.841239e+00 2.078789e+00 2.024790e+00 3.080720e+00 2.197346e+00 4.824169e+00 1.671087e+00 1.048223e+01 4.900920e-01 5.198637e-01 2.184500e-01 2.431180e-01 7.854297e-01 5.532547e-01 3.910878e-01 5.251650e-01 5.584157e-01 4.024977e-01 6.747708e-01 4.031408e-01 1.722061e+00
<GCONST> 1.258359e+02
<STATE> 4
<MEAN> 39
 -9.849258e+00 1.213194e+00 4.736606e+00 -4.240447e-01 -1.236251e+01 -8.298664e+00 -6.940637e+00 -7.099499e+00 -6.573216e+00 -1.851535e+00 8.722942e-01 -1.607479e+00 4.211716e+01 -6.417407e-01 1.615649e-01 -1.744092e+00 -2.882434e-01 2.002559e+00 1.047754e+00 2.027252e-01 9.136655e-01 -1.500764e-03 5.723131e-01 -4.216090e-01 2.313336e-01 -7.083571e-01 -8.576615e-02 5.416954e-03 -3.819680e-02 -4.093156e-01 -4.980214e-02 9.773921e-02 1.903836e-01 -4.990511e-02 -3.676604e-02 1.831250e-02 8.542410e-02 1.287598e-02 7.005278e-01
<VARIANCE> 39
 2.158056e+01 1.686149e+01 3.865839e+01 2.360442e+01 6.677456e+01 4.692516e+01 2.462936e+01 1.752552e+01 2.632997e+01 1.591283e+01 1.828592e+01 7.683686e+00 4.261234e+01 2.391248e+00 1.420361e+00 4.706736e+00 3.798390e+00 3.603610e+00 4.205925e+00 2.070066e+00 1.442426e+00 3.772752e+00 2.669956e+00 2.382262e+00 3.035952e+00 6.266777e+00 2.819788e-01 2.630462e-01 5.904206e-01 4.461934e-01 8.287542e-01 7.219166e-01 3.942979e-01 2.793184e-01 3.339805e-01 4.032165e-01 2.925625e-01 3.285873e-01 2.915890e-01
<GCONST> 1.150509e+02
<TRANSP> 5
 0.000000e+00 1.000000e+00 0.000000e+00 0.000000e+00 0.000000e+00
 0.000000e+00 3.907679e-01 6.092321e-01 0.000000e+00 0.000000e+00
 0.000000e+00 0.000000e+00 5.053630e-01 4.946370e-01 0.000000e+00
 0.000000e+00 0.000000e+00 0.000000e+00 6.528509e-01 3.471490e-01
 0.000000e+00 0.000000e+00 0.000000e+00 0.000000e+00 0.000000e+00
<ENDHMM>
~h "r"
<BEGINHMM>
<NUMSTATES> 5
<STATE> 2
<MEAN> 39
 3.701281e-01 -7.739907e+00 -5.036067e+00 -4.671142e+00 -9.652371e+00 -4.629495e+00 -1.286681e+01 -3.767110e+00 2.627483e+00 -1.317801e-01 -1.546249e+00 -6.492191e+00 6.600349e+01 -4.559339e-02 4.558660e-01 -6.805923e-02 2.196795e+00 -1.875802e-02 -4.208046e-01 -5.535917e-02 -7.630703e-01 6.905717e-01 -5.200991e-01 9.679937e-02 6.686725e-01 -1.324308e+00 -2.366098e-01 -7.464427e-02 2.559400e-01 -3.748278e-01 -7.447234e-02 2.558740e-01 -8.184364e-02 3.060422e-01 -3.987056e-01 -1.722331e-01 1.669184e-01 8.347102e-04 9.344740e-02
<VARIANCE> 39
 1.667713e+01 3.369345e+01 5.631935e+01 5.220227e+01 5.204626e+01 4.297916e+01 8.251564e+01 7.292397e+01 6.870277e+01 5.623891e+01 5.345345e+01 4.361620e+01 4.572963e+01 2.335614e+00 2.641060e+00 3.607067e+00 5.592757e+00 5.269314e+00 5.009841e+00 4.934376e+00 6.160429e+00 5.387049e+00 5.126290e+00 4.627983e+00 3.799238e+00 2.425955e+00 3.127807e-01 3.819374e-01 4.497171e-01 7.971948e-01 6.847653e-01 6.343355e-01 7.803010e-01 8.511074e-01 7.936983e-01 7.315305e-01 6.853463e-01 5.540568e-01 5.787468e-01
<GCONST> 1.343768e+02
<STATE> 3
<MEAN> 39
 -8.348574e-01 -6.729531e+00 -4.443611e+00 3.848825e-01 -1.034885e+01 -4.491409e+00 -1.325147e+01 -4.330358e+00 3.908276e+00 -3.179693e+00 -7.421133e-01 -4.089065e+00 6.350051e+01 -3.172260e-02 -6.174082e-02 4.500618e-01 2.039302e-01 -3.940738e-01 9.753141e-02 -5.548516e-01 4.238423e-01 -4.877733e-01 -2.852948e-01 4.729949e-01 2.658778e-01 -2.327051e-01 4.815441e-02 -1.075566e-01 2.096737e-01 -8.858554e-01 -5.434426e-02 2.552921e-01 -3.375429e-03 3.352033e-01 -5.980742e-01 2.374491e-01 9.347346e-02 -3.079680e-01 3.371705e-01
<VARIANCE> 39
 2.256508e+01 2.433564e+01 6.225050e+01 4.182035e+01 6.284472e+01 4.255961e+01 8.414992e+01 5.593915e+01 5.473502e+01 4.140277e+01 3.844366e+01 3.474180e+01 4.209680e+01 2.182412e+00 2.214057e+00 3.616293e+00 2.807180e+00 4.521578e+00 3.639559e+00 3.992721e+00 4.309117e+00 4.558924e+00 3.687917e+00 3.511770e+00 3.229315e+00 2.388199e+00 4.682662e-01 5.515341e-01 6.685554e-01 8.118616e-01 1.215303e+00 8.763630e-01 9.517878e-01 1.110383e+00 9.974642e-01 9.045345e-01 9.466935e-01 6.685559e-01 5.952384e-01
<GCONST> 1.335958e+02
<STATE> 4
<MEAN> 39
 -3.617358e+00 -6.292808e+00 -3.148363e+00 -3.237807e+00 -6.680599e+00 -4.127647e+00 -1.211589e+01 -1.623065e+00 -4.258367e-01 -2.311124e+00 -6.619927e-01 -4.198122e+00 5.702212e+01 5.101920e-02 1.616218e-01 4.408211e-01 -4.411773e-01 -8.182281e-02 2.415134e-01 -3.155247e-03 2.290062e-01 -8.119293e-01 9.658221e-02 1.718639e-01 -1.343757e-01 -2.734538e-01 2.266758e-02 2.303063e-02 5.444472e-02 -1.457581e-01 -6.587493e-02 1.304552e-01 1.235425e-01 -3.780205e-02 -6.988147e-02 1.760317e-02 -9.042227e-02 -1.714667e-01 5.104903e-02
<VARIANCE> 39
 5.332974e+01 4.491630e+01 5.778846e+01 4.471888e+01 5.811445e+01 5.451832e+01 8.897294e+01 5.510631e+01 5.200517e+01 4.829101e+01 4.322523e+01 3.976565e+01 1.402798e+02 3.287924e+00 4.229218e+00 3.700921e+00 3.303409e+00 4.691367e+00 3.862326e+00 4.649849e+00 4.646724e+00 4.749555e+00 3.834348e+00 3.721574e+00 3.010670e+00 5.920815e+00 5.999722e-01 6.135374e-01 5.691785e-01 6.829796e-01 7.941066e-01 7.571941e-01 8.608726e-01 8.191034e-01 7.755729e-01 7.432489e-01 6.812718e-01 5.944037e-01 7.049647e-01
<GCONST> 1.376918e+02
<TRANSP> 5
 0.000000e+00 1.000000e+00 0.000000e+00 0.000000e+00 0.000000e+00
 0.000000e+00 3.902240e-01 6.097760e-01 0.000000e+00 0.000000e+00
 0.000000e+00 0.000000e+00 4.384725e-01 5.615274e-01 0.000000e+00
 0.000000e+00 0.000000e+00 0.000000e+00 6.334839e-01 3.665162e-01
 0.000000e+00 0.000000e+00 0.000000e+00 0.000000e+00 0.000000e+00
<ENDHMM>
~h "s"
<BEGINHMM>
<NUMSTATES> 5
<STATE> 2
<MEAN> 39
 -1.317519e+01 4.301330e+00 -3.232983e-01 -3.382581e+00 -7.505867e-01 -7.043625e+00 -6.019397e+00 -2.014450e+00 -2.811469e+00 -2.421906e+00 -3.954182e+00 -1.903911e+00 6.295180e+01 -4.651687e+00 2.165146e+00 -1.271813e+00 1.153025e+00 1.574985e+00 1.265403e-02 1.750659e+00 5.990622e-01 4.815291e-01 -5.780387e-01 5.771934e-01 7.989995e-01 -6.000171e-01 -3.336038e-01 -5.673290e-01 -3.442098e-01 -2.987013e-01 -4.670013e-01 3.112113e-01 -2.295176e-01 7.270668e-03 -1.468161e-02 4.734803e-02 2.845619e-01 -2.068008e-01 -3.634026e-02
<VARIANCE> 39
 7.823448e+01 4.757104e+01 5.013062e+01 4.847569e+01 5.140006e+01 4.515341e+01 8.294762e+01 4.519977e+01 5.187455e+01 4.126744e+01 4.578191e+01 2.847741e+01 5.936692e+01 3.336143e+00 5.739075e+00 4.434350e+00 4.706505e+00 5.727070e+00 5.232504e+00 5.252434e+00 5.232313e+00 4.651939e+00 3.776036e+00 4.058510e+00 2.910076e+00 2.001606e+00 1.152506e+00 8.174953e-01 4.394134e-01 6.703752e-01 7.574535e-01 7.787396e-01 9.423142e-01 7.712881e-01 6.658627e-01 6.874995e-01 6.093824e-01 5.076836e-01 2.074260e-01
<GCONST> 1.356761e+02
<STATE> 3
<MEAN> 39
 -2.955308e+01 5.251805e+00 -8.023517e+00 -2.611030e+00 -2.799456e-02 -5.884904e+00 -2.530236e+00 -8.263124e-01 -1.300456e+00 -2.764325e+00 4.997174e-02 3.217699e-01 6.000292e+01 -6.837060e-01 -5.619856e-01 -5.214843e-01 -2.501671e-01 -2.830794e-01 -5.381417e-02 8.092790e-03 -1.488235e-02 1.370143e-01 6.779768e-02 2.013023e-01 1.545757e-01 -3.080516e-01 9.532819e-01 -2.043911e-01 4.057073e-01 -1.117753e-01 -1.634915e-01 -1.095367e-01 -2.640148e-01 -1.250554e-01 -4.662032e-02 -4.777922e-03 -1.782988e-01 -1.530743e-01 9.515020e-02
<VARIANCE> 39
 1.672118e+01 2.163707e+01 3.450559e+01 3.655890e+01 2.902870e+01 3.615834e+01 4.832983e+01 2.960267e+01 2.957412e+01 2.623179e+01 2.464481e+01 1.878818e+01 3.000002e+01 2.820786e+00 1.610701e+00 2.160510e+00 1.473104e+00 1.760687e+00 1.810613e+00 1.943205e+00 2.022984e+00 1.864308e+00 1.729373e+00 1.667581e+00 1.493640e+00 8.489762e-01 4.862890e-01 3.373672e-01 3.571600e-01 3.483616e-01 4.079543e-01 4.174378e-01 4.977467e-01 4.576761e-01 3.892617e-01 3.690442e-01 3.448139e-01 3.329968e-01 1.675176e-01
<GCONST> 1.092100e+02
<STATE> 4
<MEAN> 39
 -2.033534e+01 5.654952e-01 -5.610636e+00 -3.774494e+00 -2.631849e+00 -6.579396e+00 -5.238398e+00 -1.855055e+00 -1.348175e+00 -2.964956e+00 -1.911655e+00 -9.552197e-01 5.454748e+01 3.544449e+00 -5.038386e-01 1.343370e+00 -4.771188e-01 -7.995596e-01 -1.112967e-02 -1.458641e+00 -7.275342e-01 -2.479074e-01 6.544441e-02 -4.227137e-01 -9.734397e-01 3.313734e-01 5.520130e-01 -2.287480e-02 2.813029e-01 -1.383759e-01 -1.092873e-01 2.660089e-01 -2.705762e-01 -3.859126e-02 -1.444937e-01 8.611208e-02 9.355658e-02 -1.844116e-01 2.677258e-01
<VARIANCE> 39
 7.078683e+01 3.788451e+01 4.428759e+01 3.445297e+01 3.550743e+01 4.062788e+01 5.648028e+01 3.561168e+01 3.514770e+01 3.303594e+01 2.806000e+01 2.482772e+01 1.162101e+02 9.874978e+00 3.775392e+00 5.463410e+00 4.159567e+00 3.777565e+00 4.168465e+00 5.319038e+00 4.280108e+00 3.657744e+00 3.158695e+00 2.873241e+00 2.868175e+00 5.696735e+00 1.181529e+00 5.823510e-01 6.532358e-01 5.900993e-01 5.997480e-01 6.778226e-01 8.982348e-01 7.533971e-01 6.164054e-01 5.882108e-01 5.429404e-01 4.884108e-01 6.293439e-01
<GCONST> 1.336386e+02
<TRANSP> 5
 0.000000e+00 1.000000e+00 0.000000e+00 0.000000e+00 0.000000e+00
 0.000000e+00 7.181647e-01 2.818353e-01 0.000000e+00 0.000000e+00
 0.000000e+00 0.000000e+00 8.433762e-01 1.566238e-01 0.000000e+00
 0.000000e+00 0.000000e+00 0.000000e+00 7.640572e-01 2.359428e-01
 0.000000e+00 0.000000e+00 0.000000e+00 0.000000e+00 0.000000e+00
<ENDHMM>
~h "t"
<BEGINHMM>
<NUMSTATES> 5
<STATE> 2
<MEAN> 39
 -7.857242e+00 8.063912e-01 -2.490496e+00 -3.563523e+00 -5.030186e+00 -4.433578e+00 -6.799178e+00 -4.077474e+00 -2.142509e+00 -2.509878e+00 -4.144708e+00 -5.313715e+00 4.033163e+01 -6.005452e-01 1.138365e-01 -1.867021e-01 1.753382e-01 -3.158801e-02 3.640237e-02 3.570984e-01 6.939881e-02 -7.592785e-02 -8.110173e-02 5.301286e-02 3.231499e-01 -1.655654e+00 -1.601536e-01 -3.387564e-01 -1.319749e-02 -1.782294e-01 4.640382e-03 -4.393850e-02 -4.575276e-02 5.036645e-02 -1.477529e-02 1.936324e-03 1.016602e-01 1.008244e-01 7.767278e-01
<VARIANCE> 39
 3.580384e+01 3.371268e+01 3.495029e+01 2.957453e+01 2.905236e+01 3.100467e+01 4.248204e+01 3.516798e+01 3.664447e+01 2.989337e+01 3.197441e+01 3.383101e+01 5.692392e+01 1.669117e+00 2.047698e+00 1.840598e+00 1.996851e+00 2.376010e+00 2.264039e+00 2.603485e+00 2.349333e+00 2.494957e+00 2.281484e+00 2.160287e+00 2.048798e+00 5.403896e+00 3.288880e-01 5.607505e-01 3.757316e-01 4.753221e-01 4.965781e-01 4.624113e-01 5.136129e-01 5.213883e-01 5.012433e-01 4.730029e-01 4.673713e-01 4.138710e-01 1.041712e+00
<GCONST> 1.195480e+02
<STATE> 3
<MEAN> 39
 -9.578503e+00 2.167334e+00 -8.480983e-01 -2.245673e+00 -4.905664e+00 -4.635123e+00 -5.888680e+00 -4.345136e+00 -2.310534e+00 -1.728770e+00 -2.770430e+00 -3.699094e+00 3.858645e+01 -1.910690e+00 -2.179349e+00 -6.881879e-01 -9.984403e-01 4.514235e-01 -5.387042e-01 2.840790e-01 1.812696e-01 2.889974e-02 -4.444613e-01 3.727692e-01 8.402556e-01 4.177927e+00 5.119970e-01 -4.251212e-01 9.623544e-02 -5.353175e-01 -2.814429e-01 -6.786875e-02 -5.704145e-01 -6.465361e-02 7.526215e-02 -9.687295e-03 6.726202e-02 -3.981157e-01 2.304136e+00
<VARIANCE> 39
 2.982525e+01 2.670772e+01 3.508009e+01 3.292186e+01 3.217366e+01 3.609155e+01 4.502785e+01 3.413411e+01 3.286983e+01 2.504447e+01 2.975287e+01 2.499798e+01 5.031303e+01 3.958022e+00 3.645278e+00 4.782698e+00 3.988539e+00 4.412499e+00 4.191024e+00 4.449131e+00 4.491206e+00 4.695912e+00 3.264253e+00 3.818394e+00 3.257684e+00 1.262509e+01 6.570325e-01 6.478755e-01 8.435442e-01 6.713887e-01 7.529805e-01 7.867334e-01 7.318754e-01 7.949299e-01 8.792206e-01 5.978946e-01 6.036076e-01 5.913911e-01 1.266046e+00
<GCONST> 1.324382e+02
<STATE> 4
<MEAN> 39
 -1.376142e+01 -6.011175e+00 -3.524333e+00 -7.250072e+00 -4.870711e+00 -7.695540e+00 -7.233679e+00 -4.454831e+00 -1.934990e+00 -3.429432e+00 -2.521892e+00 -2.670183e+00 5.968623e+01 1.500677e+00 -1.171211e+00 3.781049e-01 -1.682584e+00 -6.871407e-01 1.679124e-01 -1.876094e+00 4.636415e-02 3.056675e-01 1.081805e-01 4.291700e-01 -1.036132e+00 6.426107e+00 1.257339e+00 5.541850e-01 4.891117e-01 -4.674025e-02 -4.351800e-01 6.822289e-01 -5.574505e-01 7.836737e-02 -1.129581e-01 2.770832e-01 1.011003e-01 -5.877503e-01 -8.595176e-01
<VARIANCE> 39
 3.151589e+01 2.512434e+01 3.559708e+01 3.460343e+01 3.207624e+01 3.709237e+01 4.841288e+01 2.919794e+01 3.477275e+01 2.822084e+01 2.989725e+01 2.592633e+01 6.773138e+01 5.768366e+00 5.151519e+00 7.985453e+00 5.874409e+00 5.518168e+00 5.732952e+00 6.195125e+00 6.145378e+00 6.820660e+00 4.078777e+00 4.831422e+00 4.799082e+00 1.159858e+01 7.536290e-01 8.133644e-01 1.089619e+00 8.988853e-01 1.013499e+00 1.051299e+00 1.232100e+00 1.077499e+00 1.050171e+00 8.390042e-01 9.647052e-01 8.117305e-01 1.524496e+00
<GCONST> 1.407016e+02
<TRANSP> 5
 0.000000e+00 1.000000e+00 0.000000e+00 0.000000e+00 0.000000e+00
 0.000000e+00 8.281447e-01 1.718554e-01 0.000000e+00 0.000000e+00
 0.000000e+00 0.000000e+00 4.954517e-01 5.045483e-01 0.000000e+00
 0.000000e+00 0.000000e+00 0.000000e+00 5.159277e-01 4.840722e-01
 0.000000e+00 0.000000e+00 0.000000e+00 0.000000e+00 0.000000e+00
<ENDHMM>
~h "u"
<BEGINHMM>
<NUMSTATES> 5
<STATE> 2
<MEAN> 39
 -1.618404e-01 1.372804e+00 -7.893426e-01 -9.239391e+00 -1.062184e+01 -4.545184e-01 -1.734609e+01 -7.639829e+00 -6.507498e+00 -2.587398e+00 1.984585e+00 -4.531029e+00 6.102961e+01 2.176808e+00 7.885410e-01 -1.368728e-01 -2.335108e+00 -1.629501e+00 2.399710e+00 -1.605928e+00 -7.147943e-01 -1.172193e+00 -1.375433e-02 1.769948e+00 -2.976746e-01 1.100117e+00 -4.167468e-01 6.493961e-02 4.474142e-02 -6.780340e-03 1.715591e-01 1.878923e-01 5.887744e-01 1.583870e-01 -1.924847e-02 -4.285336e-02 -1.451579e-01 1.047677e-01 -5.136326e-01
<VARIANCE> 39
 2.615155e+01 4.652402e+01 4.214065e+01 9.510352e+01 4.701945e+01 5.830898e+01 9.650523e+01 7.095473e+01 7.044398e+01 5.327101e+01 5.121587e+01 3.777065e+01 9.357372e+01 4.800096e+00 3.452364e+00 5.372414e+00 5.569607e+00 5.874211e+00 5.413419e+00 6.334321e+00 7.220899e+00 6.730677e+00 5.541040e+00 4.630641e+00 4.192614e+00 4.682284e+00 7.669934e-01 6.604217e-01 6.537688e-01 1.158519e+00 8.332201e-01 9.030399e-01 1.398910e+00 1.132721e+00 1.042940e+00 8.647794e-01 8.237226e-01 7.261231e-01 1.142277e+00
<GCONST> 1.445126e+02
<STATE> 3
<MEAN> 39
 2.579569e+00 2.945138e+00 -2.098932e+00 -1.524187e+01 -1.476561e+01 8.734857e+00 -1.892519e+01 -9.816360e+00 -8.751069e+00 -5.189398e+00 6.499982e+00 -3.283481e+00 6.467770e+01 1.341482e-01 -1.032131e-01 -1.386423e-01 -3.086731e-01 3.280767e-02 4.506034e-01 -5.792119e-03 -1.910257e-01 3.024493e-02 2.262383e-01 3.153228e-01 -3.633022e-02 7.392856e-02 -3.371496e-01 -1.741338e-01 1.267153e-01 7.932867e-01 5.587539e-01 -8.420758e-01 4.057837e-01 2.220562e-01 4.378169e-01 1.680967e-01 -6.433854e-01 -1.451508e-01 -3.653574e-01
<VARIANCE> 39
 1.083050e+01 4.367655e+01 2.937065e+01 6.567012e+01 3.634601e+01 4.876521e+01 7.909583e+01 9.180282e+01 8.425994e+01 6.673526e+01 5.061001e+01 4.355511e+01 2.456547e+01 6.987570e-01 3.042506e+00 1.674602e+00 5.965056e+00 3.404984e+00 4.281908e+00 4.641879e+00 4.952340e+00 4.618603e+00 4.758880e+00 3.975672e+00 3.038096e+00 1.999344e+00 2.832137e-01 3.899918e-01 4.234289e-01 6.558881e-01 6.685508e-01 6.757481e-01 8.655770e-01 1.014192e+00 8.341203e-01 8.648039e-01 8.406351e-01 6.750201e-01 3.156599e-01
<GCONST> 1.299948e+02
<STATE> 4
<MEAN> 39
 2.697918e+00 4.000746e+00 -1.555259e+00 -1.333629e+01 -1.072818e+01 2.480386e+00 -1.642081e+01 -6.823369e+00 -8.266421e+00 -2.866802e+00 1.720908e+00 -4.849995e+00 5.910000e+01 -4.103930e-01 6.932411e-02 5.266589e-01 1.578522e+00 8.299933e-01 -1.246876e+00 1.080243e+00 1.644446e-01 7.355765e-01 1.177149e-01 -1.154348e+00 -2.421256e-01 -1.468545e+00 -2.502555e-01 1.775200e-02 1.396005e-01 2.363869e-01 2.660182e-02 -7.584710e-02 1.717386e-01 -3.826854e-02 8.791973e-02 -1.040966e-01 -1.149318e-01 1.006013e-01 -1.952020e-01
<VARIANCE> 39
 1.562256e+01 5.904871e+01 4.178262e+01 9.183468e+01 4.915998e+01 5.197219e+01 9.232412e+01 7.874670e+01 8.229216e+01 6.402010e+01 5.167530e+01 4.620721e+01 6.748133e+01 1.225336e+00 2.744123e+00 2.781440e+00 4.276711e+00 4.069440e+00 4.004085e+00 4.504728e+00 4.668906e+00 4.264024e+00 3.794978e+00 3.921843e+00 3.598011e+00 4.342824e+00 2.577757e-01 5.093853e-01 4.150777e-01 7.550421e-01 6.575918e-01 6.020426e-01 9.706198e-01 8.412465e-01 7.566667e-01 7.768896e-01 6.637132e-01 5.850835e-01 5.031832e-01
<GCONST> 1.339948e+02
<TRANSP> 5
 0.000000e+00 1.000000e+00 0.000000e+00 0.000000e+00 0.000000e+00
 0.000000e+00 5.058984e-01 4.941016e-01 0.000000e+00 0.000000e+00
 0.000000e+00 0.000000e+00 7.133074e-01 2.866926e-01 0.000000e+00
 0.000000e+00 0.000000e+00 0.000000e+00 6.794050e-01 3.205950e-01
 0.000000e+00 0.000000e+00 0.000000e+00 0.000000e+00 0.000000e+00
<ENDHMM>
~h "w"
<BEGINHMM>
<NUMSTATES> 5
<STATE> 2
<MEAN> 39
 1.244641e+00 -1.214129e-01 -3.076385e+00 -1.346375e+01 -9.334383e+00 3.916220e+00 -1.194091e+01 -4.561493e+00 -7.187455e+00 -1.956071e+00 2.320772e+00 -4.886189e+00 5.785358e+01 1.311414e+00 1.186426e+00 1.580897e-01 -1.723049e+00 -1.177201e+00 1.073097e+00 -7.690848e-02 -2.773570e-04 -1.067360e+00 -6.445699e-01 7.645370e-01 6.350844e-01 4.655417e-02 -1.915576e-01 -1.702951e-01 1.722624e-01 5.030387e-02 -1.806459e-01 -1.745626e-01 1.149005e-01 2.216273e-01 2.045418e-01 -1.842008e-01 -1.136971e-01 -4.661809e-02 8.997448e-02
<VARIANCE> 39
 3.584534e+01 7.405836e+01 4.224079e+01 1.032208e+02 5.030845e+01 6.755776e+01 9.262035e+01 7.055978e+01 7.732822e+01 5.094244e+01 6.005331e+01 4.022208e+01 1.511112e+02 2.449247e+00 3.164112e+00 3.144693e+00 4.538857e+00 4.490443e+00 4.486191e+00 4.312831e+00 4.443906e+00 4.484393e+00 3.420340e+00 3.542495e+00 3.692392e+00 4.194613e+00 5.141711e-01 4.905347e-01 4.446868e-01 7.550848e-01 7.556733e-01 7.374452e-01 8.487009e-01 7.435568e-01 8.688937e-01 6.917914e-01 7.288471e-01 6.099935e-01 3.669750e-01
<GCONST> 1.375056e+02
<STATE> 3
<MEAN> 39
 5.666229e+00 2.107481e+00 -2.519513e+00 -2.250091e+01 -1.630968e+01 8.075818e+00 -1.333223e+01 -2.679506e+00 -6.791164e+00 -6.270138e+00 5.207363e+00 -3.649705e+00 6.246572e+01 -1.156287e-01 -5.115243e-01 -2.911521e-01 -4.655345e-01 -1.656996e-02 5.246302e-01 -8.368636e-03 -2.500145e-01 3.570963e-01 7.619983e-02 5.488291e-01 -4.744123e-02 5.756023e-01 -2.850447e-01 -5.343411e-01 -2.101641e-01 3.463128e-01 5.004622e-01 -5.314286e-02 -3.934297e-02 -1.595536e-01 3.028933e-01 3.701752e-01 2.048186e-02 -4.044579e-01 3.111091e-01
<VARIANCE> 39
 9.964669e+00 5.206956e+01 3.441655e+01 6.056028e+01 3.339024e+01 4.330410e+01 6.545979e+01 7.603267e+01 6.875389e+01 3.809045e+01 5.155817e+01 4.252682e+01 2.817071e+01 5.229613e-01 2.928387e+00 1.526289e+00 1.966418e+00 2.495644e+00 2.391335e+00 1.943627e+00 2.241955e+00 2.352468e+00 2.897584e+00 2.735258e+00 2.354032e+00 1.897439e+00 6.643961e-02 1.841036e-01 2.183321e-01 3.090992e-01 3.478735e-01 4.558294e-01 3.617861e-01 4.242383e-01 4.452410e-01 3.938160e-01 4.858251e-01 5.017839e-01 1.299604e-01
<GCONST> 1.134592e+02
<STATE> 4
<MEAN> 39
 2.221567e+00 -7.349239e+00 -6.869866e+00 -2.136377e+01 -9.839771e+00 1.119571e+01 -1.287260e+01 -6.052567e+00 -1.798841e+00 -1.791150e+00 8.085636e+00 -9.705404e+00 6.922182e+01 -1.027065e+00 -2.137005e+00 -4.578008e-01 1.525736e+00 1.775240e+00 -7.595519e-01 -2.744076e-01 2.742484e-01 1.549575e+00 8.341904e-01 -1.182636e+00 -2.405973e+00 1.296339e+00 5.498713e-03 2.771842e-01 4.025645e-01 3.818085e-01 -2.421326e-01 -6.646267e-01 2.691420e-02 5.098544e-01 -7.283433e-02 -3.788148e-01 -7.066923e-01 1.838518e-01 -2.868665e-01
<VARIANCE> 39
 1.187718e+01 4.698551e+01 4.068531e+01 5.796465e+01 3.371846e+01 3.940597e+01 7.103711e+01 6.670717e+01 8.275606e+01 5.526683e+01 5.562441e+01 5.659743e+01 2.652797e+01 3.009003e-01 1.238762e+00 1.433443e+00 1.959554e+00 2.432388e+00 3.296816e+00 2.350144e+00 2.979947e+00 2.580831e+00 2.791305e+00 3.389532e+00 2.672091e+00 5.888395e-01 6.887639e-02 1.779238e-01 1.747585e-01 2.882560e-01 4.269091e-01 3.680328e-01 3.853202e-01 4.554137e-01 4.481309e-01 4.953846e-01 5.237403e-01 6.992656e-01 8.583563e-02
<GCONST> 1.129604e+02
<TRANSP> 5
 0.000000e+00 1.000000e+00 0.000000e+00 0.000000e+00 0.000000e+00
 0.000000e+00 7.003361e-01 2.996638e-01 0.000000e+00 0.000000e+00
 0.000000e+00 0.000000e+00 8.030176e-01 1.969824e-01 0.000000e+00
 0.000000e+00 0.000000e+00 0.000000e+00 6.632159e-01 3.367842e-01
 0.000000e+00 0.000000e+00 0.000000e+00 0.000000e+00 0.000000e+00
<ENDHMM>
~h "y"
<BEGINHMM>
<NUMSTATES> 5
<STATE> 2
<MEAN> 39
 -6.695108e+00 -1.530297e+00 1.256511e+01 -7.576284e+00 -1.468840e+01 -5.494951e+00 -1.171776e+01 -6.034026e-01 -8.162290e+00 -3.735994e+00 1.472888e+00 -3.933129e+00 6.057110e+01 -2.414119e-01 9.005383e-01 2.644546e+00 -1.655453e-01 -1.539006e+00 2.703779e-02 -1.147012e+00 -6.547559e-01 -1.342909e+00 -7.155100e-02 1.459341e+00 2.860096e-01 7.408017e-01 2.922508e-02 -1.513115e-01 -3.746988e-01 -2.496912e-02 1.971181e-01 1.557415e-01 -6.016391e-02 -1.295194e-01 1.513666e-01 -1.896911e-03 -9.305489e-02 -1.313243e-01 5.947217e-02
<VARIANCE> 39
 2.665254e+01 7.715270e+01 8.271081e+01 5.153054e+01 6.340636e+01 5.301711e+01 6.184671e+01 7.846804e+01 6.707991e+01 7.354453e+01 5.516148e+01 3.020548e+01 1.615106e+02 2.050418e+00 3.159133e+00 3.881806e+00 3.070317e+00 4.181107e+00 3.342613e+00 4.464739e+00 4.263935e+00 4.340954e+00 4.659571e+00 3.187633e+00 2.936673e+00 4.513162e+00 2.634074e-01 4.565980e-01 7.950994e-01 5.508273e-01 7.504230e-01 7.156037e-01 7.445821e-01 7.622312e-01 6.872212e-01 6.769387e-01 5.468156e-01 4.866967e-01 4.081635e-01
<GCONST> 1.348414e+02
<STATE> 3
<MEAN> 39
 -6.870352e+00 -1.173405e+00 1.874485e+01 -9.233523e+00 -2.060387e+01 -6.406755e+00 -1.635417e+01 -3.501997e+00 -1.141516e+01 -2.219262e+00 5.336904e+00 -3.171364e+00 6.697973e+01 1.932808e-01 -7.773603e-01 -6.969599e-01 -1.785702e-01 -6.554211e-01 -5.345621e-01 2.050694e-01 6.874472e-01 4.877928e-01 4.306384e-01 2.203258e-01 2.099845e-01 7.083609e-01 1.519664e-01 -3.877940e-01 -7.099541e-01 -6.205030e-02 2.834592e-01 -1.004984e-01 3.718776e-01 5.457999e-01 4.819239e-01 -9.541217e-04 -4.006952e-01 -1.044041e-01 8.442114e-02
<VARIANCE> 39
 1.024852e+01 3.945786e+01 4.411586e+01 4.389051e+01 3.115183e+01 3.557487e+01 3.697899e+01 5.479419e+01 7.197166e+01 1.007148e+02 6.314371e+01 3.278862e+01 3.057171e+01 4.482472e-01 2.293404e+00 2.686226e+00 1.214283e+00 1.809800e+00 1.838493e+00 2.256190e+00 3.817100e+00 2.450803e+00 2.185633e+00 1.461971e+00 1.352902e+00 1.103917e+00 6.458031e-02 1.677504e-01 2.498811e-01 1.948546e-01 4.750318e-01 3.092001e-01 3.984985e-01 3.864436e-01 3.630669e-01 4.988096e-01 3.832798e-01 3.097229e-01 1.038473e-01
<GCONST> 1.094002e+02
<STATE> 4
<MEAN> 39
 -4.421113e+00 -9.571450e+00 7.024443e+00 -1.120578e+01 -1.977076e+01 -9.413649e+00 -1.064723e+01 7.329635e+00 -2.986843e+00 -2.605078e+00 1.065060e+00 -3.743981e+00 7.242657e+01 6.007876e-01 -1.690063e+00 -3.130153e+00 -2.597179e-01 2.337418e+00 6.315296e-01 1.037640e+00 1.641403e+00 1.899705e+00 -1.047586e+00 -2.541357e+00 -1.193934e+00 6.072091e-01 2.763728e-02 2.980878e-01 1.107628e-01 6.636640e-02 6.680618e-01 5.993849e-01 -3.892651e-01 -7.792444e-01 -2.828469e-01 -1.390743e-01 -1.470501e-01 -3.291961e-01 -3.387191e-01
<VARIANCE> 39
 6.759272e+00 3.134148e+01 5.116907e+01 3.980566e+01 3.442809e+01 2.218329e+01 5.012596e+01 4.910704e+01 6.073254e+01 6.068510e+01 6.114885e+01 2.529989e+01 2.169430e+01 4.479329e-01 1.067872e+00 1.662367e+00 1.392608e+00 2.674683e+00 2.549332e+00 3.423079e+00 3.899689e+00 2.773482e+00 3.874007e+00 2.177111e+00 2.315285e+00 5.157378e-01 6.035757e-02 1.670523e-01 3.223564e-01 2.656594e-01 5.125897e-01 4.527470e-01 4.385775e-01 5.520613e-01 4.865412e-01 6.222155e-01 6.707767e-01 3.194925e-01 7.182435e-02
<GCONST> 1.103728e+02
<TRANSP> 5
 0.000000e+00 1.000000e+00 0.000000e+00 0.000000e+00 0.000000e+00
 0.000000e+00 7.424232e-01 2.575768e-01 0.000000e+00 0.000000e+00
 0.000000e+00 0.000000e+00 8.118261e-01 1.881739e-01 0.000000e+00
 0.000000e+00 0.000000e+00 0.000000e+00 7.022268e-01 2.977732e-01
 0.000000e+00 0.000000e+00 0.000000e+00 0.000000e+00 0.000000e+00
<ENDHMM>
~h "z"
<BEGINHMM>
<NUMSTATES> 5
<STATE> 2
<MEAN> 39
 -7.957145e+00 6.721799e+00 2.391319e+00 -5.544932e-01 -4.219441e+00 -1.135542e+01 -1.275147e+01 -5.230987e+00 -3.248911e+00 -2.875100e+00 -4.513410e+00 -5.492133e-01 6.268406e+01 -2.223622e+00 2.943044e+00 -1.040956e+00 1.452147e+00 1.602267e+00 -4.769820e-01 1.358832e+00 -5.299919e-02 7.411628e-02 -3.013812e-01 -3.569042e-01 8.933623e-01 -6.407359e-01 -2.592830e-01 -1.066194e-01 -1.514850e-01 -1.646912e-01 -1.214080e-01 5.434982e-01 2.174522e-01 1.657486e-01 1.008840e-01 2.814240e-02 2.485331e-01 -2.349262e-01 -2.906399e-02
<VARIANCE> 39
 4.016831e+01 5.071753e+01 5.187297e+01 5.268682e+01 6.194182e+01 3.935917e+01 7.275005e+01 4.515148e+01 5.124444e+01 4.147755e+01 4.199289e+01 2.802504e+01 4.940714e+01 2.900851e+00 4.069153e+00 3.725652e+00 4.251627e+00 5.110773e+00 4.318846e+00 4.857162e+00 5.449539e+00 3.919081e+00 3.748599e+00 3.657306e+00 2.356401e+00 2.019185e+00 4.172761e-01 7.358178e-01 4.930574e-01 4.966837e-01 6.476735e-01 5.784374e-01 8.404312e-01 6.636333e-01 5.336115e-01 5.962573e-01 5.704644e-01 4.438313e-01 2.360659e-01
<GCONST> 1.307674e+02
<STATE> 3
<MEAN> 39
 -1.786479e+01 1.483733e+01 -3.397680e-01 4.170188e+00 1.370683e-01 -8.790457e+00 -7.148369e+00 -3.455735e+00 -2.964777e+00 -2.852607e+00 -3.100849e+00 5.915354e-01 6.110643e+01 -9.494801e-01 -7.697548e-02 3.174509e-02 1.661018e-01 2.006703e-01 2.564650e-01 3.807032e-01 1.993088e-01 8.523487e-03 3.373085e-02 3.543670e-01 1.384803e-01 3.680729e-02 5.537457e-01 -6.166505e-01 2.832758e-01 -2.791004e-01 -4.165282e-01 -1.603355e-01 -3.794790e-01 -1.530744e-01 -3.184826e-02 -3.374879e-02 5.246216e-02 -4.530581e-02 2.476577e-01
<VARIANCE> 39
 4.124488e+01 1.978331e+01 3.923755e+01 3.709317e+01 3.625834e+01 3.680725e+01 5.174218e+01 2.822696e+01 2.529493e+01 2.684921e+01 2.200764e+01 1.853121e+01 2.362325e+01 1.865765e+00 2.174889e+00 1.651486e+00 1.384886e+00 2.005513e+00 2.207656e+00 2.314530e+00 1.902336e+00 1.904130e+00 1.691380e+00 1.495899e+00 1.273958e+00 9.712047e-01 3.498821e-01 4.193406e-01 3.009246e-01 3.476774e-01 4.459938e-01 4.374985e-01 5.091267e-01 4.140974e-01 4.329647e-01 3.587317e-01 3.287813e-01 2.840466e-01 1.711407e-01
<GCONST> 1.094588e+02
<STATE> 4
<MEAN> 39
 -1.563520e+01 4.234876e+00 -1.803219e-01 -8.934470e-01 -2.701149e+00 -8.292965e+00 -7.373692e+00 -2.595467e+00 -3.606616e+00 -3.702004e+00 -2.394275e+00 9.265983e-01 5.394196e+01 1.612493e+00 -1.248196e+00 7.238436e-01 -7.293169e-01 -1.459748e+00 -2.765947e-01 -1.335197e+00 -3.538947e-01 1.655187e-01 -4.176040e-02 2.928623e-01 -2.440304e-01 8.387620e-01 2.983831e-01 -1.562273e-01 6.911041e-02 -1.639556e-01 -2.305982e-01 2.637230e-01 -1.634402e-01 6.919600e-02 3.483569e-02 7.589117e-03 3.928512e-02 -2.291049e-01 7.634588e-02
<VARIANCE> 39
 5.536357e+01 6.421989e+01 5.233767e+01 4.817815e+01 3.746672e+01 4.755399e+01 6.202766e+01 3.899324e+01 3.693344e+01 2.825101e+01 2.406507e+01 2.167036e+01 1.689310e+02 5.021646e+00 5.108961e+00 3.236829e+00 3.574016e+00 4.799017e+00 3.155442e+00 4.770330e+00 3.885915e+00 3.519296e+00 2.534364e+00 2.104002e+00 1.946852e+00 2.575952e+00 6.120732e-01 4.779192e-01 4.579847e-01 4.775611e-01 6.271028e-01 6.331787e-01 7.236044e-01 6.953393e-01 5.408793e-01 4.752466e-01 3.805404e-01 3.939027e-01 2.310736e-01
<GCONST> 1.280926e+02
<TRANSP> 5
 0.000000e+00 1.000000e+00 0.000000e+00 0.000000e+00 0.000000e+00
 0.000000e+00 6.935788e-01 3.064212e-01 0.000000e+00 0.000000e+00
 0.000000e+00 0.000000e+00 8.296890e-01 1.703110e-01 0.000000e+00
 0.000000e+00 0.000000e+00 0.000000e+00 8.091201e-01 1.908799e-01
 0.000000e+00 0.000000e+00 0.000000e+00 0.000000e+00 0.000000e+00
<ENDHMM>
~h "ai"
<BEGINHMM>
<NUMSTATES> 5
<STATE> 2
<MEAN> 39
 -2.007103e+00 -1.525292e+01 -3.790904e+00 -1.286901e+01 -7.954933e+00 -2.280562e+00 -1.093255e+01 5.269764e+00 2.805943e+00 -5.778203e+00 -4.525446e+00 -1.087223e+01 7.373616e+01 -4.187677e-01 -5.855720e-01 1.117346e+00 2.043718e-01 -1.094257e+00 -1.286523e+00 9.907060e-01 1.675886e+00 -3.444920e-01 -8.201866e-01 -3.832127e-01 8.663828e-01 4.252841e-01 -1.607112e-01 6.356773e-01 4.435488e-01 1.686080e-01 -4.108816e-01 -2.002834e-01 3.881154e-03 -4.071890e-01 -5.278890e-01 3.174404e-01 4.956098e-01 4.960198e-01 -4.627045e-01
<VARIANCE> 39
 9.376101e+00 2.820437e+01 5.356350e+01 3.911204e+01 4.947474e+01 4.985264e+01 7.288629e+01 6.361886e+01 5.941907e+01 6.391137e+01 5.463655e+01 4.339491e+01 1.759837e+01 5.191327e-01 1.872996e+00 2.131387e+00 1.718904e+00 3.282222e+00 3.220276e+00 2.598929e+00 3.163465e+00 2.637212e+00 2.634710e+00 3.271307e+00 2.902000e+00 6.648436e-01 2.193680e-01 2.141325e-01 2.748119e-01 3.880968e-01 4.532698e-01 5.230182e-01 5.091134e-01 7.487932e-01 5.181140e-01 5.467848e-01 6.261240e-01 5.394230e-01 1.992684e-01
<GCONST> 1.178915e+02
<STATE> 3
<MEAN> 39
 -4.471989e+00 -1.094309e+01 7.725282e+00 -1.219502e+01 -1.984017e+01 -9.218238e+00 -8.780245e+00 7.293596e+00 -4.634454e+00 -1.310450e+00 1.524193e+00 -3.553694e+00 7.201550e+01 -4.369462e-01 1.434579e+00 2.036167e+00 7.466771e-02 -1.539178e+00 -2.722244e-01 -5.849474e-01 -1.383658e+00 -1.557348e+00 1.147608e+00 1.464276e+00 5.754361e-01 -5.975361e-01 6.013788e-02 1.543835e-01 -1.478289e-01 9.228098e-02 4.714249e-01 2.890238e-01 -2.926316e-01 -4.749375e-01 7.763384e-02 -8.799051e-02 -2.000622e-01 -2.738388e-01 -1.894655e-01
<VARIANCE> 39
 7.801382e+00 3.572481e+01 5.003565e+01 3.697086e+01 3.546455e+01 2.667361e+01 5.109466e+01 4.435125e+01 5.574113e+01 6.648571e+01 5.962459e+01 2.877008e+01 1.705775e+01 2.670715e-01 9.769500e-01 1.392183e+00 9.961842e-01 2.255947e+00 1.618671e+00 2.071195e+00 2.601361e+00 2.157788e+00 2.171954e+00 2.224315e+00 1.636654e+00 2.101397e-01 4.890064e-02 1.625045e-01 2.016440e-01 1.765099e-01 3.134126e-01 2.836773e-01 3.864760e-01 5.194859e-01 2.991242e-01 4.154809e-01 4.545107e-01 2.748090e-01 5.570693e-02
<GCONST> 1.019001e+02
<STATE> 4
<MEAN> 39
 -5.606578e+00 -2.095025e+00 1.363239e+01 -8.995574e+00 -2.008650e+01 -7.559099e+00 -1.245593e+01 -2.423538e+00 -9.629052e+00 3.507845e-01 2.710827e+00 -4.247609e+00 6.395697e+01 2.681636e-01 9.598531e-01 -2.304890e-01 8.698207e-01 9.894511e-01 2.536135e-01 1.478554e-01 -6.769643e-01 4.758297e-02 -2.841343e-01 -5.541278e-01 -2.544016e-01 -1.789257e+00 7.703838e-02 -6.125389e-02 -4.383191e-01 1.235314e-01 3.518779e-01 6.915576e-02 2.402367e-01 1.816545e-01 2.767602e-01 -9.604663e-02 -1.949334e-01 -2.697597e-02 -2.017963e-01
<VARIANCE> 39
 1.577439e+01 5.816554e+01 4.972034e+01 3.970129e+01 3.425582e+01 4.153147e+01 5.523992e+01 6.734595e+01 5.891231e+01 6.956671e+01 5.936203e+01 3.411984e+01 7.461787e+01 1.111149e+00 2.088407e+00 2.705679e+00 2.216351e+00 2.728248e+00 2.380289e+00 3.364363e+00 3.368754e+00 2.843134e+00 2.551171e+00 2.365740e+00 1.944874e+00 2.721793e+00 2.040372e-01 3.372667e-01 3.660987e-01 3.596537e-01 5.442548e-01 4.681129e-01 5.739216e-01 6.347296e-01 5.570076e-01 4.900787e-01 4.744880e-01 3.667717e-01 3.732767e-01
<GCONST> 1.221402e+02
<TRANSP> 5
 0.000000e+00 1.000000e+00 0.000000e+00 0.000000e+00 0.000000e+00
 0.000000e+00 7.731633e-01 2.268368e-01 0.000000e+00 0.000000e+00
 0.000000e+00 0.000000e+00 7.831057e-01 2.168943e-01 0.000000e+00
 0.000000e+00 0.000000e+00 0.000000e+00 8.310213e-01 1.689787e-01
 0.000000e+00 0.000000e+00 0.000000e+00 0.000000e+00 0.000000e+00
<ENDHMM>
~h "au"
<BEGINHMM>
<NUMSTATES> 5
<STATE> 2
<MEAN> 39
 2.582847e-01 -1.146896e+01 -8.626150e+00 -1.952640e+01 -6.436232e+00 8.167634e+00 -1.500369e+01 -2.565638e+00 2.026930e+00 -1.131656e+00 1.117504e+00 -1.460415e+01 7.293220e+01 3.262101e-01 3.189014e-01 -1.078136e-01 -9.714641e-01 -3.171864e-02 8.401117e-01 5.958559e-02 -4.077829e-01 -3.945411e-01 -2.876829e-01 1.143978e+00 1.981249e-01 -2.317148e-01 2.682290e-02 4.602179e-01 1.739557e-01 2.862067e-02 -2.248834e-01 -2.411502e-01 1.840059e-02 -1.701094e-01 -3.392118e-01 2.852057e-02 1.759973e-01 6.240194e-01 -3.603946e-01
<VARIANCE> 39
 1.096610e+01 2.830869e+01 3.388923e+01 4.278844e+01 3.203380e+01 4.216946e+01 5.001648e+01 3.981317e+01 3.901418e+01 4.158687e+01 5.399196e+01 3.488686e+01 1.434949e+01 3.635289e-01 1.642846e+00 9.270223e-01 1.304806e+00 1.505239e+00 1.735255e+00 1.475623e+00 2.083484e+00 1.895423e+00 1.963669e+00 2.204873e+00 3.350111e+00 4.390409e-01 1.369376e-01 1.492136e-01 1.714648e-01 2.799902e-01 2.170889e-01 2.799486e-01 2.987688e-01 4.462279e-01 3.037550e-01 3.729056e-01 4.465858e-01 3.341412e-01 9.896211e-02
<GCONST> 1.032089e+02
<STATE> 3
<MEAN> 39
 4.156457e+00 -1.801192e+00 -6.586057e+00 -2.535159e+01 -1.138195e+01 8.838642e+00 -1.473934e+01 -4.106699e+00 -4.255219e+00 -3.369281e+00 5.969447e+00 -5.223737e+00 6.585703e+01 4.738768e-01 1.324236e+00 4.428030e-01 1.820044e-01 -5.442495e-01 -5.862204e-01 -1.885114e-01 8.616288e-02 -8.542054e-01 -2.802426e-01 -2.824051e-01 9.537696e-01 -1.240701e+00 -1.177366e-01 -1.155562e-01 1.857361e-02 5.324392e-01 2.153267e-01 -2.493956e-01 1.665990e-02 -2.070527e-02 1.850943e-01 1.496092e-01 -3.669001e-01 -2.856929e-01 -9.080593e-02
<VARIANCE> 39
 1.183441e+01 5.946117e+01 3.487936e+01 4.268374e+01 4.066644e+01 3.947359e+01 6.616109e+01 4.713748e+01 6.027350e+01 5.480837e+01 5.165896e+01 4.700241e+01 2.744135e+01 3.427068e-01 1.335116e+00 8.767651e-01 2.435803e+00 2.015399e+00 1.684506e+00 1.890755e+00 1.948563e+00 2.190837e+00 2.438402e+00 2.286094e+00 2.576195e+00 4.876662e-01 6.278686e-02 1.963873e-01 1.614407e-01 3.255443e-01 3.300702e-01 2.855577e-01 3.310351e-01 3.798669e-01 3.611064e-01 4.103195e-01 4.402703e-01 3.997034e-01 1.051122e-01
<GCONST> 1.077327e+02
<STATE> 4
<MEAN> 39
 1.784254e-01 1.675992e+00 -4.407089e+00 -1.400608e+01 -8.901345e+00 1.062725e+00 -1.147286e+01 -4.904573e+00 -5.647059e+00 -1.477506e+00 -9.355115e-02 -3.871116e+00 5.114037e+01 -5.497047e-01 1.012360e-01 2.726641e-01 1.890072e+00 4.836313e-01 -8.993391e-01 2.909358e-01 -4.845195e-01 2.438101e-01 2.525544e-01 -6.751911e-01 -1.805923e-01 -1.302869e+00 -1.508696e-01 -1.092384e-01 1.251149e-01 9.137971e-02 7.651965e-03 2.277489e-02 1.018034e-01 4.073406e-02 8.547388e-02 -1.152482e-01 -1.325480e-02 -6.088915e-02 1.043208e-01
<VARIANCE> 39
 6.326315e+01 4.998586e+01 3.368845e+01 9.846578e+01 4.071850e+01 5.108813e+01 9.911463e+01 4.935632e+01 5.156533e+01 5.645426e+01 4.060189e+01 3.864373e+01 1.359402e+02 1.092500e+00 2.268331e+00 2.336272e+00 4.985402e+00 3.810403e+00 3.337574e+00 3.715974e+00 3.679389e+00 3.414648e+00 3.332687e+00 3.241283e+00 3.061615e+00 2.808353e+00 2.160593e-01 3.794320e-01 3.928250e-01 6.197265e-01 7.271802e-01 5.508828e-01 7.103629e-01 7.109715e-01 6.401553e-01 6.620119e-01 5.406183e-01 6.092017e-01 3.647581e-01
<GCONST> 1.300159e+02
<TRANSP> 5
 0.000000e+00 1.000000e+00 0.000000e+00 0.000000e+00 0.000000e+00
 0.000000e+00 8.174294e-01 1.825706e-01 0.000000e+00 0.000000e+00
