~o
<STREAMINFO> 1 39
<VECSIZE> 39<NULLD><MFCC_D_A_0><DIAGC>
~s "silst"
<MEAN> 39
 -1.178595e+01 -3.175043e+00 -3.567733e+00 -1.475676e+00 -3.031847e+00 -3.386787e+00 -3.019102e+00 -1.189238e+00 -2.030663e+00 -2.671441e+00 -2.598711e+00 -2.892414e-01 3.771218e+01 1.076388e-02 1.409445e-01 -5.117150e-03 3.226022e-02 -1.536312e-02 -3.587640e-02 -3.108467e-02 1.360033e-02 -9.726945e-03 -2.609611e-02 3.418545e-02 -1.508011e-02 -2.194691e-01 1.940477e-03 1.724389e-02 3.199812e-02 -5.299618e-03 4.538412e-03 2.169301e-02 -2.580833e-02 -2.568774e-02 -2.034578e-02 1.280394e-03 -1.826424e-02 -2.439703e-02 1.970169e-02
<VARIANCE> 39
 1.252325e+01 3.455180e+01 2.004228e+01 2.285299e+01 2.302075e+01 2.903028e+01 2.856548e+01 3.803419e+01 3.038788e+01 3.070241e+01 2.294566e+01 2.291886e+01 2.646362e+01 9.072164e-01 1.884544e+00 1.629641e+00 1.980622e+00 2.070789e+00 2.310926e+00 2.309363e+00 2.830450e+00 2.403027e+00 2.441625e+00 1.986123e+00 1.965188e+00 1.161254e+00 1.672968e-01 3.385258e-01 2.996791e-01 3.812631e-01 3.999008e-01 4.424634e-01 4.600401e-01 5.590976e-01 4.807422e-01 4.870515e-01 3.994554e-01 3.964801e-01 1.922322e-01
<GCONST> 1.091067e+02
~h "@"
<BEGINHMM>
<NUMSTATES> 5
<STATE> 2
<MEAN> 39
 -2.225354e+00 -4.870838e+00 -3.139205e-01 -9.575415e+00 -8.789523e+00 -3.627975e+00 -1.476592e+01 -2.920263e+00 -2.008420e+00 8.135294e-02 -2.201208e-01 -6.448829e+00 6.449186e+01 2.020343e+00 -1.181182e+00 4.593708e-01 -1.592381e+00 -9.959903e-01 5.743887e-01 -1.596122e+00 1.023671e+00 5.391890e-01 7.583510e-01 7.643473e-01 -1.086413e+00 2.015506e+00 -4.361275e-01 2.654934e-01 7.604013e-02 5.185884e-01 1.987567e-01 9.978130e-02 5.430675e-01 -1.983587e-01 -2.204402e-01 -1.434027e-01 -1.779279e-01 1.966745e-01 -8.595955e-01
<VARIANCE> 39
 3.227363e+01 4.240258e+01 5.208413e+01 7.030285e+01 5.540493e+01 7.765296e+01 8.260287e+01 6.790884e+01 6.672816e+01 4.809531e+01 5.446164e+01 4.149310e+01 1.024122e+02 6.480052e+00 3.676766e+00 6.865901e+00 5.661437e+00 5.982924e+00 5.413815e+00 6.582826e+00 7.915375e+00 7.651370e+00 5.049700e+00 5.367765e+00 4.132094e+00 5.843561e+00 7.914773e-01 6.791048e-01 9.473240e-01 9.991945e-01 8.106902e-01 9.151303e-01 1.078281e+00 1.033299e+00 9.010653e-01 7.568667e-01 9.000550e-01 6.658065e-01 1.653512e+00
<GCONST> 1.460521e+02
<STATE> 3
<MEAN> 39
 -1.971023e-01 -7.582200e+00 1.887498e-01 -1.193929e+01 -1.014951e+01 -2.288757e+00 -1.705399e+01 -4.693376e-01 -1.214960e+00 1.088605e+00 1.202517e+00 -7.950076e+00 6.868702e+01 6.321051e-01 -1.016418e-01 3.514918e-01 1.734407e-01 -2.209410e-01 3.286311e-01 8.626600e-02 1.321817e-01 1.676179e-02 9.671639e-02 1.407956e-01 -2.470345e-01 -1.852939e-01 -5.789132e-01 7.402762e-01 1.083923e-01 9.863316e-01 3.940932e-01 -1.638101e-01 8.282206e-01 -6.772549e-01 -3.453741e-01 -3.386940e-01 -4.467089e-01 4.245780e-01 -1.170263e+00
<VARIANCE> 39
 1.776966e+01 4.274015e+01 5.459360e+01 7.540207e+01 6.020015e+01 7.548412e+01 8.012085e+01 8.539079e+01 8.828222e+01 5.843477e+01 6.026757e+01 4.983569e+01 3.909922e+01 2.051516e+00 2.938108e+00 2.833339e+00 4.330583e+00 3.769323e+00 4.770588e+00 4.268219e+00 5.183119e+00 5.371839e+00 3.875255e+00 3.899433e+00 2.975698e+00 3.758213e+00 6.278306e-01 5.682147e-01 1.032722e+00 1.009256e+00 8.986755e-01 8.917178e-01 1.039227e+00 1.359997e+00 1.225123e+00 9.473286e-01 1.006880e+00 8.151329e-01 6.155660e-01
<GCONST> 1.398089e+02
<STATE> 4
<MEAN> 39
 -1.386785e+00 -5.619682e+00 1.751652e+00 -9.648468e+00 -1.177037e+01 -4.503495e+00 -1.438366e+01 -1.456460e+00 -1.746177e+00 6.245714e-01 1.630733e-01 -6.347698e+00 6.532576e+01 8.654099e-02 8.539438e-01 2.494503e-01 9.655203e-01 3.170885e-01 5.611658e-03 7.010889e-01 -6.595075e-01 -2.234142e-01 -2.621690e-01 -4.197505e-01 1.265889e-01 -1.360680e+00 -1.961054e-01 2.387231e-01 4.281056e-02 2.908468e-01 1.306562e-01 -3.859708e-02 1.693242e-01 -2.104822e-01 -6.690687e-02 -9.690239e-02 -1.739060e-01 1.240454e-01 -3.492704e-01
<VARIANCE> 39
 2.238233e+01 5.807793e+01 7.470187e+01 7.350962e+01 7.800026e+01 6.652197e+01 9.588133e+01 8.247944e+01 9.251265e+01 6.381085e+01 5.793416e+01 4.688740e+01 8.802219e+01 1.133759e+00 2.755213e+00 2.451124e+00 3.907191e+00 2.947301e+00 3.183557e+00 3.644336e+00 3.898113e+00 3.751144e+00 3.144531e+00 2.955272e+00 2.507371e+00 4.427659e+00 3.764934e-01 4.310040e-01 5.118309e-01 6.282647e-01 6.536131e-01 5.788375e-01 6.920253e-01 9.059438e-01 7.888283e-01 6.044874e-01 6.074874e-01 5.108076e-01 5.478725e-01
<GCONST> 1.334009e+02
<TRANSP> 5
 0.000000e+00 1.000000e+00 0.000000e+00 0.000000e+00 0.000000e+00
 0.000000e+00 3.241977e-01 6.758022e-01 0.000000e+00 0.000000e+00
 0.000000e+00 0.000000e+00 2.852785e-01 7.147216e-01 0.000000e+00
 0.000000e+00 0.000000e+00 0.000000e+00 5.757110e-01 4.242890e-01
 0.000000e+00 0.000000e+00 0.000000e+00 0.000000e+00 0.000000e+00
<ENDHMM>
~h "a"
<BEGINHMM>
<NUMSTATES> 5
<STATE> 2
<MEAN> 39
 -1.332460e+00 -1.300226e+01 -4.581876e+00 -1.369261e+01 -7.086706e+00 7.093035e-01 -1.162142e+01 2.443040e+00 8.535265e-01 -2.700215e+00 -3.605925e+00 -1.127996e+01 7.029308e+01 5.438079e-01 -2.078424e+00 -8.860473e-01 -9.942160e-01 1.020944e+00 1.167145e+00 3.666098e-01 1.084191e+00 5.877250e-01 -7.875118e-01 -9.381680e-01 -1.540856e+00 1.651239e+00 -3.890254e-01 5.070765e-01 2.885906e-01 5.878982e-01 1.863349e-01 -2.687271e-01 1.704144e-01 -5.127119e-01 -3.510407e-01 -6.159322e-02 7.427142e-04 5.040339e-01 -7.121126e-01
<VARIANCE> 39
 1.774448e+01 3.899424e+01 4.903677e+01 5.399545e+01 5.942448e+01 6.941812e+01 5.964304e+01 7.491107e+01 6.598627e+01 5.642525e+01 6.233078e+01 4.528993e+01 6.766960e+01 2.406614e+00 2.504588e+00 3.389405e+00 3.665606e+00 3.826420e+00 4.103324e+00 4.371204e+00 5.469063e+00 3.749982e+00 3.856862e+00 4.116380e+00 3.352712e+00 3.830785e+00 5.102952e-01 5.484481e-01 5.417011e-01 6.499243e-01 6.434667e-01 7.569952e-01 7.123117e-01 9.189543e-01 6.937020e-01 6.560532e-01 8.028724e-01 6.205713e-01 8.483904e-01
<GCONST> 1.349848e+02
<STATE> 3
<MEAN> 39
 -1.112179e+00 -1.590204e+01 -5.612300e+00 -1.410595e+01 -4.353744e+00 2.601614e+00 -1.087716e+01 2.874153e+00 1.500721e+00 -5.337193e+00 -4.955959e+00 -1.334495e+01 7.287158e+01 8.513322e-02 1.887202e-01 7.829829e-02 1.867631e-01 2.477629e-01 -2.739070e-01 1.375645e-01 1.641042e-02 -1.803951e-01 3.915830e-02 -1.998708e-01 1.679306e-01 -3.414513e-01 3.721957e-02 5.874845e-01 2.563443e-01 2.630075e-01 -2.497685e-01 -2.677196e-01 -1.152869e-01 -2.400436e-01 -1.520757e-01 2.809786e-01 1.980701e-01 3.630615e-01 -4.951859e-01
<VARIANCE> 39
 9.378879e+00 2.805208e+01 4.182146e+01 4.491801e+01 4.778671e+01 5.175992e+01 5.186658e+01 6.463136e+01 5.507201e+01 4.999263e+01 5.266397e+01 4.014716e+01 2.298109e+01 4.633687e-01 1.312778e+00 1.291599e+00 1.411375e+00 2.037669e+00 2.835605e+00 2.031142e+00 2.661406e+00 1.808399e+00 2.348352e+00 2.342535e+00 1.972889e+00 8.369000e-01 1.026835e-01 2.332228e-01 2.268848e-01 3.069913e-01 3.205880e-01 3.425255e-01 4.137231e-01 5.264120e-01 3.838552e-01 3.869963e-01 4.186888e-01 3.596344e-01 1.790157e-01
<GCONST> 1.101243e+02
<STATE> 4
<MEAN> 39
 -2.554048e+00 -9.343836e+00 -6.065485e+00 -9.597699e+00 -4.199811e+00 -9.843696e-01 -8.991771e+00 8.821786e-01 -6.344637e-01 -3.808860e+00 -6.010659e+00 -8.887057e+00 6.091470e+01 -2.571862e-02 1.382219e+00 5.122551e-01 9.305617e-01 -2.554837e-01 -4.844118e-01 6.411611e-02 -6.371164e-01 -3.747045e-01 3.345248e-01 1.086836e-01 6.369303e-01 -1.922078e+00 -9.164959e-02 1.524177e-01 1.539098e-01 1.678684e-01 -1.931216e-02 6.615618e-02 1.128169e-02 -1.949467e-01 -5.738031e-02 -3.742767e-02 4.082613e-02 3.220179e-02 -1.816200e-01
<VARIANCE> 39
 2.867278e+01 4.206558e+01 5.163848e+01 6.046578e+01 5.912688e+01 5.636893e+01 6.308194e+01 5.940474e+01 5.411423e+01 5.471094e+01 5.220539e+01 5.256876e+01 1.704881e+02 1.005540e+00 2.747464e+00 2.099413e+00 2.833356e+00 2.880718e+00 2.646809e+00 2.938135e+00 3.237493e+00 2.794629e+00 2.806914e+00 2.766024e+00 2.480154e+00 3.483883e+00 1.996316e-01 4.079795e-01 3.539710e-01 4.849376e-01 4.752162e-01 4.814994e-01 5.350295e-01 6.438217e-01 4.965167e-01 5.571706e-01 5.416848e-01 4.412619e-01 5.488260e-01
<GCONST> 1.263984e+02
<TRANSP> 5
 0.000000e+00 1.000000e+00 0.000000e+00 0.000000e+00 0.000000e+00
 0.000000e+00 5.380309e-01 4.619691e-01 0.000000e+00 0.000000e+00
 0.000000e+00 0.000000e+00 7.629924e-01 2.370075e-01 0.000000e+00
 0.000000e+00 0.000000e+00 0.000000e+00 6.765063e-01 3.234936e-01
 0.000000e+00 0.000000e+00 0.000000e+00 0.000000e+00 0.000000e+00
<ENDHMM>
~h "b"
<BEGINHMM>
<NUMSTATES> 5
<STATE> 2
<MEAN> 39
 3.518612e+00 6.914630e+00 4.314878e+00 -2.340621e+00 -4.801242e+00 1.811493e+00 -7.245644e+00 -7.696998e+00 -7.755454e+00 -2.970523e+00 -2.704518e+00 -7.598898e+00 4.710443e+01 7.728034e-01 1.392276e+00 4.034849e-01 3.363281e-01 5.053510e-01 3.928329e-01 7.708690e-01 -2.930971e-01 -2.382278e-01 -3.636110e-02 -4.111969e-01 -1.583242e-01 -9.903321e-01 -3.556990e-01 -5.163069e-01 -2.198645e-01 -2.968594e-01 -2.174238e-01 -1.951444e-01 -3.154712e-01 1.162643e-01 1.616526e-01 2.923554e-02 2.099220e-01 2.002552e-01 7.336814e-01
<VARIANCE> 39
 4.783342e+01 3.537742e+01 2.947787e+01 3.310815e+01 2.900728e+01 3.833921e+01 5.418020e+01 4.272326e+01 5.492622e+01 3.488517e+01 4.444929e+01 3.496610e+01 5.556055e+01 2.315822e+00 2.738217e+00 2.436384e+00 3.035452e+00 2.460431e+00 2.465720e+00 3.120160e+00 3.316405e+00 3.222533e+00 2.593360e+00 2.702084e+00 2.363031e+00 5.009411e+00 3.992858e-01 4.861407e-01 4.304122e-01 4.973424e-01 4.638199e-01 4.602031e-01 5.558573e-01 6.194850e-01 6.632176e-01 4.941250e-01 5.489499e-01 4.698432e-01 5.471337e-01
<GCONST> 1.243906e+02
<STATE> 3
<MEAN> 39
 5.418342e+00 8.307786e+00 4.730472e+00 -2.812721e+00 -4.054582e+00 3.097954e+00 -6.675456e+00 -8.847405e+00 -8.345293e+00 -3.118732e+00 -2.510260e+00 -6.713474e+00 4.948540e+01 -1.419608e+00 -2.161622e+00 -1.516574e+00 -1.078391e+00 -4.595865e-01 -8.726596e-01 -1.579843e+00 1.874959e-01 1.118450e+00 2.073818e-01 1.438174e+00 1.190810e+00 3.359672e+00 -4.471401e-01 -1.133250e+00 -3.343221e-01 -6.410810e-01 -7.724378e-01 -1.249554e-01 -8.838502e-01 2.787860e-01 4.719534e-01 2.374485e-01 4.647887e-01 -1.243147e-01 1.460362e+00
<VARIANCE> 39
 2.079173e+01 2.588219e+01 2.000878e+01 2.818082e+01 2.589073e+01 3.780859e+01 4.334735e+01 3.968948e+01 4.980980e+01 3.648146e+01 4.248671e+01 3.577422e+01 3.051659e+01 1.931528e+00 3.417384e+00 3.764636e+00 6.666048e+00 4.092090e+00 3.947332e+00 4.611568e+00 4.674825e+00 5.622128e+00 4.303181e+00 4.746838e+00 3.448762e+00 4.973547e+00 3.878379e-01 4.810710e-01 7.213906e-01 8.093230e-01 6.895172e-01 7.690688e-01 6.763378e-01 1.100879e+00 1.182295e+00 8.940852e-01 8.017538e-01 9.173685e-01 5.481533e-01
<GCONST> 1.314358e+02
<STATE> 4
<MEAN> 39
 5.289952e-01 -1.859903e+00 -1.842193e+00 -8.899313e+00 -8.072027e+00 6.451883e-01 -1.513570e+01 -8.105260e+00 -2.833188e+00 4.238940e-01 3.466295e+00 -4.738577e+00 6.383472e+01 -1.145209e+00 -3.224005e+00 -1.126688e+00 -1.879388e+00 -1.828212e+00 -4.074377e-01 -2.369544e+00 1.311660e+00 1.958108e+00 8.026792e-01 9.039280e-01 -7.761482e-01 4.292173e+00 2.389722e-01 4.018255e-01 5.891959e-01 3.228410e-01 1.478966e-02 1.922728e-01 5.358870e-01 3.281581e-01 -2.542259e-01 -4.013879e-01 -7.067256e-01 -4.848216e-01 -7.122088e-01
<VARIANCE> 39
 1.877794e+01 3.772818e+01 3.711393e+01 1.056189e+02 3.567056e+01 5.760590e+01 6.389278e+01 4.309012e+01 5.357578e+01 5.117980e+01 5.561452e+01 3.858645e+01 6.171659e+01 2.244881e+00 4.427326e+00 6.180762e+00 9.119365e+00 5.864362e+00 5.844520e+00 5.726490e+00 7.829338e+00 9.168918e+00 6.951018e+00 6.450482e+00 7.589132e+00 4.956157e+00 3.283341e-01 5.702241e-01 4.613004e-01 1.473543e+00 1.114321e+00 8.775863e-01 1.099782e+00 1.000373e+00 9.790260e-01 9.908150e-01 1.281697e+00 8.074970e-01 8.219040e-01
<GCONST> 1.429042e+02
<TRANSP> 5
 0.000000e+00 1.000000e+00 0.000000e+00 0.000000e+00 0.000000e+00
 0.000000e+00 7.783549e-01 2.216451e-01 0.000000e+00 0.000000e+00
 0.000000e+00 0.000000e+00 5.133799e-01 4.866201e-01 0.000000e+00
 0.000000e+00 0.000000e+00 0.000000e+00 4.631343e-01 5.368658e-01
 0.000000e+00 0.000000e+00 0.000000e+00 0.000000e+00 0.000000e+00
<ENDHMM>
~h "c"
<BEGINHMM>
<NUMSTATES> 5
<STATE> 2
<MEAN> 39
 -8.883769e+00 2.441583e+00 2.141606e+00 -2.559616e+00 -5.893077e+00 -6.862527e+00 -6.543245e+00 -3.025047e+00 -3.430554e+00 -3.311777e+00 -3.488056e+00 -2.625207e+00 4.641516e+01 -1.570866e+00 -1.312573e-01 -7.793913e-01 -2.292386e-01 6.288108e-01 6.099752e-02 4.334329e-01 -2.477481e-01 1.271702e-01 8.301115e-02 7.954118e-02 9.816898e-02 -1.055893e+00 -4.241531e-01 -3.715014e-01 -1.775281e-01 -3.797188e-01 -7.092611e-02 9.178562e-02 -1.119783e-01 2.158560e-02 -1.600682e-02 4.261633e-02 1.364635e-01 6.810232e-02 9.440619e-01
<VARIANCE> 39
 4.013406e+01 4.622589e+01 4.256064e+01 3.287431e+01 4.175251e+01 4.981096e+01 5.200997e+01 4.397184e+01 4.008161e+01 3.089897e+01 3.139165e+01 2.800524e+01 1.229304e+02 5.004552e+00 5.627460e+00 3.638244e+00 3.767875e+00 4.148092e+00 3.354929e+00 4.030168e+00 3.424089e+00 3.382635e+00 2.939587e+00 2.686883e+00 2.965936e+00 1.325378e+01 7.603380e-01 8.483275e-01 6.181516e-01 5.824501e-01 8.284694e-01 7.096996e-01 7.568063e-01 6.153364e-01 6.064276e-01 5.627481e-01 4.862862e-01 6.595588e-01 1.961478e+00
<GCONST> 1.344104e+02
<STATE> 3
<MEAN> 39
 -2.552509e+01 -2.494203e-01 -2.832465e+00 -9.441929e+00 -3.226068e+00 -5.696540e+00 -5.230058e+00 -4.423747e+00 -3.148898e+00 -1.935366e+00 -7.081490e-01 -3.235416e-02 5.984774e+01 -1.382482e+00 3.106897e-02 6.587685e-01 -7.870791e-01 -1.077208e+00 -8.245001e-02 -2.110453e-02 3.032054e-01 -3.280530e-02 -1.920153e-01 5.476388e-01 6.047145e-01 3.847130e+00 2.033576e+00 1.993782e-02 8.350523e-01 6.029297e-01 -7.477145e-01 -2.845747e-01 -4.087989e-01 2.791496e-01 5.860427e-02 -1.998393e-01 -2.190038e-01 -3.067282e-01 -4.769206e-01
<VARIANCE> 39
 3.161643e+01 3.236337e+01 3.387646e+01 3.168986e+01 2.875059e+01 3.517899e+01 3.720900e+01 2.349615e+01 2.632638e+01 2.096348e+01 2.481798e+01 1.527323e+01 4.157907e+01 1.390560e+01 3.587143e+00 6.293934e+00 4.492292e+00 4.826914e+00 3.865444e+00 3.575709e+00 3.382993e+00 3.199769e+00 2.597387e+00 2.395191e+00 1.978835e+00 7.524242e+00 1.457879e+00 1.148383e+00 8.840927e-01 6.708702e-01 8.762901e-01 7.468421e-01 7.913864e-01 8.341983e-01 8.114952e-01 5.508389e-01 6.281354e-01 4.677957e-01 9.801384e-01
<GCONST> 1.307240e+02
<STATE> 4
<MEAN> 39
 -1.255911e+01 -2.494853e+00 4.317412e+00 -7.083636e+00 -1.128310e+01 -9.738756e+00 -9.023907e+00 -1.444707e-01 -1.949225e+00 -4.305805e+00 -2.016045e+00 -2.486259e-01 6.759449e+01 5.583757e+00 -2.433214e+00 9.578476e-01 9.925891e-02 -1.707169e+00 -4.249906e-01 -1.822173e+00 1.550860e+00 6.643652e-01 -1.505859e-02 -6.944938e-01 -1.272684e+00 1.986636e+00 7.066078e-03 -3.916298e-01 -7.706642e-01 -4.184569e-01 6.578346e-01 7.063194e-01 3.393218e-02 -1.746491e-01 -5.666727e-02 3.358593e-01 3.367779e-02 -5.272487e-01 -5.067801e-01
<VARIANCE> 39
 8.385870e+01 4.611880e+01 3.451437e+01 3.797339e+01 4.082360e+01 2.956147e+01 4.803558e+01 4.460367e+01 4.802831e+01 2.638005e+01 3.425409e+01 2.116662e+01 3.448454e+01 3.781497e+00 5.978518e+00 6.424610e+00 4.724096e+00 5.564116e+00 5.040152e+00 5.160168e+00 7.279958e+00 5.748019e+00 4.189977e+00 4.459241e+00 2.938184e+00 1.448343e+00 2.510322e+00 8.523850e-01 6.279728e-01 7.401407e-01 8.812743e-01 7.753456e-01 1.036300e+00 9.045148e-01 7.644060e-01 5.535590e-01 7.077432e-01 4.298773e-01 4.602695e-01
<GCONST> 1.354912e+02
<TRANSP> 5
 0.000000e+00 1.000000e+00 0.000000e+00 0.000000e+00 0.000000e+00
 0.000000e+00 8.550535e-01 1.449465e-01 0.000000e+00 0.000000e+00
 0.000000e+00 0.000000e+00 7.267363e-01 2.732637e-01 0.000000e+00
 0.000000e+00 0.000000e+00 0.000000e+00 6.193467e-01 3.806533e-01
 0.000000e+00 0.000000e+00 0.000000e+00 0.000000e+00 0.000000e+00
<ENDHMM>
~h "d"
<BEGINHMM>
<NUMSTATES> 5
<STATE> 2
<MEAN> 39
 7.512404e-01 2.657198e+00 6.384106e+00 1.944184e+00 -7.416967e+00 -4.837807e+00 -9.889145e+00 -2.043767e+00 -1.747196e+00 -4.627552e+00 -5.572181e+00 -5.485373e+00 4.870608e+01 7.735635e-01 1.104594e+00 7.617299e-01 8.508168e-01 6.575845e-01 -3.068660e-01 2.290866e-01 1.526073e-01 1.936249e-01 -2.557156e-01 -4.895912e-01 -8.509222e-02 -9.685288e-01 -4.300315e-01 -5.416002e-01 -7.221349e-02 -5.253228e-01 -1.838398e-01 5.927227e-02 -1.535623e-01 2.235785e-02 -1.661263e-01 1.119462e-02 3.298397e-01 1.892001e-01 8.157020e-01
<VARIANCE> 39
 5.403336e+01 5.315781e+01 4.877151e+01 3.543696e+01 5.318499e+01 3.113775e+01 6.492373e+01 6.842560e+01 4.930281e+01 4.086876e+01 3.968774e+01 3.707090e+01 9.368237e+01 3.348181e+00 4.168703e+00 3.046195e+00 3.652483e+00 3.969952e+00 2.882165e+00 3.934630e+00 5.233445e+00 3.779445e+00 3.215418e+00 3.372249e+00 2.631972e+00 7.428537e+00 6.858317e-01 7.995149e-01 4.923059e-01 6.588870e-01 9.290440e-01 6.129940e-01 7.934573e-01 1.039522e+00 7.941120e-01 6.583172e-01 7.596918e-01 6.129439e-01 1.154040e+00
<GCONST> 1.357900e+02
<STATE> 3
<MEAN> 39
 1.342488e+00 2.628549e+00 9.439185e+00 2.027062e+00 -6.480748e+00 -5.213768e+00 -1.071959e+01 -1.864288e+00 -1.906253e+00 -5.181043e+00 -5.650584e+00 -4.418633e+00 5.280145e+01 -2.288222e+00 -2.739006e+00 2.868880e-01 -2.061481e+00 -1.266228e+00 -1.568128e-01 -1.342562e+00 3.072141e-01 -8.058172e-01 -1.236888e-01 1.999606e+00 1.473463e+00 4.361966e+00 -3.129773e-01 -6.389226e-01 -1.687160e-01 -6.571012e-01 -1.034487e+00 2.215412e-02 -5.250778e-01 8.941722e-02 -8.741911e-02 1.240967e-01 6.263651e-01 -8.710914e-02 1.183146e+00
<VARIANCE> 39
 3.644374e+01 3.884893e+01 3.294643e+01 3.577510e+01 3.752731e+01 3.807241e+01 6.184119e+01 5.783230e+01 4.629975e+01 3.455252e+01 3.481935e+01 3.223798e+01 5.648029e+01 2.507624e+00 3.107984e+00 4.510358e+00 4.176279e+00 6.320562e+00 4.598497e+00 5.389096e+00 1.000352e+01 6.974590e+00 4.668420e+00 4.111980e+00 3.511957e+00 4.607534e+00 7.290534e-01 7.836122e-01 6.542527e-01 8.326728e-01 1.020385e+00 7.937022e-01 9.401447e-01 1.727001e+00 1.113908e+00 8.063316e-01 8.820571e-01 7.152519e-01 1.044704e+00
<GCONST> 1.384955e+02
<STATE> 4
<MEAN> 39
 -3.654173e+00 -6.755091e+00 7.667916e+00 -5.781509e+00 -1.533360e+01 -7.472213e+00 -1.697878e+01 1.979097e+00 -1.483004e+00 -4.419861e+00 1.189264e+00 -1.266176e+00 6.801032e+01 -8.060278e-01 -1.995193e+00 -8.573380e-01 -2.208366e+00 -2.118506e+00 -6.348525e-02 -8.051360e-01 1.388726e+00 3.881890e-01 2.281730e-01 1.175169e+00 -5.572941e-01 3.529852e+00 5.527357e-01 6.972948e-01 -2.144170e-01 3.769042e-01 6.195319e-01 3.980267e-01 6.473872e-01 -2.698950e-01 6.815512e-02 2.193817e-03 -7.364351e-01 -7.376677e-01 -1.068654e+00
<VARIANCE> 39
 1.588490e+01 3.522305e+01 5.335942e+01 4.821662e+01 6.735964e+01 4.102468e+01 8.336708e+01 8.626894e+01 7.809058e+01 4.095992e+01 4.375561e+01 2.645422e+01 4.959446e+01 2.764942e+00 3.713259e+00 5.976760e+00 4.775243e+00 7.402052e+00 4.137846e+00 7.203686e+00 1.137772e+01 7.573393e+00 4.595459e+00 7.103992e+00 4.087392e+00 5.204024e+00 2.747247e-01 3.956369e-01 4.669489e-01 6.961395e-01 1.595307e+00 7.661866e-01 1.276669e+00 1.368297e+00 1.004829e+00 7.971427e-01 8.878862e-01 6.729707e-01 5.527396e-01
<GCONST> 1.398524e+02
<TRANSP> 5
 0.000000e+00 1.000000e+00 0.000000e+00 0.000000e+00 0.000000e+00
 0.000000e+00 7.691125e-01 2.308875e-01 0.000000e+00 0.000000e+00
 0.000000e+00 0.000000e+00 5.082403e-01 4.917598e-01 0.000000e+00
 0.000000e+00 0.000000e+00 0.000000e+00 4.794587e-01 5.205413e-01
 0.000000e+00 0.000000e+00 0.000000e+00 0.000000e+00 0.000000e+00
<ENDHMM>
~h "e"
<BEGINHMM>
<NUMSTATES> 5
<STATE> 2
<MEAN> 39
 -4.214946e+00 -8.788120e+00 4.419923e+00 -7.275819e+00 -1.531290e+01 -7.589353e+00 -1.002857e+01 1.752233e+00 -2.713656e+00 -1.860515e+00 3.196497e-01 -5.188219e+00 6.369526e+01 1.676053e-01 -1.249985e+00 9.548156e-01 -7.485988e-01 -1.467900e+00 -2.572352e-01 3.775080e-01 1.392966e+00 -3.172716e-01 -2.391258e-01 3.643853e-01 -1.455738e-01 1.890590e+00 -1.279680e-01 3.635435e-01 -5.101180e-02 1.065864e-01 2.694247e-01 1.822500e-01 2.984216e-01 -3.321712e-01 -1.320261e-01 2.959051e-02 -6.301373e-02 5.134395e-02 -4.232947e-01
<VARIANCE> 39
 3.249853e+01 6.339252e+01 7.140200e+01 5.326982e+01 7.286721e+01 5.012861e+01 9.284470e+01 7.909276e+01 8.024726e+01 6.947448e+01 6.070916e+01 4.034906e+01 1.519878e+02 2.997859e+00 4.502299e+00 3.926337e+00 4.313967e+00 6.293281e+00 4.108143e+00 5.331792e+00 7.375194e+00 5.353837e+00 5.507438e+00 4.708296e+00 2.893271e+00 1.108209e+01 6.175412e-01 8.393306e-01 6.073126e-01 7.034601e-01 1.051090e+00 7.073711e-01 9.284852e-01 1.186557e+00 9.216626e-01 9.018238e-01 7.937205e-01 5.475186e-01 2.125575e+00
<GCONST> 1.448956e+02
<STATE> 3
<MEAN> 39
 -3.638582e+00 -1.272036e+01 8.002382e+00 -1.017781e+01 -1.973737e+01 -7.862029e+00 -8.198200e+00 5.588957e+00 -3.918384e+00 -2.931727e+00 2.357917e+00 -5.813281e+00 7.099541e+01 1.077860e-02 2.887135e-01 5.941624e-02 1.282974e-01 1.339070e-01 -8.773893e-02 2.994497e-01 -1.448122e-01 -1.229378e-01 1.182552e-01 -1.527081e-01 -6.924232e-02 -2.949115e-01 4.482329e-02 3.783927e-01 -2.325777e-01 3.040041e-01 4.317534e-01 2.182219e-02 -7.415257e-02 -3.533398e-01 1.014264e-01 2.343069e-02 -2.155196e-01 3.061268e-02 -5.672433e-01
<VARIANCE> 39
 1.311814e+01 4.718006e+01 5.627166e+01 3.887086e+01 5.315800e+01 4.551845e+01 7.765032e+01 7.600988e+01 8.527676e+01 8.187682e+01 6.038814e+01 3.539447e+01 3.135225e+01 6.966276e-01 1.477578e+00 1.585554e+00 2.053999e+00 2.460886e+00 1.979329e+00 2.805714e+00 2.698487e+00 2.374999e+00 2.425507e+00 2.194309e+00 1.524998e+00 2.470765e+00 1.676976e-01 2.778773e-01 2.913159e-01 3.204027e-01 4.568059e-01 3.792472e-01 5.682371e-01 6.211166e-01 4.909315e-01 5.112278e-01 4.257536e-01 3.115432e-01 3.284888e-01
<GCONST> 1.181665e+02
<STATE> 4
<MEAN> 39
 -6.822373e+00 -5.680002e+00 4.100307e+00 -6.534991e+00 -1.454322e+01 -6.801711e+00 -7.209899e+00 -1.027496e+00 -4.867816e+00 -1.879253e+00 -7.507607e-01 -3.996989e+00 5.691899e+01 3.458779e-02 4.239418e-01 -2.605795e-01 3.392861e-01 4.533851e-01 5.134774e-02 3.942072e-03 -2.927266e-01 1.119976e-01 -5.829275e-02 -2.734721e-01 1.165198e-02 -7.576249e-01 2.168017e-03 5.550030e-02 -2.460165e-02 4.894062e-02 1.054959e-01 5.248919e-02 -2.421232e-02 -5.719388e-02 7.687912e-03 -9.063234e-04 5.007436e-03 8.026077e-04 -6.120704e-02
<VARIANCE> 39
 3.121478e+01 5.486394e+01 8.127695e+01 5.169649e+01 9.185165e+01 4.949737e+01 6.312008e+01 6.490612e+01 5.782180e+01 5.852469e+01 5.340084e+01 3.517284e+01 2.463434e+02 7.100124e-01 1.480266e+00 1.353987e+00 1.683647e+00 2.268067e+00 1.732382e+00 2.392611e+00 2.300650e+00 1.887134e+00 2.072526e+00 1.851614e+00 1.507508e+00 2.333478e+00 1.372513e-01 2.379022e-01 2.223818e-01 2.906833e-01 3.771996e-01 3.318477e-01 4.221121e-01 4.485517e-01 3.739910e-01 3.801830e-01 3.401585e-01 2.766473e-01 2.766547e-01
<GCONST> 1.170614e+02
<TRANSP> 5
 0.000000e+00 1.000000e+00 0.000000e+00 0.000000e+00 0.000000e+00
 0.000000e+00 6.352566e-01 3.647434e-01 0.000000e+00 0.000000e+00
 0.000000e+00 0.000000e+00 7.274272e-01 2.725728e-01 0.000000e+00
 0.000000e+00 0.000000e+00 0.000000e+00 8.284698e-01 1.715302e-01
 0.000000e+00 0.000000e+00 0.000000e+00 0.000000e+00 0.000000e+00
<ENDHMM>
~h "f"
<BEGINHMM>
<NUMSTATES> 5
<STATE> 2
<MEAN> 39
 -7.866875e+00 8.232666e-02 -7.355035e-01 -1.165026e+00 -4.197194e+00 -1.786328e+00 -7.123027e+00 -3.946973e+00 -3.897872e+00 -2.116606e+00 -3.117717e+00 -2.774654e+00 5.838792e+01 -3.596283e+00 2.231321e-01 -4.883342e-01 1.775693e+00 1.232965e+00 -1.574492e-01 8.162814e-01 4.689039e-01 1.055154e+00 -6.977026e-02 -2.321264e-01 4.924261e-01 -1.208452e+00 -3.440156e-01 -6.252730e-01 -7.445002e-02 -4.871520e-01 -6.116608e-01 -1.197546e-01 -3.403667e-01 6.547544e-02 -3.889418e-02 9.833264e-02 2.448696e-01 -1.168238e-01 2.143889e-01
<VARIANCE> 39
 5.312365e+01 2.640256e+01 3.866803e+01 5.449045e+01 4.107003e+01 5.558656e+01 5.265738e+01 3.873933e+01 4.121203e+01 3.019527e+01 3.211757e+01 2.541615e+01 8.331905e+01 3.040850e+00 4.353817e+00 4.420023e+00 5.101140e+00 6.443985e+00 5.610065e+00 4.430698e+00 4.860095e+00 5.024196e+00 3.818731e+00 3.792436e+00 2.716284e+00 2.482848e+00 8.167939e-01 4.552472e-01 4.664536e-01 7.791858e-01 8.852770e-01 8.095520e-01 7.512915e-01 7.504613e-01 7.857492e-01 6.135182e-01 5.524720e-01 4.722842e-01 2.879941e-01
<GCONST> 1.325105e+02
<STATE> 3
<MEAN> 39
 -2.147230e+01 -5.157663e+00 -4.396573e+00 -1.741017e-01 -5.214858e+00 -4.037660e+00 -8.346531e+00 -2.877260e+00 -1.748538e+00 -1.625390e+00 -1.571075e+00 -9.435660e-01 5.797283e+01 -7.198087e-01 -7.086678e-01 -4.522158e-01 -2.278428e-01 -2.143320e-01 -1.781396e-01 -1.343569e-01 -5.616936e-02 1.004487e-02 -5.969688e-03 1.220272e-01 1.209197e-01 -1.818476e-01 8.592329e-01 1.835419e-01 1.883305e-01 -1.925000e-01 -5.413326e-02 7.998540e-02 -1.663272e-02 -1.067327e-01 -1.579106e-01 -9.885119e-02 -6.000315e-03 -1.535002e-01 1.507094e-01
<VARIANCE> 39
 1.987298e+01 2.162428e+01 1.647525e+01 2.099890e+01 2.101232e+01 3.256019e+01 4.666323e+01 2.516567e+01 2.400632e+01 2.155788e+01 2.007501e+01 1.863811e+01 5.039005e+01 2.736036e+00 1.474552e+00 1.750300e+00 1.744568e+00 2.059266e+00 2.211159e+00 1.872280e+00 1.952784e+00 1.939407e+00 1.773624e+00 1.728923e+00 1.508371e+00 1.564222e+00 4.994554e-01 3.394731e-01 3.821176e-01 4.666428e-01 5.127538e-01 5.099342e-01 4.292405e-01 4.706256e-01 5.091857e-01 4.043740e-01 3.957898e-01 3.437756e-01 2.598708e-01
<GCONST> 1.098794e+02
<STATE> 4
<MEAN> 39
 -1.439994e+01 -3.919625e+00 -4.763396e+00 -2.607459e+00 -4.898750e+00 -3.466223e+00 -6.886498e+00 -4.106632e+00 -3.781177e+00 -3.132692e+00 -2.404628e+00 -2.452076e+00 4.655423e+01 1.714954e+00 2.114484e-01 2.555209e-01 -7.056763e-01 -4.197004e-01 1.434952e-01 -1.700328e-01 -9.197242e-02 -2.688253e-01 -1.295734e-01 1.359851e-01 -4.001057e-01 5.832074e-01 3.306726e-01 2.929531e-03 1.647132e-01 -2.068818e-01 -1.565755e-01 9.973539e-02 -8.927026e-02 4.151584e-02 -5.781363e-02 4.292770e-02 9.782109e-02 -1.053581e-01 2.267598e-01
<VARIANCE> 39
 4.318009e+01 3.460739e+01 2.029363e+01 2.749732e+01 2.342327e+01 2.798547e+01 3.449239e+01 2.752369e+01 2.458719e+01 2.303063e+01 1.918270e+01 1.778544e+01 1.496043e+02 8.924816e+00 3.151504e+00 2.932145e+00 4.694666e+00 2.725088e+00 3.623773e+00 2.660708e+00 3.083810e+00 2.914355e+00 2.425246e+00 2.353121e+00 2.436769e+00 4.660563e+00 8.883678e-01 5.374782e-01 4.526864e-01 6.680840e-01 4.995881e-01 5.668306e-01 5.229748e-01 5.735689e-01 5.653839e-01 4.823339e-01 4.645861e-01 4.116218e-01 5.627427e-01
<GCONST> 1.234970e+02
<TRANSP> 5
 0.000000e+00 1.000000e+00 0.000000e+00 0.000000e+00 0.000000e+00
 0.000000e+00 6.824819e-01 3.175181e-01 0.000000e+00 0.000000e+00
 0.000000e+00 0.000000e+00 8.232986e-01 1.767013e-01 0.000000e+00
 0.000000e+00 0.000000e+00 0.000000e+00 8.362574e-01 1.637426e-01
 0.000000e+00 0.000000e+00 0.000000e+00 0.000000e+00 0.000000e+00
<ENDHMM>
~h "g"
<BEGINHMM>
<NUMSTATES> 5
<STATE> 2
<MEAN> 39
 1.851359e+00 5.310281e+00 7.389503e+00 2.969994e-01 -8.414559e+00 -5.674948e+00 -8.391121e+00 -4.217829e+00 -6.188813e+00 -5.869055e-01 -2.941600e+00 -7.437317e+00 5.060168e+01 -3.536803e-01 6.010395e-01 -7.541104e-02 6.587732e-01 9.374107e-01 -2.562283e-01 4.319694e-01 -1.599390e-01 -2.147339e-02 -1.165138e-01 -4.711558e-01 6.172253e-01 -5.867506e-01 -5.248362e-01 -6.562971e-01 -3.799365e-01 -4.730394e-01 3.715611e-02 4.711314e-02 -3.375002e-01 1.582901e-01 2.791471e-03 -6.108110e-02 2.468455e-01 2.711629e-01 1.065371e+00
<VARIANCE> 39
 3.363198e+01 4.943008e+01 5.040049e+01 3.952370e+01 5.268457e+01 4.758677e+01 6.016724e+01 6.377885e+01 5.611466e+01 4.810095e+01 4.278879e+01 3.548708e+01 7.117767e+01 4.698283e+00 5.872279e+00 5.944211e+00 4.389591e+00 6.619043e+00 4.212806e+00 4.637327e+00 5.730102e+00 5.686123e+00 3.702042e+00 3.514731e+00 3.879166e+00 9.449677e+00 6.036914e-01 6.624784e-01 6.952339e-01 6.313410e-01 1.135563e+00 7.101523e-01 8.963150e-01 9.155055e-01 1.073303e+00 7.431121e-01 7.698522e-01 6.599981e-01 1.074678e+00
<GCONST> 1.403694e+02
<STATE> 3
<MEAN> 39
 -5.558098e+00 -7.951175e-02 1.738092e+00 -7.219808e-01 -2.561563e+00 -7.277317e+00 -1.107115e+01 -3.540251e+00 -7.304919e+00 -3.814531e-01 -2.932521e+00 -1.606556e+00 6.092693e+01 -1.250214e+00 -1.616914e+00 -4.227453e-01 -1.563344e+00 -1.567488e+00 -6.731637e-01 -1.944291e+00 8.492677e-01 -4.952871e-02 -1.277491e-01 1.891263e+00 8.044223e-01 3.701951e+00 7.627594e-01 1.389920e-01 6.147876e-01 -4.192371e-01 -1.380230e+00 3.618856e-01 -1.474841e-01 1.073013e-01 4.652359e-01 -1.285045e-01 4.887931e-01 -7.312300e-01 -1.529684e-01
<VARIANCE> 39
 2.789206e+01 3.857876e+01 7.235478e+01 3.954239e+01 8.015107e+01 6.321327e+01 6.434945e+01 4.410067e+01 4.311620e+01 4.198885e+01 4.951659e+01 2.576717e+01 5.335087e+01 4.184345e+00 3.862813e+00 6.588496e+00 4.056104e+00 1.182096e+01 4.138676e+00 4.598745e+00 7.349535e+00 6.597821e+00 4.579473e+00 5.235992e+00 3.898961e+00 3.894093e+00 4.804297e-01 6.949512e-01 1.079436e+00 6.813426e-01 1.651083e+00 9.161915e-01 1.083840e+00 1.290853e+00 1.174388e+00 8.120743e-01 1.119699e+00 7.394289e-01 8.071247e-01
<GCONST> 1.418860e+02
<STATE> 4
<MEAN> 39
 -3.736933e+00 -2.667589e+00 4.032619e+00 -5.795361e+00 -1.394364e+01 -7.768414e+00 -1.561377e+01 -2.958821e-01 -3.346360e+00 -1.227358e+00 3.105001e+00 -3.897802e+00 6.711743e+01 4.414113e-01 -1.398127e+00 -2.811568e-01 -1.961704e+00 -1.771600e+00 9.633360e-01 -3.640254e-01 1.157183e+00 1.517704e+00 -3.836899e-01 5.945196e-01 -1.147510e+00 1.830677e+00 2.395821e-01 6.810100e-02 -1.279776e-01 1.837740e-01 6.731583e-01 4.287065e-01 5.777975e-01 -2.537947e-01 3.944281e-02 -7.591290e-02 -7.198488e-01 -3.756349e-01 -6.473519e-01
<VARIANCE> 39
 2.132179e+01 5.269393e+01 6.197239e+01 4.094497e+01 7.663876e+01 5.306327e+01 6.479688e+01 7.429066e+01 9.855475e+01 7.473145e+01 6.806649e+01 2.639320e+01 5.870731e+01 1.732146e+00 2.622336e+00 4.556720e+00 3.536131e+00 6.919278e+00 3.224106e+00 4.701619e+00 6.345226e+00 7.608073e+00 3.395943e+00 6.151676e+00 3.966804e+00 1.911160e+00 3.525336e-01 3.802308e-01 7.757922e-01 4.081398e-01 1.841972e+00 5.778984e-01 8.724815e-01 9.196516e-01 9.582036e-01 7.655572e-01 1.035092e+00 5.032345e-01 3.604778e-01
<GCONST> 1.363890e+02
<TRANSP> 5
 0.000000e+00 1.000000e+00 0.000000e+00 0.000000e+00 0.000000e+00
 0.000000e+00 7.764691e-01 2.235310e-01 0.000000e+00 0.000000e+00
 0.000000e+00 0.000000e+00 5.535557e-01 4.464442e-01 0.000000e+00
 0.000000e+00 0.000000e+00 0.000000e+00 4.147394e-01 5.852606e-01
 0.000000e+00 0.000000e+00 0.000000e+00 0.000000e+00 0.000000e+00
<ENDHMM>
~h "h"
<BEGINHMM>
<NUMSTATES> 5
<STATE> 2
<MEAN> 39
 -5.266946e+00 -5.575272e+00 -1.234860e+00 -5.075857e+00 3.104822e-03 1.766918e+00 -4.194496e+00 -1.956470e+00 -3.882229e+00 -3.540987e+00 -6.025274e+00 -3.269799e+00 6.433269e+01 -1.158188e+00 1.955883e-02 2.604348e-01 1.342703e+00 1.533040e+00 6.558064e-01 1.072482e+00 1.716853e-01 4.001774e-01 -4.075170e-01 -6.441856e-03 6.497383e-01 -8.656570e-01 1.384635e-02 -2.480416e-01 -8.963850e-03 -3.466505e-01 -3.865294e-01 -2.948274e-02 -3.421937e-01 5.585644e-02 7.469834e-02 6.775364e-02 2.518581e-01 -2.205119e-01 2.987365e-02
<VARIANCE> 39
 2.309668e+01 4.685453e+01 6.497573e+01 6.249035e+01 8.976687e+01 5.409882e+01 7.941652e+01 5.535686e+01 5.821188e+01 5.344283e+01 4.799594e+01 3.383635e+01 7.060379e+01 1.585673e+00 3.016404e+00 4.151114e+00 3.487339e+00 3.675342e+00 3.432783e+00 3.739116e+00 4.193224e+00 3.947006e+00 3.339886e+00 3.155244e+00 2.768107e+00 1.632294e+00 2.024078e-01 3.389722e-01 4.066882e-01 5.209108e-01 5.924785e-01 5.870861e-01 6.391783e-01 7.582787e-01 5.958865e-01 5.520368e-01 5.083398e-01 4.331554e-01 1.597311e-01
<GCONST> 1.278321e+02
<STATE> 3
<MEAN> 39
 -8.880016e+00 -7.859553e+00 -2.306525e+00 -3.685251e+00 3.693937e+00 3.752749e+00 -3.026453e+00 -1.514103e+00 -1.248929e+00 -4.364604e+00 -4.189614e+00 -3.011082e+00 6.196850e+01 -1.549462e-01 -8.814268e-02 -3.011245e-01 -3.464915e-01 -2.807739e-01 -3.522622e-01 -2.429295e-01 -1.163898e-01 -7.006843e-02 -3.764408e-02 1.203741e-01 -3.075318e-02 -6.365449e-01 3.730080e-01 1.322341e-01 -7.606212e-02 -3.542803e-01 -5.661529e-01 -2.843828e-01 -3.235524e-01 -1.366431e-01 -2.452229e-01 4.846864e-02 -1.785733e-02 -1.906775e-01 2.679568e-02
<VARIANCE> 39
 3.368472e+01 4.972509e+01 4.513997e+01 5.242818e+01 6.582615e+01 5.172995e+01 7.288482e+01 4.825672e+01 4.845373e+01 4.491821e+01 4.291019e+01 3.773425e+01 8.886861e+01 2.392181e+00 2.779416e+00 2.930280e+00 3.040466e+00 3.386970e+00 2.937628e+00 3.434145e+00 3.340584e+00 3.263336e+00 2.859996e+00 2.778337e+00 2.322301e+00 2.632752e+00 3.089790e-01 4.264232e-01 4.843363e-01 5.860220e-01 5.367526e-01 5.546150e-01 6.237416e-01 6.621280e-01 6.141119e-01 5.652660e-01 5.546156e-01 4.591086e-01 2.839294e-01
<GCONST> 1.275485e+02
<STATE> 4
<MEAN> 39
 -1.136617e+01 -6.552999e+00 -5.284871e+00 -4.831383e+00 -1.894704e+00 -1.584726e+00 -5.784482e+00 -3.560877e+00 -3.957860e+00 -5.023254e+00 -4.089469e+00 -2.866150e+00 4.671684e+01 1.861970e-01 1.387638e-01 -2.516876e-02 -1.284554e-01 -3.123137e-01 -1.554953e-01 -1.133915e-01 -1.109127e-01 -9.616717e-02 4.386786e-02 1.614161e-02 -1.380801e-01 -1.770365e-01 7.831757e-02 2.171274e-02 6.776026e-02 -3.552874e-03 -2.716797e-02 3.612934e-02 -1.983209e-02 2.655021e-02 9.921685e-03 7.144284e-03 1.314834e-02 -3.820752e-02 8.802209e-02
<VARIANCE> 39
 2.634696e+01 5.752679e+01 3.404580e+01 2.968926e+01 3.987603e+01 3.505626e+01 4.737730e+01 3.515255e+01 3.291711e+01 2.888003e+01 2.508331e+01 2.549014e+01 1.800898e+02 1.439526e+00 2.167883e+00 1.671972e+00 1.800890e+00 2.148171e+00 2.040282e+00 2.266484e+00 2.180117e+00 2.171834e+00 1.998724e+00 1.873730e+00 1.793664e+00 2.312474e+00 2.046848e-01 3.293483e-01 2.711033e-01 3.146066e-01 3.585565e-01 3.584852e-01 4.168617e-01 4.175689e-01 4.087420e-01 3.834607e-01 3.624963e-01 3.277946e-01 2.571758e-01
<GCONST> 1.136255e+02
<TRANSP> 5
 0.000000e+00 1.000000e+00 0.000000e+00 0.000000e+00 0.000000e+00
 0.000000e+00 5.810273e-01 4.189727e-01 0.000000e+00 0.000000e+00
 0.000000e+00 0.000000e+00 6.183128e-01 3.816873e-01 0.000000e+00
 0.000000e+00 0.000000e+00 0.000000e+00 8.645435e-01 1.354565e-01
 0.000000e+00 0.000000e+00 0.000000e+00 0.000000e+00 0.000000e+00
<ENDHMM>
~h "i"
<BEGINHMM>
<NUMSTATES> 5
<STATE> 2
<MEAN> 39
 -7.250815e+00 -4.077460e-01 1.549188e+01 -3.791957e+00 -1.727496e+01 -6.564463e+00 -1.260653e+01 -6.228662e+00 -1.029796e+01 -4.768885e+00 3.490813e+00 -4.012481e+00 6.369237e+01 3.863379e-01 1.375885e-01 2.976898e+00 -7.432419e-01 -2.677401e+00 7.224669e-01 -1.498735e+00 -5.675543e-01 -1.605915e+00 -1.355083e-01 1.439878e+00 -6.459688e-01 1.599098e+00 -5.983205e-02 9.591909e-02 -6.973771e-01 -9.764457e-02 4.489416e-01 2.749244e-01 1.948924e-01 4.549463e-02 4.426126e-01 2.195252e-01 -2.676090e-01 -9.863435e-02 -4.466954e-01
<VARIANCE> 39
 2.820208e+01 5.153137e+01 5.504956e+01 4.251002e+01 4.858952e+01 4.285912e+01 5.411731e+01 6.227692e+01 6.230570e+01 6.779928e+01 4.642244e+01 2.635930e+01 6.123878e+01 5.529406e+00 3.369777e+00 5.339908e+00 4.021709e+00 4.989537e+00 3.925358e+00 6.239014e+00 5.702639e+00 6.021297e+00 5.703700e+00 4.079409e+00 3.019525e+00 4.303789e+00 6.293272e-01 5.969881e-01 9.955805e-01 6.118482e-01 1.049857e+00 6.905959e-01 9.599620e-01 1.049994e+00 8.897704e-01 7.597377e-01 6.897514e-01 4.891582e-01 9.173404e-01
<GCONST> 1.387466e+02
<STATE> 3
<MEAN> 39
 -7.490649e+00 7.084081e-01 1.974208e+01 -6.951153e+00 -2.136215e+01 -2.722255e+00 -1.539872e+01 -8.435751e+00 -1.119718e+01 -4.271647e+00 5.547686e+00 -6.343030e+00 6.612417e+01 2.795193e-01 1.283356e-01 -5.387924e-01 1.487359e-01 2.488082e-01 -2.597737e-01 3.712667e-01 1.656215e-01 2.988608e-01 1.948517e-01 -2.276429e-01 3.689883e-02 -3.885034e-01 1.134872e-01 5.371994e-02 -5.684581e-01 2.637123e-01 5.859250e-01 -2.226022e-01 3.435459e-01 1.779291e-01 3.314887e-01 2.018303e-02 -3.615569e-01 1.355566e-01 -4.442806e-01
<VARIANCE> 39
 1.350906e+01 3.942772e+01 3.275842e+01 3.972608e+01 2.762615e+01 4.717822e+01 3.675122e+01 5.912658e+01 7.079118e+01 9.976968e+01 5.917419e+01 2.949090e+01 2.461649e+01 9.923970e-01 1.924328e+00 2.257975e+00 2.068474e+00 2.827797e+00 2.550096e+00 2.734883e+00 3.426844e+00 2.594444e+00 2.469228e+00 2.131492e+00 1.612084e+00 1.784008e+00 2.017752e-01 3.108903e-01 3.807512e-01 3.700636e-01 6.074491e-01 4.555365e-01 5.459015e-01 5.809132e-01 5.901557e-01 5.610582e-01 4.909348e-01 3.285675e-01 3.230363e-01
<GCONST> 1.183638e+02
<STATE> 4
<MEAN> 39
 -7.124813e+00 2.557859e+00 9.443921e+00 -3.096625e+00 -1.288732e+01 -5.228918e+00 -9.102142e+00 -7.153621e+00 -7.410903e+00 -3.229413e+00 -5.506276e-01 -4.116942e+00 5.112640e+01 1.272677e-01 1.810409e-01 -1.195376e+00 4.471718e-01 1.071216e+00 -5.329895e-02 5.299515e-01 2.178714e-01 6.248993e-01 7.679127e-03 -6.885587e-01 1.499627e-01 -1.547599e+00 -1.060741e-01 -9.704193e-02 -9.212829e-03 -9.492072e-02 2.193772e-02 1.592552e-01 -1.126782e-01 -5.233680e-02 -2.817885e-02 -2.434426e-02 1.721838e-02 -3.061500e-02 1.440713e-01
<VARIANCE> 39
 2.918373e+01 5.257959e+01 7.327021e+01 3.665162e+01 6.287782e+01 6.256993e+01 5.598746e+01 6.058814e+01 4.637005e+01 4.864639e+01 4.293908e+01 3.061101e+01 1.527096e+02 1.778618e+00 2.553897e+00 3.010033e+00 2.603708e+00 3.923232e+00 2.911201e+00 3.842930e+00 3.614491e+00 3.848334e+00 3.136552e+00 2.983388e+00 2.191038e+00 4.550578e+00 2.666112e-01 3.984902e-01 4.066124e-01 4.348204e-01 6.855395e-01 6.008458e-01 6.289360e-01 6.499854e-01 5.536193e-01 5.199683e-01 4.750484e-01 3.951502e-01 5.035101e-01
<GCONST> 1.284084e+02
<TRANSP> 5
 0.000000e+00 1.000000e+00 0.000000e+00 0.000000e+00 0.000000e+00
 0.000000e+00 6.194089e-01 3.805912e-01 0.000000e+00 0.000000e+00
 0.000000e+00 0.000000e+00 8.114881e-01 1.885119e-01 0.000000e+00
 0.000000e+00 0.000000e+00 0.000000e+00 7.703614e-01 2.296386e-01
 0.000000e+00 0.000000e+00 0.000000e+00 0.000000e+00 0.000000e+00
<ENDHMM>
~h "j"
<BEGINHMM>
<NUMSTATES> 5
<STATE> 2
<MEAN> 39
 -1.645786e+00 7.730236e+00 1.026341e+01 -1.479103e-01 -8.289991e+00 -5.672487e+00 -7.699795e+00 -1.491072e+00 -4.492558e+00 -5.049072e+00 -2.011272e+00 -3.922474e+00 5.199477e+01 -6.904749e-01 1.031978e+00 1.138521e-01 1.223683e-01 1.183222e+00 2.119496e-01 9.578862e-01 -1.075727e-01 2.179595e-01 8.936948e-02 -2.970891e-01 -1.065665e-02 -5.986981e-01 -6.275798e-01 -4.475106e-01 -1.820955e-01 -2.677314e-01 7.504881e-03 1.542668e-02 -2.406903e-01 -2.042444e-01 -8.537397e-02 8.139251e-02 1.510435e-01 1.649748e-01 8.127402e-01
<VARIANCE> 39
 3.973147e+01 4.553371e+01 3.847427e+01 2.939253e+01 5.300918e+01 3.922818e+01 5.172355e+01 4.416315e+01 4.329655e+01 3.095038e+01 3.239621e+01 2.761760e+01 8.168811e+01 7.849593e+00 4.400621e+00 3.591500e+00 3.315233e+00 4.491832e+00 3.223324e+00 4.747880e+00 4.426255e+00 4.009262e+00 2.799100e+00 2.723357e+00 2.964297e+00 8.927200e+00 1.201874e+00 5.735043e-01 6.062149e-01 5.334539e-01 9.558643e-01 6.625195e-01 7.985985e-01 7.524266e-01 7.902007e-01 5.307819e-01 5.734956e-01 6.627406e-01 1.196543e+00
<GCONST> 1.342908e+02
<STATE> 3
<MEAN> 39
 -1.570328e+01 7.079177e+00 9.585994e+00 -2.617428e+00 -3.611144e+00 -5.203267e+00 -6.713379e+00 -5.845631e+00 -6.080604e+00 -4.434379e+00 -7.639735e-01 -1.832476e-01 6.302559e+01 -1.030987e+00 -1.523826e+00 1.008432e+00 -2.187541e-01 -2.661539e+00 -1.357304e+00 -1.548386e+00 -4.242688e-01 -9.339979e-01 -3.768243e-01 1.487270e+00 1.220486e+00 3.270696e+00 1.708898e+00 -5.589303e-01 9.808554e-02 1.374782e-01 -1.210849e+00 -2.496919e-01 -7.194121e-01 6.353158e-01 2.268862e-01 -5.132366e-02 2.430089e-01 -3.681748e-01 -3.478985e-01
<VARIANCE> 39
 3.506200e+01 2.943965e+01 4.198534e+01 2.689903e+01 5.234023e+01 4.251189e+01 3.549644e+01 2.243928e+01 2.988846e+01 2.177723e+01 2.143577e+01 1.861113e+01 2.859304e+01 1.287973e+01 3.696882e+00 3.763852e+00 3.687693e+00 8.522110e+00 4.043468e+00 4.520260e+00 4.820171e+00 3.376598e+00 2.778069e+00 2.548241e+00 2.049321e+00 2.702986e+00 8.772225e-01 8.404066e-01 1.084988e+00 6.274148e-01 1.595400e+00 9.557273e-01 8.102800e-01 1.059238e+00 8.069140e-01 6.067961e-01 6.061992e-01 5.573064e-01 4.801453e-01
<GCONST> 1.309015e+02
<STATE> 4
<MEAN> 39
 -6.002506e+00 -3.548922e+00 1.152068e+01 -4.227331e+00 -1.886020e+01 -1.072770e+01 -1.604145e+01 2.427352e-01 -5.176376e+00 -4.824106e+00 4.932564e+00 5.091148e-01 7.010977e+01 2.309093e+00 -2.984662e+00 -1.707366e+00 -1.120371e+00 -1.333577e+00 2.985044e-01 -1.513932e+00 2.354258e+00 1.567964e+00 5.354526e-01 -1.344452e-01 -1.353278e+00 1.257269e+00 -2.536764e-01 4.488764e-01 -7.880437e-01 -3.060169e-01 1.530199e+00 8.327187e-01 7.242571e-01 -1.901069e-01 2.939219e-01 1.953267e-01 -7.938889e-01 -6.316696e-01 -6.201496e-01
<VARIANCE> 39
 1.211991e+01 3.538993e+01 3.069195e+01 5.410389e+01 3.080852e+01 2.066851e+01 3.756242e+01 6.997401e+01 6.071119e+01 4.898631e+01 3.510086e+01 1.842639e+01 2.200237e+01 2.178926e+00 3.222146e+00 3.761328e+00 2.714507e+00 8.676295e+00 3.117479e+00 6.646543e+00 6.675277e+00 4.119270e+00 3.526647e+00 5.576252e+00 2.975778e+00 9.853392e-01 5.205275e-01 4.080011e-01 5.050532e-01 5.630286e-01 6.760554e-01 6.228509e-01 7.375021e-01 1.136043e+00 7.254220e-01 6.882045e-01 6.982264e-01 4.524452e-01 1.223046e-01
<GCONST> 1.260804e+02
<TRANSP> 5
 0.000000e+00 1.000000e+00 0.000000e+00 0.000000e+00 0.000000e+00
 0.000000e+00 8.326794e-01 1.673206e-01 0.000000e+00 0.000000e+00
 0.000000e+00 0.000000e+00 7.128519e-01 2.871480e-01 0.000000e+00
 0.000000e+00 0.000000e+00 0.000000e+00 6.557488e-01 3.442512e-01
 0.000000e+00 0.000000e+00 0.000000e+00 0.000000e+00 0.000000e+00
<ENDHMM>
~h "k"
<BEGINHMM>
<NUMSTATES> 5
<STATE> 2
<MEAN> 39
 -8.011237e+00 1.627324e-01 -2.194343e+00 -3.743992e+00 -5.308457e+00 -3.842098e+00 -5.772946e+00 -3.731326e+00 -3.855988e+00 -1.641169e+00 -3.802306e+00 -4.312435e+00 4.149285e+01 -8.544577e-01 -1.372934e-01 -5.610602e-01 3.165266e-01 3.900372e-01 -2.360567e-01 1.854798e-01 3.093337e-02 2.401460e-01 -8.291367e-02 -7.502646e-02 4.252934e-01 -1.133345e+00 -6.343774e-02 -4.152525e-01 -2.249495e-01 -2.408030e-01 1.046003e-01 -2.082628e-02 -1.977155e-01 1.085532e-01 -4.005679e-02 6.249575e-02 2.941965e-02 3.261151e-02 9.742390e-01
<VARIANCE> 39
 3.247186e+01 3.877911e+01 4.439997e+01 3.894420e+01 4.399091e+01 4.340303e+01 4.752727e+01 4.448686e+01 4.074371e+01 3.699829e+01 3.437260e+01 3.233065e+01 8.019360e+01 2.104266e+00 3.877049e+00 3.392611e+00 3.206603e+00 3.891085e+00 3.625760e+00 3.686051e+00 3.496928e+00 3.688418e+00 3.176895e+00 2.810612e+00 2.566245e+00 9.166597e+00 3.606705e-01 6.776480e-01 6.407269e-01 6.275058e-01 7.869791e-01 7.441185e-01 7.821969e-01 6.715546e-01 7.325002e-01 6.877798e-01 5.848169e-01 5.246762e-01 1.596234e+00
<GCONST> 1.316410e+02
<STATE> 3
<MEAN> 39
 -1.129484e+01 -5.096141e+00 -7.694988e+00 -4.070559e+00 -1.454038e+00 -6.488624e+00 -8.125593e+00 -3.043648e+00 -4.237953e+00 -1.190691e-02 -4.250764e+00 -1.945110e+00 4.927309e+01 -7.112414e-01 -1.814038e+00 -2.176731e+00 -1.031174e+00 1.351140e+00 -7.407907e-01 -1.107513e+00 5.705694e-01 -1.686480e-01 7.455379e-01 -5.579666e-01 4.260517e-01 4.787423e+00 6.955016e-01 4.262353e-01 7.563986e-01 -3.984447e-01 -6.483132e-01 3.086518e-01 -4.605597e-02 4.841442e-02 1.775461e-02 -9.472257e-02 1.522011e-01 -5.167994e-01 6.322873e-01
<VARIANCE> 39
 3.275005e+01 6.185844e+01 7.628963e+01 5.891195e+01 6.046632e+01 6.704657e+01 6.481573e+01 4.646118e+01 4.514052e+01 3.914339e+01 3.822628e+01 2.991724e+01 1.328280e+02 4.401010e+00 5.793708e+00 8.252565e+00 6.620923e+00 6.995809e+00 6.667440e+00 5.795269e+00 5.564397e+00 5.760751e+00 4.888498e+00 4.450008e+00 3.941959e+00 1.420570e+01 6.982921e-01 1.163194e+00 1.539959e+00 1.043882e+00 1.272702e+00 1.108828e+00 1.136795e+00 9.865077e-01 1.007414e+00 8.185701e-01 8.007645e-01 7.214663e-01 2.230943e+00
<GCONST> 1.476255e+02
<STATE> 4
<MEAN> 39
 -9.677570e+00 -5.211759e+00 -8.066146e+00 -8.532388e+00 -1.937819e+00 -6.376987e+00 -1.027461e+01 -1.761685e+00 -3.833125e+00 8.782564e-01 -5.274226e+00 -3.938151e+00 6.021838e+01 1.998426e+00 1.855143e-01 1.881954e+00 -1.170659e+00 -1.655560e+00 8.104902e-01 -2.127122e-01 4.130038e-01 1.508290e-01 -4.698415e-01 7.039316e-01 -1.462308e+00 2.916899e+00 6.111190e-01 5.894961e-02 7.484732e-01 7.852840e-02 -6.447427e-01 4.956153e-01 2.312388e-01 -6.458627e-02 6.179757e-02 -3.588044e-01 3.931946e-01 -3.939219e-01 -7.311713e-01
<VARIANCE> 39
 4.550854e+01 4.777227e+01 7.734116e+01 5.110392e+01 6.066974e+01 6.187910e+01 5.264778e+01 4.915603e+01 5.364742e+01 4.844887e+01 4.693602e+01 3.588533e+01 7.705194e+01 4.920257e+00 5.620969e+00 6.536314e+00 5.525850e+00 5.333920e+00 4.670922e+00 5.135365e+00 6.095812e+00 5.673262e+00 4.118276e+00 4.337664e+00 4.384328e+00 7.940743e+00 8.673462e-01 9.158334e-01 1.586083e+00 9.334974e-01 1.251166e+00 9.482986e-01 1.058062e+00 1.049666e+00 1.058516e+00 8.994576e-01 8.037336e-01 7.714544e-01 1.271908e+00
<GCONST> 1.452555e+02
<TRANSP> 5
 0.000000e+00 1.000000e+00 0.000000e+00 0.000000e+00 0.000000e+00
 0.000000e+00 8.186551e-01 1.813449e-01 0.000000e+00 0.000000e+00
 0.000000e+00 0.000000e+00 5.340272e-01 4.659728e-01 0.000000e+00
 0.000000e+00 0.000000e+00 0.000000e+00 5.766628e-01 4.233372e-01
 0.000000e+00 0.000000e+00 0.000000e+00 0.000000e+00 0.000000e+00
<ENDHMM>
~h "l"
<BEGINHMM>
<NUMSTATES> 5
<STATE> 2
<MEAN> 39
 3.984379e-01 -6.982518e+00 3.587330e-03 -1.010296e+01 -1.047607e+01 -9.001153e-01 -1.683732e+01 -9.236379e+00 1.713383e+00 7.238498e-01 1.273786e+00 -6.942727e+00 6.681416e+01 6.412465e-01 5.051432e-02 2.694323e-01 -6.260499e-01 3.143737e-01 2.284269e-01 -1.270732e+00 -1.125291e+00 2.717591e-01 9.285061e-01 5.748825e-01 -1.921520e-01 -2.002951e-01 -2.054164e-01 8.347992e-02 7.946740e-03 -1.567046e-01 4.583981e-02 1.009542e-01 1.880446e-01 3.559750e-01 -2.951230e-01 -1.824479e-01 1.589322e-02 1.634442e-02 -1.381230e-03
<VARIANCE> 39
 1.808551e+01 3.663814e+01 6.554359e+01 8.982053e+01 4.691497e+01 6.618144e+01 9.096135e+01 1.033781e+02 9.454618e+01 6.685683e+01 5.856189e+01 4.385657e+01 4.482838e+01 1.149320e+00 1.971331e+00 3.107076e+00 4.922993e+00 4.418292e+00 4.575951e+00 4.275516e+00 5.262987e+00 4.706143e+00 3.973481e+00 3.774027e+00 3.057984e+00 1.824311e+00 2.536995e-01 2.977857e-01 3.834841e-01 6.976251e-01 7.405518e-01 6.959382e-01 8.121168e-01 9.955196e-01 8.085137e-01 7.489653e-01 6.802121e-01 4.892002e-01 1.736674e-01
<GCONST> 1.319607e+02
<STATE> 3
<MEAN> 39
 1.676688e+00 -6.365700e+00 -1.518759e-02 -1.494821e+01 -8.774879e+00 1.201927e+00 -2.022891e+01 -1.056060e+01 3.510942e-01 3.818413e+00 3.658501e+00 -7.446592e+00 6.729324e+01 -1.762656e-01 -9.451182e-02 -1.935507e-01 -3.823826e-01 2.336099e-01 7.400914e-02 -3.699194e-02 7.148868e-01 6.915957e-03 -4.608398e-02 -2.682261e-01 -1.524094e-01 1.798078e-01 -2.372994e-01 -1.864332e-01 -2.342897e-01 1.836307e-01 -3.864123e-02 5.965130e-02 4.932562e-01 6.020641e-01 5.323100e-02 -4.257569e-01 -4.533759e-01 -9.069729e-02 1.901958e-01
<VARIANCE> 39
 1.190075e+01 3.700114e+01 6.310317e+01 8.562656e+01 4.257814e+01 5.086335e+01 8.968345e+01 8.008900e+01 8.216830e+01 6.050307e+01 5.343103e+01 4.765038e+01 2.610262e+01 5.102511e-01 1.483423e+00 1.928851e+00 2.934339e+00 1.966895e+00 2.921562e+00 3.180918e+00 4.652262e+00 3.205480e+00 2.880900e+00 3.221957e+00 2.296993e+00 9.586431e-01 9.905602e-02 2.867685e-01 2.712677e-01 5.076961e-01 5.706862e-01 5.799657e-01 7.124535e-01 7.314149e-01 6.404530e-01 6.524925e-01 6.434000e-01 5.044122e-01 1.159526e-01
<GCONST> 1.211619e+02
<STATE> 4
<MEAN> 39
 3.489432e-02 -5.398781e+00 -2.503187e+00 -1.379781e+01 -7.497123e+00 1.614828e-01 -1.643500e+01 -5.807202e+00 -2.107893e-01 1.098082e+00 -5.350525e-02 -7.519026e+00 6.573199e+01 -4.964502e-01 -1.169320e-01 -1.800911e-01 6.059736e-01 7.974542e-02 -6.076917e-02 1.054258e+00 1.092223e+00 -2.011019e-01 -8.599000e-01 -8.546489e-01 -2.341389e-02 -1.180239e-01 -9.030185e-02 4.026011e-02 5.087319e-02 1.637160e-01 -5.565806e-02 4.711724e-02 2.581576e-01 -8.737629e-02 -1.016531e-01 -1.583278e-01 6.090745e-02 2.913690e-02 -7.069419e-02
<VARIANCE> 39
 1.571058e+01 5.904391e+01 9.402214e+01 8.592127e+01 4.683529e+01 6.887687e+01 9.151196e+01 8.088568e+01 7.139367e+01 6.722778e+01 5.603695e+01 4.959309e+01 6.901883e+01 7.624251e-01 2.601273e+00 2.667520e+00 3.901145e+00 3.718054e+00 3.741964e+00 4.110374e+00 5.518675e+00 3.984119e+00 3.609965e+00 4.065938e+00 3.207017e+00 2.389259e+00 1.260712e-01 2.639199e-01 2.537538e-01 5.369584e-01 5.861708e-01 5.500615e-01 6.779569e-01 6.094788e-01 5.909303e-01 6.228639e-01 5.591293e-01 4.038167e-01 1.964213e-01
<GCONST> 1.284953e+02
<TRANSP> 5
 0.000000e+00 1.000000e+00 0.000000e+00 0.000000e+00 0.000000e+00
 0.000000e+00 5.166404e-01 4.833597e-01 0.000000e+00 0.000000e+00
 0.000000e+00 0.000000e+00 6.402652e-01 3.597347e-01 0.000000e+00
 0.000000e+00 0.000000e+00 0.000000e+00 5.325357e-01 4.674643e-01
 0.000000e+00 0.000000e+00 0.000000e+00 0.000000e+00 0.000000e+00
<ENDHMM>
~h "m"
<BEGINHMM>
<NUMSTATES> 5
<STATE> 2
<MEAN> 39
 6.745005e-01 -2.515820e+00 2.917281e+00 -5.199856e+00 -6.390797e+00 2.707409e+00 -9.544665e+00 -8.053017e+00 -9.203299e+00 -1.884110e+00 -1.599788e+00 -7.918481e+00 5.808920e+01 2.862854e-01 1.166978e+00 2.090694e+00 1.929714e+00 4.303873e-01 3.894390e-01 1.257598e-01 -2.174157e+00 -1.981273e+00 -5.272248e-02 -7.331468e-01 1.939190e-01 -6.345971e-01 -2.388724e-01 -2.721828e-01 -2.972030e-02 -1.627475e-01 -7.253347e-02 -9.326661e-03 -9.295005e-02 1.637294e-01 2.003249e-01 -1.411530e-01 -6.307993e-02 5.019730e-02 3.846949e-01
<VARIANCE> 39
 3.109127e+01 4.253304e+01 5.440168e+01 6.417809e+01 4.485107e+01 4.753910e+01 8.181375e+01 7.341166e+01 1.031123e+02 4.728048e+01 5.941523e+01 4.329526e+01 1.013071e+02 2.159022e+00 2.976087e+00 4.331399e+00 4.720234e+00 3.450243e+00 4.091196e+00 5.677310e+00 5.050544e+00 6.433854e+00 3.895061e+00 5.525949e+00 3.934250e+00 5.587715e+00 2.835706e-01 3.437085e-01 6.652009e-01 6.017095e-01 5.255231e-01 4.819747e-01 6.070732e-01 7.962800e-01 8.025996e-01 5.015358e-01 7.268857e-01 4.590607e-01 3.158229e-01
<GCONST> 1.347487e+02
<STATE> 3
<MEAN> 39
 1.344105e+00 -1.801856e+00 7.298951e+00 -2.137434e+00 -6.957863e+00 4.396382e+00 -1.039245e+01 -1.308887e+01 -1.231098e+01 -2.903333e+00 -3.058213e+00 -7.014266e+00 6.059335e+01 -6.467451e-02 -5.610830e-02 1.233449e-01 -8.382370e-03 -3.535546e-02 2.165406e-01 2.474204e-02 -4.135382e-02 -6.026751e-02 -2.608181e-01 -9.936869e-02 4.459228e-02 2.631665e-01 1.847162e-02 -2.318515e-01 -6.344270e-01 -6.317880e-01 -1.579891e-01 -8.831379e-02 -2.708511e-02 7.116904e-01 5.980663e-01 5.142465e-02 2.811490e-01 -1.579292e-01 2.182512e-01
<VARIANCE> 39
 1.510461e+01 3.001723e+01 3.146869e+01 3.887862e+01 4.145764e+01 5.296284e+01 1.072916e+02 7.343301e+01 1.297599e+02 6.080550e+01 7.214198e+01 4.676309e+01 2.750515e+01 4.040992e-01 1.105245e+00 1.962333e+00 2.406900e+00 1.421855e+00 1.643091e+00 1.944785e+00 2.575884e+00 2.611566e+00 1.887371e+00 2.889405e+00 1.708646e+00 1.396445e+00 1.264309e-01 2.160236e-01 4.058657e-01 4.158172e-01 3.329080e-01 3.461925e-01 5.941362e-01 5.580124e-01 7.049585e-01 4.841195e-01 6.616801e-01 4.581986e-01 2.042764e-01
<GCONST> 1.162121e+02
<STATE> 4
<MEAN> 39
 -5.654461e-01 -1.626850e+00 5.154738e+00 -3.698491e+00 -7.413991e+00 3.093509e+00 -1.029826e+01 -7.822193e+00 -9.571251e+00 -3.777389e+00 -3.708410e+00 -7.281793e+00 5.670457e+01 1.815116e-06 -9.273341e-02 -8.253224e-01 -7.392524e-01 -2.376288e-01 -5.857495e-02 1.120452e-01 7.382722e-01 8.184227e-01 1.009879e-01 4.156411e-01 -1.420195e-01 1.869922e-01 -3.826583e-02 -9.279887e-02 -1.600345e-01 -1.228654e-01 3.224944e-02 -1.112122e-02 -1.905829e-02 1.286181e-01 1.311106e-01 3.818444e-02 8.028719e-02 -6.694939e-03 3.193227e-02
<VARIANCE> 39
 3.148470e+01 4.029602e+01 6.070881e+01 5.440698e+01 5.941806e+01 5.869925e+01 8.322506e+01 6.519159e+01 9.923240e+01 4.587761e+01 5.757331e+01 4.943604e+01 1.036714e+02 6.072493e-01 1.904148e+00 3.339346e+00 3.618418e+00 2.166785e+00 2.107734e+00 2.950664e+00 3.624970e+00 3.836435e+00 2.318852e+00 3.340612e+00 2.376170e+00 2.340019e+00 1.088665e-01 2.165732e-01 3.837586e-01 4.033445e-01 3.946751e-01 3.607369e-01 4.278798e-01 4.712359e-01 4.964967e-01 3.635834e-01 4.653624e-01 3.642231e-01 1.751217e-01
<GCONST> 1.219401e+02
<TRANSP> 5
 0.000000e+00 1.000000e+00 0.000000e+00 0.000000e+00 0.000000e+00
 0.000000e+00 5.582866e-01 4.417134e-01 0.000000e+00 0.000000e+00
 0.000000e+00 0.000000e+00 7.042335e-01 2.957664e-01 0.000000e+00
 0.000000e+00 0.000000e+00 0.000000e+00 7.445937e-01 2.554063e-01
 0.000000e+00 0.000000e+00 0.000000e+00 0.000000e+00 0.000000e+00
<ENDHMM>
~h "n"
<BEGINHMM>
<NUMSTATES> 5
<STATE> 2
<MEAN> 39
 7.873541e-01 -7.032283e+00 3.479258e+00 -4.546778e+00 -1.022232e+01 -3.736560e+00 -1.377271e+01 -9.888499e-01 -1.540672e+00 -1.774406e+00 -6.066792e+00 -8.080375e+00 6.531483e+01 5.793503e-01 2.470506e+00 2.123445e+00 2.178107e+00 -9.624779e-02 -9.308895e-01 -8.870392e-02 -3.333722e+00 -8.720143e-01 1.647706e+00 -9.754245e-01 6.736543e-01 -2.300682e+00 -1.494329e-01 8.420456e-02 4.604710e-02 -2.513676e-01 9.591661e-02 1.240097e-01 2.268911e-01 -3.416762e-01 -2.272345e-01 1.277704e-01 1.103291e-01 7.475199e-02 6.341427e-02
<VARIANCE> 39
 1.232401e+01 5.029910e+01 5.983643e+01 5.138062e+01 5.604244e+01 4.106675e+01 7.362208e+01 9.925996e+01 8.689300e+01 6.729975e+01 5.306820e+01 3.884983e+01 4.244085e+01 8.189650e-01 2.214263e+00 4.556220e+00 3.263095e+00 3.872790e+00 4.392337e+00 7.031096e+00 5.395850e+00 6.530630e+00 5.059256e+00 4.118894e+00 3.302065e+00 1.221590e+00 1.250837e-01 4.724166e-01 5.722476e-01 4.955425e-01 5.749897e-01 6.499071e-01 7.138371e-01 1.250801e+00 8.103336e-01 8.190494e-01 5.423996e-01 4.319718e-01 2.797017e-01
<GCONST> 1.305793e+02
<STATE> 3
<MEAN> 39
 1.238894e+00 -1.643203e+00 8.987204e+00 -1.143943e+00 -1.102319e+01 -4.341676e+00 -1.433458e+01 -1.091972e+01 -2.670257e+00 2.652288e+00 -6.888905e+00 -6.752543e+00 6.090506e+01 1.220737e-02 7.386314e-01 4.658257e-01 3.851093e-01 6.628954e-02 -2.008201e-02 1.715871e-01 -9.523817e-01 -4.203790e-01 5.739784e-01 -2.249998e-01 3.866602e-01 -6.063884e-01 -1.877773e-01 -4.704058e-01 -6.042529e-01 -4.811184e-01 1.397777e-01 2.186911e-01 6.741567e-02 9.493807e-01 1.142197e-01 -5.086374e-01 2.794602e-01 -1.250996e-01 4.115185e-01
<VARIANCE> 39
 1.331426e+01 2.780915e+01 4.688827e+01 3.991209e+01 4.366551e+01 4.817913e+01 9.895716e+01 7.069902e+01 1.124510e+02 5.991078e+01 5.004899e+01 4.900643e+01 2.193105e+01 4.675147e-01 1.955558e+00 2.750698e+00 1.729601e+00 1.904899e+00 2.554235e+00 3.258924e+00 4.674835e+00 3.441783e+00 2.841396e+00 2.303972e+00 2.129721e+00 1.401250e+00 1.331501e-01 3.444104e-01 6.045110e-01 4.445568e-01 4.813680e-01 6.183553e-01 7.813234e-01 8.359996e-01 8.450999e-01 6.957358e-01 5.570542e-01 4.944765e-01 2.413505e-01
<GCONST> 1.220470e+02
<STATE> 4
<MEAN> 39
 -6.021845e-01 1.024395e+00 6.365957e+00 7.308845e-01 -7.404531e+00 -4.528415e+00 -9.478751e+00 -7.935377e+00 -6.419461e+00 5.583600e-01 -8.044990e+00 -4.329281e+00 5.372067e+01 -3.817583e-01 2.837362e-01 -3.997342e-01 -7.431431e-03 4.321532e-01 3.233883e-01 3.687118e-01 3.400110e-01 8.491319e-03 -5.365510e-01 2.059129e-01 -3.084288e-02 -7.226097e-01 -1.283765e-01 -1.342618e-01 -1.113004e-01 -1.447812e-01 3.052566e-02 7.080294e-02 -5.949453e-03 2.047448e-01 9.381126e-02 -1.588034e-01 1.095199e-01 -6.599450e-02 2.281086e-02
<VARIANCE> 39
 3.107976e+01 3.309610e+01 4.669849e+01 4.325469e+01 5.603047e+01 4.172688e+01 1.166238e+02 5.826145e+01 1.066102e+02 5.645589e+01 5.250233e+01 4.228111e+01 9.088004e+01 9.030945e-01 2.127968e+00 2.090641e+00 2.221193e+00 2.314668e+00 2.537935e+00 3.161824e+00 3.609504e+00 3.329253e+00 2.931400e+00 2.565802e+00 2.207861e+00 2.462607e+00 1.722813e-01 3.112926e-01 3.171051e-01 3.807833e-01 4.082565e-01 4.408210e-01 5.460671e-01 5.608814e-01 5.457861e-01 5.013836e-01 4.538352e-01 3.737065e-01 2.657692e-01
<GCONST> 1.226969e+02
<TRANSP> 5
 0.000000e+00 1.000000e+00 0.000000e+00 0.000000e+00 0.000000e+00
 0.000000e+00 5.344874e-01 4.655126e-01 0.000000e+00 0.000000e+00
 0.000000e+00 0.000000e+00 6.659150e-01 3.340850e-01 0.000000e+00
 0.000000e+00 0.000000e+00 0.000000e+00 7.933488e-01 2.066512e-01
 0.000000e+00 0.000000e+00 0.000000e+00 0.000000e+00 0.000000e+00
<ENDHMM>
~h "o"
<BEGINHMM>
<NUMSTATES> 5
<STATE> 2
<MEAN> 39
 2.400869e-02 -3.029619e+00 -5.712964e+00 -1.650811e+01 -1.064333e+01 4.169902e+00 -1.298565e+01 -4.281199e+00 -3.030516e+00 -7.956547e-01 2.897840e+00 -5.498308e+00 6.381861e+01 1.612073e+00 -6.542106e-01 -5.130665e-01 -2.895360e+00 -1.026868e+00 2.364585e+00 -3.237207e-01 9.853303e-02 2.048134e-01 -2.172473e-02 1.474447e+00 -5.958238e-01 1.856661e+00 -4.343991e-01 -1.630079e-03 1.752775e-01 4.067455e-01 2.661994e-01 -1.155759e-01 3.443747e-01 -8.127623e-02 -1.236373e-01 -9.702973e-02 -1.189687e-01 1.073344e-01 -4.632587e-01
<VARIANCE> 39
 2.668602e+01 4.412069e+01 4.858928e+01 1.037970e+02 5.015813e+01 5.647926e+01 9.838383e+01 6.330552e+01 7.299514e+01 6.639440e+01 5.401901e+01 4.349309e+01 9.999477e+01 4.271927e+00 3.064230e+00 6.065617e+00 6.754168e+00 6.404580e+00 5.381088e+00 5.127337e+00 6.472510e+00 5.542183e+00 5.666382e+00 4.317529e+00 3.786144e+00 6.338706e+00 7.562025e-01 5.485806e-01 7.234012e-01 1.413126e+00 8.292122e-01 9.508230e-01 9.338285e-01 8.821167e-01 9.534147e-01 9.297225e-01 7.236372e-01 6.222222e-01 1.278783e+00
<GCONST> 1.442654e+02
<STATE> 3
<MEAN> 39
 1.897893e+00 -4.880536e+00 -6.747329e+00 -2.178861e+01 -1.286833e+01 1.069811e+01 -1.286037e+01 -5.470741e+00 -1.843792e+00 -3.259443e+00 7.798573e+00 -6.422205e+00 6.901549e+01 8.994570e-02 -1.728726e-01 -8.070006e-02 -1.551511e-01 1.819730e-01 2.577836e-01 1.022020e-01 -2.846188e-02 -4.704351e-02 3.581069e-02 6.925797e-02 -8.408774e-02 -3.740763e-03 -1.646136e-01 1.884807e-01 1.673017e-01 7.472883e-01 2.537966e-01 -6.524122e-01 6.418932e-03 -1.652324e-02 -2.381363e-02 1.138238e-01 -4.936396e-01 8.685047e-02 -4.308137e-01
<VARIANCE> 39
 9.435501e+00 4.179673e+01 3.499495e+01 5.167840e+01 3.841733e+01 3.752238e+01 8.328679e+01 7.407030e+01 6.789764e+01 6.479950e+01 4.480500e+01 5.183762e+01 2.128726e+01 4.426141e-01 1.580893e+00 1.188400e+00 3.847781e+00 1.996506e+00 2.797836e+00 2.847478e+00 2.561762e+00 2.939156e+00 3.489717e+00 2.425549e+00 2.185408e+00 1.199265e+00 1.793014e-01 2.575183e-01 3.110170e-01 4.687939e-01 5.102366e-01 4.451975e-01 4.774782e-01 6.176792e-01 5.213349e-01 6.003236e-01 4.839111e-01 4.450001e-01 2.230414e-01
<GCONST> 1.174997e+02
<STATE> 4
<MEAN> 39
 1.964103e+00 -2.201464e+00 -6.738800e+00 -1.906700e+01 -9.093614e+00 5.325402e+00 -1.163197e+01 -4.126188e+00 -3.971594e+00 -1.376361e+00 2.881556e+00 -5.834061e+00 6.166544e+01 -2.084695e-01 4.631988e-01 3.868740e-01 1.575256e+00 4.942834e-01 -1.163902e+00 2.449969e-01 -1.365236e-01 1.026756e-01 1.987815e-01 -9.858162e-01 5.429930e-02 -1.415636e+00 -1.186435e-01 8.507697e-02 1.648227e-01 3.083428e-01 5.290141e-03 -8.254122e-02 5.623073e-02 -7.772895e-02 3.791475e-02 -1.041060e-01 -6.231982e-02 5.214877e-02 -1.836143e-01
<VARIANCE> 39
 1.881529e+01 5.575846e+01 4.419713e+01 7.935311e+01 5.013498e+01 4.408327e+01 9.205698e+01 5.855798e+01 7.012531e+01 6.201217e+01 4.786275e+01 5.055890e+01 9.827569e+01 8.384722e-01 1.898497e+00 1.949554e+00 4.085114e+00 2.933676e+00 3.013471e+00 3.033491e+00 3.164782e+00 2.933429e+00 2.933239e+00 2.726274e+00 2.298829e+00 3.010555e+00 1.668267e-01 3.320762e-01 3.102516e-01 5.318729e-01 5.054041e-01 4.476409e-01 5.793811e-01 5.132550e-01 5.643791e-01 5.582062e-01 4.313799e-01 4.239273e-01 4.243083e-01
<GCONST> 1.248112e+02
<TRANSP> 5
 0.000000e+00 1.000000e+00 0.000000e+00 0.000000e+00 0.000000e+00
 0.000000e+00 5.828823e-01 4.171176e-01 0.000000e+00 0.000000e+00
 0.000000e+00 0.000000e+00 7.666934e-01 2.333066e-01 0.000000e+00
 0.000000e+00 0.000000e+00 0.000000e+00 7.498087e-01 2.501913e-01
 0.000000e+00 0.000000e+00 0.000000e+00 0.000000e+00 0.000000e+00
<ENDHMM>
~h "p"
<BEGINHMM>
<NUMSTATES> 5
<STATE> 2
<MEAN> 39
 -7.685270e+00 1.114241e+00 -2.401724e+00 -3.564257e+00 -4.788244e+00 -2.326052e+00 -5.632161e+00 -5.079635e+00 -4.003495e+00 -2.722845e+00 -3.402700e+00 -4.538077e+00 3.804695e+01 -7.916746e-01 2.079964e-01 -1.706585e-01 3.330213e-01 6.417215e-02 -3.459884e-01 2.163476e-01 1.330990e-01 1.696049e-01 5.445112e-03 -3.989909e-02 2.762990e-01 -1.271746e+00 -1.224643e-02 -2.556677e-01 -9.493097e-03 -1.232684e-01 -5.984128e-02 -1.621956e-03 -1.162374e-01 3.062142e-02 -3.258264e-03 -3.003650e-03 9.135222e-02 4.855723e-02 6.361694e-01
<VARIANCE> 39
 4.094748e+01 2.904725e+01 2.728948e+01 2.689389e+01 2.393029e+01 3.322920e+01 3.175322e+01 2.744149e+01 2.952048e+01 2.458343e+01 2.366671e+01 2.764668e+01 4.362575e+01 1.428492e+00 1.755230e+00 1.548454e+00 1.858001e+00 1.893631e+00 2.063797e+00 2.140817e+00 2.222668e+00 2.385557e+00 2.103238e+00 2.002413e+00 1.870855e+00 4.171934e+00 2.614633e-01 3.670948e-01 3.096884e-01 3.766767e-01 3.948948e-01 4.259858e-01 4.419722e-01 4.470561e-01 4.626772e-01 4.485976e-01 4.138231e-01 3.634077e-01 7.819937e-01
<GCONST> 1.133037e+02
<STATE> 3
<MEAN> 39
 -8.840625e+00 1.804752e+00 -1.480680e+00 -2.430510e+00 -4.724882e+00 -3.519406e+00 -5.667845e+00 -4.833897e+00 -3.113382e+00 -2.379251e+00 -2.713013e+00 -3.312833e+00 3.914442e+01 -7.083758e-02 -1.628469e+00 -6.320516e-01 -6.907026e-01 -2.763708e-01 -6.489772e-02 -5.698689e-01 3.300915e-02 1.731213e-01 -2.117455e-01 6.506556e-01 4.883706e-01 4.922438e+00 9.646833e-01 -6.518829e-01 -1.705793e-01 -9.393565e-01 -4.516592e-01 6.176781e-01 -4.169398e-01 -1.435643e-02 -1.248505e-01 1.849851e-04 3.469251e-01 -5.101076e-01 2.157726e+00
<VARIANCE> 39
 2.131009e+01 1.960302e+01 2.452987e+01 2.651186e+01 2.494935e+01 2.980544e+01 3.800819e+01 3.008032e+01 3.017422e+01 2.372796e+01 2.284301e+01 2.241623e+01 6.137243e+01 4.119182e+00 2.996165e+00 4.162889e+00 4.755341e+00 3.646832e+00 5.386636e+00 3.851336e+00 3.880722e+00 4.394430e+00 3.179026e+00 3.381664e+00 3.168675e+00 1.097592e+01 3.935076e-01 6.180095e-01 7.739004e-01 7.733307e-01 7.108575e-01 1.009002e+00 6.745411e-01 8.780029e-01 9.225885e-01 6.254992e-01 5.961613e-01 6.871040e-01 1.157207e+00
<GCONST> 1.292771e+02
<STATE> 4
<MEAN> 39
 -5.437926e+00 -4.813221e+00 -5.203988e+00 -8.381947e+00 -6.293020e+00 -9.890405e-01 -8.241347e+00 -5.644602e+00 -3.487889e+00 -2.969581e+00 -1.046981e+00 -4.035087e+00 5.822835e+01 2.448098e+00 -2.075522e+00 -6.050149e-01 -2.875567e+00 -1.067640e+00 1.798274e+00 -1.180971e+00 2.220280e-01 -6.484810e-02 1.069183e-01 1.012296e+00 -1.257922e+00 6.132802e+00 2.766520e-01 1.842870e-01 3.060490e-01 -1.181012e-01 -9.203055e-02 2.047332e-01 -6.815542e-02 1.989704e-01 3.167138e-02 1.224582e-01 -8.300673e-02 -4.156282e-01 -8.013203e-01
<VARIANCE> 39
 4.497993e+01 3.629455e+01 2.982483e+01 7.776691e+01 2.842417e+01 6.854003e+01 4.084326e+01 2.913603e+01 2.988340e+01 2.657084e+01 2.873354e+01 2.942861e+01 8.325121e+01 4.653118e+00 7.464056e+00 6.960397e+00 9.249354e+00 5.336367e+00 8.450315e+00 5.002389e+00 5.725986e+00 5.778897e+00 4.314294e+00 4.369772e+00 5.254943e+00 1.461281e+01 9.708606e-01 8.321764e-01 7.210302e-01 1.553950e+00 9.812750e-01 1.265143e+00 7.939414e-01 7.729768e-01 8.573336e-01 6.538841e-01 8.302405e-01 6.843870e-01 1.633773e+00
<GCONST> 1.422029e+02
<TRANSP> 5
 0.000000e+00 1.000000e+00 0.000000e+00 0.000000e+00 0.000000e+00
 0.000000e+00 8.607715e-01 1.392285e-01 0.000000e+00 0.000000e+00
 0.000000e+00 0.000000e+00 5.322419e-01 4.677581e-01 0.000000e+00
 0.000000e+00 0.000000e+00 0.000000e+00 4.982029e-01 5.017971e-01
 0.000000e+00 0.000000e+00 0.000000e+00 0.000000e+00 0.000000e+00
<ENDHMM>
~h "q"
<BEGINHMM>
<NUMSTATES> 5
<STATE> 2
<MEAN> 39
 -9.445843e+00 1.791461e+00 -2.436671e+00 -6.014218e+00 -1.104607e+01 -1.101132e+01 -5.355530e+00 -5.262471e+00 -3.204458e+00 -2.978145e+00 -6.289816e+00 -2.495169e+00 5.113008e+01 -1.200507e+00 1.040036e+00 -1.505616e+00 4.017665e-02 1.468683e+00 -4.461948e-02 -2.539447e-01 1.203124e+00 -4.629133e-01 9.461088e-02 -1.079320e+00 1.069354e+00 -1.537992e+00 -9.904999e-02 -4.052850e-01 1.208683e+00 3.206515e-01 -5.794829e-01 5.623949e-01 -4.408151e-01 -4.192928e-01 8.087382e-02 -2.920204e-01 1.257303e+00 -1.742473e-01 5.840413e-01
<VARIANCE> 39
 1.936863e+01 3.571470e+01 1.830944e+02 4.274828e+01 3.307787e+01 2.444178e+01 4.224688e+01 3.256283e+01 4.955935e+01 2.034185e+01 4.143119e+01 3.639778e+01 3.995847e+01 5.118672e+00 3.571304e+00 1.450445e+01 1.817640e+00 3.325006e+00 9.517998e-01 3.326340e+00 3.088929e+00 4.161135e+00 2.248991e+00 4.563313e+00 2.460660e+00 1.062209e+01 7.158571e-01 1.086889e+00 2.003117e+00 4.040392e-01 1.076455e+00 2.849809e-01 3.455967e-01 7.038855e-01 1.876576e-01 1.268528e+00 5.932416e-01 6.002743e-01 1.703243e+00
<GCONST> 1.307100e+02
<STATE> 3
<MEAN> 39
 -7.979063e+00 -4.797138e+00 7.739538e+00 -4.855919e+00 -1.906483e+01 -7.821328e+00 -3.280862e+00 -2.674927e+00 -1.029550e+00 -7.676306e+00 3.055291e+00 -4.768339e+00 5.661407e+01 -1.967831e-01 -2.122677e-01 7.207041e-01 6.146349e-01 -4.276357e-01 -4.012543e-02 -7.287284e-01 -1.917807e-01 -3.311599e-01 1.573934e-01 1.527759e+00 4.494472e-01 3.530025e-01 -4.761591e-03 1.538396e-02 -8.781894e-02 1.270012e-01 1.619395e-01 1.544696e-02 -1.433592e-01 -8.639108e-02 9.968924e-02 2.065410e-01 -5.763534e-02 -2.001687e-02 -1.207336e-01
<VARIANCE> 39
 2.504853e+01 6.218903e+01 5.630223e+01 1.166691e+01 5.017882e+01 3.239884e+01 4.188346e+01 3.399373e+01 2.279936e+01 9.261389e+00 7.463632e+01 1.037452e+01 1.210805e+02 3.508436e+00 3.388153e+00 7.072692e+00 1.905718e+00 6.268383e+00 4.821554e+00 1.661433e+00 1.942971e+00 1.912162e+00 2.137444e+00 5.744538e+00 1.537036e+00 1.275193e+01 5.266802e-01 6.156405e-01 3.458062e-01 3.050117e-01 6.544681e-01 6.751639e-01 3.420986e-01 5.312276e-01 4.319874e-01 4.394015e-01 9.951097e-01 4.146154e-01 1.791402e+00
<GCONST> 1.248987e+02
<STATE> 4
<MEAN> 39
 -1.047211e+01 6.592020e-01 3.633843e+00 -1.964885e+00 -1.050032e+01 -8.469214e+00 -6.661071e+00 -6.554933e+00 -5.014932e+00 -2.771329e+00 -3.172513e-01 -1.737479e+00 4.321917e+01 -7.013704e-01 2.912792e-01 -1.635026e+00 -5.268266e-01 1.833663e+00 1.056542e+00 1.261284e-01 7.096996e-01 -5.426829e-01 6.258367e-01 -3.143974e-01 2.469706e-01 -5.214341e-01 -2.081002e-02 -5.429040e-02 -4.227630e-03 -4.202245e-01 -8.522748e-02 1.613472e-01 2.011236e-01 5.286219e-02 -2.064086e-01 8.036409e-02 2.346852e-01 2.463342e-03 8.711106e-01
<VARIANCE> 39
 2.681267e+01 1.500591e+01 4.295174e+01 2.359856e+01 6.488297e+01 4.941173e+01 2.500983e+01 1.364407e+01 2.407407e+01 1.157348e+01 1.797473e+01 7.204329e+00 4.368200e+01 3.000838e+00 1.787202e+00 5.777559e+00 4.947107e+00 4.110056e+00 4.269036e+00 2.064564e+00 1.626033e+00 2.388384e+00 2.714895e+00 2.640968e+00 2.593742e+00 8.663783e+00 3.114968e-01 3.215336e-01 7.741195e-01 5.699980e-01 1.012688e+00 7.696574e-01 4.650353e-01 2.637892e-01 2.124828e-01 4.925950e-01 3.378240e-01 3.257152e-01 3.422566e-01
<GCONST> 1.168298e+02
<TRANSP> 5
 0.000000e+00 1.000000e+00 0.000000e+00 0.000000e+00 0.000000e+00
 0.000000e+00 4.336512e-01 5.663487e-01 0.000000e+00 0.000000e+00
 0.000000e+00 0.000000e+00 5.638342e-01 4.361658e-01 0.000000e+00
 0.000000e+00 0.000000e+00 0.000000e+00 7.030489e-01 2.969511e-01
 0.000000e+00 0.000000e+00 0.000000e+00 0.000000e+00 0.000000e+00
<ENDHMM>
~h "r"
<BEGINHMM>
<NUMSTATES> 5
<STATE> 2
<MEAN> 39
 -3.067532e-01 -8.021878e+00 -4.650094e+00 -4.649778e+00 -9.390427e+00 -4.373669e+00 -1.242192e+01 -3.222646e+00 2.596844e+00 -7.325896e-01 -1.591002e+00 -6.232265e+00 6.567789e+01 1.742303e-01 1.669564e-01 -2.379862e-01 1.877207e+00 -3.314318e-01 -3.289192e-01 -3.986195e-01 -5.682118e-01 7.853021e-01 -3.936368e-01 2.134334e-01 4.314570e-01 -8.766000e-01 -1.204038e-01 -4.642771e-02 1.980651e-01 -3.514196e-01 -8.184106e-02 2.375602e-01 -8.598091e-02 2.234520e-01 -3.581588e-01 -9.526838e-02 1.698449e-01 -4.815659e-02 5.958043e-02
<VARIANCE> 39
 2.003486e+01 3.474710e+01 5.423954e+01 5.862697e+01 5.410730e+01 4.252338e+01 8.179726e+01 7.429932e+01 6.845923e+01 5.713677e+01 5.093896e+01 4.417677e+01 5.547052e+01 2.412838e+00 2.784809e+00 3.461723e+00 6.087097e+00 4.894390e+00 4.744535e+00 4.648675e+00 6.019433e+00 5.189754e+00 4.981721e+00 4.412488e+00 3.784995e+00 3.506473e+00 4.115774e-01 4.604647e-01 5.158641e-01 9.732895e-01 7.426376e-01 6.964747e-01 8.261933e-01 9.745694e-01 8.596961e-01 8.169766e-01 7.266681e-01 6.179276e-01 6.892689e-01
<GCONST> 1.367449e+02
<STATE> 3
<MEAN> 39
 -1.910077e-01 -7.639087e+00 -4.770783e+00 -5.673750e-01 -1.095893e+01 -4.321664e+00 -1.383546e+01 -3.844681e+00 3.943788e+00 -2.399319e+00 -2.273759e-01 -5.077408e+00 6.415098e+01 6.952950e-02 3.907239e-02 4.023723e-01 1.861847e-01 -2.357872e-01 7.887845e-02 -4.532605e-01 3.780392e-01 -5.339057e-01 -1.984710e-01 4.069781e-01 2.104098e-01 -3.970814e-01 -7.099883e-02 -6.443700e-03 2.630258e-01 -7.721335e-01 7.624900e-02 2.147627e-01 1.416091e-01 2.963746e-01 -6.013304e-01 1.283146e-01 4.894354e-04 -1.987076e-01 2.050201e-01
<VARIANCE> 39
 2.354108e+01 2.806312e+01 6.072052e+01 4.546368e+01 6.251711e+01 4.411440e+01 8.997565e+01 6.181535e+01 6.407008e+01 4.990733e+01 4.331037e+01 3.928532e+01 4.289091e+01 2.337745e+00 2.726547e+00 3.661407e+00 3.402522e+00 4.801096e+00 4.025955e+00 4.539488e+00 5.084748e+00 4.604415e+00 4.327145e+00 3.783063e+00 3.661912e+00 3.137879e+00 5.017958e-01 5.887839e-01 6.306490e-01 8.645124e-01 1.172140e+00 8.699438e-01 9.951375e-01 1.139577e+00 1.026737e+00 9.848466e-01 9.669046e-01 7.205119e-01 6.854493e-01
<GCONST> 1.367383e+02
<STATE> 4
<MEAN> 39
 -2.718156e+00 -6.449266e+00 -3.021348e+00 -3.239318e+00 -7.852153e+00 -4.474328e+00 -1.290086e+01 -1.632477e+00 6.319546e-02 -2.235015e+00 -5.596024e-01 -4.561369e+00 5.878746e+01 -3.789760e-02 1.704997e-01 5.733883e-01 -4.711088e-01 -3.333020e-02 2.592123e-01 6.355359e-02 2.632122e-01 -9.520816e-01 1.777990e-02 1.312565e-01 -7.024825e-02 -2.070889e-01 -2.233920e-02 1.215180e-02 9.664449e-02 -1.832472e-01 -6.413081e-02 1.423207e-01 1.208433e-01 -2.364890e-02 -1.197956e-01 1.972045e-02 -6.140053e-02 -1.561930e-01 1.027774e-01
<VARIANCE> 39
 4.886608e+01 4.429959e+01 6.135434e+01 4.502018e+01 6.100322e+01 5.592780e+01 9.188712e+01 5.740562e+01 5.504916e+01 4.901237e+01 4.315028e+01 4.121221e+01 1.270285e+02 2.913795e+00 3.799991e+00 3.519470e+00 2.979438e+00 4.664366e+00 3.794959e+00 4.410446e+00 4.592708e+00 4.551582e+00 3.772476e+00 3.672065e+00 3.039241e+00 4.732342e+00 5.325435e-01 5.319325e-01 5.247431e-01 6.421775e-01 8.022092e-01 7.523654e-01 8.331106e-01 7.945502e-01 7.590662e-01 7.232524e-01 6.844088e-01 5.811896e-01 5.881405e-01
<GCONST> 1.363425e+02
<TRANSP> 5
 0.000000e+00 1.000000e+00 0.000000e+00 0.000000e+00 0.000000e+00
 0.000000e+00 4.485958e-01 5.514042e-01 0.000000e+00 0.000000e+00
 0.000000e+00 0.000000e+00 4.263968e-01 5.736033e-01 0.000000e+00
 0.000000e+00 0.000000e+00 0.000000e+00 5.996661e-01 4.003339e-01
 0.000000e+00 0.000000e+00 0.000000e+00 0.000000e+00 0.000000e+00
<ENDHMM>
~h "s"
<BEGINHMM>
<NUMSTATES> 5
<STATE> 2
<MEAN> 39
 -1.225022e+01 3.954577e+00 -1.608390e-01 -3.485437e+00 -8.532842e-01 -7.067379e+00 -6.163948e+00 -2.004348e+00 -2.854104e+00 -2.327194e+00 -4.252509e+00 -1.969548e+00 6.288373e+01 -4.582757e+00 2.280534e+00 -1.189960e+00 1.231116e+00 1.661601e+00 2.301730e-03 1.803545e+00 6.127484e-01 4.844589e-01 -5.884882e-01 5.647048e-01 8.484101e-01 -6.502553e-01 -4.215293e-01 -5.365344e-01 -3.606425e-01 -2.897867e-01 -4.612104e-01 3.331853e-01 -2.070197e-01 1.889444e-02 -4.691196e-03 3.387085e-02 3.237772e-01 -2.206043e-01 -3.330582e-02
<VARIANCE> 39
 7.424084e+01 5.090614e+01 5.013665e+01 4.988438e+01 5.239467e+01 4.528137e+01 8.270064e+01 4.580928e+01 5.227185e+01 4.235115e+01 4.706522e+01 2.913523e+01 6.666653e+01 3.653764e+00 5.740116e+00 4.500049e+00 4.723753e+00 5.564567e+00 5.296612e+00 5.225838e+00 5.308386e+00 4.704532e+00 3.813109e+00 4.125462e+00 2.944955e+00 2.035348e+00 1.072727e+00 8.444549e-01 4.358714e-01 6.772757e-01 7.632520e-01 7.786898e-01 9.444543e-01 7.699407e-01 6.655549e-01 7.011346e-01 6.110787e-01 5.058783e-01 2.140147e-01
<GCONST> 1.361415e+02
<STATE> 3
<MEAN> 39
 -2.935992e+01 5.444924e+00 -7.856193e+00 -2.557031e+00 1.175155e-01 -5.894199e+00 -2.393452e+00 -7.573176e-01 -1.297503e+00 -2.842644e+00 2.268530e-02 2.325278e-01 6.012088e+01 -7.475040e-01 -5.558257e-01 -5.651496e-01 -2.613356e-01 -3.014363e-01 -5.570836e-02 -3.676554e-03 -2.359796e-02 1.424997e-01 6.463061e-02 2.192190e-01 1.464185e-01 -3.334083e-01 9.884121e-01 -2.339821e-01 4.067267e-01 -1.302618e-01 -1.938924e-01 -1.055600e-01 -2.984641e-01 -1.451794e-01 -5.206343e-02 6.548475e-03 -1.831046e-01 -1.601368e-01 1.034758e-01
<VARIANCE> 39
 1.988610e+01 2.105005e+01 3.468074e+01 3.618283e+01 2.884731e+01 3.563444e+01 4.742341e+01 2.956722e+01 2.991446e+01 2.600825e+01 2.475014e+01 1.895210e+01 3.231452e+01 3.572407e+00 1.716636e+00 2.341204e+00 1.523144e+00 1.847021e+00 1.909912e+00 2.058378e+00 2.103518e+00 1.913462e+00 1.766266e+00 1.730510e+00 1.522456e+00 9.150258e-01 5.026788e-01 3.614106e-01 3.749991e-01 3.682671e-01 4.335358e-01 4.327545e-01 5.263138e-01 4.795578e-01 4.025059e-01 3.812650e-01 3.529374e-01 3.436825e-01 1.811787e-01
<GCONST> 1.107944e+02
<STATE> 4
<MEAN> 39
 -1.949233e+01 1.542716e-01 -5.597802e+00 -3.684025e+00 -2.833766e+00 -6.144805e+00 -5.217363e+00 -1.802702e+00 -1.534934e+00 -2.780899e+00 -1.943214e+00 -8.971146e-01 5.250245e+01 2.839665e+00 -4.449740e-01 1.066056e+00 -4.241036e-01 -6.529083e-01 1.543234e-02 -1.204903e+00 -5.798051e-01 -2.084080e-01 6.093264e-02 -3.448356e-01 -8.102297e-01 3.709429e-01 4.175614e-01 -1.353918e-02 2.297913e-01 -9.987374e-02 -6.802559e-02 2.175490e-01 -1.954740e-01 -1.324154e-02 -1.167447e-01 5.978297e-02 7.993082e-02 -1.428002e-01 2.308455e-01
<VARIANCE> 39
 7.035169e+01 3.719881e+01 4.240536e+01 3.370400e+01 3.359617e+01 4.067000e+01 5.393109e+01 3.579822e+01 3.446203e+01 3.374648e+01 2.763978e+01 2.476319e+01 1.326575e+02 1.083859e+01 3.475615e+00 5.056878e+00 3.825792e+00 3.527498e+00 3.799041e+00 4.997238e+00 3.963111e+00 3.412686e+00 2.981815e+00 2.742346e+00 2.835126e+00 5.382277e+00 1.067379e+00 5.332704e-01 5.943677e-01 5.433478e-01 5.543889e-01 6.373023e-01 8.111591e-01 6.809471e-01 5.836806e-01 5.543272e-01 5.092354e-01 4.593461e-01 6.140132e-01
<GCONST> 1.319025e+02
<TRANSP> 5
 0.000000e+00 1.000000e+00 0.000000e+00 0.000000e+00 0.000000e+00
 0.000000e+00 7.030405e-01 2.969594e-01 0.000000e+00 0.000000e+00
 0.000000e+00 0.000000e+00 8.440874e-01 1.559127e-01 0.000000e+00
 0.000000e+00 0.000000e+00 0.000000e+00 7.996725e-01 2.003275e-01
 0.000000e+00 0.000000e+00 0.000000e+00 0.000000e+00 0.000000e+00
<ENDHMM>
~h "t"
<BEGINHMM>
<NUMSTATES> 5
<STATE> 2
<MEAN> 39
 -7.097878e+00 1.454196e+00 -1.801379e+00 -3.483872e+00 -5.066344e+00 -4.617445e+00 -7.016091e+00 -4.290130e+00 -2.048571e+00 -1.978922e+00 -3.967650e+00 -5.597631e+00 4.147289e+01 -7.507073e-01 1.514224e-01 -2.268289e-01 2.576419e-01 6.466939e-02 4.939532e-02 4.764782e-01 5.003977e-02 -4.811717e-02 -1.538691e-01 2.761648e-02 3.660432e-01 -1.845532e+00 -1.831488e-01 -4.355321e-01 -5.102391e-02 -2.373279e-01 -3.293626e-02 -2.533200e-02 -6.179268e-02 6.679498e-02 -1.547416e-02 -1.478860e-02 1.107272e-01 9.679522e-02 8.751333e-01
<VARIANCE> 39
 3.553042e+01 3.217524e+01 4.059890e+01 3.345201e+01 3.083984e+01 3.275269e+01 4.497197e+01 3.627072e+01 3.820376e+01 3.221867e+01 3.404331e+01 3.485197e+01 7.671285e+01 1.996860e+00 2.882515e+00 2.213096e+00 2.514693e+00 2.775439e+00 2.488951e+00 2.899737e+00 2.716081e+00 2.747065e+00 2.504604e+00 2.424313e+00 2.270277e+00 7.231515e+00 3.665031e-01 6.134965e-01 4.219643e-01 5.341769e-01 5.547186e-01 5.322813e-01 5.707521e-01 5.783190e-01 5.451630e-01 5.117427e-01 5.006241e-01 4.510912e-01 1.370797e+00
<GCONST> 1.240979e+02
<STATE> 3
<MEAN> 39
 -1.085445e+01 7.308090e-01 -1.438292e+00 -2.582486e+00 -4.494164e+00 -4.917664e+00 -5.571895e+00 -4.181811e+00 -2.293451e+00 -2.028841e+00 -2.796340e+00 -3.260383e+00 4.053985e+01 -1.687694e+00 -2.161456e+00 -7.069241e-01 -1.098119e+00 3.668993e-01 -5.904543e-01 1.230811e-01 1.649224e-01 1.011334e-01 -4.112488e-01 3.657219e-01 7.106817e-01 4.714049e+00 7.404937e-01 -2.533745e-01 1.587746e-01 -5.212432e-01 -3.384018e-01 2.401163e-02 -6.473705e-01 -5.591314e-02 8.963992e-02 5.316989e-02 5.760735e-02 -5.069943e-01 1.977974e+00
<VARIANCE> 39
 3.310465e+01 3.469951e+01 3.538652e+01 3.414955e+01 3.233818e+01 3.686818e+01 4.342006e+01 3.324459e+01 3.274485e+01 2.551166e+01 2.973607e+01 2.479668e+01 7.542255e+01 4.281442e+00 4.020967e+00 4.805794e+00 4.159062e+00 4.386559e+00 4.321736e+00 4.504019e+00 4.549418e+00 4.933706e+00 3.331628e+00 3.902971e+00 3.451802e+00 1.379833e+01 7.204832e-01 7.428637e-01 8.892251e-01 7.379346e-01 8.093029e-01 8.690331e-01 7.865194e-01 8.644992e-01 9.372590e-01 6.459826e-01 6.733377e-01 6.590463e-01 1.680936e+00
<GCONST> 1.350820e+02
<STATE> 4
<MEAN> 39
 -1.280644e+01 -5.696713e+00 -3.646829e+00 -7.509279e+00 -5.043411e+00 -7.613234e+00 -7.652700e+00 -4.285918e+00 -1.661789e+00 -3.154060e+00 -2.650101e+00 -3.295465e+00 6.036053e+01 1.835831e+00 -1.032341e+00 4.484675e-01 -1.718181e+00 -7.637075e-01 3.096826e-01 -2.004010e+00 7.427362e-02 2.591011e-01 2.073344e-01 4.033848e-01 -1.217786e+00 6.002118e+00 1.098374e+00 5.200743e-01 4.822576e-01 2.838360e-02 -3.891391e-01 6.828510e-01 -4.439487e-01 6.652960e-02 -1.655064e-01 2.323893e-01 1.108773e-01 -4.714788e-01 -1.005626e+00
<VARIANCE> 39
 3.773766e+01 2.717023e+01 3.697928e+01 3.443084e+01 3.101039e+01 3.778481e+01 5.089517e+01 3.021020e+01 3.697456e+01 2.982521e+01 3.086077e+01 3.040494e+01 7.670108e+01 5.551274e+00 5.258985e+00 7.875212e+00 6.025705e+00 5.386359e+00 5.982039e+00 6.263172e+00 6.446430e+00 6.990438e+00 4.276279e+00 4.985321e+00 4.944221e+00 1.323717e+01 8.764660e-01 8.178422e-01 1.049176e+00 8.501925e-01 9.874895e-01 1.046187e+00 1.255087e+00 1.039736e+00 1.021249e+00 8.329498e-01 9.229756e-01 8.111504e-01 1.587723e+00
<GCONST> 1.418056e+02
<TRANSP> 5
 0.000000e+00 1.000000e+00 0.000000e+00 0.000000e+00 0.000000e+00
 0.000000e+00 8.255684e-01 1.744316e-01 0.000000e+00 0.000000e+00
 0.000000e+00 0.000000e+00 4.808819e-01 5.191181e-01 0.000000e+00
 0.000000e+00 0.000000e+00 0.000000e+00 5.132409e-01 4.867591e-01
 0.000000e+00 0.000000e+00 0.000000e+00 0.000000e+00 0.000000e+00
<ENDHMM>
~h "u"
<BEGINHMM>
<NUMSTATES> 5
<STATE> 2
<MEAN> 39
 -5.816153e-01 1.418380e+00 -3.698184e-01 -9.075109e+00 -1.063759e+01 -3.840989e-01 -1.671960e+01 -7.408423e+00 -6.472832e+00 -2.812745e+00 1.806969e+00 -4.461258e+00 6.087485e+01 2.064285e+00 7.332961e-01 -9.546969e-02 -2.177701e+00 -1.621015e+00 2.247201e+00 -1.590120e+00 -6.712660e-01 -1.136921e+00 -8.755552e-02 1.712360e+00 -2.207973e-01 1.086313e+00 -3.702264e-01 5.226852e-02 4.152546e-02 -2.117051e-02 1.432209e-01 1.889876e-01 5.128017e-01 1.335781e-01 6.498079e-03 -1.916664e-02 -1.251169e-01 6.481677e-02 -4.671458e-01
<VARIANCE> 39
 3.006915e+01 4.599532e+01 5.519437e+01 9.737115e+01 4.977865e+01 5.953495e+01 9.577652e+01 6.997403e+01 6.967171e+01 5.354512e+01 5.222688e+01 3.811814e+01 9.710592e+01 5.094882e+00 3.543918e+00 5.509254e+00 5.880398e+00 5.993715e+00 5.779843e+00 6.341496e+00 7.237677e+00 6.668327e+00 5.372227e+00 4.780735e+00 4.273369e+00 5.023552e+00 7.844458e-01 6.463808e-01 7.091559e-01 1.161394e+00 8.814335e-01 9.013029e-01 1.391596e+00 1.139308e+00 1.047428e+00 8.490673e-01 8.222179e-01 7.304803e-01 1.165389e+00
<GCONST> 1.455356e+02
<STATE> 3
<MEAN> 39
 2.511844e+00 2.448180e+00 -2.009193e+00 -1.463581e+01 -1.456456e+01 8.419837e+00 -1.895167e+01 -9.747970e+00 -9.080663e+00 -4.766347e+00 6.629735e+00 -3.472214e+00 6.473379e+01 1.712378e-01 -2.812120e-02 -6.669473e-02 -2.113012e-01 6.399029e-02 4.018023e-01 1.285790e-02 -1.616155e-01 -1.387316e-02 2.067138e-01 2.605449e-01 -2.917610e-02 -3.827764e-02 -3.817822e-01 -1.318217e-01 1.431464e-01 8.107097e-01 5.918421e-01 -8.913856e-01 4.916570e-01 2.555363e-01 4.894717e-01 1.282984e-01 -7.185302e-01 -1.229675e-01 -4.370269e-01
<VARIANCE> 39
 1.129219e+01 4.517066e+01 3.206920e+01 7.362092e+01 3.958521e+01 5.310125e+01 8.053242e+01 9.540668e+01 8.629095e+01 6.981140e+01 5.227711e+01 4.412880e+01 2.533959e+01 8.346384e-01 3.331743e+00 2.006446e+00 7.034054e+00 4.062364e+00 5.213528e+00 5.303852e+00 5.625597e+00 5.113112e+00 5.172685e+00 4.473590e+00 3.240271e+00 2.593748e+00 3.137120e-01 4.621426e-01 4.829098e-01 7.921023e-01 7.504670e-01 7.216550e-01 9.786639e-01 1.149632e+00 9.360722e-01 9.993778e-01 8.650703e-01 7.447226e-01 3.556165e-01
<GCONST> 1.340486e+02
<STATE> 4
<MEAN> 39
 2.603796e+00 4.066590e+00 -1.756032e+00 -1.393774e+01 -1.118714e+01 3.003433e+00 -1.653929e+01 -7.178883e+00 -7.879985e+00 -3.338427e+00 2.233229e+00 -4.388128e+00 5.945377e+01 -3.833011e-01 -1.110628e-02 3.731142e-01 1.281202e+00 7.219498e-01 -1.044595e+00 8.887201e-01 1.133540e-01 6.844310e-01 1.455260e-01 -9.371988e-01 -2.299574e-01 -1.142643e+00 -2.253761e-01 -3.513118e-02 1.190651e-01 2.380265e-01 4.889058e-02 -7.778917e-02 1.284485e-01 -2.024002e-02 8.469717e-02 -4.764339e-02 -1.111112e-01 4.348759e-02 -1.185803e-01
<VARIANCE> 39
 1.641128e+01 5.609329e+01 4.212987e+01 9.140913e+01 4.702740e+01 5.655633e+01 8.907172e+01 7.946834e+01 8.031844e+01 6.455296e+01 5.117717e+01 4.661052e+01 6.959059e+01 1.180433e+00 2.540168e+00 2.544205e+00 4.242246e+00 3.738003e+00 3.736895e+00 4.133705e+00 4.203319e+00 3.947937e+00 3.584587e+00 3.778462e+00 3.402326e+00 3.850765e+00 2.369995e-01 4.463549e-01 3.706780e-01 6.942250e-01 5.968033e-01 5.787381e-01 8.361259e-01 7.435097e-01 6.638836e-01 6.956393e-01 6.169631e-01 5.552231e-01 4.432099e-01
<GCONST> 1.318033e+02
<TRANSP> 5
 0.000000e+00 1.000000e+00 0.000000e+00 0.000000e+00 0.000000e+00
 0.000000e+00 5.242571e-01 4.757429e-01 0.000000e+00 0.000000e+00
 0.000000e+00 0.000000e+00 6.801286e-01 3.198714e-01 0.000000e+00
 0.000000e+00 0.000000e+00 0.000000e+00 7.179351e-01 2.820649e-01
 0.000000e+00 0.000000e+00 0.000000e+00 0.000000e+00 0.000000e+00
<ENDHMM>
~h "w"
<BEGINHMM>
<NUMSTATES> 5
<STATE> 2
<MEAN> 39
 2.067834e+00 -1.787264e-01 -3.071668e+00 -1.453146e+01 -9.960486e+00 4.082389e+00 -1.240866e+01 -4.482018e+00 -7.051907e+00 -2.122465e+00 2.713050e+00 -5.375173e+00 5.935696e+01 1.327995e+00 1.175065e+00 1.028392e-01 -1.918768e+00 -1.241301e+00 1.229708e+00 -1.252585e-01 -2.439282e-02 -1.144758e+00 -6.448405e-01 8.872321e-01 7.447270e-01 1.056016e-01 -2.203805e-01 -1.823007e-01 1.621441e-01 6.288189e-02 -1.756732e-01 -1.633378e-01 1.346670e-01 2.083427e-01 1.909225e-01 -1.984895e-01 -1.173123e-01 4.497385e-03 7.136508e-02
<VARIANCE> 39
 2.993754e+01 8.019275e+01 4.363100e+01 9.254636e+01 4.702564e+01 6.650263e+01 8.697903e+01 7.397791e+01 8.177082e+01 5.135579e+01 5.838663e+01 4.348616e+01 1.280345e+02 2.223093e+00 3.100116e+00 3.119699e+00 3.889431e+00 4.279324e+00 4.232221e+00 4.183030e+00 4.483498e+00 4.275293e+00 3.455173e+00 3.512620e+00 3.680465e+00 4.127763e+00 4.743510e-01 4.995641e-01 4.419856e-01 6.929332e-01 7.313119e-01 7.195353e-01 8.031178e-01 7.366470e-01 8.420336e-01 6.934392e-01 7.237965e-01 6.078110e-01 3.433795e-01
<GCONST> 1.363221e+02
<STATE> 3
<MEAN> 39
 5.447098e+00 1.005542e+00 -2.570815e+00 -2.260716e+01 -1.631466e+01 9.008238e+00 -1.289311e+01 -3.463639e+00 -6.487805e+00 -6.056930e+00 6.229318e+00 -3.429304e+00 6.314065e+01 -1.903837e-01 -6.904757e-01 -3.639191e-01 -3.689444e-01 1.107141e-01 4.839104e-01 -2.518955e-02 -2.562041e-01 5.019894e-01 2.348509e-01 5.738878e-01 -2.594545e-01 6.871621e-01 -2.941405e-01 -5.175633e-01 -1.726909e-01 4.225410e-01 5.170535e-01 -1.523703e-01 -4.125887e-02 -8.000558e-02 3.448740e-01 3.541892e-01 -1.063385e-01 -4.974251e-01 2.809681e-01
<VARIANCE> 39
 1.081112e+01 4.528683e+01 3.346549e+01 5.600504e+01 3.159568e+01 4.026590e+01 6.728169e+01 8.357267e+01 7.187339e+01 4.006895e+01 5.159137e+01 4.178334e+01 2.898468e+01 6.233821e-01 3.541828e+00 1.677922e+00 2.211767e+00 3.001992e+00 2.480518e+00 2.093807e+00 2.335641e+00 2.729743e+00 3.335088e+00 2.837326e+00 3.010309e+00 2.150094e+00 6.678849e-02 2.039133e-01 2.473405e-01 3.166354e-01 3.519673e-01 5.214108e-01 3.797455e-01 4.934294e-01 4.630063e-01 4.348391e-01 6.436528e-01 4.892350e-01 1.566983e-01
<GCONST> 1.161905e+02
<STATE> 4
<MEAN> 39
 2.399093e+00 -6.144343e+00 -6.961864e+00 -2.176299e+01 -9.866961e+00 1.033077e+01 -1.358446e+01 -4.292383e+00 -2.275110e+00 -2.500482e+00 6.317815e+00 -9.756872e+00 6.843729e+01 -7.269758e-01 -1.439371e+00 -2.700254e-01 1.169606e+00 1.272782e+00 -5.841794e-01 -1.252110e-01 2.296590e-01 1.024841e+00 4.230516e-01 -1.093653e+00 -1.673449e+00 8.016073e-01 2.333455e-02 2.212227e-01 2.844233e-01 2.347589e-01 -1.968455e-01 -4.503722e-01 1.931659e-02 3.006536e-01 -1.000569e-01 -2.511713e-01 -4.065858e-01 2.297269e-01 -2.211393e-01
<VARIANCE> 39
 1.295463e+01 7.686906e+01 4.630894e+01 6.040985e+01 4.449697e+01 4.459827e+01 6.260329e+01 5.852175e+01 7.245956e+01 5.467104e+01 6.011994e+01 6.051225e+01 3.308230e+01 4.316946e-01 1.785357e+00 1.118243e+00 1.933452e+00 2.519607e+00 2.657760e+00 1.834909e+00 2.224519e+00 2.377386e+00 2.128142e+00 2.563518e+00 3.254873e+00 8.023548e-01 5.641937e-02 1.721667e-01 1.742165e-01 2.393260e-01 3.330931e-01 3.764286e-01 3.011238e-01 4.058644e-01 3.099631e-01 4.179735e-01 4.690073e-01 4.532039e-01 8.829826e-02
<GCONST> 1.116313e+02
<TRANSP> 5
 0.000000e+00 1.000000e+00 0.000000e+00 0.000000e+00 0.000000e+00
 0.000000e+00 6.849921e-01 3.150078e-01 0.000000e+00 0.000000e+00
 0.000000e+00 0.000000e+00 7.972035e-01 2.027965e-01 0.000000e+00
 0.000000e+00 0.000000e+00 0.000000e+00 7.173182e-01 2.826818e-01
 0.000000e+00 0.000000e+00 0.000000e+00 0.000000e+00 0.000000e+00
<ENDHMM>
~h "y"
<BEGINHMM>
<NUMSTATES> 5
<STATE> 2
<MEAN> 39
 -5.794497e+00 -3.239801e+00 1.242283e+01 -8.569111e+00 -1.551153e+01 -6.374816e+00 -1.192186e+01 7.594661e-01 -7.651534e+00 -3.550942e+00 1.331139e+00 -3.885254e+00 6.344667e+01 -3.202738e-01 1.036715e+00 2.739223e+00 -6.670070e-02 -1.759163e+00 -1.367999e-01 -1.098564e+00 -7.703514e-01 -1.505275e+00 7.502271e-02 1.627881e+00 4.787206e-01 5.631223e-01 1.221548e-02 -1.054382e-01 -3.826766e-01 -1.811228e-02 2.342913e-01 2.184104e-01 -8.506428e-02 -2.125503e-01 1.407166e-01 8.150085e-03 -7.844152e-02 -1.572416e-01 1.283619e-02
<VARIANCE> 39
 2.153576e+01 8.160159e+01 8.480476e+01 5.135070e+01 5.623206e+01 5.119456e+01 6.156503e+01 8.218874e+01 7.281308e+01 7.502473e+01 5.777827e+01 3.164080e+01 1.256267e+02 1.712790e+00 2.885243e+00 3.201415e+00 2.802627e+00 3.731686e+00 3.335924e+00 4.344403e+00 4.196344e+00 3.937457e+00 4.570379e+00 2.876794e+00 3.017313e+00 4.083306e+00 2.182550e-01 4.200403e-01 7.083869e-01 4.876816e-01 6.906999e-01 6.721411e-01 7.110263e-01 7.636530e-01 6.515084e-01 6.532513e-01 5.508297e-01 4.740280e-01 3.112386e-01
<GCONST> 1.324521e+02
<STATE> 3
<MEAN> 39
 -6.819710e+00 -1.406578e+00 1.839665e+01 -9.077754e+00 -2.094717e+01 -6.502137e+00 -1.636025e+01 -3.197429e+00 -1.096516e+01 -2.409215e+00 5.796783e+00 -3.235833e+00 6.727708e+01 2.199576e-01 -8.691605e-01 -9.002793e-01 -2.157887e-01 -5.351704e-01 -5.385565e-01 3.327491e-01 8.668308e-01 6.722089e-01 4.069024e-01 5.216663e-02 1.422726e-01 7.430769e-01 1.439082e-01 -3.568887e-01 -6.974521e-01 -4.906030e-02 3.501025e-01 -4.326890e-02 3.626495e-01 4.967458e-01 4.554967e-01 -4.034888e-02 -4.513944e-01 -1.400407e-01 5.444427e-02
<VARIANCE> 39
 1.008591e+01 3.852024e+01 4.493118e+01 4.158330e+01 3.071315e+01 3.540049e+01 3.553841e+01 5.588803e+01 7.311945e+01 9.845858e+01 5.902248e+01 3.122823e+01 3.036070e+01 4.676012e-01 2.358207e+00 3.133631e+00 1.236490e+00 1.896888e+00 1.872625e+00 2.516466e+00 4.116876e+00 2.747595e+00 2.299557e+00 1.746781e+00 1.443500e+00 1.123682e+00 6.788675e-02 1.847241e-01 2.624334e-01 2.046199e-01 5.333667e-01 3.737819e-01 4.094821e-01 4.219817e-01 3.781109e-01 5.395834e-01 4.038161e-01 3.325548e-01 1.158752e-01
<GCONST> 1.110905e+02
<STATE> 4
<MEAN> 39
 -4.623298e+00 -9.637614e+00 5.944561e+00 -1.123024e+01 -1.882146e+01 -9.045499e+00 -9.759280e+00 7.092649e+00 -3.216118e+00 -2.574554e+00 -2.318221e-01 -3.599178e+00 7.110424e+01 4.893617e-01 -1.342146e+00 -2.653317e+00 -1.231547e-01 2.184407e+00 6.339596e-01 8.031091e-01 1.272428e+00 1.532424e+00 -1.132594e+00 -2.263201e+00 -1.022190e+00 4.070227e-01 2.498395e-02 2.742443e-01 1.379477e-01 6.394257e-02 5.093394e-01 4.621938e-01 -3.856749e-01 -7.108860e-01 -2.515169e-01 -5.872714e-02 -3.945986e-02 -2.512477e-01 -2.865004e-01
<VARIANCE> 39
 8.644676e+00 3.514637e+01 5.860075e+01 4.244231e+01 3.991799e+01 2.510429e+01 5.451453e+01 5.404584e+01 5.847274e+01 5.891775e+01 5.785391e+01 2.604935e+01 6.217730e+01 4.187381e-01 1.317260e+00 2.444883e+00 1.253079e+00 2.664709e+00 1.897884e+00 3.047201e+00 3.425139e+00 2.825924e+00 3.426422e+00 2.778429e+00 2.035030e+00 5.212201e-01 5.469969e-02 1.581714e-01 2.488102e-01 2.322258e-01 4.957744e-01 4.508145e-01 3.733306e-01 5.207945e-01 3.971467e-01 5.208432e-01 5.063168e-01 2.935759e-01 7.766818e-02
<GCONST> 1.107710e+02
<TRANSP> 5
 0.000000e+00 1.000000e+00 0.000000e+00 0.000000e+00 0.000000e+00
 0.000000e+00 7.345260e-01 2.654740e-01 0.000000e+00 0.000000e+00
 0.000000e+00 0.000000e+00 8.226084e-01 1.773916e-01 0.000000e+00
 0.000000e+00 0.000000e+00 0.000000e+00 6.921241e-01 3.078759e-01
 0.000000e+00 0.000000e+00 0.000000e+00 0.000000e+00 0.000000e+00
<ENDHMM>
~h "z"
<BEGINHMM>
<NUMSTATES> 5
<STATE> 2
<MEAN> 39
 -7.664832e+00 6.157088e+00 2.568092e+00 -1.099516e+00 -4.539508e+00 -1.115068e+01 -1.245299e+01 -5.570246e+00 -3.495977e+00 -2.386444e+00 -4.843333e+00 -3.480669e-01 6.294671e+01 -1.953057e+00 2.781919e+00 -9.792577e-01 1.468819e+00 1.487102e+00 -4.525165e-01 1.235084e+00 -1.745036e-01 1.035400e-01 -2.862712e-01 -3.282872e-01 8.135051e-01 -7.468970e-01 -2.693453e-01 -8.174060e-02 -1.453999e-01 -1.407452e-01 -1.107835e-01 5.170312e-01 2.053424e-01 1.588746e-01 1.169311e-01 1.908490e-02 2.359207e-01 -2.467404e-01 -2.402087e-02
<VARIANCE> 39
 3.625615e+01 5.338355e+01 5.871219e+01 5.785502e+01 6.373665e+01 4.432539e+01 7.934235e+01 4.914954e+01 5.849481e+01 4.616942e+01 4.210455e+01 2.674661e+01 5.325365e+01 3.015675e+00 4.678234e+00 3.829947e+00 4.350986e+00 5.111058e+00 4.089613e+00 5.159067e+00 5.332154e+00 4.054119e+00 3.785710e+00 3.622999e+00 2.424656e+00 1.814271e+00 3.605151e-01 6.476884e-01 4.750979e-01 5.057378e-01 6.471143e-01 5.675076e-01 8.396162e-01 6.904855e-01 5.447165e-01 6.026936e-01 5.747747e-01 4.196595e-01 2.019712e-01
<GCONST> 1.312448e+02
<STATE> 3
<MEAN> 39
 -1.797524e+01 1.479897e+01 -6.310386e-01 4.090590e+00 2.198810e-01 -8.863581e+00 -7.066602e+00 -3.580927e+00 -2.716740e+00 -2.766542e+00 -3.175064e+00 5.499698e-01 6.086443e+01 -9.785649e-01 -7.733098e-02 -2.485804e-02 1.632047e-01 2.138097e-01 2.960563e-01 3.705930e-01 2.398333e-01 4.330162e-02 2.492002e-02 3.472364e-01 1.220335e-01 2.917861e-02 5.877686e-01 -6.578910e-01 2.952326e-01 -3.135829e-01 -4.436839e-01 -1.543256e-01 -4.081952e-01 -1.377511e-01 -3.572447e-02 -3.985445e-02 6.263972e-02 -6.369423e-02 2.790122e-01
<VARIANCE> 39
 4.275489e+01 2.061231e+01 3.883691e+01 3.686530e+01 3.584333e+01 3.597770e+01 5.319765e+01 2.709362e+01 2.542687e+01 2.733873e+01 2.248237e+01 1.844767e+01 2.724073e+01 2.342679e+00 2.709354e+00 1.735719e+00 1.580395e+00 2.143314e+00 2.260330e+00 2.533824e+00 1.931933e+00 1.957000e+00 1.787749e+00 1.580471e+00 1.330441e+00 1.131364e+00 3.912491e-01 4.578030e-01 3.236671e-01 3.778924e-01 4.647257e-01 4.587888e-01 5.090509e-01 4.489768e-01 4.573949e-01 3.817474e-01 3.449730e-01 2.979288e-01 1.829027e-01
<GCONST> 1.116178e+02
<STATE> 4
<MEAN> 39
 -1.540146e+01 3.202654e+00 -1.160424e+00 -1.141744e+00 -3.124303e+00 -7.053912e+00 -6.463831e+00 -2.889736e+00 -3.962046e+00 -3.738094e+00 -2.972206e+00 -3.327177e-01 4.837110e+01 9.496812e-01 -7.207661e-01 4.656371e-01 -4.328632e-01 -9.074951e-01 -2.709295e-01 -7.947369e-01 -2.208372e-01 7.376211e-02 -2.980045e-02 2.058674e-01 -1.049302e-01 5.338287e-01 2.062280e-01 -1.110572e-01 5.960405e-02 -1.085894e-01 -1.604430e-01 1.491078e-01 -1.284401e-01 4.303817e-02 2.435558e-02 5.209178e-03 1.440990e-02 -1.313557e-01 6.126623e-02
<VARIANCE> 39
 4.064635e+01 5.942369e+01 4.206208e+01 4.213838e+01 2.923537e+01 4.078959e+01 4.543489e+01 3.168945e+01 2.914327e+01 2.511904e+01 2.259618e+01 2.234423e+01 1.895124e+02 3.943453e+00 3.693571e+00 2.390725e+00 2.727822e+00 3.866934e+00 2.483720e+00 3.923014e+00 2.886661e+00 2.660906e+00 2.122808e+00 1.833588e+00 1.658949e+00 2.177138e+00 4.160479e-01 3.660113e-01 3.595585e-01 3.953072e-01 4.840605e-01 5.184626e-01 5.564374e-01 5.230576e-01 4.232204e-01 4.129107e-01 3.523927e-01 3.523045e-01 1.951154e-01
<GCONST> 1.203179e+02
<TRANSP> 5
 0.000000e+00 1.000000e+00 0.000000e+00 0.000000e+00 0.000000e+00
 0.000000e+00 7.073855e-01 2.926145e-01 0.000000e+00 0.000000e+00
 0.000000e+00 0.000000e+00 8.266149e-01 1.733851e-01 0.000000e+00
 0.000000e+00 0.000000e+00 0.000000e+00 8.590125e-01 1.409875e-01
 0.000000e+00 0.000000e+00 0.000000e+00 0.000000e+00 0.000000e+00
<ENDHMM>
~h "ai"
<BEGINHMM>
<NUMSTATES> 5
<STATE> 2
<MEAN> 39
 -2.027925e+00 -1.496906e+01 -3.178220e+00 -1.249535e+01 -8.448848e+00 -2.960404e+00 -1.141403e+01 5.893415e+00 2.583053e+00 -6.001229e+00 -4.081927e+00 -1.062630e+01 7.357591e+01 -3.856671e-01 -5.499294e-01 1.173145e+00 1.132802e-01 -1.267428e+00 -1.297127e+00 9.853407e-01 1.648637e+00 -4.337032e-01 -6.387768e-01 -2.870297e-01 9.005021e-01 4.730659e-01 -1.883944e-01 6.502389e-01 4.027344e-01 1.913505e-01 -3.696371e-01 -1.490835e-01 4.135916e-02 -4.618590e-01 -5.310196e-01 3.065555e-01 4.392997e-01 4.745800e-01 -4.875530e-01
<VARIANCE> 39
 8.955358e+00 2.610886e+01 5.270438e+01 3.731802e+01 4.935777e+01 4.997112e+01 7.742896e+01 6.484924e+01 5.493853e+01 5.916226e+01 5.399358e+01 4.124478e+01 1.752255e+01 6.644161e-01 2.083394e+00 2.036445e+00 1.902247e+00 3.266490e+00 3.387764e+00 2.674019e+00 3.343382e+00 2.775308e+00 2.690583e+00 3.104648e+00 2.727313e+00 8.681131e-01 2.551502e-01 2.220710e-01 2.957785e-01 3.950462e-01 4.960823e-01 5.564489e-01 5.586962e-01 7.155167e-01 5.531299e-01 5.545548e-01 6.255988e-01 5.408946e-01 2.044064e-01
<GCONST> 1.189108e+02
<STATE> 3
<MEAN> 39
 -4.385784e+00 -1.118163e+01 7.768012e+00 -1.189057e+01 -2.028283e+01 -9.492666e+00 -8.876525e+00 7.440742e+00 -4.487810e+00 -1.724840e+00 2.086827e+00 -3.617494e+00 7.201682e+01 -4.325968e-01 1.370358e+00 1.956458e+00 2.258665e-02 -1.498140e+00 -2.412207e-01 -4.904940e-01 -1.386820e+00 -1.534437e+00 1.124279e+00 1.372720e+00 5.451179e-01 -5.839776e-01 4.999434e-02 1.961191e-01 -1.493795e-01 1.088491e-01 5.124812e-01 2.690005e-01 -3.022769e-01 -4.688842e-01 7.272439e-02 -8.821408e-02 -2.313358e-01 -2.443832e-01 -2.240217e-01
<VARIANCE> 39
 7.217219e+00 3.208164e+01 4.396147e+01 3.665990e+01 3.269907e+01 2.607605e+01 5.162122e+01 4.279997e+01 5.275047e+01 5.953152e+01 5.779927e+01 2.741558e+01 1.552392e+01 2.746351e-01 1.067608e+00 1.456573e+00 1.021891e+00 2.150091e+00 1.535743e+00 2.158053e+00 2.393520e+00 2.258798e+00 2.053790e+00 2.163219e+00 1.542015e+00 3.027936e-01 5.692814e-02 1.694667e-01 2.219623e-01 1.894623e-01 3.157526e-01 3.074775e-01 4.072792e-01 4.792824e-01 3.288256e-01 3.920658e-01 4.290339e-01 2.772424e-01 7.566062e-02
<GCONST> 1.021353e+02
<STATE> 4
<MEAN> 39
 -5.540565e+00 -2.123845e+00 1.366554e+01 -8.928675e+00 -2.063645e+01 -7.818239e+00 -1.302071e+01 -2.252877e+00 -9.235466e+00 1.858988e-01 3.066545e+00 -4.411632e+00 6.400732e+01 1.855319e-01 9.027067e-01 -2.154875e-01 7.318287e-01 8.872262e-01 2.329978e-01 1.053753e-01 -6.657140e-01 3.101776e-02 -2.109972e-01 -5.757081e-01 -1.887897e-01 -1.631413e+00 4.610492e-02 -6.491730e-02 -3.917215e-01 1.009831e-01 3.152480e-01 7.528868e-02 2.107701e-01 1.722532e-01 2.476255e-01 -1.051245e-01 -1.755006e-01 -1.987461e-02 -1.425095e-01
<VARIANCE> 39
 1.620933e+01 5.132625e+01 5.028296e+01 3.967770e+01 3.452519e+01 4.142059e+01 5.433852e+01 6.809490e+01 5.471780e+01 6.430110e+01 5.828496e+01 3.547116e+01 7.402040e+01 1.040663e+00 2.017724e+00 2.662278e+00 2.165023e+00 2.614305e+00 2.241634e+00 3.090990e+00 3.221837e+00 2.767609e+00 2.403425e+00 2.308388e+00 1.761326e+00 2.748158e+00 2.049656e-01 3.133670e-01 3.603025e-01 3.446942e-01 5.095471e-01 4.349037e-01 5.374989e-01 5.424332e-01 5.315031e-01 4.706663e-01 4.591125e-01 3.341354e-01 3.900766e-01
<GCONST> 1.206814e+02
<TRANSP> 5
 0.000000e+00 1.000000e+00 0.000000e+00 0.000000e+00 0.000000e+00
 0.000000e+00 7.653391e-01 2.346608e-01 0.000000e+00 0.000000e+00
 0.000000e+00 0.000000e+00 7.683828e-01 2.316172e-01 0.000000e+00
 0.000000e+00 0.000000e+00 0.000000e+00 8.471925e-01 1.528075e-01
 0.000000e+00 0.000000e+00 0.000000e+00 0.000000e+00 0.000000e+00
<ENDHMM>
~h "au"
<BEGINHMM>
<NUMSTATES> 5
<STATE> 2
<MEAN> 39
 3.231469e-01 -1.103238e+01 -8.567530e+00 -1.961287e+01 -5.878367e+00 7.754806e+00 -1.562514e+01 -2.862579e+00 1.347199e+00 -7.720984e-01 6.895260e-01 -1.420128e+01 7.275075e+01 2.670659e-01 1.199199e-01 -9.242032e-02 -8.329400e-01 8.388846e-02 7.188230e-01 4.152585e-02 -2.795766e-01 -2.294958e-01 -3.818557e-01 1.025560e+00 -9.543891e-02 -1.630401e-01 7.047665e-02 3.971502e-01 1.647169e-01 5.124782e-03 -2.297797e-01 -1.768200e-01 2.348491e-02 -1.861587e-01 -3.108903e-01 6.097780e-02 2.095775e-01 5.470266e-01 -3.135073e-01
<VARIANCE> 39
 1.093016e+01 2.845588e+01 3.080732e+01 3.907171e+01 3.144041e+01 3.893103e+01 4.935520e+01 4.111024e+01 3.606918e+01 4.791857e+01 4.704222e+01 3.737404e+01 1.499340e+01 3.713414e-01 1.710127e+00 8.647959e-01 1.298331e+00 1.373639e+00 1.636368e+00 1.357290e+00 2.307059e+00 1.814756e+00 1.871255e+00 2.250361e+00 3.380255e+00 4.883097e-01 1.135621e-01 2.025121e-01 1.603017e-01 2.642424e-01 2.115255e-01 2.795601e-01 2.756408e-01 4.665798e-01 3.112554e-01 3.595037e-01 4.399044e-01 4.337477e-01 9.541901e-02
<GCONST> 1.030089e+02
<STATE> 3
<MEAN> 39
 4.294146e+00 -1.508530e+00 -7.077907e+00 -2.439189e+01 -1.120829e+01 8.243703e+00 -1.501527e+01 -3.967083e+00 -4.286710e+00 -3.628115e+00 5.756110e+00 -6.342226e+00 6.553011e+01 4.395524e-01 1.255973e+00 4.192800e-01 2.803782e-01 -5.228141e-01 -6.286681e-01 -1.495878e-01 -2.736069e-03 -7.956183e-01 -1.453232e-01 -1.905077e-01 9.595634e-01 -1.224187e+00 -1.067685e-01 -9.075558e-02 3.220984e-02 4.848368e-01 1.637923e-01 -2.236943e-01 2.054815e-02 -1.373998e-02 1.509552e-01 1.197373e-01 -3.433774e-01 -2.006579e-01 -8.265646e-02
<VARIANCE> 39
 1.230787e+01 6.979816e+01 3.709848e+01 3.991178e+01 3.810356e+01 4.252705e+01 6.925578e+01 4.748539e+01 6.166754e+01 5.759090e+01 4.932852e+01 5.150806e+01 3.312004e+01 4.034125e-01 1.458418e+00 9.590593e-01 2.585034e+00 2.152959e+00 1.866722e+00 2.101969e+00 2.225914e+00 2.428663e+00 2.462505e+00 2.434006e+00 2.653290e+00 6.021192e-01 6.179931e-02 2.102825e-01 1.740768e-01 3.313290e-01 3.512505e-01 3.117273e-01 3.682377e-01 3.970393e-01 4.112364e-01 4.359588e-01 4.618058e-01 4.578212e-01 1.035022e-01
<GCONST> 1.103240e+02
<STATE> 4
<MEAN> 39
 -3.184265e+00 5.946919e-01 -4.476668e+00 -9.759591e+00 -7.569477e+00 -6.245629e-01 -8.130335e+00 -4.306205e+00 -4.982185e+00 -2.904587e+00 -1.662153e+00 -3.480234e+00 4.611284e+01 -4.267409e-01 -7.364991e-03 1.512033e-01 1.160842e+00 2.997789e-01 -5.898073e-01 1.323565e-01 -2.502576e-01 8.083163e-02 2.197737e-01 -4.838303e-01 3.989416e-02 -7.968419e-01 -8.098477e-02 -5.951298e-02 6.477678e-02 8.411247e-02 2.718656e-02 1.304946e-02 3.138417e-02 2.306451e-02 3.784402e-02 -1.774195e-02 -2.809939e-02 -6.033491e-02 6.761009e-02
<VARIANCE> 39
 6.973167e+01 4.863637e+01 2.787809e+01 8.326373e+01 3.960804e+01 4.803196e+01 9.114021e+01 3.981425e+01 3.924299e+01 4.097011e+01 4.142642e+01 3.027964e+01 1.366395e+02 9.770968e-01 1.697206e+00 1.872239e+00 3.882308e+00 2.568703e+00 2.719346e+00 3.153606e+00 2.537646e+00 2.809716e+00 2.598350e+00 2.520393e+00 2.297495e+00 1.685500e+00 1.795037e-01 2.915048e-01 3.036630e-01 5.055371e-01 5.142549e-01 4.553814e-01 5.526098e-01 5.068088e-01 5.344446e-01 5.208763e-01 4.632503e-01 4.727812e-01 2.070171e-01
<GCONST> 1.215962e+02
<TRANSP> 5
 0.000000e+00 1.000000e+00 0.000000e+00 0.000000e+00 0.000000e+00
 0.000000e+00 8.218990e-01 1.781010e-01 0.000000e+00 0.000000e+00
