~o
<STREAMINFO> 1 39
<VECSIZE> 39<NULLD><MFCC_D_A_0><DIAGC>
~h "@"
<BEGINHMM>
<NUMSTATES> 5
<STATE> 2
<MEAN> 39
 -3.056259e+00 -3.318542e+00 5.530220e-01 -6.284862e+00 -8.315562e+00 -3.669703e+00 -1.231917e+01 -3.727336e+00 -2.311254e+00 -5.779366e-01 -1.096630e+00 -5.835047e+00 6.019067e+01 6.236544e-01 -2.098993e-01 1.814295e-01 -2.316018e-01 -2.740168e-01 1.743866e-01 -3.706902e-01 6.503761e-02 1.605259e-01 2.414287e-01 2.127377e-01 -2.076057e-01 5.887517e-01 -1.344667e-01 9.931526e-02 1.366076e-02 1.126332e-01 2.741103e-02 3.916766e-02 1.644486e-01 -4.231691e-02 -6.559703e-02 -6.426007e-02 -4.870629e-02 5.214629e-02 -2.107903e-01
<VARIANCE> 39
 4.948127e+01 5.691541e+01 6.203549e+01 6.285543e+01 5.905535e+01 6.447128e+01 9.138028e+01 7.288584e+01 7.400460e+01 4.918511e+01 4.947298e+01 4.251691e+01 1.524159e+02 4.135566e+00 3.975392e+00 4.097003e+00 4.759223e+00 4.150213e+00 4.273223e+00 5.475532e+00 5.377249e+00 4.993452e+00 3.594235e+00 3.908399e+00 3.324905e+00 9.030347e+00 7.509605e-01 6.956894e-01 7.035548e-01 8.569366e-01 7.684621e-01 7.281325e-01 1.034752e+00 9.785531e-01 8.455403e-01 6.852209e-01 7.313457e-01 6.368451e-01 1.344133e+00
<GCONST> 1.427583e+02
<STATE> 3
<MEAN> 39
 -2.199270e+00 -3.497245e+00 9.138340e-01 -6.439125e+00 -8.770493e+00 -3.377370e+00 -1.268590e+01 -3.684417e+00 -2.190122e+00 -3.088562e-01 -8.403383e-01 -6.087361e+00 6.102025e+01 4.164664e-01 -2.387202e-02 2.224506e-01 -2.171345e-04 -2.017914e-01 1.835076e-01 -6.142970e-02 -3.968872e-02 7.804492e-03 8.438270e-02 6.179520e-02 -1.073401e-01 2.112466e-01 -1.449967e-01 9.595063e-02 9.344571e-03 1.214705e-01 4.753964e-02 -2.186796e-03 1.575368e-01 -5.219528e-02 -6.729393e-02 -8.510955e-02 -7.773882e-02 5.710498e-02 -2.063213e-01
<VARIANCE> 39
 4.410958e+01 5.857219e+01 6.287104e+01 6.724677e+01 5.971856e+01 6.469288e+01 9.309666e+01 7.799037e+01 7.919707e+01 5.125489e+01 5.120028e+01 4.251578e+01 1.400383e+02 3.296363e+00 3.950334e+00 3.846872e+00 4.867909e+00 4.120140e+00 4.196103e+00 5.259109e+00 5.428411e+00 4.983603e+00 3.640149e+00 3.921457e+00 3.261622e+00 8.596758e+00 6.181854e-01 6.834476e-01 6.826881e-01 8.902041e-01 7.656933e-01 7.177109e-01 9.876217e-01 1.012419e+00 8.729128e-01 6.895189e-01 7.467389e-01 6.292334e-01 1.222224e+00
<GCONST> 1.422452e+02
<STATE> 4
<MEAN> 39
 -2.033519e+00 -3.065388e+00 1.267501e+00 -5.974622e+00 -8.918536e+00 -3.396691e+00 -1.213888e+01 -3.678096e+00 -2.371619e+00 -3.219548e-01 -1.177311e+00 -5.960115e+00 5.985149e+01 1.631584e-01 1.043048e-01 1.881004e-01 1.551599e-01 -7.021516e-02 1.501129e-01 1.319981e-01 -1.386120e-01 -7.978277e-02 -5.777357e-02 -7.223598e-02 -1.443997e-02 -1.124600e-01 -1.237489e-01 1.898840e-02 -2.967536e-02 4.295232e-02 4.034203e-02 -1.116418e-02 5.815755e-02 -2.176503e-02 -2.256113e-02 -5.966780e-02 -3.688534e-02 3.249684e-02 -4.149582e-02
<VARIANCE> 39
 4.348985e+01 6.045261e+01 6.386719e+01 6.688997e+01 5.888120e+01 6.326028e+01 9.175021e+01 7.723486e+01 7.971863e+01 5.136320e+01 5.037123e+01 4.155975e+01 1.543019e+02 2.599821e+00 3.454637e+00 3.324907e+00 4.258717e+00 3.631541e+00 3.596245e+00 4.499769e+00 4.843371e+00 4.362505e+00 3.331613e+00 3.543861e+00 2.910933e+00 6.509502e+00 4.655914e-01 5.904171e-01 5.816650e-01 7.729130e-01 6.804562e-01 6.383617e-01 8.238074e-01 9.034372e-01 7.816074e-01 6.246769e-01 6.736951e-01 5.526962e-01 9.842004e-01
<GCONST> 1.384425e+02
<TRANSP> 5
 0.000000e+00 1.000000e+00 0.000000e+00 0.000000e+00 0.000000e+00
 0.000000e+00 4.524248e-01 5.475753e-01 0.000000e+00 0.000000e+00
 0.000000e+00 0.000000e+00 4.620503e-01 5.379496e-01 0.000000e+00
 0.000000e+00 0.000000e+00 0.000000e+00 5.423445e-01 4.576555e-01
 0.000000e+00 0.000000e+00 0.000000e+00 0.000000e+00 0.000000e+00
<ENDHMM>
~h "a"
<BEGINHMM>
<NUMSTATES> 5
<STATE> 2
<MEAN> 39
 -2.181034e+00 -1.109748e+01 -3.851023e+00 -1.094210e+01 -6.084909e+00 -3.083514e-01 -1.022760e+01 1.533206e+00 2.438433e-01 -3.322701e+00 -4.138982e+00 -1.019941e+01 6.742847e+01 2.140395e-01 -6.008489e-01 -3.027013e-01 -1.739606e-01 4.338514e-01 2.723119e-01 2.470332e-01 3.239263e-01 1.703747e-01 -2.104775e-01 -4.283949e-01 -4.927234e-01 2.826863e-01 -1.004971e-01 3.236918e-01 1.727480e-01 2.250788e-01 -4.217786e-02 -1.250451e-01 -2.665782e-03 -2.161553e-01 -1.583676e-01 5.172255e-02 7.581992e-02 2.298445e-01 -3.719063e-01
<VARIANCE> 39
 2.937189e+01 6.004578e+01 5.868996e+01 6.122007e+01 5.815263e+01 6.082180e+01 6.034315e+01 7.245514e+01 6.407165e+01 5.537025e+01 5.401557e+01 5.352168e+01 1.271318e+02 1.892104e+00 3.851754e+00 2.734482e+00 3.274112e+00 3.291120e+00 3.661569e+00 3.192396e+00 4.468593e+00 3.263779e+00 3.148960e+00 3.366929e+00 3.455474e+00 4.828657e+00 3.691132e-01 5.486295e-01 4.154224e-01 5.466134e-01 5.637233e-01 5.841765e-01 6.026298e-01 7.696481e-01 5.794356e-01 5.762182e-01 6.182681e-01 5.998402e-01 6.508986e-01
<GCONST> 1.330886e+02
<STATE> 3
<MEAN> 39
 -1.900153e+00 -1.140890e+01 -4.060321e+00 -1.070199e+01 -5.316549e+00 -1.168423e-01 -9.779876e+00 1.587451e+00 1.659415e-01 -3.559754e+00 -4.800431e+00 -1.056605e+01 6.696863e+01 9.085959e-02 1.775451e-01 7.879538e-02 2.381554e-01 1.757537e-01 -6.918764e-02 1.571375e-01 -8.837783e-02 -1.184618e-01 9.128630e-04 -2.120023e-01 3.532393e-02 -4.625496e-01 -6.060150e-02 3.376573e-01 1.734004e-01 1.709133e-01 -1.190600e-01 -1.233313e-01 -4.912311e-02 -1.833034e-01 -1.162088e-01 9.319776e-02 1.093274e-01 2.194078e-01 -3.127947e-01
<VARIANCE> 39
 2.746606e+01 6.046231e+01 5.670648e+01 6.031369e+01 5.497247e+01 5.665292e+01 5.976337e+01 6.868344e+01 6.250163e+01 5.568904e+01 5.257592e+01 5.303793e+01 1.292562e+02 1.421534e+00 3.609032e+00 2.394599e+00 2.868888e+00 2.980591e+00 3.327433e+00 2.856987e+00 4.069853e+00 2.904306e+00 2.980807e+00 3.014604e+00 3.032381e+00 4.721855e+00 2.654400e-01 5.401191e-01 3.785506e-01 4.958828e-01 4.962970e-01 5.200052e-01 5.506739e-01 7.156910e-01 5.417960e-01 5.521850e-01 5.637997e-01 5.395709e-01 5.604739e-01
<GCONST> 1.299002e+02
<STATE> 4
<MEAN> 39
 -2.761726e+00 -9.431969e+00 -3.865393e+00 -8.820980e+00 -4.540554e+00 -6.943844e-01 -8.946103e+00 7.822567e-01 -9.468569e-01 -3.653821e+00 -5.264132e+00 -9.188466e+00 6.159362e+01 -3.550734e-02 6.955937e-01 3.346374e-01 4.188582e-01 -1.174174e-01 -2.693946e-01 4.008909e-02 -3.481194e-01 -2.408029e-01 1.795425e-01 2.289501e-02 3.605478e-01 -9.211861e-01 -4.707704e-02 1.667337e-01 1.055241e-01 7.959887e-02 -7.025858e-02 -4.127426e-02 -3.965528e-02 -1.079735e-01 -4.660898e-02 5.109345e-02 7.623453e-02 9.570529e-02 -1.107058e-01
<VARIANCE> 39
 3.566000e+01 6.401995e+01 5.498846e+01 6.122318e+01 5.373546e+01 5.403501e+01 5.917680e+01 6.079350e+01 5.667801e+01 5.113182e+01 4.761282e+01 5.606550e+01 1.928696e+02 1.280792e+00 2.831036e+00 2.169437e+00 2.560526e+00 2.602144e+00 2.745912e+00 2.731568e+00 3.494390e+00 2.706133e+00 2.728300e+00 2.614601e+00 2.472515e+00 3.446617e+00 2.272638e-01 4.616372e-01 3.409505e-01 4.400120e-01 4.389979e-01 4.564273e-01 4.954430e-01 6.198707e-01 4.880446e-01 5.029012e-01 4.859006e-01 4.456453e-01 4.792395e-01
<GCONST> 1.265355e+02
<TRANSP> 5
 0.000000e+00 1.000000e+00 0.000000e+00 0.000000e+00 0.000000e+00
 0.000000e+00 5.534224e-01 4.465776e-01 0.000000e+00 0.000000e+00
 0.000000e+00 0.000000e+00 5.553021e-01 4.446979e-01 0.000000e+00
 0.000000e+00 0.000000e+00 0.000000e+00 7.178507e-01 2.821492e-01
 0.000000e+00 0.000000e+00 0.000000e+00 0.000000e+00 0.000000e+00
<ENDHMM>
~h "b"
<BEGINHMM>
<NUMSTATES> 5
<STATE> 2
<MEAN> 39
 1.667653e+00 2.122189e+00 3.016504e+00 -4.576222e+00 -7.359488e+00 9.015754e-01 -1.001293e+01 -6.674279e+00 -5.842479e+00 -2.421486e+00 -1.103129e+00 -6.900193e+00 5.416518e+01 3.174663e-01 5.168974e-01 -3.320868e-03 1.128660e-01 2.471744e-01 1.310672e-01 9.351911e-02 -1.469975e-01 9.487002e-02 6.832860e-02 5.864360e-02 -6.849338e-03 -3.155445e-01 -1.555524e-01 -2.366092e-01 -7.339262e-02 -1.338297e-01 -1.053233e-01 -8.740287e-02 -1.408122e-01 9.840763e-02 1.291305e-01 1.965306e-02 4.678703e-02 7.518872e-03 3.737600e-01
<VARIANCE> 39
 5.008791e+01 6.862913e+01 5.616493e+01 5.959871e+01 4.898718e+01 5.587305e+01 6.728729e+01 5.904222e+01 7.229941e+01 4.227300e+01 5.236091e+01 4.241924e+01 1.188668e+02 2.441509e+00 4.972461e+00 3.587903e+00 4.458149e+00 3.748838e+00 3.177932e+00 4.651424e+00 4.122279e+00 4.850348e+00 3.250618e+00 4.141790e+00 3.095488e+00 7.724845e+00 3.838837e-01 7.610143e-01 5.242493e-01 6.956138e-01 6.753222e-01 5.662382e-01 8.346608e-01 7.303618e-01 8.116278e-01 6.040303e-01 7.770963e-01 6.014841e-01 1.025806e+00
<GCONST> 1.375563e+02
<STATE> 3
<MEAN> 39
 2.021420e+00 2.359872e+00 2.699931e+00 -4.925719e+00 -7.306214e+00 1.036972e+00 -1.045750e+01 -6.761786e+00 -5.237119e+00 -2.104791e+00 -6.082509e-01 -6.955173e+00 5.507549e+01 -1.164000e-01 -2.636723e-01 -2.434470e-01 -2.251520e-01 -1.247396e-01 -1.119671e-01 -3.092839e-01 1.753066e-01 4.456513e-01 1.291203e-01 1.637288e-01 -5.343525e-02 6.833079e-01 -1.729896e-01 -2.797700e-01 -4.171455e-02 -9.783442e-02 -1.376283e-01 -9.071113e-02 -1.083786e-01 1.379290e-01 7.901234e-02 -2.575871e-02 -5.355778e-03 -1.679805e-02 3.413446e-01
<VARIANCE> 39
 4.545433e+01 7.211790e+01 5.236904e+01 6.279722e+01 4.893588e+01 5.698694e+01 6.656371e+01 5.791685e+01 7.112601e+01 4.294641e+01 5.460203e+01 4.355791e+01 1.214175e+02 2.604736e+00 6.156425e+00 3.870403e+00 5.239734e+00 4.240090e+00 3.619365e+00 5.299529e+00 4.714130e+00 5.688822e+00 3.718046e+00 4.751136e+00 3.869955e+00 8.979750e+00 3.846133e-01 8.324250e-01 5.808050e-01 8.085854e-01 7.827246e-01 6.342786e-01 9.443613e-01 8.096973e-01 9.144257e-01 7.011940e-01 9.262223e-01 7.291847e-01 1.212698e+00
<GCONST> 1.410432e+02
<STATE> 4
<MEAN> 39
 1.372351e+00 2.091301e+00 2.325114e+00 -5.149329e+00 -7.595678e+00 1.801955e-01 -1.068673e+01 -5.907413e+00 -4.744622e+00 -2.095034e+00 -9.306103e-01 -7.012503e+00 5.553554e+01 -3.616476e-01 -5.624798e-01 -1.792779e-01 -2.460165e-01 -2.661783e-01 -2.326989e-01 -3.026713e-01 3.219119e-01 3.637815e-01 -1.604782e-02 7.751389e-02 2.346019e-02 9.598936e-01 -1.015783e-01 -1.516500e-01 1.846755e-02 -5.796673e-02 -9.380262e-02 -2.432020e-02 -4.868650e-02 4.472970e-02 -2.192367e-02 -5.606551e-02 1.121306e-02 3.182993e-02 1.787329e-01
<VARIANCE> 39
 4.595135e+01 8.036964e+01 5.351572e+01 6.899092e+01 5.143560e+01 5.810600e+01 6.521169e+01 5.731549e+01 6.930404e+01 4.373305e+01 5.250136e+01 4.476975e+01 1.417251e+02 2.271450e+00 4.991307e+00 3.404581e+00 4.707636e+00 4.051375e+00 3.530236e+00 4.437867e+00 4.339968e+00 4.905297e+00 3.525817e+00 4.168680e+00 3.759063e+00 6.940011e+00 3.481163e-01 7.490047e-01 5.242797e-01 7.817830e-01 7.407476e-01 6.218998e-01 8.287919e-01 7.458570e-01 8.160251e-01 6.664297e-01 8.127643e-01 6.608110e-01 1.029900e+00
<GCONST> 1.387339e+02
<TRANSP> 5
 0.000000e+00 1.000000e+00 0.000000e+00 0.000000e+00 0.000000e+00
 0.000000e+00 5.481188e-01 4.518813e-01 0.000000e+00 0.000000e+00
 0.000000e+00 0.000000e+00 5.588881e-01 4.411118e-01 0.000000e+00
 0.000000e+00 0.000000e+00 0.000000e+00 6.427769e-01 3.572231e-01
 0.000000e+00 0.000000e+00 0.000000e+00 0.000000e+00 0.000000e+00
<ENDHMM>
~h "c"
<BEGINHMM>
<NUMSTATES> 5
<STATE> 2
<MEAN> 39
 -9.729362e+00 7.229618e-01 1.569270e+00 -4.206851e+00 -6.114297e+00 -6.523928e+00 -7.507089e+00 -3.065522e+00 -3.520383e+00 -2.576850e+00 -2.888286e+00 -2.919621e+00 5.323180e+01 -1.251872e+00 -7.777051e-02 -3.032131e-01 -3.079627e-01 2.528161e-01 -1.728116e-01 2.217131e-01 -1.128221e-03 1.289980e-01 2.103956e-02 1.076687e-01 2.577329e-01 2.630220e-01 -3.691562e-02 -1.873483e-01 -1.174056e-02 -1.386831e-01 -1.401279e-01 5.682931e-02 -9.881172e-02 4.420093e-02 2.727543e-02 -4.291381e-03 7.220683e-02 -1.578595e-02 4.577355e-01
<VARIANCE> 39
 8.794712e+01 6.557860e+01 5.552581e+01 4.836737e+01 5.276879e+01 5.117245e+01 5.914213e+01 5.084251e+01 4.684443e+01 3.991788e+01 3.880116e+01 3.218106e+01 1.488787e+02 8.463138e+00 6.553198e+00 5.279502e+00 4.680390e+00 5.587439e+00 4.187941e+00 5.006119e+00 4.385254e+00 4.177587e+00 3.627097e+00 3.382448e+00 3.529863e+00 1.665581e+01 1.743654e+00 1.130635e+00 9.661106e-01 8.736545e-01 1.085436e+00 8.309138e-01 9.650058e-01 8.244774e-01 7.825565e-01 7.042538e-01 6.514159e-01 7.436846e-01 2.379225e+00
<GCONST> 1.450081e+02
<STATE> 3
<MEAN> 39
 -1.388319e+01 -4.080104e-01 6.658182e-01 -6.060274e+00 -6.523247e+00 -6.837897e+00 -7.391679e+00 -2.684652e+00 -2.998169e+00 -2.538189e+00 -1.827321e+00 -1.950258e+00 5.766224e+01 -3.910337e-03 -5.405522e-01 8.070087e-02 -3.461534e-01 -4.731000e-01 -1.050371e-01 -2.295146e-01 2.990172e-01 1.687029e-01 -4.692112e-02 1.417334e-01 4.731162e-02 1.519367e+00 5.275524e-01 -1.222598e-01 8.831735e-02 2.841662e-02 -1.356370e-01 6.385127e-02 -1.307285e-01 7.641929e-02 7.905653e-04 7.422295e-03 -2.680403e-02 -1.467066e-01 7.037421e-02
<VARIANCE> 39
 1.178935e+02 5.722076e+01 5.649891e+01 4.952987e+01 5.114223e+01 4.870989e+01 5.492529e+01 4.540067e+01 4.423490e+01 3.536165e+01 3.655987e+01 2.997234e+01 1.402488e+02 1.648525e+01 6.557769e+00 6.463775e+00 5.067846e+00 6.379010e+00 4.648086e+00 5.270476e+00 5.139213e+00 4.538470e+00 3.578723e+00 3.576140e+00 3.565049e+00 1.416829e+01 2.803499e+00 1.193255e+00 1.233572e+00 1.004749e+00 1.257058e+00 9.480159e-01 1.039183e+00 9.302191e-01 8.526617e-01 7.039849e-01 7.192925e-01 7.180156e-01 2.266889e+00
<GCONST> 1.474262e+02
<STATE> 4
<MEAN> 39
 -1.076807e+01 -2.948435e+00 1.761323e+00 -6.799938e+00 -8.875019e+00 -6.858340e+00 -8.787199e+00 -1.106584e+00 -2.523971e+00 -2.798615e+00 -1.869262e+00 -2.596197e+00 6.247068e+01 1.764291e+00 -9.648089e-01 1.832382e-01 -3.196259e-01 -6.184807e-01 3.816275e-01 -5.937985e-01 4.196632e-01 6.526777e-02 8.871463e-02 3.279567e-02 -6.508447e-01 1.188365e+00 -3.654376e-02 1.349053e-02 -1.560237e-01 -7.012950e-02 1.713254e-01 2.200359e-01 5.748794e-02 -1.183105e-01 -7.494202e-02 5.439256e-02 4.783706e-02 -1.216628e-01 -2.551732e-01
<VARIANCE> 39
 1.117368e+02 6.526440e+01 6.335413e+01 4.865543e+01 5.425870e+01 4.806483e+01 5.954604e+01 5.819384e+01 5.504652e+01 3.792121e+01 3.960535e+01 3.239197e+01 1.376185e+02 1.192421e+01 6.021704e+00 5.953332e+00 4.442852e+00 5.497444e+00 4.772702e+00 5.329462e+00 5.744506e+00 4.497650e+00 3.534003e+00 3.763974e+00 3.361375e+00 7.842346e+00 2.299260e+00 9.340506e-01 1.014077e+00 8.627362e-01 1.028676e+00 8.880960e-01 9.968241e-01 9.524004e-01 8.018940e-01 6.211204e-01 6.740442e-01 5.866623e-01 1.145210e+00
<GCONST> 1.449476e+02
<TRANSP> 5
 0.000000e+00 1.000000e+00 0.000000e+00 0.000000e+00 0.000000e+00
 0.000000e+00 7.804366e-01 2.195634e-01 0.000000e+00 0.000000e+00
 0.000000e+00 0.000000e+00 8.206397e-01 1.793603e-01 0.000000e+00
 0.000000e+00 0.000000e+00 0.000000e+00 7.587942e-01 2.412058e-01
 0.000000e+00 0.000000e+00 0.000000e+00 0.000000e+00 0.000000e+00
<ENDHMM>
~h "d"
<BEGINHMM>
<NUMSTATES> 5
<STATE> 2
<MEAN> 39
 -5.052878e-01 -1.083423e+00 6.734827e+00 -1.498236e+00 -1.058986e+01 -4.741239e+00 -1.163181e+01 -1.678062e+00 -2.175194e+00 -4.207145e+00 -3.439929e+00 -5.067052e+00 5.695517e+01 9.315420e-02 1.260289e-01 5.097483e-01 2.998665e-01 -1.180596e-01 -2.944014e-01 -2.571894e-01 3.522297e-01 8.281501e-02 -2.084404e-01 9.815603e-02 2.874500e-01 5.270939e-02 -1.392705e-01 -1.897445e-01 -8.707559e-02 -2.190200e-01 -6.993473e-02 4.090708e-02 -3.923359e-02 4.290934e-03 -3.574361e-02 1.375670e-02 1.389527e-01 -1.935490e-02 3.219838e-01
<VARIANCE> 39
 4.369764e+01 7.286173e+01 6.857441e+01 6.028603e+01 7.351777e+01 4.185647e+01 7.610394e+01 8.956609e+01 7.054408e+01 4.922311e+01 6.134167e+01 3.906155e+01 1.356312e+02 3.424547e+00 5.949941e+00 3.772181e+00 5.338654e+00 6.267398e+00 3.421331e+00 5.171394e+00 6.902290e+00 4.857024e+00 3.686697e+00 5.079715e+00 3.357465e+00 1.071562e+01 5.837606e-01 9.279333e-01 5.370745e-01 8.156082e-01 1.259042e+00 6.455836e-01 9.900492e-01 1.278773e+00 8.757233e-01 6.994394e-01 9.720010e-01 6.691693e-01 1.559753e+00
<GCONST> 1.446381e+02
<STATE> 3
<MEAN> 39
 -8.267552e-01 -1.779637e+00 7.736297e+00 -1.805341e+00 -1.153889e+01 -5.480684e+00 -1.263759e+01 -5.300792e-01 -2.066322e+00 -4.660363e+00 -2.487762e+00 -4.359141e+00 5.903613e+01 -3.386328e-01 -5.458337e-01 5.178380e-02 -4.996738e-01 -4.842714e-01 -1.527714e-01 -3.054393e-01 4.112875e-01 1.763459e-02 -8.118229e-02 4.674585e-01 1.009128e-01 1.109192e+00 -6.652042e-02 -1.113837e-01 -1.590708e-01 -1.816054e-01 -4.530517e-02 9.537748e-02 4.999172e-02 -4.964160e-02 -2.312670e-02 4.673931e-02 3.517006e-02 -1.286624e-01 1.813950e-01
<VARIANCE> 39
 3.993013e+01 6.686548e+01 6.382233e+01 6.013614e+01 7.703551e+01 4.197564e+01 7.728714e+01 8.771741e+01 7.074556e+01 4.676521e+01 6.271324e+01 3.800607e+01 1.305342e+02 3.541337e+00 6.413116e+00 4.366577e+00 5.753404e+00 7.603251e+00 3.640322e+00 6.049991e+00 8.355902e+00 5.563744e+00 4.007359e+00 5.948115e+00 3.780041e+00 1.163706e+01 6.325913e-01 9.727026e-01 5.704226e-01 8.773915e-01 1.537999e+00 7.059075e-01 1.175119e+00 1.451959e+00 9.697634e-01 7.450986e-01 1.150766e+00 7.588832e-01 1.792596e+00
<GCONST> 1.472986e+02
<STATE> 4
<MEAN> 39
 -1.883979e+00 -2.903528e+00 7.386760e+00 -3.492628e+00 -1.258946e+01 -5.668608e+00 -1.266509e+01 2.331488e-01 -2.564957e+00 -4.297891e+00 -1.646775e+00 -4.590405e+00 6.113724e+01 -3.169125e-01 -4.724850e-01 -2.661977e-01 -5.881320e-01 -2.283060e-01 1.734173e-01 -1.882094e-02 5.398249e-02 -3.831719e-02 2.781227e-02 2.482171e-01 -2.440886e-01 9.059685e-01 2.836522e-02 6.648865e-02 -6.829765e-02 2.429624e-02 1.099445e-01 1.059566e-01 6.667693e-02 -1.457986e-01 -2.762610e-02 2.257761e-02 -7.047307e-02 -7.783905e-02 -1.347091e-01
<VARIANCE> 39
 3.682186e+01 7.207616e+01 7.613234e+01 6.332592e+01 7.515526e+01 4.155037e+01 7.387453e+01 9.549021e+01 7.768200e+01 4.703513e+01 6.180026e+01 3.588968e+01 1.451856e+02 2.676621e+00 4.376061e+00 3.805203e+00 4.201754e+00 6.286794e+00 3.378834e+00 5.479187e+00 6.802814e+00 4.698010e+00 3.522999e+00 4.962670e+00 3.322742e+00 7.751179e+00 4.765445e-01 7.105672e-01 4.969733e-01 7.013977e-01 1.217836e+00 6.259170e-01 1.021908e+00 1.192262e+00 8.191491e-01 6.395517e-01 9.019054e-01 6.199214e-01 1.247060e+00
<GCONST> 1.421816e+02
<TRANSP> 5
 0.000000e+00 1.000000e+00 0.000000e+00 0.000000e+00 0.000000e+00
 0.000000e+00 6.417945e-01 3.582055e-01 0.000000e+00 0.000000e+00
 0.000000e+00 0.000000e+00 6.659442e-01 3.340558e-01 0.000000e+00
 0.000000e+00 0.000000e+00 0.000000e+00 6.765627e-01 3.234373e-01
 0.000000e+00 0.000000e+00 0.000000e+00 0.000000e+00 0.000000e+00
<ENDHMM>
~h "e"
<BEGINHMM>
<NUMSTATES> 5
<STATE> 2
<MEAN> 39
 -3.777940e+00 -7.437438e+00 6.045680e+00 -6.662632e+00 -1.630555e+01 -6.869994e+00 -9.375315e+00 1.112913e+00 -3.413665e+00 -2.197897e+00 1.068825e+00 -5.214675e+00 6.475125e+01 -3.560762e-02 -2.926730e-01 3.519288e-01 -2.165024e-01 -6.148816e-01 -1.277749e-01 3.096508e-01 3.906174e-01 -1.497852e-01 3.236448e-02 1.642619e-01 -1.235450e-02 4.331518e-01 -3.537171e-02 1.732722e-01 -1.184197e-01 7.637469e-02 2.377014e-01 6.654391e-02 1.957126e-02 -1.801680e-01 8.601980e-03 1.802864e-02 -9.195775e-02 2.255170e-03 -2.459632e-01
<VARIANCE> 39
 3.285699e+01 7.601797e+01 7.370152e+01 4.905850e+01 8.432905e+01 5.033947e+01 7.844374e+01 9.346368e+01 7.394545e+01 6.572359e+01 6.105043e+01 3.522604e+01 1.419763e+02 1.608335e+00 3.020569e+00 2.548424e+00 2.519113e+00 4.217616e+00 2.541090e+00 3.506490e+00 4.879933e+00 3.257738e+00 3.163291e+00 3.036024e+00 1.955770e+00 5.954847e+00 3.145487e-01 4.874490e-01 3.820025e-01 4.130173e-01 6.994767e-01 4.636303e-01 6.344446e-01 8.282085e-01 5.906376e-01 5.632163e-01 5.449129e-01 3.641303e-01 8.817742e-01
<GCONST> 1.322794e+02
<STATE> 3
<MEAN> 39
 -3.786606e+00 -7.454791e+00 6.526135e+00 -6.810670e+00 -1.685093e+01 -7.004777e+00 -8.674108e+00 1.289385e+00 -3.739062e+00 -2.080305e+00 1.042204e+00 -5.312084e+00 6.495839e+01 8.365377e-04 1.071212e-01 4.137926e-02 3.820892e-02 2.942493e-03 -4.479963e-02 1.689291e-01 -5.532713e-02 -7.587082e-02 5.127778e-02 -9.457004e-02 -1.386543e-02 -1.344815e-01 2.166366e-03 1.320669e-01 -1.068156e-01 7.958322e-02 2.058164e-01 4.119496e-02 -5.110549e-02 -1.405347e-01 3.112986e-02 7.911020e-03 -7.429038e-02 5.068337e-03 -2.000417e-01
<VARIANCE> 39
 3.166444e+01 7.425058e+01 7.178733e+01 4.929307e+01 8.146573e+01 5.073789e+01 7.754824e+01 9.459995e+01 7.369943e+01 6.817715e+01 6.044590e+01 3.407686e+01 1.347560e+02 1.277891e+00 2.550920e+00 2.093756e+00 2.210322e+00 3.478979e+00 2.260915e+00 3.068678e+00 4.101726e+00 2.754725e+00 2.735183e+00 2.597869e+00 1.754212e+00 5.425338e+00 2.308559e-01 4.122867e-01 3.314682e-01 3.751978e-01 6.028479e-01 4.137709e-01 5.602274e-01 7.189929e-01 5.069891e-01 5.082594e-01 4.726126e-01 3.216336e-01 6.940511e-01
<GCONST> 1.280915e+02
<STATE> 4
<MEAN> 39
 -4.465806e+00 -5.420162e+00 5.979268e+00 -5.410687e+00 -1.505821e+01 -7.132859e+00 -7.930850e+00 2.165477e-01 -4.367851e+00 -1.740454e+00 -1.930666e-02 -4.593406e+00 5.995002e+01 1.319779e-02 3.176126e-01 -1.873158e-01 2.159936e-01 3.951060e-01 6.272102e-02 -1.803307e-02 -2.784053e-01 3.323326e-02 1.178155e-02 -1.883127e-01 6.685105e-03 -5.449408e-01 -1.459069e-02 4.716451e-02 -4.533544e-02 3.071403e-02 9.512309e-02 3.776586e-02 -3.015525e-02 -6.002055e-02 1.998807e-02 1.046598e-03 -1.458730e-02 3.922466e-03 -4.594156e-02
<VARIANCE> 39
 3.654501e+01 7.210292e+01 7.303905e+01 4.882276e+01 8.442233e+01 5.216414e+01 6.751888e+01 8.396900e+01 5.978833e+01 5.532166e+01 5.353938e+01 3.389052e+01 1.871056e+02 1.135225e+00 2.045026e+00 1.744842e+00 1.816045e+00 2.893231e+00 2.048377e+00 2.710746e+00 3.161810e+00 2.319726e+00 2.334421e+00 2.228409e+00 1.625052e+00 3.294252e+00 1.965794e-01 3.245661e-01 2.696362e-01 3.137519e-01 4.798484e-01 3.709556e-01 4.814118e-01 5.476092e-01 4.228962e-01 4.202799e-01 3.942333e-01 2.951085e-01 4.285364e-01
<GCONST> 1.226898e+02
<TRANSP> 5
 0.000000e+00 1.000000e+00 0.000000e+00 0.000000e+00 0.000000e+00
 0.000000e+00 6.312009e-01 3.687991e-01 0.000000e+00 0.000000e+00
 0.000000e+00 0.000000e+00 6.309495e-01 3.690505e-01 0.000000e+00
 0.000000e+00 0.000000e+00 0.000000e+00 8.429722e-01 1.570278e-01
 0.000000e+00 0.000000e+00 0.000000e+00 0.000000e+00 0.000000e+00
<ENDHMM>
~h "f"
<BEGINHMM>
<NUMSTATES> 5
<STATE> 2
<MEAN> 39
 -1.192481e+01 -2.516099e+00 -2.067400e+00 -1.849425e+00 -5.498463e+00 -3.162586e+00 -8.158505e+00 -3.642669e+00 -3.149491e+00 -1.740899e+00 -2.258060e+00 -2.640004e+00 5.788217e+01 -1.843162e+00 -1.533463e-01 -4.216712e-01 5.424535e-01 4.313862e-01 -1.063350e-01 2.528317e-01 1.081890e-01 3.167229e-01 -8.592932e-04 -2.197928e-02 3.185665e-01 -4.738577e-01 1.476963e-01 -1.713360e-01 6.709504e-02 -2.276381e-01 -2.260533e-01 1.338509e-02 -1.086761e-01 -2.619672e-03 -4.579145e-02 -7.623732e-03 8.430430e-02 -9.776980e-02 1.450989e-01
<VARIANCE> 39
 9.377341e+01 3.559134e+01 4.399876e+01 5.167167e+01 3.979866e+01 4.777083e+01 5.197646e+01 3.764959e+01 3.780881e+01 3.040329e+01 3.076005e+01 2.648378e+01 9.218353e+01 6.301309e+00 3.395379e+00 3.142684e+00 4.480593e+00 4.576456e+00 3.868346e+00 3.417804e+00 3.572419e+00 3.624573e+00 2.858958e+00 2.838296e+00 2.259624e+00 2.807478e+00 1.084484e+00 5.502233e-01 4.678745e-01 7.116801e-01 8.029534e-01 6.698316e-01 6.173519e-01 6.338498e-01 6.515757e-01 5.366462e-01 5.052041e-01 4.100304e-01 3.387578e-01
<GCONST> 1.303531e+02
<STATE> 3
<MEAN> 39
 -1.552327e+01 -3.685286e+00 -3.036561e+00 -1.629681e+00 -5.382359e+00 -3.423777e+00 -8.042630e+00 -3.458748e+00 -2.673120e+00 -1.780271e+00 -1.952445e+00 -2.191942e+00 5.737455e+01 -3.746286e-01 -3.648807e-01 -2.254152e-01 -2.134662e-01 -1.172618e-01 -2.801845e-02 -2.967502e-02 2.960382e-02 5.648914e-02 -1.103981e-02 1.316351e-01 -3.764461e-03 4.528450e-03 5.402336e-01 -1.624933e-02 1.095257e-01 -2.323034e-01 -1.688460e-01 4.992135e-02 -8.269234e-02 -1.873986e-02 -8.663908e-02 -7.440522e-03 5.220788e-02 -1.225565e-01 1.637721e-01
<VARIANCE> 39
 8.832973e+01 3.554921e+01 3.645282e+01 4.728896e+01 3.274808e+01 4.172823e+01 4.745509e+01 3.319289e+01 3.234555e+01 2.650826e+01 2.632918e+01 2.440983e+01 8.060525e+01 9.840275e+00 2.851845e+00 2.825062e+00 4.596357e+00 3.457522e+00 3.579839e+00 2.878228e+00 3.089015e+00 3.073448e+00 2.480020e+00 2.492672e+00 2.308882e+00 3.198635e+00 1.101538e+00 5.298991e-01 4.713754e-01 7.462273e-01 6.915651e-01 6.388312e-01 5.599980e-01 5.916253e-01 5.990500e-01 5.055705e-01 4.837135e-01 4.202618e-01 3.711424e-01
<GCONST> 1.276322e+02
<STATE> 4
<MEAN> 39
 -1.445220e+01 -4.573607e+00 -3.701795e+00 -2.560521e+00 -5.353611e+00 -3.451917e+00 -8.134231e+00 -3.405310e+00 -2.963441e+00 -2.200028e+00 -1.660151e+00 -2.632192e+00 5.484974e+01 1.087874e+00 -8.372097e-02 1.606129e-01 -5.300605e-01 -3.756950e-01 8.281378e-02 -1.488244e-01 9.367185e-03 -1.339719e-01 -5.355337e-02 1.746655e-01 -2.706733e-01 3.340675e-01 2.845145e-01 3.406411e-02 1.249034e-01 -1.170003e-01 -1.066680e-01 5.104344e-02 -5.262731e-02 1.537021e-02 -4.093062e-02 -8.860624e-03 4.968651e-02 -7.893652e-02 1.267530e-01
<VARIANCE> 39
 9.355813e+01 3.947124e+01 3.627019e+01 4.877091e+01 3.222140e+01 3.928795e+01 4.534023e+01 3.338305e+01 3.262419e+01 2.586452e+01 2.483795e+01 2.688671e+01 1.245281e+02 7.811251e+00 2.690936e+00 2.882594e+00 4.165798e+00 2.977122e+00 3.176359e+00 2.593429e+00 2.936521e+00 2.927802e+00 2.335773e+00 2.380529e+00 2.274909e+00 3.162548e+00 1.078565e+00 4.527598e-01 4.214263e-01 6.805847e-01 5.430596e-01 5.511286e-01 4.958923e-01 5.392821e-01 5.408387e-01 4.530432e-01 4.593538e-01 3.901064e-01 3.632115e-01
<GCONST> 1.258436e+02
<TRANSP> 5
 0.000000e+00 1.000000e+00 0.000000e+00 0.000000e+00 0.000000e+00
 0.000000e+00 6.563461e-01 3.436539e-01 0.000000e+00 0.000000e+00
 0.000000e+00 0.000000e+00 6.623803e-01 3.376198e-01 0.000000e+00
 0.000000e+00 0.000000e+00 0.000000e+00 8.268399e-01 1.731602e-01
 0.000000e+00 0.000000e+00 0.000000e+00 0.000000e+00 0.000000e+00
<ENDHMM>
~h "g"
<BEGINHMM>
<NUMSTATES> 5
<STATE> 2
<MEAN> 39
 -1.046636e+00 2.094022e-01 5.056469e+00 -2.969827e+00 -9.724236e+00 -4.622914e+00 -1.144669e+01 -3.714039e+00 -4.811904e+00 -7.437146e-01 -1.135870e+00 -6.107346e+00 5.900778e+01 -1.594104e-01 6.123776e-02 1.319443e-01 2.142255e-01 -1.178895e-01 -4.212415e-01 -2.485003e-01 1.243862e-01 -6.907509e-02 -1.677727e-02 2.326083e-01 2.738259e-01 2.264777e-01 -1.549583e-02 -1.346104e-01 -9.413972e-02 -1.696479e-01 -6.214527e-02 1.031392e-01 -4.058124e-03 6.059698e-02 9.860732e-02 -7.491580e-02 4.832587e-02 -6.807213e-02 1.637435e-01
<VARIANCE> 39
 3.542937e+01 6.539651e+01 7.027321e+01 6.366366e+01 8.194285e+01 6.367119e+01 7.583509e+01 8.456116e+01 7.122294e+01 5.565084e+01 6.277478e+01 4.445916e+01 1.101317e+02 2.798198e+00 4.884089e+00 4.548045e+00 4.634534e+00 8.214547e+00 4.192218e+00 5.068604e+00 5.811471e+00 5.995677e+00 3.992222e+00 5.048811e+00 3.862296e+00 8.018564e+00 5.271695e-01 6.531556e-01 7.183797e-01 6.672771e-01 1.622044e+00 7.438625e-01 9.402490e-01 9.891649e-01 1.031940e+00 7.487615e-01 1.001460e+00 7.506295e-01 1.043686e+00
<GCONST> 1.447038e+02
<STATE> 3
<MEAN> 39
 -1.523026e+00 -3.207632e-01 4.984379e+00 -3.250540e+00 -1.038594e+01 -5.333919e+00 -1.220612e+01 -2.992032e+00 -4.569558e+00 -1.016067e+00 -2.961833e-01 -5.679247e+00 6.046520e+01 -1.322533e-01 -2.703029e-01 -1.204880e-01 -3.314491e-01 -3.228716e-01 -4.529717e-02 -1.952845e-01 3.053438e-01 3.146684e-01 -1.772714e-01 2.702477e-01 -1.244362e-02 5.585303e-01 2.152795e-02 -8.936054e-02 -8.913829e-02 -1.685576e-01 5.868960e-04 1.683576e-01 7.691248e-02 2.015769e-02 9.892770e-02 -4.212723e-02 -5.926734e-02 -1.159927e-01 4.680325e-02
<VARIANCE> 39
 3.429589e+01 6.554773e+01 6.905644e+01 6.039538e+01 8.774352e+01 6.316808e+01 7.319538e+01 8.652959e+01 7.426502e+01 5.759117e+01 6.886269e+01 4.245667e+01 1.116175e+02 2.636314e+00 4.635969e+00 4.426482e+00 4.729014e+00 9.061695e+00 4.209938e+00 5.146136e+00 6.125423e+00 6.159417e+00 3.809655e+00 5.618015e+00 4.137237e+00 7.359605e+00 5.086374e-01 5.810823e-01 7.279893e-01 6.599913e-01 1.818222e+00 7.264277e-01 9.426433e-01 1.001899e+00 1.052597e+00 7.209930e-01 1.110353e+00 7.578229e-01 9.590486e-01
<GCONST> 1.448745e+02
<STATE> 4
<MEAN> 39
 -1.719317e+00 -6.222937e-01 4.450510e+00 -4.513189e+00 -1.107378e+01 -4.986504e+00 -1.209064e+01 -2.366918e+00 -3.561874e+00 -1.380898e+00 -3.842832e-01 -5.955492e+00 6.059612e+01 -1.077920e-01 -3.097839e-01 -2.912857e-01 -5.069321e-01 -6.350709e-02 3.231535e-01 6.282536e-02 1.675289e-01 3.548379e-01 -1.935607e-01 -3.200264e-02 -1.954896e-01 3.758952e-01 -2.675899e-02 -4.966552e-02 -6.117911e-02 -3.802488e-02 1.100775e-01 8.928711e-02 3.691144e-02 -4.812061e-02 -5.278613e-02 -3.475454e-03 -5.671592e-02 -1.366801e-02 4.110083e-03
<VARIANCE> 39
 3.540530e+01 7.756863e+01 7.086848e+01 6.014665e+01 7.741165e+01 5.878286e+01 6.714104e+01 8.931252e+01 7.929269e+01 5.280016e+01 6.451836e+01 4.060149e+01 1.393596e+02 2.093370e+00 3.508454e+00 3.501443e+00 3.797447e+00 6.482442e+00 3.470888e+00 4.014378e+00 4.717655e+00 4.764220e+00 3.038075e+00 4.545752e+00 3.405334e+00 4.998739e+00 3.905452e-01 4.868509e-01 5.716717e-01 5.761883e-01 1.277333e+00 5.924631e-01 7.314191e-01 8.019069e-01 8.344950e-01 5.775217e-01 8.556179e-01 5.790077e-01 7.224052e-01
<GCONST> 1.385393e+02
<TRANSP> 5
 0.000000e+00 1.000000e+00 0.000000e+00 0.000000e+00 0.000000e+00
 0.000000e+00 6.094609e-01 3.905391e-01 0.000000e+00 0.000000e+00
 0.000000e+00 0.000000e+00 6.063270e-01 3.936729e-01 0.000000e+00
 0.000000e+00 0.000000e+00 0.000000e+00 6.604589e-01 3.395411e-01
 0.000000e+00 0.000000e+00 0.000000e+00 0.000000e+00 0.000000e+00
<ENDHMM>
~h "h"
<BEGINHMM>
<NUMSTATES> 5
<STATE> 2
<MEAN> 39
 -5.693848e+00 -6.206503e+00 -2.298784e+00 -6.156292e+00 -1.540775e+00 1.420585e+00 -6.212011e+00 -2.453705e+00 -2.661160e+00 -3.801201e+00 -3.909856e+00 -4.467749e+00 6.155748e+01 -3.734154e-01 1.499855e-02 -3.910252e-02 3.531543e-01 5.581018e-01 1.139944e-01 3.428089e-01 -3.324304e-02 4.329514e-02 -1.234514e-01 -5.139024e-02 2.166454e-01 -5.156471e-01 6.246039e-02 3.325345e-03 3.530579e-02 -1.052389e-01 -2.088130e-01 -6.969606e-02 -1.406472e-01 -1.469715e-02 -2.913426e-02 2.930728e-02 5.980659e-02 -8.400831e-02 -9.062614e-03
<VARIANCE> 39
 4.256020e+01 6.526244e+01 6.314098e+01 6.509673e+01 8.271832e+01 5.822225e+01 7.757135e+01 5.632344e+01 5.862389e+01 4.782864e+01 4.731236e+01 4.099915e+01 1.329621e+02 1.911306e+00 3.011477e+00 2.874907e+00 3.587029e+00 3.997972e+00 3.156536e+00 3.568993e+00 3.601711e+00 3.377753e+00 2.887331e+00 2.848116e+00 2.673648e+00 2.642050e+00 2.775842e-01 4.144920e-01 3.976172e-01 5.635806e-01 6.058489e-01 5.389542e-01 6.073975e-01 6.481513e-01 5.823860e-01 5.223930e-01 4.978283e-01 4.455840e-01 3.021797e-01
<GCONST> 1.300387e+02
<STATE> 3
<MEAN> 39
 -6.253221e+00 -6.192365e+00 -2.370362e+00 -5.800040e+00 -1.009766e+00 1.426450e+00 -5.959839e+00 -2.557298e+00 -2.708202e+00 -3.978203e+00 -3.872665e+00 -4.290663e+00 6.045780e+01 -1.398684e-01 9.015068e-02 2.656908e-03 1.034504e-01 5.101093e-02 -7.835619e-02 6.678053e-02 -5.349752e-02 -5.981922e-02 -7.090463e-02 2.128596e-02 2.017756e-02 -5.086942e-01 9.990954e-02 3.208579e-02 2.157859e-02 -1.018221e-01 -2.262970e-01 -7.869484e-02 -1.268808e-01 -9.511933e-03 -3.924089e-02 2.488234e-02 4.208568e-02 -7.734107e-02 1.956864e-02
<VARIANCE> 39
 4.609742e+01 6.625278e+01 6.126197e+01 6.139452e+01 8.077473e+01 5.766880e+01 7.605891e+01 5.366070e+01 5.612151e+01 4.618653e+01 4.479061e+01 3.914415e+01 1.343562e+02 1.986953e+00 2.840638e+00 2.681182e+00 3.401120e+00 3.845531e+00 2.980896e+00 3.362140e+00 3.327560e+00 3.223535e+00 2.750966e+00 2.675535e+00 2.551360e+00 2.867300e+00 2.871756e-01 3.994280e-01 3.903881e-01 5.433644e-01 5.986150e-01 5.276909e-01 5.904675e-01 6.134183e-01 5.647740e-01 5.114089e-01 4.860024e-01 4.342324e-01 3.141610e-01
<GCONST> 1.290365e+02
<STATE> 4
<MEAN> 39
 -7.533157e+00 -6.340931e+00 -3.522052e+00 -5.752471e+00 -1.140140e+00 4.993050e-01 -5.829505e+00 -2.561812e+00 -3.378131e+00 -4.594632e+00 -3.942290e+00 -4.027127e+00 5.476589e+01 9.522925e-02 1.911405e-01 4.896397e-02 -4.849043e-02 -3.142403e-01 -1.777794e-01 -9.334574e-02 -5.870868e-02 -8.626123e-02 -3.698470e-03 4.797090e-02 -8.958276e-02 -3.597194e-01 5.356720e-02 1.943216e-02 3.225370e-02 -3.132892e-02 -9.994648e-02 -2.637511e-02 -6.571000e-02 5.226252e-03 3.222622e-03 1.805630e-02 2.334525e-02 -2.582743e-02 5.604776e-02
<VARIANCE> 39
 4.624329e+01 6.936147e+01 5.498207e+01 5.368969e+01 6.305629e+01 4.845986e+01 6.439203e+01 4.556745e+01 4.919032e+01 3.868624e+01 3.596135e+01 3.668954e+01 1.856747e+02 1.625509e+00 2.326249e+00 2.075169e+00 2.556142e+00 2.829139e+00 2.404002e+00 2.731762e+00 2.636102e+00 2.677748e+00 2.272798e+00 2.184446e+00 2.075386e+00 2.456997e+00 2.461787e-01 3.520787e-01 3.234294e-01 4.263418e-01 4.651775e-01 4.349920e-01 4.830675e-01 4.865797e-01 4.870649e-01 4.225336e-01 4.060167e-01 3.695771e-01 2.906865e-01
<GCONST> 1.226304e+02
<TRANSP> 5
 0.000000e+00 1.000000e+00 0.000000e+00 0.000000e+00 0.000000e+00
 0.000000e+00 5.294919e-01 4.705081e-01 0.000000e+00 0.000000e+00
 0.000000e+00 0.000000e+00 5.280719e-01 4.719280e-01 0.000000e+00
 0.000000e+00 0.000000e+00 0.000000e+00 7.621254e-01 2.378747e-01
 0.000000e+00 0.000000e+00 0.000000e+00 0.000000e+00 0.000000e+00
<ENDHMM>
~h "i"
<BEGINHMM>
<NUMSTATES> 5
<STATE> 2
<MEAN> 39
 -6.679527e+00 4.219920e-01 1.465246e+01 -3.977736e+00 -1.678935e+01 -4.903440e+00 -1.245628e+01 -6.483258e+00 -8.591840e+00 -4.479387e+00 3.148915e+00 -4.889044e+00 6.219434e+01 8.173742e-02 2.313501e-01 1.217468e+00 -1.428536e-01 -1.003300e+00 1.812556e-01 -4.602706e-01 -3.072338e-01 -6.202951e-01 -9.794042e-02 5.618789e-01 -1.647817e-01 4.468766e-01 4.936340e-04 1.938642e-03 -3.811241e-01 -5.350696e-03 2.757111e-01 2.961010e-02 1.344842e-01 8.547370e-02 1.980510e-01 8.449904e-02 -1.687298e-01 -5.383760e-03 -2.317292e-01
<VARIANCE> 39
 3.627109e+01 5.059698e+01 8.224452e+01 4.387640e+01 6.954711e+01 4.868341e+01 5.906112e+01 6.585429e+01 6.671783e+01 6.823680e+01 5.648261e+01 2.953380e+01 8.792140e+01 3.170079e+00 2.797387e+00 6.531589e+00 2.968872e+00 6.084221e+00 3.342219e+00 4.966429e+00 4.449601e+00 4.761731e+00 3.741665e+00 3.803286e+00 2.422769e+00 5.083365e+00 4.760800e-01 4.641154e-01 9.096844e-01 5.257415e-01 1.032533e+00 6.377586e-01 8.444440e-01 7.966942e-01 7.970820e-01 6.481211e-01 6.513802e-01 4.380148e-01 7.120328e-01
<GCONST> 1.367621e+02
<STATE> 3
<MEAN> 39
 -6.463304e+00 1.094129e+00 1.562975e+01 -4.128590e+00 -1.783037e+01 -4.538207e+00 -1.268076e+01 -6.999230e+00 -9.125203e+00 -4.365975e+00 3.578418e+00 -5.218348e+00 6.202678e+01 1.382023e-01 1.505530e-01 -1.825450e-01 5.442522e-02 6.804387e-02 -2.674285e-02 1.408912e-01 1.590480e-02 5.837459e-02 1.091189e-01 -1.103486e-01 -1.571419e-02 -3.570271e-01 1.359309e-03 -2.332444e-02 -3.999236e-01 5.095647e-02 3.401074e-01 -3.283117e-02 1.551228e-01 8.647449e-02 2.034179e-01 4.549171e-02 -2.051861e-01 4.008863e-02 -2.227996e-01
<VARIANCE> 39
 2.926332e+01 4.744926e+01 7.144334e+01 4.186024e+01 6.535278e+01 5.054859e+01 5.722116e+01 6.591460e+01 6.629941e+01 7.121865e+01 5.789395e+01 2.960671e+01 9.290783e+01 2.065915e+00 2.612094e+00 5.024584e+00 2.767544e+00 5.371053e+00 3.156795e+00 4.227710e+00 4.179379e+00 4.159998e+00 3.245384e+00 3.418827e+00 2.130907e+00 4.792622e+00 3.527874e-01 4.286391e-01 7.052439e-01 4.858544e-01 9.449728e-01 6.018013e-01 7.655485e-01 7.427595e-01 7.364858e-01 6.123354e-01 6.106128e-01 4.036108e-01 5.974275e-01
<GCONST> 1.330676e+02
<STATE> 4
<MEAN> 39
 -6.584159e+00 1.733907e+00 1.151038e+01 -3.350001e+00 -1.432302e+01 -4.423909e+00 -1.050450e+01 -6.541233e+00 -8.047673e+00 -3.553934e+00 9.384951e-01 -4.565267e+00 5.582723e+01 8.511815e-02 -4.875647e-02 -8.521213e-01 1.471758e-01 6.153562e-01 -7.075125e-02 3.298819e-01 1.715914e-01 3.538313e-01 8.067090e-02 -4.040021e-01 8.304491e-02 -6.448625e-01 -2.992415e-02 -4.721214e-02 -1.277578e-01 -1.683213e-02 1.255934e-01 3.368699e-02 8.770047e-03 2.535761e-02 6.916882e-02 -5.999471e-03 -5.374979e-02 -2.612329e-03 2.122920e-02
<VARIANCE> 39
 3.363966e+01 4.696662e+01 8.960349e+01 3.983617e+01 7.790355e+01 5.415451e+01 6.581969e+01 6.196271e+01 5.974494e+01 5.273980e+01 5.159311e+01 2.972682e+01 1.608098e+02 1.709244e+00 2.296654e+00 3.269047e+00 2.339987e+00 3.916133e+00 2.830177e+00 3.431316e+00 3.553539e+00 3.421042e+00 2.764198e+00 2.714418e+00 1.951335e+00 3.346165e+00 2.659765e-01 3.611737e-01 4.796098e-01 4.174385e-01 6.986532e-01 5.295450e-01 6.066869e-01 6.240971e-01 5.948168e-01 4.948662e-01 4.912714e-01 3.581612e-01 4.820564e-01
<GCONST> 1.281776e+02
<TRANSP> 5
 0.000000e+00 1.000000e+00 0.000000e+00 0.000000e+00 0.000000e+00
 0.000000e+00 6.974261e-01 3.025739e-01 0.000000e+00 0.000000e+00
 0.000000e+00 0.000000e+00 6.867746e-01 3.132254e-01 0.000000e+00
 0.000000e+00 0.000000e+00 0.000000e+00 8.184456e-01 1.815544e-01
 0.000000e+00 0.000000e+00 0.000000e+00 0.000000e+00 0.000000e+00
<ENDHMM>
~h "j"
<BEGINHMM>
<NUMSTATES> 5
<STATE> 2
<MEAN> 39
 -4.611249e+00 5.025228e+00 8.847666e+00 -1.270266e+00 -8.503860e+00 -5.728495e+00 -8.552624e+00 -2.182359e+00 -4.262353e+00 -4.611314e+00 -1.101103e+00 -3.116200e+00 5.677408e+01 -6.121130e-01 4.971795e-01 3.404150e-01 6.874298e-02 2.842816e-01 -2.098701e-01 3.316220e-01 -7.598893e-02 5.303015e-04 -3.187278e-02 9.651997e-02 3.148424e-01 1.728188e-01 -7.909934e-02 -3.083514e-01 -1.043370e-01 -1.340299e-01 -1.428689e-01 -1.153312e-03 -1.724861e-01 -6.616190e-03 1.476678e-02 3.977114e-02 8.496250e-02 -7.696060e-03 3.869945e-01
<VARIANCE> 39
 6.511728e+01 6.388552e+01 5.045298e+01 3.836398e+01 7.126048e+01 4.400188e+01 6.259299e+01 5.447208e+01 4.618474e+01 3.544219e+01 3.788297e+01 2.989413e+01 1.022978e+02 8.264698e+00 5.570626e+00 4.280839e+00 3.505828e+00 7.666497e+00 3.665739e+00 5.746432e+00 5.213086e+00 4.273196e+00 2.987234e+00 3.544253e+00 3.278177e+00 9.236128e+00 1.811770e+00 7.347928e-01 8.003260e-01 6.162790e-01 1.559692e+00 7.516688e-01 1.032175e+00 1.023640e+00 8.106144e-01 5.844390e-01 7.003464e-01 6.896607e-01 1.251059e+00
<GCONST> 1.418629e+02
<STATE> 3
<MEAN> 39
 -7.395744e+00 4.049617e+00 9.501952e+00 -2.008170e+00 -9.311617e+00 -6.749162e+00 -9.158787e+00 -2.376297e+00 -4.269494e+00 -4.500466e+00 1.701032e-01 -1.767068e+00 6.081421e+01 -2.328329e-01 -1.009105e+00 1.854810e-02 -3.525335e-01 -8.666903e-01 -3.277912e-01 -6.256788e-01 3.460262e-01 1.047551e-01 3.581508e-02 4.674964e-01 2.014894e-01 1.483375e+00 2.832853e-01 -2.913555e-01 -1.741821e-01 -8.818941e-02 -1.331170e-01 7.029206e-02 -1.541534e-01 1.529254e-01 8.646157e-02 3.213507e-02 -3.007769e-02 -1.807202e-01 8.030383e-02
<VARIANCE> 39
 7.424476e+01 6.489693e+01 4.679163e+01 3.642351e+01 8.483459e+01 4.275187e+01 5.934056e+01 5.336257e+01 4.358658e+01 3.362110e+01 3.952422e+01 2.770008e+01 1.020332e+02 1.109146e+01 6.311646e+00 4.806831e+00 3.516205e+00 1.096249e+01 4.133721e+00 6.217469e+00 7.102564e+00 4.503585e+00 3.010068e+00 4.121663e+00 3.558525e+00 6.933734e+00 2.203625e+00 8.202164e-01 9.669120e-01 6.330637e-01 2.242808e+00 8.769959e-01 1.173608e+00 1.251361e+00 8.310158e-01 5.894716e-01 8.627701e-01 7.226787e-01 1.107671e+00
<GCONST> 1.447527e+02
<STATE> 4
<MEAN> 39
 -6.103912e+00 -3.898360e-01 8.602069e+00 -3.456860e+00 -1.268982e+01 -7.537788e+00 -1.168915e+01 -3.415713e-01 -3.889462e+00 -3.752136e+00 8.278325e-01 -2.145269e+00 6.395586e+01 5.539241e-01 -1.189796e+00 -6.444364e-01 -4.662409e-01 -3.746340e-01 1.790611e-01 -5.222800e-01 5.522419e-01 3.657233e-01 1.355846e-01 -7.282864e-02 -5.132334e-01 8.403813e-01 7.768362e-02 9.154551e-02 -1.845908e-01 -4.803085e-02 3.166271e-01 2.037967e-01 9.045094e-02 -1.273691e-01 1.257893e-02 4.414629e-02 -1.477202e-01 -1.862058e-01 -2.194164e-01
<VARIANCE> 39
 5.257938e+01 7.651941e+01 5.600943e+01 4.774923e+01 7.814999e+01 3.987984e+01 6.267738e+01 7.509919e+01 5.331792e+01 3.769628e+01 4.428253e+01 2.902755e+01 1.172770e+02 5.905571e+00 4.641765e+00 4.450223e+00 3.187770e+00 8.414292e+00 3.892589e+00 5.403322e+00 6.281780e+00 4.194791e+00 2.889590e+00 4.445575e+00 3.585999e+00 4.051785e+00 1.174399e+00 6.806819e-01 7.253125e-01 5.481189e-01 1.679387e+00 7.657627e-01 1.013067e+00 1.064412e+00 7.098746e-01 5.440523e-01 7.863254e-01 5.955405e-01 5.776227e-01
<GCONST> 1.404608e+02
<TRANSP> 5
 0.000000e+00 1.000000e+00 0.000000e+00 0.000000e+00 0.000000e+00
 0.000000e+00 7.548755e-01 2.451244e-01 0.000000e+00 0.000000e+00
 0.000000e+00 0.000000e+00 7.520190e-01 2.479811e-01 0.000000e+00
 0.000000e+00 0.000000e+00 0.000000e+00 7.439671e-01 2.560329e-01
 0.000000e+00 0.000000e+00 0.000000e+00 0.000000e+00 0.000000e+00
<ENDHMM>
~h "k"
<BEGINHMM>
<NUMSTATES> 5
<STATE> 2
<MEAN> 39
 -6.554635e+00 -1.700696e+00 -2.045209e+00 -4.872358e+00 -5.710999e+00 -4.522307e+00 -7.810248e+00 -3.475464e+00 -4.128402e+00 -9.291734e-01 -3.687402e+00 -5.036693e+00 4.916075e+01 -5.379936e-01 -3.354998e-01 -6.721289e-01 1.207835e-01 5.074558e-01 -3.160539e-01 -4.266537e-02 1.434473e-01 1.198179e-01 1.178091e-01 -1.920183e-01 2.879763e-01 -2.320027e-01 4.397891e-02 -2.258928e-01 -5.883310e-02 -1.944987e-01 -4.199045e-02 7.085361e-02 -1.108696e-01 9.759313e-02 1.432329e-02 -1.281412e-02 5.437512e-02 -5.379413e-02 6.791548e-01
<VARIANCE> 39
 4.471338e+01 6.218465e+01 7.172617e+01 5.691370e+01 6.084960e+01 5.727250e+01 6.227295e+01 5.811078e+01 5.268064e+01 4.395582e+01 4.351970e+01 4.289906e+01 1.539219e+02 3.065360e+00 5.616490e+00 5.479962e+00 4.542063e+00 5.411274e+00 4.573776e+00 4.548031e+00 4.695446e+00 4.466854e+00 3.989950e+00 3.521156e+00 3.460902e+00 1.578486e+01 5.639771e-01 9.421508e-01 1.018256e+00 8.150696e-01 1.070345e+00 8.916287e-01 9.008211e-01 8.464545e-01 8.554583e-01 7.907333e-01 6.955511e-01 6.927580e-01 2.135393e+00
<GCONST> 1.435594e+02
<STATE> 3
<MEAN> 39
 -7.669621e+00 -3.591799e+00 -4.166426e+00 -5.467743e+00 -4.554850e+00 -5.179368e+00 -8.410176e+00 -2.618070e+00 -3.817616e+00 -5.356054e-01 -3.974195e+00 -4.547258e+00 5.174199e+01 -1.002297e-01 -6.637218e-01 -4.983830e-01 -4.633716e-01 1.642711e-01 -8.003341e-02 -2.901543e-01 3.798756e-01 9.952638e-02 7.867683e-02 -1.755864e-02 -3.941842e-02 1.646940e+00 2.416091e-01 3.403709e-03 2.412572e-01 -1.607749e-01 -2.212383e-01 1.620572e-01 -1.856072e-02 3.614097e-02 1.191071e-03 -8.231083e-02 1.094507e-01 -1.761277e-01 4.118027e-01
<VARIANCE> 39
 4.609116e+01 6.292730e+01 8.024078e+01 5.791938e+01 6.367209e+01 6.013683e+01 6.317061e+01 5.433276e+01 5.108767e+01 4.417429e+01 4.352518e+01 4.315972e+01 1.698840e+02 4.412510e+00 6.065743e+00 7.729097e+00 5.279128e+00 6.537738e+00 5.354735e+00 5.047626e+00 5.225702e+00 5.032331e+00 4.290726e+00 3.979062e+00 4.386195e+00 1.751962e+01 7.587132e-01 1.069924e+00 1.442262e+00 9.167567e-01 1.297233e+00 9.978574e-01 9.978148e-01 9.302274e-01 9.359643e-01 8.444209e-01 7.696073e-01 8.122804e-01 2.503072e+00
<GCONST> 1.479662e+02
<STATE> 4
<MEAN> 39
 -7.503041e+00 -4.346649e+00 -3.943201e+00 -6.396504e+00 -4.856139e+00 -4.704249e+00 -8.359483e+00 -1.645990e+00 -3.614185e+00 -9.614514e-01 -3.812662e+00 -4.848061e+00 5.397279e+01 4.399586e-01 -3.245316e-01 2.415751e-01 -5.353266e-01 -3.320822e-01 3.149322e-01 -1.544636e-01 2.421998e-01 7.132655e-02 -1.706796e-01 2.175963e-01 -3.760211e-01 1.570081e+00 1.505261e-01 3.312554e-02 1.837363e-01 -4.847065e-03 -1.365426e-01 1.347025e-01 2.677247e-02 -4.696454e-02 5.958735e-03 -8.568048e-02 9.175763e-02 -8.918203e-02 -3.262385e-02
<VARIANCE> 39
 4.993533e+01 6.346309e+01 7.483962e+01 5.753056e+01 5.715775e+01 5.559487e+01 5.942945e+01 5.195613e+01 5.090923e+01 4.368496e+01 4.292563e+01 4.509659e+01 1.991096e+02 4.208865e+00 4.834902e+00 6.377901e+00 4.609139e+00 5.342869e+00 4.677942e+00 4.424101e+00 4.627577e+00 4.509066e+00 3.804368e+00 3.710031e+00 4.046151e+00 1.119770e+01 7.180703e-01 8.195565e-01 1.203346e+00 7.997405e-01 1.053997e+00 8.406494e-01 8.494168e-01 8.154131e-01 8.152167e-01 7.296385e-01 6.981541e-01 7.177719e-01 1.692891e+00
<GCONST> 1.436320e+02
<TRANSP> 5
 0.000000e+00 1.000000e+00 0.000000e+00 0.000000e+00 0.000000e+00
 0.000000e+00 6.198378e-01 3.801622e-01 0.000000e+00 0.000000e+00
 0.000000e+00 0.000000e+00 6.371028e-01 3.628972e-01 0.000000e+00
 0.000000e+00 0.000000e+00 0.000000e+00 6.646052e-01 3.353948e-01
 0.000000e+00 0.000000e+00 0.000000e+00 0.000000e+00 0.000000e+00
<ENDHMM>
~h "l"
<BEGINHMM>
<NUMSTATES> 5
<STATE> 2
<MEAN> 39
 -3.444328e-01 -6.291965e+00 -1.110072e+00 -1.136333e+01 -8.808525e+00 5.779235e-01 -1.545990e+01 -7.191286e+00 5.647123e-01 1.865933e-01 8.966810e-01 -7.668564e+00 6.623584e+01 2.220915e-01 -4.266917e-02 3.767433e-03 -3.366807e-01 1.065505e-01 1.261973e-01 -4.355572e-01 -2.614347e-01 2.473392e-01 3.599072e-01 9.743243e-02 -1.170040e-01 1.168265e-02 -1.092545e-01 2.870394e-02 7.647459e-03 4.729911e-02 -7.087099e-03 -2.344597e-02 1.622463e-01 1.716576e-01 -1.205932e-01 -1.256723e-01 -5.875687e-02 1.693646e-02 -4.055785e-02
<VARIANCE> 39
 2.680822e+01 5.400138e+01 7.446678e+01 8.768610e+01 5.364603e+01 6.886988e+01 9.856615e+01 9.647014e+01 8.372517e+01 6.783484e+01 6.239981e+01 5.094254e+01 8.173787e+01 1.495727e+00 2.302978e+00 2.696374e+00 4.187260e+00 3.806875e+00 3.893011e+00 4.375708e+00 5.688950e+00 3.930427e+00 3.983334e+00 3.782174e+00 2.752550e+00 2.176915e+00 2.438277e-01 3.427059e-01 3.638520e-01 6.195520e-01 6.537939e-01 6.310976e-01 7.633012e-01 9.552098e-01 6.923153e-01 6.991403e-01 6.946816e-01 4.722503e-01 2.604901e-01
<GCONST> 1.333105e+02
<STATE> 3
<MEAN> 39
 -1.696486e-01 -6.327805e+00 -1.157829e+00 -1.196646e+01 -8.511143e+00 8.056046e-01 -1.591973e+01 -7.218950e+00 7.169085e-01 5.532892e-01 8.987517e-01 -7.895997e+00 6.617223e+01 -6.255692e-02 -4.813168e-02 -3.341294e-02 -9.402156e-02 1.106488e-01 2.034781e-02 7.435246e-02 2.781374e-01 -4.492442e-02 -7.605157e-02 -1.647014e-01 -8.607704e-02 -2.786624e-02 -1.144188e-01 9.818778e-03 -1.312520e-02 1.051206e-01 -1.182126e-02 -3.039625e-02 2.198027e-01 1.819928e-01 -1.116995e-01 -1.705008e-01 -9.284954e-02 2.605882e-02 -2.168345e-02
<VARIANCE> 39
 2.492201e+01 5.292607e+01 7.690962e+01 8.808540e+01 5.287789e+01 6.785992e+01 1.027596e+02 9.563589e+01 8.366550e+01 6.945227e+01 6.242837e+01 5.122221e+01 8.024117e+01 1.256003e+00 2.311014e+00 2.541288e+00 3.871850e+00 3.445854e+00 3.761322e+00 4.420732e+00 5.781737e+00 3.714081e+00 4.068074e+00 3.909570e+00 2.762601e+00 2.179573e+00 2.009839e-01 3.397949e-01 3.404310e-01 5.939035e-01 6.317115e-01 6.248043e-01 7.844850e-01 9.689053e-01 6.745563e-01 7.139721e-01 7.148505e-01 4.802473e-01 2.401030e-01
<GCONST> 1.325000e+02
<STATE> 4
<MEAN> 39
 -7.613461e-01 -6.080590e+00 -1.909636e+00 -1.184904e+01 -7.486342e+00 9.228985e-01 -1.434535e+01 -5.513180e+00 -3.042460e-01 -3.681864e-01 -2.032415e-01 -8.130158e+00 6.479457e+01 -2.643047e-01 1.393054e-02 5.187931e-03 2.695497e-01 5.110795e-02 -1.095469e-01 4.622942e-01 4.257587e-01 -2.328052e-01 -3.795940e-01 -3.282537e-01 3.001972e-02 -2.240038e-01 -5.680361e-02 4.215748e-02 3.278775e-02 8.868265e-02 -3.329175e-02 -2.696740e-02 1.046285e-01 1.988587e-02 -5.417808e-02 -6.373172e-02 -3.215024e-03 4.239909e-02 -4.803491e-02
<VARIANCE> 39
 2.794482e+01 6.164628e+01 8.273994e+01 8.577551e+01 5.655993e+01 7.083095e+01 9.700555e+01 8.267177e+01 7.465730e+01 6.668634e+01 6.221321e+01 5.274435e+01 1.127795e+02 1.074671e+00 2.256410e+00 2.298306e+00 3.324755e+00 3.327683e+00 3.427810e+00 3.918861e+00 4.597507e+00 3.463664e+00 3.647927e+00 3.555382e+00 2.600437e+00 2.130151e+00 1.762943e-01 3.196080e-01 3.137644e-01 5.169367e-01 5.496956e-01 5.697521e-01 6.810652e-01 7.871819e-01 5.945190e-01 6.478637e-01 6.300786e-01 4.420472e-01 2.432461e-01
<GCONST> 1.302520e+02
<TRANSP> 5
 0.000000e+00 1.000000e+00 0.000000e+00 0.000000e+00 0.000000e+00
 0.000000e+00 5.756568e-01 4.243432e-01 0.000000e+00 0.000000e+00
 0.000000e+00 0.000000e+00 5.804170e-01 4.195830e-01 0.000000e+00
 0.000000e+00 0.000000e+00 0.000000e+00 6.897246e-01 3.102754e-01
 0.000000e+00 0.000000e+00 0.000000e+00 0.000000e+00 0.000000e+00
<ENDHMM>
~h "m"
<BEGINHMM>
<NUMSTATES> 5
<STATE> 2
<MEAN> 39
 -2.557305e-01 -3.375504e+00 2.636349e+00 -5.759336e+00 -7.254889e+00 2.761602e+00 -1.007100e+01 -7.900265e+00 -7.315963e+00 -2.735852e+00 -1.908134e+00 -7.616354e+00 5.996809e+01 1.282256e-01 4.068700e-01 5.939290e-01 5.193480e-01 1.596986e-01 2.980333e-01 8.953423e-02 -7.164234e-01 -6.350674e-01 -6.271324e-02 -1.366799e-01 5.759557e-02 -3.010303e-01 -6.863178e-02 -7.058065e-02 -7.483096e-02 -9.266630e-02 -4.011673e-02 -7.475536e-02 -2.984654e-02 1.509742e-01 1.310028e-01 -1.754492e-02 1.002879e-02 1.096942e-02 1.145179e-01
<VARIANCE> 39
 3.454821e+01 5.483970e+01 6.906340e+01 6.714085e+01 5.302370e+01 6.054075e+01 8.433135e+01 8.703364e+01 1.013722e+02 5.312488e+01 5.944497e+01 4.911443e+01 1.096301e+02 1.245668e+00 2.553632e+00 4.259316e+00 4.302023e+00 2.659071e+00 2.897006e+00 3.458460e+00 5.158942e+00 5.009701e+00 2.778063e+00 3.970215e+00 2.710724e+00 3.005776e+00 2.135078e-01 3.506696e-01 6.526302e-01 6.958337e-01 4.528087e-01 4.598364e-01 5.752540e-01 8.384965e-01 7.745180e-01 4.898850e-01 6.887268e-01 4.577546e-01 3.327411e-01
<GCONST> 1.321035e+02
<STATE> 3
<MEAN> 39
 -3.852813e-02 -2.815326e+00 3.676833e+00 -5.115616e+00 -7.087162e+00 3.332651e+00 -1.007369e+01 -8.896612e+00 -8.325350e+00 -2.947024e+00 -2.115378e+00 -7.614857e+00 6.000523e+01 1.313886e-02 1.172739e-01 1.470892e-01 9.766751e-02 5.715018e-02 1.074198e-01 2.805860e-02 -9.552733e-02 -1.069281e-01 -6.672101e-02 -3.968404e-02 -1.990721e-02 2.561686e-03 -4.628155e-02 -1.105703e-01 -1.920658e-01 -1.589197e-01 -4.356868e-02 -8.143909e-02 -2.226765e-02 2.519511e-01 2.273413e-01 6.147348e-03 3.547861e-02 -2.671971e-02 9.353879e-02
<VARIANCE> 39
 3.103218e+01 4.949651e+01 6.364906e+01 6.276583e+01 5.190701e+01 6.145427e+01 8.734197e+01 8.650107e+01 1.091538e+02 5.427380e+01 6.171405e+01 4.900941e+01 9.409976e+01 1.053959e+00 2.485332e+00 4.341891e+00 4.368375e+00 2.415976e+00 2.650363e+00 3.195346e+00 5.110797e+00 4.869167e+00 2.613774e+00 3.826677e+00 2.627990e+00 3.042411e+00 1.792753e-01 3.204611e-01 6.375785e-01 6.750543e-01 4.343891e-01 4.373726e-01 5.600062e-01 8.022228e-01 7.575684e-01 4.723549e-01 6.837454e-01 4.538240e-01 3.056489e-01
<GCONST> 1.305264e+02
<STATE> 4
<MEAN> 39
 -6.169940e-01 -2.981377e+00 2.994455e+00 -5.256394e+00 -6.357450e+00 3.195225e+00 -9.607389e+00 -6.994966e+00 -8.928303e+00 -2.998574e+00 -2.649772e+00 -7.681428e+00 5.867778e+01 -9.451737e-02 -6.115187e-02 -2.961970e-01 -1.995433e-01 -4.909293e-02 -8.528776e-02 2.098631e-02 3.783690e-01 4.346817e-01 -1.649177e-02 5.898993e-02 -6.816362e-02 2.568089e-02 -3.744721e-02 -5.395611e-02 -8.985319e-02 -6.791387e-02 -3.370868e-02 -6.144876e-02 -1.887487e-02 1.150506e-01 1.305019e-01 5.484188e-03 2.224499e-02 2.992532e-03 2.941928e-02
<VARIANCE> 39
 3.507228e+01 5.511280e+01 6.798685e+01 6.503121e+01 5.840237e+01 6.253382e+01 7.964695e+01 7.855619e+01 1.151186e+02 5.032449e+01 5.833066e+01 5.147276e+01 1.251120e+02 9.188642e-01 2.192623e+00 3.413213e+00 3.563605e+00 2.415150e+00 2.448268e+00 2.977571e+00 3.985506e+00 4.300007e+00 2.390803e+00 3.340759e+00 2.374887e+00 2.693389e+00 1.548603e-01 3.066465e-01 5.413718e-01 6.012500e-01 4.182445e-01 4.242543e-01 5.110506e-01 6.630878e-01 6.921055e-01 4.244981e-01 6.049163e-01 4.073477e-01 2.838039e-01
<GCONST> 1.280595e+02
<TRANSP> 5
 0.000000e+00 1.000000e+00 0.000000e+00 0.000000e+00 0.000000e+00
 0.000000e+00 5.781045e-01 4.218955e-01 0.000000e+00 0.000000e+00
 0.000000e+00 0.000000e+00 5.896267e-01 4.103733e-01 0.000000e+00
 0.000000e+00 0.000000e+00 0.000000e+00 7.614498e-01 2.385502e-01
 0.000000e+00 0.000000e+00 0.000000e+00 0.000000e+00 0.000000e+00
<ENDHMM>
~h "n"
<BEGINHMM>
<NUMSTATES> 5
<STATE> 2
<MEAN> 39
 -5.395256e-02 -4.715020e+00 4.754558e+00 -4.130889e+00 -9.968422e+00 -3.522486e+00 -1.245969e+01 -4.175526e+00 -2.728125e+00 -5.372973e-01 -5.693962e+00 -7.242068e+00 6.303584e+01 1.791535e-01 8.964987e-01 8.164911e-01 7.296836e-01 -4.902681e-02 -2.847075e-01 -6.891602e-02 -1.058774e+00 -2.479023e-01 5.352353e-01 -4.090585e-01 2.691223e-01 -8.239695e-01 -8.556604e-02 -1.025996e-02 -9.983940e-02 -1.220027e-01 5.520962e-02 8.028634e-02 8.378597e-02 2.057443e-02 -4.482795e-02 -6.218712e-02 9.718189e-02 -1.439379e-03 2.019631e-02
<VARIANCE> 39
 2.310774e+01 6.290134e+01 6.988967e+01 6.124080e+01 5.857726e+01 4.895679e+01 8.757487e+01 1.148483e+02 9.825647e+01 7.190977e+01 6.282667e+01 4.571040e+01 8.090819e+01 1.149504e+00 3.700430e+00 4.335411e+00 3.796433e+00 3.159870e+00 3.541850e+00 4.595354e+00 8.309975e+00 4.688102e+00 4.650995e+00 3.511556e+00 2.758336e+00 3.402235e+00 1.881472e-01 5.666595e-01 6.602638e-01 5.966693e-01 5.498595e-01 6.088782e-01 7.517061e-01 1.508949e+00 8.022642e-01 8.448904e-01 6.120026e-01 4.753647e-01 4.350077e-01
<GCONST> 1.360064e+02
<STATE> 3
<MEAN> 39
 3.101518e-02 -2.809513e+00 6.197947e+00 -2.977205e+00 -9.849044e+00 -3.813564e+00 -1.229368e+01 -6.411706e+00 -3.379175e+00 3.314915e-01 -6.311726e+00 -6.698855e+00 6.131783e+01 -7.728139e-02 5.713352e-01 2.470305e-01 2.632581e-01 1.407979e-01 2.778123e-02 1.860122e-01 -4.485625e-01 -2.549636e-01 7.934786e-02 -1.080148e-01 1.873353e-01 -5.890192e-01 -1.050181e-01 -1.304570e-01 -2.288475e-01 -1.608779e-01 7.212204e-02 1.003093e-01 8.403655e-02 2.666339e-01 9.171808e-03 -1.743420e-01 1.226264e-01 -3.576712e-02 7.691429e-02
<VARIANCE> 39
 2.310797e+01 5.400708e+01 6.146824e+01 5.784585e+01 5.675273e+01 4.910624e+01 9.671938e+01 1.025953e+02 1.037883e+02 6.958171e+01 6.169040e+01 4.625040e+01 7.265823e+01 1.136273e+00 3.701587e+00 4.213155e+00 3.560162e+00 3.006369e+00 3.406332e+00 4.376711e+00 8.576767e+00 4.446381e+00 4.677516e+00 3.338140e+00 2.724706e+00 3.356968e+00 1.921280e-01 5.114610e-01 6.263621e-01 5.562438e-01 5.412064e-01 6.032677e-01 7.480575e-01 1.381549e+00 7.817585e-01 8.072264e-01 5.975313e-01 4.779468e-01 4.100727e-01
<GCONST> 1.347290e+02
<STATE> 4
<MEAN> 39
 -6.975983e-01 -1.302472e+00 6.045272e+00 -1.888902e+00 -8.316039e+00 -3.607026e+00 -1.043524e+01 -6.100766e+00 -4.869815e+00 -6.564126e-02 -6.894920e+00 -5.725571e+00 5.800294e+01 -3.390407e-01 2.394772e-01 -3.119890e-01 -1.851382e-02 2.712687e-01 2.170842e-01 2.996559e-01 1.330965e-01 -8.701684e-02 -3.493275e-01 1.844344e-01 9.355793e-02 -5.957204e-01 -9.779211e-02 -9.263235e-02 -1.278655e-01 -8.999097e-02 2.661881e-02 1.920013e-02 6.681928e-03 1.388821e-01 4.558597e-02 -9.249259e-02 9.223893e-02 -2.298873e-02 3.645264e-02
<VARIANCE> 39
 2.808877e+01 5.627056e+01 5.892396e+01 6.105106e+01 6.452683e+01 4.823482e+01 1.080077e+02 8.315485e+01 9.787009e+01 6.386167e+01 6.199255e+01 4.600090e+01 1.027024e+02 1.203018e+00 2.923126e+00 2.959334e+00 2.860747e+00 2.866011e+00 2.961044e+00 3.700373e+00 5.267136e+00 3.786675e+00 3.660051e+00 3.016707e+00 2.349610e+00 2.971964e+00 2.122889e-01 4.371246e-01 4.681830e-01 4.744327e-01 5.115691e-01 5.352124e-01 6.477714e-01 9.387746e-01 6.694810e-01 6.591094e-01 5.398343e-01 4.250175e-01 3.849915e-01
<GCONST> 1.309638e+02
<TRANSP> 5
 0.000000e+00 1.000000e+00 0.000000e+00 0.000000e+00 0.000000e+00
 0.000000e+00 6.186179e-01 3.813820e-01 0.000000e+00 0.000000e+00
 0.000000e+00 0.000000e+00 6.160290e-01 3.839709e-01 0.000000e+00
 0.000000e+00 0.000000e+00 0.000000e+00 7.348357e-01 2.651643e-01
 0.000000e+00 0.000000e+00 0.000000e+00 0.000000e+00 0.000000e+00
<ENDHMM>
~h "o"
<BEGINHMM>
<NUMSTATES> 5
<STATE> 2
<MEAN> 39
 -2.455396e-02 -3.155743e+00 -5.149017e+00 -1.562516e+01 -1.054238e+01 4.953930e+00 -1.246096e+01 -5.226906e+00 -2.760077e+00 -1.393165e+00 3.617883e+00 -5.178815e+00 6.394712e+01 6.558327e-01 -1.855299e-01 -3.463059e-01 -1.476409e+00 -4.102206e-01 1.124712e+00 -2.714965e-02 6.420401e-02 9.378044e-02 -8.518093e-02 6.636698e-01 -1.259553e-01 7.514948e-01 -1.599236e-01 5.272830e-02 1.620783e-01 2.977843e-01 1.205387e-01 -1.915900e-01 1.043736e-01 -1.960519e-02 -2.594200e-02 -2.738774e-02 -1.574751e-01 1.083625e-02 -2.820980e-01
<VARIANCE> 39
 3.313214e+01 4.783313e+01 6.486632e+01 1.105287e+02 5.786703e+01 7.121214e+01 9.154755e+01 6.523524e+01 6.724230e+01 6.440791e+01 5.777717e+01 4.527571e+01 9.837907e+01 2.981611e+00 2.597423e+00 4.205049e+00 7.694086e+00 4.689298e+00 5.349140e+00 4.114308e+00 4.219619e+00 4.091872e+00 4.235505e+00 4.026431e+00 2.980764e+00 5.781188e+00 5.119744e-01 4.394470e-01 6.557001e-01 1.184719e+00 8.019255e-01 9.018751e-01 7.347404e-01 7.425377e-01 7.270535e-01 7.536688e-01 6.715637e-01 5.313745e-01 7.635294e-01
<GCONST> 1.398898e+02
<STATE> 3
<MEAN> 39
 1.047468e+00 -3.398746e+00 -5.521527e+00 -1.799331e+01 -1.088573e+01 6.748644e+00 -1.206559e+01 -5.137258e+00 -2.649613e+00 -1.828061e+00 4.494180e+00 -5.519542e+00 6.470419e+01 1.740947e-01 -2.310574e-02 5.750086e-02 -3.873458e-02 4.829512e-02 8.398792e-02 9.897798e-02 -1.359810e-02 4.143769e-02 1.343665e-02 -3.371835e-02 -1.082871e-01 -1.111212e-01 -1.559285e-01 7.434768e-02 1.316916e-01 4.532442e-01 1.282101e-01 -3.296212e-01 3.067269e-02 -1.667789e-02 -8.588450e-03 2.236798e-02 -2.294391e-01 2.217635e-02 -2.688950e-01
<VARIANCE> 39
 2.560799e+01 4.772602e+01 5.709040e+01 1.027121e+02 5.183934e+01 6.486545e+01 9.090109e+01 6.367540e+01 6.775523e+01 6.690617e+01 5.764137e+01 4.739202e+01 8.745277e+01 1.785652e+00 2.380196e+00 2.860463e+00 7.245182e+00 3.649684e+00 4.714667e+00 3.534389e+00 3.621646e+00 3.608222e+00 3.816710e+00 3.662131e+00 2.614160e+00 4.997003e+00 3.260533e-01 3.862819e-01 4.966588e-01 9.917318e-01 6.844015e-01 7.355559e-01 6.364756e-01 6.678728e-01 6.509176e-01 7.003138e-01 6.181350e-01 4.869505e-01 5.737562e-01
<GCONST> 1.345490e+02
<STATE> 4
<MEAN> 39
 8.788282e-01 -2.509824e+00 -4.930816e+00 -1.616864e+01 -9.705434e+00 5.112939e+00 -1.120818e+01 -4.781588e+00 -3.079485e+00 -1.688494e+00 2.743414e+00 -5.591275e+00 6.118009e+01 -2.168393e-01 1.400290e-01 3.324977e-01 1.047437e+00 2.877272e-01 -6.980350e-01 1.009644e-01 -9.331004e-02 5.716877e-02 1.054242e-01 -5.362226e-01 -1.220376e-02 -7.304390e-01 -9.059680e-02 3.966532e-02 8.533534e-02 1.816746e-01 4.248245e-02 -1.275683e-01 2.592211e-03 -2.184051e-03 -5.461041e-03 -2.034502e-02 -8.440924e-02 2.815345e-02 -7.245581e-02
<VARIANCE> 39
 3.169405e+01 5.261592e+01 5.905085e+01 1.094424e+02 5.301273e+01 6.594837e+01 8.722536e+01 5.406742e+01 6.025887e+01 5.682059e+01 5.677517e+01 4.427509e+01 1.299612e+02 1.389897e+00 2.052680e+00 2.431033e+00 5.032689e+00 3.028089e+00 3.510982e+00 3.234136e+00 3.138487e+00 3.089805e+00 3.070490e+00 2.992063e+00 2.292181e+00 3.199817e+00 2.312425e-01 3.344784e-01 3.852337e-01 7.645233e-01 5.414287e-01 5.875951e-01 5.648900e-01 5.612522e-01 5.511270e-01 5.506014e-01 5.261061e-01 4.114374e-01 4.384235e-01
<GCONST> 1.292728e+02
<TRANSP> 5
 0.000000e+00 1.000000e+00 0.000000e+00 0.000000e+00 0.000000e+00
 0.000000e+00 6.851550e-01 3.148450e-01 0.000000e+00 0.000000e+00
 0.000000e+00 0.000000e+00 6.856777e-01 3.143222e-01 0.000000e+00
 0.000000e+00 0.000000e+00 0.000000e+00 7.901707e-01 2.098292e-01
 0.000000e+00 0.000000e+00 0.000000e+00 0.000000e+00 0.000000e+00
<ENDHMM>
~h "p"
<BEGINHMM>
<NUMSTATES> 5
<STATE> 2
<MEAN> 39
 -4.353920e+00 -5.480793e-01 -1.531373e+00 -5.331446e+00 -5.677817e+00 -1.497052e+00 -7.477422e+00 -5.020243e+00 -3.576628e+00 -2.214859e+00 -2.631232e+00 -6.019564e+00 4.661928e+01 -3.990356e-01 4.245227e-02 -3.196989e-01 8.667037e-02 1.051884e-01 -1.378378e-01 1.310277e-01 4.011830e-02 2.010761e-01 -1.397190e-02 3.594384e-02 1.841477e-01 -6.850398e-01 4.478918e-02 -2.754291e-01 -4.371583e-02 -1.731320e-01 -8.887712e-02 6.129927e-02 -1.137253e-01 6.028076e-02 2.068514e-02 -9.780765e-03 7.362849e-02 -5.481952e-02 7.037570e-01
<VARIANCE> 39
 4.613284e+01 5.499462e+01 4.843465e+01 5.373745e+01 3.997426e+01 5.079247e+01 5.021867e+01 4.094213e+01 4.249697e+01 3.260758e+01 3.475918e+01 4.100780e+01 1.524781e+02 2.732665e+00 4.146235e+00 2.723956e+00 3.762429e+00 3.004338e+00 3.743378e+00 3.147666e+00 3.265238e+00 3.234771e+00 2.778239e+00 2.901495e+00 2.734254e+00 1.492367e+01 5.059642e-01 6.203184e-01 4.753594e-01 6.959432e-01 5.804028e-01 7.343371e-01 5.835075e-01 6.142061e-01 5.789871e-01 5.370085e-01 5.659753e-01 5.461009e-01 1.890019e+00
<GCONST> 1.327728e+02
<STATE> 3
<MEAN> 39
 -4.887499e+00 -1.740472e+00 -2.645762e+00 -6.161781e+00 -5.788541e+00 -1.275259e+00 -7.511457e+00 -4.728624e+00 -3.044425e+00 -2.289943e+00 -2.141540e+00 -5.990122e+00 4.848228e+01 9.165856e-03 -7.721442e-01 -4.431831e-01 -4.932199e-01 -1.398062e-01 1.661957e-01 -1.749813e-01 1.867864e-01 1.768234e-01 -6.028459e-03 2.556004e-01 -1.317957e-01 1.579966e+00 1.613344e-01 -2.052962e-01 3.812508e-02 -1.534960e-01 -9.510404e-02 8.336675e-02 -1.031519e-01 5.373973e-02 -2.980209e-02 2.393355e-03 4.476093e-02 -1.133489e-01 5.984076e-01
<VARIANCE> 39
 4.285983e+01 5.703889e+01 4.631758e+01 6.056134e+01 3.737960e+01 5.813026e+01 4.941677e+01 3.849299e+01 3.733962e+01 3.086840e+01 3.407408e+01 4.212101e+01 1.889999e+02 3.916471e+00 5.308633e+00 3.566252e+00 5.632916e+00 3.439379e+00 5.413650e+00 3.549049e+00 3.717327e+00 3.567636e+00 2.904929e+00 3.301096e+00 3.925650e+00 2.152221e+01 6.651644e-01 7.395527e-01 5.842060e-01 9.946589e-01 6.678997e-01 9.721912e-01 6.362538e-01 6.752920e-01 6.570088e-01 5.552168e-01 6.432560e-01 6.915896e-01 2.662516e+00
<GCONST> 1.383530e+02
<STATE> 4
<MEAN> 39
 -6.222898e+00 -2.787918e+00 -3.436573e+00 -6.091987e+00 -5.634750e+00 -1.641022e+00 -7.324596e+00 -4.181814e+00 -3.061842e+00 -2.390934e+00 -1.981673e+00 -5.592237e+00 4.856617e+01 2.339013e-01 -6.904901e-01 -1.027175e-01 -4.380640e-01 -2.411290e-01 1.253047e-01 -2.729991e-01 1.688992e-01 2.459823e-02 -2.822374e-02 1.903317e-01 -1.533078e-01 1.808779e+00 1.234280e-01 -8.724916e-03 1.116468e-01 -6.292146e-02 -8.428909e-02 3.051021e-02 -6.495564e-02 2.244634e-02 -3.379680e-02 -3.912749e-03 4.713403e-03 -3.611664e-02 1.831071e-01
<VARIANCE> 39
 4.542277e+01 5.690286e+01 4.073503e+01 5.905618e+01 3.432224e+01 5.585303e+01 4.628098e+01 3.574097e+01 3.420579e+01 2.806647e+01 3.056704e+01 4.300128e+01 2.313949e+02 3.491263e+00 4.288215e+00 3.240515e+00 5.047003e+00 3.381204e+00 4.571960e+00 3.299786e+00 3.424755e+00 3.249930e+00 2.677584e+00 2.987562e+00 3.424993e+00 1.519528e+01 6.015767e-01 6.462999e-01 5.088241e-01 9.293926e-01 6.084158e-01 8.765757e-01 5.869892e-01 6.054724e-01 5.880066e-01 5.008582e-01 5.789769e-01 6.018487e-01 2.184716e+00
<GCONST> 1.348038e+02
<TRANSP> 5
 0.000000e+00 1.000000e+00 0.000000e+00 0.000000e+00 0.000000e+00
 0.000000e+00 6.099274e-01 3.900726e-01 0.000000e+00 0.000000e+00
 0.000000e+00 0.000000e+00 6.241645e-01 3.758355e-01 0.000000e+00
 0.000000e+00 0.000000e+00 0.000000e+00 7.285071e-01 2.714929e-01
 0.000000e+00 0.000000e+00 0.000000e+00 0.000000e+00 0.000000e+00
<ENDHMM>
~h "q"
<BEGINHMM>
<NUMSTATES> 5
<STATE> 2
<MEAN> 39
 -1.575387e+01 1.530680e+00 9.691567e-01 -4.252368e+00 -7.546847e+00 -8.234330e+00 -2.082669e+00 -1.149133e+00 -9.057240e-02 -6.250623e+00 2.785558e+00 -2.605973e+00 5.874889e+01 -9.803785e-01 2.723290e-01 9.222145e-02 4.425427e-01 1.838519e-01 -2.782481e-01 2.098329e-01 -2.090935e-01 -2.948141e-01 -3.086487e-01 5.325754e-01 3.004999e-01 1.292980e-01 1.729754e-01 -2.354600e-01 8.763348e-02 -5.625399e-02 -2.162653e-01 7.831376e-02 -1.394525e-01 -4.940401e-02 -4.800430e-02 -7.646634e-02 6.409436e-02 -1.364987e-01 1.644534e-01
<VARIANCE> 39
 1.801878e+02 1.013467e+02 6.970987e+01 1.598271e+01 9.198157e+01 2.689661e+01 4.557353e+01 2.881121e+01 2.842445e+01 2.373452e+01 3.768124e+01 2.752457e+01 3.747900e+01 1.415252e+01 8.162986e+00 6.916946e+00 2.082786e+00 8.223455e+00 3.281592e+00 3.917571e+00 3.690988e+00 3.169600e+00 3.464209e+00 4.270242e+00 4.215137e+00 4.630332e+00 1.658586e+00 1.073637e+00 9.531257e-01 3.235318e-01 1.088902e+00 4.952350e-01 7.408990e-01 6.182252e-01 5.517457e-01 7.280023e-01 8.278126e-01 6.753780e-01 9.298286e-01
<GCONST> 1.372203e+02
<STATE> 3
<MEAN> 39
 -9.736548e+00 -2.006970e+00 1.087373e+01 -2.751291e+00 -1.520191e+01 -5.914661e+00 -7.320249e+00 -5.438395e+00 -3.575156e+00 -9.544269e+00 7.519554e+00 -4.655276e+00 5.889319e+01 1.997293e-01 -2.982229e-01 5.449303e-01 -4.058683e-02 -4.745921e-01 -1.134245e-01 -2.981083e-01 -4.728581e-01 -5.720529e-02 -7.196292e-02 2.298621e-01 2.579268e-02 7.778058e-02 -6.207507e-02 1.057532e-01 -1.192940e-01 -2.885013e-02 1.181559e-01 3.186019e-02 5.265059e-02 8.506863e-04 -9.008031e-03 1.054172e-01 -1.203854e-01 2.029977e-02 -1.596471e-01
<VARIANCE> 39
 7.076950e+01 3.762725e+01 7.568996e+01 1.969638e+01 1.042767e+02 2.971587e+01 4.998480e+01 4.831288e+01 3.283245e+01 3.746557e+01 5.850216e+01 1.963857e+01 7.256989e+01 6.592466e+00 3.765577e+00 3.411508e+00 2.466452e+00 1.077741e+01 2.941957e+00 5.059373e+00 5.306247e+00 4.068497e+00 4.665065e+00 8.268821e+00 3.181688e+00 9.935533e+00 8.713561e-01 7.419932e-01 4.819838e-01 5.234967e-01 2.052005e+00 5.259827e-01 1.091507e+00 9.457028e-01 8.917322e-01 8.801070e-01 1.762865e+00 5.720654e-01 1.909373e+00
<GCONST> 1.404511e+02
<STATE> 4
<MEAN> 39
 -1.035805e+01 -8.665957e-01 6.540790e+00 -1.885947e+00 -1.103766e+01 -8.765563e+00 -7.990669e+00 -6.100283e+00 -2.061124e+00 -5.503351e+00 2.003455e+00 -2.193697e+00 5.451091e+01 1.672860e-02 1.395698e-01 -3.552198e-01 -3.452351e-02 2.367117e-01 5.019063e-02 1.053470e-01 1.707122e-01 -7.396344e-02 6.284665e-02 -1.570589e-01 9.369064e-02 -1.598203e-01 1.601136e-02 -1.258345e-02 -2.012592e-02 -2.435956e-02 9.292445e-03 6.859781e-02 4.215072e-03 4.181883e-02 -7.292940e-04 -5.141247e-03 4.777632e-03 -2.951581e-03 4.775933e-02
<VARIANCE> 39
 5.055244e+01 3.426243e+01 9.247744e+01 3.219201e+01 9.305465e+01 5.163958e+01 5.582714e+01 3.100440e+01 3.367032e+01 3.912358e+01 4.406550e+01 1.757087e+01 1.300643e+02 4.002949e+00 2.810160e+00 6.327604e+00 3.199185e+00 8.041020e+00 3.345512e+00 3.623268e+00 2.269390e+00 3.047038e+00 4.321334e+00 4.717160e+00 2.097334e+00 6.227801e+00 5.742710e-01 5.117196e-01 9.538868e-01 6.178241e-01 1.292232e+00 6.934056e-01 6.157769e-01 3.707014e-01 5.469754e-01 8.211799e-01 8.265254e-01 3.940283e-01 8.697816e-01
<GCONST> 1.338938e+02
<TRANSP> 5
 0.000000e+00 1.000000e+00 0.000000e+00 0.000000e+00 0.000000e+00
 0.000000e+00 8.830284e-01 1.169716e-01 0.000000e+00 0.000000e+00
 0.000000e+00 0.000000e+00 9.012535e-01 9.874646e-02 0.000000e+00
 0.000000e+00 0.000000e+00 0.000000e+00 9.678012e-01 3.219881e-02
 0.000000e+00 0.000000e+00 0.000000e+00 0.000000e+00 0.000000e+00
<ENDHMM>
~h "r"
<BEGINHMM>
<NUMSTATES> 5
<STATE> 2
<MEAN> 39
 -1.244153e+00 -7.546364e+00 -2.629779e+00 -5.182078e+00 -9.132580e+00 -3.390917e+00 -1.226306e+01 -1.759706e+00 8.114185e-01 -1.629153e+00 -1.288326e+00 -6.735665e+00 6.412431e+01 1.772143e-01 -8.145817e-02 3.367800e-03 4.358005e-01 -1.921762e-01 -8.445717e-02 -2.546058e-01 2.258061e-02 1.779030e-01 2.876808e-03 7.741327e-02 9.044991e-02 -1.521894e-01 -6.703831e-02 6.038283e-02 9.954294e-02 -8.908951e-02 8.804745e-03 4.679873e-02 6.585418e-02 2.334344e-03 -1.624500e-01 -4.042792e-02 1.629050e-02 -1.861879e-03 -7.686155e-02
<VARIANCE> 39
 3.615653e+01 5.793820e+01 6.955809e+01 6.424580e+01 6.315712e+01 5.612242e+01 8.455098e+01 7.507834e+01 7.638708e+01 5.754192e+01 5.206595e+01 4.516956e+01 1.024433e+02 2.663243e+00 3.400899e+00 3.426702e+00 4.832870e+00 4.431219e+00 4.144494e+00 4.538286e+00 5.115340e+00 4.798114e+00 4.144721e+00 3.818017e+00 3.406211e+00 4.930437e+00 4.733602e-01 5.274664e-01 5.176925e-01 8.610860e-01 7.790100e-01 7.122248e-01 8.323732e-01 9.205704e-01 8.416239e-01 7.773429e-01 7.104781e-01 6.072183e-01 7.083865e-01
<GCONST> 1.389951e+02
<STATE> 3
<MEAN> 39
 -1.023259e+00 -7.645739e+00 -2.473846e+00 -4.548914e+00 -9.447072e+00 -3.459838e+00 -1.259888e+01 -1.633068e+00 7.998931e-01 -1.743520e+00 -1.144010e+00 -6.596753e+00 6.366788e+01 2.629374e-02 5.590179e-02 2.184595e-01 1.613586e-01 -1.045652e-01 -8.774608e-03 -3.781534e-02 5.749944e-02 -2.446691e-01 -1.034177e-01 6.411052e-02 7.783817e-02 -2.742867e-01 -8.184632e-02 6.927698e-02 9.921927e-02 -1.401609e-01 3.743367e-02 4.512932e-02 9.261006e-02 -3.990277e-04 -1.844522e-01 -2.833219e-02 -2.675778e-03 -1.151128e-02 -3.121639e-02
<VARIANCE> 39
 3.689529e+01 5.713173e+01 7.421026e+01 6.180189e+01 6.520512e+01 5.808768e+01 8.630116e+01 7.430957e+01 7.709863e+01 5.908439e+01 5.160819e+01 4.552957e+01 9.860542e+01 2.591660e+00 3.439672e+00 3.519275e+00 4.459861e+00 4.558074e+00 4.060008e+00 4.584355e+00 5.024947e+00 4.894339e+00 4.176850e+00 3.872071e+00 3.418493e+00 4.552670e+00 4.576747e-01 5.242674e-01 5.170783e-01 7.925646e-01 8.088169e-01 7.191511e-01 8.356864e-01 9.092824e-01 8.673098e-01 7.928585e-01 7.209658e-01 6.117964e-01 6.317425e-01
<GCONST> 1.388687e+02
<STATE> 4
<MEAN> 39
 -1.317778e+00 -7.274774e+00 -1.999553e+00 -4.576663e+00 -9.057195e+00 -3.453769e+00 -1.219452e+01 -1.240407e+00 -3.557448e-01 -2.106520e+00 -1.422284e+00 -6.462998e+00 6.214903e+01 -1.322953e-01 2.230403e-01 3.427816e-01 -9.012992e-02 -1.723706e-02 5.479210e-02 1.385092e-01 -3.328923e-02 -5.070571e-01 -1.259796e-01 3.433014e-02 7.440983e-02 -3.448889e-01 -7.163040e-02 5.995681e-02 5.858505e-02 -8.849832e-02 1.015933e-02 3.533265e-02 5.194365e-02 -3.650078e-02 -7.531409e-02 7.965390e-03 2.659691e-03 -8.010477e-03 5.823531e-03
<VARIANCE> 39
 4.065958e+01 6.349435e+01 7.986305e+01 5.907483e+01 6.862682e+01 6.147409e+01 8.403062e+01 7.168121e+01 7.065050e+01 5.488006e+01 5.164864e+01 4.594617e+01 1.252022e+02 2.277264e+00 2.996736e+00 3.204783e+00 3.497505e+00 4.147983e+00 3.589066e+00 4.041361e+00 4.358633e+00 4.327207e+00 3.623846e+00 3.515374e+00 2.914326e+00 3.717872e+00 3.922922e-01 4.681758e-01 4.590077e-01 6.304559e-01 7.132887e-01 6.454579e-01 7.314423e-01 7.744196e-01 7.551588e-01 6.795769e-01 6.357071e-01 5.338353e-01 5.251204e-01
<GCONST> 1.355362e+02
<TRANSP> 5
 0.000000e+00 1.000000e+00 0.000000e+00 0.000000e+00 0.000000e+00
 0.000000e+00 5.385047e-01 4.614954e-01 0.000000e+00 0.000000e+00
 0.000000e+00 0.000000e+00 5.333506e-01 4.666494e-01 0.000000e+00
 0.000000e+00 0.000000e+00 0.000000e+00 6.244524e-01 3.755476e-01
 0.000000e+00 0.000000e+00 0.000000e+00 0.000000e+00 0.000000e+00
<ENDHMM>
~h "s"
<BEGINHMM>
<NUMSTATES> 5
<STATE> 2
<MEAN> 39
 -1.642703e+01 3.335226e+00 -2.399096e+00 -3.110867e+00 -1.782124e+00 -6.354432e+00 -5.190060e+00 -1.815880e+00 -1.971845e+00 -2.348653e+00 -2.475143e+00 -1.651009e+00 6.036962e+01 -2.763266e+00 1.064326e+00 -8.854440e-01 4.470855e-01 8.002113e-01 -1.183495e-01 8.160672e-01 2.489322e-01 2.554391e-01 -2.291515e-01 3.124096e-01 5.317262e-01 -3.484005e-01 8.604015e-02 -3.028717e-01 -2.406870e-02 -1.817134e-01 -2.573174e-01 1.294971e-01 -1.816691e-01 -2.774333e-02 -4.164607e-02 9.678970e-03 9.657406e-02 -1.507517e-01 4.995825e-02
<VARIANCE> 39
 1.258183e+02 5.183235e+01 6.124973e+01 4.353793e+01 4.967788e+01 4.513244e+01 7.100720e+01 4.325422e+01 4.591056e+01 3.774472e+01 4.100843e+01 2.925245e+01 9.741190e+01 8.321755e+00 6.083602e+00 3.980268e+00 3.718608e+00 4.916231e+00 3.968970e+00 5.045836e+00 4.263854e+00 3.699405e+00 3.177998e+00 3.244880e+00 2.655614e+00 2.750182e+00 1.413691e+00 7.928258e-01 5.937231e-01 5.623717e-01 7.210860e-01 6.900077e-01 8.410046e-01 6.972077e-01 5.983556e-01 5.829919e-01 5.640919e-01 4.659863e-01 3.634560e-01
<GCONST> 1.358926e+02
<STATE> 3
<MEAN> 39
 -2.261447e+01 4.093314e+00 -4.847561e+00 -3.059230e+00 -1.242910e+00 -6.358646e+00 -4.345735e+00 -1.492464e+00 -1.461585e+00 -2.726206e+00 -1.362698e+00 -9.712773e-01 5.960592e+01 -4.650560e-01 -1.772698e-01 -2.868495e-01 -1.596916e-01 -1.683091e-01 6.781993e-03 -1.360068e-01 -6.963762e-02 7.517303e-02 -3.803787e-02 1.597708e-01 -3.912636e-02 -9.030182e-02 6.876785e-01 -2.670166e-01 2.244561e-01 -1.410869e-01 -2.157288e-01 6.091017e-02 -2.435486e-01 -7.730826e-02 -5.266378e-02 4.836297e-02 -4.247162e-02 -1.571124e-01 9.923735e-02
<VARIANCE> 39
 1.011215e+02 4.017431e+01 5.391181e+01 3.953069e+01 4.100631e+01 4.357331e+01 6.104123e+01 3.753836e+01 3.742739e+01 3.166579e+01 3.135491e+01 2.547562e+01 7.111088e+01 1.371534e+01 4.160955e+00 4.215946e+00 3.028351e+00 3.668568e+00 3.266216e+00 4.617840e+00 3.605046e+00 3.017904e+00 2.619696e+00 2.663068e+00 2.539855e+00 2.970391e+00 1.185037e+00 6.330796e-01 5.851380e-01 5.220693e-01 6.162638e-01 6.166535e-01 7.890910e-01 6.669148e-01 5.525031e-01 5.187274e-01 4.910287e-01 4.480073e-01 3.898256e-01
<GCONST> 1.310674e+02
<STATE> 4
<MEAN> 39
 -2.026971e+01 1.880339e+00 -4.884125e+00 -3.608891e+00 -2.324478e+00 -6.076849e+00 -5.385320e+00 -1.833800e+00 -1.750984e+00 -2.625784e+00 -1.466882e+00 -1.354829e+00 5.608592e+01 1.550031e+00 -5.027847e-01 5.581307e-01 -3.390478e-01 -5.260949e-01 1.306494e-01 -6.461917e-01 -2.476792e-01 -1.111491e-01 5.863680e-02 -2.334882e-02 -4.199597e-01 2.382931e-01 2.718587e-01 -6.916130e-02 1.432582e-01 -6.820344e-02 -7.666947e-02 8.464014e-02 -9.298936e-02 -4.381188e-03 -5.795409e-02 1.054118e-02 2.959460e-02 -6.919668e-02 9.334952e-02
<VARIANCE> 39
 1.173757e+02 4.430136e+01 5.653652e+01 4.091317e+01 4.004703e+01 4.238097e+01 6.216461e+01 3.881299e+01 3.688484e+01 3.245841e+01 3.046844e+01 2.761847e+01 1.193464e+02 9.493694e+00 3.061929e+00 4.073081e+00 2.931700e+00 3.063874e+00 3.120160e+00 4.351679e+00 3.485267e+00 3.008467e+00 2.595655e+00 2.484963e+00 2.482851e+00 3.454132e+00 1.179432e+00 4.637779e-01 5.386772e-01 4.720121e-01 4.915250e-01 5.478377e-01 7.481585e-01 5.952522e-01 5.107712e-01 4.856245e-01 4.530037e-01 4.243765e-01 4.335410e-01
<GCONST> 1.297785e+02
<TRANSP> 5
 0.000000e+00 1.000000e+00 0.000000e+00 0.000000e+00 0.000000e+00
 0.000000e+00 7.426084e-01 2.573916e-01 0.000000e+00 0.000000e+00
 0.000000e+00 0.000000e+00 7.458535e-01 2.541465e-01 0.000000e+00
 0.000000e+00 0.000000e+00 0.000000e+00 8.606938e-01 1.393062e-01
 0.000000e+00 0.000000e+00 0.000000e+00 0.000000e+00 0.000000e+00
<ENDHMM>
~h "t"
<BEGINHMM>
<NUMSTATES> 5
<STATE> 2
<MEAN> 39
 -5.838888e+00 -2.003841e-01 -8.533847e-01 -4.679708e+00 -5.899667e+00 -4.832092e+00 -8.455985e+00 -4.173102e+00 -2.001765e+00 -1.407531e+00 -3.330583e+00 -6.129550e+00 4.934517e+01 -5.190666e-01 -1.054562e-01 -2.711091e-01 -1.042313e-02 2.612379e-01 -1.508928e-01 1.926882e-01 8.243138e-02 1.413840e-01 -1.328762e-01 -2.154779e-02 2.009091e-01 -4.839623e-01 -8.019619e-03 -3.021331e-01 -3.033847e-02 -2.103772e-01 -8.996820e-02 5.835086e-02 -8.926392e-02 5.963651e-02 1.208135e-02 -1.674436e-02 6.878573e-02 -3.865837e-02 7.045703e-01
<VARIANCE> 39
 4.508101e+01 5.536212e+01 5.937099e+01 5.319839e+01 4.548873e+01 4.631046e+01 6.286531e+01 4.681638e+01 5.174502e+01 3.962093e+01 4.383612e+01 4.203789e+01 1.711891e+02 3.616192e+00 5.517917e+00 3.525026e+00 4.255431e+00 3.867333e+00 3.809680e+00 4.318311e+00 3.953237e+00 4.002902e+00 3.277641e+00 3.283237e+00 3.350827e+00 1.966535e+01 6.851937e-01 8.648475e-01 6.092365e-01 7.390585e-01 7.319459e-01 7.704098e-01 8.421391e-01 7.509685e-01 7.445998e-01 6.540465e-01 6.286715e-01 6.777374e-01 2.729324e+00
<GCONST> 1.397442e+02
<STATE> 3
<MEAN> 39
 -7.249295e+00 -1.748867e+00 -1.730165e+00 -5.596851e+00 -5.662085e+00 -5.092054e+00 -8.272526e+00 -3.678891e+00 -1.527546e+00 -1.732073e+00 -3.140106e+00 -5.789851e+00 5.100723e+01 -2.149301e-01 -7.794726e-01 -2.444569e-01 -5.889660e-01 -3.152924e-02 -6.531622e-03 -1.883349e-01 2.277748e-01 1.211966e-01 -8.957447e-02 1.396995e-01 -6.222028e-02 1.726127e+00 2.388923e-01 -9.724429e-02 9.622377e-02 -1.322280e-01 -1.385318e-01 1.244543e-01 -1.660158e-01 1.510196e-02 -4.826132e-02 2.222310e-02 7.752336e-02 -1.275671e-01 5.374985e-01
<VARIANCE> 39
 4.904339e+01 5.543954e+01 5.350285e+01 5.224131e+01 4.107798e+01 4.562430e+01 6.066764e+01 4.185686e+01 4.689385e+01 3.624652e+01 4.034185e+01 4.268625e+01 1.882941e+02 5.405446e+00 5.519113e+00 4.379307e+00 4.960156e+00 4.149227e+00 4.515816e+00 5.216155e+00 4.435456e+00 4.680742e+00 3.478695e+00 3.696011e+00 4.447499e+00 2.419590e+01 9.801209e-01 9.167368e-01 7.435864e-01 8.362119e-01 8.004574e-01 8.757501e-01 9.993055e-01 8.318624e-01 8.429906e-01 6.841776e-01 6.897858e-01 8.199809e-01 3.285465e+00
<GCONST> 1.432928e+02
<STATE> 4
<MEAN> 39
 -7.486293e+00 -3.209275e+00 -2.153477e+00 -6.569116e+00 -5.877295e+00 -4.832253e+00 -8.431440e+00 -3.057383e+00 -1.464944e+00 -1.948281e+00 -2.920287e+00 -5.898988e+00 5.385249e+01 3.728082e-01 -6.245490e-01 1.569174e-01 -5.822515e-01 -3.026562e-01 2.926111e-01 -4.728465e-01 1.132910e-01 -9.663326e-02 -5.204993e-02 2.876771e-01 -2.478243e-01 2.123463e+00 2.088745e-01 8.881272e-02 1.552782e-01 2.590998e-02 -1.191619e-01 1.513484e-01 -9.180681e-02 -4.287469e-02 -9.778129e-02 9.704575e-03 7.939325e-02 -4.055762e-02 -4.844169e-02
<VARIANCE> 39
 4.964057e+01 5.426247e+01 5.388671e+01 5.450836e+01 4.026951e+01 4.573977e+01 6.332994e+01 4.124895e+01 4.748092e+01 3.544865e+01 3.907357e+01 4.406471e+01 2.226232e+02 5.275834e+00 4.512615e+00 4.704744e+00 4.458590e+00 4.140326e+00 4.556686e+00 5.390562e+00 4.456362e+00 4.568535e+00 3.429103e+00 3.680010e+00 4.106798e+00 1.738326e+01 9.437289e-01 7.542822e-01 7.249117e-01 7.661155e-01 7.391804e-01 8.426660e-01 9.972117e-01 7.717113e-01 7.823901e-01 6.333651e-01 6.411209e-01 7.575458e-01 2.801874e+00
<GCONST> 1.418276e+02
<TRANSP> 5
 0.000000e+00 1.000000e+00 0.000000e+00 0.000000e+00 0.000000e+00
 0.000000e+00 6.499552e-01 3.500448e-01 0.000000e+00 0.000000e+00
 0.000000e+00 0.000000e+00 6.518662e-01 3.481338e-01 0.000000e+00
 0.000000e+00 0.000000e+00 0.000000e+00 6.792207e-01 3.207794e-01
 0.000000e+00 0.000000e+00 0.000000e+00 0.000000e+00 0.000000e+00
<ENDHMM>
~h "u"
<BEGINHMM>
<NUMSTATES> 5
<STATE> 2
<MEAN> 39
 -2.011244e-01 1.607035e+00 -3.325178e-01 -9.038342e+00 -1.056393e+01 1.603893e+00 -1.555540e+01 -7.740832e+00 -6.523711e+00 -3.131992e+00 1.722264e+00 -4.244815e+00 6.047997e+01 7.619482e-01 2.520238e-01 -1.530656e-01 -7.433532e-01 -5.767798e-01 8.703746e-01 -6.968130e-01 -3.787753e-01 -4.377372e-01 -9.310091e-02 7.156090e-01 6.590112e-02 5.807390e-01 -1.482440e-01 -1.120629e-02 5.439891e-02 9.547291e-02 9.516183e-02 -6.573639e-02 2.040161e-01 9.219837e-02 1.037117e-01 1.938938e-02 -1.248888e-01 -3.592844e-02 -2.215592e-01
<VARIANCE> 39
 4.072250e+01 5.166015e+01 5.865004e+01 1.035544e+02 5.763018e+01 7.960011e+01 9.835114e+01 7.912722e+01 7.671359e+01 5.785380e+01 6.242741e+01 4.282270e+01 9.095286e+01 4.026846e+00 3.578514e+00 4.309848e+00 7.109023e+00 5.606299e+00 6.486964e+00 6.893835e+00 6.141532e+00 5.746956e+00 4.677144e+00 5.328622e+00 3.826713e+00 6.217563e+00 6.834496e-01 6.163909e-01 6.940636e-01 1.238494e+00 1.042232e+00 1.186805e+00 1.265463e+00 1.133983e+00 1.018081e+00 8.704278e-01 1.002479e+00 7.118165e-01 9.650864e-01
<GCONST> 1.468581e+02
<STATE> 3
<MEAN> 39
 1.082464e+00 2.011394e+00 -5.293520e-01 -1.019897e+01 -1.155409e+01 3.215868e+00 -1.642864e+01 -8.415737e+00 -7.055811e+00 -3.265524e+00 2.926445e+00 -4.248724e+00 6.123628e+01 1.562193e-01 1.948708e-02 9.318995e-02 1.957708e-02 -2.277598e-03 5.636404e-02 2.167984e-02 -3.239514e-02 7.964222e-02 8.203543e-02 3.830131e-02 -9.755522e-02 -5.440431e-02 -2.281168e-01 -5.026566e-02 7.946092e-02 2.410245e-01 1.844414e-01 -2.722583e-01 2.367511e-01 1.299758e-01 1.633133e-01 2.072761e-02 -2.422036e-01 -3.290097e-02 -1.973388e-01
<VARIANCE> 39
 2.979994e+01 5.276614e+01 5.441090e+01 1.047056e+02 5.606828e+01 7.960606e+01 9.817593e+01 8.768673e+01 8.398189e+01 6.320254e+01 6.376490e+01 4.477373e+01 7.833059e+01 2.741029e+00 3.496677e+00 3.693715e+00 7.750472e+00 5.485339e+00 6.639509e+00 6.646668e+00 6.019148e+00 5.752277e+00 4.790184e+00 5.685688e+00 3.772977e+00 5.730237e+00 4.847084e-01 5.774376e-01 6.236885e-01 1.214891e+00 1.018157e+00 1.136837e+00 1.218696e+00 1.128693e+00 1.038521e+00 9.144704e-01 1.041518e+00 7.381493e-01 7.504672e-01
<GCONST> 1.453833e+02
<STATE> 4
<MEAN> 39
 8.466680e-01 2.388735e+00 1.110923e-01 -9.568614e+00 -1.051946e+01 1.814678e+00 -1.505105e+01 -7.537376e+00 -6.713404e+00 -2.790348e+00 1.599594e+00 -4.542103e+00 5.900829e+01 -4.293580e-01 -1.692530e-01 2.175202e-01 5.596578e-01 3.763258e-01 -5.306261e-01 4.860748e-01 1.717155e-01 4.416295e-01 1.128044e-01 -4.732713e-01 -1.216179e-01 -4.628443e-01 -1.617542e-01 -4.973298e-02 1.280674e-02 6.398536e-02 5.922118e-02 -8.390332e-02 7.658306e-02 7.325441e-02 5.557727e-02 -2.349346e-02 -8.561000e-02 5.680380e-04 -2.702777e-03
<VARIANCE> 39
 3.193054e+01 5.540953e+01 5.537803e+01 9.807959e+01 5.540242e+01 7.343797e+01 9.812868e+01 7.703923e+01 8.206853e+01 5.638888e+01 6.264771e+01 4.354779e+01 1.046844e+02 2.251546e+00 3.074754e+00 3.086534e+00 5.347982e+00 4.370456e+00 4.694057e+00 5.182111e+00 4.649730e+00 4.682549e+00 3.863680e+00 4.426475e+00 3.408082e+00 4.451506e+00 3.612142e-01 4.871392e-01 5.066359e-01 8.940825e-01 7.904521e-01 8.249406e-01 9.520883e-01 8.290417e-01 8.217569e-01 7.234209e-01 8.340943e-01 6.047612e-01 6.020920e-01
<GCONST> 1.391382e+02
<TRANSP> 5
 0.000000e+00 1.000000e+00 0.000000e+00 0.000000e+00 0.000000e+00
 0.000000e+00 6.750436e-01 3.249564e-01 0.000000e+00 0.000000e+00
 0.000000e+00 0.000000e+00 6.865525e-01 3.134474e-01 0.000000e+00
 0.000000e+00 0.000000e+00 0.000000e+00 7.196290e-01 2.803710e-01
 0.000000e+00 0.000000e+00 0.000000e+00 0.000000e+00 0.000000e+00
<ENDHMM>
~h "w"
<BEGINHMM>
<NUMSTATES> 5
<STATE> 2
<MEAN> 39
 1.879780e+00 -2.409535e+00 -2.229612e+00 -1.631523e+01 -1.161384e+01 5.606639e+00 -1.311780e+01 -4.096363e+00 -4.960954e+00 -3.110687e+00 4.115228e+00 -6.593560e+00 6.331322e+01 5.073480e-01 2.931524e-01 -1.042899e-01 -1.079458e+00 -4.809544e-01 8.418326e-01 -1.464146e-01 -8.548304e-02 -2.618055e-01 -2.023279e-01 6.709114e-01 1.708925e-01 2.248314e-01 -1.446545e-01 -9.381787e-02 3.649650e-02 1.587686e-01 4.003970e-02 -1.560997e-01 8.622894e-02 6.694485e-02 1.050313e-01 -2.479984e-02 -1.182177e-01 -1.812463e-02 4.397417e-03
<VARIANCE> 39
 3.082154e+01 7.785853e+01 5.747399e+01 9.672482e+01 5.614881e+01 7.386790e+01 8.234397e+01 7.554515e+01 8.499838e+01 5.572924e+01 6.640788e+01 5.724292e+01 9.941878e+01 1.772596e+00 3.881795e+00 2.637530e+00 3.921811e+00 3.951494e+00 3.907777e+00 3.560817e+00 3.605991e+00 4.252590e+00 3.322520e+00 3.986958e+00 3.979863e+00 3.315362e+00 2.831240e-01 4.908418e-01 4.023415e-01 5.752822e-01 6.797518e-01 6.416979e-01 6.466954e-01 6.446753e-01 7.188970e-01 6.349300e-01 7.322291e-01 7.023652e-01 3.491525e-01
<GCONST> 1.349780e+02
<STATE> 3
<MEAN> 39
 2.624104e+00 -2.800556e+00 -2.720315e+00 -1.871015e+01 -1.262749e+01 7.426779e+00 -1.320054e+01 -4.116021e+00 -4.380816e+00 -3.719514e+00 5.598848e+00 -6.903240e+00 6.483118e+01 -3.094896e-02 -3.259504e-01 -1.103206e-01 -2.003171e-01 2.665027e-02 1.574055e-01 4.382731e-02 6.860474e-02 2.152897e-01 1.572044e-02 1.189348e-01 -2.725818e-01 3.524447e-01 -1.314498e-01 -1.258350e-01 2.300034e-02 2.529221e-01 1.245478e-01 -2.054314e-01 4.357572e-02 5.622503e-02 9.975245e-02 4.471507e-02 -1.805933e-01 -1.056855e-01 1.128027e-02
<VARIANCE> 39
 2.548506e+01 7.157412e+01 5.414042e+01 9.020113e+01 5.535597e+01 7.261321e+01 7.672618e+01 7.504231e+01 8.507160e+01 5.604362e+01 6.488272e+01 5.852458e+01 6.933174e+01 1.321674e+00 3.921296e+00 2.140626e+00 3.684153e+00 4.020777e+00 3.729284e+00 2.858701e+00 3.048179e+00 3.694617e+00 3.286768e+00 3.864230e+00 4.263460e+00 2.799420e+00 1.776053e-01 4.390529e-01 3.314801e-01 4.683748e-01 6.117987e-01 5.909662e-01 5.174533e-01 5.806541e-01 6.115962e-01 6.021504e-01 7.136961e-01 6.989532e-01 3.085053e-01
<GCONST> 1.309944e+02
<STATE> 4
<MEAN> 39
 2.101328e+00 -4.192482e+00 -3.173841e+00 -1.849587e+01 -1.087443e+01 6.908371e+00 -1.295719e+01 -2.807780e+00 -4.142143e+00 -3.189725e+00 4.062741e+00 -8.814672e+00 6.486753e+01 -2.685115e-01 -3.912560e-01 -3.966325e-02 5.106709e-01 3.720734e-01 -3.372857e-01 7.950263e-02 6.941788e-02 2.699496e-01 1.211688e-01 -3.763862e-01 -3.297759e-01 8.326719e-02 -3.959800e-02 2.630696e-02 5.193848e-02 1.417330e-01 1.154179e-02 -1.352980e-01 1.127238e-02 3.240140e-02 3.906284e-03 -5.039828e-04 -9.276072e-02 4.836946e-02 -7.150752e-02
<VARIANCE> 39
 2.671866e+01 8.151760e+01 7.450764e+01 9.044238e+01 6.713269e+01 7.296061e+01 6.607922e+01 6.094561e+01 7.648185e+01 5.266321e+01 6.557610e+01 6.209435e+01 7.879774e+01 8.996888e-01 2.822619e+00 1.768723e+00 2.859315e+00 3.189481e+00 3.192805e+00 2.351784e+00 2.675043e+00 2.693395e+00 2.659166e+00 3.220890e+00 3.335280e+00 2.411947e+00 1.215170e-01 3.471629e-01 2.613635e-01 3.768387e-01 4.666326e-01 4.802551e-01 4.052232e-01 4.738947e-01 4.360680e-01 4.727808e-01 5.446168e-01 5.675824e-01 2.570193e-01
<GCONST> 1.251514e+02
<TRANSP> 5
 0.000000e+00 1.000000e+00 0.000000e+00 0.000000e+00 0.000000e+00
 0.000000e+00 7.354079e-01 2.645921e-01 0.000000e+00 0.000000e+00
 0.000000e+00 0.000000e+00 7.423313e-01 2.576687e-01 0.000000e+00
 0.000000e+00 0.000000e+00 0.000000e+00 8.727582e-01 1.272418e-01
 0.000000e+00 0.000000e+00 0.000000e+00 0.000000e+00 0.000000e+00
<ENDHMM>
~h "y"
<BEGINHMM>
<NUMSTATES> 5
<STATE> 2
<MEAN> 39
 -5.252562e+00 -4.822912e+00 9.804055e+00 -8.499266e+00 -1.587080e+01 -6.046333e+00 -1.195406e+01 5.396037e-01 -5.751589e+00 -4.064702e+00 1.795064e+00 -4.723969e+00 6.539817e+01 -1.752560e-01 3.208762e-01 1.049033e+00 -2.821668e-02 -8.933939e-01 -2.831046e-01 -3.126034e-01 -2.256566e-02 -5.564073e-01 9.237648e-02 6.797884e-01 3.948174e-01 1.551883e-01 3.524813e-02 -5.650270e-02 -2.488949e-01 -9.632934e-03 1.848438e-01 1.057804e-01 7.219233e-03 -3.654701e-02 1.130278e-01 1.641113e-02 -1.145298e-01 -9.651528e-02 -5.846609e-04
<VARIANCE> 39
 2.671356e+01 7.036164e+01 1.063605e+02 4.529821e+01 7.652254e+01 4.444478e+01 6.331694e+01 8.330350e+01 7.408597e+01 7.446925e+01 7.089293e+01 3.567439e+01 1.217737e+02 1.017674e+00 3.046591e+00 5.124659e+00 1.867267e+00 3.837010e+00 2.835936e+00 3.432948e+00 4.562595e+00 3.624305e+00 3.277928e+00 3.377366e+00 2.422367e+00 1.917122e+00 1.475961e-01 3.488974e-01 5.586668e-01 3.096882e-01 6.211542e-01 4.999027e-01 5.761194e-01 7.466188e-01 5.312914e-01 5.571555e-01 5.542167e-01 3.852535e-01 2.026949e-01
<GCONST> 1.283167e+02
<STATE> 3
<MEAN> 39
 -5.451835e+00 -4.438116e+00 1.142560e+01 -8.699183e+00 -1.738593e+01 -6.430635e+00 -1.269203e+01 5.572188e-01 -6.606755e+00 -3.758878e+00 2.830687e+00 -4.184025e+00 6.608848e+01 3.964965e-02 -1.795330e-01 -9.048618e-02 -6.657252e-02 -1.360535e-01 -7.634156e-02 7.774730e-03 2.588013e-01 5.109875e-02 1.275555e-02 -2.170465e-02 2.713950e-03 2.551746e-01 7.270679e-02 -1.351117e-01 -3.518415e-01 -4.247059e-03 2.730777e-01 7.843336e-02 9.309652e-02 6.259374e-02 1.824369e-01 -2.525689e-02 -2.351478e-01 -1.322452e-01 -1.760089e-03
<VARIANCE> 39
 2.346354e+01 6.030490e+01 1.038873e+02 4.292602e+01 7.169714e+01 4.202165e+01 6.104041e+01 7.651917e+01 7.373595e+01 7.784064e+01 6.913253e+01 3.454583e+01 1.024791e+02 8.623460e-01 3.090849e+00 5.448481e+00 1.601738e+00 3.811312e+00 2.467821e+00 3.316138e+00 4.634951e+00 3.606889e+00 3.166760e+00 3.585698e+00 2.201340e+00 1.748944e+00 1.191901e-01 3.180165e-01 4.906952e-01 2.701255e-01 5.795763e-01 4.590701e-01 5.424539e-01 7.176470e-01 4.978424e-01 5.469158e-01 5.136212e-01 3.700672e-01 1.770475e-01
<GCONST> 1.257853e+02
<STATE> 4
<MEAN> 39
 -5.753147e+00 -5.233069e+00 8.306614e+00 -8.518377e+00 -1.438815e+01 -5.631683e+00 -1.106268e+01 1.260257e+00 -6.386949e+00 -3.708872e+00 1.294678e-01 -4.349446e+00 6.310275e+01 1.883577e-01 -3.999916e-01 -7.848875e-01 -2.810653e-02 4.631460e-01 1.195193e-01 2.024280e-01 3.275639e-01 4.329149e-01 -8.132349e-02 -4.805747e-01 -2.584647e-01 1.292694e-01 4.172281e-02 -1.516458e-02 -1.254318e-01 1.170564e-02 1.536981e-01 7.400135e-02 4.313678e-05 -4.137588e-02 6.101754e-02 6.399615e-03 -8.672430e-02 -6.655847e-02 -4.863477e-02
<VARIANCE> 39
 2.815698e+01 6.398456e+01 1.224956e+02 4.522303e+01 7.928885e+01 4.323760e+01 6.468060e+01 7.219209e+01 7.816911e+01 6.736668e+01 6.536472e+01 3.841358e+01 1.644600e+02 7.391763e-01 2.218539e+00 3.906429e+00 1.491687e+00 3.313009e+00 2.368621e+00 2.767515e+00 3.519887e+00 2.987763e+00 2.847960e+00 3.098384e+00 2.036969e+00 1.520437e+00 1.095412e-01 2.761611e-01 4.247930e-01 2.523512e-01 4.837912e-01 4.160722e-01 4.715945e-01 5.906861e-01 4.662877e-01 4.789268e-01 4.809788e-01 3.404148e-01 1.600950e-01
<GCONST> 1.231251e+02
<TRANSP> 5
 0.000000e+00 1.000000e+00 0.000000e+00 0.000000e+00 0.000000e+00
 0.000000e+00 6.808349e-01 3.191651e-01 0.000000e+00 0.000000e+00
 0.000000e+00 0.000000e+00 6.860416e-01 3.139584e-01 0.000000e+00
 0.000000e+00 0.000000e+00 0.000000e+00 8.392782e-01 1.607219e-01
 0.000000e+00 0.000000e+00 0.000000e+00 0.000000e+00 0.000000e+00
<ENDHMM>
~h "z"
<BEGINHMM>
<NUMSTATES> 5
<STATE> 2
<MEAN> 39
 -9.013874e+00 5.325459e+00 1.121231e+00 -1.175312e+00 -5.816974e+00 -7.987081e+00 -1.097645e+01 -4.921714e+00 -2.149989e+00 -2.609174e+00 -3.543034e+00 -2.093625e+00 6.031016e+01 -1.024604e+00 1.220327e+00 -3.563051e-01 6.037197e-01 6.991203e-01 -1.954202e-01 5.617277e-01 -9.664071e-02 1.290498e-01 -8.586793e-02 -1.685353e-01 4.379242e-01 -4.619493e-01 3.659839e-02 -2.157273e-01 4.886657e-02 -8.833895e-02 -5.251388e-02 1.198533e-01 -3.312853e-02 8.914469e-02 -1.166412e-02 5.463670e-03 9.046694e-02 -9.296917e-02 3.889046e-02
<VARIANCE> 39
 6.761104e+01 8.208303e+01 7.436668e+01 6.434460e+01 7.857546e+01 5.338105e+01 7.666177e+01 5.257360e+01 4.969109e+01 3.463772e+01 3.992188e+01 2.668403e+01 1.062569e+02 2.504019e+00 3.946105e+00 2.377349e+00 2.603766e+00 3.255415e+00 3.085023e+00 3.507460e+00 3.146029e+00 2.549174e+00 2.302633e+00 2.356561e+00 1.954351e+00 1.494932e+00 3.330025e-01 4.908685e-01 3.674498e-01 3.972566e-01 5.013278e-01 5.290077e-01 5.778081e-01 5.395538e-01 4.474252e-01 4.281151e-01 4.443644e-01 3.583777e-01 1.883979e-01
<GCONST> 1.256360e+02
<STATE> 3
<MEAN> 39
 -1.167812e+01 7.556444e+00 6.194851e-01 2.388978e-01 -4.149442e+00 -8.221123e+00 -9.703945e+00 -4.736032e+00 -2.061065e+00 -2.848844e+00 -3.589983e+00 -1.231292e+00 5.921414e+01 -6.971701e-01 4.643731e-01 -1.267562e-01 3.301426e-01 3.876427e-01 1.177293e-02 3.472277e-01 6.197626e-02 1.132504e-02 -3.869546e-02 5.994259e-02 2.055993e-01 -2.830910e-01 1.680810e-01 -2.930627e-01 9.551567e-02 -1.129592e-01 -1.486826e-01 4.832127e-02 -1.057319e-01 2.341067e-02 -3.764356e-02 5.877282e-03 7.098155e-02 -7.146550e-02 8.923287e-02
<VARIANCE> 39
 6.990926e+01 8.921137e+01 6.483072e+01 6.015311e+01 7.044575e+01 4.826490e+01 7.116814e+01 4.480538e+01 4.210058e+01 3.158374e+01 3.344154e+01 2.405805e+01 1.034856e+02 2.517562e+00 3.254690e+00 1.906811e+00 2.107214e+00 3.078217e+00 2.719686e+00 3.071058e+00 2.642618e+00 2.244619e+00 1.928651e+00 2.048979e+00 1.659636e+00 1.421378e+00 3.396044e-01 4.781158e-01 3.091896e-01 3.569595e-01 4.897055e-01 4.941602e-01 5.290040e-01 4.827950e-01 4.146465e-01 3.818401e-01 3.809464e-01 3.079403e-01 1.876540e-01
<GCONST> 1.216944e+02
<STATE> 4
<MEAN> 39
 -1.233832e+01 3.867782e+00 -9.266537e-03 -1.533210e-01 -4.226211e+00 -6.882977e+00 -9.160577e+00 -3.893155e+00 -3.732050e+00 -3.975799e+00 -3.451757e+00 -1.280515e+00 5.329376e+01 5.591261e-02 -1.993719e-01 1.310177e-01 -6.120542e-02 -1.513251e-01 1.432856e-02 -6.546622e-02 -1.142912e-03 -3.501255e-02 -2.290823e-02 1.268732e-01 -1.669297e-03 2.243142e-02 1.205565e-01 -1.214417e-01 3.243808e-02 -7.684318e-02 -1.033833e-01 1.634813e-02 -7.876077e-02 -3.877251e-03 5.843186e-03 -2.393595e-03 2.370390e-02 -4.107059e-02 7.426748e-02
<VARIANCE> 39
 5.447100e+01 9.839173e+01 6.818570e+01 4.687620e+01 5.980494e+01 4.708256e+01 6.345420e+01 4.557587e+01 3.694836e+01 3.083694e+01 3.628183e+01 2.393900e+01 1.774282e+02 2.011954e+00 2.421252e+00 1.796072e+00 1.924185e+00 2.892010e+00 2.276776e+00 2.766039e+00 2.338556e+00 2.139924e+00 1.749564e+00 1.880597e+00 1.511705e+00 1.545710e+00 2.753465e-01 3.496318e-01 2.788486e-01 3.204798e-01 4.282990e-01 4.263939e-01 4.894761e-01 4.094197e-01 3.961629e-01 3.319647e-01 3.382043e-01 2.801268e-01 1.819830e-01
<GCONST> 1.184530e+02
<TRANSP> 5
 0.000000e+00 1.000000e+00 0.000000e+00 0.000000e+00 0.000000e+00
 0.000000e+00 6.605069e-01 3.394931e-01 0.000000e+00 0.000000e+00
 0.000000e+00 0.000000e+00 6.802931e-01 3.197068e-01 0.000000e+00
 0.000000e+00 0.000000e+00 0.000000e+00 9.231346e-01 7.686538e-02
 0.000000e+00 0.000000e+00 0.000000e+00 0.000000e+00 0.000000e+00
<ENDHMM>
~h "ai"
<BEGINHMM>
<NUMSTATES> 5
<STATE> 2
<MEAN> 39
 -3.134193e+00 -8.579872e+00 3.001446e+00 -8.883218e+00 -1.367445e+01 -6.340409e+00 -1.047989e+01 2.635454e+00 -1.858971e+00 -2.935146e+00 2.894963e-01 -6.696979e+00 6.826479e+01 -1.610348e-01 -8.901603e-02 9.431893e-01 -3.449494e-02 -1.065838e+00 -5.163093e-01 1.668701e-02 5.421602e-01 -3.347443e-01 7.591360e-02 4.319411e-01 3.407910e-01 3.461236e-01 -8.313733e-02 2.269342e-01 6.112622e-02 7.037469e-02 4.353627e-02 6.564276e-02 -2.211083e-02 -1.854611e-01 -1.462923e-01 5.988416e-02 5.722334e-02 5.971127e-02 -2.489148e-01
<VARIANCE> 39
 2.566958e+01 6.736319e+01 8.588567e+01 5.180202e+01 8.105247e+01 5.288119e+01 7.755026e+01 8.213133e+01 8.346545e+01 6.686419e+01 6.571156e+01 4.443849e+01 8.412578e+01 2.422938e+00 4.369685e+00 3.777249e+00 3.146926e+00 4.702991e+00 3.909819e+00 3.944794e+00 6.378831e+00 4.908008e+00 3.558955e+00 4.321850e+00 3.658177e+00 5.194805e+00 4.765777e-01 5.642860e-01 5.150321e-01 5.120040e-01 7.755262e-01 6.543980e-01 7.365676e-01 9.731783e-01 8.334447e-01 6.425196e-01 8.195517e-01 7.032644e-01 6.924966e-01
<GCONST> 1.387346e+02
<STATE> 3
<MEAN> 39
 -3.997416e+00 -7.436677e+00 5.992292e+00 -8.647749e+00 -1.634168e+01 -7.357023e+00 -1.070201e+01 2.857842e+00 -3.621677e+00 -2.266235e+00 1.759357e+00 -5.511487e+00 6.768485e+01 -1.937281e-01 4.662886e-01 7.756057e-01 1.251736e-01 -5.317981e-01 -1.898357e-01 -3.619917e-02 -1.374922e-01 -5.398463e-01 2.048590e-01 3.051190e-01 2.828424e-01 -3.572345e-01 -4.879031e-03 1.526399e-01 -1.118946e-01 6.370348e-02 2.240513e-01 1.135894e-01 2.081326e-02 -1.999352e-01 -1.136829e-02 1.043685e-02 -8.907774e-02 -3.383932e-02 -2.122952e-01
<VARIANCE> 39
 2.698036e+01 7.140471e+01 7.873920e+01 4.819189e+01 7.881789e+01 4.868721e+01 7.332967e+01 8.255159e+01 7.874940e+01 6.615958e+01 6.607917e+01 4.101017e+01 8.869276e+01 1.857607e+00 3.819322e+00 4.025843e+00 2.857270e+00 5.537189e+00 3.543331e+00 3.983859e+00 5.864437e+00 4.636406e+00 3.339243e+00 4.160554e+00 3.022386e+00 4.344697e+00 3.636634e-01 5.088668e-01 5.061377e-01 4.663989e-01 7.822593e-01 6.091030e-01 7.257131e-01 9.116217e-01 7.957622e-01 6.144946e-01 7.523140e-01 5.656043e-01 5.306690e-01
<GCONST> 1.361724e+02
<STATE> 4
<MEAN> 39
 -4.254447e+00 -5.233340e+00 8.338786e+00 -8.399649e+00 -1.730904e+01 -7.806251e+00 -1.136293e+01 1.642299e+00 -5.827783e+00 -1.427474e+00 2.022280e+00 -5.174450e+00 6.596905e+01 -7.338755e-02 6.127722e-01 1.063741e-01 3.211497e-01 2.952769e-01 8.809656e-02 1.295425e-01 -5.366017e-01 -2.539884e-01 6.499549e-02 -1.414540e-01 1.120696e-01 -8.364453e-01 -1.610905e-02 1.526606e-02 -1.982227e-01 4.149285e-02 2.061037e-01 8.457145e-02 6.434530e-02 -5.088154e-02 1.007772e-01 -5.757988e-02 -9.415594e-02 -2.672798e-02 -7.901423e-02
<VARIANCE> 39
 2.822106e+01 7.216734e+01 6.930338e+01 4.813968e+01 6.913861e+01 5.265738e+01 6.619750e+01 8.772102e+01 6.289949e+01 5.503504e+01 5.736888e+01 4.115500e+01 9.052391e+01 1.853303e+00 3.242944e+00 3.894425e+00 2.643106e+00 4.952964e+00 3.216117e+00 3.692074e+00 4.600913e+00 3.767708e+00 2.967426e+00 3.499816e+00 2.542333e+00 3.708505e+00 3.143025e-01 4.210899e-01 4.498704e-01 4.299565e-01 6.951828e-01 5.374513e-01 6.457785e-01 7.432495e-01 6.125735e-01 5.204151e-01 5.932505e-01 4.417886e-01 4.639965e-01
<GCONST> 1.316998e+02
<TRANSP> 5
 0.000000e+00 1.000000e+00 0.000000e+00 0.000000e+00 0.000000e+00
 0.000000e+00 6.602202e-01 3.397798e-01 0.000000e+00 0.000000e+00
 0.000000e+00 0.000000e+00 6.701116e-01 3.298884e-01 0.000000e+00
 0.000000e+00 0.000000e+00 0.000000e+00 8.028129e-01 1.971870e-01
 0.000000e+00 0.000000e+00 0.000000e+00 0.000000e+00 0.000000e+00
<ENDHMM>
~h "au"
<BEGINHMM>
<NUMSTATES> 5
<STATE> 2
<MEAN> 39
 -1.387179e+00 -6.688397e+00 -5.684925e+00 -1.548531e+01 -6.408769e+00 3.999234e+00 -1.213616e+01 -2.810647e+00 -1.713028e+00 -5.238595e-01 -4.761354e-02 -8.411843e+00 6.341790e+01 1.498267e-01 3.541486e-01 -7.852786e-02 -5.448288e-01 1.247871e-02 3.151686e-01 -6.161331e-02 -1.499893e-01 -2.762105e-01 -1.456566e-01 4.474414e-01 2.798636e-01 -3.103693e-01 -3.650721e-02 1.349254e-01 5.548375e-02 1.299241e-01 -8.649471e-02 -1.104584e-01 3.071929e-02 -2.934656e-02 -5.883835e-02 -4.640657e-02 7.886477e-03 1.603096e-01 -1.306049e-01
<VARIANCE> 39
 4.244960e+01 5.474314e+01 3.885921e+01 1.047877e+02 3.538728e+01 5.605482e+01 7.811855e+01 4.746239e+01 4.876261e+01 4.889112e+01 5.125323e+01 6.301462e+01 1.989765e+02 7.029523e-01 2.130204e+00 1.072176e+00 2.294325e+00 1.897952e+00 2.460885e+00 1.756895e+00 2.666890e+00 2.149902e+00 2.060689e+00 2.645569e+00 3.168341e+00 1.124163e+00 1.542190e-01 3.192835e-01 1.976005e-01 3.895627e-01 3.275476e-01 3.965677e-01 3.422903e-01 4.797142e-01 3.901504e-01 3.719857e-01 4.751720e-01 5.706741e-01 1.950150e-01
<GCONST> 1.185292e+02
<STATE> 3
<MEAN> 39
 -2.703128e-01 -4.865964e+00 -5.932415e+00 -1.770459e+01 -7.002522e+00 5.029190e+00 -1.300729e+01 -3.312917e+00 -2.436734e+00 -1.262511e+00 1.286037e+00 -7.243412e+00 6.300749e+01 1.652390e-01 5.633397e-01 7.242798e-02 -1.865017e-01 -2.094774e-01 3.654196e-02 -2.112487e-02 -6.391968e-02 -2.748092e-01 -2.276731e-01 2.115033e-01 4.833774e-01 -5.713180e-01 -7.452292e-03 2.891010e-02 4.788600e-02 1.661484e-01 -3.081679e-02 -1.119661e-01 1.499760e-03 1.710468e-03 6.615652e-03 2.402385e-03 -9.521187e-02 2.065894e-02 -7.575381e-02
<VARIANCE> 39
 4.333744e+01 5.933562e+01 3.923019e+01 1.095230e+02 3.936719e+01 5.390274e+01 8.214989e+01 4.459403e+01 5.003527e+01 4.986570e+01 5.620506e+01 6.281196e+01 1.732548e+02 6.725641e-01 2.188050e+00 1.097308e+00 2.670907e+00 2.004889e+00 2.167180e+00 1.868103e+00 2.510309e+00 2.383631e+00 2.146002e+00 2.768354e+00 3.280775e+00 1.314728e+00 9.662864e-02 3.026947e-01 1.878774e-01 4.508789e-01 3.496284e-01 3.553435e-01 3.425448e-01 4.451050e-01 4.087668e-01 3.965955e-01 4.664945e-01 5.600645e-01 1.705197e-01
<GCONST> 1.185981e+02
<STATE> 4
<MEAN> 39
 -4.822941e+00 -3.103986e+00 -4.729831e+00 -1.055202e+01 -5.160023e+00 8.224900e-01 -9.018636e+00 -2.130250e+00 -2.080572e+00 -2.400856e+00 -1.946939e+00 -3.586443e+00 5.009737e+01 5.106347e-03 1.962709e-01 9.132844e-02 1.777913e-01 -4.688611e-02 -1.436451e-01 -6.611666e-04 -7.609197e-02 -9.080952e-02 2.277557e-02 -5.707544e-02 1.239065e-01 -3.348869e-01 -2.038387e-02 -2.411458e-02 1.691119e-02 8.724286e-02 2.191719e-02 -4.066535e-02 2.560859e-03 -1.239531e-02 7.235502e-03 1.771365e-02 -3.805388e-02 -2.152050e-02 5.894597e-03
<VARIANCE> 39
 6.301083e+01 6.037242e+01 2.805608e+01 1.275073e+02 4.144733e+01 5.260696e+01 7.418027e+01 4.060575e+01 4.114911e+01 4.217537e+01 4.489632e+01 4.905779e+01 2.128676e+02 9.958062e-01 2.005375e+00 1.455181e+00 2.504250e+00 2.366507e+00 2.155656e+00 2.352854e+00 2.321494e+00 2.340580e+00 2.408416e+00 2.456229e+00 2.571153e+00 1.709184e+00 1.676081e-01 3.131257e-01 2.658802e-01 4.186452e-01 4.432028e-01 3.713909e-01 4.567640e-01 4.397136e-01 4.381763e-01 4.538812e-01 4.743560e-01 4.642608e-01 2.203529e-01
<GCONST> 1.205458e+02
<TRANSP> 5
 0.000000e+00 1.000000e+00 0.000000e+00 0.000000e+00 0.000000e+00
 0.000000e+00 7.020383e-01 2.979617e-01 0.000000e+00 0.000000e+00
 0.000000e+00 0.000000e+00 7.265277e-01 2.734723e-01 0.000000e+00
 0.000000e+00 0.000000e+00 0.000000e+00 9.338661e-01 6.613392e-02
 0.000000e+00 0.000000e+00 0.000000e+00 0.000000e+00 0.000000e+00
<ENDHMM>
~h "kh"
<BEGINHMM>
<NUMSTATES> 5
<STATE> 2
<MEAN> 39
 -1.219862e+01 -3.907112e+00 -5.287416e+00 -6.705499e+00 -1.398258e+00 -1.385200e+00 -8.061792e+00 -2.454187e+00 -2.477577e+00 -2.415116e+00 -2.896652e+00 -2.530916e+00 5.699558e+01 -8.877465e-01 -1.238874e-01 -3.213518e-01 -1.928552e-02 4.867770e-01 5.465982e-02 4.494314e-02 2.034453e-01 1.169138e-01 4.016247e-02 7.153411e-02 3.247004e-01 -1.721382e-01 1.646661e-01 -7.974591e-03 1.203160e-01 -5.671998e-02 -1.757670e-01 6.371998e-03 -5.376234e-02 -4.764844e-02 -7.412957e-03 7.103418e-03 1.566326e-02 -9.562178e-02 5.085321e-02
<VARIANCE> 39
